20 100
is 0.000501 0.000971 0.003514 0.001977 0.000056 -0.002850 -0.004618 0.004120 0.001329 -0.001159 -0.001769 0.002177 -0.004492 -0.001021 0.000010 -0.000366 0.000335 -0.000283 -0.004761 -0.002340 0.000180 0.000513 -0.004545 0.002220 0.002000 -0.004133 0.004335 0.002198 -0.004989 0.000766 -0.004164 0.003574 0.004441 -0.003004 0.002798 0.001886 -0.004099 -0.001446 0.003277 0.002557 0.000765 -0.000058 0.001759 0.004374 -0.000415 -0.003392 -0.000868 0.002026 0.003460 -0.004448 0.002796 0.000625 -0.000508 -0.004839 0.000934 -0.002175 -0.003054 0.002822 -0.003874 0.004300 -0.003226 0.002170 0.000414 0.002734 0.002707 -0.004407 0.003917 0.001661 -0.002050 0.000909 0.004196 0.002621 0.000591 -0.001149 -0.004381 0.001150 -0.001981 -0.000825 0.003878 -0.004951 0.000445 -0.001413 -0.002481 -0.002589 -0.003842 -0.004813 -0.001204 0.003012 0.001385 -0.002307 0.000845 -0.003516 -0.003286 -0.003948 -0.000086 0.002314 0.000942 0.000536 -0.003004 0.002701
. -0.001639 0.003937 0.001144 -0.002721 -0.000216 -0.003236 -0.004049 0.001568 -0.003530 -0.004853 -0.002742 0.000861 0.002053 -0.000109 0.003087 0.001067 -0.002008 0.004991 0.003919 0.002840 0.000870 0.000177 -0.004552 -0.003326 0.003122 0.001655 -0.004616 0.003149 0.000619 0.003580 -0.000628 -0.001884 -0.004484 -0.000279 -0.000672 0.000034 -0.004118 0.003714 0.003300 -0.002065 0.002476 0.000888 -0.000193 0.003509 -0.000828 0.001900 0.001420 -0.004670 0.000463 0.002450 -0.002591 0.000902 0.004025 0.001073 0.002440 0.000596 0.001251 -0.000572 0.002234 0.004208 -0.003603 0.002403 -0.000826 0.004049 -0.003727 -0.001152 0.000871 -0.000594 0.004076 0.003988 0.002326 0.000796 0.003424 -0.004473 -0.003066 -0.000238 -0.003141 0.003749 0.004042 -0.004458 0.003880 0.000039 0.003319 0.001120 0.000675 0.002472 0.003232 -0.001710 0.002743 0.000318 -0.003025 -0.002425 -0.001568 -0.001920 -0.000472 0.001799 0.003483 0.000968 -0.002128 0.000057
the 0.004956 -0.001642 -0.000721 0.000267 0.003204 -0.001633 -0.003291 -0.004313 -0.001787 -0.003569 -0.002203 0.004465 0.003223 0.002591 -0.002743 0.001922 -0.004396 0.000048 -0.004328 -0.004941 0.001502 0.001791 0.004553 0.001376 -0.003848 0.001577 -0.000806 -0.000398 -0.000516 -0.004045 0.000047 0.002437 0.001365 -0.003933 0.000042 0.000742 -0.001791 0.001936 -0.002145 0.002706 0.004678 -0.002548 0.001196 -0.004777 -0.000530 -0.004571 0.001265 -0.003987 0.000312 -0.000417 -0.004978 0.002093 0.003975 0.003225 0.004715 0.001439 0.000424 -0.002902 0.003028 -0.000415 0.001501 -0.001557 -0.004998 -0.001731 -0.004132 -0.001604 0.001078 0.000337 0.002299 -0.004716 0.003588 -0.002206 0.000668 0.001390 0.003579 -0.000508 0.001648 -0.001319 0.003316 0.002154 -0.003880 -0.000296 0.001262 0.001514 -0.000425 0.002584 0.000210 -0.001357 0.004637 0.000194 -0.002939 -0.003476 -0.004768 -0.004814 0.001607 0.000183 -0.002531 0.001936 -0.004931 -0.001739
advise 0.000853 0.001146 0.002828 0.002842 0.002514 -0.000657 0.002030 0.001301 0.002606 -0.000479 0.002757 -0.002563 0.000153 -0.000842 -0.000285 -0.004547 -0.003019 -0.000715 -0.004382 0.004758 0.002418 -0.004274 0.004699 -0.003452 -0.000277 -0.003577 -0.000771 -0.003541 -0.001224 0.000897 0.004024 -0.004256 0.002556 -0.000004 -0.001694 0.002608 -0.000018 -0.003878 -0.003016 0.004013 0.000029 0.001778 0.003915 -0.004673 0.003716 -0.002627 -0.001529 -0.004969 0.001469 -0.001372 0.002546 0.004378 -0.002312 -0.001278 0.004074 -0.004831 -0.002455 -0.003619 0.002389 0.002722 -0.002384 0.004969 0.004945 -0.003790 -0.001918 0.001342 0.000932 -0.001701 -0.000229 0.000726 -0.002097 0.004903 -0.003210 -0.000546 0.002975 -0.004751 -0.001330 0.002716 0.000635 -0.001477 0.000123 -0.002729 0.002240 0.004251 0.004531 -0.003657 0.001067 -0.004721 0.003473 0.000118 -0.001219 0.000656 -0.002035 -0.003442 -0.003493 0.001724 -0.003466 0.000199 -0.003625 -0.004941
North 0.000715 -0.001716 0.001010 -0.004981 -0.000890 -0.003229 -0.002585 -0.003707 0.002564 0.003914 -0.002608 -0.003938 0.000407 0.004924 0.001076 0.001016 -0.004977 -0.004147 0.003354 -0.004943 0.002570 -0.002836 -0.004153 0.000672 0.002644 0.003776 0.001626 -0.000255 -0.003587 -0.001055 0.000421 0.004322 0.001338 -0.002429 -0.000968 0.004722 0.000344 -0.000313 0.004360 -0.004430 -0.001847 0.004554 -0.004099 0.002472 0.003163 0.000631 0.002296 0.003465 -0.001451 -0.000661 -0.002619 0.001088 -0.004660 0.000700 -0.002754 -0.000504 0.002379 -0.000215 -0.001296 0.002338 0.003123 0.000224 -0.002937 -0.002026 -0.002377 0.004531 0.003132 0.004918 -0.004032 -0.002573 -0.000470 -0.003540 0.000786 -0.001944 -0.002651 -0.004009 0.003860 -0.003928 -0.004640 0.001689 0.004134 0.002630 -0.004628 -0.004407 -0.002874 -0.004375 -0.000064 -0.001939 0.001493 -0.000535 -0.001280 0.000016 -0.001975 0.004915 0.000984 0.000998 -0.004695 -0.002394 0.002322 0.000824
of 0.004275 -0.003754 -0.000623 -0.002396 -0.000051 -0.001042 0.004698 0.000637 -0.000675 -0.002285 0.000417 -0.002270 -0.003525 0.003873 -0.002189 -0.000382 -0.003708 -0.002098 -0.001315 0.002150 -0.004753 0.001455 -0.003266 -0.000356 0.001993 -0.003056 0.001778 -0.000851 -0.000855 0.000742 -0.003992 0.003207 -0.001961 -0.001454 0.000186 0.001586 0.001946 0.003579 0.001990 -0.002139 -0.003148 0.001314 0.001989 -0.004597 -0.003549 -0.000195 0.000410 0.001254 0.003922 -0.000799 0.000985 0.004587 -0.001851 -0.004870 -0.001574 -0.004320 -0.004941 -0.001553 -0.004669 0.001587 0.002933 -0.001241 0.003690 -0.002106 0.002363 -0.004104 -0.000228 0.000863 -0.001276 0.001555 -0.003225 0.003798 0.003738 -0.003799 0.003490 0.000091 -0.000503 0.000411 -0.003411 0.003895 -0.002906 -0.001394 0.004309 -0.002370 -0.000571 -0.002103 -0.001643 -0.004263 0.004120 -0.002011 -0.004353 -0.001759 -0.001659 0.002958 -0.004816 0.001384 0.003223 0.001170 0.002868 0.003526
required 0.000904 0.004889 0.001149 -0.003028 0.003121 -0.003805 0.000692 0.001413 -0.004856 0.002944 -0.002465 -0.003816 0.002153 -0.004605 -0.000278 0.000844 0.004569 -0.000899 0.001343 0.000342 0.000985 -0.003266 -0.000927 0.003526 -0.002508 0.004375 0.001802 0.004755 0.004248 -0.003599 0.003448 -0.000662 0.000753 0.001694 -0.001271 0.002933 -0.001976 -0.003250 -0.004104 -0.001011 -0.001782 0.003284 -0.003069 0.000012 -0.000912 0.001647 0.004750 -0.001233 0.003687 -0.003609 0.002944 0.004466 0.000516 0.004625 -0.003259 -0.002089 0.003860 0.004830 0.003846 0.004814 -0.004076 -0.000795 0.003217 0.002107 0.003229 0.000071 -0.001696 -0.000426 -0.004005 0.000992 -0.004579 -0.002901 -0.004976 -0.000019 0.000707 -0.003147 0.003883 -0.002433 0.002139 0.001291 -0.000394 0.002023 -0.002010 -0.003983 -0.000687 0.002409 -0.003269 -0.003868 -0.004527 0.003011 -0.001127 0.001752 0.003564 -0.003363 0.002753 -0.003706 -0.003209 0.003692 -0.004548 0.001133
Please 0.004357 -0.002790 0.003548 -0.001676 -0.003367 -0.002187 0.004823 0.003050 0.004961 -0.002173 0.003077 0.003821 -0.002317 -0.001107 0.000943 0.001952 -0.003361 -0.004808 -0.002490 0.001058 -0.003813 0.004104 0.000722 0.000767 -0.002615 0.003659 -0.003252 -0.002378 0.002496 0.001016 0.003586 0.001757 0.001102 -0.004910 0.004901 0.002137 0.003174 -0.003922 -0.001513 0.003583 0.003223 0.002747 0.004408 0.003078 0.002098 -0.004648 -0.001952 0.001722 0.002258 -0.003592 0.002964 0.004046 0.002875 0.003714 0.002728 0.000173 -0.000810 0.003534 0.000666 -0.000511 0.003963 0.003947 0.002111 0.001835 -0.000801 -0.004807 0.000049 0.004481 -0.004580 -0.000450 -0.004973 -0.003402 0.002121 0.004310 -0.001398 -0.000003 0.003224 0.000850 -0.004329 -0.002641 0.000007 0.000737 0.003069 0.003430 -0.001954 -0.004564 -0.000099 -0.001222 0.003567 -0.004930 -0.002420 0.003783 -0.003759 0.001105 -0.004898 0.002247 0.000726 -0.003009 0.003180 0.000230
Legal -0.000858 -0.003386 0.003667 -0.004483 -0.002810 0.004365 0.000470 0.001491 -0.001534 0.000272 -0.000400 -0.003483 0.004788 0.003122 0.000566 -0.003791 0.004467 0.001930 -0.001128 -0.002637 -0.004414 0.004779 -0.004048 -0.002616 0.002551 -0.001657 -0.000497 -0.004627 -0.001458 0.001954 -0.001138 -0.001072 -0.001092 -0.003834 -0.004920 0.001480 0.003119 0.001089 -0.001807 -0.002431 -0.001704 -0.000641 0.003395 0.001862 -0.003384 0.001678 0.001355 -0.001136 0.003595 -0.001477 -0.001270 0.002351 0.000086 0.003537 -0.001095 -0.004174 -0.001286 -0.001585 -0.000602 -0.000737 -0.002142 -0.003659 -0.001284 0.003135 -0.003607 -0.004930 0.000558 0.004099 -0.002478 -0.002295 0.000500 0.004877 0.001616 0.002455 0.003450 -0.000304 0.002119 -0.002604 0.000424 -0.004882 0.003038 0.000525 0.001054 -0.003990 0.001848 -0.000576 0.001794 0.004700 0.004978 0.000304 -0.002309 0.004233 -0.004665 -0.003731 0.000316 0.001840 0.004747 -0.000613 0.002994 -0.000365
phone -0.004904 -0.000518 -0.003965 0.003303 -0.003466 -0.004742 0.001063 -0.003128 0.004111 0.002045 -0.002389 -0.001990 -0.003706 0.004884 0.002738 0.004735 -0.002481 -0.004996 -0.003928 0.002356 0.004754 -0.001110 0.000668 0.001978 -0.004672 0.003473 0.003148 0.002282 0.000172 0.002168 0.004235 -0.003392 -0.000632 0.001694 0.001913 0.004091 0.003598 -0.004982 -0.001981 0.004217 0.004729 -0.003346 0.004630 0.004788 -0.004926 -0.002236 0.002837 0.000745 0.003590 -0.004720 -0.002372 0.001703 -0.001480 0.002981 -0.000469 -0.002404 -0.000321 -0.001654 0.001125 0.002701 0.003957 0.000626 -0.001946 -0.003522 -0.003357 0.002868 -0.000630 -0.001916 -0.003420 0.003514 0.002055 -0.000598 0.003084 -0.001557 0.001574 -0.004492 -0.001888 -0.002558 -0.002434 0.002914 -0.001017 0.003440 -0.001703 0.001906 -0.004347 0.001167 0.000361 0.002167 -0.002647 -0.004992 0.003216 -0.002467 -0.001425 -0.003403 0.004947 0.005001 0.003571 -0.000284 -0.001769 -0.004760
list 0.002734 -0.001771 -0.002862 -0.003738 0.003478 0.002032 -0.002093 0.002066 -0.001034 -0.004425 -0.001245 -0.000107 -0.003483 -0.001941 -0.002744 -0.000702 0.004186 -0.000263 -0.001371 0.003972 0.002312 0.003489 0.004714 -0.002491 -0.000777 0.000355 -0.001228 -0.001278 0.004664 -0.002535 0.000830 -0.002301 0.004838 -0.001951 0.003382 -0.004130 0.000856 0.000862 0.004108 0.000261 -0.003359 -0.004891 0.002849 -0.004151 0.003772 -0.003068 0.004123 -0.001553 0.003661 -0.000111 0.002146 0.000611 -0.001335 0.001782 0.003413 -0.003726 0.003012 0.001962 -0.003816 -0.001210 0.001372 0.004671 0.004067 -0.000798 -0.003985 0.002567 -0.001686 0.004848 -0.002434 0.000063 -0.001641 0.004200 0.003180 -0.002525 -0.001233 0.004034 0.001376 -0.004016 -0.004305 0.002781 0.002770 0.001980 -0.000492 -0.000406 0.003793 -0.002434 -0.003134 0.003273 0.000508 0.000538 -0.004806 -0.004126 -0.001553 0.002374 -0.002845 0.001928 -0.000668 -0.000436 -0.002520 -0.002624
version -0.000038 -0.002766 -0.004300 -0.004280 0.003069 -0.001307 -0.003769 0.004978 -0.004996 0.000145 0.000244 0.003815 0.000446 -0.001216 -0.002996 0.003611 -0.001643 -0.004789 -0.003048 0.000445 -0.000205 0.001123 0.003206 0.003996 0.000567 0.001286 0.002139 -0.003252 -0.002610 0.002966 0.000976 0.002711 0.004348 0.000854 -0.002310 -0.000311 -0.002808 0.001044 -0.003853 0.004682 0.001707 -0.000588 0.003025 0.002372 0.002878 -0.001227 -0.001935 0.003701 -0.003251 0.003300 0.004779 -0.004638 0.002569 0.003010 -0.002271 -0.002519 -0.004771 -0.002884 -0.000651 0.000563 -0.002034 -0.001585 -0.002819 0.002727 -0.004322 -0.003616 -0.002235 -0.000700 0.001470 -0.001274 -0.002725 -0.002599 0.000908 -0.001930 0.000992 0.002558 -0.001713 -0.001797 -0.000107 0.002445 -0.002172 -0.002793 -0.002749 -0.000570 -0.003465 -0.003539 -0.003547 0.001096 -0.001690 0.004395 0.003611 0.001464 0.002447 0.000638 -0.002795 0.000452 0.002129 0.003223 0.000764 0.004390
Attached -0.001430 0.002027 -0.000930 0.002610 -0.003746 0.000032 -0.003710 -0.004542 0.004476 0.002373 -0.004271 0.004769 -0.000713 -0.000607 -0.003379 0.002123 -0.001767 0.001189 0.002384 0.002359 0.002386 0.003281 -0.001713 -0.003203 -0.002743 0.001437 -0.000524 -0.001648 0.002251 -0.002485 -0.002909 0.002151 0.003804 -0.002877 -0.002762 -0.004811 -0.001139 -0.001876 0.004356 -0.000867 0.000689 -0.000497 0.000279 -0.004943 0.002944 -0.001326 0.002053 0.001335 0.004331 -0.002652 0.000350 -0.000561 -0.000328 0.004303 -0.002041 0.001927 0.002745 0.003596 0.000776 -0.002486 -0.004101 -0.003113 0.000073 0.003215 0.000236 0.002975 -0.004946 -0.000586 0.003233 0.001310 0.003326 0.003108 -0.000275 -0.003090 0.002251 -0.000019 -0.000349 0.003466 -0.004349 -0.001652 -0.003493 0.001607 0.001699 0.002505 0.000065 -0.000197 0.000517 -0.004037 -0.001630 -0.000550 -0.002946 0.000960 0.001468 -0.003672 0.001194 0.002635 -0.003041 -0.003233 0.003936 -0.002796
are -0.000674 0.004018 -0.003073 -0.002265 -0.001222 -0.001828 0.002547 0.003647 -0.004820 0.004232 0.000957 -0.003879 0.002279 -0.002648 -0.003110 -0.004823 -0.002617 0.002384 0.003042 0.002367 -0.002318 0.001512 0.001256 -0.000317 0.004990 0.003550 0.001173 0.004743 0.004006 -0.004196 -0.002524 -0.000897 -0.001099 -0.003168 -0.004249 -0.001060 -0.001476 -0.002296 0.001872 0.000904 -0.003517 -0.003370 0.000036 -0.003048 0.004584 -0.003260 -0.000414 -0.003086 -0.003546 0.001217 -0.004296 -0.001163 -0.004275 0.000858 -0.001089 0.001081 0.003482 0.000026 0.003388 0.003971 -0.003852 0.003948 -0.004370 0.001869 0.001928 -0.002331 -0.000350 -0.002980 -0.000227 0.003192 -0.002495 -0.001524 0.001852 -0.002454 -0.004800 -0.000951 0.002434 0.001076 0.000744 0.003256 -0.001301 0.002130 0.002959 0.000140 -0.003184 0.001213 -0.003918 -0.001556 0.003974 -0.004472 -0.004394 0.000353 0.001172 -0.000156 0.000579 0.003222 0.000512 -0.003714 0.000567 -0.004949
latest -0.000073 -0.001806 -0.002788 -0.001901 0.004818 0.000985 0.004653 0.000608 -0.004943 0.000979 0.003254 0.000179 -0.004581 0.002251 -0.004655 0.002558 0.002085 0.002799 0.001157 0.000508 0.003616 0.004239 -0.001501 0.002925 -0.002059 0.001031 0.000423 0.003825 -0.000769 -0.000768 0.004282 0.004022 -0.001379 0.003897 -0.001457 -0.001270 -0.002038 0.001498 0.001143 -0.002890 -0.004578 0.003128 -0.003152 0.002369 -0.001838 0.004346 -0.001401 0.000029 0.000640 -0.004414 0.003408 0.004480 0.003873 -0.000228 -0.001509 0.003709 0.003652 -0.002002 -0.002967 -0.004656 -0.002602 0.004374 -0.001359 0.001563 -0.001203 0.002619 0.001614 -0.000213 0.004633 0.002164 0.002677 -0.004041 -0.000096 -0.004658 0.003765 0.003081 -0.000917 0.000088 0.002909 -0.000136 0.001278 -0.001241 -0.001957 -0.004967 0.002078 0.004344 0.003798 -0.001052 0.000474 -0.003087 0.002103 0.001357 -0.001398 -0.002409 0.004723 0.003767 -0.004339 -0.003330 -0.000234 0.002729
further -0.002538 0.004359 0.003938 0.000367 -0.004545 0.000949 0.003265 -0.001443 -0.004406 -0.001432 -0.004084 0.002481 -0.004840 -0.004412 -0.004601 -0.004330 -0.001185 -0.003952 0.003848 -0.001801 0.003849 0.004524 0.004483 -0.004441 -0.000824 -0.004303 -0.002176 -0.003856 -0.003940 0.004078 -0.001629 -0.000108 0.003096 0.001434 0.004472 -0.001111 0.004474 -0.000380 -0.004910 -0.001852 -0.001201 -0.002022 0.004728 0.000327 0.000590 0.003537 -0.001414 -0.004440 0.000370 0.000099 0.000562 -0.001395 -0.004134 0.002802 -0.000213 -0.001340 0.001091 -0.001161 -0.003759 -0.000888 -0.004900 0.001370 0.002109 0.004414 0.004302 0.001569 0.003359 -0.001353 0.000376 0.003115 0.002273 -0.001303 -0.003519 0.002379 -0.003733 -0.000896 -0.002203 0.000276 0.000910 0.003128 0.004847 -0.001731 0.000166 -0.001282 0.001522 -0.002554 -0.004330 -0.004759 -0.001341 -0.003289 -0.003943 0.001947 0.000110 -0.003595 -0.004140 -0.001531 0.001250 -0.003010 0.002332 -0.003264
America -0.000092 0.003006 0.000462 -0.001655 0.003694 0.000513 0.000546 -0.000710 -0.001740 -0.003763 -0.003231 -0.004359 -0.001629 -0.001864 0.001263 -0.003556 0.004750 -0.002218 0.003078 -0.004077 -0.003792 0.000905 -0.000479 0.001923 -0.002981 -0.001837 0.000433 -0.004891 -0.001581 -0.004698 -0.004182 -0.004943 -0.004667 0.004650 0.000645 0.000445 -0.004567 0.003498 -0.002936 0.002957 0.001667 0.004791 0.002273 -0.003845 0.000563 -0.002397 0.003872 0.004560 -0.002204 0.001943 0.000032 -0.004596 0.003687 -0.003945 0.001762 0.004356 -0.000475 0.002278 -0.000823 0.000223 -0.002622 -0.001236 -0.004398 0.004515 0.003278 -0.004792 0.001748 0.002188 0.000861 0.002619 -0.000934 -0.004921 0.001804 -0.001072 0.004778 -0.001893 0.003866 -0.004186 -0.004053 -0.004968 -0.004461 0.001901 0.002710 -0.002646 -0.001872 -0.004931 -0.004462 -0.001397 0.003237 0.004442 -0.001466 -0.001746 0.002327 -0.003992 0.000673 -0.001486 0.002428 -0.004156 0.000932 -0.003247
revisions -0.004301 -0.004359 0.000561 0.000045 -0.004187 0.004940 0.003684 -0.000417 0.004595 -0.002769 -0.000008 -0.004855 -0.001205 0.001541 -0.003163 -0.001989 0.001695 -0.002621 -0.003599 0.000704 0.004316 0.003747 -0.003177 0.000144 0.001760 0.004444 0.004607 -0.002882 0.001631 0.004455 -0.004955 -0.000251 0.000877 0.001840 0.003567 0.001522 0.001822 0.000526 -0.000012 -0.000863 -0.003665 0.000895 -0.000432 0.002355 -0.002403 0.002151 -0.004766 0.002279 -0.001346 0.002435 0.001612 -0.004853 -0.001226 -0.004354 0.001404 0.004559 0.000958 -0.002506 -0.003298 -0.004664 0.001381 0.003169 0.004252 0.000598 -0.003645 0.001560 -0.000337 -0.004875 0.000455 0.001272 0.003302 0.000594 0.002702 0.003906 0.002518 -0.001839 -0.001534 -0.004483 -0.003191 0.002197 0.003267 0.001650 -0.000470 -0.003293 0.004896 -0.003203 -0.001659 -0.000016 -0.000212 0.003098 -0.002369 -0.004514 -0.001078 -0.003408 -0.000030 0.004850 0.003688 0.001618 -0.001548 0.001183
any -0.002810 0.001366 -0.002771 -0.004930 -0.004558 0.002459 0.000709 -0.000141 -0.004463 -0.000445 -0.002205 0.004126 0.004451 -0.001131 -0.001062 0.001072 0.003437 -0.002427 -0.001660 0.002006 -0.002431 -0.002782 0.002990 -0.003646 0.002063 -0.004284 -0.002356 -0.004721 -0.001482 0.002981 -0.004081 0.000970 0.004757 -0.002137 -0.002744 -0.001191 0.001737 -0.003818 0.001171 -0.003826 -0.002791 0.000797 -0.001345 -0.003831 0.000531 0.004082 -0.000025 -0.003348 0.000747 0.000968 0.004042 0.003475 0.000427 -0.001666 0.000300 -0.002027 0.002257 0.004027 -0.002065 -0.001779 0.001116 0.002617 -0.002580 -0.004440 0.000093 -0.004389 -0.001140 -0.003918 -0.003727 -0.000060 -0.003619 0.004450 0.003395 -0.003216 -0.003373 -0.002761 0.004102 0.002129 0.002311 0.001391 -0.004634 0.003518 -0.001069 -0.004649 0.002945 0.004227 0.003507 -0.000874 0.002471 0.001768 0.001168 0.001914 0.000403 -0.004835 0.002091 -0.004895 0.004155 -0.002572 0.004682 0.002905
Enron 0.004549 -0.000760 0.004643 -0.004850 0.004820 -0.000186 -0.004797 -0.000172 -0.003949 0.003035 -0.002883 0.004945 -0.002994 0.003256 0.001751 -0.001782 0.001970 -0.000527 0.003943 0.003298 -0.000492 0.003470 -0.001158 -0.002138 0.001750 -0.003095 0.003976 -0.003213 0.002806 -0.003463 -0.001926 -0.004400 -0.003528 0.004320 -0.000851 0.003119 -0.004820 0.004015 0.001041 -0.004951 0.004635 -0.003465 0.004466 -0.002708 0.003662 -0.001375 -0.000186 0.003971 0.002797 0.003853 -0.004472 0.003508 0.003899 0.004027 -0.000327 0.003501 0.003483 -0.000214 0.000615 0.001964 0.001737 0.000566 -0.001003 0.002526 -0.001675 -0.004084 -0.000643 0.003470 -0.002201 -0.004714 -0.001887 0.000572 0.002553 -0.000509 -0.002345 -0.002352 -0.003211 0.004503 0.001267 0.000655 -0.004499 -0.004812 -0.002510 -0.003280 -0.004215 0.004704 -0.004654 -0.004491 -0.004561 0.002294 0.002289 0.002777 -0.004477 -0.001527 0.002968 0.000651 0.000493 0.004853 -0.003738 -0.002561
