33 100
, -0.001446 0.004656 0.000103 -0.001301 0.004251 0.003359 0.003985 -0.000743 0.002000 -0.002109 -0.002662 -0.001099 0.002441 -0.004943 0.002999 -0.004695 -0.001693 0.003913 -0.001606 0.001864 -0.002228 0.003544 0.001682 -0.001285 0.000975 -0.001883 -0.001280 -0.002715 0.001697 0.004874 0.001806 0.004874 -0.000976 0.004806 0.002994 0.003132 0.004030 -0.001107 0.003313 -0.004100 0.003845 0.000332 0.001598 0.001893 0.004898 -0.003735 0.002692 -0.000746 -0.000930 -0.003891 -0.004673 -0.000044 0.002724 0.003292 -0.002738 -0.000878 -0.000335 0.002649 0.001482 -0.001589 -0.000720 -0.001496 -0.004457 -0.004048 -0.002272 -0.004426 -0.001993 -0.002405 -0.000445 -0.000449 -0.003590 0.000477 -0.001810 -0.000891 -0.003323 0.000540 -0.000812 -0.004792 -0.000028 0.002344 0.003401 -0.003697 -0.004104 -0.002202 -0.001193 -0.004704 0.002685 -0.004711 -0.002308 -0.002671 -0.003830 -0.002851 -0.000499 -0.004752 0.002514 -0.001062 0.003475 -0.001955 0.001378 -0.004588
changed 0.004670 0.001124 0.000348 -0.000033 0.001720 -0.003872 -0.004113 -0.001362 -0.002678 0.001113 0.004579 0.000635 -0.000777 0.001511 0.003799 -0.002385 0.000522 0.004419 0.002931 -0.003613 -0.003311 -0.000722 -0.003276 -0.004370 -0.001543 -0.003608 -0.001514 -0.004588 0.000410 -0.000343 -0.000048 -0.003029 0.002225 0.000698 0.000560 0.000963 -0.000978 -0.002577 -0.002442 0.002785 0.001380 -0.002774 -0.004924 0.004000 -0.004011 -0.003449 -0.000873 0.003080 0.002438 0.002526 0.004340 -0.000245 -0.002929 -0.001498 0.004479 -0.004342 0.000387 -0.001174 0.003896 0.002633 0.002333 0.000995 -0.000028 -0.003620 0.003396 0.001874 0.000499 -0.004241 -0.001042 -0.003626 -0.003237 -0.003313 -0.001192 0.003756 0.004079 -0.002175 -0.004960 0.002143 0.004747 0.002394 -0.003601 -0.003823 0.001513 -0.004142 0.002541 0.003732 -0.004973 0.004177 -0.004157 0.000273 0.003286 0.000819 0.003386 0.001355 -0.002249 0.003828 -0.001553 0.003127 0.001441 -0.001229
. -0.001635 0.003934 0.001125 -0.002707 -0.000225 -0.003233 -0.004031 0.001564 -0.003526 -0.004864 -0.002737 0.000865 0.002053 -0.000116 0.003093 0.001062 -0.002002 0.005004 0.003941 0.002840 0.000852 0.000165 -0.004552 -0.003328 0.003131 0.001648 -0.004636 0.003143 0.000615 0.003562 -0.000632 -0.001901 -0.004480 -0.000269 -0.000676 0.000048 -0.004136 0.003703 0.003293 -0.002063 0.002483 0.000904 -0.000218 0.003515 -0.000817 0.001906 0.001432 -0.004672 0.000456 0.002458 -0.002585 0.000886 0.004029 0.001082 0.002433 0.000577 0.001239 -0.000560 0.002224 0.004225 -0.003619 0.002390 -0.000839 0.004061 -0.003724 -0.001151 0.000867 -0.000592 0.004087 0.003985 0.002295 0.000804 0.003401 -0.004480 -0.003075 -0.000253 -0.003143 0.003763 0.004034 -0.004450 0.003888 0.000034 0.003296 0.001103 0.000695 0.002470 0.003242 -0.001717 0.002750 0.000316 -0.003033 -0.002430 -0.001569 -0.001909 -0.000466 0.001817 0.003503 0.000972 -0.002143 0.000052
name 0.000157 -0.003322 -0.000875 -0.004978 -0.000685 -0.003399 -0.002147 0.003153 -0.000937 -0.004074 0.004119 -0.003471 0.004363 0.004544 -0.000890 -0.004692 0.004386 -0.002687 -0.004372 -0.001919 -0.004866 -0.003541 -0.001603 0.001170 -0.003219 0.001784 0.004078 0.002097 0.003420 0.000306 0.001167 -0.001997 -0.003426 0.003396 0.003078 -0.000465 -0.000954 -0.003184 0.000121 0.000280 -0.000705 -0.000774 -0.000484 0.002200 0.000732 -0.002076 0.001646 0.000452 0.001348 -0.001480 0.000505 -0.003712 -0.002202 -0.004897 0.003329 0.004261 -0.003362 -0.002524 0.002183 -0.003186 0.003329 0.003997 -0.004522 0.000168 -0.004270 -0.001958 0.000994 -0.002601 0.000049 -0.003808 -0.002353 -0.000637 0.000425 -0.004071 -0.003367 0.002308 -0.004810 -0.004904 -0.004905 -0.003232 0.000677 -0.004770 0.004697 0.004342 0.004917 -0.000465 -0.001060 0.002411 -0.001939 -0.000130 0.004459 -0.003311 -0.002345 0.000253 0.002768 -0.000094 -0.003717 0.003039 -0.004233 -0.003396
are -0.000674 0.004018 -0.003073 -0.002265 -0.001222 -0.001828 0.002547 0.003647 -0.004820 0.004232 0.000957 -0.003879 0.002279 -0.002648 -0.003110 -0.004823 -0.002617 0.002384 0.003042 0.002367 -0.002318 0.001512 0.001256 -0.000317 0.004990 0.003550 0.001173 0.004743 0.004006 -0.004196 -0.002524 -0.000897 -0.001099 -0.003168 -0.004249 -0.001060 -0.001476 -0.002296 0.001872 0.000904 -0.003517 -0.003370 0.000036 -0.003048 0.004584 -0.003260 -0.000414 -0.003086 -0.003546 0.001217 -0.004296 -0.001163 -0.004275 0.000858 -0.001089 0.001081 0.003482 0.000026 0.003388 0.003971 -0.003852 0.003948 -0.004370 0.001869 0.001928 -0.002331 -0.000350 -0.002980 -0.000227 0.003192 -0.002495 -0.001524 0.001852 -0.002454 -0.004800 -0.000951 0.002434 0.001076 0.000744 0.003256 -0.001301 0.002130 0.002959 0.000140 -0.003184 0.001213 -0.003918 -0.001556 0.003974 -0.004472 -0.004394 0.000353 0.001172 -0.000156 0.000579 0.003222 0.000512 -0.003714 0.000567 -0.004949
objections -0.001014 0.002561 -0.003426 0.002362 -0.001797 -0.003157 -0.002940 -0.004304 -0.004750 -0.001218 0.004624 0.002329 0.004793 0.004530 -0.003678 -0.004634 0.000109 0.003382 0.003474 -0.003577 -0.002520 -0.000251 0.004568 0.002542 -0.002227 -0.000760 0.004936 0.001730 -0.002070 -0.002570 0.002678 0.002086 0.003792 0.004187 0.004045 0.001771 -0.003242 -0.004016 -0.001008 -0.000890 -0.003569 0.004269 -0.001065 0.002357 0.003574 0.003276 0.000668 -0.003900 0.004931 0.004726 -0.003348 -0.003902 0.002490 0.002222 0.002019 -0.000532 0.003616 0.002741 0.002645 0.004793 -0.002270 0.001828 -0.003222 -0.004933 0.004345 0.004165 -0.000923 -0.000084 -0.000642 -0.004707 -0.000252 -0.004332 0.000491 0.002467 0.000215 -0.003151 0.001670 0.001935 0.001065 0.001131 0.004689 0.002377 0.003058 -0.002109 0.001943 -0.001819 0.003044 0.000007 0.000595 0.000946 0.001357 0.000477 -0.004816 0.001981 0.002146 0.000377 0.001351 0.001266 -0.001389 -0.004445
Resources 0.002186 -0.002186 -0.003553 0.003547 0.002081 -0.001275 0.002977 0.003348 0.003681 0.000156 -0.002785 0.001394 -0.003332 0.001470 0.001438 -0.001951 -0.000134 -0.000890 0.000810 0.001596 -0.003228 0.001889 0.001528 -0.001628 0.003379 -0.004146 -0.003268 -0.003516 -0.000144 -0.004720 -0.001903 0.001877 0.004820 0.003870 -0.004871 0.003855 -0.001744 -0.001798 0.000376 0.004329 0.001567 0.001918 0.000374 0.002033 0.000130 -0.000845 -0.001958 -0.004773 0.003810 -0.003947 -0.003130 0.000361 -0.001938 0.002338 -0.001945 0.001578 0.003073 0.004401 0.000157 0.001456 0.001308 0.004547 -0.004606 0.004961 0.003589 -0.002762 0.001781 -0.001703 -0.002460 -0.000548 -0.001674 -0.004865 -0.002119 0.000242 -0.003093 -0.004976 -0.002157 -0.001195 0.002436 0.000050 -0.002419 0.002995 -0.003798 -0.001626 0.003850 -0.000031 0.002179 -0.000223 0.001322 -0.003233 0.001307 -0.001856 0.002184 -0.003356 -0.001058 0.003293 0.001780 -0.003867 0.000854 0.003374
if 0.001508 0.003530 0.001208 0.000497 0.000352 0.003757 0.003229 -0.002814 -0.004299 -0.003187 0.004607 -0.003538 -0.004715 -0.004369 0.002364 -0.001803 -0.001111 0.003393 -0.004762 0.004543 0.001418 -0.003308 -0.002800 0.004941 0.001782 0.001073 -0.002216 -0.001171 -0.004989 -0.000464 0.000141 -0.002283 -0.003060 0.003865 0.000618 0.002823 0.000598 -0.001980 -0.000700 -0.004418 0.001577 0.003002 -0.003477 0.000740 0.001372 -0.003619 0.002906 -0.002246 -0.003998 0.003893 0.001366 0.003055 -0.002339 -0.001057 -0.002868 -0.000166 0.001580 0.000305 -0.003758 0.001423 0.004997 0.003969 -0.002831 -0.001144 0.000585 0.002277 -0.002793 0.002114 -0.000245 -0.001027 -0.002580 0.002471 -0.001629 0.002519 0.003258 -0.000314 0.003751 0.001329 0.000414 0.000685 -0.003017 -0.003880 -0.000038 -0.000902 0.003665 -0.001275 0.001126 0.001620 0.002169 -0.002230 -0.001262 0.000271 -0.004860 -0.002666 0.003142 -0.002799 0.001171 0.002700 -0.000205 0.000559
x3-3103 -0.002383 0.001835 -0.002385 0.001453 0.004344 -0.003137 -0.004712 0.001209 -0.002313 0.000792 -0.002954 -0.002804 0.003241 0.003772 0.002202 0.003558 -0.000958 0.003154 -0.004870 0.002204 -0.001224 0.003962 0.004457 -0.002009 0.000200 0.003019 -0.001958 0.004088 0.000857 0.002638 0.004125 0.004032 0.001360 -0.000694 -0.004939 -0.000778 0.002619 0.002743 -0.000529 0.000636 0.002917 0.001507 -0.001419 0.003107 0.001737 0.002345 0.004766 -0.003396 -0.003509 0.001543 -0.003869 -0.002325 0.001670 -0.002291 0.003206 0.000564 0.000874 -0.003258 0.001085 -0.003417 0.002737 -0.002881 0.003366 0.000176 0.001956 0.004707 0.002722 0.002901 0.002753 -0.002745 0.001802 0.001858 -0.001082 0.002169 -0.000900 0.002588 0.004102 -0.002644 -0.000277 0.000442 -0.000011 -0.002422 0.001376 0.002536 0.003354 0.002918 -0.004789 -0.003089 0.001209 -0.004777 -0.004075 -0.004606 0.002160 0.002206 -0.001227 0.003559 -0.001999 -0.000814 -0.002915 0.004978
Cheryl 0.004471 -0.004487 -0.003403 -0.004578 0.000846 -0.001999 0.004836 0.003680 -0.003994 -0.000546 -0.003532 -0.000387 0.003902 -0.001381 0.001230 -0.003600 0.002357 0.002533 -0.002640 -0.002178 -0.002682 0.001320 -0.000067 -0.000005 0.002814 -0.003540 -0.000745 -0.000377 -0.002264 0.001573 -0.002943 0.004276 0.000066 0.000304 -0.002812 0.001417 0.002654 0.004504 -0.003775 0.000309 -0.001608 0.001797 -0.003930 -0.000027 -0.004150 -0.003141 0.000950 0.000847 -0.004404 0.004021 0.003474 0.003263 0.000277 0.002844 -0.004559 -0.003264 -0.001685 0.000800 -0.001891 0.003390 -0.001358 -0.001424 0.002881 0.002384 -0.000747 -0.003699 -0.001104 -0.001922 -0.000403 -0.002823 0.001800 -0.004045 -0.004138 0.002502 0.002716 -0.004815 -0.003242 0.002081 0.000606 0.001479 -0.002194 0.002774 0.002329 0.004486 -0.004292 -0.000783 -0.003436 -0.004941 0.003014 -0.000099 0.004226 0.002268 -0.000891 -0.003650 -0.002447 0.003664 -0.000642 0.004804 -0.002385 -0.002817
Dec. 0.004017 0.000478 -0.000337 0.002000 -0.003698 0.000868 0.003466 -0.001266 -0.003838 0.003133 0.000043 -0.003283 0.002290 -0.003587 -0.003431 -0.003210 0.001546 0.000174 0.004118 -0.004540 0.001042 0.004246 -0.004306 -0.000146 -0.000284 0.001651 0.000899 -0.003499 -0.001666 0.003379 0.000245 -0.000092 -0.003193 -0.001996 0.003560 -0.001300 0.000266 -0.004866 -0.003832 -0.001932 -0.001250 0.003258 -0.001015 -0.002969 -0.004176 0.003752 0.004146 0.003589 -0.001215 0.000913 -0.002945 -0.001985 0.002016 0.004796 0.001454 -0.001276 0.001864 0.003052 0.004612 0.001064 -0.000788 0.000594 0.003056 0.000522 0.001708 0.001624 0.003948 0.003792 0.000959 0.003569 -0.001858 -0.001963 -0.002109 -0.000814 -0.000815 0.003321 -0.003500 0.000411 0.003804 0.001658 -0.001082 -0.000079 -0.002998 -0.000481 0.001220 0.000308 0.001807 0.002262 0.004728 0.002124 0.000723 -0.000348 0.000873 0.002335 -0.004597 -0.002337 -0.001544 -0.000791 -0.004826 -0.000831
no -0.004696 0.001034 -0.004071 0.003387 -0.001730 0.001505 -0.000473 -0.003526 0.004127 -0.004764 -0.003941 0.004551 0.001253 -0.002801 0.003901 0.000228 -0.001271 -0.003915 0.004138 -0.004366 -0.002303 -0.004192 -0.001259 0.004027 -0.001969 -0.004482 -0.004359 0.004982 0.003459 -0.004159 0.004929 -0.004700 0.004862 -0.004311 -0.003632 0.000642 -0.002439 -0.003031 0.004086 0.002449 0.003126 0.003789 -0.002839 0.004524 0.002542 -0.001874 0.001669 0.002494 -0.001174 -0.001751 0.003483 -0.001849 0.001559 0.001138 0.000676 -0.003152 -0.004207 -0.003244 -0.002284 0.000299 -0.004290 -0.003038 -0.004462 0.003818 -0.001021 -0.000798 -0.004032 -0.000266 0.004329 -0.002653 -0.002602 -0.000108 -0.003304 -0.001162 -0.002422 -0.004276 0.000808 0.003292 -0.004392 -0.001517 0.004171 -0.002032 -0.002170 -0.003560 0.004549 0.000323 -0.003094 -0.004039 0.002797 0.003749 -0.002381 -0.003860 -0.000430 0.004432 0.004687 0.004642 0.000257 0.001816 -0.000578 -0.002968
there 0.000361 -0.004517 0.001913 -0.003404 -0.003397 -0.002635 0.002960 0.004489 -0.001950 0.002882 -0.001632 0.002762 0.002329 0.003494 -0.003446 -0.000744 -0.002257 0.001926 0.002742 0.001371 0.003626 -0.001617 -0.001631 -0.004904 0.001179 -0.001605 0.001151 0.000503 0.001931 -0.003062 0.000367 0.004243 -0.003480 0.003163 -0.000978 -0.001395 -0.004221 0.004422 -0.004221 0.001842 0.000901 -0.002233 0.002323 -0.004659 0.001677 0.002671 0.002000 -0.003798 -0.004926 0.002255 0.002959 -0.002255 -0.000205 -0.003714 -0.000363 -0.000456 -0.004702 0.002369 -0.004091 -0.000980 0.000551 -0.004044 0.003769 -0.001887 0.001555 0.000849 0.000811 0.003947 -0.004297 0.004921 -0.003188 0.002790 -0.001187 0.000215 0.004709 -0.000532 0.001002 -0.004944 0.000469 0.000493 -0.004871 0.004465 -0.001180 -0.000487 -0.004829 -0.004663 -0.000506 -0.001501 0.000523 0.004086 0.004468 -0.003021 0.004340 0.000621 -0.004298 0.004672 0.001769 0.000941 0.004262 -0.003817
to -0.000474 0.004738 -0.002625 -0.004682 -0.004955 0.004800 0.003429 -0.004176 -0.000004 -0.000260 -0.004231 -0.000469 0.004227 -0.004769 0.003994 0.003582 0.001314 -0.002468 -0.000752 0.000753 -0.003891 -0.004100 0.003562 0.001211 -0.000987 -0.002579 -0.001475 0.003083 -0.000440 -0.002952 0.000719 0.003282 0.000218 -0.002481 -0.003845 0.002890 -0.003572 0.000653 0.004065 -0.002738 0.001331 -0.002522 -0.004062 -0.004194 -0.001567 -0.001551 -0.002508 -0.003174 -0.001516 -0.002358 0.001236 -0.004814 -0.002913 -0.004295 0.003797 -0.000031 -0.004310 0.001785 -0.000040 0.003074 -0.004110 -0.003108 0.004637 0.002798 -0.001937 -0.002408 -0.000583 -0.002968 0.003637 0.003883 -0.004454 -0.001298 -0.003677 0.003610 -0.000626 0.001465 0.002293 0.003432 -0.002643 0.001858 0.000986 -0.002677 -0.001056 -0.002249 -0.001206 0.003391 -0.000761 -0.003852 -0.001377 -0.004039 -0.004957 0.000527 0.001904 -0.000388 -0.001850 -0.000720 -0.003691 0.002203 -0.001194 0.000030
Tue 0.004522 -0.002678 0.000785 0.002982 -0.002878 -0.002103 0.001004 0.000753 -0.000685 0.004155 0.003909 -0.004041 -0.004358 0.003235 -0.004120 0.003549 0.004600 -0.000396 0.002553 0.003177 -0.000727 0.003365 0.003073 -0.003863 -0.001639 0.004650 0.004031 0.002750 0.002776 -0.001376 0.000979 0.003204 -0.001439 0.003753 0.004309 0.000932 -0.004963 0.002627 0.003493 0.003945 0.001347 0.001620 -0.001843 0.002527 -0.002030 -0.000341 -0.000425 -0.004538 0.003834 0.000851 -0.001826 0.003063 -0.000549 0.004869 0.004904 -0.004367 0.004603 0.003796 -0.001876 -0.002773 0.001661 -0.003489 0.000847 0.004832 0.002589 -0.004804 0.003683 -0.002336 -0.001723 -0.000558 0.000830 0.000479 0.002390 -0.003116 -0.000708 -0.003074 0.001075 0.003950 0.001587 -0.003627 0.003011 -0.004976 0.002160 -0.000162 -0.003873 -0.003457 0.002429 -0.002291 -0.003960 0.003386 0.001976 0.004860 0.003997 -0.004649 -0.001130 0.003549 0.004710 -0.004707 -0.002297 0.004574
afternoon 0.003665 0.004806 -0.004916 0.000590 0.001310 -0.003873 -0.002396 0.003157 -0.002103 -0.000889 0.000253 -0.002604 -0.003623 -0.000359 -0.001143 0.003333 -0.000531 0.000906 0.001280 0.000646 -0.003703 -0.000347 -0.000117 -0.004833 -0.001977 0.000468 -0.003374 0.003778 -0.001980 0.001934 0.003624 -0.001993 -0.004940 0.002126 0.004237 0.002569 -0.001718 -0.003633 -0.002621 -0.001475 -0.002039 -0.001051 -0.004152 -0.000135 -0.000373 0.001793 -0.002314 -0.003396 0.000145 -0.004353 0.001469 -0.000738 -0.001610 -0.003774 0.001528 0.004892 -0.004067 0.003391 0.002650 -0.000305 0.000038 -0.001429 -0.004280 0.000491 0.004716 -0.002823 -0.003658 -0.003800 0.004048 -0.003029 -0.000808 0.002141 0.000386 -0.004341 -0.002874 -0.004396 -0.002684 0.001154 0.003113 0.000290 0.004533 -0.003709 0.003160 0.000788 0.003810 0.004545 -0.002886 -0.001659 0.000928 0.000651 0.000023 -0.001574 -0.002058 -0.001980 0.002065 -0.000753 -0.002039 0.001228 -0.004184 0.004680
be 0.003535 -0.004372 -0.001747 0.003569 -0.003978 -0.001413 0.001320 -0.001205 0.002821 -0.001317 -0.001921 0.000581 -0.004070 0.000785 -0.002793 0.000040 0.004487 0.002608 0.003014 -0.001040 0.003175 -0.002442 0.004068 -0.003426 -0.004972 -0.000084 -0.000230 -0.001168 0.000238 -0.000846 -0.002130 -0.004679 0.002464 0.004562 -0.003112 0.004719 0.002683 0.001043 -0.003808 -0.002903 -0.002709 0.004098 -0.004254 0.001420 -0.004173 -0.001937 -0.001337 0.003984 0.001579 0.003756 -0.003157 -0.000281 -0.002088 -0.000571 0.002079 0.000876 -0.001824 0.002737 -0.001033 -0.001028 -0.003304 -0.001862 0.003757 0.004791 0.001828 0.003459 0.002027 -0.003938 0.004592 -0.000756 -0.004449 -0.001765 -0.004847 -0.001848 -0.000649 -0.000595 -0.001513 -0.004765 0.004451 0.003022 -0.004971 -0.000066 0.000626 -0.003033 0.002995 -0.001198 0.001238 -0.004390 0.000235 0.001060 0.004515 0.004137 -0.004639 0.004877 -0.001125 0.000206 0.004734 0.000388 -0.001694 0.000108
tomorrow 0.003591 0.002083 0.004815 -0.003677 -0.000036 0.001785 -0.001949 -0.000446 0.000430 -0.000188 0.002779 0.003292 0.002237 0.004900 -0.002702 0.002973 0.002368 -0.004553 -0.000728 0.002106 -0.000666 0.002192 -0.003858 0.003826 -0.003343 0.002068 0.000254 0.001075 -0.000204 0.001106 0.004316 -0.003354 -0.000804 0.000255 -0.004655 0.000874 -0.000189 -0.000016 -0.000805 -0.003984 0.002849 -0.004179 0.000450 -0.002210 -0.001149 -0.004218 0.002740 -0.000803 -0.000545 -0.004869 0.003533 0.001469 -0.000934 -0.003492 0.002888 -0.000665 0.001061 0.000567 -0.004475 -0.001960 0.002003 0.000004 -0.000841 0.004022 0.000344 -0.003104 0.002278 -0.002990 -0.003598 -0.002452 0.002087 -0.004524 0.003075 -0.003228 0.002603 0.002721 0.003120 0.002380 -0.003862 0.003126 -0.002299 0.004549 0.000362 -0.001523 0.002167 -0.001265 0.001488 0.002140 0.002703 0.001255 0.003471 0.001389 -0.002058 -0.000829 0.002487 0.004210 0.002591 0.001134 0.001368 -0.000582
Sand 0.004362 0.004443 0.000487 0.002876 -0.002448 -0.004316 -0.003029 0.001418 0.000683 0.002595 0.003193 0.004915 0.001546 0.001435 -0.003180 0.004052 -0.001374 -0.001743 0.001634 -0.004183 -0.004911 0.002293 -0.000060 0.003737 0.000737 0.002613 -0.002017 -0.004478 -0.003362 0.001916 -0.002783 0.000407 0.004989 -0.003943 0.004496 0.001363 -0.001113 0.002395 -0.003227 -0.001116 -0.001800 0.003384 -0.003015 0.000849 -0.003105 0.000307 -0.000235 -0.003664 0.004879 -0.003586 0.003151 -0.004733 0.002548 -0.003013 -0.001872 -0.000885 -0.003276 -0.001556 0.001893 -0.000334 0.002313 -0.001656 -0.000637 -0.002599 0.001886 0.004812 0.001263 -0.000116 0.003156 -0.000316 -0.001794 0.004904 -0.004262 0.003362 -0.001441 -0.001081 -0.000354 0.003166 -0.002200 -0.001554 0.001739 0.003394 0.002781 -0.004850 0.002207 0.001102 0.004833 -0.002383 0.004664 0.002439 0.000004 0.001945 0.001678 0.002353 0.004511 -0.000845 0.002526 0.004935 -0.004408 -0.001712
short -0.003024 -0.004260 0.002090 0.004436 -0.002307 0.001099 0.001878 0.001469 0.004453 -0.000219 0.003602 -0.000955 0.004328 -0.001450 -0.000991 -0.001485 0.003500 -0.001942 0.000039 0.001868 -0.001636 0.004500 -0.003451 -0.001905 -0.003131 0.000861 0.003741 0.000116 0.001490 0.002427 0.001542 -0.004015 0.004203 0.004356 -0.000770 0.004580 0.001890 0.000852 -0.002502 0.000839 0.003638 -0.004836 -0.000020 -0.004820 0.000153 -0.002867 0.001441 0.004887 0.002591 0.000740 -0.003797 -0.002994 -0.002048 -0.001290 0.004191 -0.003238 -0.002681 -0.001179 -0.002225 0.000880 -0.001685 -0.002890 0.001980 -0.002253 0.004747 0.003622 0.001756 0.003192 0.000080 0.000856 0.003314 -0.003880 0.003609 -0.002471 0.004859 0.001173 -0.002475 0.000075 0.001877 -0.001220 0.004375 -0.000124 -0.002120 0.000760 0.001472 -0.002927 -0.003457 -0.004851 0.000676 0.004831 0.001547 0.001498 -0.004690 0.000110 -0.004562 0.003700 0.000325 -0.002887 -0.000087 -0.003327
The 0.002246 0.001724 -0.002714 -0.003494 0.004553 0.001954 0.004633 0.003659 -0.002973 0.004737 0.003105 -0.002497 0.000779 -0.000802 0.002061 0.000990 -0.002984 -0.003267 0.003198 0.001823 -0.001677 0.002806 -0.000031 -0.002248 0.000689 0.003562 -0.001538 -0.004528 -0.002782 0.004966 0.000386 0.000132 0.003018 -0.004984 -0.004190 -0.003489 0.000695 0.001197 0.003565 -0.000003 -0.001219 0.003478 0.001451 -0.002378 0.004823 -0.001199 -0.003231 0.000459 0.001329 0.001250 -0.000416 -0.003925 0.000477 -0.000735 -0.002950 0.003203 -0.004171 -0.003083 -0.003947 -0.003771 0.002554 -0.003873 -0.000652 -0.002377 0.001898 0.001857 0.002068 0.004404 0.000172 0.001751 -0.000026 0.004629 0.002967 0.000352 -0.004950 0.001619 -0.002406 0.000564 -0.003877 -0.001094 -0.001650 -0.000256 -0.003874 -0.000790 0.004434 -0.003704 -0.004029 0.003866 0.004700 -0.004979 -0.000594 0.002014 -0.002606 -0.004208 -0.001800 0.003787 0.002602 0.004288 0.000766 0.000623
Inc. -0.002222 -0.003259 0.004771 0.003805 0.000875 -0.001197 0.001432 -0.004990 -0.000588 0.003631 -0.004017 -0.002234 0.003329 0.000654 0.000418 -0.001626 -0.004520 0.001594 -0.003389 -0.003255 -0.003475 -0.000126 0.002829 0.000155 -0.003626 0.003407 0.004371 -0.001004 0.002403 0.004440 -0.004150 -0.001264 0.000100 0.000777 -0.002711 0.004743 -0.001783 -0.002473 -0.001653 0.000029 -0.001775 -0.004463 -0.004033 0.002565 -0.000509 -0.004982 0.002063 0.002192 -0.003460 -0.000384 -0.001512 0.004529 0.000530 -0.004238 0.003937 -0.001841 0.003954 -0.004958 -0.000624 -0.003034 -0.004051 0.003168 0.002595 0.000304 -0.003857 -0.001544 0.000460 0.004025 -0.004255 0.003022 -0.001123 0.003120 0.004313 0.002109 -0.000012 -0.000485 -0.000213 -0.000447 0.004656 0.004643 -0.000994 0.004967 0.004235 0.003553 -0.003629 -0.000322 -0.001332 0.004862 -0.000032 -0.003210 -0.004634 -0.003192 -0.004118 0.000173 -0.000375 0.003477 -0.001558 0.000295 -0.001369 0.004922
on 0.002817 0.004768 -0.002569 0.000598 0.002293 0.004952 0.001844 -0.002246 -0.003520 -0.002851 0.003535 -0.001340 -0.000573 -0.001927 -0.004475 0.004145 -0.001341 -0.001193 0.000902 0.000302 0.002610 -0.000878 0.000090 0.000760 -0.002207 0.004793 -0.003009 -0.001607 -0.000592 -0.000500 -0.003530 -0.002616 -0.004574 0.000890 -0.002434 0.004277 -0.004564 -0.002592 0.002899 -0.003330 0.003562 -0.001568 0.001279 -0.003282 0.000394 -0.004825 0.001167 -0.000290 0.002027 0.003223 0.001696 -0.002887 -0.001648 0.001736 0.000903 -0.003954 0.003943 -0.004815 -0.004656 0.004002 -0.001810 0.001005 -0.004641 0.004132 -0.000052 -0.002491 0.000938 -0.000245 -0.001441 -0.004827 -0.002030 0.000718 0.000163 0.003471 -0.004501 0.003739 0.001521 0.000650 0.001104 0.002638 -0.003874 -0.001910 -0.002282 -0.000311 0.000922 0.003527 0.001435 0.002792 -0.003945 -0.003973 -0.001063 -0.000020 -0.002754 0.002860 -0.001245 -0.002828 -0.003017 0.004746 -0.004507 -0.002241
12 -0.004786 -0.004029 0.000491 -0.003473 -0.002625 -0.001822 -0.003248 -0.004650 -0.003072 0.003324 0.004772 0.004971 -0.001207 0.002489 0.000266 0.003434 -0.004482 0.001523 0.003134 -0.004641 0.001823 0.003941 0.001887 -0.002580 -0.004598 -0.002018 0.002776 0.001435 0.000594 -0.000665 0.002212 0.001909 -0.004927 0.001437 0.001589 0.003558 -0.001445 0.003144 0.000078 0.002560 0.000122 -0.000281 0.002516 -0.001392 -0.001287 0.004683 0.002234 -0.001109 -0.004107 -0.001767 -0.002063 0.002255 -0.000947 -0.004850 -0.004017 -0.004200 0.000630 0.000662 -0.000123 0.001991 0.003270 0.002015 -0.003306 0.002783 -0.004030 0.000547 0.002993 -0.000545 0.004256 0.004734 0.004979 0.002671 0.001676 0.001527 0.001114 -0.000504 0.004543 0.004124 0.000835 0.004730 -0.001016 0.001266 -0.004056 -0.002718 -0.003673 0.004219 -0.001006 -0.001069 -0.003228 -0.003967 -0.000477 0.003609 -0.001870 -0.001591 0.002281 -0.003070 0.003400 -0.004699 0.001764 -0.000040
this -0.004642 -0.000601 -0.001351 -0.001627 -0.002131 -0.001521 -0.002488 0.003352 -0.003795 0.002757 0.003924 -0.003272 0.004940 -0.002555 0.001351 -0.000138 -0.002879 0.001769 -0.000217 0.003287 -0.004690 0.002057 0.001648 -0.000188 0.004259 0.002754 -0.001926 -0.003883 0.004811 -0.002755 -0.001659 -0.003650 0.000322 -0.003856 0.004080 0.001874 0.002322 -0.000414 -0.004234 -0.003275 -0.003607 0.004190 -0.001561 -0.003289 -0.000204 0.001316 0.004387 0.001744 -0.003596 0.003777 -0.004903 -0.002935 -0.001445 -0.001368 -0.002775 -0.000568 -0.004393 -0.001535 -0.001823 -0.002551 0.002111 0.002715 0.000224 -0.004512 0.001289 -0.004294 -0.001806 0.003015 0.000953 0.001485 -0.003643 0.001530 -0.004612 0.000414 0.001274 0.002963 -0.000591 0.004944 -0.004798 0.000992 -0.002574 -0.001144 -0.002485 -0.000060 0.004949 -0.000794 -0.004016 -0.004100 0.004457 -0.003744 -0.001166 -0.001068 0.003877 0.004858 0.001629 -0.003115 0.002026 0.002341 -0.003356 -0.000204
Energy 0.001169 0.004910 0.003147 0.001971 -0.004299 -0.002686 0.002921 0.001166 0.002486 0.003224 -0.000748 -0.004736 0.000054 -0.001724 -0.002063 0.002474 0.001590 0.000654 -0.000361 0.002897 0.002805 0.004014 -0.003225 0.002272 0.004423 -0.001245 0.004763 -0.002637 -0.004252 -0.004186 -0.002299 0.003082 0.003428 0.001016 -0.000707 -0.002093 0.003383 -0.004394 0.001966 0.000212 -0.002987 -0.003666 0.003762 -0.002767 0.003440 0.001173 -0.001684 -0.004136 0.002214 -0.001216 -0.000320 0.000480 0.000985 -0.001343 -0.001052 0.002271 0.003466 0.001336 -0.000572 -0.000619 0.001752 -0.000932 -0.003522 -0.001709 -0.001495 -0.004080 -0.004583 0.001809 -0.002957 -0.000055 0.001168 0.002847 0.004129 -0.003490 0.003011 0.001709 -0.002963 0.000837 0.003113 0.002197 0.004454 -0.002347 0.004016 0.001561 0.001932 0.000953 0.004998 0.002555 -0.002808 -0.001935 0.000916 0.001910 0.002412 0.004414 0.004594 -0.002353 -0.001251 -0.002868 -0.000304 0.001903
Queen -0.004814 -0.002825 -0.004451 -0.001967 -0.000300 0.003894 -0.004285 -0.000076 0.001776 0.004306 -0.004318 0.002127 0.003951 0.002364 -0.004895 -0.001119 -0.003443 0.001766 -0.004743 -0.000031 0.001696 0.004935 -0.000145 0.001552 -0.003638 0.000077 -0.001069 0.001432 -0.000924 0.002480 -0.003613 -0.000054 0.001172 -0.000885 0.000355 0.001020 -0.002346 0.000956 0.002465 -0.001379 -0.000446 0.000489 -0.001072 -0.001784 -0.003755 0.003207 -0.001775 0.004133 -0.004865 -0.000588 -0.004120 0.002258 -0.004018 0.004274 0.001444 0.003031 -0.003948 0.001849 -0.004878 0.001438 0.003677 0.001555 0.004538 0.003685 -0.001538 -0.003481 -0.002395 0.000363 -0.002975 -0.004865 -0.002121 -0.002152 0.003135 0.000682 -0.001195 0.002130 -0.003756 -0.000716 0.003237 0.000123 -0.001397 -0.004432 0.000020 -0.003440 -0.000860 -0.001372 0.003605 0.001074 -0.000968 -0.004431 0.002542 -0.004549 -0.000995 0.002601 -0.004472 0.002481 0.001645 -0.002099 0.003078 0.004482
will -0.001117 -0.001197 0.001027 0.002294 0.001704 0.003661 -0.004071 0.003200 -0.002868 -0.000362 0.004377 -0.004690 0.003182 -0.004131 0.002065 -0.003855 0.001388 -0.003726 -0.000635 0.004755 -0.003386 -0.004960 0.004992 0.002753 -0.002202 0.004091 -0.000085 0.003579 0.000011 0.000213 -0.000566 -0.001661 0.003388 -0.000570 -0.002628 -0.003606 0.002620 -0.001389 -0.001280 0.004507 -0.000524 -0.002110 -0.002868 -0.000557 0.000784 -0.004469 0.004781 0.004366 0.002259 -0.004365 -0.003296 0.004310 0.003042 -0.002764 -0.000622 -0.002247 0.000019 0.002276 -0.002580 0.004537 -0.000524 -0.003417 -0.001368 0.003371 -0.004581 0.001881 -0.002544 -0.002355 -0.002682 -0.004865 0.000466 -0.002094 -0.002585 0.003676 -0.002915 -0.004924 0.003342 0.004467 0.000991 -0.001826 0.002567 0.003932 0.002042 0.002157 -0.001593 0.003440 -0.002910 0.000048 -0.001219 -0.002246 -0.003645 -0.002384 -0.002514 -0.002895 -0.003892 -0.002177 0.003334 -0.004637 -0.002611 -0.002709
record 0.002633 -0.004227 -0.003894 -0.001029 0.000956 -0.001144 0.004222 -0.002278 0.002858 -0.002258 0.003739 -0.000936 -0.002890 0.003230 0.002033 0.002038 0.003672 0.004482 0.000119 0.000843 -0.004827 -0.002658 0.002265 -0.003707 0.002506 0.000047 -0.003247 -0.003085 -0.004292 -0.004821 -0.004320 -0.003617 -0.003060 0.002186 0.002794 0.000347 -0.004556 0.000406 -0.003954 0.001500 0.002265 -0.003863 -0.004581 -0.001227 0.004659 0.004254 -0.000700 -0.002792 -0.002379 0.001933 0.003884 -0.002676 0.001299 0.004436 -0.000740 -0.002959 -0.001824 0.002099 -0.001111 0.003199 -0.003370 -0.004878 -0.003287 -0.000081 -0.003381 0.000067 0.000630 -0.001131 0.001895 -0.001397 -0.003563 0.003749 -0.000120 -0.004882 0.001382 -0.002227 0.000416 0.003299 -0.004803 0.002105 0.004079 -0.004621 -0.004823 0.000002 0.000681 0.001860 0.003129 0.002901 -0.003192 -0.004318 -0.003955 0.002880 -0.000883 -0.003284 0.002880 0.004900 0.003936 -0.001248 -0.004318 0.002181
Thanks -0.000934 -0.002261 -0.001524 -0.003992 -0.001110 0.002116 -0.004426 0.002238 -0.003583 0.003893 0.003534 -0.002289 -0.000465 -0.002551 0.001637 -0.000518 -0.001593 0.000574 -0.003960 0.002008 0.004251 0.002244 0.003791 0.000515 0.004781 0.002573 0.002013 0.002630 0.002167 -0.002566 -0.002163 0.002585 0.000495 0.000863 0.003366 0.000787 -0.000400 0.003862 0.004411 0.001873 0.001434 0.000428 0.003584 -0.004449 -0.004077 0.002307 -0.002352 -0.004175 -0.004094 0.004609 -0.001013 0.004889 0.000627 0.003161 0.002762 -0.001955 0.001636 -0.002339 0.003963 0.000876 0.001652 0.003942 0.002237 -0.004137 0.001408 0.000705 0.003327 -0.004626 -0.004083 -0.004632 0.004834 0.001664 0.002104 -0.002614 -0.002565 -0.003608 -0.004650 -0.001715 -0.000281 -0.002702 0.001272 0.003848 0.004684 0.004666 -0.000654 0.000277 0.001055 -0.004076 0.001542 -0.001451 0.001020 -0.002772 0.000372 -0.000995 -0.000650 0.002261 0.000838 -0.002749 -0.000381 -0.004507
DevX -0.004660 -0.001322 0.003976 0.004987 0.003502 -0.000657 -0.001669 -0.004102 0.002273 -0.003306 -0.000453 0.004642 -0.002087 0.003975 -0.002612 -0.004164 -0.004377 0.000933 0.002737 0.004732 0.000047 -0.002495 0.003639 -0.004037 0.002377 0.004495 -0.001839 -0.003224 -0.000307 -0.004594 0.003516 0.001789 0.000139 -0.001178 0.004805 -0.004750 -0.003587 0.001603 0.001266 -0.004846 -0.002626 0.001592 0.003476 0.001659 -0.000569 0.000221 0.003555 -0.000240 0.004413 -0.000272 -0.002566 -0.000204 0.004696 0.000212 -0.001844 0.004458 0.003504 -0.001040 0.001744 -0.002156 -0.001207 0.004845 0.003703 0.004251 0.001155 0.004377 0.000948 0.002338 -0.002800 -0.004228 -0.001710 -0.001305 0.001893 0.002613 0.003351 0.003138 0.004618 0.002487 0.003527 -0.002405 0.003313 -0.004419 0.003215 -0.000263 0.004799 -0.000250 -0.004167 -0.001031 -0.003089 -0.002738 0.001402 -0.002320 0.001360 0.003545 -0.003378 -0.002909 -0.000070 0.001072 0.000516 -0.002299
its 0.002188 -0.003053 0.001712 -0.000066 0.000900 0.000774 0.000588 0.003833 -0.002201 -0.001603 0.002081 -0.003442 0.004031 0.000459 -0.003301 -0.003536 -0.004001 -0.002745 0.003873 0.001827 -0.004386 0.004624 0.003136 -0.003094 -0.001735 -0.001924 -0.003799 0.003737 -0.002848 -0.003952 0.004679 0.002457 -0.000500 0.002735 0.000903 -0.003096 0.001615 -0.003267 -0.001083 0.001703 -0.001323 0.003676 -0.000411 -0.000679 0.002475 -0.004828 0.002241 0.002059 -0.002158 -0.002322 0.000751 0.004202 -0.003915 0.004504 0.004183 0.001913 0.000636 -0.003040 -0.003274 -0.002488 0.004337 -0.003295 -0.004909 -0.003783 -0.002821 -0.003986 0.003190 0.000176 0.001236 0.001147 0.000727 -0.004203 -0.002602 -0.000057 0.000635 0.003190 -0.003098 -0.001695 0.002017 -0.000313 0.002632 0.002493 -0.002239 -0.004063 -0.004265 -0.003194 0.001436 0.001365 -0.001168 -0.004134 -0.001563 -0.004758 0.002686 -0.004905 0.002056 -0.003162 -0.004901 -0.003751 -0.003660 0.004128
Inc 0.000049 0.003547 0.001388 0.001338 0.003987 0.002053 -0.000563 0.002405 -0.003489 -0.004152 0.000036 0.002133 0.002378 -0.001220 -0.003812 -0.003683 0.002316 0.003307 -0.002994 0.004590 0.000026 0.004900 0.001506 0.003029 0.003987 0.000787 0.004343 -0.001758 0.000032 0.001433 -0.001642 -0.001668 0.002009 0.004975 0.003015 0.001610 -0.000431 0.000879 -0.000441 0.004815 -0.003301 0.004669 -0.001620 0.001985 -0.003751 0.000644 -0.001151 0.004841 -0.003169 0.002436 -0.004402 -0.002425 -0.004435 -0.004204 -0.004928 -0.003025 -0.004735 0.003215 0.002194 0.004454 0.003017 -0.000825 0.003592 -0.002175 0.002989 -0.004469 -0.001205 0.001350 0.003973 0.000199 0.000986 0.004175 -0.004219 0.001653 0.001000 0.000152 -0.004144 0.001230 -0.003555 0.003964 -0.002425 -0.000592 -0.002981 -0.000851 0.001668 -0.002694 -0.001164 -0.003630 -0.002103 0.001174 -0.001130 -0.003424 0.003035 -0.000440 -0.000541 -0.003117 -0.001928 0.002300 0.003538 0.003852
