24 100
. -0.001640 0.003938 0.001145 -0.002721 -0.000217 -0.003233 -0.004047 0.001571 -0.003527 -0.004851 -0.002738 0.000857 0.002053 -0.000110 0.003089 0.001066 -0.002006 0.004993 0.003922 0.002845 0.000867 0.000178 -0.004556 -0.003328 0.003127 0.001655 -0.004616 0.003150 0.000619 0.003582 -0.000627 -0.001883 -0.004483 -0.000277 -0.000673 0.000034 -0.004115 0.003713 0.003305 -0.002068 0.002473 0.000889 -0.000195 0.003511 -0.000825 0.001902 0.001419 -0.004667 0.000462 0.002450 -0.002589 0.000902 0.004022 0.001069 0.002436 0.000597 0.001250 -0.000569 0.002233 0.004207 -0.003602 0.002404 -0.000822 0.004047 -0.003726 -0.001152 0.000869 -0.000595 0.004074 0.003990 0.002321 0.000799 0.003425 -0.004474 -0.003069 -0.000235 -0.003143 0.003750 0.004040 -0.004458 0.003883 0.000038 0.003318 0.001119 0.000676 0.002468 0.003234 -0.001709 0.002740 0.000318 -0.003023 -0.002424 -0.001565 -0.001917 -0.000471 0.001798 0.003484 0.000967 -0.002124 0.000060
at 0.004810 0.002733 0.002412 0.001192 0.000240 -0.001106 -0.004086 -0.002951 0.003963 -0.000896 0.003238 0.000772 0.001437 0.003780 -0.003204 0.004046 -0.000152 -0.003555 0.002093 -0.002402 0.003982 0.004252 -0.004433 -0.003878 0.004450 0.004786 -0.003620 -0.001021 -0.002808 -0.003064 -0.000696 0.004807 0.002719 -0.001826 -0.003654 0.003201 0.001466 -0.000178 -0.002164 -0.002626 -0.004743 -0.003494 -0.002141 -0.003416 -0.002435 0.003126 -0.000341 -0.001217 0.004814 0.001989 -0.000278 0.004296 -0.004651 -0.001132 -0.004114 0.004911 -0.003115 0.001500 0.000184 -0.003634 0.003266 -0.001249 0.004690 0.002924 -0.002894 -0.002451 -0.000892 -0.001732 0.002678 0.001431 -0.000064 -0.001785 0.003612 0.003162 0.001814 0.004368 0.003581 0.002005 -0.003900 0.003970 -0.000039 -0.002551 0.000535 0.000302 -0.002778 -0.002124 0.001305 -0.004305 -0.001027 -0.000402 0.002335 -0.002034 0.002606 -0.002668 0.004838 0.000199 -0.003243 -0.001752 -0.001086 0.004768
you 0.004692 -0.000267 -0.003969 0.004790 -0.000138 0.003446 -0.003722 -0.000847 0.004986 0.001407 0.000333 -0.003382 -0.001976 0.002589 -0.004521 -0.001486 -0.003909 -0.003659 -0.003996 0.003513 -0.004619 -0.001533 -0.003552 0.000421 -0.003945 -0.000248 -0.001412 -0.002877 0.002414 0.001449 0.001716 -0.000464 -0.004575 0.003251 -0.004213 0.001493 0.002625 0.001244 -0.004922 0.001385 -0.003387 -0.001175 0.000980 0.002434 -0.003543 0.002401 -0.001571 -0.000056 0.004375 -0.003727 -0.003766 0.002081 0.003155 -0.000965 -0.002573 -0.004183 -0.002834 0.004564 -0.001100 -0.004791 -0.004807 0.003812 0.002483 -0.001699 0.002794 0.000466 0.003753 -0.004363 -0.004640 -0.000168 0.000193 -0.003551 -0.002298 0.002234 0.003589 -0.002083 0.004341 0.001083 0.002031 0.004938 0.004513 0.003964 -0.003063 -0.001809 -0.004092 0.003732 -0.000602 -0.001618 -0.000777 0.000819 0.002515 0.003517 0.004665 0.004381 0.001757 -0.002778 -0.001337 -0.004828 0.004888 0.004011
Steve 0.001272 0.004267 0.004921 0.003896 0.003779 -0.001671 0.002380 0.003572 0.000921 0.001673 -0.001454 0.000321 0.000961 -0.001551 -0.001189 0.000262 -0.001712 -0.000455 -0.003576 0.002569 -0.002343 0.002386 -0.004663 -0.000108 0.004367 0.000801 -0.000013 0.001831 -0.000109 0.000953 -0.002413 0.001730 0.002720 0.001282 -0.002818 -0.002568 -0.001529 0.004758 0.000497 0.004568 0.001595 0.001124 0.003262 0.002852 0.004626 0.003026 0.000856 -0.001847 -0.004980 -0.004886 -0.003372 0.002210 -0.000123 -0.002983 -0.004011 0.001007 0.003822 0.001634 0.000099 0.002237 -0.001053 0.003675 -0.001830 0.002746 -0.000642 -0.003434 0.003833 -0.000592 0.001880 -0.003282 0.002315 -0.004501 -0.003634 0.003111 -0.000111 0.002505 0.002070 -0.001041 -0.003238 0.003103 0.002162 -0.002564 0.000629 -0.004021 -0.001124 -0.003351 -0.000330 -0.001693 -0.002689 -0.000526 -0.001778 -0.004976 -0.004853 0.002536 -0.000466 -0.000029 0.001827 0.002521 -0.004160 -0.003478
and 0.000144 0.002433 0.001209 -0.000537 0.002977 0.002872 0.004456 0.002465 0.002190 0.004773 0.000051 -0.000984 -0.004917 -0.001538 0.000443 0.003363 0.002197 -0.002398 -0.000350 0.000723 0.001760 0.003712 -0.000871 0.003242 -0.002382 -0.000784 -0.002182 0.001987 -0.004007 -0.004943 0.003532 0.002949 -0.003044 0.003732 0.004502 0.000604 0.003408 0.004723 0.004598 -0.003391 0.003028 0.000941 0.002122 -0.000750 -0.002581 0.003506 0.004638 0.004085 0.003097 0.004465 0.003766 -0.002295 -0.004100 0.001719 -0.001553 0.003841 0.000373 -0.002429 -0.004612 -0.002916 0.001467 0.003582 0.000039 0.001257 0.001644 -0.002424 -0.004748 0.003977 0.003776 -0.004877 0.002330 0.003390 0.001387 -0.004216 -0.001302 -0.004258 -0.004923 0.003352 -0.000974 -0.001374 0.000611 0.001180 -0.000126 -0.002559 0.001072 0.002419 0.000516 -0.000765 0.002995 0.004822 -0.004152 0.004927 -0.004535 0.003870 0.002962 -0.001242 -0.002912 0.001603 0.002381 -0.001427
Thank -0.001559 -0.000825 0.001890 -0.002160 0.000067 0.000599 -0.000875 0.004720 0.001037 0.000055 -0.000662 0.001295 -0.003545 0.003919 -0.004910 -0.001549 -0.002344 -0.000266 -0.004250 -0.002527 -0.003196 0.001931 -0.000704 0.002779 -0.003660 -0.003998 -0.000972 0.001969 0.000468 -0.004919 -0.003669 -0.002613 -0.001134 0.003361 -0.002368 -0.002004 -0.003014 -0.000660 -0.001738 -0.001411 -0.001090 -0.000605 0.001650 0.002422 -0.001399 0.001379 0.002929 -0.004604 -0.002794 -0.003893 -0.004029 0.000597 0.002347 -0.004134 -0.002920 0.002083 -0.002270 0.001063 0.000652 -0.003849 0.003123 -0.002052 -0.004310 0.002391 -0.002020 0.003146 -0.002853 0.004199 -0.000328 -0.004075 -0.002129 -0.000960 -0.002039 0.000692 0.004758 0.000874 0.002053 -0.003856 -0.002519 0.001167 0.004548 -0.001819 0.000719 -0.002582 -0.000614 -0.000770 -0.003525 0.000978 0.004881 0.002570 -0.002086 -0.000344 0.003348 0.003224 -0.001178 0.003594 0.000907 0.003160 0.002935 -0.004961
is 0.000504 0.000973 0.003516 0.001981 0.000054 -0.002848 -0.004620 0.004117 0.001332 -0.001160 -0.001766 0.002176 -0.004491 -0.001017 0.000006 -0.000366 0.000332 -0.000287 -0.004759 -0.002341 0.000180 0.000520 -0.004547 0.002217 0.002003 -0.004131 0.004334 0.002196 -0.004995 0.000765 -0.004165 0.003579 0.004444 -0.003006 0.002799 0.001889 -0.004096 -0.001443 0.003278 0.002556 0.000764 -0.000063 0.001759 0.004373 -0.000416 -0.003391 -0.000870 0.002029 0.003458 -0.004448 0.002791 0.000624 -0.000510 -0.004843 0.000931 -0.002168 -0.003056 0.002825 -0.003876 0.004295 -0.003223 0.002169 0.000415 0.002734 0.002708 -0.004408 0.003919 0.001659 -0.002048 0.000909 0.004195 0.002619 0.000593 -0.001145 -0.004380 0.001155 -0.001981 -0.000824 0.003875 -0.004945 0.000442 -0.001416 -0.002481 -0.002591 -0.003846 -0.004817 -0.001204 0.003011 0.001386 -0.002309 0.000848 -0.003518 -0.003286 -0.003949 -0.000081 0.002312 0.000942 0.000533 -0.003000 0.002704
Jim 0.004585 -0.002191 0.002330 0.001516 0.000331 -0.003660 0.003962 -0.004822 0.000988 0.004879 -0.004568 0.004620 -0.000354 -0.004018 0.004804 0.000961 -0.001627 0.003156 0.001532 0.001957 0.003088 -0.002249 -0.004570 -0.001168 0.000220 -0.003347 -0.001645 -0.000442 -0.001078 -0.004883 0.004088 0.002780 0.002512 0.001498 -0.003533 0.003592 -0.001618 -0.000444 0.001747 0.001014 0.001402 -0.000357 0.002673 0.001290 -0.003466 0.003479 0.004427 -0.001397 -0.002009 0.002862 -0.002625 -0.001995 0.001179 0.001520 -0.001703 0.002104 -0.002612 0.002962 0.000503 -0.004641 0.000677 -0.001477 0.003464 0.000077 -0.000993 0.004213 -0.004369 -0.003304 0.001291 -0.002814 0.002098 -0.003002 0.003274 0.003975 0.001015 0.003511 0.003981 -0.000240 -0.000683 -0.001317 0.001199 0.001263 0.002075 -0.002472 0.002979 -0.003474 0.001707 -0.001901 -0.004150 0.001155 -0.001085 0.000855 0.000403 -0.004872 0.002277 0.001167 0.001552 0.003368 -0.001985 -0.004908
am 0.003435 -0.000095 0.000110 -0.003094 -0.000429 0.004184 0.001604 -0.003066 -0.004941 -0.001355 0.001620 -0.004936 -0.001781 -0.002479 0.001583 -0.000872 0.001839 0.002058 0.001295 -0.004539 -0.003850 -0.002672 -0.003141 0.004360 0.001586 0.004858 0.003103 -0.002193 -0.001458 -0.002741 -0.002124 -0.001712 -0.002975 0.004465 0.002405 0.000958 -0.002188 -0.002111 0.002469 -0.002089 -0.003862 -0.002744 -0.001404 0.004235 -0.001721 0.003330 -0.001915 0.003165 -0.004580 0.002388 -0.001655 0.001851 -0.000674 -0.003968 -0.001620 -0.000404 0.001331 -0.001020 -0.001762 -0.002181 -0.001825 0.002381 0.001840 -0.004540 0.002116 -0.000072 0.000212 -0.003670 0.003459 -0.000723 -0.000583 -0.003711 -0.002868 -0.002696 0.001340 -0.004412 0.003733 -0.004641 -0.002614 0.001681 -0.004654 0.000614 -0.003874 0.000227 -0.001424 -0.004779 0.002281 0.000062 -0.000996 0.001006 0.004797 0.001470 0.002568 -0.004377 0.000878 0.003364 -0.003536 0.004882 0.002653 0.000044
, -0.001443 0.004662 0.000115 -0.001302 0.004252 0.003360 0.003977 -0.000747 0.001996 -0.002102 -0.002657 -0.001106 0.002445 -0.004941 0.002990 -0.004689 -0.001698 0.003914 -0.001611 0.001867 -0.002221 0.003553 0.001681 -0.001288 0.000975 -0.001868 -0.001272 -0.002716 0.001690 0.004884 0.001802 0.004879 -0.000979 0.004802 0.002999 0.003132 0.004036 -0.001100 0.003313 -0.004108 0.003836 0.000322 0.001600 0.001887 0.004893 -0.003734 0.002690 -0.000740 -0.000931 -0.003887 -0.004678 -0.000036 0.002723 0.003286 -0.002738 -0.000873 -0.000331 0.002648 0.001482 -0.001592 -0.000717 -0.001495 -0.004441 -0.004056 -0.002275 -0.004425 -0.001991 -0.002405 -0.000446 -0.000446 -0.003583 0.000480 -0.001799 -0.000885 -0.003317 0.000553 -0.000809 -0.004790 -0.000025 0.002352 0.003399 -0.003698 -0.004096 -0.002199 -0.001206 -0.004706 0.002687 -0.004708 -0.002312 -0.002675 -0.003830 -0.002847 -0.000502 -0.004754 0.002514 -0.001071 0.003471 -0.001955 0.001380 -0.004581
McVicker -0.003337 -0.002364 -0.000274 0.003097 -0.003415 -0.001773 -0.001756 0.001780 0.003156 -0.003807 0.001643 0.004463 0.001882 -0.002845 0.003555 -0.004216 0.001760 -0.000163 0.000469 0.002086 -0.001373 0.000319 0.004538 0.000668 0.002470 -0.000571 -0.001433 -0.000449 0.004278 0.004794 -0.002443 0.000026 0.001119 -0.004429 0.003876 0.001284 0.000304 -0.002708 -0.001578 -0.002902 0.003908 -0.003188 -0.000057 0.004797 -0.001669 0.000556 -0.002081 -0.004318 0.001818 -0.002433 0.004811 0.003137 -0.003258 0.004395 -0.001139 0.004776 0.003997 0.004050 -0.003125 -0.000834 -0.003395 -0.004734 0.000664 0.002280 -0.002571 0.001398 -0.003522 0.001952 0.002776 -0.001310 -0.000579 -0.002932 -0.000017 0.004722 0.004632 0.001783 -0.000860 -0.002345 0.004763 -0.000730 -0.003943 -0.004774 -0.004799 -0.003775 -0.000646 -0.004208 0.002788 0.001079 0.003818 -0.003233 0.000885 0.003598 -0.001868 -0.004741 -0.003689 -0.003586 0.003673 -0.000519 0.000751 0.004528
information -0.000362 0.001343 0.004121 -0.000089 -0.001995 0.002776 -0.003748 0.000920 0.002800 -0.003532 -0.004787 -0.001506 -0.004527 0.000117 0.002292 -0.002316 -0.000816 0.001012 -0.003160 -0.003648 0.004352 0.003421 0.004947 -0.001212 0.003895 -0.001470 -0.002679 -0.002448 -0.002893 -0.004753 -0.003183 -0.000249 0.004883 -0.002174 0.003455 -0.001722 0.001829 -0.000670 0.002926 0.002078 0.002724 -0.001746 -0.004684 -0.001952 0.000404 0.002854 0.004740 0.004401 -0.004894 0.001104 0.004395 -0.004299 -0.003906 0.003499 -0.001161 -0.000793 0.002420 -0.000174 -0.002374 -0.001623 0.004600 0.002019 -0.003654 -0.003628 0.002440 -0.000662 0.004974 -0.001426 -0.004686 -0.004334 0.000932 -0.002037 -0.001964 -0.000275 -0.004022 -0.001876 -0.001129 -0.000485 0.004497 -0.004980 0.001810 -0.004207 -0.000669 -0.001771 -0.002212 0.001162 0.003772 0.004618 0.004552 0.000275 0.001516 0.003483 -0.001619 -0.004942 -0.000821 0.005000 0.001307 0.003698 0.003529 -0.001974
) 0.004365 -0.001597 -0.001672 -0.002453 -0.000502 0.001352 -0.001573 -0.004190 -0.004785 -0.003544 0.004990 -0.003074 -0.003076 0.001231 -0.003939 -0.001703 0.004640 0.000617 -0.003223 0.002246 0.004462 -0.003173 0.002693 0.002104 -0.004989 -0.004195 0.000705 0.003873 -0.003144 -0.000230 -0.002184 0.000369 0.001364 0.002190 0.002767 -0.003383 0.001415 -0.003496 -0.003492 0.000886 0.001008 -0.002467 -0.002954 -0.003977 -0.003076 0.001724 -0.004524 0.001969 -0.002973 0.004159 -0.003337 0.000203 -0.002852 -0.004621 0.001826 0.000086 0.000737 -0.000957 0.004567 -0.003753 0.003841 0.003755 -0.001538 0.003133 -0.004078 0.003232 0.002947 0.002634 0.000267 0.004355 -0.003882 0.003031 -0.003320 0.001734 0.001105 0.001445 0.002928 0.000498 0.000321 0.001992 -0.004886 0.003854 0.003776 0.000534 -0.002268 -0.003721 -0.000974 0.004151 0.003861 0.004394 -0.000479 -0.000218 -0.004405 0.001702 0.000436 -0.004094 -0.000451 -0.001585 -0.000397 -0.003364
Assistant 0.004837 0.000618 -0.002032 0.002753 0.000134 -0.002013 -0.004998 0.003033 -0.002441 -0.003343 0.003201 -0.002213 -0.001446 0.003781 0.002972 -0.002351 -0.004028 0.004790 0.002643 0.003337 -0.003553 0.002391 -0.001030 -0.004637 -0.002145 -0.002514 0.003064 -0.002619 0.000803 0.002632 0.003741 0.002879 -0.002673 -0.002063 0.000493 0.004974 0.003239 -0.004951 -0.000437 -0.002733 -0.001317 0.002323 0.004802 0.001314 -0.003799 -0.004317 0.004830 -0.000398 -0.004711 0.002304 -0.001982 -0.003048 -0.001412 -0.001299 0.003903 -0.001486 -0.001291 -0.001449 0.000550 -0.003107 -0.003839 0.001567 0.001295 0.002301 0.003752 0.002778 -0.002715 0.003024 -0.001429 0.002267 -0.004999 -0.003481 -0.001425 0.001955 0.004310 -0.004916 0.004859 -0.000685 0.003014 -0.000656 -0.000810 0.004573 0.003804 0.000268 0.001843 0.002741 -0.003605 -0.001434 -0.000646 -0.000139 -0.004898 -0.001745 0.002113 0.001162 -0.002040 0.004197 -0.001432 -0.003823 0.003140 -0.002772
Kean 0.002185 -0.004034 -0.003215 -0.004954 -0.000527 -0.002499 -0.003773 -0.003209 -0.002118 0.002759 0.004358 -0.001239 0.003731 -0.002241 0.002413 -0.002080 -0.001616 -0.004525 -0.001713 -0.002990 0.002101 0.004537 -0.004548 -0.000744 -0.004326 -0.000599 0.001606 0.002039 0.000358 -0.004458 0.001130 0.000268 0.004270 -0.000378 -0.004400 0.003042 -0.001571 0.001236 0.003741 -0.003548 0.003671 -0.004468 0.001949 0.003750 0.000737 -0.000538 -0.000970 -0.000868 -0.003756 -0.001411 -0.002678 0.002880 -0.004479 0.002808 -0.004982 -0.002866 -0.004880 0.000703 -0.001442 0.002939 -0.001889 -0.004534 -0.004987 0.001124 -0.001177 0.000273 -0.001647 -0.001388 -0.003178 -0.001742 0.000330 -0.000265 0.000004 -0.001168 -0.001061 -0.000025 0.001725 0.002925 -0.001151 0.004451 -0.002402 -0.001697 0.002218 -0.002235 -0.001405 -0.001745 0.001062 -0.001751 0.002202 -0.000966 0.004824 0.000485 -0.000153 0.001412 0.000491 0.000639 0.004176 0.001454 -0.004465 0.004707
925-600-2085 -0.000219 0.003443 -0.003688 -0.000186 0.003628 0.004634 -0.004244 -0.001107 -0.001363 -0.001169 -0.000242 -0.002308 -0.003443 -0.004703 0.001836 0.000937 -0.002438 0.002533 -0.000761 0.000776 0.004560 -0.001767 -0.001292 0.000327 -0.000333 -0.001236 0.003397 0.002063 -0.001994 0.000979 -0.001242 -0.003070 0.003348 0.003196 0.002005 -0.003061 0.004671 -0.003991 0.001073 0.003008 -0.004791 -0.004442 0.003654 -0.001471 0.001910 -0.000201 -0.004151 0.001649 0.000294 0.003839 0.003490 -0.003990 -0.000738 -0.001380 -0.002142 0.004096 -0.000841 0.004552 -0.002213 0.003929 0.002578 -0.000261 -0.000330 -0.001851 0.004878 -0.002314 -0.003402 0.003742 0.004993 0.004258 0.000597 -0.000317 -0.000150 -0.004248 0.004914 -0.004193 0.004897 0.003983 0.001892 -0.004867 -0.001919 0.003389 -0.000667 0.003238 -0.004759 -0.000190 0.002908 -0.000379 -0.002762 0.000159 -0.000922 0.003062 -0.001892 -0.003395 -0.002925 0.003406 0.004453 -0.002611 -0.000580 -0.000130
Maureen 0.002185 0.000128 0.001724 0.004533 -0.003346 -0.000970 -0.000118 0.000882 0.000165 -0.001676 0.003551 -0.004851 0.001082 0.004033 -0.003846 -0.000732 -0.002404 -0.004122 0.003514 0.004907 -0.001810 0.004497 0.000032 -0.003541 -0.001413 0.004310 0.003148 0.001183 -0.003564 -0.004726 0.004465 -0.003764 0.004698 -0.004396 0.002517 0.002729 0.001184 0.003415 0.004625 0.004252 -0.000330 -0.004428 0.001830 -0.000707 0.003046 -0.004441 0.000169 0.003101 -0.003849 -0.003911 -0.002417 -0.002153 0.001079 -0.004875 0.001745 0.003769 0.002571 0.004079 -0.004141 0.001832 0.001092 0.002286 0.003929 -0.004310 0.002765 0.002523 0.000268 -0.001088 -0.002482 0.000333 -0.002608 0.003236 0.003905 -0.000722 0.001312 0.002909 -0.002997 0.003336 -0.001529 0.003383 -0.004150 -0.002943 0.002467 -0.001316 0.000479 -0.002797 -0.001595 0.004196 0.004119 -0.001233 0.004964 -0.000898 -0.001061 -0.001164 0.003502 0.000378 -0.000417 0.000021 0.003219 0.003644
email -0.003587 -0.004671 0.002920 -0.001995 0.004127 -0.003051 0.004012 -0.002223 0.003119 0.004987 -0.003172 -0.001517 0.004882 0.001903 -0.002721 -0.002431 -0.004174 0.003421 -0.000929 0.000911 0.001997 0.004707 -0.003054 -0.002743 -0.004744 0.001728 -0.004667 0.001863 0.001648 -0.001521 0.001032 -0.002556 -0.000285 0.001231 -0.002137 0.002088 0.004587 -0.002875 -0.003442 0.004762 0.000146 -0.001135 -0.003522 0.003015 -0.003487 -0.001062 -0.002838 0.000135 -0.003380 -0.000376 0.004416 -0.004659 -0.003837 -0.000468 -0.001246 0.004353 0.000100 0.003552 0.004397 -0.001644 -0.003788 -0.003032 -0.000057 0.000119 0.002931 0.000730 -0.003386 0.000851 -0.004167 0.004791 -0.001014 -0.000611 -0.000818 -0.000914 -0.002822 -0.003611 0.003510 0.004328 -0.003968 -0.001246 -0.002431 0.000004 -0.003478 0.000344 0.004415 -0.004354 -0.002246 -0.004017 -0.001163 -0.004379 0.001762 0.004511 0.004348 0.001493 -0.001766 0.001893 0.002339 0.002109 -0.000693 0.001380
's 0.004087 -0.000231 0.003082 -0.004257 -0.002483 0.001876 0.001627 0.003835 -0.004611 -0.003231 0.003562 -0.004280 -0.000267 0.003037 -0.003418 0.001829 -0.002749 -0.002034 0.003621 0.001191 -0.003648 -0.000936 -0.000258 -0.002203 0.003995 -0.004079 -0.004287 -0.003848 -0.003025 0.004663 0.004553 0.002188 0.002890 0.004102 0.004718 -0.002352 0.002746 0.004008 -0.000457 0.004754 0.000166 -0.001934 -0.001708 0.004860 -0.001546 -0.003559 0.000117 -0.000244 0.000364 0.001429 0.000395 0.002905 -0.000846 -0.000210 0.004558 -0.004038 -0.000752 0.000571 -0.000466 -0.002580 0.000112 -0.004495 0.003023 0.003125 -0.003051 -0.000411 -0.002248 -0.000323 -0.002289 0.002709 0.000064 -0.001770 -0.000377 0.002091 0.004967 0.002719 -0.004627 0.004191 0.003167 -0.003332 0.002565 -0.000770 0.001400 0.001796 0.000188 0.003397 -0.000418 -0.001726 -0.001253 0.004599 -0.004540 -0.004961 -0.003625 -0.003691 0.001935 -0.003965 0.000142 -0.004734 0.000161 -0.001683
I -0.004324 0.003337 -0.000110 -0.001199 -0.001462 0.001112 -0.002971 0.003886 0.002106 -0.000962 0.001585 -0.001644 0.000310 0.002064 -0.000960 0.002253 -0.003589 -0.004853 0.001652 -0.004219 0.003861 0.002878 0.003284 0.001638 0.004872 0.003482 0.000124 -0.003162 -0.003511 0.003242 -0.004563 0.001496 -0.003339 -0.001416 0.001147 0.003920 -0.003005 -0.001370 0.004151 -0.002451 0.001949 -0.001502 -0.001810 0.001034 -0.003564 0.004278 0.004595 0.002417 0.003162 0.002303 0.004606 -0.002371 -0.002395 0.000397 0.000591 0.003900 -0.003862 0.000404 0.002674 -0.003065 -0.000139 0.003163 0.004357 -0.002230 -0.001090 0.001817 0.002878 0.002737 0.004418 0.001403 -0.000239 -0.002492 -0.002245 0.001102 0.002406 0.001630 -0.003098 -0.002973 -0.002416 0.003543 -0.002425 0.003330 -0.004849 -0.003248 0.003518 0.003125 0.001468 0.002782 -0.001913 -0.002482 -0.004098 0.001998 0.002151 0.003386 -0.003592 -0.003582 0.003154 0.003014 -0.001788 -0.004716
925-600-2306 -0.002064 0.003814 0.000601 -0.003821 0.004545 0.003216 -0.002714 0.004431 0.004561 -0.001909 -0.004669 -0.003869 0.004752 0.004771 -0.000351 0.001939 0.003830 0.004471 -0.000039 0.000988 -0.000094 -0.003321 -0.001874 0.004737 -0.003786 0.001742 -0.001654 -0.002892 -0.001110 -0.000488 0.001848 -0.001544 -0.002148 0.001934 0.000917 0.000416 -0.003204 -0.001052 0.002904 -0.003102 -0.003214 -0.000444 0.002305 0.000361 0.000442 0.001928 -0.002754 0.001947 0.001661 -0.004895 -0.004579 -0.004037 -0.004857 -0.000923 -0.001392 -0.002289 0.004619 -0.004223 0.004732 -0.002757 0.002113 0.004727 -0.004722 -0.001521 0.001302 -0.001169 0.001230 0.003447 -0.000403 0.000507 0.000480 0.002614 -0.003885 -0.003652 0.002054 0.002604 0.003954 -0.000306 -0.001496 0.001855 -0.001899 0.003075 0.001073 -0.000718 0.000265 -0.000282 0.003802 -0.001548 -0.001192 -0.003567 0.004215 -0.003224 -0.000150 0.000985 -0.000859 -0.004300 -0.002547 -0.000308 -0.002081 0.004175
Macias -0.001668 -0.003635 0.002542 -0.002858 -0.004129 -0.000888 0.002437 -0.004110 -0.002855 0.002896 0.004451 -0.000269 0.002231 -0.004313 0.001994 -0.001544 0.002573 0.000806 0.002166 0.000355 0.001204 0.004352 -0.001733 0.003297 -0.001607 -0.002533 0.001553 -0.002926 0.002344 0.001202 -0.000317 -0.002814 -0.003602 -0.004103 0.001183 0.004265 -0.004576 -0.002297 0.004060 -0.003552 -0.004419 0.000453 0.002176 0.000723 0.001428 -0.002017 -0.003753 0.001189 0.000131 0.004905 -0.002639 0.004257 0.002805 0.004513 0.004380 0.001271 -0.002289 0.003323 -0.004307 -0.003560 0.003903 0.004061 -0.002546 -0.001690 -0.003704 -0.000219 0.003883 0.000924 0.000440 -0.001907 0.004311 -0.002146 0.004445 -0.002096 -0.001874 -0.003664 0.001866 0.002889 -0.004354 0.003144 -0.004420 -0.004194 -0.003430 0.002757 -0.004180 -0.004515 0.004786 0.002676 -0.004637 -0.003563 -0.000204 -0.001969 0.001081 -0.002981 0.004508 0.001036 -0.002740 0.003772 -0.002364 -0.004931
-- 0.003599 -0.001623 -0.000338 -0.004052 -0.003187 0.000003 0.004645 0.002564 -0.003367 -0.001726 0.004502 0.001392 -0.001668 0.004595 0.000273 -0.002909 0.003328 -0.003700 0.003865 0.001758 -0.003093 0.003598 0.001459 -0.001424 -0.004665 0.001826 -0.000222 -0.001500 -0.002267 -0.000976 -0.004502 -0.000083 0.001093 0.000346 -0.004885 0.000779 0.004820 0.000823 0.002026 -0.004649 -0.002742 -0.000703 -0.002239 -0.001446 -0.003782 0.003492 -0.000271 -0.002089 -0.004830 0.003712 0.000496 0.001034 0.001741 0.001006 -0.004775 0.001083 0.004263 -0.001236 0.003858 -0.004077 0.004111 -0.004458 0.000731 -0.003352 -0.001089 0.003802 0.002087 0.000939 0.002316 -0.000228 0.002783 0.004664 0.001599 -0.000299 -0.000784 0.003704 0.001433 -0.001039 -0.004765 -0.002356 0.002448 -0.004610 0.004204 0.001741 -0.000548 -0.001648 -0.002129 -0.000027 0.001491 -0.003788 0.000995 -0.000200 -0.003804 0.002984 0.000072 -0.002969 0.001377 0.001063 -0.000575 0.004718
Thanks -0.000934 -0.002261 -0.001524 -0.003992 -0.001110 0.002116 -0.004426 0.002238 -0.003583 0.003893 0.003534 -0.002289 -0.000465 -0.002551 0.001637 -0.000518 -0.001593 0.000574 -0.003960 0.002008 0.004251 0.002244 0.003791 0.000515 0.004781 0.002573 0.002013 0.002630 0.002167 -0.002566 -0.002163 0.002585 0.000495 0.000863 0.003366 0.000787 -0.000400 0.003862 0.004411 0.001873 0.001434 0.000428 0.003584 -0.004449 -0.004077 0.002307 -0.002352 -0.004175 -0.004094 0.004609 -0.001013 0.004889 0.000627 0.003161 0.002762 -0.001955 0.001636 -0.002339 0.003963 0.000876 0.001652 0.003942 0.002237 -0.004137 0.001408 0.000705 0.003327 -0.004626 -0.004083 -0.004632 0.004834 0.001664 0.002104 -0.002614 -0.002565 -0.003608 -0.004650 -0.001715 -0.000281 -0.002702 0.001272 0.003848 0.004684 0.004666 -0.000654 0.000277 0.001055 -0.004076 0.001542 -0.001451 0.001020 -0.002772 0.000372 -0.000995 -0.000650 0.002261 0.000838 -0.002749 -0.000381 -0.004507
