4 100
ftp -0.003227 -0.000720 0.002021 0.000599 -0.002733 0.001114 0.001544 -0.003960 -0.001616 -0.001996 -0.001937 0.003656 -0.000281 -0.003925 -0.004946 -0.003575 0.002944 -0.003273 0.003452 0.003270 -0.000820 -0.003667 -0.000187 -0.004392 -0.001602 -0.001612 0.004261 -0.002789 0.004264 -0.002795 -0.004471 0.004966 0.000268 -0.000374 0.000284 0.004545 -0.003333 -0.001916 -0.003201 -0.004385 0.003516 0.002890 0.002439 -0.004912 0.001729 0.000885 -0.000610 -0.003145 -0.003594 0.004529 0.001730 -0.004463 0.000473 0.001797 -0.003475 0.002712 -0.002110 0.002832 0.002982 0.000581 0.001541 -0.000097 -0.004583 0.004534 -0.004726 0.002909 -0.004064 -0.003195 -0.003966 0.000323 0.002117 -0.000066 -0.001677 0.003821 -0.003464 -0.002257 0.000710 -0.000164 -0.002833 0.002767 -0.004746 -0.004592 0.004357 -0.001927 0.001511 -0.004197 -0.003390 -0.004337 -0.004151 0.003823 -0.003374 -0.001994 0.000151 -0.000859 -0.001505 -0.001655 -0.000882 0.002170 0.003384 0.001429
: 0.000278 0.001676 -0.002286 0.003865 0.000613 0.002980 0.004324 0.000660 -0.001589 -0.000266 -0.001496 0.001305 -0.001005 0.002798 0.000707 0.004280 0.000790 -0.002823 -0.003333 -0.004363 -0.001264 0.000902 0.001129 0.004876 0.002874 0.003508 0.001411 -0.003511 -0.001793 -0.000271 0.001524 0.001888 -0.002867 0.002546 0.004975 0.003451 0.000907 -0.000732 0.001789 -0.000375 -0.003013 -0.001031 -0.001430 -0.003805 0.000198 -0.000420 -0.004118 0.001522 0.002394 -0.004892 -0.000214 -0.004574 0.002863 0.000910 0.000348 -0.000507 0.002251 0.004275 -0.003481 -0.002785 0.000693 -0.004866 -0.003457 -0.003420 -0.002332 -0.000289 0.000767 0.004269 -0.002687 -0.002327 0.000670 0.004674 0.002795 0.000529 0.000459 0.001295 -0.000012 0.001440 0.002339 0.002886 -0.002329 0.004802 0.001252 -0.001545 -0.004421 0.004709 0.002746 0.004401 0.003248 0.003304 0.000661 0.001033 -0.000272 -0.004421 0.000103 0.003532 0.002809 0.000193 -0.003992 -0.000684
//csf.colorado.edu/ipe/Thematic_Archive/documents/nafta/nafta_analysis/naf -0.001537 -0.000795 -0.003919 0.002817 -0.003220 0.004410 -0.003880 -0.001455 0.000447 -0.000573 -0.002374 -0.002827 0.004574 -0.004427 -0.002928 -0.004098 -0.002833 0.004086 0.002477 0.000469 -0.004947 0.004005 0.001070 -0.000198 -0.004790 0.002112 -0.001466 0.004319 -0.002499 0.000551 -0.003977 -0.001946 -0.000284 -0.000736 0.004258 0.004794 0.001932 0.004160 -0.000719 0.000216 0.000348 -0.002199 0.001502 -0.003148 0.001113 -0.002841 -0.000186 -0.003614 0.002163 0.004437 0.002063 0.004882 0.001165 -0.000905 -0.003467 -0.000918 -0.001936 0.004509 0.001332 -0.001960 -0.004110 -0.001651 0.002301 0.003318 0.000040 0.004356 -0.001949 0.001526 0.003766 -0.000016 0.002624 0.003314 -0.003471 -0.000748 -0.000020 0.001773 0.002075 0.001429 0.001925 -0.001719 0.000962 0.003770 0.004417 0.003506 0.003404 0.000532 -0.003293 0.002255 0.002930 -0.000772 -0.001462 0.003460 -0.004080 -0.002031 0.003159 0.003878 0.002535 -0.003339 -0.001559 -0.003193
ta.job.report.950904 -0.000604 -0.001096 0.004452 0.004563 0.000872 -0.000767 -0.000481 0.000018 -0.002859 -0.003150 0.002207 -0.003830 0.002050 -0.000432 0.004381 -0.004084 0.003896 0.002756 0.003374 -0.002809 -0.004210 0.001609 0.000451 0.000594 0.002883 -0.004905 -0.002075 0.003737 0.000835 0.002851 -0.001638 0.002752 -0.002371 -0.001169 0.001717 -0.004049 0.003387 0.002176 -0.003480 -0.002803 -0.001421 0.001257 -0.001957 -0.004025 -0.003714 -0.003235 -0.000203 0.000801 -0.002898 0.002141 0.001076 -0.002932 0.000892 -0.002409 -0.004674 -0.002621 0.002246 -0.001449 0.003810 -0.001694 0.004878 0.000637 0.000591 0.001168 -0.004893 0.003712 -0.002082 0.004016 -0.002609 -0.000118 -0.002799 0.003860 0.003808 0.003377 -0.001999 0.000256 0.002960 -0.001135 0.000563 -0.004822 0.002381 0.003200 0.000815 -0.000415 -0.000609 0.003452 0.004276 -0.003409 0.000619 0.001813 0.003073 -0.000299 -0.000138 0.004095 0.002611 -0.000979 0.000848 0.001358 0.002742 -0.000793
