25 100
you 0.004697 -0.000275 -0.003988 0.004793 -0.000145 0.003470 -0.003716 -0.000881 0.004995 0.001434 0.000309 -0.003399 -0.001960 0.002601 -0.004528 -0.001502 -0.003916 -0.003658 -0.004016 0.003514 -0.004633 -0.001551 -0.003549 0.000429 -0.003959 -0.000238 -0.001394 -0.002874 0.002435 0.001447 0.001719 -0.000458 -0.004578 0.003240 -0.004232 0.001502 0.002625 0.001244 -0.004945 0.001397 -0.003402 -0.001170 0.000971 0.002426 -0.003544 0.002384 -0.001579 -0.000059 0.004395 -0.003738 -0.003774 0.002077 0.003149 -0.000991 -0.002566 -0.004188 -0.002839 0.004561 -0.001087 -0.004781 -0.004802 0.003815 0.002499 -0.001695 0.002792 0.000459 0.003749 -0.004357 -0.004644 -0.000165 0.000190 -0.003547 -0.002306 0.002234 0.003603 -0.002097 0.004344 0.001102 0.002010 0.004943 0.004537 0.003956 -0.003075 -0.001829 -0.004106 0.003748 -0.000606 -0.001630 -0.000770 0.000808 0.002503 0.003509 0.004690 0.004405 0.001775 -0.002771 -0.001353 -0.004835 0.004893 0.004024
is 0.000508 0.000968 0.003515 0.001982 0.000048 -0.002848 -0.004619 0.004115 0.001332 -0.001156 -0.001778 0.002181 -0.004494 -0.001021 0.000010 -0.000366 0.000330 -0.000286 -0.004763 -0.002342 0.000171 0.000518 -0.004551 0.002222 0.002003 -0.004132 0.004334 0.002197 -0.004996 0.000769 -0.004166 0.003580 0.004445 -0.003007 0.002799 0.001889 -0.004103 -0.001446 0.003279 0.002560 0.000769 -0.000059 0.001761 0.004375 -0.000419 -0.003391 -0.000866 0.002024 0.003460 -0.004451 0.002796 0.000621 -0.000507 -0.004845 0.000932 -0.002172 -0.003060 0.002820 -0.003875 0.004303 -0.003223 0.002168 0.000413 0.002734 0.002709 -0.004409 0.003917 0.001659 -0.002052 0.000905 0.004196 0.002618 0.000586 -0.001145 -0.004388 0.001155 -0.001979 -0.000827 0.003882 -0.004953 0.000448 -0.001413 -0.002480 -0.002594 -0.003845 -0.004817 -0.001208 0.003014 0.001386 -0.002307 0.000844 -0.003515 -0.003284 -0.003952 -0.000083 0.002314 0.000935 0.000532 -0.003003 0.002707
want -0.004193 -0.000949 0.000066 -0.004867 -0.002369 -0.001344 0.000002 0.000314 -0.002122 -0.003906 0.000594 -0.002262 0.000573 0.001298 0.004839 0.001800 0.001258 -0.002140 0.002817 -0.000116 0.000849 0.002446 0.004927 -0.002778 -0.001786 -0.001844 0.000073 0.004517 0.003941 -0.001121 0.004505 0.002121 -0.003087 0.001927 -0.001678 0.000683 0.004990 0.000715 0.001866 0.000490 -0.002994 0.004033 0.003366 -0.002447 -0.001209 -0.000909 -0.004665 -0.004742 -0.003829 0.003430 -0.000850 -0.001114 0.003702 -0.000438 0.004645 -0.001792 0.003210 -0.002292 0.002273 -0.003946 0.004443 0.004759 0.002948 -0.004661 -0.002755 0.004475 0.000816 -0.003910 0.002822 0.003391 0.003227 -0.003474 -0.003210 0.003947 0.004747 0.002787 0.001089 -0.000436 0.000630 0.002233 0.000416 0.000703 -0.002673 0.003209 -0.004204 -0.004574 -0.001744 0.000772 0.003520 -0.003608 -0.002769 -0.001846 0.001542 0.002171 -0.004029 0.003468 0.003527 -0.003756 0.000643 0.002048
go 0.003365 0.000317 0.000691 0.002686 0.001404 0.000785 -0.003193 -0.001959 -0.003879 0.003273 -0.002079 -0.000042 0.004474 0.002600 -0.001634 -0.002762 -0.003839 0.003788 -0.002414 0.002958 -0.004378 -0.004487 -0.000617 0.003649 -0.003423 0.004500 0.000995 -0.004278 -0.002811 0.003265 0.001024 0.003027 0.001023 0.002633 0.001254 -0.000687 -0.001549 -0.004967 -0.000899 0.003476 -0.002979 -0.000669 0.004761 -0.001965 -0.001869 -0.003897 0.003359 0.000542 0.003569 0.003150 -0.001162 -0.004702 0.001513 -0.003854 -0.001217 0.000631 -0.003074 -0.001088 -0.004434 -0.002757 0.001467 -0.000422 0.002434 -0.002635 -0.000973 -0.004263 0.002606 0.000999 -0.002883 -0.004270 -0.000353 0.000846 -0.000517 0.004473 -0.003117 0.002121 0.001411 -0.002081 -0.003098 0.000266 0.003677 0.004336 0.000357 -0.001067 -0.001696 0.002370 -0.003381 0.001347 -0.000024 0.003609 -0.003392 -0.000679 0.004672 -0.001109 0.003658 -0.002531 -0.004432 -0.001683 0.000401 -0.003820
boat 0.003915 -0.003599 0.002614 0.000263 -0.003745 -0.003415 -0.001055 -0.001254 0.002349 -0.000784 0.000281 0.004953 0.002352 0.000889 0.001827 0.001555 0.001799 0.002243 0.003980 0.002220 -0.001008 0.003795 0.002047 0.000058 -0.001742 -0.003944 -0.000559 0.004700 -0.000718 -0.000554 -0.001736 0.000117 0.002330 -0.002892 0.004140 -0.002507 0.002176 0.002090 0.002986 0.001710 0.002870 -0.001346 0.001850 -0.002116 -0.002884 0.002119 0.001227 0.002933 -0.003853 0.004464 -0.001184 -0.004626 -0.003781 -0.003816 -0.000525 0.000129 0.004901 -0.001971 -0.002169 0.001349 -0.000913 0.002021 0.001963 -0.000060 -0.001175 -0.004104 -0.001835 0.002208 0.003686 -0.001734 -0.002851 -0.003641 0.004823 -0.002334 -0.002907 -0.003758 0.001997 0.004574 0.002154 -0.004225 0.004564 -0.002540 -0.000255 0.003595 -0.001293 -0.003503 -0.003689 0.000718 -0.001735 0.004635 -0.001880 -0.002091 -0.001001 -0.000179 -0.000981 0.003121 -0.001904 0.003498 -0.003204 0.004683
out -0.000796 0.000048 -0.000554 0.000712 -0.004524 0.001226 0.003472 -0.003268 0.004036 0.004553 -0.001926 -0.001179 -0.003378 -0.003888 0.000140 0.001576 0.003903 -0.002733 0.001193 -0.003842 0.003007 -0.002881 0.001415 0.000219 0.001082 -0.004503 -0.002988 0.003096 0.003669 0.002811 0.001400 -0.004954 0.001671 -0.001054 0.001692 -0.002416 -0.004320 0.003489 -0.000741 0.001309 0.002104 -0.004038 -0.004802 -0.003607 0.000108 -0.001695 0.002370 0.002773 -0.000333 -0.004171 -0.000371 0.002307 -0.001218 -0.002490 -0.004896 0.003350 -0.004126 -0.002475 -0.002926 0.000846 0.001725 0.002121 -0.004028 0.001988 0.002123 0.002788 0.001663 -0.002112 -0.001459 0.004079 0.003799 -0.001488 -0.002711 -0.000376 0.000655 -0.004285 -0.000324 0.003498 -0.001971 -0.003198 0.001505 0.004231 -0.003442 0.001676 0.004199 0.000576 0.000318 0.001155 0.002640 0.001544 0.002686 -0.000132 0.001450 0.004116 0.000536 0.004004 0.000067 0.002531 0.003033 0.001629
& 0.000809 0.003176 0.004693 -0.001787 0.002333 0.001748 -0.003227 0.003098 -0.001878 0.004121 -0.003213 -0.004736 -0.000375 -0.003892 -0.004557 -0.004056 0.000917 -0.003121 0.004117 0.001824 0.002088 0.004151 0.003306 0.003579 -0.003250 -0.003315 0.001718 -0.003507 0.004719 -0.004061 0.002241 0.002345 -0.003772 0.001767 0.002043 0.003450 0.002763 0.003316 0.002081 0.003400 -0.000175 -0.001859 0.000114 0.004587 -0.000412 0.003739 -0.002990 0.001237 0.001652 -0.002077 -0.002076 0.004617 0.002897 -0.002232 0.004884 0.000824 -0.003689 0.002311 0.000145 -0.004163 0.004483 -0.003662 -0.003213 -0.002593 -0.002781 0.002201 0.001771 0.002027 -0.003678 -0.004176 0.003009 0.000674 -0.004679 0.002671 0.001781 0.002412 -0.004851 -0.004667 -0.004087 0.002608 -0.003443 -0.001447 -0.001652 0.004667 -0.000900 0.003826 -0.001609 -0.002894 -0.004713 -0.000174 -0.004116 0.001644 -0.004134 -0.002657 0.002615 0.000554 0.000859 -0.000887 0.000768 -0.002389
winner -0.001865 -0.001691 0.002587 0.002881 -0.003145 0.003443 0.002070 0.003099 0.000599 0.001772 -0.004745 -0.004886 0.000681 -0.004107 0.002299 0.003050 -0.000173 -0.004027 0.004662 0.003538 -0.004104 -0.003549 0.004003 -0.003273 -0.004697 0.002679 -0.001554 0.004272 0.000510 -0.004390 0.004202 -0.003066 -0.002057 0.001600 0.002525 0.002003 0.000791 -0.001146 -0.003226 -0.000665 -0.001911 -0.000839 -0.001068 -0.001155 -0.001893 0.004200 0.002633 0.000697 0.002321 0.004895 -0.000879 0.003580 -0.004206 -0.001841 0.003292 -0.003404 -0.002817 0.003212 -0.003909 -0.001046 -0.003068 0.003527 -0.004016 0.004655 0.004689 0.003853 0.004222 -0.004411 0.003256 -0.000246 -0.004453 -0.001424 -0.001244 0.002117 -0.004420 -0.003787 -0.000559 0.003029 -0.002897 -0.003166 -0.000321 0.002142 0.004981 0.003621 0.000945 -0.001914 -0.001130 -0.004160 -0.004641 0.004980 -0.003024 0.001143 -0.004190 0.002851 0.000647 0.002732 0.004151 0.003182 -0.003072 0.000555
. -0.001641 0.003936 0.001144 -0.002721 -0.000218 -0.003234 -0.004047 0.001572 -0.003528 -0.004850 -0.002738 0.000859 0.002052 -0.000110 0.003089 0.001067 -0.002005 0.004993 0.003921 0.002844 0.000867 0.000176 -0.004556 -0.003327 0.003126 0.001654 -0.004615 0.003150 0.000620 0.003582 -0.000628 -0.001884 -0.004484 -0.000277 -0.000674 0.000033 -0.004117 0.003713 0.003303 -0.002067 0.002472 0.000890 -0.000195 0.003511 -0.000827 0.001903 0.001418 -0.004667 0.000463 0.002451 -0.002587 0.000901 0.004022 0.001069 0.002437 0.000595 0.001251 -0.000571 0.002232 0.004208 -0.003602 0.002403 -0.000822 0.004048 -0.003725 -0.001151 0.000869 -0.000594 0.004074 0.003989 0.002323 0.000799 0.003424 -0.004473 -0.003069 -0.000236 -0.003142 0.003750 0.004040 -0.004459 0.003883 0.000039 0.003318 0.001120 0.000676 0.002471 0.003233 -0.001707 0.002740 0.000319 -0.003022 -0.002422 -0.001565 -0.001915 -0.000473 0.001799 0.003483 0.000968 -0.002125 0.000060
to -0.000462 0.004738 -0.002618 -0.004681 -0.004955 0.004808 0.003423 -0.004184 0.000003 -0.000238 -0.004247 -0.000484 0.004233 -0.004757 0.003987 0.003575 0.001304 -0.002475 -0.000775 0.000757 -0.003898 -0.004101 0.003550 0.001218 -0.000986 -0.002574 -0.001455 0.003080 -0.000431 -0.002942 0.000723 0.003309 0.000217 -0.002487 -0.003850 0.002888 -0.003563 0.000663 0.004053 -0.002723 0.001320 -0.002529 -0.004048 -0.004192 -0.001573 -0.001559 -0.002514 -0.003177 -0.001495 -0.002374 0.001235 -0.004809 -0.002917 -0.004322 0.003798 -0.000028 -0.004317 0.001786 -0.000028 0.003068 -0.004101 -0.003099 0.004654 0.002785 -0.001931 -0.002413 -0.000578 -0.002966 0.003621 0.003881 -0.004439 -0.001302 -0.003676 0.003617 -0.000612 0.001468 0.002298 0.003429 -0.002649 0.001848 0.001004 -0.002676 -0.001052 -0.002260 -0.001230 0.003392 -0.000769 -0.003853 -0.001375 -0.004035 -0.004959 0.000526 0.001923 -0.000390 -0.001837 -0.000725 -0.003711 0.002196 -0.001182 0.000035
new 0.001082 -0.002005 -0.003052 -0.004192 0.003055 -0.004600 0.004685 -0.004155 0.001681 -0.002670 0.000871 0.004270 -0.000592 -0.004620 -0.003344 0.003415 0.001361 -0.003502 -0.000613 -0.001674 0.000474 0.004421 0.004176 0.003813 0.003745 -0.001958 -0.003854 -0.001539 0.003136 0.000540 0.002191 0.000293 0.000827 0.004949 0.002871 -0.001569 0.004899 -0.004677 -0.002878 0.004522 -0.001299 0.003558 -0.000949 -0.004254 -0.000021 -0.000028 0.003137 0.002303 -0.001956 -0.001969 0.002263 0.002416 -0.003304 0.001126 0.004636 -0.002943 -0.000854 -0.003922 0.003501 -0.002973 -0.003876 0.002939 -0.000815 -0.003865 -0.002900 -0.001511 0.000382 0.004871 -0.003954 0.002258 0.002503 0.001024 0.000388 0.003255 -0.004746 0.001361 -0.002412 -0.002517 0.001955 0.004272 -0.002481 -0.004773 -0.002966 0.001614 -0.000544 -0.000721 0.000067 0.004612 0.002391 0.000734 0.004759 0.004868 0.001853 -0.001098 -0.003249 -0.003210 -0.004219 0.001887 -0.002303 -0.003380
b/c 0.004628 -0.003531 -0.002301 0.004174 -0.003745 -0.000214 0.003558 -0.003447 0.003081 0.000934 -0.004768 -0.002824 -0.000707 0.000396 -0.001773 0.000180 -0.002459 -0.003780 -0.001851 -0.003213 -0.004788 0.004942 -0.003720 -0.004581 0.002867 0.003719 -0.001554 -0.001375 0.001403 0.002029 0.003542 0.000523 -0.000322 0.000431 -0.000389 0.001394 -0.002341 0.004030 -0.003556 0.003062 0.003578 0.000034 -0.004488 0.003561 -0.003110 0.003228 0.004815 -0.002934 -0.003412 -0.003881 0.002180 0.004661 0.000358 -0.002661 -0.002629 -0.000850 -0.000728 -0.003106 0.003834 0.004080 0.002741 0.003522 -0.001089 -0.001932 0.000349 0.004798 -0.003513 -0.000861 -0.001950 -0.000839 -0.001854 -0.003662 -0.001995 0.000170 -0.000646 0.001970 0.000611 -0.001863 0.002492 -0.003690 0.003857 -0.000821 0.004826 -0.003411 -0.000251 -0.004683 -0.004022 0.001355 0.003998 0.000872 0.000714 0.000571 -0.001582 -0.002703 0.004269 0.004848 -0.003801 -0.001222 0.001821 0.004608
? 0.001872 0.001632 0.004021 0.000338 -0.004491 0.003484 -0.001686 -0.003660 -0.001849 0.002782 -0.003438 -0.002424 -0.004458 -0.002100 0.003576 -0.003748 -0.002627 -0.000848 0.002019 -0.001024 0.000494 -0.004472 0.000158 0.003358 0.001803 -0.004878 -0.004948 0.000773 0.002502 0.001186 0.000891 -0.001746 -0.001280 -0.002153 -0.003284 0.002110 -0.002256 -0.003356 0.002611 0.003971 -0.000949 -0.003636 0.001922 -0.002399 -0.002522 -0.003986 0.002800 -0.001028 0.004765 0.001886 -0.002487 -0.002791 -0.003736 0.004730 0.002025 -0.001433 0.001947 -0.003607 0.001316 -0.001147 0.002176 -0.001182 0.001205 -0.003505 -0.001990 -0.001607 -0.002120 -0.001317 -0.002960 0.000702 -0.001545 -0.000111 0.001972 0.000513 -0.004801 0.003009 -0.000738 0.000472 -0.001229 0.003153 -0.000127 -0.002550 -0.002754 0.001776 -0.002187 0.000174 0.003878 -0.004662 0.001494 -0.003378 0.004865 0.003370 0.002275 0.001606 0.004829 -0.001685 -0.004462 -0.004337 -0.004586 -0.000298
do 0.002263 0.003305 -0.004691 -0.002465 -0.002238 0.003825 -0.001000 0.000332 -0.000648 0.003880 -0.003218 0.002142 -0.002765 -0.003422 0.001912 -0.002981 0.004264 -0.000905 -0.004548 -0.001239 0.002935 -0.003898 -0.003030 -0.003148 -0.002067 0.001610 0.001832 0.002405 0.000109 -0.000198 0.003645 -0.000217 0.004256 -0.002697 0.000333 0.001344 0.003246 -0.004861 0.004318 -0.003653 -0.002897 0.002095 0.002680 -0.003071 -0.003282 -0.004906 -0.000292 -0.002090 0.002846 -0.001516 0.003413 -0.003542 0.004270 0.000483 -0.000839 0.002474 -0.002324 -0.003041 -0.003915 0.003759 0.002743 -0.003365 0.001900 0.003336 -0.004724 0.001469 -0.004823 -0.004931 0.003870 0.002846 -0.001996 -0.003483 0.000579 -0.000198 -0.004562 0.002386 0.002529 0.003096 -0.003620 0.003167 0.002056 0.000260 -0.003399 0.000481 -0.001289 -0.000492 -0.003823 0.000639 -0.002044 -0.002027 -0.002888 -0.001740 0.002521 0.002993 -0.003150 0.003467 0.002730 0.001552 -0.000020 -0.000288
who 0.001288 -0.000060 -0.004939 0.003544 -0.004098 -0.000042 0.002175 0.004736 -0.001412 0.003283 0.004366 0.004683 -0.002425 -0.001366 -0.000700 0.002053 -0.002646 -0.003072 0.003677 0.004204 -0.000470 0.002999 0.001799 0.001251 0.003477 0.004086 0.002130 0.000075 0.002455 -0.000368 0.003436 0.003219 -0.001520 -0.003388 0.004763 -0.002606 0.001067 0.001443 0.002375 -0.000606 -0.002073 0.002815 0.004796 -0.004957 0.000737 -0.004732 0.000106 -0.004541 -0.004868 0.001137 -0.001630 0.004208 -0.000060 0.004036 -0.003685 -0.000380 -0.002194 0.004972 -0.000129 0.003940 0.003391 -0.004146 -0.003172 -0.004204 0.003078 -0.004196 -0.002224 -0.004519 0.001408 -0.001178 -0.000295 -0.004634 -0.002641 -0.000168 -0.001323 0.004540 0.000872 -0.000060 -0.003166 0.003192 -0.004635 0.004599 -0.000954 -0.003544 -0.001438 0.003816 0.000578 -0.001062 0.000220 -0.004769 0.003084 -0.000291 0.002316 0.004336 0.001725 0.000336 -0.004401 -0.002659 0.000952 0.001959
know 0.002302 -0.000054 0.002919 0.002447 -0.003774 0.001331 0.003660 -0.004966 0.000669 0.001859 -0.003596 0.003742 0.003943 -0.000283 0.004425 0.003034 0.004271 -0.003339 0.004864 0.002085 -0.004587 0.004732 -0.004917 0.004440 0.004899 0.002281 -0.001427 -0.001704 0.001488 -0.004267 -0.004281 -0.000114 0.003877 0.000593 -0.003353 0.003817 0.004092 0.002269 -0.003331 0.002694 0.002939 0.000463 0.004794 -0.003415 0.001572 0.003357 -0.001473 -0.002304 0.002130 -0.003760 0.001798 -0.000715 0.001897 0.002427 -0.003203 -0.000496 -0.001997 0.000010 0.004645 0.003956 0.001656 -0.003191 -0.002169 -0.002663 0.000303 0.000058 -0.001887 -0.003271 0.001372 -0.004432 -0.004197 0.004443 -0.003354 0.000947 0.002957 -0.002868 0.003361 -0.000974 0.002752 0.001062 -0.003237 -0.001636 0.002676 -0.000654 0.003300 -0.003002 0.001090 0.000613 0.002866 0.004465 0.003741 0.001774 0.000871 -0.004499 -0.001259 -0.004625 -0.003810 -0.001225 -0.002145 0.004840
with 0.001375 0.002582 0.000191 -0.000898 0.001887 0.000167 0.004763 0.001411 -0.001554 0.001317 -0.002588 -0.003761 0.000175 0.004584 -0.000354 -0.004469 0.003056 -0.000423 -0.000754 -0.002465 -0.002193 0.001193 -0.002516 0.004519 -0.004028 -0.001096 0.001299 -0.004874 0.002642 0.004150 -0.003602 0.000388 0.000518 -0.000497 -0.003686 0.000739 0.000123 -0.003082 -0.000188 0.000495 -0.001222 0.000328 0.001291 0.004470 -0.004569 -0.002181 0.001430 -0.000707 -0.002354 0.000967 0.004222 -0.003980 -0.004270 -0.002903 -0.003195 -0.002650 0.003011 0.000606 -0.004257 -0.002787 -0.002110 0.003253 0.001086 0.004816 -0.002691 0.001853 0.000135 0.004285 -0.004371 0.002680 0.004783 0.004531 0.004262 -0.003861 0.004642 -0.003687 -0.002640 -0.002368 -0.004800 -0.002159 0.000885 -0.003587 -0.001108 -0.003797 -0.002501 -0.000223 -0.003311 0.001400 0.003525 -0.000068 -0.002746 -0.000483 -0.000282 0.003908 0.000449 -0.000089 0.001998 -0.000190 0.000389 -0.003323
him 0.003805 -0.003237 -0.002020 0.000975 0.004078 -0.003748 0.004407 -0.002838 -0.001964 0.002674 -0.003402 -0.002090 -0.002602 -0.001330 -0.001244 0.004774 0.001464 0.002089 -0.002863 0.000474 0.003277 -0.004500 -0.003718 0.004002 -0.001068 0.004218 -0.002348 0.002934 -0.000440 0.004341 0.002666 0.003689 -0.004947 -0.004252 -0.001771 0.003458 0.001316 -0.001075 0.003310 -0.001451 -0.000391 -0.000496 0.001222 0.002711 0.000373 -0.001505 -0.001767 -0.003533 0.000665 0.001819 -0.003442 0.004399 -0.003615 0.003042 -0.003765 -0.002770 -0.002165 0.002988 -0.002630 -0.003183 -0.003521 0.004907 0.003445 -0.003102 -0.002457 -0.001006 0.001840 -0.003425 -0.001250 0.003000 0.004516 -0.003062 -0.004774 -0.004473 0.003615 0.002846 -0.003444 -0.000501 -0.003148 0.001744 -0.004472 0.000348 -0.001478 -0.000819 0.004764 -0.004589 0.004863 -0.001507 -0.001193 -0.003817 -0.003241 0.003217 -0.001604 0.002117 -0.000015 -0.001108 0.000467 0.004190 -0.003938 -0.003103
he -0.003762 0.000695 0.003597 -0.002614 0.004487 -0.000471 0.000660 -0.000967 -0.001829 0.003617 0.003868 -0.001091 -0.000258 -0.002657 -0.000748 0.001756 0.004760 0.002148 0.003092 0.002549 0.003523 -0.004439 0.002921 -0.001282 -0.003432 0.004258 0.003157 -0.000545 -0.000294 -0.003231 0.003180 -0.001287 -0.002507 0.002344 -0.000942 0.001746 0.002103 0.001072 -0.004990 0.001161 -0.004929 -0.003740 -0.002342 0.001619 0.002367 -0.004599 0.003279 0.001512 0.003494 0.001457 0.003690 -0.000252 0.001975 -0.002709 0.001480 -0.004665 0.003503 0.002039 0.003020 0.001623 0.002876 0.000347 0.004584 -0.003836 0.004644 0.001973 0.004076 0.001601 0.004914 -0.000651 0.004254 0.004921 0.004597 0.001296 0.003351 -0.002681 -0.000243 0.002788 -0.002405 0.002573 0.004299 -0.001221 0.002995 0.004418 -0.001965 0.003449 0.002789 -0.004468 0.004476 -0.002008 0.001962 -0.004755 0.002901 0.000904 0.000778 -0.000185 0.000168 -0.002099 0.000627 -0.004220
a 0.000595 -0.001172 0.001323 0.001884 -0.002715 -0.004625 -0.002390 -0.001865 0.003546 0.003549 -0.000697 0.000343 -0.001819 0.001763 0.003698 0.001162 0.002073 0.004027 0.003306 0.000011 -0.002163 0.004827 0.002273 0.003751 0.000438 -0.001163 0.001632 -0.004065 0.004483 0.002757 -0.003073 0.000458 -0.001749 -0.002177 -0.004868 -0.000710 -0.001610 0.002028 0.001365 -0.001821 0.000896 0.002006 -0.003881 0.004942 -0.001999 0.000773 0.000521 0.000929 0.003740 0.000555 0.000122 -0.001620 0.000785 -0.003647 0.001657 0.002747 0.001611 -0.003101 0.003645 -0.001102 -0.002926 0.002349 0.003193 -0.002764 0.001622 0.001471 -0.002413 0.000709 -0.001216 -0.001534 -0.000235 -0.002100 -0.003295 0.000137 -0.002506 0.004565 0.001828 0.000747 0.000077 0.004932 -0.000671 0.002451 0.000532 -0.004184 0.000766 -0.004172 0.000835 -0.002669 0.004909 0.003970 -0.002814 0.003582 -0.000084 0.001063 -0.003969 -0.003029 0.002252 0.002952 -0.003939 -0.003863
has -0.002229 -0.000544 -0.003235 -0.004521 0.000275 0.001785 -0.002760 -0.004855 -0.004544 0.004171 -0.000651 0.003242 0.001723 0.004403 -0.002852 -0.000089 0.001701 0.003846 -0.000697 0.001428 0.003794 -0.002080 0.002665 -0.004449 0.000022 -0.003059 0.003635 -0.000153 0.000261 -0.002631 0.000105 -0.003172 -0.003252 0.000652 -0.000222 0.001997 0.000010 -0.002554 -0.004037 0.002528 0.000658 0.002058 0.003308 -0.004703 0.004188 -0.000817 -0.002326 0.003988 0.001798 -0.003897 -0.001817 0.000216 0.002588 0.000281 0.002368 -0.000778 0.004367 0.000185 0.004409 0.002519 -0.004666 -0.002485 0.002623 0.004616 -0.003634 -0.003802 -0.004929 -0.004462 0.002220 0.003367 0.002750 0.003627 -0.000154 0.004081 0.003621 -0.003860 0.000912 0.003798 -0.000194 -0.000978 -0.001445 -0.004509 -0.002204 -0.000387 0.001721 0.002212 -0.000081 -0.002954 -0.001801 -0.004381 0.002492 -0.004847 0.000096 0.003931 -0.000381 0.002323 -0.003614 0.000331 0.002078 -0.002350
i 0.003968 -0.004551 0.000096 -0.003039 -0.001636 0.000804 -0.000307 -0.003509 0.004680 0.004082 -0.001923 0.001833 -0.003078 0.003214 -0.002876 0.000984 -0.003867 0.003081 0.002891 0.004870 -0.003135 0.003028 0.003127 0.002525 -0.004041 0.000214 0.004306 0.003034 -0.003605 -0.000804 -0.000234 -0.000539 0.001268 -0.004749 -0.002010 0.001338 -0.004398 -0.002997 0.004933 -0.000933 0.002076 0.002567 0.000026 -0.000412 0.003758 -0.000926 0.002580 -0.000403 -0.000318 0.001343 -0.001541 -0.001174 -0.002701 -0.004396 0.002559 0.001890 0.003429 0.002421 0.003411 0.001746 0.004131 -0.000240 0.004712 0.004685 0.002119 0.001573 -0.000062 0.003526 -0.001360 -0.000252 0.004877 0.003866 -0.003147 -0.002025 0.003680 -0.004173 0.001466 -0.000590 -0.000952 -0.000388 0.002672 -0.002034 -0.000688 -0.004239 0.000906 0.002814 0.002034 -0.001490 -0.004314 -0.004105 -0.004411 -0.002847 0.004708 0.004439 -0.001390 -0.001804 -0.003917 -0.003327 0.001194 -0.000718
truck -0.004211 -0.002431 -0.001022 0.003422 0.000700 0.004219 0.000004 -0.002324 -0.004279 0.003116 0.003535 -0.003598 0.004851 0.003648 0.002574 -0.002664 -0.003993 -0.004606 -0.002142 -0.000963 0.004416 -0.003595 0.000800 -0.003688 0.003201 0.004569 -0.001767 0.000851 0.002981 -0.002956 0.003783 -0.003929 -0.000259 0.003201 0.002195 0.000661 -0.001870 0.004031 0.002523 0.001849 0.004807 -0.004383 -0.001529 -0.002510 0.002279 0.003697 -0.002224 -0.001540 0.003282 -0.003597 -0.002916 0.002449 -0.003480 0.004616 -0.004454 0.001595 -0.004693 -0.003807 0.000462 -0.004000 -0.000048 0.002530 -0.003809 -0.001410 0.004274 -0.002085 0.000657 -0.001016 0.002187 -0.002521 -0.003452 0.000663 -0.000866 -0.001150 0.000880 0.004639 -0.000017 0.003277 0.004213 -0.002574 0.003055 -0.000537 -0.004800 0.003752 0.002280 0.001560 0.004814 0.003882 0.000782 -0.001948 0.004171 -0.000427 0.002667 0.003374 -0.004734 -0.001380 0.002095 0.004511 0.002344 0.004947
the 0.004958 -0.001650 -0.000719 0.000268 0.003203 -0.001626 -0.003290 -0.004304 -0.001779 -0.003555 -0.002185 0.004464 0.003234 0.002592 -0.002738 0.001924 -0.004395 0.000061 -0.004327 -0.004935 0.001491 0.001780 0.004538 0.001378 -0.003832 0.001577 -0.000804 -0.000390 -0.000513 -0.004041 0.000048 0.002447 0.001363 -0.003936 0.000030 0.000740 -0.001793 0.001935 -0.002133 0.002696 0.004668 -0.002540 0.001177 -0.004770 -0.000527 -0.004563 0.001253 -0.003979 0.000305 -0.000413 -0.004970 0.002094 0.003972 0.003216 0.004705 0.001440 0.000420 -0.002899 0.003031 -0.000418 0.001504 -0.001561 -0.004990 -0.001737 -0.004128 -0.001604 0.001072 0.000334 0.002299 -0.004723 0.003579 -0.002198 0.000662 0.001392 0.003573 -0.000500 0.001646 -0.001308 0.003320 0.002148 -0.003878 -0.000302 0.001259 0.001515 -0.000421 0.002589 0.000222 -0.001351 0.004631 0.000198 -0.002927 -0.003464 -0.004762 -0.004795 0.001606 0.000178 -0.002538 0.001942 -0.004923 -0.001721
bet -0.003668 -0.001829 -0.000430 -0.000448 0.000934 0.002084 0.002843 -0.002625 0.002095 -0.000774 -0.002440 -0.002946 0.003374 0.001250 0.002179 -0.003752 -0.002607 0.003700 -0.003752 -0.003677 0.002611 -0.002265 0.000517 0.001451 0.004803 -0.003307 0.003313 0.003540 0.004712 -0.000323 -0.004207 0.004099 0.002594 -0.003821 -0.000272 -0.000829 0.003158 0.001643 -0.004930 0.001359 -0.003093 0.004223 -0.001895 -0.000855 0.003393 -0.003652 -0.003994 0.001644 0.000568 0.001129 -0.004891 0.001119 -0.004399 -0.000526 0.003789 0.000714 0.000413 -0.000473 0.004258 0.000578 0.001774 -0.001110 -0.001398 0.001679 -0.001845 -0.003988 -0.001861 0.004897 0.001270 0.001238 -0.001999 -0.001943 -0.000097 -0.003531 0.004008 -0.004479 -0.003869 0.004996 -0.003796 -0.001969 0.000204 -0.002949 -0.003750 -0.004749 -0.000675 0.000588 0.003811 -0.002103 -0.000909 -0.001273 -0.003692 -0.003679 -0.000154 0.001448 0.004789 0.003845 0.003475 0.001913 -0.003230 0.001021
