36 100
. -0.001643 0.003945 0.001156 -0.002720 -0.000218 -0.003233 -0.004049 0.001561 -0.003534 -0.004849 -0.002757 0.000862 0.002052 -0.000111 0.003094 0.001081 -0.002013 0.005003 0.003918 0.002854 0.000868 0.000188 -0.004549 -0.003335 0.003115 0.001666 -0.004615 0.003149 0.000621 0.003588 -0.000622 -0.001875 -0.004486 -0.000276 -0.000676 0.000031 -0.004111 0.003727 0.003300 -0.002072 0.002473 0.000890 -0.000191 0.003505 -0.000817 0.001886 0.001430 -0.004662 0.000472 0.002453 -0.002591 0.000915 0.004013 0.001076 0.002436 0.000600 0.001240 -0.000566 0.002226 0.004210 -0.003602 0.002397 -0.000820 0.004054 -0.003729 -0.001142 0.000867 -0.000589 0.004082 0.003976 0.002339 0.000796 0.003413 -0.004488 -0.003062 -0.000241 -0.003143 0.003752 0.004040 -0.004449 0.003888 0.000043 0.003310 0.001122 0.000680 0.002471 0.003249 -0.001702 0.002738 0.000328 -0.003022 -0.002419 -0.001565 -0.001904 -0.000469 0.001795 0.003481 0.000968 -0.002123 0.000053
the 0.004958 -0.001642 -0.000720 0.000270 0.003200 -0.001621 -0.003285 -0.004314 -0.001777 -0.003549 -0.002186 0.004467 0.003230 0.002587 -0.002735 0.001933 -0.004395 0.000060 -0.004330 -0.004927 0.001491 0.001788 0.004533 0.001374 -0.003837 0.001574 -0.000799 -0.000388 -0.000518 -0.004037 0.000050 0.002454 0.001363 -0.003928 0.000035 0.000740 -0.001792 0.001939 -0.002128 0.002692 0.004663 -0.002537 0.001178 -0.004766 -0.000523 -0.004568 0.001261 -0.003969 0.000312 -0.000407 -0.004961 0.002092 0.003968 0.003215 0.004697 0.001441 0.000420 -0.002890 0.003026 -0.000417 0.001501 -0.001566 -0.004983 -0.001735 -0.004122 -0.001596 0.001069 0.000344 0.002302 -0.004735 0.003586 -0.002195 0.000656 0.001381 0.003574 -0.000500 0.001637 -0.001306 0.003315 0.002152 -0.003871 -0.000299 0.001257 0.001508 -0.000417 0.002586 0.000227 -0.001351 0.004633 0.000202 -0.002923 -0.003456 -0.004763 -0.004786 0.001604 0.000184 -0.002544 0.001943 -0.004916 -0.001725
with 0.001371 0.002585 0.000190 -0.000902 0.001891 0.000164 0.004755 0.001422 -0.001555 0.001311 -0.002579 -0.003759 0.000168 0.004581 -0.000357 -0.004469 0.003056 -0.000420 -0.000754 -0.002464 -0.002185 0.001190 -0.002510 0.004517 -0.004032 -0.001103 0.001298 -0.004870 0.002638 0.004151 -0.003601 0.000385 0.000515 -0.000498 -0.003682 0.000734 0.000122 -0.003085 -0.000179 0.000488 -0.001224 0.000328 0.001292 0.004470 -0.004567 -0.002181 0.001426 -0.000703 -0.002355 0.000972 0.004220 -0.003980 -0.004269 -0.002898 -0.003191 -0.002648 0.003013 0.000608 -0.004264 -0.002792 -0.002114 0.003252 0.001085 0.004819 -0.002691 0.001851 0.000138 0.004285 -0.004370 0.002684 0.004787 0.004528 0.004265 -0.003863 0.004637 -0.003684 -0.002642 -0.002368 -0.004799 -0.002156 0.000880 -0.003584 -0.001113 -0.003791 -0.002502 -0.000220 -0.003309 0.001400 0.003517 -0.000071 -0.002745 -0.000481 -0.000285 0.003911 0.000444 -0.000090 0.002006 -0.000189 0.000389 -0.003327
changes -0.000813 -0.000674 0.001122 0.000441 -0.003159 0.002233 -0.000404 -0.004611 -0.002359 -0.003432 -0.002935 -0.000415 -0.002135 0.000100 0.003911 0.003489 0.003287 0.003698 -0.004165 0.004083 -0.000898 -0.002272 0.000585 -0.000336 -0.004295 0.003317 0.002108 0.002910 0.002615 -0.001283 0.000757 -0.000613 -0.004139 0.003381 -0.002536 0.004132 -0.004423 -0.002611 0.000428 0.001986 -0.003763 0.002598 -0.000626 0.001727 0.003881 -0.004034 0.000389 -0.000087 0.002480 0.002441 0.003485 0.002238 -0.001112 0.004254 0.000142 -0.001391 -0.004792 0.002099 0.001035 0.000933 0.001101 -0.003847 0.002175 -0.002464 -0.003495 0.000970 -0.002746 -0.000150 0.004840 -0.001082 0.001896 -0.002632 -0.003801 -0.002152 -0.001243 -0.002144 -0.002301 0.000975 0.003018 0.004978 0.004389 -0.000079 -0.001890 0.002567 0.004448 -0.002520 0.004745 0.001410 0.002515 0.004523 0.004786 0.003943 -0.001344 0.001446 0.001748 -0.002424 -0.004631 0.002890 -0.003566 -0.003989
and 0.000140 0.002440 0.001212 -0.000532 0.002970 0.002875 0.004457 0.002462 0.002191 0.004773 0.000040 -0.000984 -0.004922 -0.001543 0.000447 0.003375 0.002203 -0.002396 -0.000354 0.000728 0.001764 0.003718 -0.000869 0.003237 -0.002379 -0.000778 -0.002185 0.001991 -0.004009 -0.004944 0.003530 0.002952 -0.003049 0.003741 0.004501 0.000605 0.003412 0.004735 0.004606 -0.003392 0.003030 0.000940 0.002123 -0.000751 -0.002579 0.003497 0.004642 0.004100 0.003108 0.004469 0.003767 -0.002294 -0.004108 0.001717 -0.001558 0.003843 0.000373 -0.002428 -0.004621 -0.002916 0.001470 0.003583 0.000041 0.001253 0.001645 -0.002420 -0.004751 0.003979 0.003786 -0.004888 0.002335 0.003400 0.001371 -0.004226 -0.001302 -0.004263 -0.004928 0.003350 -0.000982 -0.001370 0.000618 0.001180 -0.000132 -0.002564 0.001076 0.002411 0.000523 -0.000759 0.002994 0.004834 -0.004143 0.004938 -0.004534 0.003885 0.002960 -0.001243 -0.002904 0.001605 0.002382 -0.001423
DO -0.003048 0.001593 0.002161 -0.000665 0.004241 -0.002230 0.002580 0.002223 0.001502 0.004890 -0.003753 0.000304 -0.001592 -0.001352 -0.002601 0.001902 -0.000582 -0.001943 0.001247 0.004163 0.003721 0.001020 0.003698 0.004992 -0.003393 0.001348 -0.003496 0.003831 -0.003440 -0.001363 0.001478 -0.004758 -0.003120 -0.004242 -0.000138 0.001585 0.001134 0.003884 0.003504 0.001018 0.004405 -0.000328 -0.001893 0.003113 0.003440 -0.002988 -0.004482 -0.001923 0.003150 -0.000621 -0.004981 -0.001568 -0.002279 -0.003635 0.000675 -0.002971 0.000701 -0.004118 -0.002635 -0.001971 0.003443 0.002404 0.000925 0.002573 -0.002328 0.003122 0.001931 -0.003241 -0.001068 -0.003044 0.001867 0.003535 -0.002883 -0.003457 0.001537 0.001838 -0.004356 -0.004085 -0.000973 -0.004020 0.001760 0.000451 0.002701 0.002601 0.002873 -0.003289 0.001630 -0.001590 -0.001627 -0.004891 -0.000911 -0.000775 -0.003136 0.002508 0.004248 -0.001156 0.004979 0.004171 0.002181 -0.001078
is 0.000500 0.000970 0.003514 0.001978 0.000054 -0.002849 -0.004618 0.004119 0.001329 -0.001159 -0.001770 0.002179 -0.004492 -0.001020 0.000010 -0.000366 0.000333 -0.000283 -0.004760 -0.002343 0.000179 0.000515 -0.004545 0.002220 0.002001 -0.004134 0.004334 0.002197 -0.004992 0.000767 -0.004166 0.003576 0.004440 -0.003004 0.002799 0.001885 -0.004098 -0.001444 0.003276 0.002556 0.000766 -0.000059 0.001759 0.004375 -0.000417 -0.003391 -0.000870 0.002027 0.003458 -0.004446 0.002794 0.000622 -0.000508 -0.004840 0.000933 -0.002172 -0.003055 0.002821 -0.003875 0.004297 -0.003225 0.002168 0.000411 0.002735 0.002709 -0.004408 0.003918 0.001661 -0.002048 0.000908 0.004198 0.002619 0.000591 -0.001147 -0.004382 0.001151 -0.001982 -0.000825 0.003879 -0.004951 0.000444 -0.001414 -0.002481 -0.002589 -0.003844 -0.004813 -0.001204 0.003012 0.001385 -0.002308 0.000845 -0.003516 -0.003286 -0.003947 -0.000086 0.002313 0.000943 0.000535 -0.003001 0.002702
Please 0.004357 -0.002790 0.003549 -0.001675 -0.003369 -0.002186 0.004823 0.003049 0.004961 -0.002173 0.003077 0.003823 -0.002317 -0.001106 0.000942 0.001952 -0.003362 -0.004808 -0.002489 0.001055 -0.003814 0.004106 0.000722 0.000767 -0.002615 0.003657 -0.003253 -0.002379 0.002493 0.001017 0.003584 0.001759 0.001102 -0.004910 0.004902 0.002137 0.003175 -0.003920 -0.001514 0.003582 0.003224 0.002747 0.004408 0.003079 0.002097 -0.004646 -0.001954 0.001723 0.002256 -0.003590 0.002962 0.004044 0.002875 0.003713 0.002727 0.000175 -0.000811 0.003533 0.000665 -0.000513 0.003963 0.003945 0.002108 0.001836 -0.000799 -0.004808 0.000050 0.004480 -0.004578 -0.000451 -0.004971 -0.003404 0.002121 0.004312 -0.001398 -0.000002 0.003223 0.000851 -0.004328 -0.002640 0.000007 0.000736 0.003069 0.003430 -0.001955 -0.004564 -0.000099 -0.001222 0.003567 -0.004931 -0.002419 0.003784 -0.003759 0.001106 -0.004898 0.002246 0.000727 -0.003010 0.003183 0.000231
have -0.000516 -0.003156 0.002498 -0.000846 0.002895 -0.001986 0.001063 -0.000761 -0.003403 -0.003744 -0.002104 -0.002703 -0.003622 -0.000477 -0.000584 -0.000705 0.001649 0.004870 -0.003849 -0.003922 -0.002306 -0.002428 0.003698 -0.002289 0.002905 0.003100 -0.002151 0.004526 0.000655 0.000905 -0.002712 -0.003360 0.002959 -0.003961 0.004670 0.003955 0.000591 0.004124 0.004275 0.004318 -0.004792 0.002744 -0.002566 0.003404 0.002573 0.001147 0.000475 0.001976 0.001981 -0.000174 -0.000602 -0.000821 -0.000049 -0.004543 -0.000041 -0.003907 0.000541 -0.000090 -0.004920 0.002883 0.000095 0.002660 -0.003364 -0.000975 0.002102 -0.004651 -0.001113 -0.003315 -0.002848 0.001624 -0.004181 0.002578 0.001777 -0.004127 -0.004484 -0.002652 0.000054 -0.002876 -0.001918 0.000334 0.000335 0.004705 -0.002573 0.002812 -0.002984 0.004669 -0.002803 0.000098 0.001210 -0.004969 -0.004205 -0.003948 -0.002317 0.002916 0.002340 0.004890 -0.000044 -0.003303 -0.001953 -0.003082
our 0.000043 0.004431 0.003367 0.000432 -0.003634 -0.004180 0.004621 0.001872 -0.001801 0.001909 -0.004324 0.002557 0.000822 0.002283 -0.004557 -0.000024 -0.002333 -0.000840 0.003128 0.000911 -0.001143 -0.000448 0.001498 -0.002308 -0.002785 -0.002677 0.003938 0.003637 -0.000961 0.000440 0.000264 0.001900 -0.000263 -0.000141 0.002979 -0.001597 0.002378 0.002480 -0.000517 0.001414 0.003200 0.001445 -0.000187 0.002043 0.002804 -0.004111 0.001889 0.001859 0.003510 0.003303 0.003915 -0.002133 -0.003052 -0.000359 0.003086 0.002320 0.002919 -0.003457 -0.004929 0.000696 0.000138 0.002839 0.002856 0.004080 0.004103 -0.000169 -0.000564 -0.001375 0.002686 -0.003871 0.003116 -0.000115 -0.003916 0.002420 0.003113 -0.003733 0.001690 -0.002172 -0.000438 -0.001578 0.000806 -0.003803 -0.001472 -0.001354 -0.004442 0.001936 0.000706 -0.003498 -0.002367 0.002412 0.001628 0.001711 0.004112 0.003007 0.003388 -0.004260 0.002139 0.002363 0.004680 -0.001119
message -0.000553 0.004869 0.001463 0.000345 -0.003637 0.000403 -0.002875 -0.002630 -0.004108 -0.000737 0.000003 0.004050 -0.000005 0.002661 0.003218 0.001064 -0.002065 -0.001903 0.002998 -0.000090 -0.004307 0.003951 0.002743 0.000952 0.001427 -0.002849 -0.002241 -0.001501 -0.004188 0.003805 0.001046 -0.002974 -0.003131 0.001107 -0.002113 0.002146 -0.000412 -0.001970 0.002902 0.001002 -0.001595 0.004035 -0.000184 0.004838 0.003824 -0.002851 0.004405 0.003940 0.001012 0.003835 -0.000738 0.001681 -0.003897 -0.004916 -0.003265 -0.001832 0.002636 0.004841 -0.003267 0.002090 -0.001944 -0.002013 0.002645 -0.004213 -0.004560 0.002014 0.001420 0.002481 -0.004865 -0.004234 -0.002192 0.001851 0.001315 -0.000655 -0.002459 0.004816 -0.003461 -0.003998 -0.000561 0.003324 0.004720 0.002394 -0.004625 -0.003717 0.003999 -0.003448 0.002118 -0.001183 0.000810 0.000229 0.004359 0.001117 0.004173 0.001859 -0.004272 0.002102 0.003998 -0.000519 0.000223 -0.001426
Gov 0.001811 0.003800 0.004366 0.003764 0.001866 -0.004832 0.003985 -0.001753 -0.003960 0.003332 0.003000 -0.003194 -0.002286 0.001596 0.001979 -0.002514 -0.004119 -0.001409 -0.003121 0.003450 0.000842 0.000107 -0.001877 -0.003159 0.003610 -0.000765 -0.003485 0.000438 -0.002183 0.004678 0.000016 -0.004238 0.003807 -0.001238 0.003284 -0.001707 -0.004302 -0.001651 0.000260 0.004904 0.001396 0.002840 0.001835 -0.000378 -0.001647 0.000749 -0.000902 -0.001544 0.000094 -0.004998 0.003087 0.002561 0.000163 -0.000626 -0.004013 0.002261 -0.004968 -0.003906 -0.004520 -0.001515 0.004489 -0.001510 0.002928 -0.000595 0.003251 0.002978 0.000122 -0.003258 -0.001489 0.001963 -0.003093 0.004417 -0.002786 0.002184 -0.001601 -0.003976 -0.001042 0.003153 0.004279 0.004800 0.000830 0.003893 -0.004369 0.004883 -0.001425 -0.003060 -0.001307 0.002487 0.002606 0.002845 -0.004258 -0.000151 0.004816 0.001394 0.004655 0.004277 0.000609 0.002047 -0.001059 0.004573
yet 0.001258 0.002583 0.003750 0.002883 0.002094 0.002945 0.004477 -0.004416 0.001778 0.000279 0.000529 -0.002193 0.001234 0.002213 0.000176 0.002782 -0.004617 -0.000309 0.002993 -0.001070 0.001097 0.003892 0.002068 0.004816 -0.001021 -0.000103 0.004077 -0.004424 -0.004683 -0.001552 0.004181 -0.000275 -0.001269 0.002296 0.002012 -0.001783 0.002312 -0.003892 0.004550 -0.000280 0.004795 0.001489 -0.004815 -0.002286 0.002605 0.000974 -0.003858 0.002214 -0.000986 0.003487 -0.000783 0.001453 0.000562 -0.000287 0.003157 0.004116 -0.002971 -0.001436 -0.003491 0.001282 -0.001776 -0.001038 0.000515 -0.002753 0.004064 -0.004374 0.000230 -0.004488 -0.002617 0.002455 -0.003923 0.003478 0.002208 -0.000991 -0.003643 -0.003655 0.003216 0.001948 0.001479 -0.002140 -0.002599 -0.000520 -0.002184 0.002571 -0.001423 -0.000227 0.000072 0.000523 0.002863 -0.002605 -0.003906 0.004004 -0.003446 0.002037 -0.004011 -0.001347 0.000097 -0.002014 -0.000471 -0.001320
any -0.002810 0.001366 -0.002771 -0.004930 -0.004558 0.002459 0.000709 -0.000141 -0.004463 -0.000445 -0.002205 0.004126 0.004451 -0.001131 -0.001062 0.001072 0.003437 -0.002427 -0.001660 0.002006 -0.002431 -0.002782 0.002990 -0.003646 0.002063 -0.004284 -0.002356 -0.004721 -0.001482 0.002981 -0.004081 0.000970 0.004757 -0.002137 -0.002744 -0.001191 0.001737 -0.003818 0.001171 -0.003826 -0.002791 0.000797 -0.001345 -0.003831 0.000531 0.004082 -0.000025 -0.003348 0.000747 0.000968 0.004042 0.003475 0.000427 -0.001666 0.000300 -0.002027 0.002257 0.004027 -0.002065 -0.001779 0.001116 0.002617 -0.002580 -0.004440 0.000093 -0.004389 -0.001140 -0.003918 -0.003727 -0.000060 -0.003619 0.004450 0.003395 -0.003216 -0.003373 -0.002761 0.004102 0.002129 0.002311 0.001391 -0.004634 0.003518 -0.001069 -0.004649 0.002945 0.004227 0.003507 -0.000874 0.002471 0.001768 0.001168 0.001914 0.000403 -0.004835 0.002091 -0.004895 0.004155 -0.002572 0.004682 0.002905
Leg 0.004410 -0.001638 -0.001744 0.001722 0.004105 0.004075 0.004830 -0.003251 -0.000448 -0.000996 -0.000467 0.003850 0.001228 -0.004546 -0.004863 -0.000066 0.002319 0.001033 -0.001065 -0.001612 0.004181 0.003349 0.001506 -0.002644 0.004346 0.001742 -0.000742 -0.000956 0.002881 -0.002319 -0.001495 0.002690 0.004447 -0.004479 -0.001376 -0.000678 0.003654 0.002589 0.003382 0.004690 0.004256 -0.000981 -0.001621 0.001310 -0.002660 0.002004 -0.004118 -0.002182 0.002562 0.004315 0.001622 -0.002841 -0.000436 -0.001461 -0.003577 0.000721 0.002640 -0.003230 -0.002235 -0.000689 0.004714 0.004349 0.002112 -0.000340 -0.001644 0.002590 0.004697 -0.001850 -0.004843 -0.004243 -0.001922 -0.001293 -0.004999 -0.001034 0.003443 0.004966 -0.003031 0.002647 0.000209 0.004245 0.003263 0.000710 -0.004274 -0.001158 -0.003274 0.000621 -0.003739 -0.002728 -0.002942 -0.002197 0.004329 0.004232 0.001329 0.004203 -0.002857 0.004162 0.003763 0.003878 -0.001124 0.003901
Here 0.001976 0.001087 -0.000708 -0.004765 0.003841 0.002809 -0.002675 -0.001964 -0.004038 -0.004247 -0.002339 0.002581 0.000187 0.002939 0.003227 -0.003150 -0.000164 0.000189 0.004423 0.003510 0.002493 -0.002334 0.003174 0.000527 -0.003576 0.000255 -0.002284 0.000046 0.004467 0.004827 0.004386 -0.002827 0.002987 0.002786 -0.003644 -0.001015 0.002047 0.000451 -0.004590 -0.002123 0.003507 -0.003942 0.000597 -0.004773 -0.002839 -0.003295 -0.004892 -0.001438 0.002012 -0.000016 -0.004855 -0.003915 -0.000678 -0.002056 0.002026 0.000881 0.004529 0.003674 0.002255 -0.001732 -0.004835 0.001878 0.004686 0.002625 -0.003403 0.002332 -0.001771 -0.004060 0.004230 -0.000163 -0.000070 -0.004896 -0.004127 0.002316 -0.001186 -0.001616 -0.002292 0.004176 -0.001039 0.004868 0.001517 0.003103 -0.003641 0.003371 -0.004527 -0.003934 0.003015 -0.000663 -0.004606 0.003320 -0.002787 0.002973 -0.002434 0.001102 0.004962 -0.000406 0.004370 -0.000980 -0.002596 0.002208
to -0.000473 0.004748 -0.002615 -0.004692 -0.004954 0.004799 0.003424 -0.004175 -0.000005 -0.000252 -0.004230 -0.000467 0.004222 -0.004767 0.003993 0.003592 0.001316 -0.002474 -0.000760 0.000759 -0.003882 -0.004090 0.003558 0.001209 -0.000989 -0.002578 -0.001464 0.003087 -0.000443 -0.002944 0.000724 0.003299 0.000213 -0.002482 -0.003839 0.002879 -0.003563 0.000661 0.004073 -0.002742 0.001326 -0.002528 -0.004045 -0.004197 -0.001565 -0.001555 -0.002509 -0.003170 -0.001505 -0.002357 0.001244 -0.004810 -0.002917 -0.004299 0.003795 -0.000020 -0.004305 0.001786 -0.000037 0.003067 -0.004104 -0.003108 0.004648 0.002787 -0.001933 -0.002401 -0.000585 -0.002966 0.003631 0.003877 -0.004436 -0.001298 -0.003671 0.003607 -0.000621 0.001473 0.002290 0.003424 -0.002645 0.001853 0.000989 -0.002672 -0.001047 -0.002245 -0.001214 0.003387 -0.000760 -0.003849 -0.001380 -0.004030 -0.004945 0.000539 0.001909 -0.000390 -0.001853 -0.000726 -0.003703 0.002203 -0.001182 0.000025
only 0.004883 -0.004721 -0.000586 -0.004872 0.001949 -0.004495 0.004110 -0.000663 -0.003863 -0.002104 -0.001974 -0.001550 0.004206 -0.004785 0.003712 0.003542 -0.001855 -0.000811 0.002937 -0.004788 -0.000550 0.004900 0.004690 -0.003569 0.003542 -0.001609 -0.002506 -0.001520 -0.004151 0.001147 0.004377 0.000768 0.000167 -0.001927 -0.000017 0.003645 -0.000278 -0.001607 -0.003717 -0.003219 0.001731 0.004351 -0.002081 0.001142 0.000815 -0.004496 -0.004954 0.000901 0.004799 0.000415 0.003192 0.004526 -0.001059 -0.001974 -0.000537 -0.004456 -0.003725 0.003400 -0.004399 0.002204 -0.001388 0.001211 0.003602 0.003330 0.002396 0.000004 -0.002125 -0.001737 -0.003275 0.004786 -0.002337 0.002569 -0.002023 0.000931 0.001437 0.000465 0.002132 -0.003026 -0.000519 0.003691 0.002914 -0.000672 0.001123 0.000658 -0.001598 -0.003293 -0.004691 0.002149 0.002378 0.000416 0.000115 0.002762 -0.003041 -0.002113 -0.002442 -0.000995 0.001363 0.000362 0.004070 -0.000125
draft 0.003203 -0.000356 0.001693 0.001998 -0.001143 -0.001098 0.002755 0.004676 -0.004747 0.000786 0.004257 0.000532 0.003681 0.004745 -0.004352 0.000366 0.004835 -0.002606 -0.004896 0.003262 -0.000883 -0.004427 -0.001178 0.003472 -0.003166 -0.000093 -0.002622 -0.003694 -0.000613 -0.004676 0.000861 -0.001209 -0.004909 0.001909 0.000411 0.004318 0.001113 0.003739 0.002369 -0.000536 -0.002663 -0.004523 0.004362 -0.003316 -0.000120 0.004682 0.003932 -0.003371 0.002139 0.003296 -0.001049 0.004320 -0.003628 0.000452 -0.001966 -0.003308 0.002139 0.001612 -0.004246 -0.002696 -0.004280 -0.001989 0.001707 -0.001960 0.000553 0.003176 0.004002 -0.001901 -0.000508 0.001099 -0.002278 0.001982 0.001576 0.002660 0.000613 -0.004423 -0.003642 -0.002828 -0.000191 0.001018 0.004632 -0.002852 -0.000433 -0.004496 0.002721 -0.003823 -0.004587 0.002102 0.000070 0.002484 -0.004893 0.000630 0.002265 0.002469 0.001427 -0.001153 0.002071 -0.004208 -0.004101 -0.001336
suspension 0.000215 -0.003143 0.004461 0.002155 0.002280 0.000130 -0.000843 -0.004347 -0.001976 0.004241 -0.003228 -0.004384 -0.000046 -0.000561 0.004873 0.003860 -0.001171 0.002712 0.002396 -0.004157 0.000546 0.003887 -0.001129 -0.002877 -0.002424 0.003756 0.001287 -0.002552 -0.003248 0.004180 0.004311 0.004586 -0.000722 0.003661 0.003583 -0.001169 0.001056 0.004954 -0.004330 -0.000264 0.000624 -0.003766 -0.002383 -0.001876 0.000024 -0.001715 0.002933 0.003677 -0.004712 -0.004936 -0.001662 0.004926 -0.003971 0.003500 0.000594 0.000200 -0.003494 0.003068 -0.004171 -0.000481 -0.004877 0.002326 -0.002272 0.004479 0.004764 0.003617 0.003618 0.003075 0.001218 -0.002010 -0.000165 0.001981 -0.000415 -0.004018 0.001473 -0.002821 0.003763 -0.000697 -0.004123 0.000381 -0.003670 -0.004893 -0.004358 0.002707 -0.004238 0.000209 -0.000336 0.004293 -0.002154 -0.001342 0.002707 -0.003539 0.001714 0.003235 0.003952 -0.003586 -0.003962 -0.003542 -0.003887 -0.004157
; 0.001358 -0.002385 -0.004575 0.003386 0.002917 -0.001776 0.004534 0.000722 0.000410 -0.004880 0.002201 0.004394 -0.001560 -0.003847 0.002923 0.001072 -0.004830 -0.001769 0.002166 0.004308 0.003093 -0.000582 -0.003300 -0.000488 -0.001802 -0.003167 0.000999 0.003917 0.003561 -0.001158 0.002437 0.001791 0.003877 0.003360 0.004935 -0.003140 -0.000497 -0.001649 0.002988 0.002153 0.001668 0.003665 -0.002445 -0.003776 -0.004748 -0.001400 -0.000345 0.004079 0.004894 -0.000599 -0.001676 -0.002877 0.002903 -0.000940 0.003099 0.003628 0.003275 0.001713 0.001751 0.000456 -0.000021 -0.000081 -0.002748 0.003059 -0.003898 -0.004919 0.004491 -0.004533 -0.003139 0.002736 0.003280 0.001216 -0.003745 -0.002296 0.004043 -0.000823 0.001729 0.002084 -0.004406 0.002207 -0.004636 -0.003282 0.000676 0.004039 0.004752 0.002328 -0.003544 0.003558 -0.002258 0.003186 -0.002754 0.002870 0.004781 0.002903 -0.002531 0.001169 -0.003425 0.003989 0.000430 0.002564
final 0.002533 -0.003159 -0.000525 -0.002860 -0.000669 0.001252 -0.002927 0.004209 -0.004722 0.003688 -0.002229 -0.003077 -0.002092 0.002402 0.003852 0.000007 -0.004687 -0.002793 -0.002781 0.001028 0.004085 0.004096 -0.003297 -0.000038 0.003639 0.004041 0.001336 0.002199 -0.000188 0.002757 0.000514 0.001534 0.003829 -0.000150 0.004571 -0.000544 -0.003130 0.000706 0.004636 -0.001679 0.003878 0.004484 -0.003633 -0.002733 -0.001183 0.002635 0.003526 -0.000178 -0.003979 0.004671 -0.002025 -0.001522 0.002654 -0.000732 0.004173 0.002351 0.000874 -0.001706 -0.002874 0.002040 0.004323 0.004399 0.000166 -0.003176 -0.003402 0.001931 -0.001297 -0.001108 0.004259 -0.002481 -0.000093 0.001146 -0.002283 -0.001359 -0.003539 0.003539 -0.001971 -0.002813 -0.003584 -0.001949 -0.002791 -0.004426 0.003438 -0.004125 0.002772 -0.003552 -0.004248 -0.003376 0.000712 -0.001236 -0.000538 0.004042 -0.004551 0.002178 -0.001445 -0.003901 -0.003855 -0.003291 -0.003867 0.000764
that 0.001261 -0.003776 -0.004636 0.002202 0.004882 -0.002415 0.003536 0.000485 -0.004365 0.001996 0.002993 0.003594 -0.004096 -0.001390 -0.004222 -0.000247 0.003567 -0.004300 -0.002272 0.002577 -0.001631 0.002181 -0.001289 -0.001923 0.001793 -0.000992 0.001397 -0.000051 -0.000159 -0.000864 -0.001136 0.004258 0.004345 0.002166 -0.001566 -0.004195 0.001028 0.003695 0.003230 -0.001483 0.003983 -0.000513 0.002321 -0.000524 0.002325 0.003083 -0.004604 0.004024 0.004016 0.000098 0.004355 -0.003819 0.002669 -0.002484 0.004205 0.002203 -0.002587 -0.001742 -0.002791 -0.002466 0.001974 0.002459 0.000997 -0.000319 -0.000967 -0.000670 0.004319 -0.000396 -0.004519 -0.002152 -0.002189 0.004783 -0.002608 0.004065 -0.003067 0.001711 0.000714 -0.002393 0.001932 -0.002797 0.002921 -0.000633 0.003600 0.002372 -0.002454 -0.000507 0.000494 -0.001822 -0.001717 -0.003538 0.001001 0.000120 -0.001554 -0.003755 0.000369 0.000498 0.000024 0.000058 0.002659 0.001352
Attached -0.001433 0.002034 -0.000924 0.002616 -0.003750 0.000032 -0.003713 -0.004554 0.004474 0.002374 -0.004283 0.004768 -0.000718 -0.000610 -0.003373 0.002136 -0.001770 0.001192 0.002381 0.002363 0.002391 0.003285 -0.001709 -0.003205 -0.002749 0.001447 -0.000523 -0.001646 0.002250 -0.002483 -0.002908 0.002159 0.003800 -0.002868 -0.002759 -0.004811 -0.001138 -0.001865 0.004353 -0.000868 0.000688 -0.000502 0.000278 -0.004947 0.002951 -0.001339 0.002059 0.001343 0.004333 -0.002650 0.000350 -0.000555 -0.000335 0.004305 -0.002045 0.001930 0.002740 0.003600 0.000768 -0.002486 -0.004102 -0.003113 0.000074 0.003213 0.000243 0.002985 -0.004949 -0.000582 0.003244 0.001302 0.003333 0.003108 -0.000287 -0.003101 0.002249 -0.000023 -0.000351 0.003465 -0.004355 -0.001643 -0.003491 0.001609 0.001693 0.002506 0.000064 -0.000201 0.000524 -0.004032 -0.001634 -0.000543 -0.002940 0.000958 0.001470 -0.003661 0.001195 0.002630 -0.003043 -0.003236 0.003934 -0.002800
but 0.003554 0.004931 0.003000 0.002368 -0.004517 -0.003678 -0.004707 -0.002629 -0.000605 -0.000404 -0.002070 -0.003936 -0.001565 0.000324 0.004392 0.001748 -0.002783 -0.001492 -0.003053 -0.000656 0.001755 -0.003990 -0.004664 0.000138 0.000865 -0.000468 0.003611 0.000311 -0.000244 -0.001217 -0.003016 0.003295 -0.002669 -0.000979 -0.000834 0.001466 0.000357 0.002873 -0.004742 0.002273 -0.004359 -0.003582 -0.004758 0.002707 -0.001387 -0.001686 -0.002039 -0.003260 0.002731 0.004769 0.000002 -0.000842 0.004299 0.001803 -0.003013 -0.004945 0.003283 0.004445 0.002559 -0.000316 -0.004695 0.004691 0.000579 -0.004287 0.003900 -0.001451 0.002853 0.003946 0.003936 -0.000513 0.000250 -0.000782 -0.004717 -0.002661 -0.000296 -0.002554 0.002406 0.000343 -0.003634 -0.000853 0.001123 0.000891 0.004267 0.000722 -0.004740 0.000124 -0.001315 0.003961 -0.002704 -0.000905 0.001206 -0.001117 0.003979 -0.000740 -0.002312 0.000996 0.000492 -0.002515 0.003961 -0.002986
tracks -0.001986 0.000174 -0.003436 -0.004562 0.002235 0.001287 -0.002479 -0.004714 -0.001716 -0.000954 0.000062 0.003476 0.001215 -0.003760 -0.004535 0.001864 0.004850 0.002934 -0.003203 -0.002931 0.002169 0.004844 0.004431 -0.000462 0.000459 -0.001198 0.004583 -0.003763 0.000622 0.003400 -0.004593 0.001803 -0.001170 -0.003871 0.001468 0.002717 -0.001137 0.002017 0.000866 0.000032 -0.003797 -0.001056 0.002925 0.000348 -0.001273 -0.001089 0.003643 0.002175 -0.002238 -0.003670 -0.000109 -0.000873 0.003849 0.003451 0.004962 -0.004713 -0.003942 0.002674 0.003646 0.001383 -0.001204 -0.002021 0.004887 0.001521 0.003530 0.004298 0.004095 -0.000113 -0.003885 -0.000024 -0.002358 -0.001961 -0.003709 0.004344 0.000257 0.001376 0.002968 0.001951 -0.000757 0.002843 0.004241 -0.003454 0.004124 -0.004225 -0.000341 -0.004852 0.003338 0.003731 -0.000800 -0.003026 0.004670 -0.001438 -0.002895 0.000876 0.001885 0.002554 -0.003735 -0.001699 -0.004028 -0.001115
letter 0.004952 0.000919 0.001730 -0.001746 0.001913 0.001087 -0.003537 0.004827 -0.002173 -0.000308 -0.000128 0.004923 -0.002784 -0.002701 0.001129 -0.000337 -0.000336 -0.002436 -0.003834 0.000391 -0.003987 -0.003186 0.000538 -0.001429 -0.000830 0.000426 0.002343 0.000812 0.001843 0.000521 0.001792 0.002915 0.003104 0.000408 -0.001594 -0.000037 0.004575 0.000269 -0.004248 -0.004767 -0.000511 0.003604 -0.003655 -0.004354 0.004494 -0.004727 -0.003482 -0.004461 0.001085 -0.000769 -0.003003 0.004448 -0.004482 -0.004850 -0.002031 0.000049 -0.002399 0.004832 0.003654 -0.002099 0.002666 -0.003372 0.001474 0.004565 -0.003197 0.001638 0.002801 0.001807 -0.004985 -0.003010 0.004652 -0.004446 -0.003042 -0.004732 0.001901 -0.003710 0.002385 -0.001081 0.003493 0.001357 0.002906 0.001474 -0.004265 -0.001811 -0.001614 0.003643 -0.003466 0.003930 -0.003611 -0.003533 -0.001898 0.004590 0.002400 -0.001389 0.004575 0.004199 0.000485 -0.001182 0.000147 0.003596
reply 0.002033 -0.000927 -0.004742 0.001693 -0.002220 -0.001294 0.001345 -0.002877 0.004157 -0.001014 0.004010 -0.002228 0.000116 -0.002298 -0.000441 0.001174 0.004957 -0.000723 -0.004484 -0.002436 0.000490 -0.001785 -0.003293 -0.004038 0.001517 -0.000450 0.001069 0.003556 -0.003585 -0.000753 -0.003617 0.000775 0.003403 0.003018 0.000010 -0.001180 -0.004928 -0.003513 0.000363 -0.001403 0.000745 -0.003509 -0.001365 0.000442 -0.000690 -0.002336 -0.004843 0.004837 -0.002335 -0.000654 0.000608 -0.002024 0.002637 -0.004859 -0.001643 0.000694 0.003272 -0.000076 0.001624 0.003012 -0.000440 -0.000008 -0.000869 -0.002323 0.003126 0.001306 -0.002233 -0.000281 0.001859 -0.003566 -0.001266 0.004194 -0.003051 -0.001361 0.000554 -0.001481 -0.001872 -0.004885 -0.000225 -0.002930 -0.003443 -0.002149 0.001248 -0.002784 -0.002142 -0.002975 -0.004103 -0.003309 0.002729 -0.000203 0.003650 0.003076 -0.004785 -0.003182 -0.001474 0.003211 0.004136 0.000397 -0.001202 0.004722
post -0.003726 -0.000861 -0.002756 -0.002042 -0.003443 -0.002004 0.002049 -0.001988 0.004884 0.000942 -0.000926 -0.001390 0.000354 0.003690 0.004278 -0.004576 -0.003939 0.001111 -0.000061 -0.000557 0.002082 0.000411 0.002761 0.000752 0.001773 0.004070 0.001624 0.003761 -0.003001 0.000574 0.002938 0.004638 -0.000856 0.000417 -0.000802 -0.002232 0.003367 0.001932 0.004406 0.002692 0.000258 -0.001375 0.004169 -0.000624 -0.000612 -0.001734 -0.004818 -0.001237 0.002727 0.003304 0.002027 -0.000963 -0.003709 0.004668 -0.002873 0.002818 0.004116 0.004040 0.000333 -0.002907 0.001399 -0.000989 0.000725 -0.003795 0.002159 -0.004644 -0.004038 0.000961 0.004984 0.001245 0.003795 -0.004404 0.004918 -0.002116 0.002211 0.001713 0.003026 -0.001416 0.004670 -0.004726 0.000523 0.000934 -0.002325 0.000854 0.000303 -0.003987 -0.003197 -0.004120 0.004496 -0.000539 -0.004596 -0.002372 0.000941 0.000636 0.002950 -0.001215 0.002897 -0.002668 -0.003116 0.004036
believe -0.004902 0.004372 0.004084 0.000497 -0.004128 -0.004961 -0.000437 0.003838 -0.001657 0.004269 -0.000942 -0.002661 0.000866 -0.000206 0.000330 0.004918 0.003109 0.003082 0.002252 0.001744 -0.002440 -0.003303 -0.002801 0.004291 0.002331 0.004950 0.000837 0.004921 -0.002078 -0.001295 0.001048 0.004571 -0.002532 -0.004439 -0.001944 -0.000470 -0.003181 -0.004143 0.002401 -0.004232 0.001853 -0.002100 -0.001493 -0.003625 -0.002285 -0.000565 -0.000520 -0.001540 -0.003091 0.003753 0.001286 0.004744 -0.004854 0.004402 -0.001746 -0.002149 0.001357 0.000339 -0.002819 0.002755 -0.002270 0.004289 -0.002544 -0.004222 0.001013 -0.000373 -0.002034 -0.003745 -0.003122 0.000108 -0.003946 0.004669 -0.001252 -0.004107 -0.001683 -0.003841 0.000180 -0.000472 0.004481 0.002480 -0.000218 0.004118 -0.003410 0.000560 -0.000239 -0.000651 0.002748 0.004442 -0.003562 0.000612 0.002461 0.003388 -0.000698 -0.004329 -0.000662 0.002088 0.001595 -0.000578 -0.002844 0.001205
a 0.000588 -0.001168 0.001327 0.001874 -0.002712 -0.004637 -0.002391 -0.001848 0.003537 0.003538 -0.000680 0.000357 -0.001827 0.001755 0.003700 0.001174 0.002087 0.004025 0.003319 0.000012 -0.002151 0.004833 0.002279 0.003742 0.000436 -0.001161 0.001625 -0.004061 0.004470 0.002754 -0.003070 0.000446 -0.001749 -0.002174 -0.004857 -0.000716 -0.001613 0.002025 0.001382 -0.001835 0.000906 0.002003 -0.003878 0.004938 -0.001996 0.000781 0.000523 0.000929 0.003728 0.000561 0.000134 -0.001621 0.000791 -0.003633 0.001653 0.002753 0.001618 -0.003103 0.003636 -0.001100 -0.002927 0.002345 0.003186 -0.002762 0.001622 0.001480 -0.002414 0.000704 -0.001207 -0.001531 -0.000231 -0.002094 -0.003287 0.000135 -0.002516 0.004572 0.001828 0.000738 0.000085 0.004930 -0.000686 0.002453 0.000540 -0.004166 0.000777 -0.004178 0.000834 -0.002661 0.004905 0.003971 -0.002805 0.003586 -0.000096 0.001057 -0.003988 -0.003032 0.002258 0.002958 -0.003938 -0.003868
Leaders -0.003117 0.001726 -0.001835 0.001006 0.003384 0.002122 0.004135 -0.003531 0.004042 -0.000255 0.002391 -0.004913 0.002273 -0.001510 0.000453 0.000364 -0.003544 0.000292 -0.002854 0.004640 0.001712 0.004853 -0.001715 0.001881 -0.000064 0.002844 -0.000368 -0.001654 0.000372 0.001929 -0.000058 0.004377 0.002041 -0.000042 -0.002685 -0.000429 0.002252 0.004317 -0.003208 -0.004332 -0.004849 -0.004866 0.004453 -0.003514 -0.001406 -0.003325 0.003707 0.001704 -0.002125 -0.000480 -0.003225 0.003303 0.001181 -0.004567 -0.004337 0.001864 -0.004464 -0.004667 -0.002217 0.001271 0.002750 -0.001340 -0.000329 -0.003207 0.003838 0.003896 -0.002365 0.001430 -0.001006 -0.004293 0.004667 -0.000152 -0.003778 -0.004570 -0.000207 0.001366 -0.004381 0.002637 -0.000899 0.001723 -0.000797 0.004913 0.004792 -0.003935 0.001636 -0.001374 0.004937 0.003849 -0.002883 0.001325 -0.004394 -0.003532 -0.004663 0.003719 -0.004516 0.002782 0.002732 -0.002430 0.004914 0.004010
-- 0.003599 -0.001623 -0.000338 -0.004052 -0.003187 0.000003 0.004645 0.002564 -0.003367 -0.001726 0.004502 0.001392 -0.001668 0.004595 0.000273 -0.002909 0.003328 -0.003700 0.003865 0.001758 -0.003093 0.003598 0.001459 -0.001424 -0.004665 0.001826 -0.000222 -0.001500 -0.002267 -0.000976 -0.004502 -0.000083 0.001093 0.000346 -0.004885 0.000779 0.004820 0.000823 0.002026 -0.004649 -0.002742 -0.000703 -0.002239 -0.001446 -0.003782 0.003492 -0.000271 -0.002089 -0.004830 0.003712 0.000496 0.001034 0.001741 0.001006 -0.004775 0.001083 0.004263 -0.001236 0.003858 -0.004077 0.004111 -0.004458 0.000731 -0.003352 -0.001089 0.003802 0.002087 0.000939 0.002316 -0.000228 0.002783 0.004664 0.001599 -0.000299 -0.000784 0.003704 0.001433 -0.001039 -0.004765 -0.002356 0.002448 -0.004610 0.004204 0.001741 -0.000548 -0.001648 -0.002129 -0.000027 0.001491 -0.003788 0.000995 -0.000200 -0.003804 0.002984 0.000072 -0.002969 0.001377 0.001063 -0.000575 0.004718
n't -0.003915 -0.002613 -0.002775 0.002046 -0.002142 0.004011 0.001523 0.000182 -0.000294 0.004072 0.001872 0.003863 0.004267 0.000866 -0.002415 -0.001652 -0.004239 -0.004671 0.004696 -0.001498 -0.000185 -0.004191 -0.003584 0.004999 0.004177 -0.001231 0.002850 0.001378 -0.000044 0.004380 0.003336 0.000207 0.002034 0.004598 0.004215 0.001508 0.000060 0.000842 0.000153 0.000525 0.003415 0.000937 -0.003045 0.001171 -0.001608 -0.002318 -0.000086 -0.001780 -0.002363 -0.003269 0.002702 -0.004484 -0.001611 -0.001244 0.000641 -0.001129 0.003944 -0.001815 -0.003937 -0.003226 -0.001395 -0.003572 -0.003234 0.000557 0.004644 0.002621 -0.000229 0.001489 -0.000926 -0.000490 -0.001767 0.000994 -0.000161 0.003913 -0.002276 0.004750 -0.001544 -0.000132 -0.002606 0.002197 0.000808 0.003504 -0.003867 -0.001599 0.000705 0.001108 0.002672 0.003745 -0.000193 -0.002766 0.004312 -0.002297 0.000895 0.003229 -0.002816 0.004001 -0.004727 0.003863 -0.004697 0.001100
s -0.003160 -0.000613 0.001561 -0.002197 0.001203 0.000759 0.000738 0.003938 0.003102 0.004677 -0.003728 -0.004440 0.000608 -0.001800 -0.000769 0.004179 0.003475 0.003595 -0.003005 0.004680 0.002682 -0.000423 0.004855 -0.003947 0.003141 0.003621 -0.003563 -0.003339 0.000715 0.003557 0.000111 -0.003691 0.003485 0.000252 0.002717 -0.004989 0.004383 0.003738 -0.000451 -0.003824 0.003361 -0.002876 0.004602 -0.002286 -0.003662 0.002962 -0.002797 0.004670 0.003320 -0.004735 -0.001279 0.000684 -0.000125 0.003293 -0.000015 -0.000123 -0.002075 0.002687 0.000947 0.000748 0.002806 -0.002911 -0.002744 -0.000583 -0.000158 -0.000367 -0.000501 0.000342 0.002947 0.004217 -0.001014 0.002929 -0.000662 0.001135 0.003157 0.001945 0.004595 -0.004140 -0.003371 0.001849 -0.001849 0.004549 -0.004511 0.002934 0.003485 -0.002561 0.002583 0.003567 0.002567 0.004495 0.000705 0.002572 -0.003253 0.004329 -0.003449 -0.002925 0.003057 0.000521 0.000346 0.002468
small 0.004198 0.004817 -0.001170 -0.004944 0.004527 -0.001162 0.003538 -0.004583 -0.000119 0.003255 0.003872 0.001493 0.002644 -0.001533 -0.001998 0.001714 -0.004837 0.001896 -0.000196 0.004239 -0.001162 0.003416 -0.002883 -0.002112 -0.004724 -0.004640 0.004765 0.000311 -0.002601 0.004287 0.002376 0.004116 0.004787 -0.004567 0.004897 -0.003144 -0.001905 -0.001873 -0.002583 -0.004510 -0.000757 0.000320 0.001730 0.003265 -0.001490 0.001532 0.003060 -0.003747 -0.001116 0.004431 0.003998 -0.001572 0.004653 0.002187 -0.000816 0.001009 0.002187 0.004847 0.003647 0.004518 -0.003948 -0.002000 0.003209 0.004390 0.001153 0.002714 0.000416 0.004135 -0.004350 -0.002990 0.003408 -0.004655 0.003998 -0.002468 0.003536 0.003263 -0.002441 0.002395 0.004450 0.002129 0.000423 0.004851 0.001754 -0.001662 -0.000712 0.004203 0.001056 -0.004432 0.003281 -0.002262 -0.003515 0.000943 -0.004654 -0.003728 -0.001427 0.004394 -0.004704 0.001606 0.004573 -0.004150
