5 100
- 0.004445 -0.004509 -0.004441 0.002675 0.004863 -0.002938 0.001649 0.000666 -0.001697 -0.002866 -0.002066 0.003282 -0.004063 -0.004063 0.002935 0.004588 0.003732 -0.000327 0.004178 0.000919 -0.000688 0.003444 -0.002542 -0.001021 -0.002328 0.004045 0.003950 0.004634 0.003755 0.003869 -0.004200 0.004285 0.001958 -0.001570 -0.002220 -0.003011 -0.004547 -0.004826 -0.000990 -0.004952 0.000212 -0.001684 -0.000949 -0.004626 0.002663 0.003479 0.001659 0.002385 0.000721 0.000225 0.003704 -0.001137 0.003974 0.002419 -0.000566 0.000696 -0.001251 0.001118 0.000849 -0.002422 -0.002196 0.004100 0.004042 -0.004726 0.004497 0.003822 -0.004034 -0.002944 -0.002556 -0.003119 0.002058 -0.001136 0.000346 0.004413 0.002038 -0.001877 0.003935 0.004125 0.002140 -0.002356 -0.002858 -0.004176 0.003406 0.000848 0.003543 -0.004018 -0.000221 -0.004062 0.004626 -0.003626 -0.004260 0.004560 -0.001425 -0.003377 0.001395 0.003476 0.001469 0.003480 0.002847 0.000652
Enjoy 0.003953 -0.000588 0.002942 0.004328 -0.002201 0.000831 0.001563 -0.001844 0.000041 0.000955 0.001249 -0.003383 -0.004152 0.001005 0.003934 -0.003009 0.004464 -0.003815 -0.004123 0.004793 0.001879 0.000739 -0.002010 0.002190 -0.004918 0.002301 -0.003657 0.002531 0.003074 0.004252 0.004268 0.001728 -0.000689 -0.000804 -0.000454 -0.001799 0.001232 -0.001985 -0.001791 0.003634 -0.003454 -0.003926 -0.000256 -0.002694 -0.002238 -0.002452 -0.003716 0.003143 -0.001216 0.001105 0.003265 0.001172 0.004246 0.000057 -0.001730 0.003440 -0.001847 -0.002446 0.001698 0.003207 0.004630 0.003795 -0.000879 -0.002391 -0.003180 -0.002157 0.004383 -0.002099 -0.003702 0.001342 0.003598 -0.003736 0.003931 -0.004031 -0.000506 -0.000334 -0.004648 -0.004872 -0.004222 -0.004284 -0.000661 0.002934 -0.002614 0.004041 -0.001669 0.002374 0.001992 -0.002562 0.000244 -0.002875 -0.000898 0.004034 -0.003452 0.003762 0.004016 0.004899 0.002127 -0.000705 -0.004592 -0.004705
! 0.004093 -0.002204 0.001719 -0.001852 0.000791 0.001328 0.004760 -0.001772 -0.003127 -0.002996 0.003344 0.001086 -0.001590 0.001223 0.001549 0.002196 -0.000465 0.003319 -0.003731 0.000516 -0.004672 0.000848 0.003069 -0.002639 0.002845 -0.003113 -0.004705 -0.000797 -0.001873 -0.001938 -0.000663 0.003571 0.001356 0.000055 -0.004774 0.002331 0.002279 -0.003445 0.000766 -0.000938 0.004234 0.004608 0.001110 0.004958 0.002824 -0.003513 0.000880 -0.004085 0.003646 -0.003656 0.003400 -0.004293 -0.004301 0.004685 -0.003845 0.002258 0.000389 -0.004507 -0.004828 -0.004987 0.001541 0.004302 -0.003850 0.000815 0.000273 0.004118 0.001582 0.003016 0.004241 0.002896 0.000688 -0.000335 0.004969 -0.000476 -0.001626 0.000350 -0.002347 -0.001067 0.004398 0.001169 -0.004967 -0.002016 -0.001416 0.003450 -0.004102 -0.003252 -0.001910 -0.003506 0.001000 -0.004245 -0.003263 -0.002317 0.000864 0.003296 -0.001309 0.000342 -0.001403 0.003598 -0.000172 0.000631
20020108ERCOT_FLOW.XLS 0.004927 0.004654 0.003859 -0.000739 0.002956 0.001047 0.001692 -0.003721 -0.004032 0.002259 0.004521 -0.000735 0.004436 -0.004244 0.001508 -0.004493 0.001703 -0.003249 -0.000886 0.003936 -0.000737 -0.001462 0.002676 0.002776 0.004070 0.002397 0.003081 0.004617 0.003797 -0.001325 -0.000204 0.000146 0.001138 -0.003634 -0.004500 0.002882 -0.004254 0.002470 -0.000094 0.003779 0.003132 0.000351 0.004329 0.003977 -0.002932 0.002821 0.002908 -0.002862 -0.002622 0.000055 0.002424 -0.004018 0.001703 0.003002 0.002635 -0.001619 -0.001761 0.004126 -0.000659 -0.003160 -0.001929 -0.002175 -0.004577 0.002183 -0.000788 0.000565 -0.003441 0.003840 0.004013 -0.002728 0.001252 -0.001768 -0.001955 -0.003195 0.002985 0.001510 0.004196 0.004547 -0.004636 0.004538 0.002421 -0.000091 -0.004224 0.001281 0.000634 -0.003502 0.002340 -0.000366 -0.002229 -0.000400 0.003344 -0.002369 0.004539 -0.001768 0.003048 -0.003147 -0.003816 0.003891 0.004240 -0.002566
20020108ERCOT_LOAD.XLS 0.000382 0.000723 -0.002953 -0.003669 -0.002030 -0.003601 -0.002494 0.004895 0.004814 -0.001608 -0.002685 0.004533 0.001922 -0.000083 0.003550 -0.001036 -0.000899 0.000323 -0.000886 0.002501 -0.001042 -0.002632 -0.001118 0.004945 0.004665 -0.002375 -0.004125 0.001648 -0.000861 0.004035 0.001338 0.002009 0.000623 -0.003291 0.000873 -0.001520 0.000047 0.004660 -0.000170 0.003939 0.000341 0.003999 0.000337 0.000599 -0.001685 0.000284 -0.003131 0.004918 0.001906 0.000112 0.004942 0.002629 0.000909 0.004992 -0.000828 -0.003523 -0.000438 0.002032 0.004967 -0.003987 0.002869 -0.002388 -0.003262 0.002409 0.003815 -0.003431 0.000310 -0.003577 -0.002994 0.002655 -0.004975 -0.001666 -0.001544 0.003692 -0.002783 0.000049 0.001604 0.002926 -0.002592 0.004880 -0.000139 0.004122 -0.003244 -0.004780 0.001212 0.002910 0.002155 0.000764 -0.003612 0.004451 -0.003388 0.002998 -0.003252 0.001940 -0.002784 -0.003951 0.001534 0.001966 -0.003217 -0.003771
