33 100
. -0.001643 0.003941 0.001143 -0.002720 -0.000215 -0.003242 -0.004051 0.001565 -0.003527 -0.004847 -0.002734 0.000850 0.002053 -0.000109 0.003085 0.001069 -0.002011 0.004996 0.003924 0.002845 0.000867 0.000174 -0.004560 -0.003328 0.003129 0.001645 -0.004626 0.003152 0.000628 0.003587 -0.000629 -0.001882 -0.004490 -0.000271 -0.000672 0.000033 -0.004117 0.003716 0.003312 -0.002075 0.002477 0.000897 -0.000196 0.003512 -0.000829 0.001900 0.001418 -0.004666 0.000460 0.002452 -0.002586 0.000913 0.004033 0.001072 0.002439 0.000594 0.001251 -0.000565 0.002233 0.004209 -0.003600 0.002402 -0.000825 0.004052 -0.003736 -0.001163 0.000866 -0.000596 0.004070 0.003991 0.002319 0.000789 0.003417 -0.004471 -0.003069 -0.000238 -0.003151 0.003743 0.004045 -0.004463 0.003886 0.000033 0.003321 0.001125 0.000674 0.002469 0.003231 -0.001712 0.002746 0.000319 -0.003026 -0.002424 -0.001572 -0.001918 -0.000483 0.001807 0.003486 0.000974 -0.002121 0.000048
is 0.000494 0.000971 0.003516 0.001982 0.000059 -0.002857 -0.004619 0.004109 0.001336 -0.001163 -0.001762 0.002173 -0.004492 -0.001016 0.000007 -0.000370 0.000326 -0.000280 -0.004758 -0.002343 0.000181 0.000523 -0.004544 0.002218 0.001996 -0.004134 0.004323 0.002193 -0.004994 0.000770 -0.004167 0.003580 0.004435 -0.003002 0.002796 0.001891 -0.004094 -0.001440 0.003287 0.002550 0.000773 -0.000056 0.001763 0.004373 -0.000418 -0.003385 -0.000870 0.002023 0.003458 -0.004443 0.002789 0.000632 -0.000501 -0.004842 0.000933 -0.002170 -0.003056 0.002827 -0.003872 0.004298 -0.003226 0.002166 0.000404 0.002737 0.002700 -0.004414 0.003918 0.001658 -0.002045 0.000909 0.004185 0.002608 0.000587 -0.001148 -0.004379 0.001143 -0.001983 -0.000831 0.003883 -0.004949 0.000442 -0.001420 -0.002483 -0.002588 -0.003848 -0.004815 -0.001201 0.003008 0.001387 -0.002309 0.000839 -0.003519 -0.003291 -0.003954 -0.000097 0.002315 0.000942 0.000542 -0.002996 0.002692
as 0.004607 0.004740 -0.004067 0.003527 -0.001779 -0.003602 -0.003104 -0.000302 0.003239 -0.003763 -0.001271 -0.001622 -0.003428 0.000037 -0.002392 0.001569 0.000639 -0.001116 -0.000531 -0.003163 0.000380 0.001160 0.001380 0.000325 0.002814 -0.000247 -0.004088 0.002279 -0.001835 0.004956 0.001111 0.000747 -0.002120 0.004352 -0.003246 -0.003634 0.004159 0.000945 -0.003246 -0.002449 0.004901 0.004815 0.004672 -0.004112 0.002325 0.003674 0.004141 0.000248 -0.000510 0.004030 -0.001401 0.003104 0.002757 0.004016 -0.004689 0.000286 0.001500 0.003531 0.001069 0.003704 -0.002034 -0.004034 0.002749 0.004186 -0.003651 -0.003162 -0.002345 0.000141 0.004461 0.001597 -0.003350 -0.001176 -0.003212 0.003463 0.004793 0.001009 -0.002912 0.002401 0.002989 -0.003955 -0.004547 0.001216 -0.002685 -0.003976 -0.004358 -0.002791 0.000268 -0.000677 0.000962 -0.001385 0.003979 -0.003047 -0.004619 0.004403 0.002982 0.000543 -0.003653 -0.004424 -0.003226 0.002736
I -0.004328 0.003335 -0.000109 -0.001198 -0.001460 0.001106 -0.002972 0.003885 0.002108 -0.000963 0.001589 -0.001640 0.000307 0.002059 -0.000956 0.002253 -0.003593 -0.004843 0.001656 -0.004225 0.003861 0.002880 0.003288 0.001642 0.004870 0.003478 0.000117 -0.003162 -0.003509 0.003249 -0.004564 0.001498 -0.003343 -0.001415 0.001144 0.003915 -0.003005 -0.001366 0.004159 -0.002456 0.001957 -0.001498 -0.001805 0.001033 -0.003564 0.004283 0.004591 0.002416 0.003157 0.002307 0.004606 -0.002369 -0.002392 0.000398 0.000596 0.003899 -0.003859 0.000405 0.002680 -0.003066 -0.000145 0.003166 0.004349 -0.002231 -0.001098 0.001810 0.002876 0.002737 0.004420 0.001401 -0.000244 -0.002499 -0.002247 0.001100 0.002407 0.001624 -0.003100 -0.002975 -0.002414 0.003541 -0.002424 0.003328 -0.004851 -0.003247 0.003517 0.003121 0.001470 0.002784 -0.001916 -0.002478 -0.004105 0.001997 0.002148 0.003382 -0.003599 -0.003580 0.003153 0.003018 -0.001789 -0.004726
of 0.004280 -0.003760 -0.000621 -0.002393 -0.000056 -0.001048 0.004698 0.000639 -0.000668 -0.002289 0.000426 -0.002269 -0.003532 0.003873 -0.002188 -0.000382 -0.003716 -0.002093 -0.001309 0.002142 -0.004758 0.001465 -0.003259 -0.000352 0.001995 -0.003055 0.001778 -0.000857 -0.000857 0.000749 -0.003996 0.003213 -0.001963 -0.001461 0.000182 0.001583 0.001948 0.003587 0.002001 -0.002145 -0.003145 0.001314 0.001993 -0.004599 -0.003552 -0.000189 0.000407 0.001258 0.003923 -0.000794 0.000986 0.004587 -0.001855 -0.004876 -0.001570 -0.004316 -0.004943 -0.001555 -0.004663 0.001583 0.002929 -0.001233 0.003694 -0.002115 0.002361 -0.004109 -0.000230 0.000863 -0.001273 0.001552 -0.003233 0.003792 0.003740 -0.003804 0.003494 0.000090 -0.000500 0.000413 -0.003415 0.003908 -0.002910 -0.001394 0.004308 -0.002377 -0.000569 -0.002114 -0.001642 -0.004261 0.004120 -0.002005 -0.004363 -0.001757 -0.001659 0.002958 -0.004824 0.001381 0.003225 0.001172 0.002867 0.003522
the 0.004958 -0.001650 -0.000719 0.000268 0.003203 -0.001626 -0.003290 -0.004304 -0.001779 -0.003555 -0.002185 0.004464 0.003234 0.002592 -0.002738 0.001924 -0.004395 0.000061 -0.004327 -0.004935 0.001491 0.001780 0.004538 0.001378 -0.003832 0.001577 -0.000804 -0.000390 -0.000513 -0.004041 0.000048 0.002447 0.001363 -0.003936 0.000030 0.000740 -0.001793 0.001935 -0.002133 0.002696 0.004668 -0.002540 0.001177 -0.004770 -0.000527 -0.004563 0.001253 -0.003979 0.000305 -0.000413 -0.004970 0.002094 0.003972 0.003216 0.004705 0.001440 0.000420 -0.002899 0.003031 -0.000418 0.001504 -0.001561 -0.004990 -0.001737 -0.004128 -0.001604 0.001072 0.000334 0.002299 -0.004723 0.003579 -0.002198 0.000662 0.001392 0.003573 -0.000500 0.001646 -0.001308 0.003320 0.002148 -0.003878 -0.000302 0.001259 0.001515 -0.000421 0.002589 0.000222 -0.001351 0.004631 0.000198 -0.002927 -0.003464 -0.004762 -0.004795 0.001606 0.000178 -0.002538 0.001942 -0.004923 -0.001721
give -0.002832 -0.003077 0.000864 0.001291 0.000393 -0.001206 0.000760 0.002683 -0.001799 0.001376 -0.002464 -0.000351 0.003010 0.000294 0.000454 -0.004207 0.002198 -0.002621 -0.004781 -0.003789 -0.004706 -0.000195 0.002374 -0.000328 0.003358 0.000573 0.002618 0.004203 0.004458 -0.003663 -0.002705 0.001640 -0.001768 0.001821 0.000533 -0.002793 0.001523 0.000642 -0.000828 -0.000743 0.002964 -0.001934 0.001927 -0.004137 -0.000857 -0.001813 -0.000858 0.004944 0.004327 0.000279 0.002630 0.004790 -0.001905 0.002051 -0.004434 -0.002987 -0.004744 0.004046 -0.004230 -0.004787 0.004792 -0.002904 -0.002646 0.001934 0.003637 0.001006 -0.004605 0.000917 0.002230 -0.001316 -0.002671 0.002591 -0.002792 -0.001654 0.001166 -0.000615 -0.002527 -0.000023 -0.003056 0.003670 -0.004432 -0.000826 -0.002647 0.004800 0.004088 0.002039 0.004629 0.003656 0.002957 -0.003777 -0.002457 0.001426 0.002511 -0.002803 0.004938 0.002582 -0.000704 -0.004837 0.004588 0.003608
idea -0.004078 -0.000897 0.003413 -0.000139 0.004944 -0.000856 -0.003084 -0.003228 0.005007 0.004215 0.004466 0.002454 -0.000331 -0.004431 0.004119 0.002465 -0.004020 0.001210 0.002564 -0.000058 0.002643 0.003513 -0.001571 0.002714 -0.004236 -0.003903 -0.003320 0.001944 0.004468 0.000399 0.000414 -0.001912 -0.001658 0.003771 -0.002331 0.000778 -0.004735 0.004119 0.003613 0.003372 -0.001456 -0.001416 0.002491 -0.003798 -0.000329 -0.001612 -0.000918 0.000359 -0.001056 0.002114 0.001225 0.002772 -0.002685 -0.004599 0.003803 0.000734 0.004367 0.001967 0.000324 -0.004175 -0.001871 -0.004568 -0.004967 0.004536 0.000299 -0.002448 -0.003662 0.002776 -0.001464 0.001591 -0.003680 -0.003669 -0.002795 0.000375 0.004223 0.002379 0.000531 -0.004929 0.002084 0.003217 0.000079 -0.003660 -0.004894 0.003063 -0.003568 -0.001358 0.001669 -0.003072 0.001136 -0.003484 0.004023 0.000382 -0.003446 -0.003001 -0.003656 0.004166 -0.004791 0.004420 0.002162 -0.004372
an -0.004539 -0.004193 -0.003860 0.004981 0.000251 0.000782 -0.002344 0.000358 0.002473 -0.002297 -0.000686 0.001894 -0.003182 -0.004410 0.002545 0.004053 0.000932 -0.003877 -0.001595 -0.000758 0.000306 0.003531 0.003054 0.003423 -0.003943 0.003393 -0.000197 0.001093 0.001958 -0.003876 0.003995 -0.000679 0.002697 -0.000501 -0.001490 0.002929 -0.002598 0.004673 0.002993 0.003176 -0.004912 -0.003580 -0.004946 0.003707 0.000054 -0.001970 0.000120 -0.001488 -0.004954 0.000325 0.002971 0.004732 -0.001908 0.001714 -0.003878 -0.000382 -0.000516 -0.000642 -0.000655 -0.000905 -0.000764 0.001805 0.000935 0.001693 0.000470 -0.002642 -0.002794 0.003317 0.002369 0.000957 -0.004806 0.004744 0.000847 0.004541 -0.004219 -0.001305 0.002090 -0.002600 0.000002 0.002799 -0.002826 -0.002218 -0.003475 0.003337 -0.001013 0.003278 -0.001542 -0.004990 0.000405 -0.001782 -0.002629 0.004177 -0.002204 -0.000672 0.000239 -0.004497 0.000653 0.002331 -0.002521 -0.001275
put 0.001847 0.002202 -0.001042 0.000916 0.001184 0.001657 -0.001236 -0.000402 -0.003721 -0.000570 -0.001989 -0.002445 -0.001592 -0.001292 0.002686 -0.002840 -0.003005 0.003736 0.002589 0.002984 -0.001492 0.000512 -0.004308 0.000895 -0.004335 0.001749 -0.002223 -0.003343 0.001521 0.000269 0.002667 -0.003246 -0.000873 -0.001553 0.002607 0.003313 -0.004447 -0.002604 0.002623 0.000557 -0.003784 -0.000565 0.000352 -0.001948 0.003454 -0.003417 -0.000190 -0.002397 0.000227 -0.002478 0.004616 0.003498 -0.004028 -0.003405 -0.001719 -0.002614 -0.004207 0.002938 0.003330 -0.001240 -0.001747 -0.002284 0.002230 0.003271 -0.000360 -0.001135 -0.004352 0.003936 0.001770 0.002188 -0.003125 0.002973 -0.003252 -0.004866 -0.002446 -0.004435 -0.000621 0.001398 -0.001950 -0.002252 -0.001510 -0.000301 0.003883 -0.001751 0.003475 0.001047 0.002252 -0.000989 0.004367 -0.003937 -0.004006 0.003596 -0.002068 -0.000541 0.001495 0.004940 0.001964 0.002480 0.002438 -0.000083
Here 0.001976 0.001085 -0.000707 -0.004763 0.003833 0.002806 -0.002677 -0.001971 -0.004040 -0.004249 -0.002339 0.002578 0.000187 0.002943 0.003230 -0.003151 -0.000161 0.000192 0.004423 0.003507 0.002490 -0.002338 0.003173 0.000525 -0.003578 0.000254 -0.002279 0.000048 0.004466 0.004828 0.004383 -0.002830 0.002984 0.002787 -0.003645 -0.001012 0.002037 0.000442 -0.004591 -0.002116 0.003503 -0.003942 0.000593 -0.004765 -0.002836 -0.003296 -0.004895 -0.001437 0.002010 -0.000015 -0.004850 -0.003917 -0.000675 -0.002052 0.002028 0.000876 0.004530 0.003678 0.002257 -0.001729 -0.004840 0.001878 0.004689 0.002621 -0.003402 0.002332 -0.001772 -0.004061 0.004234 -0.000161 -0.000076 -0.004897 -0.004127 0.002320 -0.001188 -0.001615 -0.002290 0.004172 -0.001038 0.004869 0.001517 0.003098 -0.003641 0.003375 -0.004528 -0.003939 0.003015 -0.000668 -0.004603 0.003319 -0.002777 0.002973 -0.002432 0.001097 0.004962 -0.000410 0.004367 -0.000979 -0.002599 0.002202
JD -0.003754 -0.000981 0.002143 -0.004887 0.002972 0.000052 -0.002618 -0.003578 -0.000822 -0.001187 0.000353 -0.002624 -0.004574 0.001685 -0.004727 -0.001289 0.004020 0.000788 0.003059 0.004025 0.003343 -0.004209 0.001412 0.004190 0.002186 -0.003535 0.002714 -0.004683 0.004303 -0.003910 0.001781 -0.001035 -0.000583 -0.001717 -0.000417 -0.002754 -0.002730 -0.001240 -0.004085 -0.003336 -0.004341 0.000784 0.003975 0.002366 0.000810 -0.003037 -0.001238 0.004730 0.002803 0.002912 -0.001127 -0.003217 -0.002790 -0.002495 -0.003818 0.003110 -0.000659 0.003972 0.004432 0.003782 0.000686 0.000020 0.004356 0.001982 0.002878 0.002219 0.004372 -0.001893 0.002395 0.003420 0.002127 -0.002482 0.004035 -0.004994 0.000087 -0.002911 -0.003617 -0.002884 0.002431 -0.002605 -0.002104 0.000471 0.004578 -0.002440 -0.002736 -0.001196 0.000389 0.001107 -0.000773 -0.001767 -0.001984 0.003168 -0.002468 0.000189 0.004207 -0.000274 -0.000588 0.002826 0.003226 0.004508
would 0.002478 0.002303 -0.003958 -0.000103 -0.004511 -0.003466 -0.004647 0.002615 -0.001563 0.002844 0.003607 -0.002482 0.000160 -0.004367 -0.004935 0.002461 -0.002166 -0.001161 0.002232 -0.004735 -0.000920 -0.004726 0.001948 -0.001583 0.003581 -0.004839 -0.002130 0.003209 0.003923 0.004173 0.000333 0.000058 0.002393 0.003398 0.002507 -0.004005 -0.001274 0.001106 0.002766 -0.002192 0.002005 0.004345 -0.003082 0.000658 -0.000043 -0.003553 -0.001347 0.003660 -0.004113 0.003734 0.003274 0.001702 0.003547 0.004867 0.002578 -0.000965 0.000915 0.001450 0.001753 0.000635 0.000878 0.003424 0.002380 0.000440 -0.004186 -0.003688 0.000250 -0.001375 -0.001788 0.000788 0.002638 -0.004169 -0.003627 0.000943 -0.002993 0.000566 -0.004827 -0.002815 0.002056 -0.004447 0.002702 -0.001105 0.003509 0.001809 0.004752 -0.000035 -0.002081 0.004629 -0.000767 0.004651 -0.000361 0.000429 -0.003695 0.002357 -0.002816 0.004921 0.002609 0.000774 -0.002264 -0.003296
, -0.001450 0.004661 0.000114 -0.001301 0.004254 0.003347 0.003974 -0.000757 0.001997 -0.002104 -0.002656 -0.001109 0.002444 -0.004936 0.002993 -0.004692 -0.001700 0.003926 -0.001608 0.001871 -0.002224 0.003555 0.001681 -0.001288 0.000971 -0.001875 -0.001283 -0.002716 0.001696 0.004889 0.001802 0.004878 -0.000988 0.004801 0.002996 0.003129 0.004036 -0.001096 0.003320 -0.004113 0.003846 0.000332 0.001601 0.001890 0.004892 -0.003729 0.002689 -0.000746 -0.000931 -0.003883 -0.004681 -0.000028 0.002736 0.003287 -0.002735 -0.000877 -0.000329 0.002645 0.001489 -0.001585 -0.000720 -0.001497 -0.004451 -0.004053 -0.002283 -0.004429 -0.001993 -0.002406 -0.000448 -0.000446 -0.003589 0.000472 -0.001803 -0.000890 -0.003320 0.000543 -0.000810 -0.004789 -0.000014 0.002346 0.003402 -0.003701 -0.004091 -0.002195 -0.001210 -0.004704 0.002688 -0.004713 -0.002303 -0.002670 -0.003840 -0.002848 -0.000507 -0.004759 0.002501 -0.001067 0.003472 -0.001948 0.001382 -0.004590
capabilities 0.002550 -0.003981 0.002226 0.002673 -0.001972 -0.000292 -0.000741 0.002026 0.002962 -0.004123 0.004810 0.004522 -0.001425 -0.004867 0.001508 -0.001944 -0.003258 0.004681 0.004039 -0.003485 -0.001217 0.003825 0.004769 -0.000096 -0.001971 0.003451 -0.000466 -0.000459 -0.004118 0.000214 0.004613 0.001039 0.003760 -0.003748 -0.001159 -0.004771 0.001537 0.003535 0.002870 0.001875 0.002121 -0.001953 0.004567 -0.002225 0.004267 0.003158 -0.004143 0.000935 -0.003445 0.003080 -0.002850 -0.003554 -0.003905 0.000396 0.002562 0.001894 0.002113 -0.001142 0.004944 -0.002984 -0.004330 0.002510 -0.003046 -0.004102 -0.001058 0.001919 -0.000047 -0.000417 0.003811 -0.002815 -0.003345 -0.001896 0.003599 -0.004569 0.002043 -0.003617 0.004223 0.003699 0.000291 0.004879 0.000008 -0.001628 -0.002033 -0.002240 0.001621 -0.004389 0.002654 0.003759 -0.004991 0.003941 -0.000628 -0.000676 0.001285 -0.001865 0.003272 -0.001108 -0.003861 -0.003516 -0.000468 0.003049
should 0.000716 0.000818 0.003088 -0.000241 -0.001476 0.004860 0.002707 -0.003889 -0.002730 0.001487 -0.002410 0.002719 -0.003747 -0.003134 0.000331 -0.001150 0.000119 0.001069 0.003486 0.004713 0.000241 -0.000441 0.003543 -0.001180 -0.002479 -0.000703 0.003453 0.000009 -0.004606 0.003504 -0.000723 0.000552 0.000027 -0.002630 0.002379 -0.003804 -0.003444 0.000450 -0.001799 0.000979 -0.000209 0.000996 0.000950 0.003334 -0.000335 -0.000776 0.004179 0.003626 0.004654 0.000150 -0.003889 -0.003800 -0.000548 -0.002245 -0.003809 0.001620 -0.001133 0.001579 -0.000972 -0.003028 0.004116 0.001163 -0.001712 0.001138 0.000399 0.001457 -0.002160 -0.001744 0.004644 0.003958 -0.002570 -0.004300 0.000411 -0.000693 0.002004 -0.004972 -0.002633 0.003082 0.003374 -0.004351 -0.000194 -0.000566 -0.003444 -0.000631 0.001414 0.003003 -0.002444 -0.003848 0.002659 -0.001090 -0.001308 0.004609 0.004582 0.001491 0.004853 -0.004821 -0.002959 0.003685 -0.000490 0.004008
input 0.001082 -0.002606 0.002255 0.001404 0.000574 0.001323 0.003940 -0.003941 0.000767 -0.002150 0.004955 -0.004433 -0.002446 0.003115 -0.000310 -0.003311 -0.004168 -0.002683 -0.001539 -0.004309 0.000940 0.000013 -0.001053 0.004829 -0.004360 0.003747 -0.002656 -0.003461 -0.001753 0.000345 -0.002521 0.003382 -0.001928 -0.001721 -0.003440 -0.003567 0.003705 0.000098 0.000090 0.000788 -0.002430 -0.001061 0.003091 0.003298 -0.000968 -0.000674 -0.003838 -0.002930 -0.000526 0.004384 -0.000891 0.002594 -0.003996 -0.001320 0.002250 0.001750 -0.003980 0.000782 -0.004649 0.004239 0.004821 0.004058 -0.001619 0.004286 -0.004594 -0.003215 -0.004208 0.001334 -0.002511 0.001196 -0.004552 -0.004737 -0.003437 0.002706 0.002452 -0.002649 0.004453 -0.001570 -0.000699 -0.002397 -0.001985 -0.003040 -0.003957 0.004241 -0.002458 -0.004903 -0.004796 0.001175 0.003259 0.001766 -0.000780 0.000637 -0.002682 -0.003388 -0.004617 -0.003859 -0.002335 -0.003052 -0.003157 -0.002791
you 0.004685 -0.000271 -0.003970 0.004799 -0.000137 0.003437 -0.003726 -0.000853 0.004998 0.001397 0.000345 -0.003379 -0.001983 0.002587 -0.004522 -0.001490 -0.003912 -0.003652 -0.003992 0.003505 -0.004619 -0.001524 -0.003543 0.000424 -0.003954 -0.000245 -0.001416 -0.002874 0.002412 0.001454 0.001714 -0.000464 -0.004581 0.003244 -0.004215 0.001490 0.002630 0.001250 -0.004910 0.001375 -0.003382 -0.001173 0.000991 0.002425 -0.003537 0.002404 -0.001583 -0.000055 0.004378 -0.003728 -0.003768 0.002090 0.003157 -0.000969 -0.002570 -0.004182 -0.002834 0.004566 -0.001094 -0.004784 -0.004814 0.003816 0.002475 -0.001704 0.002788 0.000455 0.003754 -0.004363 -0.004637 -0.000169 0.000178 -0.003553 -0.002295 0.002221 0.003589 -0.002095 0.004340 0.001081 0.002035 0.004949 0.004506 0.003955 -0.003071 -0.001809 -0.004100 0.003720 -0.000602 -0.001617 -0.000773 0.000817 0.002516 0.003516 0.004663 0.004375 0.001750 -0.002778 -0.001341 -0.004828 0.004891 0.004012
spec -0.003516 0.003730 -0.002656 0.003344 -0.001974 0.000577 0.002630 0.003350 -0.000452 0.003529 0.003937 -0.003934 -0.001305 0.003498 0.003681 0.000632 -0.001838 -0.002836 -0.000961 0.001297 0.001458 0.003682 0.001447 -0.000727 -0.000598 -0.000787 -0.004575 -0.004430 0.003792 0.001346 -0.001821 -0.000376 -0.001390 0.004411 -0.002519 -0.001397 -0.004377 -0.001603 0.002738 0.001145 -0.002016 -0.002734 -0.002035 0.001755 -0.004384 0.003269 -0.004901 0.002870 0.001431 -0.001051 0.002056 -0.000648 -0.000873 -0.001397 -0.001531 0.004217 0.002585 -0.004409 -0.004843 -0.003320 0.004961 -0.003505 -0.001665 -0.003108 0.003360 -0.002436 0.003506 -0.003685 -0.000436 -0.000128 0.003928 -0.000492 0.002459 -0.001424 0.004372 -0.002826 -0.001020 -0.004686 -0.002971 0.002471 -0.002926 0.002967 -0.004223 0.001762 -0.002712 0.000699 -0.000526 -0.004655 -0.000341 0.004716 0.003356 -0.001046 0.002251 0.000283 0.002196 0.004290 0.002775 -0.004413 0.003276 -0.000361
be 0.003529 -0.004362 -0.001726 0.003566 -0.003972 -0.001419 0.001298 -0.001200 0.002822 -0.001306 -0.001921 0.000579 -0.004076 0.000789 -0.002801 0.000051 0.004476 0.002609 0.003005 -0.001035 0.003193 -0.002423 0.004071 -0.003432 -0.004972 -0.000075 -0.000219 -0.001166 0.000235 -0.000818 -0.002135 -0.004662 0.002456 0.004554 -0.003109 0.004712 0.002703 0.001063 -0.003797 -0.002913 -0.002718 0.004087 -0.004231 0.001411 -0.004188 -0.001929 -0.001348 0.003988 0.001584 0.003755 -0.003163 -0.000259 -0.002086 -0.000584 0.002078 0.000883 -0.001816 0.002735 -0.001022 -0.001038 -0.003301 -0.001857 0.003784 0.004776 0.001828 0.003458 0.002035 -0.003938 0.004587 -0.000742 -0.004430 -0.001769 -0.004829 -0.001841 -0.000635 -0.000585 -0.001511 -0.004770 0.004468 0.003024 -0.004979 -0.000054 0.000641 -0.003025 0.002965 -0.001197 0.001235 -0.004389 0.000230 0.001060 0.004515 0.004146 -0.004634 0.004870 -0.001140 0.000189 0.004725 0.000387 -0.001674 0.000114
comprehensive -0.002137 0.000587 -0.004372 0.003034 -0.000003 -0.003170 -0.003689 0.000908 0.002295 0.000994 0.004660 0.001911 -0.004273 0.001204 0.001983 0.000613 0.003054 0.000202 -0.000112 -0.004691 -0.000314 0.000904 0.001961 0.001193 -0.004712 -0.001116 -0.001040 0.002832 0.004729 0.001891 -0.003547 -0.002843 -0.003667 0.004373 -0.003427 0.002265 0.004471 -0.001373 0.001200 -0.002248 -0.000240 -0.001393 0.003206 -0.002505 -0.004161 0.002070 -0.000038 -0.003873 -0.004889 -0.000776 0.001794 0.003379 0.003239 -0.003220 -0.003260 -0.002988 0.002557 0.001788 -0.001498 0.002303 -0.001861 0.004878 0.002680 -0.001602 0.004478 -0.004549 0.001171 -0.002416 -0.003757 0.000499 -0.000596 -0.002309 0.000400 0.003996 -0.002035 -0.000106 0.002265 -0.001293 -0.002166 -0.004577 -0.004392 0.001318 0.003288 0.000390 -0.004354 0.001330 -0.002530 0.004787 -0.000015 0.001910 0.002782 -0.001590 0.001268 -0.003639 -0.003893 -0.001588 -0.002301 0.004438 0.000145 -0.004978
but 0.003553 0.004931 0.003000 0.002368 -0.004517 -0.003678 -0.004707 -0.002629 -0.000605 -0.000404 -0.002070 -0.003936 -0.001565 0.000324 0.004392 0.001748 -0.002782 -0.001492 -0.003053 -0.000656 0.001755 -0.003990 -0.004664 0.000138 0.000865 -0.000468 0.003611 0.000311 -0.000244 -0.001217 -0.003016 0.003295 -0.002669 -0.000979 -0.000835 0.001466 0.000357 0.002872 -0.004742 0.002273 -0.004359 -0.003581 -0.004758 0.002706 -0.001387 -0.001686 -0.002039 -0.003260 0.002731 0.004769 0.000003 -0.000841 0.004299 0.001803 -0.003013 -0.004944 0.003282 0.004445 0.002559 -0.000316 -0.004695 0.004690 0.000579 -0.004287 0.003900 -0.001451 0.002853 0.003946 0.003936 -0.000513 0.000250 -0.000782 -0.004717 -0.002661 -0.000296 -0.002554 0.002406 0.000343 -0.003633 -0.000853 0.001123 0.000891 0.004267 0.000722 -0.004739 0.000124 -0.001315 0.003961 -0.002704 -0.000905 0.001206 -0.001117 0.003979 -0.000740 -0.002312 0.000996 0.000492 -0.002515 0.003961 -0.002986
'd -0.004863 -0.002604 0.000103 0.001958 0.000362 -0.004876 -0.001667 -0.004991 0.003841 0.000136 0.004880 -0.004315 0.004445 0.004940 -0.004799 -0.004217 -0.003562 -0.004787 -0.001805 0.000374 -0.000796 0.003237 0.002301 -0.002652 -0.004944 0.003717 -0.002734 -0.002039 -0.004992 -0.002758 0.002320 0.001911 0.004652 -0.001217 -0.000617 0.002331 0.002366 0.000118 0.001411 0.004691 0.004215 0.001947 -0.003435 -0.002033 0.002273 0.003439 0.001149 -0.004623 0.004423 0.004259 -0.002516 0.002606 0.003625 -0.000320 -0.003267 0.000727 -0.002531 -0.002087 0.002228 0.002817 0.004237 -0.004779 -0.004351 0.001207 -0.000089 0.004324 0.002614 -0.000185 0.001641 0.000041 -0.003205 -0.003446 -0.001805 -0.001948 -0.001489 -0.004758 0.004792 -0.001101 0.004006 -0.002800 -0.001419 -0.004005 0.002937 0.000008 0.000880 0.003695 0.002168 0.001969 0.000873 0.001931 -0.002177 -0.002931 -0.002812 0.000865 -0.004767 -0.000544 -0.003345 0.003401 0.000367 0.003577
not 0.003066 0.004781 0.001665 0.000947 -0.004733 0.003564 -0.003338 0.000179 -0.004929 -0.002691 0.001523 -0.003644 -0.002257 -0.003208 -0.003091 -0.002024 0.004540 -0.002867 0.002094 -0.000409 -0.004869 -0.004164 0.000085 -0.000295 0.004074 -0.002010 -0.004832 0.003905 -0.000807 0.004335 -0.000688 0.000919 0.000587 -0.000784 0.002979 -0.003037 -0.000269 0.004600 0.000955 0.001585 0.001704 -0.004655 -0.001560 0.003765 0.001257 0.001858 -0.001932 0.001235 -0.003816 -0.000125 -0.000227 -0.004243 -0.003263 0.002459 0.004619 -0.000111 0.000097 0.000067 -0.004269 -0.002017 -0.000828 0.001793 -0.002466 0.001101 -0.003343 -0.002789 -0.002622 0.002558 -0.002087 0.000800 0.003665 -0.003149 -0.003851 -0.003020 0.004844 0.001849 -0.002348 -0.004891 0.004142 0.002991 0.000597 0.001143 0.004174 0.001727 0.003473 -0.001224 0.000455 -0.001084 -0.000435 -0.002894 0.000285 0.000931 0.000354 0.000826 -0.000825 -0.003224 0.003858 0.004452 0.003835 0.000883
copy -0.003925 -0.004370 0.004698 -0.001072 0.002289 -0.003313 0.002026 -0.002657 -0.001730 -0.000154 -0.001755 -0.003977 0.004554 -0.001613 0.001818 0.000827 0.000333 -0.002777 -0.001220 0.003584 0.002396 -0.002335 0.004184 0.000888 -0.001323 -0.000567 -0.002568 -0.002142 -0.003663 -0.000036 -0.000171 0.003874 -0.001089 0.004031 0.001516 0.001508 0.004372 -0.001144 -0.000441 0.004803 0.003050 0.001911 0.004625 -0.000570 0.004336 0.000977 -0.002937 -0.000401 -0.001070 -0.001838 0.004135 -0.002798 -0.004534 -0.000091 -0.001323 0.004433 0.003480 0.003363 -0.003997 0.004480 -0.000103 0.002770 0.004877 -0.004138 0.002554 0.004054 -0.004437 -0.004113 0.002962 -0.004059 -0.000944 0.003104 0.002650 -0.001439 -0.003496 0.004157 -0.001944 -0.000421 0.004208 0.003682 0.000670 0.003565 0.000369 -0.003540 0.003072 0.003340 0.004218 -0.004397 -0.000757 0.003806 0.003478 -0.002098 -0.003500 0.000916 0.001406 -0.000728 -0.000080 -0.001916 0.002870 -0.004906
a 0.000587 -0.001167 0.001327 0.001875 -0.002712 -0.004637 -0.002392 -0.001849 0.003537 0.003538 -0.000680 0.000357 -0.001828 0.001756 0.003699 0.001174 0.002087 0.004025 0.003320 0.000012 -0.002150 0.004833 0.002279 0.003741 0.000437 -0.001161 0.001624 -0.004061 0.004470 0.002753 -0.003069 0.000445 -0.001750 -0.002174 -0.004857 -0.000716 -0.001613 0.002024 0.001382 -0.001835 0.000906 0.002003 -0.003878 0.004938 -0.001996 0.000781 0.000523 0.000929 0.003728 0.000560 0.000134 -0.001620 0.000791 -0.003632 0.001653 0.002753 0.001619 -0.003103 0.003637 -0.001100 -0.002927 0.002345 0.003186 -0.002762 0.001622 0.001480 -0.002413 0.000704 -0.001208 -0.001531 -0.000232 -0.002095 -0.003287 0.000135 -0.002515 0.004571 0.001828 0.000739 0.000086 0.004931 -0.000686 0.002453 0.000539 -0.004166 0.000776 -0.004177 0.000834 -0.002661 0.004906 0.003971 -0.002805 0.003586 -0.000095 0.001056 -0.003988 -0.003032 0.002258 0.002958 -0.003937 -0.003869
great -0.004481 0.003637 -0.002223 -0.000822 -0.001270 -0.003992 0.003053 -0.004529 0.003692 0.000130 0.003392 0.001625 0.001479 -0.002781 0.001835 -0.001635 0.004585 -0.004708 0.002244 -0.001173 0.003389 -0.003787 0.003655 -0.000586 0.004842 0.001246 -0.003838 0.000551 -0.003048 0.000819 -0.002591 -0.001588 -0.004999 -0.000018 0.001314 0.002250 -0.003108 -0.003162 -0.003638 -0.002893 -0.003214 -0.002233 -0.004026 -0.004773 0.001961 0.002240 0.002273 0.001455 -0.004994 -0.004553 -0.004036 0.000678 -0.000056 -0.002031 -0.000891 -0.001300 -0.000321 0.003403 0.000612 -0.000805 -0.002162 -0.003114 0.004439 -0.000825 -0.001900 0.004617 0.002641 0.001086 -0.001981 0.001284 -0.001140 -0.003620 0.002453 0.004526 0.003555 -0.004162 -0.002688 -0.001271 -0.002459 -0.001972 0.002532 0.004038 0.003986 0.000415 -0.000715 0.003812 0.002078 0.002523 0.004603 0.000213 -0.002368 -0.001974 -0.003022 0.003841 0.001102 -0.001374 0.001282 0.000717 -0.000759 -0.000252
like -0.002595 0.002147 -0.000688 0.000507 -0.001985 -0.004145 0.004829 0.000302 -0.004084 -0.003951 0.004655 -0.003860 -0.002340 -0.003559 -0.001399 -0.000022 0.001297 -0.004816 -0.004021 -0.000766 -0.003261 0.000550 -0.000820 -0.003636 -0.000805 0.002308 0.004900 0.000006 -0.002495 -0.003313 0.001346 0.001428 0.001575 -0.002016 -0.001118 -0.002358 -0.003680 0.002350 -0.000922 -0.001258 -0.002724 -0.002451 0.002175 -0.002508 0.002234 -0.000744 0.002279 -0.003535 0.003009 -0.002525 -0.000572 -0.001913 -0.004224 -0.004325 -0.004764 0.004941 0.001707 -0.001080 0.002143 0.002507 -0.001233 -0.001959 0.002927 0.002258 0.001408 -0.001481 -0.001604 -0.000089 0.003127 -0.001681 -0.001311 0.000294 0.004103 0.000721 -0.003752 -0.003264 0.003203 0.004884 -0.003748 0.002457 0.003485 0.001697 0.003082 0.003677 0.000198 -0.002586 0.001581 0.002380 -0.002546 -0.003636 -0.002941 0.002323 -0.002148 -0.003748 -0.004504 0.004575 0.004151 0.000701 0.004227 0.000657
It 0.004807 -0.004975 0.002541 0.002212 0.002659 -0.004665 0.002692 -0.003926 -0.004495 0.002992 -0.000261 0.001022 0.000174 0.004750 -0.001608 0.000814 0.001742 0.004948 -0.000875 0.002504 -0.000849 0.002353 -0.002976 0.002352 -0.000981 0.001607 0.000784 -0.002659 -0.004743 -0.004942 0.000624 0.001739 0.003296 -0.004209 -0.002665 0.003431 0.001009 0.001225 0.000282 -0.003735 0.004387 0.000510 0.003075 -0.000917 -0.004445 0.004238 -0.003734 0.001394 -0.001308 -0.002813 -0.002900 -0.000895 0.004030 -0.003828 0.002014 0.002967 0.001888 0.004684 -0.003229 -0.001850 -0.003682 0.000976 -0.002401 -0.002296 -0.003263 -0.003240 -0.000016 -0.004018 0.002734 -0.003291 0.000024 -0.000285 0.004554 0.004313 0.002466 -0.004917 -0.003602 0.003609 -0.004718 -0.003359 -0.001005 0.003778 0.004846 -0.001435 -0.001508 -0.002892 0.001850 0.003156 -0.004288 0.002408 -0.001408 -0.000081 0.001271 0.000989 -0.000836 0.003047 -0.003528 0.002352 0.004674 0.002952
together -0.002932 0.001903 0.001361 0.003340 -0.000507 0.003479 -0.002809 -0.002582 0.004554 -0.003426 -0.002389 -0.004322 -0.003522 0.002579 -0.001491 0.004897 0.002682 0.000645 0.000542 -0.003916 0.003365 -0.003275 0.002271 0.002095 -0.003202 0.002316 -0.003725 -0.001152 -0.000226 0.003385 0.000051 0.002220 0.001581 0.001833 0.001183 -0.004761 0.004202 0.002374 -0.004818 0.003935 0.000351 0.003092 0.001385 -0.001887 0.000339 0.002109 -0.001012 0.003841 0.003184 0.000477 -0.003425 -0.000886 0.000049 -0.003549 0.002889 -0.004760 0.004612 -0.004280 0.001475 0.004942 -0.002461 0.003293 -0.004226 0.004843 0.001347 0.000557 0.001300 0.004547 0.000584 -0.004883 -0.001380 -0.004454 0.000813 0.002589 -0.004861 0.004855 0.003516 -0.000839 -0.002211 0.004397 0.003056 -0.001809 0.004586 -0.004390 0.002384 -0.003221 -0.002129 -0.003564 0.002220 -0.000250 -0.003706 -0.003587 -0.003768 0.003303 0.001172 -0.001401 -0.004326 -0.001052 0.002914 -0.000316
've -0.003568 0.002262 0.003164 -0.003859 0.004033 0.001734 -0.000762 -0.000766 0.004356 0.002730 -0.000367 -0.001114 -0.000512 -0.000876 -0.004369 0.003005 0.000603 0.002975 -0.001938 0.003590 -0.000653 0.004625 -0.001598 0.004807 0.000857 -0.002783 0.000115 0.004491 -0.002130 -0.003528 0.001084 -0.000647 -0.000498 0.004778 0.000330 -0.002412 0.002323 -0.002972 -0.003042 0.000854 -0.000655 0.001006 0.000925 0.002263 -0.003518 0.004398 0.003370 -0.001516 -0.004757 0.002055 -0.001251 -0.003307 0.004495 -0.000498 -0.003019 0.003663 0.001306 0.003826 -0.004255 0.003723 0.001657 -0.004847 -0.003801 -0.002069 -0.004591 0.000651 0.003487 0.004009 -0.000496 -0.004851 -0.001118 0.003630 0.003848 0.004823 0.001227 -0.004648 -0.001228 -0.003488 0.000050 -0.004124 0.002950 0.000908 -0.001787 -0.002163 0.002816 0.002347 0.004384 -0.000910 -0.001839 -0.003817 0.000229 -0.004958 -0.001818 0.001682 0.003663 -0.003609 -0.000583 0.002729 0.003721 -0.001829
doc -0.003080 0.002914 0.000080 0.004396 -0.001030 -0.002417 -0.003841 -0.004651 0.002657 -0.002492 -0.000922 -0.001627 -0.001842 0.004945 -0.003292 0.002671 0.002953 0.002051 0.001622 0.002419 0.003441 -0.002340 0.000452 -0.002663 0.003060 -0.002643 -0.004267 0.001185 -0.000319 -0.003124 0.002696 -0.003413 -0.004658 -0.004364 0.003294 -0.002604 -0.000135 -0.002600 0.000455 -0.002271 0.001276 0.001929 0.001149 -0.000505 0.001252 0.004581 -0.000674 0.002541 -0.001156 -0.003914 0.002102 0.004955 0.003950 0.003338 -0.000295 -0.000906 0.000506 0.000328 0.004653 -0.002023 0.000017 -0.002247 -0.000500 -0.000416 -0.004270 0.001770 0.002602 0.000554 -0.001252 -0.003421 -0.001769 -0.004468 -0.001758 -0.000197 0.004177 -0.004138 -0.003319 0.002068 0.004561 0.004598 -0.000004 -0.000338 -0.003232 0.002489 -0.004532 0.003758 -0.002370 -0.003696 0.003067 -0.001468 0.000676 0.001828 0.004047 -0.003156 0.001861 0.001096 -0.001270 0.000124 0.004793 -0.004410
Any -0.002183 0.002858 0.002004 -0.004708 0.004175 -0.001013 0.001329 -0.000857 -0.004844 0.004529 -0.000790 0.000810 -0.004183 -0.001202 -0.003688 0.004017 -0.001469 -0.004100 0.002344 0.004075 0.003436 -0.004316 0.000603 0.000767 -0.002461 0.001849 -0.003882 -0.002902 0.002597 -0.001520 -0.003893 -0.002964 -0.001581 -0.004663 -0.004878 0.000701 0.004396 0.000346 0.001235 -0.001215 0.003921 -0.000674 0.002311 0.001106 0.003164 -0.004979 0.003869 0.001182 -0.004119 -0.004465 -0.000468 0.001014 -0.001082 0.003232 0.001304 -0.003196 -0.002893 -0.002205 -0.004524 -0.004782 0.001143 -0.000916 0.000137 -0.001297 0.004153 -0.001083 0.001088 -0.004268 0.002826 -0.002518 0.001346 0.001172 -0.000523 0.004654 -0.004920 0.004405 0.004393 -0.004158 0.003729 0.004464 0.001104 0.002994 -0.000587 -0.001855 -0.000146 -0.000478 0.003224 -0.000351 -0.004805 0.002788 -0.004693 0.003333 0.001674 -0.003120 -0.002992 0.002652 0.000284 0.001589 -0.004716 0.000013
