26 100
: 0.000257 0.001681 -0.002283 0.003859 0.000609 0.002976 0.004325 0.000656 -0.001589 -0.000254 -0.001492 0.001322 -0.001017 0.002794 0.000729 0.004296 0.000791 -0.002814 -0.003331 -0.004365 -0.001267 0.000912 0.001117 0.004894 0.002872 0.003514 0.001416 -0.003517 -0.001787 -0.000266 0.001533 0.001885 -0.002860 0.002551 0.004971 0.003441 0.000907 -0.000725 0.001784 -0.000376 -0.003037 -0.001042 -0.001445 -0.003807 0.000190 -0.000427 -0.004118 0.001538 0.002405 -0.004882 -0.000212 -0.004572 0.002857 0.000903 0.000363 -0.000515 0.002255 0.004285 -0.003476 -0.002789 0.000691 -0.004859 -0.003455 -0.003413 -0.002333 -0.000291 0.000770 0.004273 -0.002681 -0.002337 0.000675 0.004683 0.002805 0.000540 0.000457 0.001298 -0.000021 0.001449 0.002338 0.002890 -0.002329 0.004803 0.001263 -0.001551 -0.004445 0.004704 0.002741 0.004400 0.003254 0.003315 0.000652 0.001042 -0.000270 -0.004422 0.000085 0.003542 0.002811 0.000189 -0.003986 -0.000692
No 0.000560 -0.003776 -0.002946 -0.002196 0.002939 -0.004987 -0.003881 -0.000276 -0.003528 0.000221 -0.002846 0.004516 0.001083 -0.000948 0.002351 -0.000526 0.000996 0.004407 0.001310 0.003426 0.004200 0.002222 0.000818 0.001439 0.004048 0.002178 -0.001183 -0.004958 0.000321 -0.002884 -0.001937 -0.002611 -0.001710 0.001666 0.003714 -0.002133 -0.003338 0.001163 0.001783 -0.001437 -0.001132 0.000988 0.001389 0.002453 -0.001173 -0.000964 -0.002756 0.001207 -0.003873 -0.003190 -0.004898 0.004080 0.004591 -0.003695 -0.000062 -0.003046 -0.004249 -0.004542 -0.000516 0.000491 -0.004531 -0.000155 -0.003283 0.004971 0.004532 0.000119 0.000534 0.002395 0.002005 0.003428 -0.003420 -0.001528 0.004504 -0.000046 -0.002303 -0.000624 -0.004463 0.004960 -0.002099 0.002841 -0.001313 -0.004901 0.001079 0.004907 0.000952 0.003091 -0.002873 0.002601 0.004238 0.000470 -0.000202 -0.001075 0.002181 -0.000017 -0.002891 0.000416 0.000827 -0.004907 0.003349 -0.003690
. -0.001641 0.003936 0.001144 -0.002721 -0.000218 -0.003234 -0.004047 0.001572 -0.003528 -0.004850 -0.002738 0.000859 0.002052 -0.000110 0.003089 0.001067 -0.002005 0.004993 0.003921 0.002844 0.000867 0.000176 -0.004556 -0.003327 0.003126 0.001654 -0.004615 0.003150 0.000620 0.003582 -0.000628 -0.001884 -0.004484 -0.000277 -0.000674 0.000033 -0.004117 0.003713 0.003303 -0.002067 0.002472 0.000890 -0.000195 0.003511 -0.000827 0.001903 0.001418 -0.004667 0.000463 0.002451 -0.002587 0.000901 0.004022 0.001069 0.002437 0.000595 0.001251 -0.000571 0.002232 0.004208 -0.003602 0.002403 -0.000822 0.004048 -0.003725 -0.001151 0.000869 -0.000594 0.004074 0.003989 0.002323 0.000799 0.003424 -0.004473 -0.003069 -0.000236 -0.003142 0.003750 0.004040 -0.004459 0.003883 0.000039 0.003318 0.001120 0.000676 0.002471 0.003233 -0.001707 0.002740 0.000319 -0.003022 -0.002422 -0.001565 -0.001915 -0.000473 0.001799 0.003483 0.000968 -0.002125 0.000060
; 0.001358 -0.002387 -0.004576 0.003385 0.002918 -0.001776 0.004533 0.000723 0.000410 -0.004882 0.002201 0.004394 -0.001561 -0.003848 0.002923 0.001072 -0.004829 -0.001768 0.002165 0.004308 0.003094 -0.000581 -0.003300 -0.000489 -0.001802 -0.003166 0.000998 0.003917 0.003562 -0.001159 0.002437 0.001791 0.003877 0.003360 0.004935 -0.003141 -0.000498 -0.001650 0.002989 0.002152 0.001668 0.003665 -0.002445 -0.003778 -0.004749 -0.001399 -0.000346 0.004078 0.004894 -0.000600 -0.001676 -0.002876 0.002904 -0.000939 0.003100 0.003629 0.003274 0.001713 0.001753 0.000456 -0.000021 -0.000081 -0.002749 0.003060 -0.003900 -0.004919 0.004491 -0.004534 -0.003138 0.002738 0.003280 0.001216 -0.003744 -0.002297 0.004043 -0.000824 0.001729 0.002085 -0.004405 0.002206 -0.004637 -0.003282 0.000677 0.004041 0.004753 0.002329 -0.003545 0.003558 -0.002258 0.003186 -0.002756 0.002870 0.004780 0.002902 -0.002530 0.001169 -0.003426 0.003989 0.000429 0.002564
> -0.002122 -0.004210 -0.002894 -0.004249 -0.002151 0.001900 0.002241 0.001339 -0.002792 -0.001844 -0.000136 0.004609 -0.000813 0.003201 0.002080 0.004953 -0.000023 -0.004421 -0.002116 0.001963 0.002535 -0.002333 -0.001428 -0.001511 0.003910 0.000863 0.000377 -0.000939 -0.002634 -0.001328 0.000577 0.003173 0.001271 0.002685 -0.003803 0.003570 0.001319 -0.002381 -0.000894 0.004643 -0.003814 -0.002391 0.000962 -0.000569 0.001882 0.004797 -0.000784 -0.004835 -0.001784 0.001910 0.002394 0.004259 0.004241 -0.004306 -0.004674 0.003834 0.002573 0.002633 0.000199 0.004372 0.002687 0.003762 0.004307 -0.004014 -0.004975 -0.000453 0.004671 -0.003809 0.000244 0.003114 0.001693 0.002212 -0.003390 0.001988 0.000973 -0.002120 -0.002448 0.003063 0.004196 0.000344 -0.000747 -0.000506 -0.003458 -0.004940 -0.000683 0.001705 0.001864 -0.002945 -0.004385 0.002256 0.001133 -0.001388 -0.002576 0.002359 -0.001338 -0.001638 -0.001666 -0.003177 0.002862 -0.002997
awarded -0.002659 0.003322 0.002327 -0.004117 -0.000180 -0.001449 0.000002 -0.004224 0.003764 0.002216 0.004615 0.003034 -0.002425 -0.004299 0.000685 0.000803 -0.000620 0.001239 -0.000249 -0.000823 0.001015 0.004136 -0.003456 0.003012 -0.003204 0.002721 0.003085 0.004964 0.000173 -0.002436 -0.002175 0.004520 0.002262 -0.002092 -0.004916 -0.003708 0.001651 0.003835 -0.004135 -0.002762 -0.003065 0.001619 -0.000486 -0.000106 0.001562 0.002036 0.000570 0.004940 0.003774 0.001431 0.001206 0.002251 -0.000774 0.004813 0.004254 -0.000371 0.003764 0.003057 -0.000053 -0.001969 0.003406 -0.001789 -0.004875 -0.000357 -0.000509 -0.004477 -0.004383 0.001179 0.001933 -0.002976 0.001927 -0.001159 -0.001350 0.003875 -0.002775 -0.002493 0.002063 -0.000460 0.001855 0.003902 0.004743 0.002016 0.004913 0.000015 -0.002753 0.001071 -0.004530 -0.004460 -0.001928 0.000568 0.000164 0.002920 -0.001479 0.003027 -0.003991 0.004637 -0.000725 0.003762 -0.002458 -0.003340
Scheduling\ISO -0.001706 -0.004377 0.000703 -0.000034 -0.003543 -0.004468 -0.000850 -0.003834 -0.001584 0.002868 0.000598 -0.003070 0.001623 -0.004524 -0.002839 -0.002573 -0.004841 0.000168 -0.001812 0.001137 0.003984 -0.000972 -0.004696 0.002087 0.000474 0.004060 -0.000421 0.002590 -0.002617 -0.000352 -0.004730 -0.001576 0.003874 0.004022 -0.003590 -0.002888 0.002204 -0.002960 -0.001222 0.003929 -0.004042 -0.002284 0.004459 0.003676 0.004824 -0.003567 -0.000365 -0.000055 0.001428 -0.001891 -0.001448 0.000201 -0.002290 -0.001247 0.001948 0.000656 -0.000548 0.000154 -0.003711 0.003719 0.002507 0.000684 0.002527 -0.001511 0.001779 0.002931 0.002887 -0.001260 -0.004426 0.003440 0.004277 0.001636 0.001187 -0.004401 -0.001984 -0.001282 -0.003291 0.003924 -0.004161 0.000568 0.002200 -0.003530 0.002346 -0.003284 -0.000246 0.001057 0.003723 0.003412 0.002984 -0.001246 -0.000877 0.004776 0.004808 -0.003619 0.003047 -0.001911 -0.003419 0.003439 0.001021 0.001878
LOG -0.004491 0.003624 0.003139 -0.001264 -0.001489 0.001865 -0.003559 -0.000064 0.002644 0.002018 0.003814 0.002049 -0.004002 0.001370 0.001303 0.004947 0.000123 0.004894 -0.000208 0.000154 -0.003666 0.000246 -0.001516 0.003255 -0.000856 -0.002011 0.002290 -0.002046 0.004363 0.000446 0.001994 -0.001878 0.000808 0.001994 -0.001865 -0.003614 -0.001212 0.002528 -0.000527 0.000779 -0.004316 -0.003978 -0.002158 0.000417 -0.002792 -0.004108 0.002188 0.001498 0.001075 0.002921 0.004055 -0.000341 -0.002490 -0.003612 0.002391 -0.000076 -0.002756 0.000167 0.001223 0.000541 -0.002144 0.004511 0.003930 -0.002030 0.002258 0.003313 0.001526 -0.001954 0.002127 -0.003348 0.002058 0.001658 0.000332 0.003607 0.000068 0.003377 -0.002078 0.004198 -0.004428 -0.003578 -0.000242 0.000086 -0.001746 -0.001696 -0.002981 -0.004845 -0.003991 0.002029 -0.001570 0.003561 -0.002799 0.002329 0.004773 -0.000563 -0.003972 0.004233 0.001104 -0.000910 0.002476 -0.004800
Schedules\2001122622.txt -0.004504 0.003885 -0.003135 -0.002270 -0.004839 -0.002051 0.004499 -0.000796 0.003182 -0.000265 0.000572 -0.001836 0.003937 0.003888 0.003520 -0.003554 -0.003213 -0.002043 0.003265 0.002172 0.000637 0.001214 -0.004788 0.001601 0.002061 -0.004015 -0.001657 -0.002056 0.001167 0.002391 0.002153 -0.003745 0.003592 -0.003511 0.003116 0.002269 0.004131 0.004599 -0.002370 -0.001892 -0.002147 -0.001305 -0.002930 0.004762 -0.003329 -0.004380 0.001480 0.002863 -0.001699 -0.001672 -0.003850 -0.004156 0.004271 -0.004074 -0.001887 -0.004946 -0.001257 -0.003416 0.000317 -0.002045 0.000031 -0.000239 0.001214 -0.002346 -0.002175 -0.001252 0.004461 -0.001453 0.001198 -0.002998 -0.001838 0.004984 -0.003914 0.000057 -0.003179 -0.003855 0.004958 0.003805 -0.001665 0.004088 0.004392 -0.003669 -0.001078 -0.002574 -0.001061 0.003578 -0.000378 0.001838 -0.000980 0.001029 -0.004364 0.004772 -0.000853 -0.001628 0.002108 -0.002938 -0.002175 0.002413 0.000070 0.002329
Start 0.000607 -0.001188 -0.000748 0.002357 0.004388 -0.000673 -0.000747 0.002583 0.001949 -0.002113 0.003464 0.000870 -0.003576 0.004103 0.004684 -0.004811 -0.000473 -0.000880 -0.001069 -0.000657 0.000390 0.001693 0.001446 0.003022 -0.002920 -0.000863 0.004324 0.004126 -0.002947 -0.001501 -0.001573 0.002216 0.003064 -0.001645 0.001125 -0.001275 0.002757 -0.002089 0.004509 -0.002780 0.002070 0.003329 0.003946 0.001235 0.003332 -0.004950 0.003402 0.000781 -0.004558 0.001072 0.001973 -0.001490 0.002152 0.000912 0.002436 -0.000647 -0.003219 0.003168 -0.004033 -0.002827 0.002514 -0.001953 -0.001212 -0.000381 -0.000487 -0.002719 0.000651 0.003387 -0.000309 -0.003781 0.000329 0.002081 -0.002351 0.004411 0.001397 0.000738 0.000479 -0.003362 0.004144 0.004776 -0.000156 0.001570 0.002388 -0.003477 -0.003025 -0.002731 -0.004203 -0.004488 -0.001371 -0.001848 0.000490 0.004492 -0.000019 0.003055 -0.003247 -0.004159 -0.003880 0.003669 0.003982 0.000211
FILE -0.000995 0.000546 0.000777 -0.000776 -0.004220 -0.001315 0.003463 0.000878 0.000304 0.003246 -0.000778 -0.003621 0.002921 -0.004912 -0.004747 0.003552 0.004016 0.001444 0.000861 0.002285 0.004215 0.003962 0.000356 0.001701 0.001919 0.002843 -0.003373 0.000381 -0.004267 0.002448 0.002658 -0.003227 0.003908 0.001025 0.003199 0.004368 -0.000017 0.002572 -0.002088 -0.000885 -0.000645 0.000837 0.000961 0.002647 0.000874 -0.001727 -0.002715 -0.002165 -0.003180 -0.004375 0.002765 0.000751 0.003052 0.004528 -0.002629 -0.003701 -0.004252 0.004786 -0.001400 -0.003878 -0.002531 -0.000425 -0.000144 0.004238 -0.001238 0.001700 0.002295 0.000017 -0.001722 0.003796 -0.003546 -0.002103 -0.002374 -0.004762 -0.000468 -0.002422 0.000708 -0.001481 -0.004388 -0.004897 0.002273 0.002325 -0.004232 -0.004715 -0.003448 0.004754 -0.004672 -0.001055 -0.001764 0.003561 -0.002509 0.002343 -0.003695 0.004821 -0.002801 0.000209 0.002029 0.000139 0.000689 0.003843
PARSING -0.002490 -0.001548 0.000242 -0.004790 0.000027 0.002030 0.001813 0.000196 -0.004836 0.000392 0.001003 0.001547 0.003508 0.001301 -0.001180 0.000381 0.001299 0.003185 0.004925 -0.002825 0.003196 -0.002658 -0.003476 -0.003039 -0.004724 -0.002974 -0.004637 -0.000229 0.004712 0.004288 -0.004152 -0.000865 0.002045 -0.000112 -0.004483 0.002330 0.004653 0.004438 0.004519 0.003883 0.003751 0.004985 -0.004594 0.003085 0.002103 0.003232 -0.002579 -0.001291 0.004400 -0.002374 -0.004003 -0.002463 -0.000813 -0.003017 -0.000612 0.002858 -0.004217 0.002763 0.003539 0.000186 -0.000167 0.000734 -0.003150 -0.002470 -0.003837 0.003863 -0.001308 0.004311 -0.004050 0.002520 0.003839 0.001768 0.004732 -0.003863 -0.002913 0.002442 -0.001559 0.004996 0.001143 0.004868 -0.004313 0.002518 -0.000356 -0.003339 -0.000279 0.002268 -0.000144 -0.001630 0.004919 0.003118 0.002550 -0.004140 -0.004459 -0.001847 -0.000199 -0.002429 0.004098 0.003073 -0.000032 -0.002437
Final -0.003753 -0.003497 0.001298 0.002732 -0.001861 -0.000265 -0.001120 0.004924 0.002616 -0.003398 -0.003890 0.000289 -0.002856 0.003265 0.002196 0.001026 0.001959 -0.003561 -0.003147 0.000039 -0.003229 0.000787 0.003098 -0.003032 -0.001969 0.000310 0.001765 0.000684 0.001910 -0.003176 0.001670 -0.002213 0.001916 0.000597 0.001333 0.003395 -0.001385 -0.000466 -0.004930 0.001723 0.001166 -0.002074 0.002417 -0.004847 -0.001780 0.004799 -0.004414 0.004347 -0.003766 0.000083 -0.003565 -0.002350 -0.000465 0.004868 -0.000941 0.002002 0.001079 0.002664 -0.003701 -0.003570 -0.004387 -0.003045 -0.001645 0.004766 -0.000404 0.002761 -0.003644 0.003715 -0.002389 -0.003458 -0.003912 -0.003269 -0.003850 -0.000840 0.003754 0.004195 0.001202 -0.002239 -0.001063 -0.001793 0.003728 0.002116 0.004580 0.004040 0.002293 0.004617 0.000339 -0.003087 -0.004420 0.003895 -0.003790 -0.000320 -0.004083 -0.003796 0.002082 0.002892 0.002388 -0.004116 0.004239 0.002284
22 0.003167 -0.002372 -0.000998 0.000128 -0.000717 -0.003363 -0.001371 -0.001461 -0.003086 -0.001474 -0.001751 0.001421 0.002701 -0.002537 0.002869 -0.001656 -0.003370 -0.001432 0.004751 0.004176 0.003217 -0.000387 0.004282 0.000550 -0.003833 0.004370 -0.001278 -0.004961 0.002452 0.003354 -0.000083 -0.003348 -0.003709 0.000087 -0.001473 -0.003496 -0.001185 -0.001858 -0.002912 -0.003783 0.004529 -0.004692 -0.003890 0.003690 0.002806 0.004843 -0.004306 0.003060 0.003554 -0.002235 -0.003031 -0.002699 -0.004309 -0.001895 0.004457 0.000779 0.003425 0.004012 0.002671 -0.003910 0.002033 0.002082 0.002373 0.004153 -0.000911 0.001415 -0.004854 0.002449 0.004688 0.003935 -0.002088 0.002518 -0.000554 -0.001887 0.004841 0.002256 -0.003688 0.002175 0.003713 -0.000785 -0.003618 -0.001465 0.003355 -0.004727 -0.000323 -0.003100 0.003693 -0.004178 0.003142 -0.000046 0.002547 -0.002107 0.000210 -0.004397 -0.000700 0.000781 -0.001033 0.000621 0.003659 -0.003285
HourAhead -0.003019 0.001209 0.003135 0.002469 -0.000138 -0.000163 0.002126 -0.002168 -0.001767 0.000831 -0.002417 0.000410 -0.002825 0.001008 0.004488 0.003436 0.001901 0.000449 0.000155 -0.003202 0.000264 0.003387 -0.004492 0.000843 0.001176 -0.001675 -0.003993 0.002547 -0.003353 0.004441 0.003717 0.002062 0.004630 0.002740 -0.002487 0.000319 -0.002424 -0.001031 -0.004744 0.000386 -0.004706 0.001174 -0.003404 -0.002614 -0.000432 -0.002211 0.002437 -0.002564 0.004894 0.002021 -0.002840 0.002421 -0.001946 0.004035 0.004350 -0.004491 0.002474 0.004347 0.004199 -0.003392 -0.001515 -0.000837 -0.000810 0.004100 0.001096 0.000707 0.000018 0.002794 -0.003565 -0.000775 0.001846 -0.000801 0.004622 -0.000340 -0.002087 0.000329 0.002350 -0.004337 -0.000466 -0.002599 0.001675 0.000646 0.004822 0.000889 -0.003667 -0.003664 0.003603 0.000768 0.003123 0.001428 -0.000899 0.000870 -0.002723 0.001035 -0.001998 -0.002816 -0.000846 -0.000518 -0.002043 0.003893
detected -0.004857 -0.002959 -0.004388 -0.004040 -0.003893 0.004683 -0.000676 0.003925 -0.004015 0.004453 -0.003357 0.001342 -0.004990 -0.004905 0.002324 -0.000030 0.003588 0.001950 0.001048 0.002008 0.001599 0.000828 -0.003200 -0.003079 -0.003316 -0.000016 0.001780 0.001581 -0.000386 -0.002468 -0.000420 -0.002734 0.000924 0.003593 0.000862 0.004078 0.002818 -0.000358 0.004148 0.004634 0.003696 -0.002952 -0.004469 -0.004066 0.000050 0.004045 0.001868 0.002504 -0.001713 0.004569 0.000115 0.002204 -0.004004 -0.004397 0.002116 0.003035 0.002102 0.002491 -0.003577 0.001388 0.000495 0.004998 0.001606 0.004650 -0.001542 -0.002647 0.004485 0.004146 0.000585 0.003594 -0.004945 0.004264 0.001940 -0.000608 0.002704 -0.001824 -0.003927 -0.003161 -0.001127 0.004217 -0.004059 0.000742 -0.000595 -0.000261 -0.000148 0.003029 0.003869 -0.001388 0.003063 -0.003609 -0.001162 0.000484 -0.002261 0.004486 0.001929 0.004217 -0.001439 -0.004764 -0.000099 -0.000346
Date 0.004278 -0.000065 0.002732 0.001536 -0.001617 0.002278 0.004555 -0.003592 0.001384 0.004545 -0.003392 0.003743 0.004246 -0.004603 0.000476 -0.003653 -0.003163 0.001233 -0.001228 -0.000678 -0.003331 -0.004391 0.004123 0.004593 0.000308 -0.001970 -0.004295 0.001489 -0.004084 0.001979 0.001501 -0.000971 0.004052 -0.004707 -0.004752 -0.002300 0.000606 -0.003437 -0.001932 -0.003358 0.001134 -0.002917 0.003781 0.003385 0.004657 0.000933 -0.001241 0.002520 0.002969 -0.000965 -0.000965 0.000446 0.003406 -0.002975 -0.002383 -0.002611 -0.004023 -0.002260 -0.003034 0.003431 0.003232 0.003638 -0.001515 0.001366 0.004401 0.000829 -0.002226 0.001238 0.003897 0.000905 -0.001876 0.004807 -0.003677 -0.000402 -0.004480 -0.002080 -0.000081 0.003288 0.003774 -0.004576 0.000367 -0.003889 -0.004339 0.001947 0.004878 0.000468 0.001517 -0.003278 0.000030 0.002057 0.000828 -0.004375 0.001707 0.001802 -0.004847 -0.002174 0.003869 0.004659 0.001854 -0.002300
12/26/01 0.003531 -0.002982 -0.004810 0.003380 0.001830 -0.000308 -0.001591 -0.004425 -0.004791 -0.001328 -0.002417 -0.004462 0.002352 -0.002014 0.004277 0.004590 0.004601 -0.000598 0.000106 0.001937 -0.003793 -0.004258 0.000036 0.003164 -0.002667 0.004784 0.003647 0.004670 0.002913 0.005002 -0.000965 -0.000613 -0.003311 -0.004845 0.004504 0.001069 0.001659 -0.002955 -0.000659 0.000152 -0.000455 -0.001383 0.003862 0.000865 -0.000687 0.000966 0.002754 0.004623 0.003249 0.001164 0.004687 -0.001735 -0.001205 -0.000223 -0.002478 -0.004558 -0.004072 -0.003689 0.004234 0.001431 -0.003483 -0.003551 -0.002740 -0.002761 0.002763 0.000127 -0.001974 -0.002418 -0.002177 -0.002669 0.003580 -0.000321 -0.000103 0.000946 0.000591 0.003038 -0.001527 -0.002971 0.000792 0.003560 0.000133 -0.000942 -0.003039 -0.004490 -0.002000 0.000667 -0.000317 -0.000891 0.002741 0.003423 0.001437 -0.002736 -0.004676 -0.002299 0.001714 -0.000878 0.004665 -0.002159 0.001126 0.004021
O -0.002829 -0.003329 0.004157 0.001628 0.002910 -0.003681 0.003508 0.002470 0.002115 0.003693 0.003258 0.003590 0.002403 -0.004724 0.000974 -0.003299 -0.002521 -0.001557 -0.001405 -0.003383 -0.003540 -0.002837 0.002934 0.003258 -0.000856 0.003281 0.001837 -0.004773 0.003261 0.002203 0.002680 0.000468 -0.001200 -0.004042 -0.002613 -0.004748 -0.000173 -0.001083 0.004482 -0.001053 -0.004837 -0.001341 -0.002421 -0.003115 -0.003594 -0.000553 -0.004394 0.004418 -0.001803 0.004469 0.004172 -0.000619 -0.002464 -0.000149 -0.003461 0.003825 0.003697 -0.000010 0.000173 0.004017 0.002497 0.000446 0.003667 0.001059 -0.004363 -0.001802 -0.002463 -0.004584 0.000711 -0.004118 0.004874 -0.004588 0.002746 0.001598 0.002159 0.002095 -0.001958 0.000352 0.003785 -0.003448 -0.002667 0.003592 0.003909 0.003615 -0.004796 -0.001738 -0.001004 -0.004430 -0.001745 -0.002104 -0.001757 -0.002456 0.002583 -0.000219 -0.004972 -0.002990 0.001460 0.000672 0.003012 0.003799
ancillary 0.004977 0.003802 -0.000125 0.003785 0.000750 -0.002787 0.004675 0.001771 0.004186 0.001970 -0.003054 0.003614 -0.000441 0.001526 0.001044 0.001862 -0.004865 -0.002068 0.000092 -0.003610 -0.004272 0.003625 0.004607 0.000168 -0.001401 0.004078 0.000627 0.003220 -0.004363 -0.003711 0.000144 -0.002497 0.004253 -0.000485 0.004351 -0.001803 0.000045 -0.003326 0.004464 0.003671 -0.003585 0.001185 0.004900 0.003672 -0.003393 -0.004304 -0.002442 -0.003004 0.004393 0.003125 -0.001140 -0.004002 -0.000352 0.002116 0.002249 0.000676 0.000306 -0.001098 -0.004291 0.003977 0.004751 -0.002035 -0.001550 0.002870 -0.003285 -0.003013 0.004720 -0.003942 0.004498 0.000271 -0.004407 0.002960 -0.003599 -0.003234 0.003996 -0.003393 -0.004717 -0.000509 0.002979 -0.000563 0.001122 -0.002990 -0.004093 -0.004183 -0.002187 -0.000851 -0.000617 0.000327 -0.003669 -0.002682 -0.002111 0.002291 -0.003088 -0.002364 0.003193 0.000484 0.001933 0.004574 0.001897 0.003169
schedules 0.002209 -0.004062 0.004027 -0.001002 0.004350 0.004734 -0.002231 -0.000070 -0.004383 -0.000260 0.001358 0.002881 0.003468 0.004626 -0.001285 -0.003992 0.002073 0.004272 -0.004766 -0.003314 -0.001121 0.002122 0.000110 0.001526 -0.003394 0.001813 0.002598 -0.001942 0.004742 -0.003264 0.004637 -0.003961 0.000625 -0.003364 -0.004556 -0.002767 -0.002838 -0.004242 0.000278 -0.003496 0.002031 0.004040 -0.003131 -0.004223 -0.000645 -0.002360 0.001548 0.002432 0.004479 -0.000374 0.003089 0.001202 0.002640 -0.004314 0.001935 -0.000594 0.003144 0.003038 0.002846 -0.003403 0.002156 -0.000614 -0.003712 -0.002485 -0.004375 0.001221 0.004607 -0.004106 -0.004102 0.001472 -0.004303 -0.004446 0.004101 -0.004804 -0.003369 -0.002554 0.003759 -0.003185 0.004866 0.003501 -0.003810 0.001420 0.001565 -0.000510 0.003533 -0.000467 0.000627 -0.002670 0.003227 -0.001716 0.000925 0.004097 -0.002230 0.004196 -0.002649 -0.004469 0.000536 0.004399 0.003013 0.002203
hour 0.004725 0.000294 -0.001249 -0.000007 0.002216 -0.000079 -0.004033 -0.002925 0.003784 0.004015 0.004471 -0.002838 0.000990 0.003735 0.004736 0.003090 0.000788 0.004860 0.002555 -0.001871 -0.002031 -0.000950 0.000541 0.002568 -0.004761 0.000864 -0.001168 -0.000093 0.000088 0.001991 0.003013 -0.004188 -0.004619 0.003862 -0.004804 0.001202 -0.002835 -0.003898 -0.003631 -0.001918 -0.001967 -0.000441 -0.001450 -0.000734 -0.004139 0.000092 -0.003808 0.002564 -0.002941 -0.002791 -0.004043 -0.000896 0.001768 0.003297 0.004366 -0.002025 -0.000366 0.001249 -0.000080 -0.003434 -0.004499 -0.000824 -0.003650 -0.002597 0.004624 0.004929 0.000007 -0.004918 -0.004276 0.004024 0.004708 0.004727 -0.004902 0.002160 0.000883 -0.004898 0.003350 0.003986 0.004589 -0.002937 0.003853 -0.002983 0.003436 0.001801 0.003980 0.004982 -0.002029 -0.000687 0.004220 -0.004001 0.003794 0.003239 -0.004867 -0.001566 -0.003729 -0.003560 0.001355 0.004581 -0.002036 0.002758
-- 0.003599 -0.001623 -0.000338 -0.004052 -0.003187 0.000003 0.004645 0.002564 -0.003367 -0.001726 0.004502 0.001392 -0.001668 0.004595 0.000273 -0.002909 0.003328 -0.003700 0.003865 0.001758 -0.003093 0.003598 0.001459 -0.001424 -0.004665 0.001826 -0.000222 -0.001500 -0.002267 -0.000976 -0.004502 -0.000083 0.001093 0.000346 -0.004885 0.000779 0.004820 0.000823 0.002026 -0.004649 -0.002742 -0.000703 -0.002239 -0.001446 -0.003782 0.003492 -0.000271 -0.002089 -0.004830 0.003712 0.000496 0.001034 0.001741 0.001006 -0.004775 0.001083 0.004263 -0.001236 0.003858 -0.004077 0.004111 -0.004458 0.000731 -0.003352 -0.001089 0.003802 0.002087 0.000939 0.002316 -0.000228 0.002783 0.004664 0.001599 -0.000299 -0.000784 0.003704 0.001433 -0.001039 -0.004765 -0.002356 0.002448 -0.004610 0.004204 0.001741 -0.000548 -0.001648 -0.002129 -0.000027 0.001491 -0.003788 0.000995 -0.000200 -0.003804 0.002984 0.000072 -0.002969 0.001377 0.001063 -0.000575 0.004718
variances 0.003299 0.004560 -0.001018 -0.001860 0.003868 0.002968 0.001151 -0.003949 -0.003074 0.002595 0.000621 -0.003303 -0.000469 0.003367 0.003937 -0.002143 -0.000407 0.004314 0.004658 0.000836 0.001491 0.004793 -0.000305 0.003506 -0.000430 -0.004424 -0.000009 0.003934 -0.000690 0.002014 -0.001502 -0.001008 0.003394 0.002675 -0.001546 -0.004741 0.003724 -0.000005 0.001085 0.003718 0.000710 -0.002544 -0.003414 -0.000168 0.000700 0.002484 -0.003397 0.004666 -0.000570 0.002019 -0.002857 0.000205 0.001283 -0.003993 0.000809 0.003698 0.001078 -0.000134 0.002757 0.002972 -0.003900 -0.003440 0.001968 0.004307 0.001301 0.000628 -0.000176 -0.004318 -0.003277 0.002122 0.004066 0.004649 0.002026 0.000036 0.001702 -0.000490 0.000003 -0.004249 0.003751 0.004550 0.002493 -0.003540 0.000829 0.002388 -0.001948 0.001542 0.002537 -0.001758 0.004352 -0.001448 0.002843 -0.000092 -0.002559 0.002252 -0.001584 0.002344 0.002889 -0.001909 0.001269 0.004967
\Portland\WestDesk\California -0.003441 0.003524 -0.001982 0.003043 0.002673 0.000306 0.000407 0.001787 -0.001004 0.000024 0.004199 -0.002780 -0.003803 -0.000068 -0.001075 0.002071 0.003246 -0.004743 -0.004846 0.004558 -0.003662 -0.001329 0.000715 0.003497 -0.002213 -0.000591 -0.000184 -0.003670 -0.002309 -0.002241 0.002573 -0.004258 -0.004556 0.004586 0.002305 0.003555 0.001669 -0.003820 -0.002235 0.002784 -0.002836 0.000726 0.004837 -0.003318 0.001732 0.000857 -0.002351 0.003601 -0.000181 0.001185 -0.002458 -0.000439 -0.002409 0.004187 0.004237 0.001537 -0.001255 -0.004486 -0.003121 0.002635 -0.001226 0.001648 0.001851 0.002942 -0.000769 0.000039 0.002824 -0.000750 0.002075 0.004464 0.002380 -0.000799 0.004963 -0.004777 -0.004417 0.004576 -0.004475 0.000338 0.003876 0.001351 0.000518 -0.004322 0.002372 0.003809 -0.000602 0.003181 0.001454 0.004001 -0.003347 0.003287 0.004767 -0.002603 0.000095 0.000412 0.004526 -0.000977 0.004861 -0.004522 -0.002931 -0.003051
MESSAGES -0.002158 -0.004567 0.001422 0.004153 0.000763 -0.001389 0.001870 -0.002663 -0.004557 0.000782 0.003439 0.004297 0.003052 -0.004824 0.004972 0.001407 -0.002212 0.003211 0.002514 0.002260 -0.004454 0.004905 0.003390 -0.003232 0.003299 0.004495 0.004676 -0.003879 0.003956 -0.004369 -0.000943 0.002219 -0.003818 -0.003780 -0.003535 -0.001909 -0.001085 0.003627 -0.002500 0.003044 -0.003697 -0.000793 0.003385 -0.002709 0.004150 -0.004522 -0.003894 -0.004952 0.004697 0.003011 0.002234 0.000272 0.000045 -0.004315 0.002261 0.004918 -0.000409 -0.004301 -0.000320 0.004487 0.000973 -0.002645 0.004753 -0.000792 0.002662 0.002636 -0.000476 0.001948 0.004604 -0.002228 0.000527 -0.001739 -0.001120 -0.001078 -0.004203 0.001126 0.000157 -0.001537 0.004524 -0.003991 0.000190 -0.004160 -0.003036 0.003389 0.001206 -0.002885 -0.000980 -0.001222 0.000712 0.004456 -0.000488 0.000078 -0.002368 0.002726 -0.003405 0.002614 -0.004548 -0.003690 -0.004359 -0.003863
