5 100
SS -0.003068 0.002160 0.003400 -0.004132 0.004645 0.001316 -0.002667 0.004079 -0.001551 -0.004819 -0.002154 0.000244 0.003279 0.001061 0.002951 -0.001118 0.002128 0.003330 0.003588 0.002179 -0.001581 0.000453 -0.004043 -0.000769 0.002240 0.002174 0.004217 -0.002977 -0.001992 -0.000542 0.000918 0.002269 -0.001044 0.004076 -0.003610 -0.001075 -0.001019 0.000958 -0.002121 -0.002660 0.003039 -0.002082 -0.001459 0.003047 0.002020 0.003729 -0.003347 0.002309 0.001929 -0.002487 -0.003336 -0.003095 -0.002562 -0.001858 -0.004635 0.000599 0.003784 0.003108 -0.000208 0.003248 0.001616 -0.003904 -0.003378 -0.004800 0.000521 0.003949 -0.003721 0.002251 -0.004727 0.003194 0.001556 -0.003482 -0.000825 -0.004364 -0.002782 -0.002550 -0.000135 -0.002433 -0.004620 0.003732 -0.003398 -0.002070 -0.000946 0.000290 0.004615 0.003803 0.002564 0.004485 -0.001784 -0.000391 0.001468 -0.003988 0.002816 -0.001811 -0.000623 -0.000237 0.000549 -0.003137 -0.003201 0.002135
Bday 0.001549 0.002353 -0.003419 0.003434 0.000228 0.003249 0.001800 0.000338 -0.003630 0.002148 -0.001968 0.003495 -0.000914 -0.004595 0.003204 0.000683 -0.001913 -0.001690 0.000452 -0.003248 -0.003855 -0.001363 -0.003462 -0.001492 -0.004259 -0.002225 -0.004174 0.000531 -0.001165 0.001308 -0.000672 0.000309 0.001163 -0.000936 0.002405 -0.002285 -0.003758 -0.000378 0.002578 -0.000708 0.001978 -0.002878 -0.000581 0.003300 -0.002895 0.002439 0.002666 -0.003397 -0.002662 -0.003735 0.000723 -0.003476 -0.002855 -0.001304 0.001836 -0.004368 0.001355 -0.002258 -0.000685 -0.004929 -0.001782 0.002548 0.003236 -0.003079 -0.004904 0.004282 -0.000072 0.001405 0.003743 0.003207 0.000451 -0.002558 -0.004633 0.000372 -0.000979 0.001144 -0.000091 0.001210 -0.001601 0.003590 0.001208 0.004086 0.004013 0.004330 0.003243 -0.004772 0.003285 -0.001106 0.002013 -0.003280 0.002539 -0.002658 0.000690 -0.004852 -0.003029 0.002816 -0.002132 0.001396 -0.001604 0.003299
# 0.003031 0.002409 0.003782 0.003498 -0.003198 0.003778 -0.000552 -0.003623 0.000018 -0.001218 0.000820 -0.004936 -0.000890 0.000210 0.001287 -0.003539 0.003620 0.001168 -0.002791 -0.001213 0.002833 -0.003779 -0.002122 0.001482 0.002255 0.000291 0.000627 -0.000570 0.000643 0.000382 0.000396 -0.004679 -0.000504 0.002787 -0.003935 -0.002704 0.000711 0.003209 -0.001351 -0.003006 0.002105 -0.002656 -0.004277 0.002996 0.002483 0.003820 0.003847 0.003714 -0.003277 0.000559 0.001667 -0.001836 -0.001748 -0.003773 0.001009 -0.000336 0.002463 0.004493 -0.002199 0.003419 0.000449 0.001466 0.002241 -0.003790 -0.001081 0.000559 0.002868 -0.002047 -0.003441 0.004553 0.003093 0.003782 -0.004038 0.001803 -0.004930 -0.000135 -0.001106 0.001342 0.000477 -0.004423 0.001726 0.004099 0.004529 -0.004107 -0.001773 0.004496 -0.000722 -0.004912 0.003350 0.002183 -0.004248 -0.000976 0.001909 0.000722 -0.000823 -0.000945 0.002215 0.002329 0.001250 0.000778
10/02/76 -0.002772 0.001425 -0.001786 0.003582 0.003260 -0.003102 -0.004075 0.004434 0.003821 0.003698 -0.003266 -0.003783 0.004987 0.000696 -0.004985 -0.002509 0.003775 -0.004916 -0.004678 0.000659 -0.000098 -0.000440 -0.001432 0.001338 -0.004466 -0.002239 -0.004729 0.000733 0.003803 -0.003045 -0.002361 -0.004770 0.000290 -0.004789 -0.001113 0.001512 0.000806 -0.002691 -0.002703 -0.004752 -0.000312 0.002466 0.001519 0.003589 -0.004371 0.003954 0.004896 0.001564 -0.001494 -0.002556 0.003611 -0.000428 0.002965 0.003295 -0.003721 -0.001540 0.003927 0.002890 0.002939 -0.000706 -0.002903 0.000268 -0.000157 0.002059 0.002396 0.003080 0.002623 0.002476 -0.003313 -0.002191 -0.002991 -0.000430 -0.001836 -0.000792 0.004865 -0.001718 -0.002199 -0.004000 -0.003581 -0.003105 -0.004215 0.003020 -0.004968 0.002868 0.004517 -0.002641 0.003700 0.001626 -0.001425 -0.001053 -0.004330 -0.004622 -0.001406 0.001881 0.000443 0.001994 -0.004957 -0.003302 -0.002884 -0.001939
345-64-6203 -0.001185 0.002207 0.001347 0.000797 -0.002345 -0.004144 -0.004454 0.002545 0.001292 0.002151 -0.002172 -0.002542 -0.001121 0.000165 0.004613 -0.003231 -0.003592 -0.002522 0.003640 0.001153 -0.001956 -0.001081 -0.001499 0.003114 0.004232 0.001697 0.001089 0.002137 -0.001301 0.004096 0.002134 -0.000324 -0.004894 0.003901 0.002144 -0.000545 -0.000439 -0.003566 0.001038 -0.000490 -0.002931 -0.001576 0.002509 -0.002675 0.000748 0.002704 -0.004192 0.000487 0.002953 0.000338 0.002952 0.003061 -0.004810 -0.000949 -0.004849 0.003559 0.001491 0.004622 -0.003520 0.003891 -0.001366 0.001484 -0.003641 -0.000490 0.002159 0.000051 0.002665 0.001018 0.004241 -0.004759 0.003147 -0.000808 -0.002764 -0.002627 0.004323 -0.000639 -0.003934 0.000714 -0.001676 0.001883 -0.004201 0.004332 0.003716 0.000773 0.003594 0.004779 0.003351 0.000933 0.000370 0.001349 -0.001801 -0.003971 -0.003660 0.001513 0.000443 0.004371 0.000902 0.004306 -0.001491 0.004097
