38 100
Synchronizing -0.004881 -0.004381 -0.000248 0.004075 -0.000598 -0.003313 0.002639 0.004340 -0.001217 0.000047 -0.004412 0.002873 -0.003535 -0.002033 -0.001979 0.004993 0.000019 0.003508 0.000365 0.001132 -0.002893 -0.002812 -0.004500 -0.003458 0.003843 0.004369 -0.004745 -0.003486 -0.002844 0.002772 0.000981 0.004867 -0.001620 0.003730 -0.001835 -0.004761 -0.000711 0.004642 0.001417 -0.001953 0.000910 -0.002934 0.004895 -0.000390 0.002801 0.004941 -0.003397 0.000328 0.002435 -0.003055 0.003808 -0.004071 -0.003624 0.000521 0.002767 -0.001048 0.003838 -0.000526 0.001279 -0.002878 -0.004128 -0.002129 0.002815 -0.003731 0.001686 0.001124 0.000855 0.000188 0.004270 -0.003550 -0.003508 -0.001902 0.000072 0.004650 0.001026 -0.001542 0.000677 -0.001362 -0.000834 -0.003797 -0.000248 0.000907 0.004192 0.002090 -0.004803 0.001170 0.002881 -0.003574 -0.000822 0.002790 0.001889 0.004467 0.002888 -0.000180 -0.004052 0.000168 -0.004519 0.003100 -0.002148 -0.004430
Folder 0.003598 0.000824 0.001332 -0.002898 0.003267 -0.003683 -0.002307 0.000617 0.000935 -0.004210 0.000202 -0.001234 -0.002854 0.004902 0.004406 -0.004515 0.004690 0.003964 0.004739 0.001999 0.000304 0.002795 0.002435 -0.004001 -0.003644 -0.000724 -0.003827 -0.003705 0.004686 0.003715 -0.000714 0.003649 -0.003664 -0.001254 -0.003931 -0.002199 -0.001254 0.003334 -0.002301 -0.001712 -0.001410 -0.003379 0.000096 0.004045 0.002959 0.002106 0.003113 0.002383 0.001457 0.004104 0.003494 -0.001674 0.002305 -0.001615 0.002491 -0.004339 -0.002051 0.004948 0.001269 -0.003823 0.000630 -0.001190 0.001493 -0.004210 -0.002047 0.004358 0.001253 -0.001385 0.000466 0.000429 -0.001161 0.000208 -0.004960 -0.001809 -0.004904 0.001496 0.001869 0.003133 -0.002820 0.003787 -0.003847 -0.003495 0.004469 -0.001708 -0.001720 0.000590 0.003882 0.000280 0.003290 -0.003326 -0.004506 0.000232 0.004167 -0.000708 0.003451 -0.003851 -0.002406 0.004395 0.000466 0.004296
8:32:40 -0.001020 -0.002494 0.002041 0.001503 0.004221 0.003307 0.001744 0.002395 -0.000283 0.004612 -0.000255 0.003982 -0.001109 -0.001131 -0.000536 -0.003258 -0.003002 -0.000124 0.004151 -0.003281 -0.000817 -0.001179 0.000167 -0.003966 0.002015 0.001119 0.002618 0.002900 0.003732 -0.003938 0.000239 -0.001844 -0.003285 0.002674 -0.003312 -0.000959 -0.000690 -0.002397 0.001100 -0.002891 0.003064 0.002301 -0.002435 0.002868 0.001892 0.000245 -0.003610 0.004810 0.002861 0.003707 0.002176 0.000186 0.000472 0.004119 -0.000121 0.001528 0.004040 0.001597 -0.004678 0.000044 -0.000663 -0.003502 -0.001631 0.003334 -0.000478 -0.001989 -0.000987 0.001961 -0.001984 0.002695 -0.004648 0.000151 -0.001784 0.002365 0.002512 -0.003067 -0.000450 0.003163 0.001357 -0.003744 0.000423 0.001509 -0.003267 -0.003277 0.000130 -0.003320 -0.003272 -0.003883 0.003477 -0.004110 0.000109 0.001611 -0.000451 0.003824 -0.002737 0.001864 -0.000128 -0.003078 0.002191 -0.001389
8:32:39 -0.004080 0.004538 0.000439 0.001064 0.002225 -0.004973 -0.004949 0.000129 -0.001732 0.004783 0.001923 0.001914 -0.000411 0.001542 -0.002378 0.003388 0.001107 -0.002582 0.003678 0.002041 -0.003818 -0.000664 -0.004535 -0.004451 0.003559 -0.003497 0.000501 -0.000215 0.001336 -0.003986 -0.000721 -0.000160 -0.004006 -0.002660 -0.003927 0.002326 -0.004333 -0.002115 -0.004479 0.000750 -0.001138 0.001464 -0.001824 -0.001120 -0.002602 -0.000118 -0.000081 0.003419 0.001250 0.003926 0.001640 -0.003789 -0.004878 -0.001427 0.001931 0.000388 -0.001339 -0.000154 0.002126 -0.001653 0.002936 -0.000513 -0.004954 0.000005 -0.003988 0.002919 -0.003697 -0.004237 -0.003625 0.000892 0.001359 -0.001237 -0.004695 -0.000108 0.004713 0.000265 0.004884 -0.001240 -0.000590 -0.000352 0.000374 0.000289 -0.002374 -0.002024 -0.001377 -0.003562 0.004109 -0.004702 -0.003966 -0.004509 -0.000173 0.004590 -0.002684 -0.001330 -0.000171 -0.003365 -0.003829 -0.001765 0.001996 -0.003891
8:32:35 0.002289 0.003647 -0.002115 -0.002656 -0.002604 -0.000084 0.004538 0.003901 -0.004683 -0.001376 -0.002412 -0.003771 -0.001899 0.003106 -0.004192 0.002858 0.003821 0.002918 0.003096 -0.004905 -0.003929 -0.002876 0.003202 0.003539 -0.003216 0.002343 -0.003124 0.004867 0.002602 0.001359 0.002833 -0.002040 0.003054 -0.001183 -0.002943 0.004819 -0.001035 0.001624 0.000918 -0.002266 0.000783 -0.000564 0.003936 0.004330 -0.000403 -0.001313 0.002199 -0.000102 -0.004374 -0.002932 0.000976 -0.001453 0.003141 -0.003283 -0.000493 -0.004833 0.002932 -0.001722 -0.003562 0.001678 -0.000326 0.001600 -0.002417 -0.002959 -0.003162 0.000665 -0.000382 -0.002463 0.001014 0.000239 0.000939 0.003430 0.003490 -0.002023 -0.004057 -0.001367 -0.002114 0.000584 -0.002103 -0.004235 -0.001358 -0.000163 -0.001005 -0.003110 0.002118 0.000059 0.000354 -0.001403 -0.000409 -0.001690 -0.002952 0.000797 0.003501 0.002146 0.001475 0.001380 0.001941 0.002767 -0.000198 0.003639
) 0.004402 -0.001585 -0.001669 -0.002501 -0.000472 0.001351 -0.001594 -0.004225 -0.004876 -0.003576 0.004997 -0.003090 -0.003153 0.001205 -0.003948 -0.001654 0.004683 0.000646 -0.003154 0.002290 0.004520 -0.003169 0.002779 0.002064 -0.004992 -0.004202 0.000621 0.003813 -0.003061 -0.000219 -0.002214 0.000405 0.001339 0.002192 0.002673 -0.003445 0.001338 -0.003456 -0.003479 0.000863 0.001022 -0.002578 -0.002876 -0.003868 -0.003026 0.001712 -0.004486 0.002016 -0.002996 0.004134 -0.003272 0.000192 -0.002810 -0.004669 0.001922 0.000082 0.000719 -0.000914 0.004630 -0.003805 0.003808 0.003711 -0.001560 0.003128 -0.004107 0.003308 0.002965 0.002657 0.000264 0.004398 -0.003891 0.002977 -0.003376 0.001665 0.001045 0.001386 0.002967 0.000539 0.000343 0.001981 -0.004976 0.003801 0.003862 0.000512 -0.002300 -0.003776 -0.000890 0.004083 0.003960 0.004390 -0.000525 -0.000216 -0.004323 0.001666 0.000441 -0.004181 -0.000460 -0.001515 -0.000419 -0.003338
( 0.002105 -0.004014 -0.001151 -0.002201 -0.002628 0.004727 -0.002109 -0.000746 -0.003271 -0.002888 0.002058 0.004362 -0.002743 -0.002246 -0.003453 -0.000220 -0.002231 0.001092 0.001078 0.003979 0.003631 -0.000557 -0.002270 -0.000207 -0.001167 -0.003010 -0.003888 -0.004645 -0.004549 0.003786 0.004307 0.003155 0.001475 -0.003570 -0.004830 -0.002600 -0.002893 0.003167 0.000222 -0.002523 0.000414 -0.004233 -0.001190 0.004516 -0.002012 -0.002484 0.004315 0.004603 -0.002362 -0.002508 0.002792 -0.001306 0.001547 0.003125 0.005022 -0.002593 0.004212 0.003992 0.001977 -0.003853 -0.001259 0.002944 -0.001836 0.004716 -0.000922 0.002014 0.001879 -0.000354 0.003645 -0.002597 -0.003121 -0.003569 0.002403 -0.002602 0.001491 -0.004158 -0.003121 -0.003118 0.003595 0.004802 -0.001212 -0.002850 0.002914 0.002351 -0.002033 -0.004924 0.004229 -0.002363 -0.000698 0.003972 0.003688 0.002130 0.002066 0.001811 0.000109 0.001868 -0.001369 -0.003945 0.000478 0.003505
to -0.000454 0.004739 -0.002611 -0.004709 -0.004943 0.004805 0.003404 -0.004177 -0.000026 -0.000264 -0.004231 -0.000465 0.004193 -0.004771 0.003990 0.003594 0.001314 -0.002460 -0.000718 0.000772 -0.003869 -0.004090 0.003585 0.001189 -0.000984 -0.002581 -0.001491 0.003061 -0.000411 -0.002931 0.000712 0.003307 0.000202 -0.002479 -0.003878 0.002860 -0.003600 0.000674 0.004071 -0.002754 0.001319 -0.002561 -0.004020 -0.004155 -0.001540 -0.001564 -0.002495 -0.003148 -0.001511 -0.002371 0.001261 -0.004822 -0.002900 -0.004310 0.003823 -0.000028 -0.004316 0.001808 -0.000020 0.003031 -0.004106 -0.003112 0.004623 0.002780 -0.001949 -0.002383 -0.000578 -0.002968 0.003627 0.003894 -0.004439 -0.001331 -0.003689 0.003588 -0.000627 0.001456 0.002304 0.003428 -0.002624 0.001857 0.000969 -0.002699 -0.001024 -0.002261 -0.001229 0.003365 -0.000733 -0.003888 -0.001342 -0.004043 -0.004964 0.000539 0.001938 -0.000408 -0.001846 -0.000752 -0.003716 0.002223 -0.001194 0.000043
offline 0.002445 -0.001567 -0.002363 0.001485 0.004905 -0.001500 0.000734 -0.002828 -0.001223 -0.003100 -0.001155 -0.004771 -0.003520 -0.004879 0.003030 0.003540 -0.001951 0.003535 -0.001602 0.000248 0.001929 -0.002836 -0.002095 0.002932 -0.003695 0.003135 -0.000088 0.004621 -0.001861 0.002796 0.004712 0.002927 0.002290 -0.002896 0.000444 0.000363 -0.000312 0.003987 0.003327 0.002485 0.004010 -0.001621 0.004402 -0.004302 -0.003756 -0.002229 0.001196 -0.000217 0.002818 0.001547 -0.001941 -0.001045 -0.000152 -0.002173 0.001637 0.003433 0.000830 -0.001770 0.003311 -0.004716 -0.001227 0.001307 0.003645 0.001588 0.004959 -0.004762 -0.001436 -0.003084 -0.002385 0.003323 0.000892 -0.002654 0.001891 -0.002424 -0.003664 0.001313 -0.004748 0.001920 -0.000225 -0.004169 0.001725 -0.000953 -0.000791 -0.004783 -0.004723 0.001840 0.004616 -0.000095 0.003280 0.001720 0.000839 -0.000442 -0.002164 -0.000750 0.002472 0.004797 0.002243 -0.001473 -0.004105 0.003259
added -0.001929 0.002044 -0.004707 -0.000564 -0.000543 -0.004218 0.003502 -0.000947 -0.003223 0.002127 -0.003388 -0.002537 -0.000694 -0.004795 0.001976 -0.001695 0.000706 -0.004405 -0.004247 -0.001058 0.004720 0.003258 0.004256 -0.000719 -0.003821 -0.000427 -0.002161 0.002994 0.000953 -0.004381 0.002894 -0.001849 -0.000489 -0.004088 0.000726 -0.003681 0.004481 -0.000129 -0.002589 0.004177 0.003172 -0.004821 -0.000262 0.004318 0.004855 0.004872 0.002207 -0.003257 -0.002739 0.001320 0.004187 0.004011 -0.000829 0.004585 0.004230 -0.003797 0.002292 -0.004036 0.000727 0.004887 -0.002351 -0.004208 0.004077 -0.000559 0.004196 0.002946 0.003295 0.003245 -0.002827 -0.000334 -0.004084 0.000804 -0.000803 -0.002283 -0.003071 -0.004694 -0.001688 0.002716 -0.001154 0.000956 -0.003190 0.001859 0.001509 0.004902 -0.001891 -0.003777 0.004094 0.001967 -0.001532 0.000933 -0.004556 -0.004747 -0.000005 -0.004726 -0.004056 -0.003325 0.004618 -0.002125 0.004144 -0.003905
folder 0.001872 -0.002092 0.002827 0.004699 0.001509 0.000281 -0.003311 -0.004449 -0.004784 -0.002084 -0.002706 -0.002264 0.001569 -0.003796 -0.001308 -0.001305 0.001472 0.000894 -0.000248 0.002791 -0.003331 0.003987 -0.000662 -0.001362 0.004326 0.004827 -0.004703 -0.003628 -0.001502 0.004477 0.001626 -0.004964 0.001496 0.000324 -0.000514 -0.003782 -0.002009 0.003153 0.002866 -0.004388 0.000452 -0.002409 0.001338 -0.003951 -0.000860 0.004951 0.000836 -0.001185 -0.002786 -0.002493 0.004313 -0.003829 -0.001718 0.003763 0.001036 0.002487 -0.002236 0.003764 0.000117 -0.003268 -0.002231 -0.004316 -0.000042 0.000190 0.002267 0.003344 0.000366 0.000064 -0.003791 0.003830 -0.001537 -0.003114 0.002765 0.002482 0.002109 0.003458 0.003635 -0.002341 0.004168 0.003191 -0.002058 0.000417 0.003563 -0.004237 0.002802 -0.004392 -0.001227 -0.001915 -0.001309 -0.001039 0.003994 -0.002815 0.003375 -0.000883 -0.004172 0.004455 -0.002407 -0.002889 0.003413 0.002860
item -0.003214 0.005006 0.001880 -0.003514 0.004261 -0.000038 0.000630 -0.002993 -0.003377 0.003050 0.002200 -0.004319 -0.003341 -0.003770 0.000915 0.003182 -0.003478 0.001031 -0.004354 0.004490 0.001772 -0.000774 0.001778 -0.004981 -0.003347 -0.003764 -0.001647 -0.001915 0.005046 0.002299 -0.002965 0.002734 0.003446 0.004830 -0.003746 0.004876 -0.003220 0.003832 0.002215 0.004765 0.003972 -0.001954 0.000787 0.004028 -0.003604 -0.004765 0.002812 0.004055 -0.001997 -0.003834 -0.003127 -0.003164 0.000565 -0.002431 0.005043 0.004801 -0.004907 -0.002746 0.001059 0.002792 -0.002849 0.003594 -0.001499 -0.002828 -0.003207 0.003972 -0.002866 0.003771 -0.002052 0.005035 0.004723 -0.002697 -0.003056 -0.000805 0.004238 -0.002026 -0.000542 -0.004740 -0.002930 -0.004200 -0.002583 -0.002683 0.003021 -0.001279 -0.003731 0.003849 0.003699 0.002730 0.002544 0.002738 -0.001848 0.004548 0.004297 0.001364 0.000347 -0.002220 -0.001408 0.003925 -0.002758 -0.003753
s -0.003119 -0.000596 0.001549 -0.002229 0.001216 0.000756 0.000723 0.003912 0.003024 0.004646 -0.003718 -0.004450 0.000542 -0.001823 -0.000774 0.004215 0.003511 0.003616 -0.002956 0.004714 0.002728 -0.000421 0.004920 -0.003975 0.003144 0.003608 -0.003630 -0.003391 0.000777 0.003563 0.000087 -0.003657 0.003467 0.000243 0.002647 -0.005035 0.004328 0.003764 -0.000441 -0.003834 0.003380 -0.002972 0.004670 -0.002198 -0.003618 0.002966 -0.002766 0.004713 0.003283 -0.004758 -0.001229 0.000663 -0.000098 0.003242 0.000071 -0.000136 -0.002082 0.002709 0.001001 0.000698 0.002786 -0.002931 -0.002763 -0.000591 -0.000174 -0.000307 -0.000477 0.000346 0.002941 0.004251 -0.001031 0.002899 -0.000721 0.001082 0.003114 0.001906 0.004632 -0.004101 -0.003353 0.001841 -0.001925 0.004508 -0.004438 0.002917 0.003461 -0.002602 0.002657 0.003509 0.002648 0.004497 0.000665 0.002563 -0.003201 0.004291 -0.003452 -0.002994 0.003059 0.000583 0.000334 0.002481
Richard 0.002738 0.000486 0.000400 0.000520 -0.000376 -0.004637 0.004002 -0.001000 -0.000290 0.001337 -0.004434 0.004505 -0.004656 -0.003831 0.002092 -0.003114 0.002475 -0.002429 -0.002843 0.003359 -0.003575 0.000935 0.004254 0.002509 0.000441 0.002872 -0.004060 0.001785 -0.002916 0.002561 -0.001129 -0.004780 -0.003696 0.000487 0.002106 -0.001497 -0.002935 0.002843 -0.004192 -0.003028 -0.003124 0.002468 0.001597 -0.001731 -0.001385 -0.003410 0.003195 0.001770 -0.001660 -0.003808 0.003503 0.003990 -0.004455 -0.002280 0.003802 -0.003544 -0.001859 0.004229 0.000866 0.004046 -0.001965 -0.000523 -0.001122 0.000152 0.002910 -0.002253 -0.003917 0.003878 -0.001949 -0.000558 0.004268 0.004743 0.003469 -0.000630 -0.004682 0.002434 -0.003471 -0.001458 -0.001462 -0.004947 0.000396 0.002211 0.000763 -0.002674 -0.002501 0.004235 0.002344 -0.001476 -0.000560 -0.004666 0.000586 -0.002427 0.004213 -0.001458 -0.004048 -0.004992 -0.003026 0.000193 0.002005 -0.002188
'Inbox' 0.004339 0.004568 0.003935 0.001192 -0.004792 -0.003132 -0.000336 -0.000918 -0.001513 0.004177 -0.000858 0.001616 0.003060 0.001749 0.003602 0.000890 0.003648 -0.002893 0.004556 0.001989 0.002472 -0.003843 0.002829 -0.001719 0.000858 0.000552 0.002407 0.000509 0.004274 -0.001038 -0.004497 0.004279 0.002437 -0.004956 -0.004686 0.004174 0.004312 -0.000256 0.003267 0.004810 -0.003978 0.001243 0.003100 0.003177 0.003624 0.004602 -0.003977 0.003798 -0.001280 0.000762 -0.003303 -0.000489 0.001796 -0.003255 0.003398 -0.003271 -0.003317 -0.001605 -0.002169 -0.003889 0.002354 0.001421 -0.003155 -0.004999 0.003407 0.002808 0.003258 -0.001784 0.004628 0.002460 0.003007 0.003097 -0.002954 0.002588 0.002733 0.001568 -0.000573 -0.002155 0.004276 0.004483 0.000909 -0.001437 -0.004286 0.002357 0.003843 0.002855 0.000490 0.001226 0.003701 -0.003832 -0.001696 -0.004821 -0.001890 -0.000681 -0.000344 -0.001380 -0.001337 0.004533 0.004530 0.003767
'Outbox' 0.004389 -0.003186 -0.002558 -0.001869 -0.000729 0.003360 -0.003863 -0.002098 0.003151 0.000915 -0.004795 0.001548 -0.000236 0.000245 0.000814 0.002390 -0.003367 0.003758 0.002768 -0.001580 -0.000390 0.004354 0.003867 0.001462 -0.001437 0.000271 -0.001322 -0.002991 0.000226 -0.002349 0.001684 -0.001715 0.002537 0.002423 0.004432 -0.001862 -0.004987 -0.001901 -0.000698 0.000270 -0.001569 0.001997 0.002482 0.002751 0.004907 -0.004877 0.001209 0.002543 -0.001560 -0.002324 -0.004223 -0.002354 -0.000596 0.000744 -0.001208 -0.000363 -0.000188 0.000659 -0.002783 -0.000716 0.003528 0.004895 -0.001522 -0.002002 -0.001206 0.001446 0.000070 -0.003392 -0.002599 -0.003469 -0.003339 0.000374 -0.001619 -0.000724 0.003015 0.004726 0.004072 0.003756 0.001640 0.003632 0.004095 -0.002991 0.004757 -0.002971 0.001600 0.000851 0.000413 -0.005003 0.002775 0.004616 0.004223 -0.000830 -0.004515 -0.002093 -0.001512 -0.004967 0.002606 0.004518 -0.004406 -0.001756
Forms 0.002877 0.000700 0.001131 -0.001124 -0.001969 -0.000464 -0.003534 -0.001213 -0.002417 -0.000557 0.003849 -0.004765 0.002318 -0.000806 -0.004857 -0.002577 0.001776 0.000797 0.002979 0.004061 0.002565 0.002930 -0.003440 -0.002404 0.001830 -0.001219 -0.004386 -0.002956 0.002713 0.001630 0.004260 -0.002579 0.001829 -0.004386 0.003414 -0.000372 0.003653 -0.000347 -0.004114 -0.004155 -0.000812 -0.004533 0.003155 -0.002689 -0.002154 -0.001010 0.002026 -0.002976 -0.004696 -0.001660 0.001844 0.004777 -0.003697 -0.000969 0.003003 -0.002220 0.001675 -0.001548 -0.004810 -0.003953 -0.003391 0.003626 -0.000276 0.000417 -0.003083 0.003059 0.001743 -0.002411 -0.001300 -0.004524 -0.002477 0.001098 0.001615 0.002405 0.004577 -0.001977 -0.001862 0.003591 -0.004487 0.003522 -0.002217 0.003360 -0.002908 0.003161 0.001632 -0.002841 -0.001840 0.004603 0.003706 0.000497 -0.002724 0.003771 -0.002427 -0.001422 -0.002012 0.002923 0.001686 -0.003103 -0.000957 0.003478
B -0.003066 0.003447 0.002369 -0.001728 -0.001267 0.004713 0.003254 -0.004305 0.004770 0.001251 -0.003356 -0.000432 -0.000595 0.003103 -0.004238 0.003708 0.000997 0.000943 -0.002438 -0.001739 0.004539 -0.001559 0.000094 0.004922 -0.000843 0.001280 -0.000028 -0.003632 0.002389 0.003334 0.004907 0.000928 -0.000687 -0.003544 0.000947 -0.003046 -0.004360 -0.000721 0.002789 0.001389 -0.000145 -0.002949 0.000714 -0.000298 -0.002026 -0.000445 0.004631 -0.001478 0.003326 0.002328 0.004249 -0.001615 -0.002976 -0.001341 -0.002681 0.004853 -0.004168 0.003049 0.001038 0.000078 -0.001739 -0.003800 -0.004356 0.001818 0.002742 0.004795 -0.000394 0.002197 0.003169 0.000725 -0.004532 -0.000980 0.004299 0.002071 0.001699 -0.003062 0.001113 -0.004508 -0.000881 -0.004223 -0.003888 -0.004143 0.000042 0.001921 0.001757 -0.000956 -0.000898 0.003744 -0.003087 0.000246 0.004767 0.001886 -0.000103 0.003017 0.003412 -0.003220 -0.001758 -0.004612 -0.000759 -0.002948
'Sanders -0.003873 0.004010 -0.001421 0.000166 -0.003420 0.002522 0.000171 -0.002731 -0.003307 -0.000548 -0.002512 0.004352 -0.002242 0.001403 0.000674 -0.003133 -0.002411 -0.001545 -0.004603 0.000215 -0.000091 0.000159 -0.000016 -0.000510 0.004227 -0.002442 0.004580 -0.003213 0.004945 -0.004193 -0.003759 -0.002271 -0.001826 -0.002813 -0.003620 -0.000888 0.003025 -0.002242 0.002664 0.002220 -0.003025 -0.001753 0.004254 0.000790 0.003698 -0.004501 -0.001206 0.003063 -0.001455 0.001052 -0.000598 0.001446 -0.003040 0.002451 -0.003919 -0.001977 -0.002154 -0.002803 -0.003336 -0.002824 0.000682 -0.000105 0.000123 0.004073 -0.004508 -0.002673 0.000998 -0.001540 -0.003679 0.001824 0.001132 0.003801 0.002229 -0.002449 -0.000862 0.002579 -0.004031 0.002823 -0.001323 -0.004219 -0.000980 -0.003538 0.003997 0.002888 -0.002092 0.002844 0.003213 0.002306 0.002071 0.003676 -0.002289 -0.003075 -0.001949 0.004833 -0.000959 0.000754 0.001576 0.000790 0.004481 -0.001858
'Notes' 0.000179 0.001865 0.001250 -0.004661 -0.004286 -0.002953 0.002035 -0.004772 -0.002160 0.002359 0.004265 -0.004290 -0.001726 -0.004784 -0.004812 -0.000099 -0.002995 -0.002976 -0.002279 -0.004288 0.001837 -0.003308 0.002478 0.004307 0.004575 -0.000816 0.004726 0.001262 0.002236 -0.002896 -0.002548 -0.002605 0.004361 -0.004933 -0.001727 0.004779 -0.004300 0.004498 0.000804 0.000258 -0.003973 0.003674 -0.001077 0.002054 -0.003476 0.002922 0.002099 -0.000276 -0.004943 -0.002362 -0.003638 -0.001178 0.002483 0.000752 -0.001945 0.000849 0.001181 0.004891 -0.003539 -0.001687 -0.002987 0.000680 0.002468 0.004359 -0.002081 -0.002788 -0.000137 -0.004049 0.001922 0.004794 0.003906 0.000971 -0.004638 -0.000011 0.000803 -0.003582 -0.000179 0.002188 0.001062 -0.000162 0.000174 0.000058 -0.004918 0.000899 -0.001226 -0.004939 0.003757 -0.000282 0.001202 0.000264 -0.001823 0.004627 0.002058 -0.004227 0.003362 0.001047 -0.001215 -0.001839 -0.001958 -0.001755
'Sent 0.004435 -0.001990 -0.004121 0.004049 0.003090 -0.002911 -0.002487 0.004178 -0.001045 0.002340 0.004202 -0.000807 0.004097 0.002446 -0.003198 0.004778 0.003765 0.004487 0.002332 0.002056 0.000645 0.002088 0.001358 0.000892 0.001559 -0.000243 0.003493 -0.004811 0.000130 -0.003412 -0.002794 0.003211 -0.004403 -0.004588 -0.003226 -0.001281 -0.002425 0.004532 0.000021 0.000961 0.001900 -0.001548 0.001699 0.004275 -0.003766 0.002625 -0.000077 0.003204 -0.002847 0.003280 0.004218 0.004529 0.000682 -0.003181 0.000852 0.001300 0.004693 0.003496 0.004526 -0.001694 -0.004179 -0.001937 0.003542 -0.000947 -0.002621 0.000485 0.000828 0.001091 -0.003929 0.001988 0.001862 0.002856 -0.001524 0.000886 -0.001011 0.002072 0.004164 0.002173 0.004869 -0.000867 -0.005042 -0.000580 0.004527 -0.002674 -0.000928 -0.004298 -0.002162 -0.004963 0.002190 -0.002459 0.004351 0.001154 0.002827 -0.003397 0.000368 -0.004387 0.003574 0.002871 -0.002671 0.000185
' 0.004328 -0.001332 -0.003996 0.002297 0.001053 0.004993 0.000134 -0.000760 0.003675 0.000452 -0.002586 0.003864 -0.001097 0.000963 0.002990 0.002488 0.000365 0.000407 0.004106 -0.001707 0.004227 -0.002098 0.000843 0.002116 0.000676 -0.004285 -0.003402 -0.004972 0.003419 -0.000330 0.000558 0.000423 -0.002208 -0.001082 0.001606 0.004239 0.004343 0.000004 -0.001305 0.000180 0.002018 0.003366 -0.000619 0.001427 0.002058 -0.001827 0.001378 0.003701 0.001039 -0.001347 0.004729 -0.002303 -0.003737 0.000666 -0.003403 0.004737 0.002852 0.003512 -0.003857 0.001883 -0.004649 0.003354 -0.002235 0.004811 -0.002340 0.002303 -0.002481 0.004390 -0.001898 0.001881 -0.004730 -0.002421 0.000596 -0.001850 0.002144 -0.000360 -0.000335 -0.001928 -0.001612 0.001141 0.001646 0.003156 0.004645 -0.004516 0.001564 -0.004418 -0.001599 0.003979 0.002789 -0.004041 -0.002439 -0.002114 -0.004355 -0.004096 -0.004146 0.000649 -0.003090 -0.001973 0.000100 -0.002577
Views -0.003589 0.001226 0.004228 -0.002477 0.002508 -0.004649 0.001661 -0.003077 0.000142 0.002850 0.003355 -0.000922 -0.002117 -0.001401 0.004503 0.004742 0.004173 -0.000747 -0.003813 -0.000061 0.002766 -0.000414 0.004171 0.004787 0.002016 -0.001959 0.000215 0.000397 0.003935 -0.004326 -0.002093 0.000292 -0.001385 0.000702 -0.001071 -0.004410 -0.000219 -0.001846 -0.002767 -0.003722 0.001817 -0.002419 0.000234 0.000831 0.003059 -0.004041 -0.003393 0.000746 0.003807 -0.003946 -0.004668 -0.002094 0.003762 -0.002496 0.003454 0.000772 0.001220 0.003001 0.001980 0.004475 -0.002528 -0.004392 0.003527 0.002424 0.002503 -0.001940 0.000076 -0.003503 -0.003552 -0.002902 -0.004085 -0.003849 0.000584 0.003457 -0.003481 -0.003722 0.004351 0.004564 -0.001617 -0.000892 -0.002892 0.002325 -0.000031 0.001013 0.001104 -0.002609 0.000763 0.002875 -0.004106 0.000723 0.001664 -0.004937 0.005000 0.001000 0.004007 -0.001987 0.003477 0.002906 0.004178 0.001014
, -0.001443 0.004662 0.000114 -0.001305 0.004253 0.003357 0.003977 -0.000747 0.001990 -0.002104 -0.002658 -0.001104 0.002439 -0.004941 0.002995 -0.004692 -0.001692 0.003920 -0.001611 0.001871 -0.002221 0.003551 0.001686 -0.001288 0.000971 -0.001872 -0.001276 -0.002719 0.001697 0.004890 0.001800 0.004878 -0.000985 0.004804 0.002994 0.003125 0.004033 -0.001098 0.003309 -0.004109 0.003838 0.000321 0.001602 0.001892 0.004895 -0.003732 0.002695 -0.000736 -0.000932 -0.003886 -0.004670 -0.000040 0.002724 0.003286 -0.002728 -0.000877 -0.000335 0.002646 0.001485 -0.001593 -0.000718 -0.001495 -0.004448 -0.004056 -0.002275 -0.004416 -0.001992 -0.002403 -0.000447 -0.000445 -0.003579 0.000479 -0.001804 -0.000889 -0.003319 0.000549 -0.000808 -0.004790 -0.000022 0.002348 0.003395 -0.003698 -0.004090 -0.002198 -0.001206 -0.004700 0.002691 -0.004709 -0.002308 -0.002675 -0.003834 -0.002845 -0.000497 -0.004751 0.002510 -0.001074 0.003470 -0.001950 0.001379 -0.004582
Mailbox 0.001345 0.002807 0.001764 0.004045 -0.003795 -0.002372 0.004010 0.000858 -0.002622 -0.003713 0.004133 0.001421 -0.000981 0.002123 -0.001681 -0.003085 0.002436 0.000088 -0.004007 0.000421 -0.002584 -0.000372 -0.004071 0.004541 0.004538 0.001624 -0.001235 -0.001218 0.000685 0.003025 -0.000173 0.004233 -0.003841 0.003352 0.003753 -0.004006 0.002578 -0.000090 0.000123 -0.003451 0.004075 -0.004068 0.000308 -0.003072 0.001541 0.002994 0.000703 0.002120 0.000009 0.000239 0.003022 -0.000366 -0.004621 -0.003481 0.004171 0.004379 -0.001837 -0.004708 -0.001581 -0.002368 0.004356 0.003420 -0.004612 0.004635 0.000887 0.004476 -0.001034 -0.004483 0.002396 -0.000750 0.004695 0.000256 -0.004134 -0.003297 -0.002800 -0.001844 0.003076 0.002983 0.001083 -0.004953 -0.004273 -0.000323 -0.000854 -0.000645 0.002446 0.004292 0.001168 -0.001393 0.000761 0.003858 0.004795 -0.002717 0.000944 0.004073 0.002194 -0.000167 0.003708 0.001173 -0.004718 -0.002315
1 -0.004917 -0.004879 0.004714 -0.003492 0.002204 -0.004837 -0.000878 0.003457 0.003872 0.000238 -0.002982 -0.000940 0.002682 -0.002034 -0.002494 -0.002964 0.002886 -0.002097 0.004784 -0.002461 0.001969 -0.000419 0.001034 0.001764 0.001047 0.001330 0.002980 0.004493 0.001999 -0.002612 -0.004821 0.002988 -0.000406 0.001092 -0.002295 -0.003933 -0.004956 -0.002176 0.004511 -0.005016 -0.003398 -0.003810 0.003304 0.002997 -0.001566 -0.003421 -0.002922 0.000593 0.004429 0.003899 -0.004081 0.004285 -0.001725 0.004765 -0.004134 0.001023 -0.000524 0.004580 -0.003355 0.002131 0.002337 -0.004846 -0.003687 -0.000071 -0.003681 0.001417 0.001116 0.002368 -0.004429 0.000201 -0.000074 -0.004542 0.004481 -0.000254 -0.003383 -0.002947 0.003738 -0.003081 0.002755 -0.004650 -0.001959 -0.004294 0.000382 -0.003790 -0.002210 -0.004062 -0.001640 -0.000824 0.003653 0.001032 0.000686 0.000578 0.000770 -0.000364 -0.000920 -0.001223 -0.000565 -0.003285 0.003932 0.001906
Favorites 0.002801 -0.002194 -0.004242 -0.003779 -0.003250 0.004721 0.004384 -0.004290 0.002599 -0.004267 -0.001321 0.000779 -0.004251 -0.000893 0.004231 0.004221 0.003321 -0.003876 0.002021 0.003393 -0.004941 0.001071 -0.000240 0.000021 0.003929 -0.003062 -0.001411 0.002850 0.004561 0.003096 -0.003014 -0.000029 -0.001152 0.002776 0.001523 -0.001690 -0.004300 0.002413 0.002082 -0.004472 -0.004736 -0.004365 0.000160 -0.000288 0.003148 0.002921 -0.004734 -0.003690 -0.000583 0.004368 0.002817 -0.003103 -0.000028 -0.003093 0.000875 0.003005 0.003831 -0.001512 -0.000830 0.002886 -0.002441 0.002832 0.000054 0.002514 -0.000841 0.000117 0.004789 -0.000410 0.000432 -0.004735 0.003609 -0.002576 0.004704 0.000835 -0.003724 0.001748 0.000805 -0.001146 0.001178 0.000352 -0.001814 -0.001050 -0.003189 -0.001449 -0.001897 0.002401 -0.001269 0.000431 0.004496 -0.001591 -0.004197 -0.002188 -0.001782 0.004684 -0.002607 -0.002307 0.001811 0.002184 0.000822 0.004878
'Contacts' 0.003637 -0.003870 -0.000462 -0.000872 0.003779 0.003536 -0.000231 -0.004953 -0.002784 -0.004076 0.002744 -0.001959 -0.003948 0.004085 -0.000595 0.001193 0.003392 -0.004219 0.004351 -0.001319 0.002336 -0.000092 0.002314 0.001538 0.003056 0.004330 -0.003216 -0.004258 0.003353 -0.003774 -0.001761 -0.003093 0.001834 0.003550 -0.003126 0.000678 -0.004978 -0.003243 -0.001836 0.000097 -0.001089 0.000244 0.003043 0.002797 -0.002353 0.001194 -0.000891 -0.001783 -0.003075 -0.004690 0.001615 0.001795 0.004814 -0.005018 -0.000029 0.004830 0.002796 0.002182 0.004435 -0.001966 0.003387 0.001723 -0.004596 0.004603 0.001972 0.002396 0.000816 0.004044 0.002229 -0.000189 0.001018 -0.003771 0.000494 -0.003776 -0.003169 -0.001697 0.003456 0.002931 -0.002400 -0.003160 -0.004830 -0.000649 0.002951 -0.002671 -0.000267 -0.004551 0.001573 -0.004121 0.004020 0.000579 0.001360 0.002430 -0.000368 -0.003343 -0.001309 -0.003220 0.001146 0.001854 -0.003816 0.003500
'Drafts' -0.003622 -0.002613 -0.001956 -0.000070 0.000895 -0.001588 -0.003187 0.001167 0.003959 0.003835 -0.002146 -0.000605 0.001038 0.002077 0.000017 0.000140 -0.002568 0.002035 -0.001257 -0.002226 0.000475 0.001450 0.003153 -0.001079 -0.004439 0.003222 0.001894 0.000439 0.003736 0.001708 -0.003562 0.002397 -0.003519 0.003577 -0.004118 -0.004917 0.003693 0.004391 -0.004547 0.000014 -0.001097 -0.000484 -0.001666 -0.002905 0.003210 -0.003599 -0.004103 0.002537 0.004257 -0.005001 0.004636 0.004820 0.001709 0.001720 -0.001635 -0.003735 -0.001985 0.002165 0.001909 -0.004079 -0.002182 -0.000558 0.001864 0.002169 -0.000605 -0.001089 -0.000739 0.003146 0.004287 0.002127 0.000097 -0.004610 0.003019 0.003261 0.003092 -0.003970 -0.004539 -0.001184 0.001167 0.000351 -0.000195 0.003845 0.002662 -0.002049 -0.003112 -0.003648 0.001578 -0.000575 0.001492 -0.001198 -0.003936 -0.002349 0.002873 -0.001293 0.003044 -0.000703 0.000541 -0.000471 -0.004833 0.001601
Items' -0.002139 -0.003634 -0.002473 0.003924 -0.002466 0.004100 -0.003184 0.003297 -0.003448 0.004783 -0.003544 0.003793 -0.004709 0.001222 -0.003629 -0.004227 -0.000353 0.002661 0.003170 -0.003137 -0.000877 -0.001611 0.002268 -0.004559 -0.001840 -0.002197 0.000844 0.001616 -0.000559 -0.001896 0.000040 0.002178 -0.000150 0.000641 -0.001000 0.002155 0.001368 -0.001425 0.003729 -0.003251 -0.002286 -0.004326 0.001818 0.000275 -0.001536 -0.004623 0.003088 -0.002755 -0.002270 0.004657 0.002497 0.002087 -0.003069 0.000979 0.004602 0.000744 0.000886 -0.000232 -0.000528 -0.001782 -0.001684 0.002218 -0.001650 -0.002681 -0.001471 -0.000617 0.003899 0.001737 0.001243 0.002232 -0.000937 -0.002059 -0.000445 -0.001311 -0.001970 -0.000958 -0.001774 -0.004447 -0.001669 -0.002041 0.003423 -0.004769 -0.002898 0.004031 0.002326 -0.003793 -0.002384 -0.004337 0.004546 0.003165 0.003632 -0.004531 0.003739 -0.002218 -0.003126 0.000806 -0.004065 0.002319 0.001270 -0.002637
8:32:41 0.000129 0.002786 0.004722 0.000097 -0.003803 0.004854 0.001512 -0.003200 0.001728 -0.004794 0.002911 -0.005001 0.001222 0.004222 -0.003231 -0.003485 -0.001556 0.002658 -0.000057 0.000203 0.004388 0.003790 0.004756 -0.001150 -0.000185 0.000624 0.004777 0.004080 -0.003916 -0.003913 -0.001718 -0.003017 -0.004254 -0.001586 -0.002707 -0.003430 -0.002307 -0.002525 -0.000194 0.003492 -0.004278 -0.004884 -0.001931 0.001205 -0.000261 -0.004671 0.004875 -0.003825 0.004289 0.000479 0.003689 0.000246 -0.002970 0.002239 -0.004312 0.004360 -0.003996 0.000076 0.003473 -0.002255 -0.002539 -0.004849 -0.003184 0.004666 0.002145 0.001073 -0.000276 0.004928 0.000871 -0.000060 -0.004428 -0.003093 -0.000209 -0.001836 -0.002037 -0.003674 -0.004386 -0.001535 -0.000357 0.002682 0.003060 -0.002581 0.004444 -0.001686 -0.003677 -0.003022 0.000207 -0.004539 -0.003174 0.004724 -0.002843 0.000946 -0.000421 0.001236 -0.002709 0.003059 0.001860 0.002727 0.001506 -0.002566
10 0.001070 -0.000481 -0.002552 0.001090 0.002160 0.004772 0.002849 -0.000267 0.004130 -0.003601 0.002742 0.003054 -0.003188 0.003813 -0.001921 0.003969 0.001707 0.003330 -0.002618 0.001165 0.002491 -0.000704 0.000870 0.004727 -0.002027 -0.001144 0.001862 -0.003447 -0.001323 -0.003086 -0.003927 -0.004168 0.001953 0.003750 -0.003990 -0.000880 0.003402 -0.004375 -0.003699 -0.004230 -0.002831 -0.001773 0.004258 0.004230 0.004098 0.004910 0.004925 -0.001100 0.004982 -0.003922 0.000511 0.001440 0.003980 -0.002129 -0.001526 0.003017 0.002128 -0.004480 -0.004370 0.002146 0.001761 -0.000198 -0.004748 0.001248 0.000420 0.001501 -0.002470 -0.002908 -0.004375 -0.003775 0.003518 -0.003941 0.004587 -0.000418 0.004538 0.001929 -0.000195 -0.002231 -0.003979 -0.000184 -0.004729 -0.003186 0.000335 0.003276 -0.003955 0.001125 -0.003590 -0.003382 -0.000076 -0.002303 0.004168 0.001008 0.004350 0.003737 0.000455 0.003064 -0.000709 -0.004342 0.001042 0.003131
'Calendar' 0.000119 -0.000222 -0.004281 0.000315 -0.004993 0.004853 0.004123 0.004393 -0.004727 -0.002919 0.004558 0.003190 -0.002903 -0.002239 0.000286 0.000157 -0.003713 -0.000632 0.002786 0.004586 0.003023 -0.002877 0.002328 0.002350 0.000240 -0.003275 0.004013 -0.000482 -0.003134 0.003821 0.002897 -0.003691 -0.004073 0.000025 -0.000032 0.001426 0.000823 -0.002492 -0.002385 0.004035 -0.000594 -0.004123 0.003475 0.001405 0.004827 -0.003960 0.004940 -0.003741 -0.001803 -0.003840 0.004705 -0.002692 0.001521 -0.004055 0.004362 0.000616 -0.003464 -0.002802 0.004846 0.001599 0.002468 -0.003365 -0.002112 -0.004176 -0.002588 -0.003212 0.001012 0.000134 -0.004901 0.000390 0.001179 -0.000775 -0.000466 -0.003830 0.004638 0.000073 0.000515 -0.000076 0.004580 -0.000439 0.002726 0.000404 -0.003789 0.002627 0.004122 0.001607 0.001686 -0.004022 0.000792 0.004021 -0.004938 0.000073 0.003492 -0.004709 0.003854 0.004771 -0.002731 0.003449 0.004266 -0.001568
'Journal' -0.001356 0.001729 0.002632 0.002721 -0.003078 0.002522 -0.003364 -0.000922 -0.003807 -0.002498 0.003891 0.000231 -0.002265 -0.000738 -0.004436 0.003674 -0.001655 -0.000693 0.000958 -0.002636 -0.000610 -0.000141 -0.004919 -0.004087 0.004004 -0.001716 -0.003054 -0.000589 0.001100 0.001825 -0.004473 -0.002361 -0.002251 -0.001093 0.000954 0.000570 -0.003538 -0.004062 0.003770 -0.004179 0.004440 -0.004795 0.002042 0.000923 0.002942 0.003295 0.001946 -0.001784 0.001898 0.003770 -0.000108 0.002156 -0.001934 -0.003102 -0.004557 -0.003601 0.000741 -0.003984 0.004191 -0.003654 -0.004219 -0.003399 0.003904 0.001359 0.002576 -0.002601 0.001984 0.003329 0.000129 -0.003901 0.002591 -0.002553 -0.003466 -0.004131 -0.004896 -0.004725 -0.001660 0.000986 0.001310 -0.002740 -0.003896 0.003109 -0.000143 0.004133 0.004691 -0.004250 -0.003260 0.003081 -0.000329 -0.004705 0.001559 -0.002173 0.002606 0.000236 0.003164 0.000848 -0.003794 -0.002856 -0.002149 0.001026
Hierarchy -0.000056 -0.001273 0.003419 -0.002212 0.002398 0.004965 -0.002001 -0.001793 -0.000813 -0.004155 0.004056 0.002307 -0.003855 -0.003418 -0.003481 0.001801 -0.000055 0.001290 0.002969 -0.004361 -0.003676 0.001853 -0.000889 0.000877 -0.002105 -0.000474 -0.003422 -0.004055 0.001993 0.001854 0.001687 0.000991 0.000394 -0.000292 0.001490 0.002058 -0.000138 -0.002812 0.004979 -0.001149 0.001711 0.003054 0.004377 -0.003735 -0.001735 -0.003771 0.003890 -0.000728 -0.002624 -0.004124 0.001120 -0.000487 -0.003721 -0.000443 0.001055 -0.000665 -0.003024 -0.002912 -0.001781 -0.002035 -0.001454 0.000868 0.003897 0.002492 0.003969 -0.002296 -0.003946 -0.002674 0.003790 0.002035 -0.004163 0.003934 -0.002619 -0.000069 -0.004765 -0.002894 0.002183 0.003390 -0.004819 0.000091 0.000362 -0.001083 0.003195 -0.001126 0.002756 0.003593 0.001285 0.003942 0.002927 0.002651 -0.002894 -0.000946 -0.002382 0.002452 -0.002760 -0.001377 0.000611 -0.002018 0.001457 -0.002149
'Tasks' 0.001935 0.002122 0.004005 0.000783 0.001979 0.002028 -0.002958 0.004966 -0.004730 0.003314 -0.003569 0.004926 -0.001189 -0.004125 -0.004308 0.002258 -0.000471 -0.002114 0.003055 0.001484 0.002594 -0.004205 0.003852 -0.002672 0.002137 -0.002444 -0.004441 -0.000390 -0.003501 0.000474 0.001634 0.004305 0.004209 0.001220 0.004731 -0.003783 0.003229 0.000377 0.002386 0.000900 -0.004233 0.002600 -0.000006 0.000561 -0.000074 -0.004477 -0.002265 0.001893 -0.002427 0.002143 0.003448 0.000420 0.004170 0.000561 0.003270 0.001817 -0.001909 0.003466 -0.000456 0.001043 -0.001699 -0.004263 -0.003544 -0.004550 -0.002564 0.003648 -0.000547 0.004315 0.002564 0.000797 0.001476 0.000436 -0.001461 -0.004705 -0.004602 -0.003947 -0.001449 -0.003088 0.003956 0.002049 0.002846 -0.000797 -0.003460 0.001572 -0.000366 0.004092 -0.003715 0.000879 0.003514 -0.003619 -0.003464 0.002333 0.000525 0.003571 -0.004595 -0.003843 -0.002835 0.004559 -0.000101 -0.001558
Done -0.001282 0.000244 -0.002107 -0.002553 0.001185 -0.000936 0.001093 0.001018 -0.001877 -0.000060 0.002737 -0.001941 -0.004663 -0.000850 0.002812 0.002257 0.003828 0.000134 -0.001753 0.004708 0.000919 0.002563 -0.000362 -0.001050 0.004632 -0.002954 -0.001794 -0.001537 -0.003718 0.003900 0.002597 -0.003233 -0.002602 0.003496 -0.000976 -0.004265 -0.002353 -0.001280 0.004748 -0.002889 0.000465 0.001983 0.001881 0.003469 0.000785 -0.004101 0.001981 0.002717 0.002198 0.000588 0.000448 -0.003286 -0.000714 0.000939 0.004537 0.003467 -0.003830 -0.001256 0.000778 -0.001705 -0.004937 -0.000268 0.000147 -0.002986 0.000512 -0.004774 -0.002831 0.002121 0.002143 0.003506 0.003158 -0.001095 0.004744 0.001775 -0.000082 -0.001110 -0.003057 -0.001501 0.003650 0.000244 0.001726 0.000280 -0.003563 0.001113 -0.002672 0.003571 -0.002198 -0.001127 0.001768 -0.001974 -0.003319 0.000940 0.001957 0.002453 0.002430 0.000773 0.004460 -0.004790 0.000552 -0.000065
. -0.001641 0.003937 0.001144 -0.002721 -0.000218 -0.003236 -0.004047 0.001571 -0.003529 -0.004850 -0.002741 0.000860 0.002050 -0.000112 0.003091 0.001067 -0.002005 0.004994 0.003921 0.002847 0.000866 0.000176 -0.004556 -0.003327 0.003127 0.001656 -0.004618 0.003150 0.000620 0.003585 -0.000628 -0.001885 -0.004486 -0.000276 -0.000674 0.000032 -0.004119 0.003717 0.003303 -0.002069 0.002472 0.000890 -0.000194 0.003512 -0.000827 0.001902 0.001419 -0.004666 0.000462 0.002449 -0.002586 0.000901 0.004021 0.001069 0.002440 0.000595 0.001250 -0.000570 0.002233 0.004209 -0.003604 0.002405 -0.000823 0.004049 -0.003725 -0.001151 0.000868 -0.000593 0.004075 0.003991 0.002325 0.000799 0.003426 -0.004474 -0.003069 -0.000236 -0.003144 0.003750 0.004041 -0.004462 0.003883 0.000039 0.003320 0.001118 0.000675 0.002473 0.003236 -0.001709 0.002741 0.000318 -0.003023 -0.002424 -0.001563 -0.001916 -0.000475 0.001797 0.003484 0.000969 -0.002125 0.000059
