17 100
... -0.004687 0.000584 0.002399 0.003663 -0.004724 0.003900 0.001001 -0.000227 -0.003062 -0.003671 -0.001023 -0.000609 0.001944 0.000943 0.003885 0.005000 0.001469 -0.002409 -0.002957 0.001546 0.003238 0.000023 0.000815 -0.002020 -0.002933 0.001954 -0.003848 0.002561 0.001341 -0.001381 -0.004938 -0.000921 -0.000541 -0.004655 -0.002606 -0.000187 0.004440 -0.003034 0.002025 0.002505 0.004713 0.000664 0.002239 -0.003628 0.004841 -0.002825 0.004671 0.000479 0.003918 -0.003272 0.002905 -0.003405 -0.003315 0.004190 0.001852 -0.002801 0.002204 0.004512 0.001228 -0.001691 -0.004179 0.003428 -0.000099 -0.001498 0.004249 -0.000066 0.004231 -0.002098 -0.001386 0.002255 0.001802 -0.001857 -0.001693 0.004406 0.000304 -0.000472 0.000838 0.000338 -0.002701 -0.000600 -0.003760 -0.002330 -0.002234 -0.000545 0.003019 -0.003442 0.003880 -0.003208 0.002313 -0.003513 0.002201 0.001353 -0.002466 0.000466 0.002193 -0.000162 -0.003752 0.003509 0.001997 -0.000857
a 0.000588 -0.001168 0.001327 0.001874 -0.002712 -0.004637 -0.002391 -0.001848 0.003537 0.003538 -0.000680 0.000357 -0.001827 0.001755 0.003700 0.001174 0.002087 0.004025 0.003319 0.000012 -0.002151 0.004833 0.002279 0.003742 0.000436 -0.001161 0.001625 -0.004061 0.004470 0.002754 -0.003070 0.000446 -0.001749 -0.002174 -0.004857 -0.000716 -0.001613 0.002025 0.001382 -0.001835 0.000906 0.002003 -0.003878 0.004938 -0.001996 0.000781 0.000523 0.000929 0.003728 0.000561 0.000134 -0.001621 0.000791 -0.003633 0.001653 0.002753 0.001618 -0.003103 0.003636 -0.001100 -0.002927 0.002345 0.003186 -0.002762 0.001622 0.001480 -0.002414 0.000704 -0.001207 -0.001531 -0.000231 -0.002094 -0.003287 0.000135 -0.002516 0.004572 0.001828 0.000738 0.000085 0.004930 -0.000686 0.002453 0.000540 -0.004166 0.000777 -0.004178 0.000834 -0.002661 0.004905 0.003971 -0.002805 0.003586 -0.000096 0.001057 -0.003988 -0.003032 0.002258 0.002958 -0.003938 -0.003868
week 0.000294 0.004842 -0.000970 0.000352 0.002106 -0.004218 0.003646 0.004006 0.001123 -0.002952 0.000246 -0.000533 -0.003712 0.004541 0.000886 -0.000200 -0.002939 0.000293 -0.004932 0.004188 0.004100 -0.003623 0.003920 -0.000012 0.002417 0.002352 -0.004008 0.002572 0.002375 -0.004240 -0.003300 -0.002590 -0.001633 0.001422 0.000703 0.001375 0.000780 0.004679 -0.000141 0.004450 -0.004343 -0.003864 0.002097 0.002820 -0.003893 -0.004072 -0.000798 -0.000009 0.004881 0.002222 -0.002140 0.002708 -0.001991 -0.003358 -0.004201 -0.000975 -0.002685 0.004738 0.000007 0.002050 0.004180 0.000227 -0.003090 0.001501 -0.001378 -0.002654 0.002392 -0.002687 -0.000912 -0.004919 0.004177 0.003727 0.001658 0.004328 0.000714 0.001962 -0.000896 0.000205 -0.000525 -0.004190 -0.004621 -0.004699 0.000339 -0.003177 0.003800 -0.004464 0.001433 -0.000643 0.002713 0.001331 -0.000250 0.004923 0.004595 -0.002993 0.000741 0.002984 -0.000814 0.003261 0.000388 -0.002176
set -0.003210 0.000346 -0.001164 -0.004738 -0.000079 0.002621 -0.003589 0.000361 -0.002591 0.001177 0.004037 0.004748 0.000170 -0.001520 0.002639 0.000346 -0.002574 0.000020 -0.004831 0.002065 0.003387 -0.004281 -0.000570 0.004925 -0.001211 -0.000949 -0.000092 -0.002889 -0.002871 -0.002499 0.004609 -0.004706 -0.003679 0.000213 0.001294 0.004777 -0.002663 0.004239 0.003381 -0.001421 -0.003721 0.000592 0.000240 -0.003203 0.002035 -0.002960 -0.004671 -0.001181 -0.003252 -0.003715 -0.001304 0.001530 -0.004093 0.000123 -0.003334 0.004613 -0.004435 0.003736 0.003642 0.003646 0.002849 0.001908 -0.001512 -0.003309 -0.001017 0.000516 0.003288 -0.003229 -0.000140 -0.001970 -0.004475 -0.001610 0.000188 -0.001933 0.004255 0.001458 -0.003140 -0.003854 0.003514 0.002646 0.004318 0.004978 -0.000106 0.001205 -0.000294 -0.003655 -0.000451 0.000369 0.000137 -0.003763 -0.003543 -0.000666 0.000613 -0.004910 -0.003145 0.004936 0.004967 0.000953 -0.000059 -0.004429
Janet -0.004015 -0.003340 0.000852 -0.002720 -0.000688 0.002626 0.001513 0.003104 0.001875 -0.003763 0.003483 -0.003239 -0.004809 0.002615 0.003904 0.002268 0.004815 0.004261 0.001172 -0.003503 0.001170 0.000048 0.003367 0.001874 -0.000879 0.002840 0.004629 0.002866 0.001400 0.004765 -0.002551 -0.003540 -0.000714 -0.003415 -0.003844 0.004386 0.003425 -0.004779 0.003692 0.004294 -0.003733 -0.002215 0.004069 -0.003536 -0.001184 0.003797 0.000271 0.000609 -0.000243 0.003125 -0.001176 -0.002230 -0.003380 0.003959 -0.003261 0.002781 -0.001872 0.001982 -0.000587 -0.001854 -0.001781 -0.003790 0.000963 -0.000475 0.002125 -0.001583 0.002235 0.001456 0.001055 0.002561 0.000467 0.002672 0.000092 0.003236 0.002515 -0.004624 0.001692 0.001245 -0.003098 0.004176 -0.000006 0.003317 0.000325 0.000974 -0.000659 0.000079 0.000904 -0.000165 0.004204 -0.004462 -0.003149 -0.004912 0.004326 0.001981 0.000740 -0.002548 -0.002941 -0.004453 0.001413 0.002223
for 0.001353 -0.004254 0.003151 0.002151 -0.001595 -0.001829 0.000901 0.001320 0.004967 0.002948 -0.001546 -0.004169 -0.001878 0.001144 -0.001232 -0.004261 -0.003346 0.001024 0.003711 -0.003485 -0.003401 0.000623 -0.001910 0.004253 -0.002710 -0.001077 -0.002150 0.001778 -0.004328 0.000602 0.004018 0.000511 -0.001519 0.000317 -0.001522 0.000772 0.004040 -0.004106 -0.002371 -0.003896 -0.002333 0.004458 -0.003863 0.002035 0.003072 -0.003797 -0.001955 -0.003648 -0.003283 0.003700 -0.004281 0.004283 -0.000340 0.003290 -0.003130 -0.000477 0.000986 0.001290 0.003950 -0.003101 0.001040 0.003184 0.001447 -0.000078 0.004328 0.003107 -0.001815 0.002481 0.004924 0.002070 -0.004214 0.002875 0.001298 0.004049 -0.002000 -0.001145 -0.000134 0.001509 -0.000760 -0.004951 0.004226 0.001071 0.000050 0.003418 0.001056 0.001488 -0.002550 0.003072 0.003208 -0.002728 0.002794 -0.003908 0.000950 -0.004830 0.000074 0.003182 0.004129 0.001645 -0.000657 0.004822
I -0.004332 0.003337 -0.000112 -0.001208 -0.001461 0.001114 -0.002971 0.003891 0.002106 -0.000961 0.001588 -0.001640 0.000307 0.002063 -0.000955 0.002254 -0.003589 -0.004851 0.001647 -0.004223 0.003866 0.002871 0.003290 0.001647 0.004873 0.003482 0.000127 -0.003163 -0.003513 0.003244 -0.004565 0.001491 -0.003345 -0.001415 0.001147 0.003925 -0.003008 -0.001370 0.004155 -0.002451 0.001945 -0.001502 -0.001810 0.001031 -0.003567 0.004281 0.004592 0.002417 0.003161 0.002304 0.004608 -0.002372 -0.002401 0.000399 0.000587 0.003905 -0.003869 0.000405 0.002679 -0.003063 -0.000136 0.003161 0.004354 -0.002232 -0.001092 0.001817 0.002882 0.002739 0.004422 0.001400 -0.000240 -0.002493 -0.002248 0.001103 0.002411 0.001629 -0.003102 -0.002978 -0.002414 0.003544 -0.002423 0.003338 -0.004852 -0.003248 0.003521 0.003125 0.001468 0.002785 -0.001913 -0.002486 -0.004108 0.001998 0.002156 0.003386 -0.003599 -0.003582 0.003160 0.003016 -0.001790 -0.004724
, -0.001446 0.004659 0.000112 -0.001304 0.004252 0.003360 0.003978 -0.000746 0.001993 -0.002101 -0.002659 -0.001104 0.002443 -0.004943 0.002993 -0.004690 -0.001696 0.003917 -0.001612 0.001866 -0.002221 0.003548 0.001684 -0.001285 0.000972 -0.001872 -0.001271 -0.002715 0.001693 0.004885 0.001801 0.004876 -0.000981 0.004803 0.002999 0.003129 0.004035 -0.001102 0.003311 -0.004107 0.003838 0.000326 0.001600 0.001887 0.004892 -0.003734 0.002690 -0.000740 -0.000932 -0.003885 -0.004675 -0.000038 0.002724 0.003288 -0.002735 -0.000877 -0.000330 0.002645 0.001483 -0.001590 -0.000719 -0.001496 -0.004445 -0.004055 -0.002274 -0.004423 -0.001992 -0.002403 -0.000447 -0.000447 -0.003582 0.000481 -0.001801 -0.000886 -0.003318 0.000549 -0.000809 -0.004790 -0.000022 0.002347 0.003399 -0.003695 -0.004095 -0.002197 -0.001204 -0.004702 0.002685 -0.004706 -0.002312 -0.002674 -0.003832 -0.002844 -0.000503 -0.004751 0.002509 -0.001071 0.003471 -0.001954 0.001379 -0.004583
Drew 0.004847 0.000865 -0.001780 0.001063 -0.004892 -0.002706 -0.004566 0.002231 -0.002745 -0.003358 0.000992 -0.001416 0.003143 0.001020 0.004942 -0.001941 -0.002895 0.004276 -0.000988 -0.003089 0.000429 0.002749 -0.003865 0.001625 0.000898 0.001221 0.003080 0.004052 0.001248 -0.002577 -0.004035 -0.000625 -0.000632 0.003567 0.001840 -0.003282 0.004428 -0.003200 0.002090 -0.004578 0.001092 -0.001374 0.003853 0.000157 -0.001939 0.003576 0.003722 -0.000780 0.002012 -0.003861 -0.004084 0.002782 0.001115 0.002359 -0.000166 0.001056 0.002800 -0.004855 -0.000090 -0.000265 0.000303 -0.004684 -0.004491 0.000593 0.002313 0.001384 0.001576 -0.000203 0.004549 -0.004540 0.004905 0.000738 0.001053 0.002891 0.002564 0.004334 0.000025 0.004408 0.000978 -0.004581 -0.004271 0.003225 -0.004907 0.000966 -0.001871 -0.003582 -0.001101 0.002361 0.002944 0.000552 -0.002474 -0.000347 0.004199 0.000153 -0.001642 -0.004267 0.004866 0.002256 0.004240 0.002383
up 0.000284 0.004411 -0.002663 0.001579 -0.003035 -0.002778 0.000181 -0.000924 0.004587 0.002904 -0.002704 0.002595 -0.003113 0.000516 -0.000371 -0.000054 -0.002841 -0.000983 0.003519 0.003255 -0.004278 -0.002552 0.003043 0.000202 0.003352 0.004596 -0.002931 -0.004952 -0.001299 0.004584 0.000555 0.000481 0.004777 -0.001022 0.001599 0.000903 -0.002043 -0.004173 -0.003922 0.003330 0.001122 -0.001421 -0.000522 -0.003999 0.000063 0.002554 0.003944 0.003681 0.001160 0.004415 -0.000328 -0.001313 0.004245 -0.003028 0.003646 0.003367 0.004048 0.003810 -0.002230 -0.001434 -0.001140 0.001308 -0.002975 -0.004524 -0.000755 0.002971 -0.000058 0.004278 -0.004546 -0.004207 -0.004405 -0.001298 0.002540 0.003712 -0.004330 0.003861 -0.004548 0.004157 0.000029 0.004109 -0.004970 0.000004 0.002265 0.001006 0.002984 0.001769 0.001061 0.003704 0.004250 0.000801 -0.002005 -0.004250 -0.001761 0.004718 -0.002219 0.003559 -0.002120 -0.000440 0.004262 0.004097
early -0.003311 0.001733 0.002209 -0.002165 -0.003879 0.000890 -0.000592 -0.001772 0.004834 0.004826 0.002135 0.003901 -0.001866 -0.002557 -0.003449 0.003158 -0.004171 -0.001802 -0.001396 -0.000473 0.002870 0.002748 0.004733 -0.000542 0.003633 -0.000837 -0.000518 0.000275 -0.003970 -0.004571 -0.004469 0.001340 0.001083 -0.001041 0.001242 -0.003634 0.001133 0.000712 0.003724 0.000189 0.003504 0.000393 0.000249 -0.004032 -0.004820 -0.003363 -0.004092 -0.002859 -0.001834 -0.004698 0.002759 -0.002215 0.004730 -0.001989 0.003545 -0.001108 0.003597 -0.002941 -0.000175 0.001535 0.001265 -0.004685 -0.002350 -0.000763 0.001736 0.003921 -0.000912 0.000771 0.001862 0.002059 -0.004464 0.004563 0.002639 0.003877 -0.000358 0.002825 0.002652 0.001967 -0.000814 0.004162 -0.004533 -0.003985 0.004610 -0.000418 0.001614 -0.000754 0.001886 -0.004769 -0.003428 -0.002703 0.003437 -0.001638 -0.004652 -0.003573 -0.003119 -0.000318 -0.004886 -0.003224 0.001849 0.003168
to -0.000480 0.004746 -0.002617 -0.004694 -0.004955 0.004803 0.003421 -0.004167 -0.000011 -0.000257 -0.004226 -0.000468 0.004226 -0.004766 0.003999 0.003591 0.001315 -0.002479 -0.000768 0.000760 -0.003874 -0.004103 0.003563 0.001215 -0.000988 -0.002577 -0.001472 0.003085 -0.000441 -0.002949 0.000723 0.003290 0.000210 -0.002488 -0.003842 0.002883 -0.003562 0.000661 0.004075 -0.002739 0.001325 -0.002531 -0.004045 -0.004206 -0.001561 -0.001558 -0.002518 -0.003177 -0.001508 -0.002368 0.001239 -0.004810 -0.002922 -0.004298 0.003794 -0.000017 -0.004311 0.001791 -0.000028 0.003068 -0.004103 -0.003103 0.004642 0.002783 -0.001933 -0.002407 -0.000575 -0.002976 0.003628 0.003885 -0.004445 -0.001303 -0.003670 0.003615 -0.000615 0.001475 0.002293 0.003421 -0.002643 0.001852 0.000985 -0.002672 -0.001048 -0.002241 -0.001213 0.003383 -0.000761 -0.003852 -0.001378 -0.004043 -0.004953 0.000535 0.001911 -0.000399 -0.001854 -0.000724 -0.003701 0.002206 -0.001183 0.000024
have -0.000516 -0.003156 0.002498 -0.000846 0.002895 -0.001986 0.001063 -0.000761 -0.003403 -0.003744 -0.002104 -0.002703 -0.003622 -0.000477 -0.000584 -0.000705 0.001649 0.004870 -0.003849 -0.003922 -0.002306 -0.002428 0.003698 -0.002289 0.002905 0.003100 -0.002151 0.004526 0.000655 0.000905 -0.002712 -0.003360 0.002959 -0.003961 0.004670 0.003955 0.000591 0.004124 0.004275 0.004318 -0.004792 0.002744 -0.002566 0.003404 0.002573 0.001147 0.000475 0.001976 0.001981 -0.000174 -0.000602 -0.000821 -0.000049 -0.004543 -0.000041 -0.003907 0.000541 -0.000090 -0.004920 0.002883 0.000095 0.002660 -0.003364 -0.000975 0.002102 -0.004651 -0.001113 -0.003315 -0.002848 0.001624 -0.004181 0.002578 0.001777 -0.004127 -0.004484 -0.002652 0.000054 -0.002876 -0.001918 0.000334 0.000335 0.004705 -0.002573 0.002812 -0.002984 0.004669 -0.002803 0.000098 0.001210 -0.004969 -0.004205 -0.003948 -0.002317 0.002916 0.002340 0.004890 -0.000044 -0.003303 -0.001953 -0.003082
next 0.004774 0.001728 -0.003128 0.001594 0.004908 -0.002759 -0.000558 0.000326 -0.000988 -0.002796 -0.004720 0.000449 -0.004668 0.002861 -0.001880 -0.004625 0.004974 -0.002094 -0.000896 0.000709 0.003839 -0.002796 0.003176 -0.001127 0.001873 0.002912 -0.000297 0.002334 -0.002138 0.003691 -0.004145 -0.000981 -0.003838 0.001717 -0.003248 -0.002089 0.001019 -0.003434 -0.002654 0.002575 -0.004738 -0.001373 0.001254 -0.003098 0.004987 -0.001765 -0.003184 0.002890 0.003799 -0.001867 -0.000751 -0.001243 0.003677 -0.001754 -0.002663 0.001324 -0.000555 0.002040 0.003532 -0.002503 -0.003675 -0.003345 -0.000696 -0.001299 -0.002256 0.001371 -0.001274 0.000699 0.000780 -0.002301 -0.003899 -0.001737 0.001307 0.002072 0.003333 -0.001852 0.001567 0.001553 0.001432 -0.004651 -0.003466 0.001339 0.003563 0.000555 0.002738 0.004774 0.000071 0.003054 0.004317 -0.004283 -0.004265 -0.000852 0.003052 0.000357 0.004778 -0.000369 -0.002808 -0.002005 0.001702 0.002785
meeting -0.002785 0.003351 -0.004243 0.001678 -0.000626 -0.002545 -0.004756 0.003959 -0.004684 -0.003935 0.004122 -0.002589 0.000404 -0.003669 0.002343 0.003076 0.003515 -0.003882 -0.000556 -0.005001 0.004757 0.000556 0.004515 0.004334 0.001076 -0.001097 -0.003642 -0.003939 0.001404 0.003446 -0.003865 0.003530 0.003598 0.002214 0.003379 -0.002601 -0.003521 -0.004442 0.002855 -0.003798 -0.000630 -0.000809 -0.003936 0.001615 0.003600 -0.003521 0.004722 0.003618 -0.000240 0.003815 -0.004358 0.004287 -0.001534 -0.000383 0.000353 0.003939 -0.000310 -0.002554 0.003758 -0.002487 -0.001778 -0.002712 -0.002491 0.004655 -0.000916 -0.004625 0.000073 -0.000910 -0.002295 0.003925 -0.003187 0.004200 -0.004493 -0.003087 0.003408 -0.002846 -0.001947 0.001123 -0.004942 0.004252 0.004090 -0.000341 -0.000428 0.001190 0.001212 0.002028 0.003955 -0.004954 0.002478 -0.004790 -0.001294 -0.001020 -0.001728 -0.000644 0.003158 -0.000007 -0.002482 -0.001722 -0.004976 0.000728
asked -0.001995 -0.004631 -0.004456 -0.000851 -0.002362 0.003432 0.003327 0.003419 0.001388 -0.002021 0.002455 0.003294 -0.003698 -0.004383 -0.001168 0.002943 0.004606 0.001878 0.000084 -0.004143 -0.001829 -0.003591 0.000823 -0.002821 -0.000842 -0.003977 0.000961 -0.002387 0.000397 -0.000329 0.004232 0.001281 -0.002479 -0.002569 -0.001293 0.001729 -0.000651 -0.001838 0.002819 0.001432 0.000819 0.000389 -0.000494 0.004213 -0.000036 0.004213 0.002963 -0.000485 0.002985 0.002122 0.004182 -0.002217 0.004567 -0.003409 -0.004286 0.002033 0.002976 0.003491 -0.004427 -0.004228 0.001606 0.000095 0.004239 -0.003139 -0.002363 0.000934 -0.001575 -0.002273 -0.001324 -0.000812 -0.003783 -0.004651 -0.004613 -0.004165 -0.001801 -0.002980 -0.001449 0.000828 0.000494 0.002053 0.001810 0.001490 -0.003511 -0.001475 -0.001206 0.000826 -0.004708 -0.001829 -0.003023 0.001802 0.004335 -0.004761 0.004998 -0.004172 -0.001989 0.002103 -0.003678 0.004801 0.004853 0.001844
.Tony -0.002218 0.003020 -0.004297 -0.001106 -0.004947 -0.001525 -0.002479 -0.001160 -0.004068 0.001991 0.003205 0.003574 -0.001473 0.004749 -0.002838 -0.001711 -0.003996 -0.002896 -0.001296 -0.000450 0.003131 0.000640 0.004572 0.000483 -0.001663 0.003831 0.001508 -0.001702 -0.001083 0.002989 -0.002057 0.001979 -0.001533 0.000229 0.003296 0.000845 0.001985 0.002796 0.004342 -0.002927 0.004066 -0.003876 -0.001471 -0.000267 -0.000562 0.000018 -0.001433 -0.003445 0.000154 0.002779 -0.001156 0.003067 -0.003720 -0.000793 0.003162 0.002466 -0.002353 -0.000130 0.002033 -0.001382 -0.003917 -0.003356 0.003309 -0.002691 0.003198 0.001766 -0.003603 -0.000847 -0.001247 -0.003481 -0.000353 -0.002850 0.004941 0.000879 -0.004676 0.001852 0.003164 0.004491 0.000983 0.003928 -0.000765 -0.001195 0.003076 0.002405 -0.000593 -0.001496 -0.002745 -0.002489 0.002202 0.001474 0.000530 0.002448 -0.002712 -0.004109 -0.004125 -0.003531 -0.002226 0.000597 0.004413 0.002995
