20 100
available -0.001369 0.004783 -0.004246 -0.000167 -0.002576 0.000549 0.004842 -0.000101 -0.000081 -0.001799 0.003750 -0.002712 -0.004351 -0.000162 0.001866 0.004447 -0.003469 -0.000851 0.003297 -0.001268 -0.003386 -0.003731 -0.000041 0.002057 -0.003609 0.000845 0.000374 0.003358 -0.002473 -0.002971 0.002914 -0.001002 -0.001418 -0.000400 0.000281 0.004416 -0.000336 -0.001247 0.002068 0.000273 -0.004003 0.000454 0.003986 -0.002271 -0.004507 -0.000598 0.003186 -0.000306 0.004100 0.004192 -0.004361 -0.004567 0.001003 0.000343 0.002067 0.004212 -0.003908 -0.001732 0.001177 -0.003771 -0.002292 0.003211 -0.000082 -0.001184 0.000820 0.004741 -0.000986 -0.000608 0.003253 0.003533 0.003230 0.000691 0.004870 0.004664 -0.003632 0.004228 0.003388 -0.000057 0.002690 -0.003538 -0.004360 0.002548 0.001654 0.000333 0.004479 0.003159 0.000052 -0.003547 -0.001037 0.001644 0.004865 0.003991 -0.001153 -0.001134 -0.000138 0.003840 0.003611 -0.004959 -0.004882 0.000638
on 0.002815 0.004761 -0.002558 0.000597 0.002301 0.004946 0.001839 -0.002237 -0.003510 -0.002856 0.003534 -0.001339 -0.000579 -0.001922 -0.004472 0.004141 -0.001335 -0.001193 0.000899 0.000304 0.002617 -0.000875 0.000085 0.000759 -0.002203 0.004793 -0.003003 -0.001607 -0.000588 -0.000492 -0.003526 -0.002616 -0.004573 0.000890 -0.002429 0.004264 -0.004549 -0.002584 0.002900 -0.003325 0.003562 -0.001569 0.001290 -0.003272 0.000397 -0.004824 0.001164 -0.000283 0.002031 0.003221 0.001696 -0.002879 -0.001641 0.001741 0.000898 -0.003949 0.003945 -0.004818 -0.004649 0.003991 -0.001807 0.001003 -0.004641 0.004125 -0.000057 -0.002488 0.000939 -0.000246 -0.001440 -0.004826 -0.002017 0.000721 0.000170 0.003459 -0.004500 0.003741 0.001517 0.000639 0.001099 0.002629 -0.003868 -0.001909 -0.002278 -0.000302 0.000918 0.003520 0.001435 0.002792 -0.003947 -0.003963 -0.001059 -0.000016 -0.002752 0.002855 -0.001239 -0.002829 -0.003014 0.004740 -0.004499 -0.002243
named 0.002344 0.001040 -0.001654 0.002906 -0.004397 0.003640 -0.001203 -0.000474 -0.004900 0.002072 0.003339 -0.003300 -0.000662 0.003089 -0.003739 -0.004749 0.000732 0.004385 0.000250 -0.004923 0.002565 -0.002956 0.002074 0.004525 -0.001488 0.002255 -0.002731 0.002027 0.002695 -0.003799 -0.004616 -0.004077 -0.004317 -0.002234 0.002489 0.004912 -0.000340 -0.004520 -0.001294 0.001254 -0.002029 0.002606 -0.000482 0.002142 -0.000547 -0.001571 0.001097 -0.004364 0.003225 -0.000761 0.002524 0.000598 0.002833 0.001850 -0.002952 0.000906 -0.004071 -0.004453 0.000084 0.000268 -0.001819 0.000497 -0.004739 -0.002805 -0.003133 0.004674 -0.001872 0.004767 0.003399 -0.001626 0.001787 -0.000699 -0.000825 0.001988 -0.002610 -0.000583 0.003121 0.001379 -0.000302 0.002607 0.003251 -0.000352 -0.002702 -0.004965 -0.003141 0.000308 -0.000259 -0.000470 -0.001427 -0.002149 0.003209 -0.000266 0.002975 -0.003736 0.001656 -0.001799 0.001813 0.004439 0.000418 -0.000164
: 0.000278 0.001676 -0.002286 0.003865 0.000613 0.002980 0.004324 0.000660 -0.001589 -0.000266 -0.001496 0.001305 -0.001005 0.002798 0.000707 0.004280 0.000790 -0.002823 -0.003333 -0.004363 -0.001264 0.000902 0.001129 0.004876 0.002874 0.003508 0.001411 -0.003511 -0.001793 -0.000271 0.001524 0.001888 -0.002867 0.002546 0.004975 0.003451 0.000907 -0.000732 0.001789 -0.000375 -0.003013 -0.001031 -0.001430 -0.003805 0.000198 -0.000420 -0.004118 0.001522 0.002394 -0.004892 -0.000214 -0.004574 0.002863 0.000910 0.000348 -0.000507 0.002251 0.004275 -0.003481 -0.002785 0.000693 -0.004866 -0.003457 -0.003420 -0.002332 -0.000289 0.000767 0.004269 -0.002687 -0.002327 0.000670 0.004674 0.002795 0.000529 0.000459 0.001295 -0.000012 0.001440 0.002339 0.002886 -0.002329 0.004802 0.001252 -0.001545 -0.004421 0.004709 0.002746 0.004401 0.003248 0.003304 0.000661 0.001033 -0.000272 -0.004421 0.000103 0.003532 0.002809 0.000193 -0.003992 -0.000684
06/21/2001 0.003717 0.004668 0.002408 0.002669 -0.002270 -0.003346 0.003617 0.000317 0.001260 -0.002638 0.001527 -0.002032 0.003164 -0.002531 -0.000256 0.002523 0.002664 -0.000802 -0.004195 -0.001412 -0.003428 -0.004095 0.003616 -0.001094 0.001705 0.003321 0.002753 -0.001080 -0.003939 -0.000067 -0.004742 -0.001948 -0.000646 -0.004870 -0.001914 0.000233 0.000407 -0.000272 -0.002479 -0.000118 -0.000875 0.002553 -0.003993 0.000558 -0.004368 -0.004434 0.000356 -0.004612 -0.004974 -0.003504 -0.004630 -0.000444 -0.000346 -0.000653 -0.004038 0.002741 0.001246 0.003921 0.003439 -0.000362 -0.000109 -0.004004 -0.003509 0.004555 -0.003302 -0.002806 -0.002121 0.003827 0.001406 -0.004731 -0.000118 -0.002543 0.002998 0.001043 -0.003910 0.001412 0.002946 -0.004530 0.003696 -0.000630 -0.003921 0.002719 0.000535 -0.000673 0.003343 -0.003432 -0.003198 -0.004389 -0.000249 0.000051 0.002516 -0.003415 -0.002240 -0.004661 0.000554 0.003595 0.003922 -0.000436 0.001218 -0.003995
for 0.001359 -0.004257 0.003148 0.002155 -0.001603 -0.001826 0.000898 0.001315 0.004970 0.002954 -0.001542 -0.004170 -0.001883 0.001152 -0.001231 -0.004260 -0.003343 0.001028 0.003715 -0.003495 -0.003403 0.000619 -0.001908 0.004262 -0.002710 -0.001071 -0.002157 0.001774 -0.004325 0.000597 0.004014 0.000507 -0.001524 0.000313 -0.001524 0.000778 0.004044 -0.004111 -0.002368 -0.003895 -0.002339 0.004457 -0.003860 0.002037 0.003070 -0.003801 -0.001960 -0.003651 -0.003286 0.003699 -0.004283 0.004286 -0.000335 0.003295 -0.003126 -0.000481 0.000982 0.001288 0.003950 -0.003099 0.001036 0.003183 0.001440 -0.000082 0.004322 0.003106 -0.001811 0.002487 0.004927 0.002070 -0.004213 0.002871 0.001302 0.004057 -0.002002 -0.001149 -0.000129 0.001516 -0.000759 -0.004948 0.004233 0.001067 0.000048 0.003414 0.001056 0.001492 -0.002552 0.003071 0.003208 -0.002734 0.002795 -0.003911 0.000946 -0.004839 0.000075 0.003185 0.004131 0.001651 -0.000660 0.004822
WAHA 0.002945 -0.004606 -0.001407 -0.003717 -0.004867 -0.004132 0.004308 -0.001823 -0.002549 -0.003795 0.001582 0.001814 -0.001690 0.000216 -0.002202 -0.000023 -0.003115 -0.004792 -0.004830 0.003967 -0.003817 0.002291 0.003421 -0.001806 0.001089 -0.000828 0.001277 0.002552 0.003468 0.003291 0.001303 0.000168 0.003360 0.003610 -0.001983 -0.000414 -0.003439 -0.003291 -0.000035 -0.004543 0.001053 0.004572 0.003511 0.002368 -0.001248 0.004008 -0.002949 -0.004835 -0.002296 -0.000353 -0.001116 0.004577 -0.001839 0.000488 0.004107 -0.003574 0.004948 -0.000366 0.000210 -0.003660 -0.000867 0.002702 0.003380 -0.000085 0.004850 0.002496 0.000512 -0.004007 -0.004674 -0.003715 0.003493 -0.000415 0.001585 0.004474 0.003182 -0.002137 0.003445 0.000522 0.000161 0.002461 -0.003415 0.001200 0.001760 0.000458 -0.002795 0.003160 0.003414 0.002743 -0.004728 0.002526 -0.000488 0.002815 -0.003772 -0.002994 -0.003378 -0.002611 0.002630 0.003251 -0.004771 0.000704
is 0.000500 0.000970 0.003514 0.001978 0.000054 -0.002849 -0.004618 0.004119 0.001329 -0.001159 -0.001770 0.002179 -0.004492 -0.001020 0.000010 -0.000366 0.000333 -0.000283 -0.004760 -0.002343 0.000179 0.000515 -0.004545 0.002220 0.002001 -0.004134 0.004334 0.002197 -0.004992 0.000767 -0.004166 0.003576 0.004440 -0.003004 0.002799 0.001885 -0.004098 -0.001444 0.003276 0.002556 0.000766 -0.000059 0.001759 0.004375 -0.000417 -0.003391 -0.000870 0.002027 0.003458 -0.004446 0.002794 0.000622 -0.000508 -0.004840 0.000933 -0.002172 -0.003055 0.002821 -0.003875 0.004297 -0.003225 0.002168 0.000411 0.002735 0.002709 -0.004408 0.003918 0.001661 -0.002048 0.000908 0.004198 0.002619 0.000591 -0.001147 -0.004382 0.001151 -0.001982 -0.000825 0.003879 -0.004951 0.000444 -0.001414 -0.002481 -0.002589 -0.003844 -0.004813 -0.001204 0.003012 0.001385 -0.002308 0.000845 -0.003516 -0.003286 -0.003947 -0.000086 0.002313 0.000943 0.000535 -0.003001 0.002702
published 0.003649 -0.002036 -0.003161 0.001393 -0.004129 0.001821 -0.003557 -0.003400 0.002128 0.003265 0.001529 0.001216 -0.004417 0.004506 0.002955 0.003509 0.004473 0.002450 0.002704 -0.004772 -0.001266 -0.003549 0.000026 0.003131 0.002477 0.004599 -0.004549 -0.004839 0.002081 -0.003229 -0.001642 -0.002147 -0.003313 -0.002893 -0.002625 0.003907 0.002126 -0.001185 0.004539 0.000072 -0.003979 -0.002562 0.004588 0.001497 -0.002476 -0.001592 -0.004147 0.001685 -0.003770 -0.000602 -0.000665 0.001197 0.003003 0.002273 0.004828 -0.004363 -0.002427 0.001379 -0.002114 0.001995 -0.001921 -0.002667 -0.003335 -0.003283 -0.003946 -0.004317 0.004866 0.003321 -0.000328 -0.000116 0.000727 -0.002925 0.002685 0.003985 -0.000427 -0.003829 0.003785 0.004604 -0.000186 0.002163 0.003541 -0.002686 0.000455 -0.003000 0.001661 0.003549 -0.000825 -0.001233 -0.000694 -0.004537 -0.002392 -0.000725 -0.004944 -0.002946 0.000864 0.002354 -0.000579 0.002469 -0.001137 -0.000545
WEBLINK -0.004151 -0.000772 0.000460 -0.000272 0.004812 0.001453 0.003542 0.004461 -0.001978 0.002275 -0.004745 -0.000021 -0.003428 0.003206 -0.000691 0.000514 -0.003100 0.000966 0.002762 -0.004633 -0.004095 0.000573 -0.004078 -0.002849 0.001897 0.004803 0.003156 0.004809 -0.000865 0.002658 -0.001505 0.003240 -0.001392 0.000510 0.000547 0.003547 0.003683 -0.001517 -0.002155 -0.002145 0.001278 -0.004684 0.001524 0.003299 0.002734 0.002504 -0.001042 0.003340 -0.001421 0.001678 -0.002919 0.003366 -0.001520 0.002658 -0.004417 0.004636 0.003243 -0.001537 0.000955 -0.001961 -0.004571 0.004320 0.002637 0.003357 -0.002140 0.000959 -0.002144 -0.003384 0.003458 0.000729 -0.003700 0.001389 -0.003404 0.000715 0.002657 0.001780 -0.002072 -0.000232 0.000466 -0.002428 0.000470 -0.002283 0.000233 -0.004626 0.003953 0.000876 -0.002670 0.000750 0.000560 -0.000406 -0.003318 0.001208 0.004086 0.001488 0.000767 0.001870 -0.000434 -0.002772 0.004303 -0.003823
, -0.001446 0.004659 0.000112 -0.001304 0.004252 0.003360 0.003978 -0.000746 0.001993 -0.002101 -0.002659 -0.001104 0.002443 -0.004943 0.002993 -0.004690 -0.001696 0.003917 -0.001612 0.001866 -0.002221 0.003548 0.001684 -0.001285 0.000972 -0.001872 -0.001271 -0.002715 0.001693 0.004885 0.001801 0.004876 -0.000981 0.004803 0.002999 0.003129 0.004035 -0.001102 0.003311 -0.004107 0.003838 0.000326 0.001600 0.001887 0.004892 -0.003734 0.002690 -0.000740 -0.000932 -0.003885 -0.004675 -0.000038 0.002724 0.003288 -0.002735 -0.000877 -0.000330 0.002645 0.001483 -0.001590 -0.000719 -0.001496 -0.004445 -0.004055 -0.002274 -0.004423 -0.001992 -0.002403 -0.000447 -0.000447 -0.003582 0.000481 -0.001801 -0.000886 -0.003318 0.000549 -0.000809 -0.004790 -0.000022 0.002347 0.003399 -0.003695 -0.004095 -0.002197 -0.001204 -0.004702 0.002685 -0.004706 -0.002312 -0.002674 -0.003832 -0.002844 -0.000503 -0.004751 0.002509 -0.001071 0.003471 -0.001954 0.001379 -0.004583
website -0.003014 -0.000318 -0.001037 -0.002319 -0.003783 0.003929 0.004471 0.001564 0.004723 -0.004436 0.004914 0.000395 0.001159 0.001305 0.002931 -0.000834 0.003542 -0.001681 -0.002364 -0.001289 -0.001783 -0.000317 0.000775 0.003822 0.003129 0.001452 0.002141 0.000754 0.001525 -0.000653 0.000766 -0.000042 0.003869 0.002081 0.004199 -0.001558 0.002306 -0.000970 0.002684 -0.000581 0.001800 -0.002090 0.002632 -0.000286 0.004760 -0.000702 -0.000691 -0.002362 0.004556 0.000277 -0.002717 -0.003415 0.001789 -0.004319 0.004234 0.002208 -0.000979 0.002377 0.000619 -0.003367 -0.004723 -0.000124 -0.002688 -0.002398 0.004821 0.000202 0.003905 -0.000939 -0.001458 0.004089 -0.002395 0.003807 0.002450 -0.000900 0.004181 0.003846 -0.002116 0.002799 -0.002367 -0.001557 -0.003999 0.000318 -0.003234 -0.000550 -0.002244 0.001674 -0.001785 -0.001991 0.002615 -0.002337 0.003591 -0.001284 0.003274 0.004787 0.000982 0.003151 -0.001284 -0.000026 -0.002310 -0.001176
. -0.001632 0.003930 0.001141 -0.002720 -0.000228 -0.003237 -0.004047 0.001567 -0.003523 -0.004848 -0.002737 0.000861 0.002047 -0.000104 0.003090 0.001072 -0.002004 0.004992 0.003923 0.002839 0.000863 0.000174 -0.004555 -0.003323 0.003129 0.001661 -0.004621 0.003148 0.000624 0.003584 -0.000629 -0.001887 -0.004486 -0.000277 -0.000680 0.000033 -0.004114 0.003709 0.003307 -0.002071 0.002469 0.000894 -0.000190 0.003514 -0.000828 0.001906 0.001414 -0.004670 0.000459 0.002452 -0.002592 0.000907 0.004027 0.001075 0.002443 0.000589 0.001251 -0.000569 0.002234 0.004210 -0.003607 0.002404 -0.000823 0.004051 -0.003726 -0.001153 0.000873 -0.000596 0.004074 0.003989 0.002325 0.000795 0.003428 -0.004461 -0.003065 -0.000243 -0.003138 0.003758 0.004043 -0.004461 0.003883 0.000036 0.003318 0.001119 0.000674 0.002476 0.003234 -0.001707 0.002740 0.000315 -0.003021 -0.002425 -0.001573 -0.001921 -0.000476 0.001801 0.003488 0.000975 -0.002130 0.000061
viewing 0.000484 0.002313 -0.000020 0.000644 -0.003159 0.000197 0.003871 -0.003186 0.004312 0.004563 0.003567 -0.001156 0.000051 0.000756 0.000258 0.003097 -0.001030 -0.002676 0.004029 0.001472 -0.001809 0.003278 -0.000200 0.004965 -0.000360 0.000295 -0.000684 0.001039 0.003132 0.001650 -0.004861 -0.000018 0.003461 0.003119 -0.003569 -0.003672 0.004461 0.000943 0.002034 0.003464 -0.001270 -0.002821 -0.002669 -0.004025 0.001549 0.003456 -0.001212 0.001560 0.003127 -0.003595 0.003386 -0.000702 -0.002293 0.000639 -0.002089 0.000461 0.004325 -0.002945 0.004390 0.002846 -0.002555 0.001479 0.000514 0.004167 -0.004387 0.002046 0.000708 -0.002822 -0.003650 0.003409 0.001948 -0.002257 0.001975 0.002148 -0.004652 0.002242 -0.004553 0.003016 0.000418 0.002841 0.003454 -0.001591 -0.000293 0.000985 -0.001062 -0.003635 -0.002077 -0.004015 -0.000988 0.001664 0.004666 0.004090 -0.001982 -0.001198 -0.004497 -0.000359 0.001416 0.000407 -0.002217 -0.002513
of 0.004275 -0.003754 -0.000623 -0.002396 -0.000051 -0.001042 0.004698 0.000637 -0.000675 -0.002285 0.000417 -0.002270 -0.003525 0.003873 -0.002189 -0.000382 -0.003708 -0.002098 -0.001315 0.002150 -0.004753 0.001455 -0.003266 -0.000356 0.001993 -0.003056 0.001778 -0.000851 -0.000855 0.000742 -0.003992 0.003207 -0.001961 -0.001454 0.000186 0.001586 0.001946 0.003579 0.001990 -0.002139 -0.003148 0.001314 0.001989 -0.004597 -0.003549 -0.000195 0.000410 0.001254 0.003922 -0.000799 0.000985 0.004587 -0.001851 -0.004870 -0.001574 -0.004320 -0.004941 -0.001553 -0.004669 0.001587 0.002933 -0.001241 0.003690 -0.002106 0.002363 -0.004104 -0.000228 0.000863 -0.001276 0.001555 -0.003225 0.003798 0.003738 -0.003799 0.003490 0.000091 -0.000503 0.000411 -0.003411 0.003895 -0.002906 -0.001394 0.004309 -0.002370 -0.000571 -0.002103 -0.001643 -0.004263 0.004120 -0.002011 -0.004353 -0.001759 -0.001659 0.002958 -0.004816 0.001384 0.003223 0.001170 0.002868 0.003526
report 0.003732 -0.004175 0.003637 -0.000067 0.000743 0.000424 0.001293 -0.001662 0.002730 0.003797 -0.003481 0.003879 0.001963 0.001324 0.000127 0.003615 0.001173 -0.000047 -0.000780 0.000984 0.001990 -0.004795 -0.003131 -0.002794 -0.001240 0.003514 0.002292 -0.004881 -0.001138 0.002212 -0.000419 -0.002300 0.000840 -0.004152 -0.001047 -0.001375 0.000599 -0.000242 0.003205 0.002315 -0.003748 0.001327 -0.004046 0.001249 -0.000403 -0.000060 0.003136 0.003871 0.004017 -0.000721 -0.002071 -0.002661 0.003906 -0.001119 0.003474 0.000900 -0.003832 0.003003 0.000027 0.000438 0.000937 -0.000592 -0.000209 0.004329 0.003939 -0.001488 0.001012 -0.003614 -0.001032 -0.002748 -0.001031 0.001145 -0.000901 0.004940 0.003449 -0.004395 0.002343 -0.003607 -0.002227 -0.004317 -0.004017 -0.003619 -0.001035 0.002930 0.002063 -0.000267 -0.001153 0.001049 0.002968 -0.001532 -0.000875 -0.002119 0.003555 0.001963 -0.000553 0.002434 0.004245 0.003778 0.003904 -0.002998
The 0.002246 0.001724 -0.002714 -0.003494 0.004553 0.001954 0.004633 0.003659 -0.002973 0.004737 0.003105 -0.002497 0.000779 -0.000802 0.002061 0.000990 -0.002984 -0.003267 0.003198 0.001823 -0.001677 0.002806 -0.000031 -0.002248 0.000689 0.003562 -0.001538 -0.004528 -0.002782 0.004966 0.000386 0.000132 0.003018 -0.004984 -0.004190 -0.003489 0.000695 0.001197 0.003565 -0.000003 -0.001219 0.003478 0.001451 -0.002378 0.004823 -0.001199 -0.003231 0.000459 0.001329 0.001250 -0.000416 -0.003925 0.000477 -0.000735 -0.002950 0.003203 -0.004171 -0.003083 -0.003947 -0.003771 0.002554 -0.003873 -0.000652 -0.002377 0.001898 0.001857 0.002068 0.004404 0.000172 0.001751 -0.000026 0.004629 0.002967 0.000352 -0.004950 0.001619 -0.002406 0.000564 -0.003877 -0.001094 -0.001650 -0.000256 -0.003874 -0.000790 0.004434 -0.003704 -0.004029 0.003866 0.004700 -0.004979 -0.000594 0.002014 -0.002606 -0.004208 -0.001800 0.003787 0.002602 0.004288 0.000766 0.000623
now -0.003316 -0.003777 -0.002913 -0.000521 0.000146 -0.001074 0.002694 0.002728 0.003079 0.003878 0.001336 0.000072 0.000572 -0.000940 0.002478 0.000549 0.001989 -0.002222 0.001548 -0.004033 -0.004465 0.004522 0.001245 0.001833 0.001303 0.001504 0.003009 -0.000353 0.001533 -0.002463 -0.000751 0.000542 0.001013 -0.000153 0.002413 -0.004422 -0.002457 -0.004190 -0.004863 -0.001843 -0.004842 -0.000614 0.001082 0.002168 -0.002803 0.000890 -0.003625 -0.000195 -0.004337 -0.002694 -0.002997 -0.000560 -0.002276 0.001727 0.000145 -0.004345 -0.004933 -0.002799 -0.004466 0.002299 -0.001392 0.003909 -0.003253 0.004305 0.002530 0.001692 -0.000504 -0.003280 0.000421 0.004025 0.001436 -0.003726 0.000193 0.002787 0.001906 -0.003082 0.000981 0.004636 0.004565 -0.002076 0.003680 -0.000774 -0.003065 0.003760 -0.004584 0.004436 0.002114 0.002157 -0.000031 0.002388 0.001862 -0.000727 -0.000515 -0.004543 -0.002826 -0.004984 0.001211 0.000565 0.001976 0.002748
the 0.004958 -0.001650 -0.000719 0.000268 0.003203 -0.001626 -0.003290 -0.004304 -0.001779 -0.003555 -0.002185 0.004464 0.003234 0.002592 -0.002738 0.001924 -0.004395 0.000061 -0.004327 -0.004935 0.001491 0.001780 0.004538 0.001378 -0.003832 0.001577 -0.000804 -0.000390 -0.000513 -0.004041 0.000048 0.002447 0.001363 -0.003936 0.000030 0.000740 -0.001793 0.001935 -0.002133 0.002696 0.004668 -0.002540 0.001177 -0.004770 -0.000527 -0.004563 0.001253 -0.003979 0.000305 -0.000413 -0.004970 0.002094 0.003972 0.003216 0.004705 0.001440 0.000420 -0.002899 0.003031 -0.000418 0.001504 -0.001561 -0.004990 -0.001737 -0.004128 -0.001604 0.001072 0.000334 0.002299 -0.004723 0.003579 -0.002198 0.000662 0.001392 0.003573 -0.000500 0.001646 -0.001308 0.003320 0.002148 -0.003878 -0.000302 0.001259 0.001515 -0.000421 0.002589 0.000222 -0.001351 0.004631 0.000198 -0.002927 -0.003464 -0.004762 -0.004795 0.001606 0.000178 -0.002538 0.001942 -0.004923 -0.001721
as 0.004613 0.004741 -0.004072 0.003517 -0.001784 -0.003596 -0.003100 -0.000301 0.003224 -0.003755 -0.001281 -0.001622 -0.003421 0.000042 -0.002394 0.001576 0.000646 -0.001123 -0.000534 -0.003157 0.000382 0.001147 0.001375 0.000324 0.002820 -0.000243 -0.004085 0.002282 -0.001827 0.004953 0.001110 0.000739 -0.002121 0.004354 -0.003247 -0.003634 0.004152 0.000940 -0.003257 -0.002447 0.004895 0.004816 0.004662 -0.004109 0.002321 0.003671 0.004145 0.000245 -0.000509 0.004031 -0.001397 0.003100 0.002760 0.004023 -0.004687 0.000286 0.001503 0.003525 0.001065 0.003707 -0.002027 -0.004036 0.002755 0.004191 -0.003649 -0.003155 -0.002346 0.000143 0.004459 0.001598 -0.003335 -0.001167 -0.003210 0.003472 0.004790 0.001015 -0.002913 0.002405 0.002984 -0.003963 -0.004544 0.001224 -0.002675 -0.003972 -0.004350 -0.002778 0.000266 -0.000677 0.000962 -0.001386 0.003982 -0.003042 -0.004618 0.004412 0.002987 0.000543 -0.003648 -0.004423 -0.003232 0.002740
