25 100
and 0.000156 0.002430 0.001215 -0.000538 0.002973 0.002866 0.004455 0.002468 0.002182 0.004771 0.000055 -0.000982 -0.004903 -0.001531 0.000439 0.003364 0.002181 -0.002392 -0.000346 0.000720 0.001753 0.003721 -0.000876 0.003242 -0.002390 -0.000790 -0.002176 0.001998 -0.003998 -0.004941 0.003525 0.002954 -0.003048 0.003724 0.004503 0.000609 0.003406 0.004724 0.004604 -0.003385 0.003045 0.000936 0.002122 -0.000753 -0.002570 0.003501 0.004636 0.004094 0.003103 0.004462 0.003755 -0.002288 -0.004098 0.001723 -0.001560 0.003846 0.000366 -0.002424 -0.004614 -0.002913 0.001469 0.003566 0.000029 0.001258 0.001643 -0.002422 -0.004749 0.003976 0.003781 -0.004884 0.002336 0.003385 0.001382 -0.004205 -0.001301 -0.004256 -0.004912 0.003345 -0.000960 -0.001379 0.000610 0.001175 -0.000120 -0.002562 0.001069 0.002431 0.000519 -0.000756 0.002998 0.004826 -0.004150 0.004912 -0.004536 0.003867 0.002956 -0.001237 -0.002918 0.001602 0.002358 -0.001426
. -0.001641 0.003936 0.001144 -0.002721 -0.000218 -0.003234 -0.004047 0.001572 -0.003528 -0.004850 -0.002738 0.000859 0.002052 -0.000110 0.003089 0.001067 -0.002005 0.004993 0.003921 0.002844 0.000867 0.000176 -0.004556 -0.003327 0.003126 0.001654 -0.004615 0.003150 0.000620 0.003582 -0.000628 -0.001884 -0.004484 -0.000277 -0.000674 0.000033 -0.004117 0.003713 0.003303 -0.002067 0.002472 0.000890 -0.000195 0.003511 -0.000827 0.001903 0.001418 -0.004667 0.000463 0.002451 -0.002587 0.000901 0.004022 0.001069 0.002437 0.000595 0.001251 -0.000571 0.002232 0.004208 -0.003602 0.002403 -0.000822 0.004048 -0.003725 -0.001151 0.000869 -0.000594 0.004074 0.003989 0.002323 0.000799 0.003424 -0.004473 -0.003069 -0.000236 -0.003142 0.003750 0.004040 -0.004459 0.003883 0.000039 0.003318 0.001120 0.000676 0.002471 0.003233 -0.001707 0.002740 0.000319 -0.003022 -0.002422 -0.001565 -0.001915 -0.000473 0.001799 0.003483 0.000968 -0.002125 0.000060
the 0.004976 -0.001652 -0.000704 0.000264 0.003190 -0.001639 -0.003286 -0.004300 -0.001792 -0.003551 -0.002176 0.004470 0.003248 0.002596 -0.002743 0.001921 -0.004421 0.000070 -0.004315 -0.004933 0.001476 0.001797 0.004523 0.001378 -0.003841 0.001561 -0.000789 -0.000366 -0.000496 -0.004027 0.000030 0.002445 0.001357 -0.003951 0.000032 0.000751 -0.001791 0.001932 -0.002116 0.002709 0.004691 -0.002547 0.001174 -0.004764 -0.000506 -0.004574 0.001245 -0.003956 0.000319 -0.000418 -0.004986 0.002104 0.003969 0.003223 0.004685 0.001441 0.000407 -0.002881 0.003026 -0.000415 0.001503 -0.001586 -0.005004 -0.001736 -0.004125 -0.001598 0.001068 0.000339 0.002298 -0.004730 0.003586 -0.002207 0.000651 0.001414 0.003571 -0.000498 0.001665 -0.001322 0.003340 0.002137 -0.003877 -0.000311 0.001271 0.001512 -0.000425 0.002607 0.000234 -0.001327 0.004625 0.000200 -0.002920 -0.003489 -0.004758 -0.004801 0.001592 0.000186 -0.002551 0.001932 -0.004955 -0.001719
executed 0.001937 -0.003692 0.001782 -0.002062 -0.002156 -0.003322 0.001869 0.004473 -0.000779 0.004210 -0.001293 0.002892 -0.003685 0.004503 -0.003833 0.003844 -0.001653 0.004017 0.004377 0.000147 -0.000012 0.003422 -0.003849 0.000506 0.004712 -0.003825 0.000833 0.003881 0.003498 0.000632 -0.002239 -0.002378 0.003053 0.002457 -0.002595 0.002274 -0.000633 0.003342 0.004101 0.000682 -0.001242 0.002468 -0.003633 0.003092 -0.000648 0.000343 -0.002606 0.000926 0.002407 -0.001567 -0.002818 -0.004385 -0.003367 -0.001439 -0.002556 -0.000406 -0.002236 0.004631 -0.000880 -0.001829 0.003203 -0.003447 -0.002010 0.003186 -0.003894 -0.000943 0.003809 0.001442 0.000612 -0.000092 -0.001547 0.000754 0.002408 0.000214 -0.003771 0.000009 0.001786 -0.003199 -0.000271 0.001280 0.000605 -0.000415 0.000625 0.001775 -0.001820 -0.001466 0.002787 0.004459 -0.004932 0.000442 -0.001541 -0.000703 0.001798 0.002948 0.000784 0.000558 -0.004293 0.001150 -0.003578 -0.000413
Purchase 0.002873 0.003968 0.002288 -0.002796 0.004025 -0.004702 -0.003034 -0.003218 -0.000805 0.001517 -0.000057 0.001115 -0.004626 0.004459 0.001295 -0.001901 0.000003 -0.004863 0.004630 -0.004815 -0.003159 0.001605 -0.003892 -0.004658 0.002369 0.000535 0.000699 0.004460 0.001241 -0.001318 0.004426 0.002240 -0.001977 0.002612 -0.004452 0.004704 -0.001876 -0.002354 0.002310 0.001117 -0.002179 0.003444 -0.003435 0.004312 0.001316 -0.004216 0.001195 -0.004636 -0.003902 -0.004110 0.003336 -0.001510 0.000921 0.002281 -0.001487 0.004110 0.003556 -0.004863 -0.003793 -0.001738 0.002406 -0.003196 0.001304 -0.001054 -0.002049 0.003463 0.004323 -0.000306 0.001560 0.003059 -0.004529 0.002061 -0.002584 0.001690 -0.002224 0.004757 -0.000268 -0.003557 -0.002207 -0.001961 0.001871 -0.002972 -0.002515 0.000478 -0.000374 -0.004318 0.000265 0.000215 0.003465 0.003982 0.000697 -0.004838 -0.001403 0.004789 0.004751 -0.004345 0.001784 -0.002168 0.001755 0.001800
Copies 0.004585 0.001506 -0.000595 -0.003610 -0.003855 0.004794 0.000246 -0.000176 -0.001136 -0.001172 -0.002000 -0.001068 -0.000430 -0.001871 -0.000588 0.003503 -0.000476 0.001503 0.001194 0.002447 0.000356 0.000419 -0.000211 -0.003263 -0.004832 -0.004533 -0.002647 -0.002017 0.004121 -0.002837 -0.003128 0.000998 -0.002520 -0.001492 -0.004980 -0.003645 -0.002128 -0.000140 -0.004642 0.003983 -0.003310 -0.001719 -0.002524 0.001230 -0.001681 -0.004362 -0.002429 0.003808 0.000656 0.002477 0.000440 0.003330 -0.000573 -0.002690 0.003125 -0.003915 0.000611 0.002691 -0.002455 -0.004241 0.001657 -0.001275 0.000183 0.002513 -0.002874 0.004700 0.004441 0.001962 0.001643 0.000357 -0.001281 -0.002840 -0.003335 -0.001225 -0.002563 -0.004382 0.004163 -0.004255 -0.004566 -0.000859 -0.000597 0.000592 -0.000278 0.003486 -0.004776 -0.000155 0.002496 0.002006 -0.000833 0.003095 -0.000972 -0.003741 0.002045 0.002740 -0.000678 -0.002836 -0.004127 0.000900 -0.000698 0.000354
referenced 0.000012 0.003954 0.000469 0.004120 0.002413 -0.000448 0.004593 -0.001739 0.001027 -0.004516 0.004639 -0.002549 0.003675 -0.003618 0.003130 -0.003748 -0.001312 -0.000316 -0.002978 -0.001611 -0.004808 -0.000754 -0.001128 -0.004510 -0.004037 -0.003026 0.001582 -0.003878 0.004343 0.002944 0.000300 0.002260 -0.003638 0.000934 0.001339 -0.004124 -0.004374 -0.000542 0.003553 0.002475 0.002625 0.001162 -0.002198 -0.003415 -0.001688 0.001193 -0.002119 -0.000048 -0.003803 0.002852 0.000197 0.003880 0.003393 -0.001116 0.001417 0.003331 0.003991 0.003778 -0.000754 0.002002 -0.002885 -0.004147 0.002075 0.001763 0.004609 0.002309 -0.001534 -0.004264 -0.000290 0.003442 -0.001319 -0.004057 -0.003400 -0.002481 -0.002048 0.001132 0.001437 -0.002164 0.001144 -0.003309 0.001349 0.002028 0.001416 -0.003613 0.001230 -0.000232 0.000030 -0.000268 -0.003422 0.003410 0.004100 0.000049 0.000101 0.002697 -0.004016 0.004208 0.001020 -0.004327 0.003589 -0.003144
EEI -0.001934 -0.000077 -0.000342 0.004964 -0.001534 0.003901 -0.003705 0.000149 -0.000034 -0.004145 -0.004386 -0.002402 0.002437 -0.002441 0.003552 0.003738 0.002543 0.004626 -0.000912 -0.000161 -0.002277 0.003059 -0.000834 -0.003594 -0.001164 -0.004641 -0.003207 -0.002494 0.003800 0.003229 -0.001115 0.004243 -0.000305 -0.000822 -0.001806 -0.001822 0.004343 -0.000535 -0.001709 0.000670 0.002167 -0.000863 0.004284 -0.001584 -0.004452 0.000322 0.002174 -0.003428 0.004345 0.002993 -0.001904 0.003332 0.003363 0.003571 0.001686 -0.001773 -0.003370 0.002112 0.000045 0.003018 0.001851 0.002899 -0.002134 -0.001615 0.000338 0.000367 0.003306 -0.004841 0.002637 0.000390 -0.002803 0.002689 0.000925 0.002495 -0.004945 -0.001669 -0.001487 0.002175 0.003632 0.002728 -0.002202 0.001078 -0.003127 0.004700 0.003577 0.000303 -0.003701 0.002990 0.004001 0.002588 -0.003361 -0.000329 0.004063 -0.002197 0.003934 0.001224 0.000136 -0.002817 0.003289 0.002367
have -0.000516 -0.003156 0.002498 -0.000846 0.002895 -0.001986 0.001063 -0.000761 -0.003403 -0.003744 -0.002104 -0.002703 -0.003622 -0.000477 -0.000584 -0.000705 0.001649 0.004870 -0.003849 -0.003922 -0.002306 -0.002428 0.003698 -0.002289 0.002905 0.003100 -0.002151 0.004526 0.000655 0.000905 -0.002712 -0.003360 0.002959 -0.003961 0.004670 0.003955 0.000591 0.004124 0.004275 0.004318 -0.004792 0.002744 -0.002566 0.003404 0.002573 0.001147 0.000475 0.001976 0.001981 -0.000174 -0.000602 -0.000821 -0.000049 -0.004543 -0.000041 -0.003907 0.000541 -0.000090 -0.004920 0.002883 0.000095 0.002660 -0.003364 -0.000975 0.002102 -0.004651 -0.001113 -0.003315 -0.002848 0.001624 -0.004181 0.002578 0.001777 -0.004127 -0.004484 -0.002652 0.000054 -0.002876 -0.001918 0.000334 0.000335 0.004705 -0.002573 0.002812 -0.002984 0.004669 -0.002803 0.000098 0.001210 -0.004969 -0.004205 -0.003948 -0.002317 0.002916 0.002340 0.004890 -0.000044 -0.003303 -0.001953 -0.003082
We -0.004680 0.004461 0.003856 0.001439 0.002748 -0.000025 -0.003692 -0.003675 0.000405 -0.002545 0.003943 0.002752 -0.002786 -0.003085 0.000372 0.002021 0.000108 -0.004339 -0.000539 0.000335 0.002062 0.004450 0.000157 0.000097 0.004952 0.004673 -0.001614 -0.003084 0.004498 0.000149 -0.004325 0.004262 -0.001404 0.002845 -0.001371 0.003285 0.004029 -0.001298 0.004678 0.003989 -0.002285 -0.002887 0.002152 0.003673 0.003300 -0.004685 0.001025 0.001969 0.002488 -0.003366 0.002214 -0.001336 -0.001801 0.004775 0.002338 0.001087 0.002641 0.002660 0.000402 -0.004632 0.000096 0.000420 0.003290 0.002883 0.000356 0.000663 0.004812 0.000564 -0.004981 -0.000443 0.002907 -0.000583 -0.004428 -0.000851 -0.002125 0.001991 0.000211 0.002570 -0.004086 -0.003281 0.000123 -0.000271 0.004202 0.003491 0.004273 0.000690 0.004077 0.002290 -0.000772 0.001081 -0.001823 0.004013 0.002952 -0.004884 -0.003869 -0.002546 -0.001517 -0.002848 0.004742 -0.000792
from 0.003253 0.002108 0.001558 -0.000880 -0.004877 0.001183 -0.002112 0.001965 -0.002104 0.002592 0.000192 -0.003067 0.002164 0.002462 0.003528 0.004451 0.002249 0.004024 -0.004687 -0.004056 0.003770 0.004325 0.000375 0.002404 -0.002147 -0.000998 -0.000620 -0.003140 -0.004960 -0.002596 -0.002148 0.002875 -0.001799 0.004613 0.002962 0.000692 -0.000194 0.004777 0.002559 0.004832 0.000652 -0.001578 -0.004215 -0.004118 -0.001648 -0.004286 -0.002475 0.003232 -0.001838 -0.002462 -0.002067 0.002023 0.002694 -0.001152 0.003421 -0.000558 0.003472 0.000417 -0.003416 -0.003925 0.002407 0.002576 0.002427 -0.004864 0.000302 0.001203 -0.004677 -0.003770 0.000151 0.001847 -0.002806 -0.002891 -0.003207 0.004340 -0.001154 0.000873 -0.000619 0.003338 -0.002944 0.004397 0.002973 0.004325 0.000740 0.003570 0.001496 -0.003204 -0.003418 0.001644 -0.002250 0.000590 -0.001555 -0.002588 -0.001586 0.000375 -0.004767 0.003690 -0.000053 0.000561 0.002434 0.002087
Power 0.004598 0.002073 -0.000047 0.000975 -0.004474 -0.002111 -0.000075 0.001252 -0.001701 0.000066 -0.004037 0.000298 0.004464 0.001437 0.002865 -0.000715 -0.001999 0.002959 0.004397 0.003001 0.001234 -0.002093 -0.000048 -0.003396 -0.000740 -0.001292 0.003403 0.001260 0.003862 0.001814 -0.001078 0.000345 -0.001689 -0.003529 0.000316 0.002126 0.002008 -0.002108 0.004288 -0.003604 0.001940 -0.003285 -0.001165 0.000803 0.004769 0.004303 -0.004219 0.003795 0.004168 0.003278 0.003157 -0.001047 -0.002369 0.001877 -0.002773 0.003462 -0.001650 0.002017 -0.000312 0.001963 0.004666 -0.002231 -0.001514 -0.002244 0.004486 0.002499 -0.000815 0.000147 0.004449 0.002949 -0.002857 -0.004562 -0.002022 0.002493 0.002203 0.000890 -0.001508 -0.001599 -0.000225 -0.004989 0.001851 -0.003462 -0.001519 -0.001563 0.003342 -0.000697 0.002094 0.001783 -0.002337 -0.000060 0.001753 -0.003728 0.003288 0.000604 0.000295 -0.000165 -0.004101 0.000840 -0.003812 0.004908
Agreement -0.002672 -0.001887 0.003613 0.000218 -0.001208 -0.000661 0.004736 -0.003766 -0.002498 0.001209 0.004430 0.004540 0.002605 0.001877 -0.002783 -0.004513 0.001951 -0.004793 0.003218 0.001068 -0.004836 0.001462 -0.004078 0.003660 0.003241 -0.000088 -0.002548 0.000903 0.000537 0.001428 -0.000290 -0.004245 -0.000051 0.004893 -0.000377 -0.001831 -0.001208 0.000938 -0.004808 0.002016 0.000198 -0.004086 -0.001425 0.004717 -0.004327 -0.003790 -0.000628 -0.003810 -0.000702 -0.001119 -0.003559 0.002681 0.003163 0.004404 -0.000874 0.004365 0.000397 0.000354 -0.000900 0.000480 0.000068 0.001927 -0.002446 -0.001321 -0.004137 0.003709 0.002453 -0.003993 0.003531 0.002745 0.002609 -0.001781 -0.004750 -0.001720 -0.000567 0.000597 0.001408 0.000777 -0.001283 -0.002264 0.001265 -0.003508 0.001102 -0.002143 0.002680 -0.003525 0.001926 0.001223 0.004806 0.000047 -0.004468 -0.000750 0.004495 0.002884 -0.004571 -0.004643 -0.003773 -0.004180 -0.002887 -0.001586
legal -0.004971 -0.000090 0.001214 -0.002765 -0.004189 -0.001431 0.000553 0.001415 -0.003703 -0.000999 0.003847 0.000563 0.002852 0.002542 -0.003967 -0.000367 0.000137 0.002839 0.000395 -0.003640 0.000708 0.003830 -0.004642 0.001218 0.002642 0.004099 0.000837 0.001403 -0.004280 0.001137 0.002270 0.003695 -0.001879 0.003613 0.002004 0.004513 -0.002717 -0.003869 -0.000751 -0.003582 0.001434 -0.000769 0.000825 -0.000613 0.004237 -0.002562 0.000615 0.001935 -0.001690 -0.004724 -0.003206 0.004383 0.000478 0.000354 -0.000595 -0.001915 -0.000022 0.001715 -0.000978 0.002550 0.000946 -0.004475 0.000143 -0.000833 0.004243 0.001504 0.003162 0.000105 -0.000891 -0.003052 0.004520 -0.001300 0.000428 0.004851 0.003299 0.004231 -0.001722 0.001588 -0.001581 -0.000046 0.004468 -0.002885 0.004701 -0.003283 -0.003652 -0.000284 -0.002644 0.003871 0.001718 0.000339 0.004177 0.000237 0.002804 -0.000837 -0.004269 0.000056 0.002720 0.003235 -0.004555 -0.001190
to -0.000473 0.004741 -0.002615 -0.004692 -0.004951 0.004798 0.003423 -0.004168 -0.000005 -0.000253 -0.004228 -0.000471 0.004225 -0.004765 0.003992 0.003586 0.001315 -0.002475 -0.000759 0.000756 -0.003882 -0.004096 0.003559 0.001210 -0.000985 -0.002577 -0.001466 0.003085 -0.000439 -0.002945 0.000724 0.003295 0.000215 -0.002485 -0.003841 0.002878 -0.003561 0.000660 0.004069 -0.002739 0.001327 -0.002530 -0.004046 -0.004199 -0.001568 -0.001550 -0.002516 -0.003177 -0.001509 -0.002362 0.001240 -0.004810 -0.002915 -0.004299 0.003797 -0.000020 -0.004306 0.001782 -0.000034 0.003065 -0.004101 -0.003106 0.004644 0.002786 -0.001934 -0.002405 -0.000582 -0.002970 0.003629 0.003885 -0.004440 -0.001301 -0.003667 0.003612 -0.000621 0.001474 0.002296 0.003423 -0.002643 0.001850 0.000984 -0.002674 -0.001046 -0.002241 -0.001217 0.003389 -0.000765 -0.003848 -0.001382 -0.004034 -0.004949 0.000534 0.001911 -0.000393 -0.001854 -0.000729 -0.003701 0.002202 -0.001183 0.000029
7/25/2001 0.003220 -0.000349 0.002730 -0.001860 -0.003310 -0.003829 0.003738 -0.001647 -0.002690 0.002983 0.003346 0.003474 -0.002135 -0.000513 -0.002215 -0.002404 -0.004303 0.002601 -0.001782 -0.001116 -0.004734 0.003859 -0.004620 -0.000179 -0.004001 -0.003049 0.003682 0.004125 -0.001808 0.004402 -0.000400 -0.003211 -0.000324 -0.004765 0.003678 0.003802 0.004684 -0.000906 -0.000211 0.004221 0.003797 0.003267 0.003353 0.000823 0.002132 -0.004176 0.000342 0.004772 -0.001998 -0.002066 -0.001698 0.001279 0.001083 0.000665 -0.001698 -0.002670 -0.000610 -0.000429 0.001908 -0.002561 -0.004368 -0.002309 -0.003255 0.000637 0.002364 -0.000394 0.000118 0.000462 -0.004478 -0.004274 0.003293 0.002217 0.001033 0.004727 0.001613 0.002069 0.002696 -0.000674 0.002921 0.001489 0.000044 -0.002107 0.001309 0.000781 -0.000817 0.001618 0.003824 0.004117 0.000171 -0.002205 0.001975 -0.002246 -0.000268 -0.001776 0.000385 -0.000586 -0.004270 -0.001679 -0.003307 -0.001851
be 0.003532 -0.004366 -0.001725 0.003562 -0.003974 -0.001416 0.001303 -0.001199 0.002814 -0.001298 -0.001924 0.000580 -0.004071 0.000788 -0.002800 0.000052 0.004481 0.002607 0.003004 -0.001033 0.003192 -0.002429 0.004070 -0.003429 -0.004973 -0.000073 -0.000213 -0.001165 0.000238 -0.000825 -0.002133 -0.004664 0.002463 0.004552 -0.003110 0.004708 0.002699 0.001061 -0.003806 -0.002908 -0.002723 0.004086 -0.004238 0.001413 -0.004188 -0.001935 -0.001350 0.003989 0.001584 0.003756 -0.003161 -0.000265 -0.002090 -0.000584 0.002080 0.000886 -0.001814 0.002730 -0.001025 -0.001038 -0.003296 -0.001858 0.003785 0.004778 0.001831 0.003464 0.002031 -0.003936 0.004585 -0.000743 -0.004422 -0.001763 -0.004829 -0.001838 -0.000638 -0.000581 -0.001509 -0.004767 0.004464 0.003020 -0.004977 -0.000051 0.000646 -0.003022 0.002971 -0.001195 0.001233 -0.004386 0.000230 0.001063 0.004519 0.004150 -0.004634 0.004875 -0.001137 0.000189 0.004724 0.000386 -0.001678 0.000119
given -0.001127 0.000847 0.003291 0.000029 -0.001310 -0.001319 -0.001220 0.001416 0.003787 -0.001446 0.004921 -0.000604 0.003756 -0.000304 -0.002558 0.003272 -0.001728 0.001484 0.003769 0.000099 0.001128 0.001192 0.001818 -0.001395 -0.004431 0.004604 -0.002938 0.002557 0.001044 0.000743 -0.000854 -0.000487 0.002306 0.004997 0.004328 -0.001481 0.003159 0.003917 0.000376 0.000847 -0.002128 -0.002119 -0.003419 -0.002869 0.000401 -0.003930 -0.001142 0.000553 0.004644 0.003915 -0.004073 0.003124 0.004978 -0.004853 0.003759 -0.000317 -0.000144 -0.004962 0.000539 -0.002959 0.002892 0.003452 -0.003066 0.002291 0.001674 0.003218 -0.002551 -0.000696 -0.001397 0.001092 0.002928 0.001462 -0.003457 -0.001302 0.004676 0.003728 -0.000770 0.002123 -0.001069 -0.004146 0.003045 0.003188 0.000232 0.000661 -0.002166 -0.003303 0.000074 0.000477 -0.004073 -0.001180 0.000481 0.004515 0.000054 -0.003294 -0.004593 -0.004685 0.002878 -0.000914 0.003683 -0.002923
Sale 0.000885 0.001132 0.001219 -0.000495 -0.000184 -0.000197 -0.000132 -0.004740 0.001918 -0.002113 -0.003592 0.002283 0.000719 -0.004772 0.001800 -0.003194 0.001523 -0.003495 -0.001891 0.003359 0.000288 0.003049 -0.000315 0.001134 0.002763 -0.004537 0.001970 0.003633 -0.001754 0.004518 -0.004215 -0.004365 -0.001292 -0.003956 0.002744 -0.001202 -0.004179 0.000533 0.004463 0.002476 -0.002019 -0.004730 -0.000422 0.002395 0.000734 -0.003514 -0.002354 -0.004217 0.002073 0.003664 -0.001296 0.004552 0.000922 0.003798 -0.003562 -0.002901 -0.002502 0.001314 -0.000583 0.000646 -0.004386 0.001092 0.002318 -0.004035 0.000384 0.001298 -0.004932 0.004937 -0.002487 0.001259 -0.001970 -0.003769 0.001075 0.002479 0.000542 -0.003420 -0.000773 -0.004285 -0.001048 0.001293 -0.004640 0.002209 0.001407 -0.004245 -0.004579 0.001030 -0.002220 0.003803 -0.003613 -0.000094 0.001619 -0.001956 0.000655 -0.004820 -0.003408 0.002637 0.001191 -0.003696 0.004342 -0.001106
CP 0.001087 -0.001840 -0.001881 -0.003128 -0.001175 0.002098 0.000413 -0.002700 -0.000034 0.002780 0.003917 0.000953 -0.000987 -0.004464 -0.000225 -0.001726 -0.004610 -0.001211 0.004508 -0.004389 -0.000496 -0.000450 -0.000724 0.001219 -0.003821 0.002622 0.000700 -0.000099 -0.000782 -0.002976 -0.003718 -0.004239 -0.000117 -0.002418 -0.003701 0.002025 -0.001611 -0.004385 -0.004718 0.000443 0.004439 -0.000093 -0.002863 0.002030 0.002107 -0.003287 0.001416 0.004109 0.001710 -0.004054 -0.004727 0.001978 -0.001600 0.001376 -0.000805 -0.004533 0.001683 0.004553 0.000737 0.004097 -0.002413 0.002662 -0.003780 -0.004278 -0.002070 0.000720 -0.004244 0.004013 -0.003677 0.001800 0.002275 -0.001165 -0.004017 0.002677 0.002645 0.003156 0.003780 -0.001409 0.004932 -0.000831 0.002991 -0.001248 0.001662 0.003915 0.003912 0.002530 0.002713 0.002475 0.004940 -0.004282 0.003026 -0.003808 -0.002990 -0.001092 -0.002096 0.001366 0.001429 -0.003249 -0.003542 0.000782
received 0.003066 0.001227 -0.002739 0.000722 -0.000582 0.001627 0.002357 -0.003339 0.000196 0.000196 0.001246 -0.004970 0.003920 -0.000978 -0.002948 0.000150 -0.002120 0.001540 0.001367 -0.004320 0.001609 -0.003148 -0.002834 -0.000825 -0.001822 -0.002214 0.001899 -0.004341 0.001444 -0.000376 0.000875 0.001187 -0.000064 -0.004225 0.004900 -0.004651 -0.001685 0.001276 0.001090 -0.001606 0.002775 -0.004470 -0.002746 -0.002439 -0.001421 -0.000785 -0.003764 0.003135 -0.003996 -0.000541 -0.001452 -0.001176 -0.002396 -0.000810 -0.002967 0.003568 -0.002851 0.000626 -0.002916 -0.004582 0.001202 0.002438 0.003921 -0.002014 0.000781 -0.002406 0.002278 0.002846 0.002783 0.002793 0.001196 0.003099 -0.003460 -0.003230 -0.004030 -0.000876 0.004175 -0.004192 0.004364 -0.004206 -0.003541 -0.003957 -0.003109 0.000055 -0.002457 0.002904 -0.000183 -0.000651 0.002343 0.004546 0.001926 0.001321 -0.003181 0.000266 0.001374 0.003266 0.004028 -0.002676 0.000294 -0.001307
will -0.001120 -0.001194 0.001045 0.002286 0.001706 0.003658 -0.004084 0.003206 -0.002876 -0.000348 0.004378 -0.004693 0.003184 -0.004127 0.002058 -0.003848 0.001384 -0.003727 -0.000645 0.004758 -0.003375 -0.004950 0.004992 0.002752 -0.002203 0.004102 -0.000070 0.003582 0.000012 0.000230 -0.000567 -0.001649 0.003384 -0.000575 -0.002624 -0.003614 0.002633 -0.001377 -0.001280 0.004502 -0.000536 -0.002119 -0.002855 -0.000563 0.000773 -0.004470 0.004775 0.004370 0.002262 -0.004367 -0.003301 0.004321 0.003040 -0.002777 -0.000620 -0.002239 0.000027 0.002270 -0.002573 0.004528 -0.000515 -0.003411 -0.001349 0.003360 -0.004581 0.001883 -0.002539 -0.002353 -0.002689 -0.004857 0.000487 -0.002092 -0.002570 0.003684 -0.002908 -0.004911 0.003343 0.004463 0.000999 -0.001828 0.002562 0.003942 0.002060 0.002168 -0.001611 0.003441 -0.002915 0.000054 -0.001223 -0.002244 -0.003640 -0.002376 -0.002510 -0.002896 -0.003901 -0.002192 0.003325 -0.004637 -0.002601 -0.002703
credit -0.003965 -0.002399 0.002330 0.000371 0.002888 -0.002221 0.004004 -0.001087 0.001589 -0.004931 -0.001173 0.003869 0.003867 -0.002309 0.004717 -0.002530 -0.002666 0.003716 -0.000068 -0.003545 -0.000091 -0.000886 0.002618 -0.000333 0.003705 0.003829 -0.001487 0.003058 -0.003358 -0.000733 0.002164 -0.004904 -0.002433 -0.001950 0.002354 -0.001785 0.004482 0.002008 -0.003191 -0.000553 0.004690 -0.000154 0.000636 0.004945 0.003113 0.003659 0.002012 0.004882 -0.001463 0.002825 -0.001136 0.003990 0.003229 -0.000338 0.002805 -0.001660 0.002195 -0.004842 -0.001524 0.003663 -0.001858 0.001966 0.000034 -0.000539 0.004172 -0.001739 -0.004298 0.000391 -0.002418 0.000366 -0.004384 -0.004810 0.001896 -0.004252 0.003968 0.002308 0.001893 -0.001677 0.004105 -0.000313 -0.000531 0.001262 -0.002279 -0.001921 -0.002736 0.000366 -0.001211 -0.002311 0.001412 -0.004479 -0.002109 0.004300 -0.004488 -0.004661 -0.001656 0.000535 0.003181 0.003698 -0.000706 0.004665
dated -0.003819 -0.002174 0.003118 -0.000721 0.001901 0.002010 0.001318 0.003030 0.002216 0.004628 0.001023 -0.000899 0.004324 0.002830 -0.001232 -0.003295 0.004874 -0.004894 0.004869 0.003654 -0.004057 -0.000313 -0.003072 0.002154 -0.002132 0.000453 -0.004454 0.000524 0.004794 -0.000291 -0.004221 0.004450 -0.004213 0.000823 0.001090 -0.000692 -0.002272 -0.001047 0.004264 0.000128 -0.000436 0.002547 0.001847 -0.001135 0.002316 0.003564 0.000042 -0.003148 -0.003536 -0.002238 0.000511 0.004673 0.002345 -0.001901 -0.004426 -0.001482 0.000202 -0.004850 -0.001260 -0.001515 -0.001954 -0.004184 0.004256 0.004640 -0.003059 -0.002911 -0.002632 -0.002884 0.003534 0.001768 0.003819 0.003139 -0.001961 0.001062 -0.003405 0.003462 0.002095 -0.000534 -0.000047 -0.003573 0.000206 -0.002817 -0.002173 -0.003739 -0.002119 0.004386 -0.000720 -0.002339 0.004199 0.000172 0.004197 -0.000916 0.004475 -0.000521 -0.000290 0.001071 0.004283 0.002816 0.000369 -0.000811
Master -0.003231 0.000557 0.004332 -0.000152 0.002887 -0.000670 -0.004987 0.004301 0.001678 -0.003875 0.004075 -0.004996 0.000760 0.004104 0.002479 0.003074 -0.004202 -0.003220 -0.000780 0.004637 -0.002548 0.002774 0.000808 0.001167 0.002625 -0.002785 -0.001134 0.002793 0.004268 0.001947 -0.003430 0.003488 -0.003490 0.004534 -0.003972 -0.001667 -0.000555 0.001903 -0.003087 0.003320 -0.000722 0.001134 0.004470 0.004359 0.004401 0.002453 0.001553 0.001045 0.001831 0.001344 0.003812 -0.002040 -0.002349 -0.002541 -0.003224 0.003321 -0.004592 -0.003422 -0.000782 -0.001472 -0.004843 -0.001061 0.002960 0.002871 0.000273 0.001291 -0.002496 -0.003728 -0.001584 0.002376 -0.001305 0.004251 -0.003116 -0.003132 -0.001257 -0.001149 0.004793 -0.000343 0.003654 0.001176 -0.003845 0.002543 0.002501 -0.002729 -0.001186 0.004296 -0.001381 -0.004404 -0.001509 0.002739 -0.001012 -0.001411 0.001573 0.003174 -0.004678 0.000647 0.004031 -0.000006 -0.003938 0.004855
