6 100
right -0.000855 -0.000220 -0.003290 0.002247 0.000079 0.004450 0.001595 -0.001773 0.003324 0.002993 -0.000354 -0.000072 -0.004830 0.000404 -0.003134 0.002526 -0.002168 0.003666 -0.002082 0.000075 -0.003739 0.004340 0.004793 0.002247 -0.003030 0.004417 0.003496 0.003004 -0.001783 0.002505 -0.003942 -0.002223 0.002756 0.001554 0.001180 0.000291 0.001817 0.004308 0.004442 -0.002489 -0.004696 -0.002512 -0.000689 0.004194 -0.002731 -0.001280 0.001976 0.001832 0.004022 0.001381 0.000393 -0.002291 -0.001820 -0.004506 -0.003925 -0.000884 0.004917 0.001931 -0.004719 0.001789 -0.002976 -0.001245 0.002634 -0.000956 0.002193 -0.000759 -0.000313 -0.000034 -0.002061 -0.004913 -0.003295 -0.000013 -0.002917 -0.000599 -0.002245 0.001993 0.004954 -0.000242 0.004203 0.002111 0.002704 0.000305 -0.004787 0.004049 0.002693 0.000851 0.001888 -0.004835 -0.001364 0.000333 0.003877 0.003983 0.001759 -0.001994 -0.000622 -0.003816 -0.002150 -0.004493 -0.003363 -0.003812
it 0.003283 0.003731 0.000194 0.000370 0.003463 -0.003958 -0.004282 -0.001833 -0.004766 0.000482 0.003884 0.001479 -0.000908 0.002200 0.004332 0.002050 -0.000097 -0.003895 -0.004679 -0.001282 0.004567 -0.000535 0.002651 0.003347 -0.000429 -0.004896 0.003703 0.001794 0.004881 0.003593 0.000066 -0.004139 -0.003339 -0.000340 0.001285 -0.004398 0.001044 -0.003993 0.004493 -0.004033 -0.001917 0.001985 -0.003924 0.000415 0.000414 0.001309 -0.000687 0.004573 0.002382 0.001824 0.003541 -0.002197 0.002511 -0.000681 -0.004999 -0.000204 0.002015 -0.001502 -0.000730 0.001373 0.001450 0.003832 -0.003281 -0.002452 -0.004978 0.004172 -0.003648 -0.003618 0.002335 0.001659 -0.003199 0.004149 -0.002319 0.001473 -0.000094 -0.000800 0.000815 0.001374 0.004332 -0.000120 -0.001543 -0.004243 0.000562 0.002874 0.003059 0.001712 -0.001696 0.000884 0.003935 0.003343 0.002216 -0.002058 0.003451 -0.000613 -0.004572 0.003000 -0.000805 0.002070 0.001614 -0.001656
. -0.001641 0.003936 0.001144 -0.002721 -0.000218 -0.003234 -0.004047 0.001572 -0.003528 -0.004850 -0.002738 0.000859 0.002052 -0.000110 0.003089 0.001067 -0.002005 0.004993 0.003921 0.002844 0.000867 0.000176 -0.004556 -0.003327 0.003126 0.001654 -0.004615 0.003150 0.000620 0.003582 -0.000628 -0.001884 -0.004484 -0.000277 -0.000674 0.000033 -0.004117 0.003713 0.003303 -0.002067 0.002472 0.000890 -0.000195 0.003511 -0.000827 0.001903 0.001418 -0.004667 0.000463 0.002451 -0.002587 0.000901 0.004022 0.001069 0.002437 0.000595 0.001251 -0.000571 0.002232 0.004208 -0.003602 0.002403 -0.000822 0.004048 -0.003725 -0.001151 0.000869 -0.000594 0.004074 0.003989 0.002323 0.000799 0.003424 -0.004473 -0.003069 -0.000236 -0.003142 0.003750 0.004040 -0.004459 0.003883 0.000039 0.003318 0.001120 0.000676 0.002471 0.003233 -0.001707 0.002740 0.000319 -0.003022 -0.002422 -0.001565 -0.001915 -0.000473 0.001799 0.003483 0.000968 -0.002125 0.000060
looking 0.000213 0.000746 0.001532 0.003931 -0.000772 -0.000653 0.004461 -0.002778 -0.004106 -0.002443 -0.002975 0.003658 0.000388 0.004994 -0.001203 -0.003788 0.000699 -0.000651 -0.001612 0.003783 -0.003475 0.004093 0.000346 -0.004231 0.001977 -0.002826 -0.000364 -0.002833 -0.000917 -0.001685 -0.003384 0.000067 -0.001345 0.004906 -0.003922 -0.002118 -0.004332 0.000426 -0.003086 -0.000485 -0.003238 -0.002917 -0.004612 -0.001487 -0.003263 0.002064 -0.001003 0.000568 -0.000970 0.000601 0.000005 -0.001676 0.003419 -0.002530 -0.001756 -0.004893 -0.004273 -0.001861 -0.003358 0.000408 -0.004179 -0.002586 -0.002916 0.003175 0.002948 0.000377 -0.000055 -0.003937 0.004390 0.002745 0.003846 -0.000654 -0.002076 -0.001017 -0.001278 -0.000122 -0.001770 -0.002991 0.003747 -0.001461 -0.002449 0.003542 -0.000972 -0.003213 0.000867 0.001267 0.000555 0.002002 0.001424 -0.000305 -0.000050 -0.003139 -0.002514 0.002591 -0.001740 0.001357 -0.004321 0.001574 0.004281 0.003424
at 0.004809 0.002730 0.002411 0.001191 0.000239 -0.001107 -0.004086 -0.002951 0.003961 -0.000895 0.003237 0.000773 0.001436 0.003779 -0.003204 0.004047 -0.000151 -0.003555 0.002092 -0.002403 0.003982 0.004249 -0.004432 -0.003876 0.004449 0.004784 -0.003620 -0.001020 -0.002807 -0.003063 -0.000697 0.004805 0.002718 -0.001826 -0.003655 0.003199 0.001464 -0.000179 -0.002165 -0.002626 -0.004743 -0.003492 -0.002141 -0.003416 -0.002437 0.003127 -0.000342 -0.001217 0.004814 0.001991 -0.000276 0.004296 -0.004651 -0.001131 -0.004113 0.004910 -0.003115 0.001498 0.000185 -0.003633 0.003265 -0.001249 0.004689 0.002925 -0.002893 -0.002450 -0.000891 -0.001731 0.002678 0.001431 -0.000063 -0.001786 0.003611 0.003162 0.001814 0.004366 0.003581 0.002005 -0.003899 0.003968 -0.000039 -0.002549 0.000536 0.000303 -0.002777 -0.002121 0.001304 -0.004304 -0.001027 -0.000401 0.002335 -0.002033 0.002606 -0.002666 0.004836 0.000200 -0.003243 -0.001751 -0.001087 0.004767
now -0.003323 -0.003770 -0.002909 -0.000524 0.000158 -0.001075 0.002694 0.002733 0.003069 0.003870 0.001331 0.000072 0.000580 -0.000948 0.002474 0.000545 0.001985 -0.002223 0.001541 -0.004023 -0.004458 0.004524 0.001245 0.001822 0.001299 0.001497 0.003017 -0.000348 0.001529 -0.002460 -0.000749 0.000545 0.001015 -0.000152 0.002418 -0.004425 -0.002464 -0.004183 -0.004869 -0.001841 -0.004833 -0.000614 0.001077 0.002165 -0.002802 0.000892 -0.003615 -0.000193 -0.004331 -0.002694 -0.002993 -0.000565 -0.002280 0.001721 0.000138 -0.004337 -0.004931 -0.002800 -0.004467 0.002297 -0.001386 0.003909 -0.003248 0.004307 0.002532 0.001694 -0.000511 -0.003282 0.000421 0.004022 0.001436 -0.003722 0.000186 0.002775 0.001907 -0.003075 0.000977 0.004625 0.004565 -0.002076 0.003672 -0.000769 -0.003064 0.003761 -0.004584 0.004429 0.002117 0.002158 -0.000031 0.002395 0.001860 -0.000725 -0.000507 -0.004534 -0.002824 -0.004988 0.001207 0.000558 0.001981 0.002746
