26 100
, -0.001444 0.004663 0.000121 -0.001292 0.004246 0.003349 0.003979 -0.000743 0.001996 -0.002093 -0.002670 -0.001105 0.002447 -0.004953 0.002988 -0.004690 -0.001698 0.003912 -0.001609 0.001864 -0.002231 0.003555 0.001691 -0.001274 0.000977 -0.001870 -0.001276 -0.002709 0.001692 0.004887 0.001805 0.004881 -0.000978 0.004819 0.003010 0.003133 0.004046 -0.001107 0.003320 -0.004115 0.003839 0.000336 0.001600 0.001899 0.004898 -0.003733 0.002681 -0.000734 -0.000946 -0.003886 -0.004669 -0.000036 0.002725 0.003294 -0.002732 -0.000878 -0.000335 0.002648 0.001489 -0.001587 -0.000725 -0.001496 -0.004444 -0.004063 -0.002264 -0.004416 -0.001995 -0.002399 -0.000447 -0.000443 -0.003579 0.000482 -0.001804 -0.000887 -0.003327 0.000552 -0.000807 -0.004801 -0.000028 0.002344 0.003403 -0.003697 -0.004093 -0.002195 -0.001198 -0.004694 0.002687 -0.004699 -0.002309 -0.002673 -0.003833 -0.002847 -0.000510 -0.004766 0.002502 -0.001073 0.003475 -0.001951 0.001374 -0.004585
. -0.001641 0.003936 0.001144 -0.002721 -0.000218 -0.003234 -0.004047 0.001572 -0.003528 -0.004850 -0.002738 0.000859 0.002052 -0.000110 0.003089 0.001067 -0.002005 0.004993 0.003921 0.002844 0.000867 0.000176 -0.004556 -0.003327 0.003126 0.001654 -0.004615 0.003150 0.000620 0.003582 -0.000628 -0.001884 -0.004484 -0.000277 -0.000674 0.000033 -0.004117 0.003713 0.003303 -0.002067 0.002472 0.000890 -0.000195 0.003511 -0.000827 0.001903 0.001418 -0.004667 0.000463 0.002451 -0.002587 0.000901 0.004022 0.001069 0.002437 0.000595 0.001251 -0.000571 0.002232 0.004208 -0.003602 0.002403 -0.000822 0.004048 -0.003725 -0.001151 0.000869 -0.000594 0.004074 0.003989 0.002323 0.000799 0.003424 -0.004473 -0.003069 -0.000236 -0.003142 0.003750 0.004040 -0.004459 0.003883 0.000039 0.003318 0.001120 0.000676 0.002471 0.003233 -0.001707 0.002740 0.000319 -0.003022 -0.002422 -0.001565 -0.001915 -0.000473 0.001799 0.003483 0.000968 -0.002125 0.000060
to -0.000473 0.004741 -0.002615 -0.004692 -0.004951 0.004798 0.003423 -0.004168 -0.000005 -0.000253 -0.004228 -0.000471 0.004225 -0.004765 0.003992 0.003586 0.001315 -0.002475 -0.000759 0.000756 -0.003882 -0.004096 0.003559 0.001210 -0.000985 -0.002577 -0.001466 0.003085 -0.000439 -0.002945 0.000724 0.003295 0.000215 -0.002485 -0.003841 0.002878 -0.003561 0.000660 0.004069 -0.002739 0.001327 -0.002530 -0.004046 -0.004199 -0.001568 -0.001550 -0.002516 -0.003177 -0.001509 -0.002362 0.001240 -0.004810 -0.002915 -0.004299 0.003797 -0.000020 -0.004306 0.001782 -0.000034 0.003065 -0.004101 -0.003106 0.004644 0.002786 -0.001934 -0.002405 -0.000582 -0.002970 0.003629 0.003885 -0.004440 -0.001301 -0.003667 0.003612 -0.000621 0.001474 0.002296 0.003423 -0.002643 0.001850 0.000984 -0.002674 -0.001046 -0.002241 -0.001217 0.003389 -0.000765 -0.003848 -0.001382 -0.004034 -0.004949 0.000534 0.001911 -0.000393 -0.001854 -0.000729 -0.003701 0.002202 -0.001183 0.000029
Richard 0.002743 0.000488 0.000404 0.000526 -0.000381 -0.004644 0.003999 -0.000999 -0.000289 0.001345 -0.004435 0.004502 -0.004650 -0.003834 0.002085 -0.003112 0.002472 -0.002432 -0.002842 0.003356 -0.003577 0.000934 0.004257 0.002514 0.000442 0.002869 -0.004060 0.001793 -0.002914 0.002563 -0.001129 -0.004777 -0.003693 0.000492 0.002112 -0.001496 -0.002930 0.002839 -0.004187 -0.003032 -0.003125 0.002471 0.001596 -0.001726 -0.001384 -0.003411 0.003190 0.001776 -0.001671 -0.003803 0.003507 0.003990 -0.004453 -0.002279 0.003800 -0.003543 -0.001857 0.004228 0.000870 0.004047 -0.001970 -0.000523 -0.001119 0.000147 0.002914 -0.002249 -0.003918 0.003879 -0.001949 -0.000555 0.004266 0.004741 0.003463 -0.000627 -0.004685 0.002437 -0.003470 -0.001464 -0.001467 -0.004949 0.000403 0.002210 0.000762 -0.002670 -0.002497 0.004237 0.002342 -0.001469 -0.000556 -0.004661 0.000586 -0.002427 0.004206 -0.001462 -0.004050 -0.004987 -0.003023 0.000194 0.002002 -0.002188
able -0.000438 0.004626 0.001529 0.002709 -0.002471 -0.004719 0.000069 -0.004034 0.001986 0.003672 -0.004940 0.004094 0.004941 0.000105 -0.001579 0.000046 -0.002644 -0.001836 -0.001368 -0.000911 0.002934 0.004164 0.000067 0.000891 0.000208 -0.001557 0.002878 0.003923 -0.000326 0.000668 0.000165 0.000846 0.001366 0.001936 0.004076 0.003793 0.004324 -0.002959 0.002937 -0.000155 -0.001062 -0.002984 0.002761 0.002246 -0.000833 0.003958 -0.003610 0.004479 -0.004560 0.000310 0.003027 -0.003437 -0.000728 -0.003644 -0.003820 0.004941 0.003158 -0.004990 -0.001010 0.003940 -0.003522 -0.002562 -0.000613 -0.003257 0.002120 0.000734 -0.000112 0.002200 0.001064 0.000852 0.002018 -0.004274 -0.002194 -0.000989 -0.000465 0.004312 0.001180 -0.004265 -0.002873 -0.000659 0.001095 -0.004723 -0.002445 -0.001313 0.002285 -0.003320 -0.000259 -0.002585 0.002830 0.003091 -0.002934 0.004304 -0.002773 0.000179 -0.001331 0.002082 0.004040 0.001647 0.000543 -0.003001
Sara -0.001809 -0.004364 0.000312 -0.000189 -0.000577 -0.002118 -0.004794 0.004643 -0.001062 0.004132 -0.004642 0.002813 -0.001072 0.004378 -0.003078 0.000215 -0.000279 -0.000100 -0.000786 -0.001562 0.001828 0.004251 -0.000230 0.004581 0.003997 -0.004430 0.002455 0.003259 -0.002764 -0.002937 0.004733 -0.000507 0.003967 -0.003691 0.004490 -0.004443 0.003565 -0.002178 -0.002061 0.000537 0.000350 0.000214 -0.001873 0.000642 0.002297 -0.001894 0.000421 -0.000583 0.003212 -0.004713 0.003937 -0.004569 0.001098 -0.001406 -0.004324 0.002264 -0.001463 -0.003442 0.002903 0.002882 -0.003091 -0.003154 0.003680 0.004612 -0.001844 -0.001771 -0.003296 -0.001221 -0.001100 0.003795 0.001534 -0.002624 0.001217 -0.004572 0.001109 -0.004310 -0.004284 -0.001183 -0.003200 0.004394 -0.000663 -0.004084 -0.002254 -0.003696 0.002672 0.004744 -0.000172 -0.003789 -0.003213 -0.003068 0.002567 0.001670 -0.002539 -0.000271 -0.000646 -0.001941 -0.003794 0.000721 -0.001363 -0.003651
for 0.001351 -0.004257 0.003156 0.002157 -0.001597 -0.001835 0.000899 0.001322 0.004970 0.002945 -0.001552 -0.004167 -0.001882 0.001140 -0.001231 -0.004260 -0.003344 0.001025 0.003714 -0.003487 -0.003406 0.000628 -0.001909 0.004256 -0.002706 -0.001073 -0.002155 0.001777 -0.004327 0.000602 0.004020 0.000513 -0.001516 0.000325 -0.001520 0.000772 0.004042 -0.004111 -0.002370 -0.003896 -0.002331 0.004462 -0.003860 0.002041 0.003075 -0.003797 -0.001958 -0.003647 -0.003287 0.003698 -0.004279 0.004283 -0.000338 0.003292 -0.003124 -0.000479 0.000979 0.001297 0.003951 -0.003100 0.001040 0.003189 0.001448 -0.000077 0.004332 0.003109 -0.001815 0.002479 0.004923 0.002071 -0.004210 0.002874 0.001300 0.004047 -0.002000 -0.001141 -0.000135 0.001505 -0.000761 -0.004952 0.004227 0.001070 0.000053 0.003418 0.001059 0.001495 -0.002552 0.003078 0.003206 -0.002729 0.002793 -0.003908 0.000947 -0.004835 0.000071 0.003178 0.004128 0.001646 -0.000659 0.004818
please 0.000899 -0.004096 -0.000090 0.004858 0.003352 -0.001644 -0.003203 -0.000058 0.000154 0.002143 -0.004030 0.003257 -0.003000 -0.004537 0.002168 0.001789 -0.002880 -0.000859 -0.000283 0.001645 -0.001809 0.000398 0.004566 -0.004498 -0.002109 0.003756 -0.001301 -0.003952 0.003393 -0.000133 0.000468 0.000618 0.000489 0.002753 0.000563 -0.000322 -0.003802 0.000566 0.001251 0.003146 -0.000506 0.002804 -0.004957 -0.003442 -0.001403 -0.000636 -0.004940 -0.002933 -0.001532 0.004460 0.001470 0.002987 0.004625 0.004836 0.003852 0.001922 -0.003974 -0.001275 0.002267 0.000113 0.003104 -0.002717 -0.004225 -0.004349 0.002318 -0.002052 -0.002840 -0.004068 0.004383 -0.001953 0.000277 -0.004010 -0.000371 0.000627 -0.004766 -0.001226 -0.001032 -0.001863 -0.001838 0.002239 -0.002338 0.003964 0.002231 -0.004516 0.004804 0.001978 -0.001645 0.002270 -0.004215 -0.004358 -0.001818 0.004865 0.000466 0.000306 -0.004429 0.000106 -0.001006 -0.002188 -0.004853 -0.002453
access -0.004597 -0.001586 -0.000427 0.003592 0.000289 0.001313 0.002952 -0.002616 -0.002686 0.000204 -0.004540 -0.000917 -0.002869 -0.000765 -0.000600 -0.003506 -0.003851 -0.002124 0.003976 0.002128 -0.003330 0.002591 0.004580 0.004053 0.003881 -0.001510 0.002204 -0.003987 0.002346 0.000866 0.004312 -0.003143 -0.002872 0.004632 -0.004838 0.002337 -0.000491 0.002994 0.004153 -0.002568 0.000831 0.004829 -0.000740 0.004801 0.001078 0.002527 -0.000977 -0.000660 -0.000098 -0.000448 0.004248 0.002854 -0.003365 0.001259 0.004620 0.001067 -0.004035 0.000759 0.001454 0.003012 0.004877 0.002857 -0.002842 -0.002962 0.000977 0.004292 0.001233 -0.002773 -0.001980 0.000909 0.003904 -0.000889 0.004340 -0.004077 -0.001223 -0.004240 -0.003819 0.003284 0.000907 0.001562 -0.003910 -0.001543 0.003302 0.003439 0.001242 0.004872 0.002808 -0.004225 -0.000522 -0.001182 0.004816 -0.004408 -0.001329 -0.003030 -0.003458 -0.002436 0.000432 0.004255 -0.002644 -0.001661
you 0.004685 -0.000271 -0.003975 0.004790 -0.000138 0.003446 -0.003721 -0.000851 0.004985 0.001409 0.000335 -0.003380 -0.001973 0.002590 -0.004523 -0.001485 -0.003901 -0.003661 -0.003995 0.003512 -0.004617 -0.001536 -0.003547 0.000423 -0.003952 -0.000242 -0.001408 -0.002871 0.002419 0.001446 0.001715 -0.000472 -0.004578 0.003246 -0.004215 0.001489 0.002624 0.001244 -0.004926 0.001382 -0.003390 -0.001174 0.000978 0.002425 -0.003540 0.002399 -0.001580 -0.000056 0.004379 -0.003727 -0.003764 0.002082 0.003156 -0.000964 -0.002572 -0.004181 -0.002830 0.004559 -0.001100 -0.004783 -0.004804 0.003811 0.002480 -0.001700 0.002795 0.000467 0.003752 -0.004360 -0.004640 -0.000166 0.000193 -0.003543 -0.002294 0.002228 0.003585 -0.002086 0.004340 0.001085 0.002029 0.004940 0.004508 0.003963 -0.003062 -0.001803 -0.004092 0.003734 -0.000604 -0.001616 -0.000772 0.000818 0.002523 0.003522 0.004667 0.004388 0.001756 -0.002778 -0.001341 -0.004828 0.004888 0.004020
: 0.000282 0.001677 -0.002282 0.003869 0.000609 0.002972 0.004322 0.000660 -0.001589 -0.000261 -0.001499 0.001306 -0.001005 0.002795 0.000704 0.004281 0.000790 -0.002827 -0.003334 -0.004364 -0.001266 0.000903 0.001131 0.004881 0.002875 0.003508 0.001409 -0.003505 -0.001794 -0.000270 0.001524 0.001887 -0.002867 0.002549 0.004979 0.003450 0.000910 -0.000733 0.001791 -0.000378 -0.003015 -0.001029 -0.001428 -0.003801 0.000198 -0.000419 -0.004120 0.001526 0.002388 -0.004891 -0.000208 -0.004572 0.002861 0.000909 0.000350 -0.000507 0.002250 0.004275 -0.003479 -0.002782 0.000690 -0.004864 -0.003455 -0.003420 -0.002328 -0.000286 0.000765 0.004271 -0.002686 -0.002324 0.000671 0.004673 0.002794 0.000529 0.000456 0.001297 -0.000013 0.001436 0.002336 0.002881 -0.002326 0.004802 0.001252 -0.001545 -0.004419 0.004713 0.002745 0.004405 0.003250 0.003305 0.000661 0.001032 -0.000276 -0.004424 0.000100 0.003532 0.002810 0.000195 -0.003994 -0.000685
Notes 0.003859 -0.003791 -0.000367 0.002799 -0.001199 -0.003179 -0.001068 -0.003756 0.003409 -0.002817 -0.002706 0.003206 -0.002066 0.003349 -0.001161 -0.003905 -0.000878 0.004731 -0.001508 -0.000194 -0.003201 0.003668 -0.002025 -0.000138 -0.004930 0.001624 0.002812 0.002597 0.002669 0.003503 0.000050 -0.000836 0.002424 0.001527 0.000269 0.000798 -0.004067 -0.004401 -0.004327 0.001272 0.001586 -0.004631 -0.000134 0.000359 -0.003418 -0.003444 0.002741 0.002997 -0.003846 0.003838 0.000296 0.000590 0.000576 -0.003192 -0.002063 -0.002549 -0.001179 0.003706 0.001000 -0.000827 0.001551 0.002272 0.003622 0.000176 0.003154 0.000432 0.002795 -0.004748 -0.000793 -0.001951 -0.004577 0.003402 0.001477 0.000654 0.003994 0.004342 -0.002746 -0.001366 -0.004927 0.003741 0.004873 0.002647 0.001132 0.004162 -0.004679 -0.000173 -0.004709 0.001255 0.000471 0.001142 0.003848 0.000323 -0.003007 0.002774 0.004853 0.002331 -0.002112 0.001331 0.004680 -0.004533
? 0.001872 0.001633 0.004020 0.000335 -0.004492 0.003484 -0.001688 -0.003658 -0.001848 0.002780 -0.003437 -0.002421 -0.004459 -0.002102 0.003576 -0.003746 -0.002626 -0.000847 0.002021 -0.001022 0.000494 -0.004472 0.000161 0.003360 0.001802 -0.004881 -0.004949 0.000775 0.002501 0.001184 0.000890 -0.001747 -0.001280 -0.002155 -0.003284 0.002109 -0.002255 -0.003358 0.002615 0.003967 -0.000949 -0.003635 0.001923 -0.002402 -0.002520 -0.003986 0.002797 -0.001028 0.004765 0.001888 -0.002489 -0.002793 -0.003736 0.004732 0.002027 -0.001431 0.001947 -0.003605 0.001315 -0.001148 0.002175 -0.001185 0.001206 -0.003503 -0.001991 -0.001608 -0.002120 -0.001318 -0.002959 0.000703 -0.001546 -0.000112 0.001970 0.000514 -0.004801 0.003009 -0.000737 0.000472 -0.001229 0.003156 -0.000130 -0.002549 -0.002755 0.001777 -0.002186 0.000177 0.003880 -0.004664 0.001490 -0.003379 0.004863 0.003372 0.002276 0.001607 0.004826 -0.001688 -0.004462 -0.004337 -0.004587 -0.000300
be 0.003532 -0.004366 -0.001725 0.003562 -0.003974 -0.001416 0.001303 -0.001199 0.002814 -0.001298 -0.001924 0.000580 -0.004071 0.000788 -0.002800 0.000052 0.004481 0.002607 0.003004 -0.001033 0.003192 -0.002429 0.004070 -0.003429 -0.004973 -0.000073 -0.000213 -0.001165 0.000238 -0.000825 -0.002133 -0.004664 0.002463 0.004552 -0.003110 0.004708 0.002699 0.001061 -0.003806 -0.002908 -0.002723 0.004086 -0.004238 0.001413 -0.004188 -0.001935 -0.001350 0.003989 0.001584 0.003756 -0.003161 -0.000265 -0.002090 -0.000584 0.002080 0.000886 -0.001814 0.002730 -0.001025 -0.001038 -0.003296 -0.001858 0.003785 0.004778 0.001831 0.003464 0.002031 -0.003936 0.004585 -0.000743 -0.004422 -0.001763 -0.004829 -0.001838 -0.000638 -0.000581 -0.001509 -0.004767 0.004464 0.003020 -0.004977 -0.000051 0.000646 -0.003022 0.002971 -0.001195 0.001233 -0.004386 0.000230 0.001063 0.004519 0.004150 -0.004634 0.004875 -0.001137 0.000189 0.004724 0.000386 -0.001678 0.000119
Could 0.002099 0.001350 -0.003134 -0.004764 -0.004898 0.001246 0.001123 0.001275 -0.000313 -0.003845 0.002338 0.001087 -0.000042 -0.002337 0.004193 -0.003926 0.002077 -0.004660 0.000151 -0.001566 -0.004718 0.002563 -0.004556 0.001608 -0.002100 -0.001312 -0.000567 -0.000270 0.000708 0.001415 0.002354 0.003489 -0.003403 0.001853 -0.002809 0.004604 -0.001616 -0.004459 0.003485 0.002616 -0.004412 -0.003635 0.003152 0.004095 -0.003021 0.004950 -0.004816 -0.002332 -0.001806 0.003104 -0.003917 -0.003656 -0.000143 0.000075 -0.002458 -0.001029 0.003874 -0.000743 -0.003283 -0.004196 0.001134 -0.004281 -0.000328 0.003228 -0.001758 0.004105 -0.004304 0.004000 0.004650 0.002142 0.002561 -0.000821 -0.004225 0.000630 -0.003235 0.001025 -0.004131 -0.003543 -0.001172 0.000952 0.002163 -0.004424 -0.002005 -0.000826 -0.002425 -0.002255 0.001640 -0.000653 -0.004664 -0.003799 0.000392 -0.001467 -0.004038 0.004627 -0.002281 -0.003314 0.004536 0.001010 0.002320 -0.002059
Tana -0.004434 -0.000836 0.001697 -0.002830 -0.000858 -0.004164 -0.002796 0.000239 -0.004744 -0.004240 0.000839 0.000037 0.000616 0.001102 -0.004823 0.004471 0.004059 0.002464 0.004731 0.003980 0.003117 -0.003598 0.002457 0.002534 0.003980 0.004700 -0.003240 -0.003686 0.003128 0.003475 0.000968 -0.000186 0.000678 -0.001910 0.002106 -0.000191 0.001567 0.000842 0.001903 -0.002419 -0.004416 -0.002256 -0.004893 -0.004673 -0.001600 -0.001149 0.004312 -0.003322 -0.000104 0.000759 0.001287 0.002785 0.000196 0.002972 0.000813 -0.002729 -0.000872 0.001309 -0.001143 0.000949 -0.003489 0.002145 -0.003904 -0.001792 0.002761 0.003208 -0.004864 -0.000991 -0.001417 0.003446 0.001853 0.001000 -0.000527 -0.002809 -0.003133 0.000835 -0.000122 -0.004444 0.003531 0.001676 -0.002982 -0.004734 0.003070 -0.004922 -0.002383 0.001050 -0.004858 0.003757 -0.002033 -0.004907 -0.004231 -0.000408 -0.001840 -0.000886 0.003807 -0.004755 -0.000453 0.004895 0.004291 -0.002515
link 0.004189 0.004440 0.003321 0.001974 0.000947 0.000293 -0.001113 0.004101 -0.004705 0.003055 0.002863 -0.004106 0.004314 -0.004915 -0.002955 0.004882 0.003400 -0.003961 -0.002662 0.004668 -0.003602 -0.001020 0.003846 0.002640 -0.000474 0.004759 -0.000837 0.003519 0.000916 -0.003456 -0.003334 0.001886 0.003444 0.004043 0.004722 -0.000100 0.002794 0.003667 0.004723 -0.000455 0.002325 0.000916 0.000538 0.003305 0.001271 0.004721 0.001586 0.002922 -0.003366 -0.001848 0.003591 0.001382 0.000161 0.001753 0.003221 -0.003315 -0.002717 -0.002335 0.000185 -0.000662 -0.004600 -0.004506 0.001744 -0.000981 0.003885 0.003604 0.000590 0.003229 0.000179 0.001348 -0.003216 0.003636 -0.003632 -0.000738 -0.004562 -0.004953 0.004916 -0.004526 -0.004276 0.003880 -0.000339 0.002417 -0.000720 -0.000102 -0.001980 0.003561 0.002927 0.004639 -0.001092 0.000112 0.000557 -0.002499 -0.003311 -0.003197 0.001149 -0.002288 -0.004276 -0.002399 -0.002031 0.001999
like -0.002593 0.002145 -0.000693 0.000498 -0.001988 -0.004129 0.004835 0.000310 -0.004096 -0.003941 0.004640 -0.003855 -0.002335 -0.003555 -0.001400 -0.000015 0.001312 -0.004829 -0.004026 -0.000758 -0.003259 0.000535 -0.000822 -0.003637 -0.000800 0.002309 0.004914 0.000011 -0.002492 -0.003325 0.001346 0.001417 0.001578 -0.002018 -0.001112 -0.002359 -0.003685 0.002340 -0.000943 -0.001248 -0.002738 -0.002456 0.002164 -0.002512 0.002232 -0.000749 0.002283 -0.003530 0.003012 -0.002531 -0.000562 -0.001923 -0.004233 -0.004321 -0.004768 0.004937 0.001706 -0.001090 0.002136 0.002504 -0.001222 -0.001966 0.002937 0.002257 0.001424 -0.001463 -0.001601 -0.000083 0.003123 -0.001681 -0.001294 0.000312 0.004108 0.000725 -0.003750 -0.003253 0.003203 0.004889 -0.003756 0.002457 0.003483 0.001708 0.003087 0.003679 0.000205 -0.002569 0.001576 0.002379 -0.002546 -0.003641 -0.002931 0.002329 -0.002137 -0.003733 -0.004490 0.004571 0.004152 0.000696 0.004226 0.000671
a 0.000595 -0.001163 0.001331 0.001879 -0.002719 -0.004653 -0.002387 -0.001851 0.003538 0.003546 -0.000689 0.000362 -0.001829 0.001746 0.003698 0.001169 0.002089 0.004021 0.003316 0.000015 -0.002159 0.004835 0.002292 0.003753 0.000442 -0.001165 0.001613 -0.004056 0.004475 0.002771 -0.003075 0.000443 -0.001754 -0.002167 -0.004843 -0.000718 -0.001612 0.002026 0.001385 -0.001849 0.000900 0.002010 -0.003879 0.004940 -0.001997 0.000769 0.000522 0.000939 0.003714 0.000558 0.000142 -0.001616 0.000790 -0.003635 0.001658 0.002747 0.001619 -0.003094 0.003645 -0.001092 -0.002938 0.002345 0.003184 -0.002774 0.001629 0.001477 -0.002425 0.000706 -0.001214 -0.001528 -0.000227 -0.002089 -0.003290 0.000136 -0.002530 0.004583 0.001823 0.000729 0.000081 0.004923 -0.000676 0.002455 0.000539 -0.004169 0.000779 -0.004173 0.000837 -0.002659 0.004911 0.003969 -0.002811 0.003580 -0.000097 0.001049 -0.003997 -0.003039 0.002256 0.002961 -0.003937 -0.003879
CFO 0.003288 -0.001591 0.003737 0.001273 -0.001836 -0.001079 0.000059 0.000894 -0.003339 0.001091 0.003244 -0.002637 0.003241 0.002383 -0.000235 0.000842 -0.000003 -0.003283 -0.002434 -0.001115 0.001669 -0.004806 0.001882 0.004250 0.003538 -0.004305 -0.002259 0.000438 0.004429 0.004657 -0.003713 0.002215 -0.004809 -0.003075 0.003635 -0.002915 0.001321 0.000244 0.004729 -0.003320 -0.004460 -0.001146 0.001304 0.000275 -0.001108 -0.004372 -0.003084 0.003848 -0.001797 0.000577 0.001972 -0.003703 0.000513 -0.003195 -0.001069 0.000599 0.001657 0.001327 0.002909 0.000499 -0.003166 0.000229 -0.002045 -0.004774 -0.004039 0.003309 -0.003495 -0.004741 -0.004690 0.003613 -0.002997 -0.002220 -0.004006 0.002605 0.001049 0.004257 0.001260 0.000774 0.000300 -0.001387 0.004747 0.003100 -0.004985 0.000493 0.001819 0.003063 0.002332 0.002052 0.004652 0.004065 -0.003576 -0.002412 -0.002981 -0.002172 0.000258 0.000931 -0.001350 -0.000306 -0.004434 0.000888
EnronCredit.com -0.004768 -0.002129 0.003619 0.002168 0.001346 -0.001216 -0.004378 0.003089 0.001973 -0.004964 -0.001821 0.001032 -0.002701 -0.001617 0.002659 0.003755 0.003283 0.001805 0.002098 -0.003343 -0.000257 0.003337 -0.002800 -0.000902 0.003452 0.004380 -0.003693 -0.003673 -0.000596 -0.004958 0.001567 0.004635 0.002840 0.003059 -0.000440 -0.000002 0.002539 -0.004520 0.001211 0.003877 0.003129 0.000968 0.003953 0.003985 0.003652 0.002462 -0.003156 -0.002623 0.002725 -0.003549 -0.001569 -0.003405 0.002790 0.002748 0.004330 0.000780 -0.004690 0.003109 -0.002410 -0.000845 0.001149 0.003839 -0.000160 0.003091 0.000287 -0.000266 0.001102 -0.001926 0.000910 -0.000166 0.003622 -0.003916 0.001342 -0.002133 0.002532 0.002634 0.002744 -0.002175 0.001776 -0.000224 -0.002817 -0.002030 0.001144 -0.003697 0.003175 0.004230 -0.001768 0.004918 -0.003300 -0.000190 -0.003983 0.002747 -0.001844 -0.002734 -0.001413 -0.004675 -0.000029 -0.000083 -0.002747 -0.001599
would 0.002471 0.002306 -0.003956 -0.000105 -0.004510 -0.003470 -0.004652 0.002619 -0.001570 0.002845 0.003597 -0.002479 0.000161 -0.004369 -0.004933 0.002464 -0.002164 -0.001165 0.002231 -0.004733 -0.000923 -0.004726 0.001942 -0.001581 0.003591 -0.004837 -0.002131 0.003213 0.003925 0.004172 0.000334 0.000058 0.002393 0.003403 0.002512 -0.004005 -0.001283 0.001099 0.002766 -0.002189 0.002008 0.004345 -0.003082 0.000664 -0.000042 -0.003555 -0.001344 0.003658 -0.004114 0.003730 0.003283 0.001702 0.003551 0.004870 0.002584 -0.000967 0.000911 0.001456 0.001752 0.000640 0.000883 0.003430 0.002381 0.000442 -0.004184 -0.003688 0.000252 -0.001375 -0.001792 0.000791 0.002653 -0.004164 -0.003620 0.000944 -0.002996 0.000573 -0.004835 -0.002814 0.002053 -0.004458 0.002706 -0.001102 0.003516 0.001814 0.004755 -0.000021 -0.002083 0.004637 -0.000769 0.004647 -0.000361 0.000426 -0.003696 0.002355 -0.002817 0.004920 0.002607 0.000779 -0.002265 -0.003299
Lotus -0.002834 0.002127 0.000707 -0.001914 0.002471 -0.001582 -0.004170 -0.004880 0.002372 -0.000439 0.001904 0.002536 -0.002554 0.004627 -0.002815 -0.001194 0.001587 -0.001168 -0.004944 -0.001412 0.003859 0.003344 -0.000488 0.001108 -0.003199 -0.004945 -0.004611 -0.001552 0.002475 0.003951 -0.004622 0.000090 0.003038 -0.001192 0.004793 0.002530 -0.000308 -0.002967 0.003322 0.001461 0.000533 -0.003312 0.002931 -0.000758 -0.000954 0.004243 -0.004359 -0.002145 -0.002352 -0.001677 -0.002792 -0.001207 0.002329 -0.000725 0.003608 0.001926 0.003619 0.000119 -0.002153 0.002800 0.000883 -0.002209 -0.000807 -0.004492 0.004436 -0.004578 0.002407 -0.002451 0.003998 0.000418 -0.000910 0.000658 0.001035 0.000918 0.000299 -0.002325 0.000946 0.001271 -0.001137 0.002274 0.000954 -0.002168 -0.001221 0.002830 0.004314 -0.001184 -0.001363 0.003981 0.000976 -0.001865 -0.003259 -0.002062 -0.001553 0.003438 0.001059 -0.003690 -0.002702 0.000864 0.001474 -0.004023
arrange -0.000463 -0.001481 -0.002513 -0.000026 0.002760 -0.000022 -0.004054 -0.004939 -0.002637 -0.004127 -0.003905 -0.002004 0.003584 0.001720 -0.001561 -0.004059 0.004459 0.002926 -0.001870 -0.004908 0.003717 0.000518 -0.001896 -0.001353 -0.000448 0.000536 0.003249 0.001279 0.000762 0.004181 0.000550 -0.000111 -0.002637 -0.003166 -0.002560 0.000726 0.001772 -0.000576 -0.001311 0.002709 -0.003440 -0.002071 0.001138 -0.002824 -0.004279 -0.000168 -0.004977 0.000786 -0.003098 0.004679 -0.003422 0.004493 0.002887 0.002832 -0.003136 0.004386 0.002538 -0.004750 -0.000994 -0.003694 -0.003524 0.002899 0.000113 -0.000990 -0.001572 0.000493 0.001587 0.000115 0.004593 0.003986 0.000412 -0.003638 -0.001732 -0.000831 -0.003576 -0.000315 0.002893 -0.002475 -0.002694 -0.002060 -0.002438 -0.000244 0.000424 -0.000347 -0.001980 -0.003799 -0.000492 0.000175 0.004283 0.002643 0.000996 -0.002872 0.000539 -0.002549 0.000022 0.003095 0.001703 0.004749 -0.004076 0.000385
Sage -0.003388 -0.000522 -0.003172 -0.003081 -0.002933 0.001865 0.004408 0.002544 0.003408 -0.000771 -0.004508 0.001856 0.004631 -0.004347 0.001297 -0.000117 0.001987 0.004222 0.004768 0.003752 -0.000898 -0.000979 0.000390 -0.003612 0.002285 -0.000517 -0.001359 -0.001116 -0.001402 0.001474 -0.000305 0.000303 0.003968 0.004029 0.002299 0.002042 -0.001130 -0.001522 -0.002405 -0.001104 0.002643 0.004890 -0.004589 -0.004325 0.001775 -0.003509 -0.004362 -0.001280 -0.000795 0.001297 -0.002582 -0.000610 0.004045 0.003341 -0.001628 -0.004513 -0.002100 0.004091 0.003723 -0.001496 -0.004390 -0.003258 0.000793 -0.004353 0.001181 0.000286 -0.001290 -0.000630 -0.003262 -0.002802 0.004679 0.004002 -0.001317 -0.000669 0.001459 -0.000078 0.003227 0.001627 0.002216 0.004430 -0.002918 0.000859 0.004800 0.003123 0.003977 -0.004662 0.000487 -0.004141 -0.000373 -0.002391 0.000376 0.003555 0.004465 -0.004488 -0.004652 -0.003610 -0.004367 -0.002685 0.004240 0.004082
Thanks -0.000934 -0.002261 -0.001524 -0.003992 -0.001110 0.002116 -0.004426 0.002238 -0.003583 0.003893 0.003534 -0.002289 -0.000465 -0.002551 0.001637 -0.000518 -0.001593 0.000574 -0.003960 0.002008 0.004251 0.002244 0.003791 0.000515 0.004781 0.002573 0.002013 0.002630 0.002167 -0.002566 -0.002163 0.002585 0.000495 0.000863 0.003366 0.000787 -0.000400 0.003862 0.004411 0.001873 0.001434 0.000428 0.003584 -0.004449 -0.004077 0.002307 -0.002352 -0.004175 -0.004094 0.004609 -0.001013 0.004889 0.000627 0.003161 0.002762 -0.001955 0.001636 -0.002339 0.003963 0.000876 0.001652 0.003942 0.002237 -0.004137 0.001408 0.000705 0.003327 -0.004626 -0.004083 -0.004632 0.004834 0.001664 0.002104 -0.002614 -0.002565 -0.003608 -0.004650 -0.001715 -0.000281 -0.002702 0.001272 0.003848 0.004684 0.004666 -0.000654 0.000277 0.001055 -0.004076 0.001542 -0.001451 0.001020 -0.002772 0.000372 -0.000995 -0.000650 0.002261 0.000838 -0.002749 -0.000381 -0.004507
