32 100
, -0.001447 0.004659 0.000112 -0.001304 0.004252 0.003360 0.003978 -0.000746 0.001993 -0.002100 -0.002659 -0.001104 0.002443 -0.004943 0.002993 -0.004690 -0.001695 0.003917 -0.001612 0.001866 -0.002221 0.003548 0.001684 -0.001285 0.000971 -0.001872 -0.001272 -0.002715 0.001693 0.004885 0.001802 0.004876 -0.000981 0.004803 0.002999 0.003128 0.004034 -0.001103 0.003311 -0.004107 0.003838 0.000326 0.001600 0.001888 0.004892 -0.003734 0.002690 -0.000740 -0.000933 -0.003885 -0.004675 -0.000039 0.002724 0.003289 -0.002735 -0.000876 -0.000330 0.002645 0.001484 -0.001590 -0.000719 -0.001496 -0.004445 -0.004054 -0.002274 -0.004422 -0.001992 -0.002403 -0.000447 -0.000447 -0.003581 0.000480 -0.001802 -0.000885 -0.003318 0.000549 -0.000809 -0.004790 -0.000022 0.002347 0.003400 -0.003695 -0.004095 -0.002197 -0.001204 -0.004702 0.002686 -0.004705 -0.002313 -0.002673 -0.003831 -0.002844 -0.000502 -0.004752 0.002510 -0.001071 0.003471 -0.001954 0.001379 -0.004583
. -0.001626 0.003933 0.001135 -0.002729 -0.000206 -0.003224 -0.004042 0.001566 -0.003533 -0.004858 -0.002733 0.000852 0.002048 -0.000117 0.003092 0.001070 -0.002004 0.004992 0.003905 0.002848 0.000861 0.000177 -0.004559 -0.003327 0.003136 0.001645 -0.004614 0.003148 0.000608 0.003578 -0.000632 -0.001880 -0.004492 -0.000283 -0.000676 0.000038 -0.004111 0.003719 0.003309 -0.002077 0.002465 0.000894 -0.000196 0.003507 -0.000826 0.001909 0.001424 -0.004672 0.000459 0.002456 -0.002591 0.000906 0.004019 0.001065 0.002431 0.000586 0.001247 -0.000569 0.002215 0.004204 -0.003592 0.002408 -0.000827 0.004052 -0.003727 -0.001158 0.000864 -0.000593 0.004077 0.003986 0.002322 0.000807 0.003433 -0.004482 -0.003063 -0.000244 -0.003139 0.003748 0.004038 -0.004446 0.003884 0.000033 0.003322 0.001113 0.000684 0.002470 0.003238 -0.001712 0.002745 0.000320 -0.003029 -0.002424 -0.001574 -0.001922 -0.000463 0.001791 0.003492 0.000970 -0.002130 0.000066
> -0.002110 -0.004217 -0.002899 -0.004246 -0.002149 0.001906 0.002235 0.001344 -0.002799 -0.001852 -0.000143 0.004600 -0.000811 0.003205 0.002068 0.004951 -0.000019 -0.004423 -0.002117 0.001966 0.002539 -0.002340 -0.001422 -0.001525 0.003914 0.000858 0.000373 -0.000936 -0.002638 -0.001331 0.000570 0.003175 0.001265 0.002689 -0.003799 0.003579 0.001317 -0.002387 -0.000888 0.004649 -0.003798 -0.002386 0.000970 -0.000570 0.001889 0.004804 -0.000782 -0.004850 -0.001792 0.001904 0.002393 0.004261 0.004243 -0.004306 -0.004682 0.003840 0.002567 0.002629 0.000196 0.004376 0.002683 0.003761 0.004308 -0.004017 -0.004971 -0.000448 0.004672 -0.003807 0.000238 0.003124 0.001689 0.002209 -0.003393 0.001982 0.000977 -0.002119 -0.002448 0.003059 0.004193 0.000341 -0.000752 -0.000507 -0.003468 -0.004939 -0.000669 0.001707 0.001869 -0.002940 -0.004384 0.002252 0.001139 -0.001395 -0.002577 0.002359 -0.001327 -0.001641 -0.001667 -0.003182 0.002860 -0.002996
have -0.000511 -0.003156 0.002496 -0.000848 0.002897 -0.001983 0.001065 -0.000765 -0.003408 -0.003749 -0.002101 -0.002706 -0.003625 -0.000482 -0.000581 -0.000702 0.001648 0.004872 -0.003854 -0.003921 -0.002306 -0.002431 0.003695 -0.002287 0.002909 0.003100 -0.002151 0.004529 0.000651 0.000904 -0.002713 -0.003363 0.002957 -0.003965 0.004669 0.003957 0.000591 0.004125 0.004277 0.004316 -0.004795 0.002746 -0.002569 0.003405 0.002572 0.001150 0.000478 0.001973 0.001979 -0.000169 -0.000603 -0.000819 -0.000050 -0.004546 -0.000041 -0.003909 0.000541 -0.000089 -0.004926 0.002884 0.000097 0.002665 -0.003369 -0.000970 0.002102 -0.004651 -0.001116 -0.003315 -0.002846 0.001624 -0.004181 0.002582 0.001781 -0.004129 -0.004482 -0.002655 0.000056 -0.002876 -0.001916 0.000335 0.000335 0.004704 -0.002570 0.002812 -0.002980 0.004672 -0.002801 0.000098 0.001213 -0.004968 -0.004205 -0.003948 -0.002323 0.002914 0.002346 0.004887 -0.000043 -0.003301 -0.001957 -0.003080
find 0.004731 0.003699 -0.002821 0.001160 0.001623 0.004773 0.003683 -0.000225 0.003269 0.000988 0.003124 -0.000951 0.003586 0.002351 -0.001888 -0.001989 -0.004476 -0.003119 0.003462 0.002198 -0.000641 0.002430 0.000120 0.004568 0.004075 0.000891 -0.004023 0.004873 0.003478 0.000301 -0.002956 -0.001683 0.001483 0.003753 -0.000227 -0.001636 0.002430 -0.000587 -0.001688 0.003757 -0.001497 -0.000991 0.000535 -0.002207 -0.002760 0.001777 -0.004126 0.004529 -0.001976 -0.004380 0.004456 0.004297 0.001935 -0.001419 0.003702 -0.000977 0.004418 0.003798 -0.001397 0.004859 0.002655 0.001059 0.001756 0.000523 0.000324 0.000055 0.003377 -0.003990 0.003567 -0.001096 0.001532 0.000607 0.001883 0.002119 -0.002650 -0.001091 -0.001711 0.000096 -0.003943 -0.004273 0.001331 0.001350 -0.004743 -0.003960 -0.002328 0.001032 -0.002694 -0.003736 0.004901 -0.001109 -0.001834 -0.001780 -0.004318 0.004341 0.003052 0.000250 -0.000859 0.004332 -0.001252 0.000954
results -0.001785 -0.001106 -0.004254 0.004790 -0.004633 -0.003034 -0.002740 -0.003792 0.003251 -0.004208 -0.000758 0.000551 -0.004179 -0.001277 -0.003604 -0.004739 -0.002797 0.000997 0.002970 0.002563 -0.004833 0.000593 0.001068 0.001561 -0.001905 0.002087 0.004092 -0.001411 -0.001511 0.004485 -0.003152 -0.004899 0.002767 0.000407 -0.004258 -0.001001 0.002287 -0.002100 0.000292 -0.003899 0.002100 -0.004731 -0.002058 -0.001369 0.001135 -0.003663 -0.004779 -0.001819 -0.004116 0.004124 -0.002263 0.004846 0.001947 -0.001808 0.004391 0.004310 0.004795 0.000640 0.003944 -0.000624 0.002010 0.004300 0.003585 -0.004052 -0.000659 -0.000184 -0.003915 0.003782 -0.003211 -0.003040 -0.001303 0.003352 0.004960 0.002682 0.000508 0.000604 0.001248 0.002942 -0.003872 0.003580 -0.004375 -0.002481 -0.004517 -0.000011 0.003956 0.000773 -0.004501 0.001076 -0.002634 -0.001198 0.001132 0.002359 0.000438 -0.002892 -0.001757 -0.004569 0.000258 0.001815 0.002659 0.002354
copies -0.001133 -0.004129 -0.003887 -0.000543 -0.001435 0.004757 -0.000539 -0.000412 0.004557 -0.002775 0.001541 -0.002346 -0.004088 -0.003753 -0.002004 -0.000469 -0.002600 -0.000769 0.004076 0.003005 0.001301 -0.001472 -0.002653 0.003240 0.004810 -0.003699 0.001715 -0.001038 0.001732 0.001643 0.000510 -0.002542 0.000301 0.004536 -0.001076 -0.002842 -0.003160 0.004499 0.001783 0.002526 -0.004055 -0.002216 0.003689 -0.000087 0.004617 0.003753 -0.000522 -0.002049 -0.001483 -0.002822 -0.000613 -0.000070 -0.000647 0.003731 0.001994 0.003900 -0.000534 0.002971 -0.002825 0.000316 0.004802 -0.000924 -0.003781 0.004217 0.001623 -0.002651 0.003773 0.003672 0.001638 -0.004633 -0.003246 0.000484 0.001896 -0.002375 -0.002138 -0.003182 -0.000172 0.000617 -0.003922 -0.001877 -0.003987 0.004527 0.000109 -0.000064 -0.004172 -0.003321 -0.000572 0.001253 0.000382 0.004086 -0.002013 -0.001011 0.001387 -0.000690 -0.002857 -0.002136 0.003837 -0.000472 0.000318 0.000065
Low 0.002708 0.004008 -0.001623 0.001904 0.004298 0.000928 -0.004999 -0.003302 -0.000366 -0.004684 -0.004756 0.003615 -0.004198 -0.001368 -0.002694 -0.001166 -0.003681 0.003855 0.001175 -0.001634 -0.004256 -0.001267 0.001725 -0.001171 -0.004871 -0.004402 0.004995 -0.003527 -0.000724 0.000665 0.000856 0.004780 -0.000956 0.004033 -0.003145 0.001769 0.000853 -0.004937 0.004298 -0.000899 -0.002429 0.004963 -0.001834 0.002792 0.003536 0.002605 -0.000357 0.002032 -0.000332 0.001059 -0.001484 0.001889 -0.003228 -0.000694 0.003338 -0.000792 0.003503 -0.001546 -0.003900 -0.001325 -0.004165 0.003758 -0.001864 0.001576 -0.002596 0.004790 0.000137 0.004239 -0.002687 -0.001348 0.003611 0.001001 -0.003562 0.000872 -0.002746 -0.001484 0.004396 -0.000483 0.003514 -0.004020 0.003197 -0.002716 0.001471 0.000899 0.002666 -0.002385 0.001746 -0.003650 0.000914 0.003281 0.002991 0.004248 -0.002936 -0.003096 0.002774 0.001241 -0.003410 -0.004519 -0.001031 0.004011
questions -0.003738 -0.002390 0.002277 0.004432 0.002660 -0.003358 -0.004746 -0.000004 -0.002766 -0.004837 0.002150 0.004522 -0.000677 -0.002642 0.000941 0.004739 0.001564 -0.001309 0.003097 0.001515 0.004420 -0.002986 0.001189 0.003098 0.001971 0.000241 -0.003129 0.004540 -0.000394 0.003250 -0.002970 -0.004823 0.001057 -0.002272 -0.000800 -0.004815 -0.003351 -0.003681 0.003013 0.004760 0.002440 0.000235 0.002392 0.002189 -0.000432 0.004182 0.003283 -0.003859 -0.000228 0.003062 -0.004017 -0.004015 -0.004763 -0.002853 0.000802 -0.003866 0.000047 0.004051 0.003750 -0.002825 -0.002859 -0.001272 0.003640 0.001008 -0.003467 0.002504 0.003677 -0.000265 0.003091 -0.000089 -0.001039 0.002062 0.004568 0.003558 0.000446 -0.003515 0.003904 -0.002984 -0.002289 -0.004672 -0.004691 0.001759 0.000177 0.001562 -0.003029 -0.004851 -0.000503 -0.001192 -0.003072 -0.002137 -0.002402 0.000591 0.000284 -0.001606 0.001303 0.002109 -0.000752 0.000795 0.003673 -0.004386
Mukherjee 0.001499 -0.003979 0.000615 0.002357 0.001612 -0.001849 -0.002444 -0.000155 -0.003145 -0.001511 -0.002029 -0.000933 0.000251 -0.004256 0.001682 -0.001976 0.003631 0.004467 -0.002777 -0.003972 -0.002834 0.002762 0.004995 0.001444 -0.002742 -0.004988 0.000975 0.000428 0.001720 0.004185 -0.002991 0.004159 0.000536 0.003254 0.004710 -0.004207 0.001362 0.003689 -0.000859 -0.004822 0.001135 0.001720 -0.002555 0.002462 0.000565 0.003870 -0.003221 0.004883 -0.004257 -0.002743 -0.002675 0.004200 0.003414 0.002899 0.000545 -0.002701 -0.001890 0.001686 0.001515 0.003820 -0.003189 -0.003094 0.003017 0.001159 0.000593 -0.002210 -0.003899 0.003902 0.000286 0.004178 0.002504 0.001618 -0.001638 -0.004547 0.001088 0.001517 -0.001923 -0.002770 0.001996 0.000234 -0.000449 0.003484 -0.000776 0.001823 0.001995 -0.002169 0.001847 -0.002148 -0.004759 0.000950 -0.003468 -0.000268 -0.004939 -0.004841 -0.003861 -0.004946 0.000642 -0.003197 -0.004839 -0.000413
Prices.xls 0.003264 -0.001624 0.001021 0.004233 0.002032 0.003362 -0.003332 0.002921 -0.000593 0.001227 0.002758 -0.003326 -0.003762 0.000371 0.000675 -0.004915 0.001947 0.001299 0.001410 0.002201 0.003709 0.002457 0.002521 -0.000299 -0.004410 0.002462 0.004189 -0.004650 -0.001439 0.002397 -0.003703 -0.003688 0.002551 0.004326 0.004743 0.002218 0.004613 0.001118 0.002678 0.000165 0.000175 0.004178 0.002739 -0.002333 0.001728 0.000019 -0.002699 0.001215 -0.001622 0.003036 -0.000659 0.001618 -0.000696 -0.000553 -0.001611 0.000037 -0.002198 -0.002641 0.004402 -0.003821 -0.002105 0.001066 0.002321 -0.001568 0.001142 -0.001993 0.001437 0.003699 0.003121 -0.003662 0.004518 -0.000264 0.002634 0.003183 -0.001778 0.003517 -0.003515 -0.001085 0.004107 -0.002007 0.003018 0.000682 0.004218 -0.004629 0.000325 0.002102 0.001953 -0.004534 -0.003087 0.001179 0.002833 -0.003787 -0.001586 0.000523 0.000805 -0.000328 0.001401 0.001877 0.004393 -0.002290
Enclosed 0.004419 -0.003753 -0.003434 0.000093 0.002862 0.000442 -0.002688 0.001597 -0.001593 0.000184 -0.002292 0.000171 0.003271 0.003731 -0.003039 0.003533 0.004476 -0.003181 -0.002376 0.004415 0.000565 0.003662 0.002880 -0.002213 0.003678 -0.000064 -0.003955 -0.002170 -0.004777 -0.003226 -0.001509 -0.001674 -0.003670 0.000690 0.003464 0.002463 -0.002945 0.004227 -0.002658 0.002123 -0.001952 0.002218 -0.000609 -0.000922 0.001812 0.002564 0.003239 0.004652 0.000765 0.003268 -0.004060 -0.004296 -0.003582 0.004662 0.001260 -0.003549 0.003460 -0.003119 -0.002542 -0.004292 0.002816 -0.001570 0.002794 0.000263 -0.003616 0.000547 0.004173 0.001917 -0.002935 -0.004466 0.003305 -0.000577 -0.000420 -0.001468 -0.000775 -0.003131 -0.000949 0.003528 -0.004507 0.004574 0.003390 -0.000339 -0.000995 -0.004328 0.004650 -0.001166 0.002544 0.003578 -0.002428 0.002219 -0.004298 -0.000377 -0.001750 -0.002383 0.003886 -0.002764 0.003677 -0.001607 -0.003393 -0.002043
any -0.002806 0.001367 -0.002773 -0.004931 -0.004556 0.002461 0.000708 -0.000143 -0.004466 -0.000448 -0.002203 0.004123 0.004447 -0.001135 -0.001061 0.001072 0.003435 -0.002424 -0.001663 0.002008 -0.002431 -0.002783 0.002989 -0.003644 0.002063 -0.004285 -0.002355 -0.004722 -0.001484 0.002981 -0.004080 0.000970 0.004755 -0.002135 -0.002743 -0.001189 0.001737 -0.003817 0.001175 -0.003829 -0.002791 0.000800 -0.001344 -0.003831 0.000531 0.004082 -0.000023 -0.003350 0.000745 0.000972 0.004041 0.003479 0.000425 -0.001666 0.000301 -0.002028 0.002257 0.004026 -0.002068 -0.001780 0.001118 0.002620 -0.002580 -0.004439 0.000093 -0.004388 -0.001141 -0.003918 -0.003727 -0.000061 -0.003616 0.004452 0.003395 -0.003216 -0.003373 -0.002764 0.004103 0.002129 0.002313 0.001390 -0.004634 0.003517 -0.001066 -0.004649 0.002947 0.004226 0.003509 -0.000876 0.002474 0.001769 0.001168 0.001914 0.000400 -0.004836 0.002093 -0.004895 0.004155 -0.002572 0.004682 0.002906
market -0.003444 0.001191 -0.001779 0.002073 0.004427 -0.000581 -0.001040 -0.004194 -0.002174 0.001826 -0.000241 0.003738 0.002794 0.004477 -0.001203 -0.003593 0.000968 -0.003124 -0.004333 0.002307 0.000265 0.003737 0.002523 -0.001922 -0.004273 -0.000967 0.004504 -0.003464 -0.003713 -0.000975 0.004849 -0.001027 -0.001286 0.001762 0.004997 -0.002989 -0.000910 0.003975 -0.003479 0.002581 0.001236 0.001275 0.004597 -0.004830 0.004603 -0.001480 0.001041 -0.003919 0.004137 0.004978 0.002983 0.004705 0.001440 0.003435 -0.000885 0.001281 -0.000644 0.002867 -0.003465 0.002520 -0.000453 0.000023 0.004348 0.002548 0.002215 0.003427 -0.002562 0.004071 0.000757 -0.001744 -0.000498 -0.000577 -0.001952 -0.003771 -0.001558 -0.001920 0.003688 0.004994 -0.004221 0.002927 0.002929 0.004327 0.001564 -0.000783 -0.004051 -0.004294 -0.001571 0.004001 -0.001738 -0.003035 -0.001750 -0.001115 0.003539 -0.001808 0.001620 -0.000113 -0.001292 0.002872 0.000475 0.002335
if 0.001507 0.003530 0.001218 0.000499 0.000361 0.003752 0.003226 -0.002807 -0.004295 -0.003192 0.004607 -0.003535 -0.004722 -0.004364 0.002364 -0.001802 -0.001109 0.003392 -0.004761 0.004548 0.001427 -0.003304 -0.002804 0.004941 0.001793 0.001074 -0.002213 -0.001169 -0.004989 -0.000460 0.000143 -0.002280 -0.003056 0.003860 0.000622 0.002809 0.000608 -0.001971 -0.000696 -0.004411 0.001576 0.003002 -0.003463 0.000745 0.001378 -0.003615 0.002902 -0.002244 -0.003989 0.003896 0.001369 0.003060 -0.002330 -0.001051 -0.002875 -0.000167 0.001587 0.000301 -0.003755 0.001421 0.004997 0.003965 -0.002830 -0.001154 0.000587 0.002281 -0.002793 0.002116 -0.000247 -0.001025 -0.002564 0.002474 -0.001620 0.002512 0.003262 -0.000314 0.003753 0.001327 0.000409 0.000677 -0.003011 -0.003872 -0.000035 -0.000895 0.003657 -0.001280 0.001126 0.001620 0.002169 -0.002219 -0.001263 0.000275 -0.004856 -0.002669 0.003144 -0.002800 0.001172 0.002696 -0.000195 0.000556
Associate 0.004463 -0.001295 -0.000015 -0.003748 0.003683 -0.004899 -0.000382 -0.004040 -0.002499 0.002774 -0.004407 -0.000811 -0.002086 -0.002303 0.000934 -0.002872 0.002644 -0.002388 0.002657 -0.002998 0.001141 -0.004514 -0.000342 -0.004911 0.002126 0.000839 -0.002776 0.004736 -0.001911 -0.003052 0.004965 0.001128 0.002287 -0.000940 0.000003 0.004591 -0.001043 0.002540 -0.003355 -0.003270 0.001007 0.004398 0.002615 0.002139 -0.002102 -0.001668 -0.002572 -0.001971 0.004825 -0.000487 0.002470 -0.003559 -0.000158 -0.002039 -0.000722 0.003001 -0.001277 0.004882 -0.002665 0.002928 0.002270 0.001308 0.002736 0.000449 -0.001115 -0.001918 -0.001994 -0.004316 0.003097 -0.002245 0.002048 0.002178 0.001603 0.003015 -0.000695 -0.004229 -0.003046 0.000167 0.003958 -0.002433 -0.001368 0.001548 -0.004045 0.001711 0.000227 0.001147 -0.002599 0.000303 0.004809 0.001701 0.002083 -0.004268 0.003118 0.002084 -0.000739 0.001150 -0.000419 -0.002749 0.003895 -0.000090
please 0.000899 -0.004096 -0.000090 0.004858 0.003352 -0.001644 -0.003203 -0.000058 0.000154 0.002143 -0.004030 0.003257 -0.003000 -0.004537 0.002168 0.001789 -0.002880 -0.000859 -0.000283 0.001645 -0.001809 0.000398 0.004566 -0.004498 -0.002109 0.003756 -0.001301 -0.003952 0.003393 -0.000133 0.000468 0.000618 0.000489 0.002753 0.000563 -0.000322 -0.003802 0.000566 0.001251 0.003146 -0.000506 0.002804 -0.004957 -0.003442 -0.001403 -0.000636 -0.004940 -0.002933 -0.001532 0.004460 0.001470 0.002987 0.004625 0.004836 0.003852 0.001922 -0.003974 -0.001275 0.002267 0.000113 0.003104 -0.002717 -0.004225 -0.004349 0.002318 -0.002052 -0.002840 -0.004068 0.004383 -0.001953 0.000277 -0.004010 -0.000371 0.000627 -0.004766 -0.001226 -0.001032 -0.001863 -0.001838 0.002239 -0.002338 0.003964 0.002231 -0.004516 0.004804 0.001978 -0.001645 0.002270 -0.004215 -0.004358 -0.001818 0.004865 0.000466 0.000306 -0.004429 0.000106 -0.001006 -0.002188 -0.004853 -0.002453
Hi 0.001119 -0.002077 -0.002683 -0.001650 -0.004044 0.002010 0.003620 -0.001166 0.003826 0.000990 -0.004545 -0.002499 0.002363 -0.001571 0.003184 0.002714 -0.004861 -0.004843 -0.003245 -0.000325 -0.003379 -0.004810 0.000226 0.001196 0.004423 -0.001486 0.004857 0.000591 0.000692 -0.002542 -0.001968 0.002889 0.001743 -0.004730 0.002123 -0.000571 -0.001482 0.000923 0.001634 0.003674 -0.001255 -0.000919 0.002628 0.000605 0.000951 -0.002699 -0.000302 0.003112 0.004524 0.003019 -0.004144 0.002783 -0.004478 -0.001990 -0.000158 0.003240 -0.000635 0.000206 -0.000210 -0.000679 0.000483 -0.002442 -0.000161 0.003057 0.002418 0.001785 -0.004741 -0.001151 -0.002796 0.003685 0.001898 0.000961 0.002280 0.002580 -0.001048 -0.003577 -0.001049 0.000169 -0.002133 0.004590 0.001365 0.001521 -0.002210 0.002334 -0.003427 -0.002223 0.002020 -0.004285 0.000905 0.000113 0.001100 0.003142 0.002462 0.001039 0.003278 0.002748 -0.003821 0.002816 0.001932 -0.002860
Let 0.002285 0.001797 -0.001858 -0.002722 0.004709 0.003527 -0.003099 -0.003065 0.004121 0.000215 0.002108 0.000772 0.000732 -0.002081 0.003306 0.000186 0.002072 -0.002177 -0.002711 -0.003933 -0.004240 0.000455 0.002922 -0.001391 0.000734 -0.004709 0.003801 0.001044 -0.003551 -0.004053 -0.003726 0.002446 -0.003325 -0.003947 -0.004927 -0.002233 0.002986 -0.003011 0.000169 -0.001381 -0.000859 -0.004599 -0.002840 0.001155 0.003689 0.004551 -0.000818 -0.002633 -0.002755 -0.004169 0.000303 -0.002940 0.003056 -0.001131 -0.004177 -0.002644 -0.000378 0.001476 -0.002065 -0.001364 -0.000446 0.001945 -0.002769 0.003019 -0.003949 0.000119 -0.002937 0.001589 0.002976 -0.001860 0.001895 0.002318 0.002334 -0.003163 -0.000785 -0.001745 -0.000166 -0.004245 -0.001260 0.003355 0.002748 -0.003885 -0.003230 0.001531 0.001000 0.000624 -0.000480 -0.000776 -0.003259 0.001820 0.000302 0.003803 0.000289 -0.003094 0.002404 -0.002889 0.001278 0.002624 -0.004237 0.002633
you 0.004685 -0.000271 -0.003975 0.004790 -0.000138 0.003446 -0.003721 -0.000851 0.004985 0.001409 0.000335 -0.003380 -0.001973 0.002590 -0.004523 -0.001485 -0.003901 -0.003661 -0.003995 0.003512 -0.004617 -0.001536 -0.003547 0.000423 -0.003952 -0.000242 -0.001408 -0.002871 0.002419 0.001446 0.001715 -0.000472 -0.004578 0.003246 -0.004215 0.001489 0.002624 0.001244 -0.004926 0.001382 -0.003390 -0.001174 0.000978 0.002425 -0.003540 0.002399 -0.001580 -0.000056 0.004379 -0.003727 -0.003764 0.002082 0.003156 -0.000964 -0.002572 -0.004181 -0.002830 0.004559 -0.001100 -0.004783 -0.004804 0.003811 0.002480 -0.001700 0.002795 0.000467 0.003752 -0.004360 -0.004640 -0.000166 0.000193 -0.003543 -0.002294 0.002228 0.003585 -0.002086 0.004340 0.001085 0.002029 0.004940 0.004508 0.003963 -0.003062 -0.001803 -0.004092 0.003734 -0.000604 -0.001616 -0.000772 0.000818 0.002523 0.003522 0.004667 0.004388 0.001756 -0.002778 -0.001341 -0.004828 0.004888 0.004020
Case -0.002103 0.002690 -0.004916 -0.002836 0.001959 0.001669 0.004773 -0.003213 0.001233 0.001590 0.002442 0.000481 0.003963 -0.003706 0.003603 0.003032 -0.002629 -0.001491 -0.003781 -0.001726 -0.001186 0.002672 0.004434 -0.001590 -0.003441 0.001928 0.002703 0.000600 0.003186 -0.000069 0.001705 -0.003538 0.000241 -0.004628 0.004653 0.001682 -0.000192 0.000570 0.003369 -0.000872 -0.001139 0.000863 0.001773 0.002045 -0.003657 0.002949 0.001342 0.003212 -0.001147 0.002715 0.000432 -0.001130 0.002402 0.001765 0.000083 -0.001461 -0.004444 0.001823 0.004545 -0.002412 -0.001044 0.004930 0.001720 0.003906 -0.001260 -0.004416 0.000563 -0.002744 0.004757 -0.002710 0.004833 0.000209 -0.003677 0.002911 -0.002841 -0.001590 0.000297 -0.004820 -0.000599 -0.004086 -0.001495 0.001440 0.003706 0.002486 0.002106 -0.004580 -0.001457 -0.003915 0.000871 -0.001655 0.002242 0.002248 -0.001179 0.003625 0.002545 -0.001308 0.000348 0.004712 0.003241 -0.000302
Don 0.004939 -0.004696 -0.003252 -0.000810 0.004322 0.001541 0.001930 0.002974 -0.000901 -0.000362 0.002833 -0.001742 0.001417 -0.004205 -0.001859 0.003720 0.000178 0.000971 -0.003894 -0.002280 0.004835 0.003670 -0.003593 0.000930 0.000468 -0.000616 0.001486 0.000108 0.001416 0.002384 0.004829 0.003087 0.003809 -0.004991 -0.003059 -0.002553 0.003117 0.003013 0.004273 -0.001609 -0.004544 -0.000443 0.003664 -0.003135 -0.004662 0.002042 -0.001841 -0.004853 -0.003751 0.001876 -0.003909 0.001168 0.001275 -0.001191 0.004266 0.000557 -0.004902 0.000428 -0.002977 -0.003511 0.002189 -0.004143 -0.002499 0.004820 0.003908 -0.004264 0.002046 -0.003578 0.003855 0.003153 0.002339 -0.004790 0.004721 -0.000543 0.004850 0.001041 -0.000883 -0.003214 0.003678 0.003927 0.004894 0.001141 0.003177 -0.003312 -0.001773 0.004824 0.001553 -0.002871 -0.000868 0.002607 0.004492 -0.004356 0.000241 -0.000674 0.003705 -0.001753 -0.002134 -0.004388 -0.002033 -0.000494
Hour 0.002914 -0.001537 0.003605 0.004689 -0.003696 -0.000494 0.002614 -0.003283 0.004128 -0.001389 -0.002145 -0.002638 0.001412 0.001907 -0.003623 0.004082 -0.004399 0.002645 0.003343 0.002656 -0.001385 0.002216 0.004778 0.000098 0.003372 -0.004406 -0.002159 0.003976 0.002470 -0.001835 -0.001444 0.000460 0.002703 -0.000423 0.004026 -0.003513 -0.001261 0.000755 0.000731 0.001141 0.003784 -0.003163 -0.001711 0.000965 -0.003550 -0.004120 -0.001759 -0.001782 -0.003422 0.000259 -0.002787 -0.004947 0.000079 -0.004317 -0.001953 -0.001299 0.003860 0.001117 0.003518 -0.001930 0.003896 -0.002301 -0.004819 -0.000610 0.000722 0.004535 -0.003084 -0.004592 0.000458 -0.004274 -0.004637 0.000324 -0.000642 -0.000468 0.000601 -0.004521 -0.004640 -0.004757 0.002061 0.002147 -0.000886 -0.001120 -0.000292 0.003433 0.000330 0.004579 -0.003173 -0.002486 0.001987 0.004657 0.000318 -0.001779 -0.003826 -0.001968 0.002512 0.003615 0.004664 0.004543 0.004516 -0.000451
ICF -0.001822 0.002801 0.003746 -0.000691 -0.004905 0.001018 -0.004727 0.003683 0.004978 -0.004968 0.003321 0.001669 0.003377 0.001015 -0.002189 0.001040 -0.003965 -0.000843 -0.000995 -0.003047 -0.004660 0.003547 -0.003310 -0.000293 0.001158 -0.000880 -0.004031 0.004403 0.000833 -0.000037 0.000321 0.001822 -0.001432 0.002020 0.003689 -0.000522 0.000399 -0.002253 0.004685 -0.003980 -0.001103 0.002597 -0.000439 0.003888 0.003780 -0.001405 0.003918 0.002151 -0.003577 -0.003667 -0.001344 0.001750 0.001634 -0.002371 -0.000689 -0.004325 -0.001678 -0.002974 -0.003898 0.000247 0.003539 -0.002635 0.003420 0.001893 0.001297 -0.000593 -0.001896 0.000850 0.001023 -0.001345 -0.001782 0.002162 -0.004098 -0.004485 0.000535 -0.002894 0.001096 -0.002348 -0.000767 0.004859 0.001650 -0.003878 -0.000908 0.003856 -0.001462 0.002718 0.001728 0.000613 -0.004453 -0.000673 0.002396 -0.004388 0.001227 -0.004788 0.001538 -0.004748 0.004464 0.004914 -0.000041 -0.003313
know 0.002308 -0.000054 0.002909 0.002442 -0.003762 0.001334 0.003658 -0.004964 0.000669 0.001851 -0.003590 0.003741 0.003944 -0.000287 0.004424 0.003039 0.004272 -0.003336 0.004855 0.002086 -0.004587 0.004735 -0.004916 0.004434 0.004900 0.002280 -0.001420 -0.001704 0.001481 -0.004267 -0.004283 -0.000111 0.003871 0.000591 -0.003352 0.003816 0.004094 0.002273 -0.003326 0.002686 0.002935 0.000467 0.004790 -0.003412 0.001575 0.003366 -0.001473 -0.002306 0.002121 -0.003757 0.001795 -0.000712 0.001900 0.002423 -0.003204 -0.000499 -0.001998 0.000013 0.004636 0.003953 0.001655 -0.003184 -0.002174 -0.002653 0.000300 0.000057 -0.001886 -0.003268 0.001378 -0.004434 -0.004189 0.004446 -0.003349 0.000941 0.002960 -0.002874 0.003360 -0.000977 0.002754 0.001062 -0.003230 -0.001637 0.002682 -0.000658 0.003306 -0.003000 0.001091 0.000612 0.002865 0.004469 0.003734 0.001770 0.000863 -0.004504 -0.001254 -0.004626 -0.003800 -0.001220 -0.002146 0.004842
Senior 0.004058 -0.002826 -0.003230 0.001803 -0.002492 0.001300 -0.000679 -0.002237 0.001408 0.001411 0.003254 -0.005002 -0.003937 -0.003750 0.003484 0.002879 0.002554 -0.002292 -0.003785 -0.004600 0.001120 -0.003875 0.001027 0.001097 0.000628 -0.002751 0.004896 0.004992 0.003603 -0.001631 0.004680 -0.000356 -0.000796 -0.001823 0.003403 0.003204 -0.000247 0.001474 -0.002295 0.002024 0.004889 0.000450 0.004139 0.001646 -0.004873 -0.000064 0.003920 0.003744 0.000478 0.000673 -0.003473 0.000579 -0.002941 0.003809 -0.002013 0.003166 0.002570 0.000950 -0.000900 -0.003368 -0.004518 0.001428 -0.001811 -0.000423 -0.000793 0.003298 -0.003847 -0.002141 0.000677 -0.001936 0.000992 0.001535 0.001560 -0.003494 0.003728 -0.001915 -0.004098 -0.002001 0.003924 0.000308 -0.004113 0.000764 0.004097 0.001133 0.004744 0.000243 0.003909 0.003940 0.003609 0.000561 -0.002941 -0.003041 -0.002063 0.004763 0.004722 0.002049 0.001854 0.004709 -0.004737 -0.000499
Gautam -0.000926 0.003515 -0.003042 -0.003517 -0.000376 -0.004035 -0.000534 0.002461 -0.000573 -0.000022 0.003085 0.000421 0.004081 -0.003935 -0.000301 -0.004852 -0.002369 0.002628 0.004881 0.000626 -0.000621 0.004351 -0.004555 0.004234 0.003249 -0.001945 0.003184 0.001859 0.002828 0.001734 0.002572 0.002588 0.000512 0.003542 0.002595 0.004883 -0.004649 -0.003944 -0.000025 -0.001479 0.001776 -0.004592 -0.001042 0.000378 -0.000619 0.003430 0.002778 -0.003689 0.001990 -0.002574 0.000298 0.004389 -0.003402 -0.002273 -0.001006 0.004400 0.003730 0.004609 -0.003880 0.003526 0.003889 -0.004683 0.003240 -0.000511 0.001438 0.002818 -0.001922 -0.004804 0.002968 -0.003883 -0.000931 -0.000414 -0.000725 -0.004484 0.001346 -0.003056 -0.000535 0.004966 -0.000030 -0.003361 -0.003859 -0.004836 -0.001146 -0.001294 -0.004182 -0.000890 0.003487 0.002938 -0.004997 -0.004658 -0.001913 0.001978 0.000111 0.004760 -0.002168 -0.001907 -0.001348 -0.001988 0.000537 -0.000109
me -0.003486 0.004122 0.004910 -0.004561 -0.000716 0.000624 -0.000861 -0.000394 0.003285 -0.001404 -0.002031 0.000896 -0.003983 0.000556 0.000979 0.004857 -0.003306 0.001079 -0.000728 0.001560 -0.004905 0.004157 -0.002809 -0.000093 0.002180 0.000238 0.003206 -0.001177 -0.001638 0.000360 -0.003573 -0.002875 0.001462 0.002719 -0.000402 -0.000134 -0.003471 0.001972 -0.001377 0.000893 -0.004110 -0.001737 0.001487 0.000381 0.001908 -0.004288 0.003182 -0.002390 0.003232 -0.001838 0.002787 -0.001542 0.000180 0.003292 -0.004293 0.002221 0.001987 0.001253 -0.004468 -0.002938 0.001022 0.001728 -0.000830 -0.003546 0.002303 -0.004238 -0.003572 -0.000466 0.003847 -0.001146 -0.001071 -0.000321 -0.003874 -0.004204 -0.003896 0.004701 -0.000979 -0.004628 -0.004590 0.001983 -0.003851 0.003504 0.002842 0.004950 -0.004756 -0.001933 -0.002035 0.001887 0.002365 -0.004764 -0.000712 -0.002150 -0.002430 0.000072 -0.004210 0.002540 -0.004276 0.000322 -0.000670 0.000279
Consulting -0.003473 -0.001691 -0.004600 -0.001480 0.000590 0.000205 -0.003622 -0.001476 -0.000962 -0.002101 0.004748 -0.001411 -0.000496 0.000611 0.000697 0.003558 0.004796 0.003389 -0.004019 0.003104 -0.004878 -0.001723 0.000229 -0.000783 -0.004324 -0.002634 -0.003794 -0.002748 -0.002979 -0.004121 0.004291 -0.004533 -0.001695 0.000671 0.003045 -0.001170 0.000366 0.001860 0.004426 -0.003450 0.003526 -0.000258 0.004642 -0.002239 0.000970 -0.001091 0.002388 -0.001378 -0.003690 -0.000358 0.000746 0.000901 -0.002194 -0.003313 -0.002908 -0.002498 -0.002841 0.001997 -0.002037 -0.002581 0.002915 -0.001024 0.004306 -0.004107 0.002351 -0.001984 -0.002109 -0.004016 0.002569 0.003641 0.004191 -0.004091 -0.000236 -0.000718 -0.000288 -0.001920 0.001259 0.002518 0.002542 -0.000850 -0.002897 0.002251 0.000165 0.003051 0.002490 0.000134 0.000712 -0.001536 0.003669 0.002584 -0.000618 0.003954 0.003322 0.004185 -0.003157 0.001063 -0.004295 -0.001706 0.004150 0.000931
of 0.004280 -0.003763 -0.000631 -0.002401 -0.000040 -0.001038 0.004698 0.000636 -0.000678 -0.002290 0.000415 -0.002276 -0.003523 0.003866 -0.002189 -0.000377 -0.003704 -0.002094 -0.001328 0.002149 -0.004753 0.001457 -0.003262 -0.000359 0.002002 -0.003057 0.001775 -0.000849 -0.000858 0.000741 -0.003989 0.003207 -0.001960 -0.001461 0.000192 0.001589 0.001947 0.003590 0.002000 -0.002137 -0.003155 0.001316 0.001993 -0.004597 -0.003544 -0.000191 0.000412 0.001251 0.003920 -0.000796 0.000975 0.004585 -0.001852 -0.004870 -0.001571 -0.004324 -0.004943 -0.001551 -0.004679 0.001583 0.002940 -0.001244 0.003684 -0.002101 0.002365 -0.004114 -0.000228 0.000855 -0.001275 0.001556 -0.003223 0.003796 0.003744 -0.003806 0.003486 0.000082 -0.000505 0.000407 -0.003413 0.003904 -0.002897 -0.001388 0.004305 -0.002370 -0.000574 -0.002099 -0.001640 -0.004267 0.004119 -0.002011 -0.004358 -0.001765 -0.001659 0.002956 -0.004805 0.001385 0.003223 0.001162 0.002863 0.003519
Thanks -0.000934 -0.002261 -0.001526 -0.003993 -0.001106 0.002118 -0.004428 0.002235 -0.003583 0.003891 0.003533 -0.002291 -0.000466 -0.002557 0.001639 -0.000519 -0.001592 0.000577 -0.003961 0.002007 0.004251 0.002242 0.003794 0.000513 0.004783 0.002572 0.002013 0.002632 0.002168 -0.002566 -0.002160 0.002584 0.000496 0.000865 0.003370 0.000791 -0.000401 0.003865 0.004414 0.001874 0.001435 0.000430 0.003587 -0.004445 -0.004074 0.002308 -0.002351 -0.004175 -0.004095 0.004609 -0.001017 0.004887 0.000627 0.003163 0.002763 -0.001954 0.001638 -0.002337 0.003962 0.000875 0.001652 0.003944 0.002235 -0.004137 0.001407 0.000704 0.003326 -0.004629 -0.004083 -0.004635 0.004836 0.001665 0.002104 -0.002615 -0.002570 -0.003612 -0.004652 -0.001717 -0.000280 -0.002704 0.001273 0.003851 0.004682 0.004668 -0.000654 0.000277 0.001056 -0.004078 0.001543 -0.001450 0.001019 -0.002775 0.000372 -0.000996 -0.000646 0.002263 0.000838 -0.002752 -0.000381 -0.004511
the 0.004959 -0.001650 -0.000723 0.000268 0.003208 -0.001626 -0.003294 -0.004305 -0.001779 -0.003558 -0.002188 0.004466 0.003232 0.002591 -0.002741 0.001923 -0.004399 0.000063 -0.004329 -0.004939 0.001487 0.001781 0.004542 0.001376 -0.003837 0.001573 -0.000799 -0.000391 -0.000511 -0.004040 0.000051 0.002453 0.001364 -0.003936 0.000030 0.000740 -0.001792 0.001934 -0.002128 0.002697 0.004666 -0.002539 0.001180 -0.004771 -0.000527 -0.004562 0.001252 -0.003979 0.000305 -0.000413 -0.004973 0.002097 0.003971 0.003215 0.004708 0.001439 0.000420 -0.002899 0.003028 -0.000420 0.001502 -0.001560 -0.004991 -0.001737 -0.004128 -0.001604 0.001072 0.000334 0.002298 -0.004723 0.003583 -0.002200 0.000662 0.001390 0.003571 -0.000502 0.001647 -0.001310 0.003322 0.002147 -0.003876 -0.000301 0.001260 0.001517 -0.000423 0.002588 0.000223 -0.001356 0.004633 0.000199 -0.002926 -0.003464 -0.004762 -0.004795 0.001607 0.000182 -0.002541 0.001938 -0.004923 -0.001720
