40 100
, -0.001446 0.004659 0.000112 -0.001304 0.004252 0.003360 0.003978 -0.000746 0.001993 -0.002101 -0.002659 -0.001104 0.002443 -0.004943 0.002993 -0.004690 -0.001696 0.003917 -0.001612 0.001866 -0.002221 0.003548 0.001684 -0.001285 0.000972 -0.001872 -0.001271 -0.002715 0.001693 0.004885 0.001801 0.004876 -0.000981 0.004803 0.002999 0.003129 0.004035 -0.001102 0.003311 -0.004107 0.003838 0.000326 0.001600 0.001887 0.004892 -0.003734 0.002690 -0.000740 -0.000932 -0.003885 -0.004675 -0.000038 0.002724 0.003288 -0.002735 -0.000877 -0.000330 0.002645 0.001483 -0.001590 -0.000719 -0.001496 -0.004445 -0.004055 -0.002274 -0.004423 -0.001992 -0.002403 -0.000447 -0.000447 -0.003582 0.000481 -0.001801 -0.000886 -0.003318 0.000549 -0.000809 -0.004790 -0.000022 0.002347 0.003399 -0.003695 -0.004095 -0.002197 -0.001204 -0.004702 0.002685 -0.004706 -0.002312 -0.002674 -0.003832 -0.002844 -0.000503 -0.004751 0.002509 -0.001071 0.003471 -0.001954 0.001379 -0.004583
broker -0.004226 0.000744 0.002961 -0.002906 0.004140 -0.000426 -0.004850 0.003272 -0.004425 0.002889 0.000318 -0.001927 -0.002084 -0.003861 -0.004021 -0.004196 0.000721 -0.001834 -0.004287 0.003799 -0.003745 -0.002565 0.004661 -0.004052 0.004983 0.000032 0.002837 0.003599 -0.003465 0.002978 -0.001474 0.003106 0.004256 0.002411 -0.004019 0.002081 0.000315 0.002810 -0.003397 -0.000306 -0.002075 0.000947 0.002161 0.002228 0.001630 -0.002322 -0.001150 -0.002831 0.001871 0.003099 0.004991 -0.002275 0.004156 0.003821 0.000351 -0.000408 -0.002510 0.000538 -0.001201 0.001151 0.003403 -0.001944 0.000050 0.000901 0.002320 -0.004073 0.004150 0.001573 0.003547 0.002563 -0.004187 0.004527 0.000322 0.004404 -0.004733 -0.001280 -0.002346 -0.003407 -0.001441 0.001937 -0.004897 -0.001587 0.003691 0.004984 -0.000744 -0.003573 -0.004676 -0.003038 0.003710 -0.003898 -0.002064 0.000479 -0.001701 -0.002206 0.004887 0.003103 -0.003460 -0.003821 0.003956 0.005002
25 -0.003559 -0.001742 -0.002970 -0.001711 -0.004452 -0.001279 -0.002667 -0.003641 0.004626 -0.000683 -0.001854 -0.002924 0.000108 0.003866 -0.001095 -0.004187 0.002719 -0.002542 0.002889 0.004420 0.003698 -0.001394 0.003544 0.003315 0.001389 -0.004293 0.001402 -0.001452 -0.004748 0.002618 0.002516 0.000411 0.000951 -0.004246 -0.004509 0.002001 -0.004103 0.003923 -0.002948 -0.002441 -0.004008 0.002766 -0.002691 -0.004046 0.002847 0.004498 0.002090 0.004241 0.003513 0.000207 -0.004776 0.003452 0.002592 0.001896 -0.004253 -0.001889 0.003379 -0.004796 -0.001156 0.004106 -0.002248 0.003110 0.002611 -0.001959 -0.004188 -0.002322 -0.001057 0.002407 -0.004527 0.000620 -0.000785 -0.002874 0.002499 0.003365 -0.001615 -0.004475 -0.004722 0.002690 0.002803 -0.001990 0.000269 -0.002786 -0.000061 -0.003934 -0.000840 -0.000987 -0.000405 -0.004686 -0.004409 -0.004646 -0.003259 -0.001243 0.004113 -0.003345 -0.001789 0.001587 0.000239 -0.000257 0.001002 0.001945
MW -0.002862 0.003807 0.002491 0.003410 -0.000094 0.001919 0.004207 -0.001818 0.002912 0.003936 0.004429 0.004191 -0.004763 -0.002766 0.000404 -0.000656 0.004964 -0.002411 0.004327 0.004715 0.001449 0.004213 0.000368 0.001317 -0.001376 -0.002551 -0.002055 -0.003026 0.000763 -0.000075 0.001688 0.002382 0.002717 0.001685 -0.003215 0.002879 -0.000870 -0.001051 0.001148 0.003946 -0.001019 0.002221 0.003961 0.003318 -0.004592 -0.002612 -0.001115 -0.001661 -0.003811 0.000017 -0.002125 0.003078 0.004693 0.004210 0.003755 -0.002356 -0.000412 -0.001583 -0.003934 -0.003729 0.001211 0.000619 -0.003097 0.002602 0.004609 0.000842 -0.000434 -0.004521 0.000928 -0.003092 0.003915 0.003742 0.000618 -0.001573 -0.001426 -0.002340 -0.001462 0.001147 -0.000891 0.002186 -0.003189 0.000405 0.003774 -0.003210 0.002672 0.003776 0.003480 0.003421 0.003456 0.001746 -0.000782 0.000058 -0.001577 0.003855 0.001079 -0.000874 -0.004292 -0.001652 -0.003204 0.002603
has -0.002216 -0.000537 -0.003243 -0.004511 0.000268 0.001778 -0.002780 -0.004860 -0.004545 0.004160 -0.000647 0.003249 0.001731 0.004401 -0.002860 -0.000087 0.001687 0.003841 -0.000697 0.001433 0.003781 -0.002083 0.002681 -0.004439 0.000030 -0.003053 0.003618 -0.000158 0.000252 -0.002638 0.000097 -0.003176 -0.003257 0.000649 -0.000217 0.002004 -0.000001 -0.002552 -0.004041 0.002521 0.000670 0.002061 0.003309 -0.004729 0.004191 -0.000819 -0.002312 0.003977 0.001809 -0.003881 -0.001830 0.000216 0.002597 0.000301 0.002358 -0.000778 0.004373 0.000187 0.004400 0.002528 -0.004657 -0.002486 0.002615 0.004609 -0.003634 -0.003807 -0.004924 -0.004458 0.002231 0.003354 0.002748 0.003623 -0.000161 0.004100 0.003607 -0.003852 0.000905 0.003806 -0.000179 -0.000978 -0.001473 -0.004499 -0.002207 -0.000388 0.001722 0.002215 -0.000084 -0.002953 -0.001807 -0.004392 0.002479 -0.004846 0.000085 0.003931 -0.000384 0.002308 -0.003628 0.000333 0.002060 -0.002350
with 0.001372 0.002590 0.000181 -0.000899 0.001882 0.000161 0.004756 0.001417 -0.001554 0.001310 -0.002579 -0.003759 0.000171 0.004579 -0.000360 -0.004468 0.003061 -0.000422 -0.000747 -0.002459 -0.002187 0.001186 -0.002503 0.004520 -0.004029 -0.001095 0.001295 -0.004871 0.002633 0.004153 -0.003604 0.000378 0.000508 -0.000497 -0.003686 0.000740 0.000113 -0.003083 -0.000183 0.000487 -0.001218 0.000339 0.001291 0.004460 -0.004564 -0.002181 0.001436 -0.000706 -0.002353 0.000974 0.004217 -0.003976 -0.004263 -0.002894 -0.003196 -0.002652 0.003023 0.000614 -0.004269 -0.002784 -0.002115 0.003246 0.001091 0.004820 -0.002696 0.001843 0.000136 0.004284 -0.004363 0.002684 0.004780 0.004527 0.004270 -0.003848 0.004631 -0.003685 -0.002649 -0.002357 -0.004796 -0.002163 0.000867 -0.003583 -0.001118 -0.003794 -0.002510 -0.000217 -0.003308 0.001401 0.003512 -0.000076 -0.002751 -0.000486 -0.000289 0.003916 0.000441 -0.000092 0.002000 -0.000192 0.000386 -0.003322
he -0.003757 0.000703 0.003588 -0.002612 0.004480 -0.000475 0.000650 -0.000971 -0.001829 0.003612 0.003872 -0.001085 -0.000257 -0.002659 -0.000754 0.001754 0.004759 0.002149 0.003092 0.002556 0.003523 -0.004449 0.002929 -0.001274 -0.003429 0.004256 0.003154 -0.000543 -0.000308 -0.003229 0.003170 -0.001294 -0.002516 0.002338 -0.000941 0.001753 0.002087 0.001073 -0.004990 0.001161 -0.004920 -0.003729 -0.002340 0.001606 0.002374 -0.004603 0.003288 0.001508 0.003502 0.001466 0.003680 -0.000254 0.001985 -0.002698 0.001481 -0.004668 0.003513 0.002047 0.003008 0.001628 0.002873 0.000338 0.004583 -0.003839 0.004637 0.001955 0.004077 0.001599 0.004919 -0.000651 0.004255 0.004920 0.004599 0.001314 0.003340 -0.002683 -0.000250 0.002795 -0.002399 0.002569 0.004278 -0.001218 0.002983 0.004416 -0.001978 0.003455 0.002791 -0.004466 0.004465 -0.002016 0.001951 -0.004760 0.002896 0.000908 0.000773 -0.000187 0.000166 -0.002098 0.000619 -0.004217
on 0.002822 0.004768 -0.002564 0.000604 0.002301 0.004952 0.001839 -0.002241 -0.003514 -0.002860 0.003536 -0.001338 -0.000579 -0.001925 -0.004477 0.004148 -0.001337 -0.001196 0.000900 0.000304 0.002615 -0.000878 0.000088 0.000765 -0.002200 0.004800 -0.003009 -0.001608 -0.000589 -0.000496 -0.003533 -0.002619 -0.004580 0.000893 -0.002429 0.004270 -0.004557 -0.002585 0.002901 -0.003331 0.003570 -0.001571 0.001291 -0.003281 0.000399 -0.004830 0.001171 -0.000289 0.002034 0.003227 0.001694 -0.002882 -0.001641 0.001747 0.000894 -0.003955 0.003951 -0.004819 -0.004656 0.003994 -0.001807 0.001003 -0.004646 0.004128 -0.000057 -0.002491 0.000941 -0.000245 -0.001437 -0.004834 -0.002017 0.000721 0.000167 0.003468 -0.004509 0.003749 0.001514 0.000644 0.001106 0.002631 -0.003881 -0.001905 -0.002279 -0.000303 0.000919 0.003523 0.001434 0.002795 -0.003952 -0.003968 -0.001064 -0.000015 -0.002761 0.002859 -0.001241 -0.002837 -0.003020 0.004744 -0.004508 -0.002248
50 -0.003285 -0.001932 -0.003947 0.004653 -0.003353 -0.002460 0.004817 0.001659 0.000985 0.002533 -0.001815 0.000318 0.003860 -0.003725 -0.001395 0.001018 0.004623 0.002424 0.001921 0.001569 -0.002966 0.000164 -0.000996 0.001520 0.002974 0.001833 -0.000231 0.003584 -0.000762 -0.000776 -0.001918 -0.002019 -0.004313 -0.001677 0.004450 0.002791 -0.002132 0.002654 0.000469 0.001536 0.004215 0.003608 -0.000723 -0.003842 0.002267 -0.002491 0.000754 -0.004657 0.000863 -0.001893 -0.003149 0.001042 0.002730 -0.003274 -0.005002 -0.003987 0.001218 0.003560 -0.000824 -0.000725 0.003182 -0.004972 -0.001025 -0.003814 -0.000211 -0.004999 -0.002210 -0.002476 0.000919 0.002644 -0.001337 0.001070 0.000742 0.002621 -0.004456 0.001948 -0.001406 0.003778 0.003349 -0.000074 -0.004482 0.004802 -0.000975 0.001101 -0.000791 -0.001166 -0.002373 0.001071 -0.002334 0.003081 -0.004164 0.000977 -0.001793 -0.000476 -0.003079 0.001590 0.002900 -0.003747 0.003016 0.002049
this -0.004626 -0.000587 -0.001348 -0.001621 -0.002129 -0.001522 -0.002523 0.003339 -0.003807 0.002758 0.003935 -0.003272 0.004959 -0.002553 0.001326 -0.000132 -0.002899 0.001762 -0.000224 0.003291 -0.004701 0.002064 0.001676 -0.000176 0.004257 0.002783 -0.001931 -0.003896 0.004806 -0.002751 -0.001670 -0.003645 0.000311 -0.003860 0.004080 0.001881 0.002312 -0.000410 -0.004245 -0.003292 -0.003602 0.004185 -0.001543 -0.003319 -0.000213 0.001301 0.004409 0.001733 -0.003589 0.003804 -0.004920 -0.002926 -0.001441 -0.001360 -0.002782 -0.000564 -0.004377 -0.001544 -0.001832 -0.002550 0.002119 0.002720 0.000240 -0.004516 0.001282 -0.004303 -0.001799 0.003034 0.000969 0.001472 -0.003636 0.001536 -0.004611 0.000444 0.001263 0.002987 -0.000604 0.004959 -0.004774 0.000988 -0.002614 -0.001130 -0.002473 -0.000052 0.004941 -0.000778 -0.004026 -0.004096 0.004448 -0.003766 -0.001177 -0.001074 0.003858 0.004869 0.001625 -0.003155 0.001990 0.002353 -0.003381 -0.000208
the 0.004992 -0.001625 -0.000752 0.000297 0.003188 -0.001624 -0.003328 -0.004340 -0.001788 -0.003572 -0.002170 0.004473 0.003269 0.002586 -0.002772 0.001931 -0.004433 0.000047 -0.004329 -0.004925 0.001457 0.001765 0.004587 0.001401 -0.003821 0.001611 -0.000842 -0.000413 -0.000532 -0.004062 0.000031 0.002440 0.001343 -0.003942 0.000023 0.000773 -0.001831 0.001941 -0.002161 0.002681 0.004702 -0.002529 0.001177 -0.004836 -0.000520 -0.004583 0.001300 -0.004012 0.000324 -0.000364 -0.005000 0.002093 0.003991 0.003261 0.004680 0.001424 0.000441 -0.002897 0.003007 -0.000390 0.001518 -0.001565 -0.004996 -0.001745 -0.004134 -0.001629 0.001083 0.000351 0.002339 -0.004761 0.003571 -0.002198 0.000638 0.001454 0.003547 -0.000483 0.001625 -0.001273 0.003345 0.002144 -0.003952 -0.000287 0.001250 0.001506 -0.000422 0.002614 0.000209 -0.001351 0.004619 0.000158 -0.002972 -0.003481 -0.004790 -0.004773 0.001605 0.000138 -0.002587 0.001958 -0.004970 -0.001725
and 0.000144 0.002433 0.001209 -0.000537 0.002977 0.002872 0.004456 0.002465 0.002190 0.004773 0.000051 -0.000984 -0.004917 -0.001538 0.000443 0.003363 0.002197 -0.002398 -0.000350 0.000723 0.001760 0.003712 -0.000871 0.003242 -0.002382 -0.000784 -0.002182 0.001987 -0.004007 -0.004943 0.003532 0.002949 -0.003044 0.003732 0.004502 0.000604 0.003408 0.004723 0.004598 -0.003391 0.003028 0.000941 0.002122 -0.000750 -0.002581 0.003506 0.004638 0.004085 0.003097 0.004465 0.003766 -0.002295 -0.004100 0.001719 -0.001553 0.003841 0.000373 -0.002429 -0.004612 -0.002916 0.001467 0.003582 0.000039 0.001257 0.001644 -0.002424 -0.004748 0.003977 0.003776 -0.004877 0.002330 0.003390 0.001387 -0.004216 -0.001302 -0.004258 -0.004923 0.003352 -0.000974 -0.001374 0.000611 0.001180 -0.000126 -0.002559 0.001072 0.002419 0.000516 -0.000765 0.002995 0.004822 -0.004152 0.004927 -0.004535 0.003870 0.002962 -0.001242 -0.002912 0.001603 0.002381 -0.001427
BPA -0.000883 -0.004348 -0.001233 0.004304 0.000492 -0.003036 -0.004651 0.003224 0.004442 -0.004112 -0.000464 0.004753 0.004708 -0.002535 -0.004413 0.000205 -0.002217 -0.001031 0.003628 -0.003264 -0.001968 -0.001338 0.004951 -0.003629 -0.002400 -0.004281 -0.003022 -0.002568 -0.000755 -0.004558 0.003126 -0.000950 -0.000146 0.001744 0.001930 0.000712 -0.000915 0.003489 -0.004373 -0.001586 0.001513 0.000972 0.004998 -0.001374 -0.002009 0.001591 -0.003407 0.002540 -0.000810 0.004065 0.004727 0.002453 -0.003511 -0.000653 -0.001021 -0.003033 0.003999 0.003193 -0.001851 0.002967 0.004783 0.001561 0.004734 -0.001732 0.001462 0.000455 0.000735 0.002720 0.004526 0.001594 0.003447 0.001378 -0.001079 0.002732 0.002012 -0.000778 -0.003415 0.001131 0.004904 -0.001117 0.000306 0.004326 -0.003991 0.001801 0.004562 0.003431 -0.002800 -0.001530 -0.001421 -0.002771 -0.002721 0.002231 -0.000325 0.000769 -0.001849 -0.002625 -0.003196 0.001102 -0.003599 0.004480
deal -0.001200 -0.003002 0.002151 -0.004944 -0.004210 0.001521 0.002321 0.002028 -0.003265 -0.004485 -0.002081 0.003956 0.002673 0.001325 0.004031 0.002144 -0.000795 -0.004706 0.003149 -0.004503 -0.001192 0.000787 0.003278 -0.000504 0.000086 0.002745 0.003176 0.004314 0.000909 0.004340 -0.004335 -0.004354 0.002972 -0.002323 0.000627 -0.002768 0.000333 -0.004498 0.003778 0.003074 -0.002862 0.001721 0.001855 0.004418 0.004427 0.004852 0.004980 -0.004658 -0.004363 -0.003893 -0.000224 0.000099 -0.000226 -0.000662 0.003716 0.002674 0.000995 0.000884 -0.004807 -0.000647 -0.004662 0.003618 0.003940 0.000387 -0.000141 -0.003500 -0.000310 0.000454 0.004863 0.001322 -0.004607 0.001443 0.003788 -0.001428 -0.000898 0.001330 0.002358 -0.001519 -0.001203 -0.002041 0.000322 -0.004843 -0.002694 0.003646 -0.003311 0.001850 -0.000216 0.002164 0.004751 -0.001095 0.001326 -0.000978 0.001624 0.004569 -0.000273 -0.004302 -0.001080 0.002878 0.000645 0.001108
mike 0.004904 0.001312 -0.003581 0.001784 -0.003433 0.003530 0.003458 0.002053 0.002135 0.003795 -0.002525 0.001096 -0.004401 0.000993 -0.001580 0.002891 -0.000948 -0.000774 0.000198 0.004194 -0.004147 -0.004834 -0.003309 -0.001311 -0.000518 0.002242 0.004251 -0.001363 0.000678 -0.003821 -0.004208 -0.004197 -0.001474 0.001095 0.000531 0.004449 -0.000772 0.002705 0.003009 0.001327 0.004937 0.002436 -0.003195 0.002700 -0.000462 0.002031 0.003623 -0.002383 -0.004315 0.003673 0.001814 -0.004766 0.004972 -0.003085 0.003785 -0.002896 0.004920 0.004410 -0.002008 -0.004034 -0.002547 -0.004835 -0.003613 0.000373 -0.003847 -0.003343 -0.000923 0.000142 -0.003335 0.002063 0.004833 0.001598 -0.004979 0.002435 0.004904 -0.001175 -0.001938 -0.003543 0.003651 -0.000941 -0.003772 -0.002215 -0.000776 -0.003072 -0.002048 0.004952 -0.004381 0.002352 0.004082 -0.003866 -0.004889 -0.001446 -0.004397 0.003116 -0.000632 -0.000205 0.004010 0.003597 -0.003936 0.002617
trade 0.001802 0.004371 -0.004260 0.001675 -0.002353 0.003389 0.004800 -0.001871 0.000795 -0.004303 0.003992 0.003936 0.003660 -0.001822 0.001916 -0.004974 -0.004593 0.003949 -0.003606 -0.001869 -0.002448 -0.003051 -0.003904 -0.004061 0.001418 0.004616 -0.004630 -0.001374 -0.003057 0.001308 0.002015 -0.001929 -0.002064 -0.001399 -0.003221 -0.001148 -0.003771 0.000186 -0.003018 0.001866 0.002990 -0.000749 -0.002621 0.002829 -0.004524 0.004085 0.001381 -0.004658 -0.003559 0.002000 0.003239 -0.000571 -0.004710 0.004676 0.000498 -0.001469 0.001093 0.004192 -0.001989 -0.000508 0.000803 -0.004258 0.003492 -0.004806 -0.003026 -0.003722 -0.001017 -0.004638 0.003543 -0.002971 -0.000597 -0.000397 -0.003774 0.003288 -0.000267 0.001720 -0.002152 -0.001388 -0.003006 -0.004915 -0.002295 0.002032 -0.003288 0.001435 -0.003220 -0.000688 0.000284 0.000928 -0.002287 0.001267 0.001437 -0.001033 0.001950 0.000704 0.001976 0.004076 0.000469 -0.001967 0.004175 0.004479
as 0.004629 0.004763 -0.004087 0.003531 -0.001779 -0.003581 -0.003109 -0.000314 0.003216 -0.003768 -0.001271 -0.001622 -0.003419 0.000031 -0.002412 0.001585 0.000638 -0.001132 -0.000531 -0.003159 0.000381 0.001141 0.001385 0.000336 0.002822 -0.000227 -0.004099 0.002281 -0.001841 0.004949 0.001095 0.000735 -0.002140 0.004361 -0.003253 -0.003617 0.004131 0.000942 -0.003265 -0.002461 0.004917 0.004816 0.004667 -0.004133 0.002328 0.003657 0.004163 0.000233 -0.000501 0.004052 -0.001400 0.003095 0.002762 0.004043 -0.004696 0.000273 0.001521 0.003522 0.001045 0.003724 -0.002030 -0.004038 0.002747 0.004195 -0.003652 -0.003169 -0.002341 0.000147 0.004473 0.001583 -0.003343 -0.001163 -0.003216 0.003498 0.004769 0.001032 -0.002925 0.002416 0.003000 -0.003964 -0.004578 0.001230 -0.002682 -0.003972 -0.004355 -0.002768 0.000266 -0.000670 0.000951 -0.001404 0.003971 -0.003044 -0.004638 0.004425 0.002986 0.000526 -0.003671 -0.004415 -0.003251 0.002736
have -0.000516 -0.003156 0.002498 -0.000846 0.002895 -0.001986 0.001063 -0.000761 -0.003403 -0.003744 -0.002104 -0.002703 -0.003622 -0.000477 -0.000584 -0.000705 0.001649 0.004870 -0.003849 -0.003922 -0.002306 -0.002428 0.003698 -0.002289 0.002905 0.003100 -0.002151 0.004526 0.000655 0.000905 -0.002712 -0.003360 0.002959 -0.003961 0.004670 0.003955 0.000591 0.004124 0.004275 0.004318 -0.004792 0.002744 -0.002566 0.003404 0.002573 0.001147 0.000475 0.001976 0.001981 -0.000174 -0.000602 -0.000821 -0.000049 -0.004543 -0.000041 -0.003907 0.000541 -0.000090 -0.004920 0.002883 0.000095 0.002660 -0.003364 -0.000975 0.002102 -0.004651 -0.001113 -0.003315 -0.002848 0.001624 -0.004181 0.002578 0.001777 -0.004127 -0.004484 -0.002652 0.000054 -0.002876 -0.001918 0.000334 0.000335 0.004705 -0.002573 0.002812 -0.002984 0.004669 -0.002803 0.000098 0.001210 -0.004969 -0.004205 -0.003948 -0.002317 0.002916 0.002340 0.004890 -0.000044 -0.003303 -0.001953 -0.003082
in 0.003101 0.004410 0.002024 -0.001006 0.003412 0.002680 -0.004342 -0.004786 0.000228 0.004128 0.004872 -0.000615 0.000638 -0.003569 -0.001631 -0.003102 0.004087 0.001339 0.000494 0.003283 0.001140 0.004257 -0.002226 0.002123 -0.000041 -0.000804 0.000192 -0.000008 -0.003091 -0.001387 -0.000316 0.002099 -0.003688 -0.001890 0.003379 -0.002289 -0.003540 0.002710 -0.001366 -0.002477 0.001341 0.002166 0.004215 0.001747 -0.004910 0.001888 0.001392 -0.002121 -0.000755 0.003286 -0.003400 0.000148 -0.000196 0.001753 0.001616 0.001519 -0.000172 0.000556 0.000411 -0.003312 -0.004192 -0.004899 0.002027 -0.002744 0.000427 0.001102 -0.000955 0.004393 0.004587 0.002236 -0.001695 0.000879 -0.001684 0.002504 -0.004577 0.002112 -0.002871 0.002838 0.003846 -0.004882 -0.004844 0.002724 0.000551 0.003111 0.001822 0.003220 0.001000 0.000853 -0.004784 0.004766 0.002907 0.003259 -0.003921 -0.004883 0.001325 -0.003884 0.002387 0.004622 -0.000692 -0.004842
go 0.003379 0.000325 0.000684 0.002694 0.001405 0.000791 -0.003212 -0.001970 -0.003884 0.003267 -0.002073 -0.000029 0.004484 0.002595 -0.001650 -0.002759 -0.003850 0.003787 -0.002411 0.002961 -0.004388 -0.004495 -0.000594 0.003661 -0.003420 0.004507 0.000985 -0.004283 -0.002819 0.003256 0.001013 0.003025 0.001014 0.002628 0.001249 -0.000673 -0.001567 -0.004964 -0.000909 0.003466 -0.002968 -0.000668 0.004767 -0.001986 -0.001866 -0.003914 0.003375 0.000529 0.003574 0.003169 -0.001173 -0.004702 0.001521 -0.003835 -0.001221 0.000625 -0.003061 -0.001084 -0.004444 -0.002752 0.001469 -0.000424 0.002435 -0.002635 -0.000977 -0.004276 0.002612 0.001009 -0.002864 -0.004283 -0.000346 0.000855 -0.000523 0.004496 -0.003128 0.002128 0.001397 -0.002068 -0.003086 0.000270 0.003645 0.004344 0.000353 -0.001065 -0.001695 0.002382 -0.003385 0.001343 -0.000029 0.003591 -0.003412 -0.000683 0.004658 -0.001100 0.003657 -0.002551 -0.004449 -0.001676 0.000382 -0.003828
check 0.004616 -0.004528 -0.003510 0.001766 -0.001896 -0.004783 -0.003858 0.001268 -0.000964 0.002064 -0.000280 -0.003616 0.003221 -0.001474 0.000994 0.003790 0.004838 0.000478 -0.002582 0.002798 -0.003213 0.003865 -0.002492 -0.001746 0.000516 0.004277 0.003920 0.000067 -0.003547 -0.003666 -0.001925 -0.004331 -0.004002 -0.002393 0.003963 0.000083 -0.002417 -0.003845 -0.004063 0.001036 0.000690 -0.002891 0.001200 -0.004709 -0.004573 -0.000309 -0.004825 0.004719 -0.000258 -0.001691 0.004303 0.002858 -0.002994 -0.004946 0.000644 -0.001767 -0.004123 0.000224 0.004752 -0.003487 0.002684 -0.001805 -0.001021 -0.003868 -0.001193 0.003676 0.000549 0.002081 -0.001958 -0.004978 -0.001254 0.002208 -0.001465 -0.003886 0.001760 0.000753 0.002261 0.002408 0.002907 -0.000218 -0.003906 0.001311 0.003385 0.000808 0.000427 -0.003382 -0.002351 0.001255 -0.002428 0.000026 -0.004704 -0.002769 -0.003450 0.002832 -0.001302 -0.001938 -0.003719 0.004595 0.001389 -0.004204
sell 0.000022 -0.003434 0.004175 0.004214 -0.002895 0.004953 -0.003788 0.001165 0.001586 -0.001098 0.001641 0.003195 0.002984 0.000733 -0.002455 -0.000836 -0.004432 0.000229 0.001598 -0.000275 -0.004056 -0.002639 0.002707 0.000562 0.002705 -0.003379 0.002704 -0.002220 0.003250 0.004470 0.001164 -0.002403 0.001591 -0.003790 -0.001205 -0.002787 0.003793 -0.004040 0.000845 0.000377 -0.003747 -0.003088 -0.003064 0.003171 0.002171 -0.003832 0.003504 0.000145 0.001480 0.003067 -0.003451 0.004753 -0.000715 0.004086 -0.004732 0.002744 -0.004517 -0.001797 0.002484 -0.002618 -0.003816 0.002485 0.002508 0.000625 -0.000118 0.002514 -0.001255 0.001642 -0.000240 -0.004953 0.004563 -0.001333 -0.003553 -0.001464 -0.004535 0.002454 -0.003487 -0.002026 0.004349 0.003541 -0.000329 0.000937 -0.004879 0.000034 0.003832 0.000490 -0.004983 0.000422 0.001613 -0.002353 0.000739 0.000268 -0.000960 0.004358 0.001637 -0.004704 0.002062 0.003650 0.000823 -0.004112
Mike 0.004286 0.001545 -0.004904 -0.000599 -0.004838 -0.003028 0.002424 0.002935 -0.003871 0.001740 -0.004700 -0.003674 0.001163 -0.001374 0.004486 0.003982 0.000262 -0.001983 -0.001473 0.001517 -0.004373 -0.004580 0.004696 -0.002157 0.000694 0.000042 0.000751 -0.003991 0.004746 -0.002863 0.003590 -0.003596 0.001330 -0.000163 -0.001407 -0.004195 -0.000054 -0.004419 0.002579 0.004935 0.000939 -0.000549 -0.002876 -0.002235 -0.004013 -0.000887 -0.002311 -0.002213 0.002355 -0.003699 0.004310 -0.001967 -0.002698 0.003983 0.001083 0.001799 -0.004493 0.003268 0.003925 0.001063 0.002168 -0.001301 0.001807 0.004492 0.001239 0.003596 -0.000306 -0.002854 0.001521 -0.001087 -0.000696 -0.004177 0.003356 0.004640 0.002992 -0.004335 -0.000372 -0.000055 -0.004716 -0.003598 -0.002404 0.002015 -0.001645 0.001348 -0.001325 0.004917 -0.003742 0.004271 0.004448 0.001095 -0.002477 -0.004265 0.000796 -0.004198 0.004144 0.001137 0.001753 -0.001949 -0.003468 0.002955
said -0.001132 -0.003235 0.000738 0.002331 -0.003452 -0.002920 -0.002746 0.003702 0.002952 0.003387 -0.000851 0.003689 -0.000997 0.003149 0.004422 -0.003426 -0.002990 -0.000464 0.004568 -0.000313 -0.004078 -0.000777 -0.002492 -0.000820 -0.004101 0.004308 -0.002840 -0.002444 0.001008 -0.004427 0.001308 -0.002778 0.004782 0.003920 -0.004777 0.004535 -0.004433 -0.001697 0.003563 -0.002679 -0.001311 0.004663 -0.001298 -0.004380 -0.004714 -0.001962 -0.003575 0.001254 -0.004730 -0.004769 0.004085 0.003367 -0.003355 -0.003485 -0.000369 0.004727 0.004316 0.002364 -0.001249 -0.000712 0.003942 -0.004619 0.003938 0.003877 -0.002681 0.004378 0.001323 -0.001030 -0.002245 0.001353 -0.004999 -0.004891 0.001722 -0.000201 -0.004347 0.000841 -0.002382 0.001648 0.000173 -0.004309 -0.002626 0.000940 -0.002753 -0.002539 -0.002813 -0.001358 0.003139 0.001557 -0.001955 -0.002989 -0.003669 0.004916 -0.004751 -0.000010 -0.002931 -0.003332 -0.002673 -0.004838 -0.001256 0.004948
log 0.000228 -0.002169 -0.000491 -0.001762 0.001257 0.003998 -0.003721 -0.004783 -0.000002 0.003220 0.001906 0.000069 -0.004555 0.001779 0.004595 -0.002622 -0.003163 -0.003170 -0.004410 -0.003991 0.002447 -0.001677 -0.001917 0.004532 -0.001056 -0.004041 0.001451 0.004817 -0.003238 0.000237 0.000696 0.004689 -0.002427 0.002199 -0.003839 0.003294 0.000200 0.003080 -0.003622 -0.003196 -0.002710 -0.001506 -0.000869 -0.004908 0.003946 0.003391 -0.003076 -0.003853 -0.001606 -0.002754 -0.002779 -0.001466 -0.004636 0.004297 -0.003641 -0.003319 0.004152 -0.000841 0.000731 0.001810 0.001154 0.002630 -0.000423 -0.004125 0.002657 0.003155 0.004811 -0.001585 0.000374 0.001389 0.001101 0.003351 -0.002751 0.002047 0.000324 0.002731 -0.003059 -0.001416 -0.004023 -0.000128 -0.003399 0.000057 0.003414 0.001555 -0.002762 -0.002623 0.004611 -0.000190 0.002959 -0.003968 -0.002602 0.003512 -0.004381 0.000747 0.003312 0.001259 -0.002240 -0.003136 0.003576 -0.001316
. -0.001638 0.003939 0.001137 -0.002717 -0.000219 -0.003236 -0.004061 0.001563 -0.003533 -0.004849 -0.002731 0.000856 0.002065 -0.000110 0.003080 0.001065 -0.002016 0.004993 0.003920 0.002847 0.000858 0.000176 -0.004543 -0.003324 0.003124 0.001665 -0.004624 0.003140 0.000615 0.003574 -0.000629 -0.001886 -0.004486 -0.000285 -0.000677 0.000041 -0.004126 0.003712 0.003294 -0.002071 0.002478 0.000895 -0.000194 0.003494 -0.000828 0.001895 0.001431 -0.004675 0.000466 0.002464 -0.002599 0.000901 0.004026 0.001075 0.002430 0.000593 0.001252 -0.000575 0.002230 0.004211 -0.003599 0.002399 -0.000821 0.004048 -0.003730 -0.001158 0.000870 -0.000587 0.004085 0.003984 0.002318 0.000799 0.003417 -0.004462 -0.003073 -0.000234 -0.003146 0.003761 0.004044 -0.004462 0.003867 0.000039 0.003318 0.001119 0.000679 0.002481 0.003228 -0.001712 0.002743 0.000309 -0.003033 -0.002432 -0.001570 -0.001908 -0.000473 0.001787 0.003472 0.000974 -0.002138 0.000056
to -0.000473 0.004743 -0.002617 -0.004692 -0.004953 0.004798 0.003421 -0.004172 -0.000002 -0.000251 -0.004227 -0.000472 0.004224 -0.004764 0.003991 0.003583 0.001318 -0.002476 -0.000755 0.000759 -0.003880 -0.004098 0.003562 0.001211 -0.000988 -0.002576 -0.001467 0.003083 -0.000442 -0.002947 0.000728 0.003294 0.000213 -0.002483 -0.003845 0.002880 -0.003565 0.000661 0.004068 -0.002741 0.001327 -0.002527 -0.004046 -0.004204 -0.001570 -0.001548 -0.002515 -0.003175 -0.001508 -0.002362 0.001240 -0.004807 -0.002915 -0.004298 0.003796 -0.000021 -0.004300 0.001783 -0.000035 0.003069 -0.004101 -0.003108 0.004649 0.002787 -0.001935 -0.002404 -0.000581 -0.002969 0.003631 0.003886 -0.004441 -0.001301 -0.003665 0.003618 -0.000623 0.001472 0.002291 0.003427 -0.002642 0.001846 0.000981 -0.002674 -0.001048 -0.002242 -0.001219 0.003392 -0.000762 -0.003848 -0.001385 -0.004037 -0.004950 0.000533 0.001909 -0.000394 -0.001854 -0.000731 -0.003704 0.002200 -0.001185 0.000030
we 0.003834 0.002964 0.001039 -0.003870 -0.000910 0.001088 -0.002017 -0.000232 0.002418 -0.001528 -0.000314 -0.000659 -0.003488 0.000016 0.000324 0.004911 -0.002544 -0.004769 0.003022 0.000081 -0.001804 -0.002671 -0.001019 0.002930 -0.000956 -0.001161 0.004120 -0.003118 -0.003169 0.003046 -0.001444 -0.003942 -0.004474 -0.001348 -0.002410 0.002163 0.002082 0.002217 -0.001106 0.004573 -0.001120 0.000262 -0.003969 0.000143 -0.004751 -0.000709 0.003377 -0.000195 -0.004815 0.000975 0.000818 0.002812 -0.004640 -0.001761 0.003911 0.003486 -0.000849 0.004207 0.004108 -0.000595 -0.001458 -0.003563 0.001542 0.003205 0.002466 -0.000103 -0.003643 -0.004347 0.004869 0.000203 -0.004479 -0.002850 -0.003457 -0.000733 -0.003949 0.004246 -0.000331 -0.003460 0.003617 -0.003342 0.004125 0.002881 -0.000451 -0.003914 -0.002004 -0.004124 0.003701 0.004609 -0.002288 0.000398 -0.004366 0.001524 -0.000901 -0.004423 0.004996 0.000604 0.002093 -0.003670 0.001875 0.004784
his 0.002003 -0.003603 0.004812 -0.003804 0.002905 0.003463 -0.001927 0.003772 0.002711 -0.001674 0.004942 0.001410 -0.004335 -0.003555 0.003434 -0.003725 -0.003336 0.002818 0.001499 0.003024 -0.004946 0.002126 -0.003527 -0.003920 0.000651 0.000251 0.001958 -0.004764 -0.002623 0.003064 -0.001810 0.004388 -0.000613 -0.004835 -0.001088 -0.002134 -0.004003 0.001698 -0.002859 -0.004217 -0.003653 -0.000376 0.000967 0.001470 -0.004560 -0.003549 -0.003144 0.001433 -0.002980 -0.003424 0.001185 0.001270 -0.002733 -0.004541 -0.000793 0.004692 0.004945 -0.004534 -0.002492 -0.001004 -0.000883 -0.002387 -0.004200 -0.001522 0.001633 0.004989 -0.004511 -0.001282 -0.000064 0.002958 -0.001106 0.002063 -0.002143 -0.002725 -0.001474 0.003285 -0.003261 -0.002084 0.000031 0.001910 0.004550 -0.000353 0.004426 0.000037 -0.004900 0.000829 -0.003645 -0.000750 0.001293 -0.000552 0.003467 -0.003444 0.000372 0.004828 -0.002454 0.000970 0.000044 0.000880 -0.001961 -0.003940
461136 0.001322 -0.004876 -0.000035 -0.000990 -0.000608 -0.001139 0.001953 0.000892 0.004879 0.000199 0.003893 0.001700 -0.004484 0.000094 -0.001866 -0.003709 0.000570 0.001456 0.000733 0.002690 -0.000040 0.004295 0.004965 0.000180 -0.004131 -0.001415 -0.004915 -0.000787 0.003974 -0.001264 0.002230 0.004960 0.001359 0.001575 0.004721 -0.001376 0.003039 0.003404 0.000145 0.001878 -0.001683 -0.004978 -0.002280 0.002655 -0.002916 0.001505 -0.002432 -0.001446 -0.001066 0.002520 0.004037 0.002197 0.004384 -0.004507 -0.003918 -0.000861 -0.001688 0.003557 -0.001936 0.004708 0.000673 0.001462 0.002862 -0.001623 -0.003577 -0.003331 0.002098 -0.003629 -0.004976 -0.004729 0.003281 0.001131 -0.004557 0.001357 0.001821 0.000489 -0.004168 -0.003091 0.004857 0.004351 0.001943 0.002899 -0.001082 -0.001268 0.000230 0.003691 0.004958 0.001201 -0.001857 0.003367 0.001325 0.001581 0.000301 0.003883 -0.004197 -0.003030 0.003514 -0.002939 0.004595 -0.004203
monday 0.004842 0.000912 0.001831 0.000304 -0.000395 -0.000685 0.001441 -0.000124 0.004131 -0.003752 0.003382 0.002956 0.002838 -0.003776 -0.001242 -0.000568 -0.002352 -0.002068 0.002049 0.003197 -0.004117 -0.001721 0.001459 -0.000426 0.001882 0.000878 -0.003429 -0.003417 0.001004 0.002360 -0.004077 -0.003472 -0.003110 0.000473 0.002745 0.001572 -0.002989 0.004684 -0.002592 -0.000749 0.002668 0.002773 -0.004564 0.000621 0.000969 -0.000777 0.004810 0.002389 -0.000891 0.003198 0.002219 0.000752 0.001162 0.003212 0.003930 0.003480 0.002290 0.003064 -0.003810 0.004050 0.003931 0.002987 -0.003079 -0.004470 0.004626 0.002952 0.000685 0.000085 0.001606 -0.002861 0.001870 -0.001649 0.002962 0.003707 0.000398 -0.002209 -0.001460 -0.000420 -0.002202 0.002291 0.000162 -0.000244 -0.004731 -0.004784 -0.003508 -0.000448 0.003211 0.002963 -0.003447 -0.000468 -0.004140 0.001348 0.001567 0.004085 -0.001019 0.001421 -0.000245 0.003837 -0.003562 0.003282
but 0.003560 0.004936 0.002991 0.002376 -0.004521 -0.003679 -0.004714 -0.002638 -0.000605 -0.000407 -0.002065 -0.003935 -0.001557 0.000321 0.004386 0.001748 -0.002789 -0.001498 -0.003057 -0.000653 0.001745 -0.003995 -0.004655 0.000145 0.000871 -0.000463 0.003602 0.000310 -0.000251 -0.001222 -0.003022 0.003294 -0.002675 -0.000978 -0.000833 0.001476 0.000348 0.002880 -0.004751 0.002268 -0.004351 -0.003578 -0.004763 0.002690 -0.001382 -0.001688 -0.002029 -0.003271 0.002737 0.004779 -0.000004 -0.000842 0.004303 0.001816 -0.003021 -0.004949 0.003288 0.004448 0.002554 -0.000308 -0.004687 0.004689 0.000575 -0.004294 0.003902 -0.001453 0.002857 0.003948 0.003946 -0.000520 0.000247 -0.000784 -0.004721 -0.002644 -0.000305 -0.002551 0.002399 0.000350 -0.003627 -0.000854 0.001104 0.000897 0.004266 0.000720 -0.004743 0.000126 -0.001316 0.003963 -0.002708 -0.000912 0.001192 -0.001117 0.003970 -0.000737 -0.002313 0.000990 0.000484 -0.002512 0.003953 -0.002984
'd -0.004848 -0.002599 0.000095 0.001965 0.000358 -0.004859 -0.001675 -0.004987 0.003840 0.000137 0.004878 -0.004304 0.004440 0.004933 -0.004805 -0.004208 -0.003558 -0.004796 -0.001808 0.000369 -0.000797 0.003225 0.002312 -0.002643 -0.004937 0.003717 -0.002728 -0.002038 -0.004998 -0.002764 0.002317 0.001906 0.004649 -0.001215 -0.000615 0.002335 0.002356 0.000113 0.001398 0.004687 0.004216 0.001941 -0.003436 -0.002045 0.002276 0.003435 0.001154 -0.004617 0.004423 0.004261 -0.002508 0.002594 0.003614 -0.000306 -0.003271 0.000721 -0.002523 -0.002089 0.002224 0.002813 0.004236 -0.004777 -0.004344 0.001199 -0.000078 0.004334 0.002624 -0.000180 0.001646 0.000029 -0.003196 -0.003438 -0.001808 -0.001932 -0.001491 -0.004746 0.004784 -0.001098 0.004005 -0.002790 -0.001437 -0.003991 0.002929 0.000002 0.000882 0.003702 0.002165 0.001978 0.000864 0.001921 -0.002177 -0.002921 -0.002813 0.000877 -0.004752 -0.000555 -0.003354 0.003400 0.000359 0.003579
one -0.003191 0.004274 -0.003353 0.001896 0.000533 -0.000434 -0.002650 -0.000292 -0.003223 0.000999 0.001690 -0.004540 0.001034 0.002822 0.004026 -0.001025 0.002504 -0.001614 -0.004618 0.000130 -0.004713 -0.002042 -0.003297 0.004883 0.004708 -0.003741 -0.003147 0.004909 -0.004276 -0.000530 -0.004221 -0.002794 0.003900 0.003880 0.000846 0.001546 -0.003205 -0.004629 -0.004977 -0.004949 -0.003264 -0.002276 -0.001576 0.003306 0.003818 -0.003157 0.002984 -0.003235 0.001790 0.001276 0.000111 -0.002045 -0.000289 0.000301 -0.004224 -0.000731 -0.003698 -0.001288 0.000438 -0.003899 0.002996 -0.000400 0.003794 0.003685 -0.000977 0.003013 -0.000908 -0.001120 0.004914 0.002062 -0.002300 -0.004796 0.000624 -0.001841 -0.004930 -0.003161 0.002512 0.000624 0.002668 -0.001473 0.001238 0.003823 0.004493 -0.002598 -0.002402 -0.001092 0.000460 -0.004318 0.000883 0.002002 -0.003246 0.001588 0.002447 -0.000444 -0.001531 -0.004314 0.000800 0.002014 -0.001973 -0.004020
i 0.003973 -0.004548 0.000087 -0.003033 -0.001637 0.000794 -0.000314 -0.003503 0.004675 0.004065 -0.001909 0.001844 -0.003075 0.003212 -0.002884 0.000996 -0.003868 0.003076 0.002902 0.004870 -0.003137 0.003036 0.003137 0.002518 -0.004039 0.000227 0.004287 0.003026 -0.003612 -0.000811 -0.000230 -0.000549 0.001263 -0.004741 -0.002001 0.001331 -0.004396 -0.002995 0.004931 -0.000947 0.002088 0.002566 0.000027 -0.000426 0.003755 -0.000912 0.002589 -0.000409 -0.000330 0.001360 -0.001542 -0.001170 -0.002690 -0.004374 0.002545 0.001895 0.003437 0.002420 0.003404 0.001745 0.004132 -0.000243 0.004704 0.004679 0.002113 0.001582 -0.000065 0.003525 -0.001350 -0.000258 0.004874 0.003861 -0.003151 -0.002018 0.003674 -0.004165 0.001466 -0.000592 -0.000937 -0.000388 0.002648 -0.002022 -0.000675 -0.004226 0.000921 0.002813 0.002024 -0.001485 -0.004318 -0.004102 -0.004405 -0.002840 0.004694 0.004436 -0.001402 -0.001818 -0.003921 -0.003323 0.001192 -0.000723
double 0.003562 -0.004317 -0.000517 0.004908 -0.000487 0.003237 -0.002949 -0.001143 -0.003206 -0.001675 -0.003339 0.001727 -0.004814 -0.001983 -0.001311 0.000958 -0.003575 0.000095 0.004922 -0.004578 0.004463 0.002596 0.003168 0.002816 0.000076 0.004020 -0.000088 -0.004950 0.000745 -0.002158 0.000943 0.003613 -0.000307 0.001791 -0.000276 -0.000134 -0.002687 -0.000259 -0.003994 0.004453 0.004384 0.001270 0.001115 0.003995 -0.004303 0.002830 0.002946 0.004934 -0.003247 -0.000260 -0.003328 0.003877 -0.000380 0.002919 0.003045 0.002572 -0.004099 0.004326 -0.003346 -0.001314 -0.002616 0.004120 0.004853 -0.003722 -0.003655 -0.001854 0.000932 0.000730 -0.001169 -0.000689 0.003398 0.004240 0.001193 0.000233 -0.001005 -0.000013 -0.004032 0.004025 -0.001127 -0.001443 0.001386 0.004461 0.003331 0.003550 -0.000544 0.000371 -0.000118 -0.000664 0.002814 0.001002 0.002995 -0.004589 -0.000660 0.002285 -0.000306 -0.003515 -0.003887 -0.001885 -0.002767 0.001783
will -0.001119 -0.001193 0.001045 0.002286 0.001707 0.003658 -0.004085 0.003206 -0.002875 -0.000349 0.004377 -0.004693 0.003185 -0.004128 0.002059 -0.003849 0.001384 -0.003728 -0.000645 0.004759 -0.003375 -0.004950 0.004992 0.002752 -0.002204 0.004102 -0.000070 0.003581 0.000013 0.000231 -0.000568 -0.001650 0.003384 -0.000576 -0.002624 -0.003615 0.002633 -0.001377 -0.001279 0.004502 -0.000536 -0.002120 -0.002855 -0.000563 0.000773 -0.004469 0.004774 0.004370 0.002263 -0.004366 -0.003300 0.004321 0.003039 -0.002776 -0.000620 -0.002239 0.000026 0.002270 -0.002573 0.004528 -0.000515 -0.003411 -0.001349 0.003360 -0.004581 0.001883 -0.002540 -0.002353 -0.002689 -0.004856 0.000486 -0.002093 -0.002570 0.003684 -0.002908 -0.004911 0.003343 0.004463 0.001000 -0.001828 0.002561 0.003943 0.002059 0.002168 -0.001610 0.003442 -0.002915 0.000053 -0.001224 -0.002244 -0.003641 -0.002376 -0.002510 -0.002896 -0.003901 -0.002192 0.003324 -0.004638 -0.002601 -0.002702
mw 0.003343 0.004780 0.002422 -0.001636 -0.002725 -0.003378 0.000320 0.002598 0.000815 -0.001916 -0.003321 0.002890 -0.001271 0.002861 0.003612 0.001149 -0.000408 -0.000358 0.001543 0.003826 -0.004837 -0.001157 0.003684 0.000598 0.004573 0.003999 -0.002979 -0.003319 0.003457 -0.004465 0.000229 0.002550 0.003899 0.004267 0.004211 -0.002878 0.003170 -0.000266 0.004821 -0.001890 -0.003059 -0.003969 -0.001528 -0.003888 -0.002936 0.004936 -0.000374 0.001014 0.002580 -0.000113 0.004327 -0.003988 0.001337 0.000212 -0.000790 0.003469 0.001803 0.004030 -0.002361 0.000726 0.000925 0.004525 -0.000682 0.001045 0.004454 0.003943 0.002137 0.004497 -0.000914 -0.004441 -0.000391 0.000496 -0.002110 -0.001009 0.002249 0.003681 0.000100 0.002470 0.000367 -0.000472 -0.001471 0.000234 0.004378 -0.002835 0.003532 -0.004090 -0.001926 -0.000142 -0.004279 -0.002477 0.002275 0.003048 0.001768 -0.002453 -0.001428 -0.003975 -0.004632 -0.003691 -0.000742 -0.002062
Thanks -0.000934 -0.002261 -0.001524 -0.003992 -0.001110 0.002116 -0.004426 0.002238 -0.003583 0.003893 0.003534 -0.002289 -0.000465 -0.002551 0.001637 -0.000518 -0.001593 0.000574 -0.003960 0.002008 0.004251 0.002244 0.003791 0.000515 0.004781 0.002573 0.002013 0.002630 0.002167 -0.002566 -0.002163 0.002585 0.000495 0.000863 0.003366 0.000787 -0.000400 0.003862 0.004411 0.001873 0.001434 0.000428 0.003584 -0.004449 -0.004077 0.002307 -0.002352 -0.004175 -0.004094 0.004609 -0.001013 0.004889 0.000627 0.003161 0.002762 -0.001955 0.001636 -0.002339 0.003963 0.000876 0.001652 0.003942 0.002237 -0.004137 0.001408 0.000705 0.003327 -0.004626 -0.004083 -0.004632 0.004834 0.001664 0.002104 -0.002614 -0.002565 -0.003608 -0.004650 -0.001715 -0.000281 -0.002702 0.001272 0.003848 0.004684 0.004666 -0.000654 0.000277 0.001055 -0.004076 0.001542 -0.001451 0.001020 -0.002772 0.000372 -0.000995 -0.000650 0.002261 0.000838 -0.002749 -0.000381 -0.004507
Kate -0.000273 -0.001891 -0.004075 -0.003648 0.001323 -0.000992 0.001925 -0.001092 0.002738 0.002458 -0.000386 0.001162 -0.001409 0.001371 -0.001883 -0.002165 0.001574 0.000310 0.001945 -0.004190 0.000337 -0.002634 0.002374 -0.002949 0.003385 -0.002561 -0.003390 0.002156 0.001311 0.002559 0.000065 -0.003163 -0.004601 -0.002775 -0.004865 0.001421 -0.003124 0.002282 0.002273 -0.003443 0.000709 -0.001740 0.001836 0.001071 0.000702 -0.002178 0.003417 -0.000569 -0.002461 -0.004992 0.000814 0.000975 0.001870 0.001524 -0.003768 -0.001731 0.002297 0.000722 0.000996 -0.002518 -0.004082 -0.000781 0.000972 0.004206 -0.004460 -0.001132 -0.000080 0.002031 -0.001146 0.004036 -0.000935 0.002731 0.003779 0.001249 0.002545 0.002780 -0.000059 0.001132 -0.004325 0.000734 -0.002052 0.000256 0.004605 0.004357 0.002979 -0.003870 0.002705 -0.002081 -0.004094 0.001360 -0.002563 0.001737 0.000707 0.001686 -0.003490 -0.003886 0.004545 0.003866 0.002335 0.000553
