6 100
and 0.000144 0.002433 0.001209 -0.000537 0.002977 0.002872 0.004456 0.002465 0.002190 0.004773 0.000051 -0.000984 -0.004917 -0.001538 0.000443 0.003363 0.002197 -0.002398 -0.000350 0.000723 0.001760 0.003712 -0.000871 0.003242 -0.002382 -0.000784 -0.002182 0.001987 -0.004007 -0.004943 0.003532 0.002949 -0.003044 0.003732 0.004502 0.000604 0.003408 0.004723 0.004598 -0.003391 0.003028 0.000941 0.002122 -0.000750 -0.002581 0.003506 0.004638 0.004085 0.003097 0.004465 0.003766 -0.002295 -0.004100 0.001719 -0.001553 0.003841 0.000373 -0.002429 -0.004612 -0.002916 0.001467 0.003582 0.000039 0.001257 0.001644 -0.002424 -0.004748 0.003977 0.003776 -0.004877 0.002330 0.003390 0.001387 -0.004216 -0.001302 -0.004258 -0.004923 0.003352 -0.000974 -0.001374 0.000611 0.001180 -0.000126 -0.002559 0.001072 0.002419 0.000516 -0.000765 0.002995 0.004822 -0.004152 0.004927 -0.004535 0.003870 0.002962 -0.001242 -0.002912 0.001603 0.002381 -0.001427
me -0.003486 0.004122 0.004910 -0.004561 -0.000716 0.000624 -0.000861 -0.000394 0.003285 -0.001404 -0.002031 0.000896 -0.003983 0.000556 0.000979 0.004857 -0.003306 0.001079 -0.000728 0.001560 -0.004905 0.004157 -0.002809 -0.000093 0.002180 0.000238 0.003206 -0.001177 -0.001638 0.000360 -0.003573 -0.002875 0.001462 0.002719 -0.000402 -0.000134 -0.003471 0.001972 -0.001377 0.000893 -0.004110 -0.001737 0.001487 0.000381 0.001908 -0.004288 0.003182 -0.002390 0.003232 -0.001838 0.002787 -0.001542 0.000180 0.003292 -0.004293 0.002221 0.001987 0.001253 -0.004468 -0.002938 0.001022 0.001728 -0.000830 -0.003546 0.002303 -0.004238 -0.003572 -0.000466 0.003847 -0.001146 -0.001071 -0.000321 -0.003874 -0.004204 -0.003896 0.004701 -0.000979 -0.004628 -0.004590 0.001983 -0.003851 0.003504 0.002842 0.004950 -0.004756 -0.001933 -0.002035 0.001887 0.002365 -0.004764 -0.000712 -0.002150 -0.002430 0.000072 -0.004210 0.002540 -0.004276 0.000322 -0.000670 0.000279
review -0.003096 -0.001578 0.002444 -0.000692 0.003330 0.003252 -0.000211 0.004755 -0.003363 -0.003191 -0.003038 -0.000926 0.002212 -0.001990 0.002888 0.000826 0.003351 0.004595 -0.001927 -0.001835 -0.002692 -0.001364 -0.004088 -0.000218 -0.004982 -0.001691 -0.003139 0.003918 -0.001245 -0.003077 -0.003449 -0.004662 0.002266 -0.004178 -0.003601 0.004525 -0.002862 -0.003232 -0.002103 0.000440 0.000940 -0.001403 -0.000889 0.002750 -0.000012 -0.001911 -0.003905 -0.002303 0.003658 0.000595 0.002968 0.002293 -0.004500 -0.000596 0.001702 0.004246 -0.004805 0.002309 -0.002192 0.000719 0.004436 -0.000848 -0.003372 -0.002855 0.003163 -0.003820 0.001931 0.001117 0.004534 0.001961 0.003261 0.000219 0.001766 -0.002306 0.002673 -0.004475 0.002431 -0.000962 -0.004790 0.001411 -0.004420 0.001009 -0.003601 0.001699 -0.003642 0.003111 -0.002497 -0.001891 0.004083 0.002113 -0.004813 -0.000168 -0.003313 -0.000850 -0.003815 -0.003873 0.003123 0.002596 0.004105 -0.004857
Please 0.004357 -0.002790 0.003549 -0.001675 -0.003369 -0.002186 0.004823 0.003049 0.004961 -0.002173 0.003077 0.003823 -0.002317 -0.001106 0.000942 0.001952 -0.003362 -0.004808 -0.002489 0.001055 -0.003814 0.004106 0.000722 0.000767 -0.002615 0.003657 -0.003253 -0.002379 0.002493 0.001017 0.003584 0.001759 0.001102 -0.004910 0.004902 0.002137 0.003175 -0.003920 -0.001514 0.003582 0.003224 0.002747 0.004408 0.003079 0.002097 -0.004646 -0.001954 0.001723 0.002256 -0.003590 0.002962 0.004044 0.002875 0.003713 0.002727 0.000175 -0.000811 0.003533 0.000665 -0.000513 0.003963 0.003945 0.002108 0.001836 -0.000799 -0.004808 0.000050 0.004480 -0.004578 -0.000451 -0.004971 -0.003404 0.002121 0.004312 -0.001398 -0.000002 0.003223 0.000851 -0.004328 -0.002640 0.000007 0.000736 0.003069 0.003430 -0.001955 -0.004564 -0.000099 -0.001222 0.003567 -0.004931 -0.002419 0.003784 -0.003759 0.001106 -0.004898 0.002246 0.000727 -0.003010 0.003183 0.000231
. -0.001641 0.003936 0.001144 -0.002721 -0.000218 -0.003234 -0.004047 0.001572 -0.003528 -0.004850 -0.002738 0.000859 0.002052 -0.000110 0.003089 0.001067 -0.002005 0.004993 0.003921 0.002844 0.000867 0.000176 -0.004556 -0.003327 0.003126 0.001654 -0.004615 0.003150 0.000620 0.003582 -0.000628 -0.001884 -0.004484 -0.000277 -0.000674 0.000033 -0.004117 0.003713 0.003303 -0.002067 0.002472 0.000890 -0.000195 0.003511 -0.000827 0.001903 0.001418 -0.004667 0.000463 0.002451 -0.002587 0.000901 0.004022 0.001069 0.002437 0.000595 0.001251 -0.000571 0.002232 0.004208 -0.003602 0.002403 -0.000822 0.004048 -0.003725 -0.001151 0.000869 -0.000594 0.004074 0.003989 0.002323 0.000799 0.003424 -0.004473 -0.003069 -0.000236 -0.003142 0.003750 0.004040 -0.004459 0.003883 0.000039 0.003318 0.001120 0.000676 0.002471 0.003233 -0.001707 0.002740 0.000319 -0.003022 -0.002422 -0.001565 -0.001915 -0.000473 0.001799 0.003483 0.000968 -0.002125 0.000060
call -0.003822 -0.000553 0.003487 -0.001825 0.003977 0.000319 -0.000686 0.001111 -0.003191 0.002311 0.000537 0.001880 0.000146 -0.004259 -0.000509 -0.000379 0.001800 0.000829 -0.001834 -0.001626 0.002665 0.002531 -0.001954 0.003693 -0.002417 -0.000219 0.000759 0.002183 0.000598 0.000563 0.000876 0.000708 -0.000889 0.004135 -0.004809 -0.001766 -0.001429 -0.001793 -0.000352 -0.004487 -0.002473 -0.003797 -0.002912 -0.002868 -0.004015 -0.000311 -0.002762 -0.004712 0.001053 0.000091 0.002690 0.002138 -0.002853 -0.004381 -0.001498 0.004891 0.001650 0.003954 -0.004480 -0.001774 -0.001637 -0.000412 0.000827 0.002030 -0.001033 0.002535 -0.000409 -0.004192 0.000766 0.004617 0.003009 0.003890 -0.000911 0.000110 -0.002801 -0.002065 0.004050 0.000026 -0.001350 0.001030 0.004783 0.002923 -0.002172 -0.004038 -0.004147 -0.001995 0.000357 -0.001429 0.004037 0.001304 0.001622 0.003858 -0.002571 -0.001460 0.002024 0.003889 0.001007 -0.002931 -0.001937 0.004321
