17 100
, -0.001446 0.004659 0.000112 -0.001304 0.004252 0.003360 0.003978 -0.000746 0.001993 -0.002101 -0.002659 -0.001104 0.002443 -0.004943 0.002993 -0.004690 -0.001696 0.003917 -0.001612 0.001866 -0.002221 0.003548 0.001684 -0.001285 0.000972 -0.001872 -0.001271 -0.002715 0.001693 0.004885 0.001801 0.004876 -0.000981 0.004803 0.002999 0.003129 0.004035 -0.001102 0.003311 -0.004107 0.003838 0.000326 0.001600 0.001887 0.004892 -0.003734 0.002690 -0.000740 -0.000932 -0.003885 -0.004675 -0.000038 0.002724 0.003288 -0.002735 -0.000877 -0.000330 0.002645 0.001483 -0.001590 -0.000719 -0.001496 -0.004445 -0.004055 -0.002274 -0.004423 -0.001992 -0.002403 -0.000447 -0.000447 -0.003582 0.000481 -0.001801 -0.000886 -0.003318 0.000549 -0.000809 -0.004790 -0.000022 0.002347 0.003399 -0.003695 -0.004095 -0.002197 -0.001204 -0.004702 0.002685 -0.004706 -0.002312 -0.002674 -0.003832 -0.002844 -0.000503 -0.004751 0.002509 -0.001071 0.003471 -0.001954 0.001379 -0.004583
. -0.001641 0.003936 0.001144 -0.002721 -0.000218 -0.003234 -0.004047 0.001572 -0.003528 -0.004850 -0.002738 0.000859 0.002052 -0.000110 0.003089 0.001067 -0.002005 0.004993 0.003921 0.002844 0.000867 0.000176 -0.004556 -0.003327 0.003126 0.001654 -0.004615 0.003150 0.000620 0.003582 -0.000628 -0.001884 -0.004484 -0.000277 -0.000674 0.000033 -0.004117 0.003713 0.003303 -0.002067 0.002472 0.000890 -0.000195 0.003511 -0.000827 0.001903 0.001418 -0.004667 0.000463 0.002451 -0.002587 0.000901 0.004022 0.001069 0.002437 0.000595 0.001251 -0.000571 0.002232 0.004208 -0.003602 0.002403 -0.000822 0.004048 -0.003725 -0.001151 0.000869 -0.000594 0.004074 0.003989 0.002323 0.000799 0.003424 -0.004473 -0.003069 -0.000236 -0.003142 0.003750 0.004040 -0.004459 0.003883 0.000039 0.003318 0.001120 0.000676 0.002471 0.003233 -0.001707 0.002740 0.000319 -0.003022 -0.002422 -0.001565 -0.001915 -0.000473 0.001799 0.003483 0.000968 -0.002125 0.000060
Elizabeth 0.003440 -0.002785 0.001292 -0.002091 -0.004960 0.003546 0.004214 0.000685 0.002598 -0.000073 0.000019 0.003792 0.004130 -0.003755 -0.002639 0.003903 0.001710 0.001883 0.004988 -0.003103 -0.004876 0.000725 -0.000679 -0.001257 -0.000157 0.004454 0.002631 -0.004851 0.004367 0.000936 0.000143 0.000129 0.000652 -0.001613 0.001809 -0.002231 0.002279 -0.001566 0.002899 0.002288 -0.004612 0.000801 0.000949 0.004396 -0.001750 0.004048 0.000510 -0.000017 -0.002154 -0.001988 0.001894 -0.002932 0.004243 -0.003113 0.004882 -0.001192 0.003596 -0.001882 -0.000252 0.001273 0.004574 -0.003553 -0.003443 -0.000442 0.003309 -0.003964 0.004813 0.002412 -0.001727 -0.002974 0.000888 -0.001062 -0.000434 0.000301 0.000031 0.000972 0.003894 0.001882 -0.002978 -0.003884 0.000527 0.003353 -0.003104 -0.002955 -0.001685 0.004599 0.001732 -0.000790 0.001860 -0.003548 0.003416 0.004004 0.004747 0.000071 -0.002732 -0.003833 -0.000388 0.004007 -0.004908 -0.002331
for 0.001353 -0.004254 0.003151 0.002151 -0.001595 -0.001829 0.000901 0.001320 0.004967 0.002948 -0.001546 -0.004169 -0.001878 0.001144 -0.001232 -0.004261 -0.003346 0.001024 0.003711 -0.003485 -0.003401 0.000623 -0.001910 0.004253 -0.002710 -0.001077 -0.002150 0.001778 -0.004328 0.000602 0.004018 0.000511 -0.001519 0.000317 -0.001522 0.000772 0.004040 -0.004106 -0.002371 -0.003896 -0.002333 0.004458 -0.003863 0.002035 0.003072 -0.003797 -0.001955 -0.003648 -0.003283 0.003700 -0.004281 0.004283 -0.000340 0.003290 -0.003130 -0.000477 0.000986 0.001290 0.003950 -0.003101 0.001040 0.003184 0.001447 -0.000078 0.004328 0.003107 -0.001815 0.002481 0.004924 0.002070 -0.004214 0.002875 0.001298 0.004049 -0.002000 -0.001145 -0.000134 0.001509 -0.000760 -0.004951 0.004226 0.001071 0.000050 0.003418 0.001056 0.001488 -0.002550 0.003072 0.003208 -0.002728 0.002794 -0.003908 0.000950 -0.004830 0.000074 0.003182 0.004129 0.001645 -0.000657 0.004822
these -0.003253 -0.004693 0.004148 -0.003525 -0.001542 0.002386 -0.001192 0.004797 0.003547 -0.004775 -0.002053 -0.003140 0.003879 -0.004600 -0.001395 0.000217 -0.003163 -0.002014 0.004502 -0.003096 0.001979 -0.001054 -0.000333 0.002692 0.002920 -0.002145 0.001740 0.000784 -0.000861 0.000549 -0.002535 -0.001140 -0.002435 -0.000431 -0.001266 0.004508 0.002438 -0.004714 -0.002670 -0.001198 0.003217 0.002146 0.001009 0.002368 -0.004223 0.001911 -0.000529 -0.002698 0.002082 0.000048 -0.003614 0.000946 0.000722 0.001484 -0.000295 -0.000113 -0.002866 0.003737 0.003292 0.002403 -0.003792 0.003127 -0.000323 0.000841 0.004738 0.004661 0.000999 -0.004162 0.001131 0.003937 -0.001314 0.000324 0.001041 0.003011 -0.004774 -0.002420 -0.001047 -0.002591 0.002307 -0.001576 0.002606 -0.001184 0.000814 0.002846 0.003881 -0.003485 0.004112 0.000334 0.001073 0.004590 0.001232 0.003970 -0.002302 -0.002841 0.004874 0.003743 -0.001234 -0.003325 0.000975 -0.004897
review -0.003102 -0.001582 0.002445 -0.000693 0.003336 0.003252 -0.000209 0.004759 -0.003364 -0.003195 -0.003038 -0.000926 0.002217 -0.001994 0.002891 0.000826 0.003348 0.004600 -0.001927 -0.001837 -0.002691 -0.001366 -0.004091 -0.000216 -0.004980 -0.001688 -0.003143 0.003921 -0.001247 -0.003082 -0.003448 -0.004669 0.002263 -0.004180 -0.003602 0.004526 -0.002860 -0.003231 -0.002104 0.000439 0.000943 -0.001403 -0.000891 0.002757 -0.000013 -0.001908 -0.003906 -0.002299 0.003658 0.000597 0.002966 0.002297 -0.004503 -0.000596 0.001701 0.004248 -0.004805 0.002305 -0.002192 0.000721 0.004438 -0.000844 -0.003374 -0.002858 0.003166 -0.003825 0.001929 0.001119 0.004535 0.001965 0.003259 0.000218 0.001769 -0.002308 0.002677 -0.004478 0.002430 -0.000965 -0.004790 0.001412 -0.004422 0.001010 -0.003603 0.001697 -0.003646 0.003113 -0.002498 -0.001894 0.004088 0.002112 -0.004818 -0.000166 -0.003317 -0.000853 -0.003819 -0.003877 0.003125 0.002601 0.004106 -0.004857
Please 0.004357 -0.002790 0.003549 -0.001675 -0.003369 -0.002186 0.004823 0.003049 0.004961 -0.002173 0.003077 0.003823 -0.002317 -0.001106 0.000942 0.001952 -0.003362 -0.004808 -0.002489 0.001055 -0.003814 0.004106 0.000722 0.000767 -0.002615 0.003657 -0.003253 -0.002379 0.002493 0.001017 0.003584 0.001759 0.001102 -0.004910 0.004902 0.002137 0.003175 -0.003920 -0.001514 0.003582 0.003224 0.002747 0.004408 0.003079 0.002097 -0.004646 -0.001954 0.001723 0.002256 -0.003590 0.002962 0.004044 0.002875 0.003713 0.002727 0.000175 -0.000811 0.003533 0.000665 -0.000513 0.003963 0.003945 0.002108 0.001836 -0.000799 -0.004808 0.000050 0.004480 -0.004578 -0.000451 -0.004971 -0.003404 0.002121 0.004312 -0.001398 -0.000002 0.003223 0.000851 -0.004328 -0.002640 0.000007 0.000736 0.003069 0.003430 -0.001955 -0.004564 -0.000099 -0.001222 0.003567 -0.004931 -0.002419 0.003784 -0.003759 0.001106 -0.004898 0.002246 0.000727 -0.003010 0.003183 0.000231
Amy -0.002939 -0.001847 -0.001857 -0.000278 0.002736 -0.002396 -0.000493 -0.002301 -0.004207 0.003877 0.000678 0.003612 -0.002238 -0.001722 -0.002354 0.003273 0.002018 0.004658 0.002237 0.004917 -0.000852 -0.001786 0.004908 -0.002846 -0.003567 -0.001498 0.001069 -0.002232 -0.000935 -0.002305 -0.003407 -0.001566 -0.000418 0.000159 -0.001658 0.002657 0.002168 -0.002391 0.001882 -0.002697 0.000733 0.004769 0.002025 -0.003982 -0.003525 0.003290 0.000181 -0.003290 0.004888 0.001372 0.001725 -0.002191 0.004853 0.002108 0.001577 -0.004494 -0.003447 0.001068 -0.000936 0.002623 -0.003682 -0.004770 0.004473 0.003909 0.000866 -0.004360 -0.001326 -0.004655 0.003933 0.001332 0.001308 0.003457 0.003884 0.002629 -0.002244 0.000301 0.000048 0.001653 0.003603 0.002054 -0.001187 0.001072 0.002859 0.000308 -0.002870 0.001492 0.001525 -0.000303 0.003296 -0.000172 0.001090 -0.001871 0.004418 0.004240 0.003419 0.001733 0.001743 -0.002966 -0.000862 -0.002223
credit -0.003967 -0.002401 0.002330 0.000371 0.002890 -0.002221 0.004005 -0.001085 0.001588 -0.004933 -0.001173 0.003869 0.003870 -0.002311 0.004718 -0.002530 -0.002667 0.003718 -0.000068 -0.003546 -0.000091 -0.000886 0.002617 -0.000332 0.003706 0.003830 -0.001488 0.003059 -0.003359 -0.000735 0.002164 -0.004906 -0.002434 -0.001951 0.002354 -0.001785 0.004483 0.002008 -0.003191 -0.000553 0.004690 -0.000154 0.000636 0.004948 0.003112 0.003660 0.002012 0.004883 -0.001464 0.002826 -0.001136 0.003991 0.003228 -0.000338 0.002805 -0.001659 0.002195 -0.004843 -0.001525 0.003664 -0.001857 0.001967 0.000033 -0.000540 0.004174 -0.001741 -0.004299 0.000392 -0.002418 0.000367 -0.004384 -0.004811 0.001897 -0.004253 0.003969 0.002307 0.001893 -0.001678 0.004105 -0.000313 -0.000532 0.001262 -0.002280 -0.001923 -0.002737 0.000366 -0.001211 -0.002312 0.001414 -0.004480 -0.002111 0.004301 -0.004489 -0.004662 -0.001657 0.000533 0.003182 0.003700 -0.000706 0.004664
Edward -0.003367 -0.003910 0.003396 -0.002416 -0.000206 0.003539 0.003625 0.000387 0.003742 -0.004914 -0.003524 -0.004301 -0.000280 -0.000541 -0.001159 -0.004940 -0.001140 -0.000105 -0.004313 0.004090 0.001148 0.002609 0.000857 0.001215 -0.002730 -0.004558 -0.000662 0.004017 -0.001884 0.002767 0.003555 -0.001277 -0.004671 -0.004909 -0.002574 -0.001229 0.000417 0.000010 0.002225 0.000512 0.004580 -0.003826 0.003917 0.003015 0.001462 -0.001310 0.003689 0.002967 0.002909 -0.004965 0.001598 0.001266 0.001646 -0.000129 0.001055 0.002576 0.004145 0.004815 0.004629 -0.001713 -0.004802 0.003825 0.004642 -0.002982 0.004554 0.001081 -0.002718 -0.004073 -0.000826 -0.002293 -0.004731 0.002545 0.004263 -0.004705 0.002926 0.004559 -0.000557 0.004433 0.003353 -0.001161 -0.002557 -0.001831 0.003516 -0.000622 0.001194 -0.003491 0.001331 -0.002530 -0.001110 0.001261 -0.003956 -0.004981 0.000480 -0.002689 -0.002130 -0.000346 0.002111 -0.004615 -0.002234 0.002287
are -0.000674 0.004018 -0.003073 -0.002265 -0.001222 -0.001828 0.002547 0.003647 -0.004820 0.004232 0.000957 -0.003879 0.002279 -0.002648 -0.003110 -0.004823 -0.002617 0.002384 0.003042 0.002367 -0.002318 0.001512 0.001256 -0.000317 0.004990 0.003550 0.001173 0.004743 0.004006 -0.004196 -0.002524 -0.000897 -0.001099 -0.003168 -0.004249 -0.001060 -0.001476 -0.002296 0.001872 0.000904 -0.003517 -0.003370 0.000036 -0.003048 0.004584 -0.003260 -0.000414 -0.003086 -0.003546 0.001217 -0.004296 -0.001163 -0.004275 0.000858 -0.001089 0.001081 0.003482 0.000026 0.003388 0.003971 -0.003852 0.003948 -0.004370 0.001869 0.001928 -0.002331 -0.000350 -0.002980 -0.000227 0.003192 -0.002495 -0.001524 0.001852 -0.002454 -0.004800 -0.000951 0.002434 0.001076 0.000744 0.003256 -0.001301 0.002130 0.002959 0.000140 -0.003184 0.001213 -0.003918 -0.001556 0.003974 -0.004472 -0.004394 0.000353 0.001172 -0.000156 0.000579 0.003222 0.000512 -0.003714 0.000567 -0.004949
approval -0.001592 -0.003478 -0.002045 -0.001996 0.003578 0.000899 -0.000203 0.003719 -0.000618 0.000826 0.003752 -0.001135 0.004777 -0.002552 -0.003531 0.003407 -0.003870 0.001721 0.003184 0.000858 0.002648 -0.001784 -0.003741 0.003974 0.002870 0.003123 -0.002108 -0.002238 0.001809 -0.004866 0.002183 -0.001845 -0.003338 0.001035 -0.000183 0.000129 0.000926 0.001487 0.002675 -0.000803 -0.002463 0.000867 -0.004050 0.004543 -0.004835 0.004112 0.000060 0.003474 -0.002017 0.000515 -0.002389 0.000403 -0.004542 0.000718 -0.004166 0.001726 0.003038 -0.002708 0.001953 -0.001231 0.003795 0.004536 -0.002364 -0.001987 -0.000810 -0.004556 -0.000490 0.003758 -0.000591 0.004589 -0.001148 0.001952 0.002151 0.002169 -0.000103 -0.003811 -0.003940 -0.002495 -0.001467 -0.000544 -0.000081 -0.000351 0.000521 -0.004347 -0.002671 0.000606 0.002412 -0.000262 0.004311 0.000945 -0.001320 -0.000090 0.000988 -0.000411 -0.003972 -0.004966 -0.003036 0.004234 -0.002854 -0.002812
; 0.001358 -0.002387 -0.004576 0.003385 0.002918 -0.001776 0.004533 0.000723 0.000410 -0.004882 0.002201 0.004394 -0.001561 -0.003848 0.002923 0.001072 -0.004829 -0.001768 0.002165 0.004308 0.003094 -0.000581 -0.003300 -0.000489 -0.001802 -0.003166 0.000998 0.003917 0.003562 -0.001159 0.002437 0.001791 0.003877 0.003360 0.004935 -0.003141 -0.000498 -0.001650 0.002989 0.002152 0.001668 0.003665 -0.002445 -0.003778 -0.004749 -0.001399 -0.000346 0.004078 0.004894 -0.000600 -0.001676 -0.002876 0.002904 -0.000939 0.003100 0.003629 0.003274 0.001713 0.001753 0.000456 -0.000021 -0.000081 -0.002749 0.003060 -0.003900 -0.004919 0.004491 -0.004534 -0.003138 0.002738 0.003280 0.001216 -0.003744 -0.002297 0.004043 -0.000824 0.001729 0.002085 -0.004405 0.002206 -0.004637 -0.003282 0.000677 0.004041 0.004753 0.002329 -0.003545 0.003558 -0.002258 0.003186 -0.002756 0.002870 0.004780 0.002902 -0.002530 0.001169 -0.003426 0.003989 0.000429 0.002564
Sager 0.000576 0.000517 -0.000243 0.002721 0.001111 0.001389 -0.001198 -0.002662 -0.002310 -0.002653 0.000606 0.002072 -0.001987 0.000095 0.000542 -0.003760 -0.004702 -0.003627 0.002438 0.004099 0.001538 0.001010 -0.002984 -0.004265 0.002031 -0.001437 0.004036 -0.003405 -0.004993 0.002705 0.002425 0.001391 -0.001041 -0.000988 0.000243 0.001752 -0.000057 -0.001263 -0.004630 0.001893 0.002600 -0.001423 0.004997 -0.000477 0.004441 -0.003673 0.001607 -0.000850 -0.003684 -0.001823 -0.001092 -0.000692 -0.004608 0.001892 0.004543 -0.000614 0.003890 -0.001261 -0.002965 -0.002569 0.002906 0.001408 -0.001937 0.002657 0.004138 0.000199 -0.003218 -0.001377 -0.003367 -0.004714 0.001449 0.000474 -0.001040 -0.000569 -0.003786 -0.000329 0.003611 0.003202 0.003510 0.004992 -0.003539 -0.003782 -0.000596 -0.000782 0.003433 0.002538 -0.002858 -0.004397 -0.000974 -0.001014 0.003608 0.004238 -0.000953 -0.001429 -0.001155 -0.004446 0.003976 0.004177 -0.000414 0.003132
fine -0.001882 -0.003591 0.000653 -0.002483 -0.002791 -0.003640 0.002355 -0.004467 0.003579 -0.001592 -0.000087 0.001164 -0.001072 0.001455 -0.002974 0.004634 -0.000372 -0.001480 0.002114 -0.004836 -0.003409 -0.001861 0.004624 -0.003769 -0.001683 0.001913 -0.001881 0.003923 0.002749 0.004773 0.003635 -0.002454 -0.004916 0.002102 -0.002646 0.001218 0.004618 -0.000097 0.003660 -0.003911 -0.002066 0.004165 -0.000593 -0.004695 -0.003410 -0.004514 -0.000723 -0.000013 0.000007 0.001960 -0.004236 -0.003924 0.004925 -0.004810 0.001165 0.004929 0.001875 -0.004995 -0.004763 0.003425 0.003197 -0.001271 0.001494 -0.002670 -0.003542 0.004655 0.003443 0.003417 -0.001477 -0.002632 0.000285 -0.002241 0.003535 0.003972 0.001738 0.002758 0.004632 -0.000725 -0.004246 -0.002930 0.001171 -0.004531 -0.002215 -0.000312 0.002955 -0.004654 -0.002765 -0.000146 0.004556 -0.003460 0.002252 -0.000506 -0.004985 -0.002556 -0.004978 0.001279 0.001638 0.001334 0.002249 -0.003129
Hello -0.003264 -0.002934 -0.002473 0.003068 0.001416 -0.004630 0.004393 0.004079 -0.001949 0.003805 0.002800 0.001358 -0.000561 0.002693 0.002956 -0.001917 0.003621 0.003356 0.001404 -0.002327 -0.001458 -0.004742 -0.004186 -0.004958 0.003507 -0.003757 0.003910 0.001581 -0.002464 -0.002603 -0.001820 -0.002571 -0.003816 -0.003395 -0.000662 -0.003208 -0.002342 -0.004117 0.003072 -0.001281 0.000201 -0.001223 0.003489 -0.001980 0.002829 -0.002374 -0.002297 0.004018 0.001880 -0.002102 0.002111 -0.001497 -0.000026 0.001644 -0.001941 0.000347 0.003626 0.001789 0.000291 0.002052 0.000635 0.000244 -0.004248 -0.000455 -0.001352 0.000486 -0.001376 -0.004557 0.003450 0.003033 -0.003956 -0.003290 -0.002047 -0.004709 -0.004455 0.004013 0.004709 0.000955 -0.000836 0.001250 -0.004687 -0.001328 0.003561 0.001862 -0.004962 0.004814 0.000731 -0.000681 0.004762 0.004961 0.000825 -0.002174 0.000513 0.002022 -0.002896 0.002264 -0.001423 0.004374 0.000566 -0.004234
Thanks -0.000934 -0.002261 -0.001524 -0.003992 -0.001110 0.002116 -0.004426 0.002238 -0.003583 0.003893 0.003534 -0.002289 -0.000465 -0.002551 0.001637 -0.000518 -0.001593 0.000574 -0.003960 0.002008 0.004251 0.002244 0.003791 0.000515 0.004781 0.002573 0.002013 0.002630 0.002167 -0.002566 -0.002163 0.002585 0.000495 0.000863 0.003366 0.000787 -0.000400 0.003862 0.004411 0.001873 0.001434 0.000428 0.003584 -0.004449 -0.004077 0.002307 -0.002352 -0.004175 -0.004094 0.004609 -0.001013 0.004889 0.000627 0.003161 0.002762 -0.001955 0.001636 -0.002339 0.003963 0.000876 0.001652 0.003942 0.002237 -0.004137 0.001408 0.000705 0.003327 -0.004626 -0.004083 -0.004632 0.004834 0.001664 0.002104 -0.002614 -0.002565 -0.003608 -0.004650 -0.001715 -0.000281 -0.002702 0.001272 0.003848 0.004684 0.004666 -0.000654 0.000277 0.001055 -0.004076 0.001542 -0.001451 0.001020 -0.002772 0.000372 -0.000995 -0.000650 0.002261 0.000838 -0.002749 -0.000381 -0.004507
