15 100
a 0.000586 -0.001166 0.001328 0.001875 -0.002713 -0.004639 -0.002396 -0.001845 0.003537 0.003538 -0.000682 0.000357 -0.001829 0.001756 0.003703 0.001175 0.002086 0.004027 0.003322 0.000010 -0.002150 0.004837 0.002279 0.003744 0.000438 -0.001161 0.001625 -0.004062 0.004470 0.002756 -0.003073 0.000447 -0.001750 -0.002175 -0.004860 -0.000715 -0.001616 0.002025 0.001383 -0.001836 0.000906 0.002004 -0.003880 0.004941 -0.001999 0.000783 0.000523 0.000931 0.003730 0.000562 0.000135 -0.001621 0.000791 -0.003635 0.001654 0.002753 0.001618 -0.003104 0.003637 -0.001100 -0.002930 0.002348 0.003189 -0.002762 0.001624 0.001479 -0.002412 0.000705 -0.001207 -0.001530 -0.000231 -0.002096 -0.003287 0.000135 -0.002519 0.004575 0.001827 0.000740 0.000087 0.004931 -0.000684 0.002455 0.000540 -0.004169 0.000778 -0.004180 0.000835 -0.002661 0.004907 0.003970 -0.002808 0.003586 -0.000097 0.001056 -0.003989 -0.003032 0.002259 0.002960 -0.003941 -0.003872
EEOS -0.002326 0.003771 0.000669 0.004309 -0.003988 -0.002607 -0.001238 -0.003601 0.002452 0.003128 0.000132 0.004639 0.002085 -0.000768 0.003396 -0.002235 0.002588 0.004256 -0.004960 -0.000213 -0.001410 -0.000804 -0.000349 -0.000649 0.000976 -0.002696 0.003431 -0.004869 0.004822 -0.004021 -0.000812 0.003312 0.003938 -0.002520 0.000857 -0.003611 -0.004311 0.001543 -0.000753 -0.001394 0.001665 0.004627 0.002835 0.002269 0.003479 0.002552 -0.000546 -0.002332 -0.001094 0.001031 -0.001190 -0.002394 -0.004464 -0.002758 -0.000264 0.001058 0.003505 0.003651 -0.004821 -0.001357 0.003961 -0.004081 -0.004915 -0.000129 -0.002063 0.000633 0.004968 -0.004869 0.001097 0.000845 0.002246 0.000322 -0.002457 0.001422 -0.002843 -0.001288 0.003346 -0.002250 -0.004588 -0.004285 0.002137 0.002510 0.000296 -0.000753 0.002679 -0.003902 0.002677 0.002111 -0.002583 0.000734 -0.003590 0.001289 -0.004471 0.003803 0.004437 0.003852 -0.002640 0.000365 0.003028 -0.002948
for 0.001353 -0.004254 0.003151 0.002151 -0.001595 -0.001829 0.000901 0.001320 0.004967 0.002948 -0.001546 -0.004169 -0.001878 0.001144 -0.001232 -0.004261 -0.003346 0.001024 0.003711 -0.003485 -0.003401 0.000623 -0.001910 0.004253 -0.002710 -0.001077 -0.002150 0.001778 -0.004328 0.000602 0.004018 0.000511 -0.001519 0.000317 -0.001522 0.000772 0.004040 -0.004106 -0.002371 -0.003896 -0.002333 0.004458 -0.003863 0.002035 0.003072 -0.003797 -0.001955 -0.003648 -0.003283 0.003700 -0.004281 0.004283 -0.000340 0.003290 -0.003130 -0.000477 0.000986 0.001290 0.003950 -0.003101 0.001040 0.003184 0.001447 -0.000078 0.004328 0.003107 -0.001815 0.002481 0.004924 0.002070 -0.004214 0.002875 0.001298 0.004049 -0.002000 -0.001145 -0.000134 0.001509 -0.000760 -0.004951 0.004226 0.001071 0.000050 0.003418 0.001056 0.001488 -0.002550 0.003072 0.003208 -0.002728 0.002794 -0.003908 0.000950 -0.004830 0.000074 0.003182 0.004129 0.001645 -0.000657 0.004822
that 0.001260 -0.003784 -0.004636 0.002202 0.004886 -0.002419 0.003530 0.000495 -0.004368 0.001994 0.002993 0.003591 -0.004099 -0.001387 -0.004224 -0.000255 0.003569 -0.004300 -0.002270 0.002570 -0.001632 0.002181 -0.001284 -0.001921 0.001799 -0.000991 0.001394 -0.000055 -0.000157 -0.000865 -0.001141 0.004254 0.004347 0.002160 -0.001573 -0.004197 0.001029 0.003693 0.003229 -0.001480 0.003987 -0.000514 0.002322 -0.000524 0.002323 0.003092 -0.004614 0.004022 0.004014 0.000092 0.004352 -0.003819 0.002674 -0.002486 0.004212 0.002202 -0.002592 -0.001748 -0.002789 -0.002469 0.001976 0.002466 0.000996 -0.000320 -0.000969 -0.000677 0.004325 -0.000400 -0.004523 -0.002143 -0.002196 0.004782 -0.002602 0.004076 -0.003072 0.001716 0.000722 -0.002395 0.001937 -0.002803 0.002919 -0.000636 0.003604 0.002378 -0.002459 -0.000508 0.000491 -0.001826 -0.001718 -0.003545 0.000998 0.000111 -0.001554 -0.003765 0.000370 0.000493 0.000028 0.000056 0.002656 0.001353
I -0.004329 0.003335 -0.000112 -0.001200 -0.001460 0.001109 -0.002971 0.003890 0.002102 -0.000959 0.001582 -0.001640 0.000306 0.002061 -0.000958 0.002253 -0.003585 -0.004851 0.001651 -0.004222 0.003862 0.002878 0.003286 0.001642 0.004874 0.003479 0.000125 -0.003163 -0.003509 0.003245 -0.004569 0.001499 -0.003339 -0.001415 0.001144 0.003916 -0.003008 -0.001369 0.004153 -0.002453 0.001954 -0.001498 -0.001812 0.001036 -0.003565 0.004283 0.004592 0.002420 0.003166 0.002306 0.004611 -0.002373 -0.002393 0.000396 0.000594 0.003899 -0.003863 0.000400 0.002676 -0.003066 -0.000141 0.003166 0.004356 -0.002229 -0.001090 0.001816 0.002881 0.002740 0.004417 0.001402 -0.000238 -0.002491 -0.002249 0.001104 0.002401 0.001632 -0.003099 -0.002974 -0.002412 0.003538 -0.002421 0.003332 -0.004848 -0.003247 0.003519 0.003124 0.001470 0.002781 -0.001914 -0.002484 -0.004102 0.001999 0.002148 0.003385 -0.003596 -0.003582 0.003156 0.003017 -0.001792 -0.004722
is 0.000499 0.000972 0.003516 0.001979 0.000052 -0.002851 -0.004624 0.004122 0.001330 -0.001159 -0.001773 0.002179 -0.004495 -0.001020 0.000014 -0.000366 0.000333 -0.000280 -0.004757 -0.002344 0.000180 0.000519 -0.004545 0.002223 0.002003 -0.004134 0.004335 0.002196 -0.004991 0.000770 -0.004171 0.003578 0.004439 -0.003006 0.002796 0.001886 -0.004101 -0.001444 0.003278 0.002554 0.000767 -0.000057 0.001757 0.004379 -0.000420 -0.003388 -0.000871 0.002029 0.003460 -0.004445 0.002795 0.000623 -0.000506 -0.004844 0.000934 -0.002172 -0.003055 0.002821 -0.003874 0.004297 -0.003229 0.002172 0.000414 0.002735 0.002711 -0.004409 0.003920 0.001662 -0.002048 0.000910 0.004199 0.002617 0.000591 -0.001148 -0.004386 0.001155 -0.001983 -0.000822 0.003881 -0.004951 0.000447 -0.001412 -0.002481 -0.002592 -0.003843 -0.004816 -0.001202 0.003011 0.001387 -0.002309 0.000842 -0.003516 -0.003288 -0.003948 -0.000087 0.002314 0.000945 0.000537 -0.003006 0.002698
there 0.000357 -0.004514 0.001922 -0.003404 -0.003391 -0.002637 0.002950 0.004497 -0.001944 0.002880 -0.001634 0.002770 0.002321 0.003494 -0.003443 -0.000738 -0.002255 0.001922 0.002747 0.001375 0.003640 -0.001613 -0.001636 -0.004905 0.001187 -0.001607 0.001152 0.000507 0.001934 -0.003059 0.000375 0.004245 -0.003474 0.003153 -0.000976 -0.001412 -0.004207 0.004434 -0.004217 0.001848 0.000899 -0.002232 0.002337 -0.004655 0.001678 0.002676 0.001993 -0.003792 -0.004920 0.002256 0.002963 -0.002249 -0.000199 -0.003711 -0.000371 -0.000455 -0.004702 0.002365 -0.004087 -0.000985 0.000553 -0.004052 0.003774 -0.001896 0.001559 0.000854 0.000809 0.003947 -0.004293 0.004923 -0.003170 0.002792 -0.001183 0.000211 0.004715 -0.000531 0.001005 -0.004944 0.000465 0.000483 -0.004866 0.004471 -0.001178 -0.000485 -0.004836 -0.004665 -0.000513 -0.001508 0.000522 0.004102 0.004472 -0.003013 0.004349 0.000622 -0.004296 0.004667 0.001769 0.000937 0.004275 -0.003820
. -0.001642 0.003937 0.001145 -0.002720 -0.000218 -0.003234 -0.004049 0.001573 -0.003528 -0.004850 -0.002739 0.000858 0.002051 -0.000110 0.003090 0.001067 -0.002005 0.004994 0.003922 0.002843 0.000868 0.000176 -0.004556 -0.003326 0.003127 0.001654 -0.004615 0.003150 0.000620 0.003582 -0.000629 -0.001884 -0.004484 -0.000278 -0.000674 0.000033 -0.004117 0.003713 0.003304 -0.002068 0.002473 0.000890 -0.000196 0.003512 -0.000828 0.001904 0.001418 -0.004666 0.000463 0.002451 -0.002587 0.000902 0.004022 0.001068 0.002437 0.000595 0.001250 -0.000570 0.002232 0.004208 -0.003604 0.002404 -0.000821 0.004048 -0.003724 -0.001152 0.000870 -0.000594 0.004074 0.003990 0.002323 0.000798 0.003424 -0.004474 -0.003070 -0.000235 -0.003143 0.003751 0.004041 -0.004460 0.003883 0.000039 0.003318 0.001119 0.000676 0.002469 0.003234 -0.001707 0.002740 0.000318 -0.003023 -0.002423 -0.001566 -0.001915 -0.000473 0.001799 0.003484 0.000968 -0.002126 0.000059
heard 0.004734 -0.001270 -0.003019 -0.004162 -0.000457 0.003778 -0.001646 0.002163 -0.001881 -0.001647 0.002792 0.002354 -0.001201 -0.004121 0.000094 0.004892 0.003583 -0.001095 -0.001198 0.000160 -0.001826 -0.001959 -0.000572 0.001109 0.004110 0.001758 0.003996 0.003372 0.001619 -0.001277 0.000216 -0.004745 -0.002004 0.003185 0.002080 0.000372 0.000630 0.001002 -0.004707 -0.004182 0.002984 -0.002169 -0.001984 0.003511 0.003570 0.004661 -0.004090 0.002060 0.002919 -0.003686 -0.001472 0.003288 -0.001410 -0.001810 -0.002119 0.004563 0.004994 0.001172 0.004687 0.003284 -0.001179 0.002536 0.002882 -0.004793 -0.003545 0.003798 0.003407 0.002424 -0.002054 -0.001231 -0.003815 -0.001810 -0.000795 0.000787 -0.002897 0.000777 0.002608 0.004970 -0.004145 0.000605 0.004329 -0.004091 -0.003175 -0.003604 0.003533 -0.003126 -0.004566 -0.004166 0.003105 0.001201 0.003486 0.000490 -0.000460 0.001648 0.003818 0.002661 0.000055 0.001678 0.003220 0.001790
rumor -0.000772 0.001539 -0.000082 0.001965 -0.000595 0.002420 -0.003565 0.004897 -0.002622 0.001267 -0.003826 -0.002718 -0.002698 -0.000697 0.004242 -0.002020 -0.000394 0.003453 0.002497 -0.003042 0.001657 0.003071 0.003085 0.002410 -0.001383 0.001242 0.000775 -0.000760 0.001670 -0.001037 -0.001439 0.001196 0.001745 0.000915 -0.004909 0.000464 0.002634 -0.003461 -0.004582 -0.001527 -0.002012 0.002677 -0.001612 -0.004007 -0.003176 0.004829 -0.004975 0.004808 -0.002572 0.003576 -0.001715 0.004024 0.000743 -0.002816 -0.002198 -0.003814 0.000027 0.000706 -0.001833 -0.004595 -0.001559 0.001960 0.002119 -0.002242 0.004578 -0.001233 0.002435 -0.000296 -0.000876 0.000616 -0.003592 -0.004038 0.003221 0.002430 -0.004067 0.003827 0.000662 0.003942 0.002257 -0.000071 0.004634 0.000221 0.003064 0.001257 0.001486 -0.003921 0.001626 -0.001227 -0.002565 -0.003799 -0.000923 -0.001262 -0.002805 -0.001247 0.004391 0.004377 -0.004325 -0.001827 -0.000972 -0.004360
new 0.001082 -0.002005 -0.003052 -0.004192 0.003055 -0.004600 0.004685 -0.004155 0.001681 -0.002670 0.000871 0.004270 -0.000592 -0.004620 -0.003344 0.003415 0.001361 -0.003502 -0.000613 -0.001674 0.000474 0.004421 0.004176 0.003813 0.003745 -0.001958 -0.003854 -0.001539 0.003136 0.000540 0.002191 0.000293 0.000827 0.004949 0.002871 -0.001569 0.004899 -0.004677 -0.002878 0.004522 -0.001299 0.003558 -0.000949 -0.004254 -0.000021 -0.000028 0.003137 0.002303 -0.001956 -0.001969 0.002263 0.002416 -0.003304 0.001126 0.004636 -0.002943 -0.000854 -0.003922 0.003501 -0.002973 -0.003876 0.002939 -0.000815 -0.003865 -0.002900 -0.001511 0.000382 0.004871 -0.003954 0.002258 0.002503 0.001024 0.000388 0.003255 -0.004746 0.001361 -0.002412 -0.002517 0.001955 0.004272 -0.002481 -0.004773 -0.002966 0.001614 -0.000544 -0.000721 0.000067 0.004612 0.002391 0.000734 0.004759 0.004868 0.001853 -0.001098 -0.003249 -0.003210 -0.004219 0.001887 -0.002303 -0.003380
Kay -0.001404 0.002467 0.002526 0.004007 0.001642 0.000841 -0.000079 -0.001792 -0.003431 0.004867 0.001218 0.003045 -0.004311 0.001753 0.000261 -0.001152 0.001996 0.004135 -0.004829 0.000915 -0.002034 0.002855 -0.001397 0.003623 -0.000896 0.002549 -0.002512 -0.003556 -0.002104 -0.001979 0.001220 -0.000154 -0.000954 0.002532 0.003529 -0.001460 0.003153 -0.003890 -0.004909 -0.000566 -0.002210 0.003952 -0.001646 -0.001337 0.001519 0.001980 -0.003113 0.001786 -0.003297 0.000659 0.000453 0.000915 -0.001275 0.004883 -0.000751 -0.003382 0.001043 0.000482 0.001688 0.000739 -0.003493 0.003663 0.001687 -0.001493 0.000410 -0.004910 -0.000357 0.003990 0.003126 -0.002327 0.004537 0.002075 -0.002172 0.000223 -0.002649 -0.001105 -0.003997 -0.004228 0.003126 0.001237 -0.001678 -0.000883 0.004770 0.002191 -0.000355 -0.003376 -0.004931 0.000290 0.000877 0.001197 -0.003181 0.001845 0.004903 -0.003962 0.003268 -0.001530 -0.002913 0.003628 0.003950 0.000664
True -0.001111 0.002708 -0.002229 -0.003120 -0.003603 -0.001354 -0.004732 0.004146 0.002756 0.003319 -0.003190 -0.004088 -0.004874 -0.003966 -0.000143 0.000391 0.004270 -0.004957 -0.003023 0.004492 -0.001705 -0.003895 0.001614 -0.004854 -0.003009 0.002921 -0.002706 0.002181 0.002477 0.003311 -0.004302 -0.002785 -0.001127 0.002076 0.001702 -0.001021 -0.003717 0.003668 -0.004391 0.000900 -0.000784 -0.001986 -0.001697 0.004644 -0.004313 -0.001609 0.002681 -0.000723 0.000907 -0.004500 0.001374 0.001661 -0.004678 -0.002630 -0.003959 -0.004709 -0.003941 0.004738 0.001701 -0.001834 -0.004489 -0.003139 0.000917 0.003999 -0.001171 0.002567 0.002394 -0.001211 -0.004021 0.001253 0.001093 0.002986 0.003804 -0.004087 -0.000872 0.000195 0.002161 0.001531 -0.000962 0.001933 -0.002389 0.004032 0.001479 -0.004035 0.002122 -0.003090 0.004163 0.000877 0.003655 -0.004449 -0.001375 0.004027 0.003391 0.003179 -0.000464 -0.000151 0.001287 0.000616 0.003704 0.000814
leader 0.000053 0.003055 -0.001730 -0.003502 -0.002626 0.004277 0.000365 -0.000985 -0.000483 0.004177 -0.001631 0.001534 0.001622 -0.004311 -0.003235 -0.002620 -0.001552 0.001884 0.002480 -0.001228 0.002434 -0.003427 -0.002433 -0.003543 0.003954 -0.001161 -0.001242 -0.000075 0.004508 -0.000571 -0.001579 -0.002143 -0.000113 -0.003909 -0.002114 -0.000119 0.003774 0.002131 0.003381 -0.003467 0.004665 -0.001605 0.002791 -0.000955 -0.002057 0.000555 -0.000692 -0.001730 0.002798 -0.004701 0.004801 -0.001750 0.002180 0.002825 -0.004246 0.003912 0.002734 -0.001560 -0.003508 0.003437 -0.001221 -0.003960 0.000789 0.002326 0.002526 0.001799 0.004555 -0.001075 -0.000766 -0.003669 0.004219 0.001900 -0.001125 0.002226 -0.000109 0.002578 0.000338 -0.004303 -0.000088 -0.003907 -0.003244 -0.001920 -0.001675 -0.000780 -0.000941 0.001918 -0.001591 -0.002445 -0.003198 -0.002640 0.004827 -0.000407 0.003089 0.002805 0.003277 0.000618 -0.004242 0.004971 -0.000829 0.002409
? 0.001872 0.001633 0.004020 0.000335 -0.004492 0.003484 -0.001688 -0.003658 -0.001848 0.002780 -0.003437 -0.002421 -0.004459 -0.002102 0.003576 -0.003746 -0.002626 -0.000847 0.002021 -0.001022 0.000494 -0.004472 0.000161 0.003360 0.001802 -0.004881 -0.004949 0.000775 0.002501 0.001184 0.000890 -0.001747 -0.001280 -0.002155 -0.003284 0.002109 -0.002255 -0.003358 0.002615 0.003967 -0.000949 -0.003635 0.001923 -0.002402 -0.002520 -0.003986 0.002797 -0.001028 0.004765 0.001888 -0.002489 -0.002793 -0.003736 0.004732 0.002027 -0.001431 0.001947 -0.003605 0.001315 -0.001148 0.002175 -0.001185 0.001206 -0.003503 -0.001991 -0.001608 -0.002120 -0.001318 -0.002959 0.000703 -0.001546 -0.000112 0.001970 0.000514 -0.004801 0.003009 -0.000737 0.000472 -0.001229 0.003156 -0.000130 -0.002549 -0.002755 0.001777 -0.002186 0.000177 0.003880 -0.004664 0.001490 -0.003379 0.004863 0.003372 0.002276 0.001607 0.004826 -0.001688 -0.004462 -0.004337 -0.004587 -0.000300
