19 100
. -0.001641 0.003944 0.001153 -0.002724 -0.000212 -0.003230 -0.004054 0.001574 -0.003523 -0.004850 -0.002739 0.000861 0.002053 -0.000112 0.003092 0.001062 -0.002005 0.004995 0.003930 0.002848 0.000867 0.000178 -0.004558 -0.003324 0.003120 0.001649 -0.004614 0.003152 0.000626 0.003584 -0.000625 -0.001887 -0.004481 -0.000273 -0.000680 0.000028 -0.004124 0.003719 0.003309 -0.002072 0.002468 0.000887 -0.000185 0.003512 -0.000820 0.001911 0.001418 -0.004672 0.000466 0.002458 -0.002584 0.000904 0.004022 0.001071 0.002446 0.000601 0.001247 -0.000574 0.002233 0.004200 -0.003604 0.002398 -0.000824 0.004051 -0.003735 -0.001151 0.000869 -0.000591 0.004075 0.003986 0.002325 0.000798 0.003419 -0.004473 -0.003067 -0.000239 -0.003146 0.003746 0.004045 -0.004458 0.003875 0.000039 0.003320 0.001121 0.000675 0.002476 0.003231 -0.001712 0.002750 0.000321 -0.003020 -0.002422 -0.001579 -0.001926 -0.000473 0.001802 0.003480 0.000971 -0.002127 0.000060
the 0.004959 -0.001641 -0.000714 0.000261 0.003208 -0.001623 -0.003297 -0.004296 -0.001774 -0.003555 -0.002186 0.004465 0.003236 0.002589 -0.002733 0.001923 -0.004395 0.000064 -0.004316 -0.004931 0.001491 0.001786 0.004533 0.001382 -0.003834 0.001573 -0.000806 -0.000393 -0.000511 -0.004035 0.000047 0.002446 0.001365 -0.003937 0.000027 0.000734 -0.001796 0.001942 -0.002127 0.002695 0.004663 -0.002542 0.001185 -0.004767 -0.000521 -0.004555 0.001247 -0.003986 0.000308 -0.000410 -0.004967 0.002094 0.003971 0.003213 0.004709 0.001448 0.000414 -0.002903 0.003027 -0.000421 0.001501 -0.001569 -0.004992 -0.001739 -0.004138 -0.001601 0.001071 0.000338 0.002297 -0.004724 0.003584 -0.002199 0.000661 0.001395 0.003572 -0.000501 0.001644 -0.001315 0.003318 0.002150 -0.003882 -0.000303 0.001260 0.001518 -0.000421 0.002591 0.000220 -0.001350 0.004637 0.000196 -0.002926 -0.003463 -0.004773 -0.004801 0.001602 0.000178 -0.002540 0.001946 -0.004927 -0.001722
Diego -0.002638 0.002027 -0.002596 0.002538 -0.000471 -0.004790 -0.002085 0.002186 0.003924 -0.004633 0.004821 0.002807 0.002344 -0.001432 0.000275 0.001486 0.003541 -0.000315 -0.001086 0.003225 -0.002499 0.004191 0.000787 -0.001608 -0.001607 -0.004547 -0.003225 0.002838 -0.001409 -0.003787 -0.001381 0.003894 -0.001986 0.004576 0.003325 -0.001013 -0.003257 0.003129 -0.000866 -0.000460 -0.002603 0.000109 0.001688 -0.002316 0.003298 0.004132 -0.001204 -0.000554 -0.002042 0.000038 0.001500 0.002015 0.000705 -0.002272 0.001959 0.000018 -0.000492 -0.002247 -0.003496 -0.001602 -0.004125 -0.000008 -0.000612 0.003056 -0.001964 -0.002528 -0.003391 0.000296 0.003981 -0.004062 -0.002166 -0.004866 0.000050 0.004292 0.002114 -0.000209 -0.003484 -0.004549 -0.004336 0.004730 -0.003857 0.001489 0.000025 0.004954 0.002093 -0.002808 -0.000790 -0.000629 0.002903 -0.002886 0.002054 0.004622 -0.004067 -0.000255 0.001757 -0.004894 -0.004569 0.003099 0.001849 0.004374
FERC 0.000414 0.002131 -0.000273 -0.004326 -0.000656 -0.001297 -0.004563 0.004298 0.002757 -0.001790 -0.002974 -0.000309 0.002248 -0.001051 0.001288 0.002837 -0.000340 0.004051 0.004086 -0.001386 0.001263 0.002625 -0.003425 0.003359 0.004166 -0.000856 -0.002472 -0.003854 -0.001819 0.002303 -0.003653 0.001153 -0.001108 -0.004071 0.003540 -0.001971 0.003228 0.002864 -0.000087 0.003734 0.000037 -0.001552 -0.000258 0.004837 -0.002365 0.000470 -0.004630 -0.004504 -0.000264 -0.003987 -0.000245 -0.000490 -0.000820 -0.004270 -0.001530 0.002762 -0.000259 -0.001124 -0.001725 0.004746 -0.002088 -0.003024 -0.001358 -0.004966 -0.004041 0.002759 -0.001470 -0.000488 -0.004281 0.000520 0.004667 -0.002136 0.003010 0.002832 0.000563 0.002625 0.001769 -0.004134 -0.003560 0.001874 0.003380 -0.001029 0.002334 0.002461 -0.001590 0.000117 0.001353 0.004549 -0.003786 -0.002256 -0.002534 -0.002263 0.000801 0.004745 -0.004314 -0.004680 -0.000636 0.000417 -0.004719 -0.003672
Electric -0.000429 0.001110 0.003618 -0.004981 0.003182 0.003734 -0.004931 0.002729 0.000613 -0.003968 -0.002905 0.001602 -0.001698 -0.001621 0.001676 0.000213 -0.001611 0.002063 0.004475 0.003423 0.000156 -0.001390 -0.003221 0.004728 -0.001024 0.001596 -0.001274 -0.002441 -0.002777 0.004916 0.000220 -0.002705 0.001086 -0.004967 -0.004903 -0.004279 -0.003629 0.000680 0.003516 -0.001646 -0.002166 -0.004967 0.003859 -0.000659 0.002000 0.002241 -0.002625 -0.002940 -0.000754 0.004716 0.003603 -0.003112 -0.004027 0.004594 0.004436 0.004864 -0.001131 -0.004074 -0.003138 0.001050 -0.001837 0.000107 0.001694 0.003035 -0.004456 0.003649 0.003914 0.002643 -0.002647 0.001066 0.003809 -0.000831 -0.004231 0.004337 -0.003577 -0.002516 0.001694 -0.001482 0.002078 -0.001446 0.000203 -0.000090 0.003022 -0.000939 0.003387 0.000779 0.000752 -0.003767 0.004986 0.002433 0.000967 -0.002300 -0.004254 -0.003860 -0.003372 0.000321 -0.000025 -0.004959 -0.003157 -0.001230
San 0.004432 0.002128 -0.004305 -0.002314 0.000992 0.004681 -0.001003 -0.000383 -0.002634 0.003327 -0.003426 0.003030 -0.001585 0.001248 0.002298 0.001178 0.000227 -0.000615 -0.001060 -0.001910 -0.001787 -0.002588 -0.000289 0.000920 0.002487 0.001191 -0.001774 0.000373 0.000995 0.001960 0.004999 -0.002523 -0.003503 0.003973 0.002506 0.000879 -0.003264 0.000606 0.004904 -0.000159 -0.000804 -0.001727 0.000552 -0.004237 0.001771 -0.000015 0.004369 -0.004731 -0.002518 0.003391 -0.001785 0.004682 -0.003301 -0.002429 -0.003829 -0.000286 -0.004070 -0.001791 -0.004778 -0.001930 -0.002615 -0.002608 -0.001607 -0.001243 -0.002854 0.000699 0.001213 0.003035 0.004128 -0.003720 0.001947 -0.000641 -0.002979 -0.004325 0.004718 0.001019 0.004934 -0.001263 -0.004560 -0.002533 0.003273 0.002501 0.004970 -0.003007 -0.002599 -0.002091 0.003293 0.002545 -0.001976 0.002463 0.002519 -0.003271 0.000867 0.000776 -0.000425 -0.000075 -0.003506 0.002943 -0.002496 0.003749
& 0.000799 0.003180 0.004698 -0.001795 0.002339 0.001735 -0.003229 0.003112 -0.001881 0.004109 -0.003200 -0.004732 -0.000382 -0.003898 -0.004553 -0.004048 0.000921 -0.003124 0.004131 0.001826 0.002095 0.004159 0.003311 0.003571 -0.003245 -0.003315 0.001712 -0.003506 0.004710 -0.004059 0.002247 0.002336 -0.003769 0.001768 0.002048 0.003437 0.002755 0.003322 0.002097 0.003390 -0.000170 -0.001862 0.000116 0.004586 -0.000403 0.003747 -0.002992 0.001235 0.001642 -0.002072 -0.002068 0.004615 0.002894 -0.002222 0.004881 0.000829 -0.003684 0.002304 0.000139 -0.004165 0.004483 -0.003666 -0.003224 -0.002595 -0.002782 0.002208 0.001772 0.002029 -0.003672 -0.004173 0.003012 0.000679 -0.004670 0.002669 0.001771 0.002424 -0.004859 -0.004672 -0.004076 0.002600 -0.003458 -0.001448 -0.001643 0.004678 -0.000891 0.003818 -0.001614 -0.002881 -0.004709 -0.000175 -0.004108 0.001646 -0.004153 -0.002668 0.002599 0.000555 0.000866 -0.000876 0.000769 -0.002395
of 0.004275 -0.003754 -0.000623 -0.002396 -0.000051 -0.001042 0.004698 0.000637 -0.000675 -0.002285 0.000417 -0.002270 -0.003525 0.003873 -0.002189 -0.000382 -0.003708 -0.002098 -0.001315 0.002150 -0.004753 0.001455 -0.003266 -0.000356 0.001993 -0.003056 0.001778 -0.000851 -0.000855 0.000742 -0.003992 0.003207 -0.001961 -0.001454 0.000186 0.001586 0.001946 0.003579 0.001990 -0.002139 -0.003148 0.001314 0.001989 -0.004597 -0.003549 -0.000195 0.000410 0.001254 0.003922 -0.000799 0.000985 0.004587 -0.001851 -0.004870 -0.001574 -0.004320 -0.004941 -0.001553 -0.004669 0.001587 0.002933 -0.001241 0.003690 -0.002106 0.002363 -0.004104 -0.000228 0.000863 -0.001276 0.001555 -0.003225 0.003798 0.003738 -0.003799 0.003490 0.000091 -0.000503 0.000411 -0.003411 0.003895 -0.002906 -0.001394 0.004309 -0.002370 -0.000571 -0.002103 -0.001643 -0.004263 0.004120 -0.002011 -0.004353 -0.001759 -0.001659 0.002958 -0.004816 0.001384 0.003223 0.001170 0.002868 0.003526
is 0.000500 0.000970 0.003514 0.001978 0.000054 -0.002849 -0.004618 0.004119 0.001329 -0.001159 -0.001770 0.002179 -0.004492 -0.001020 0.000010 -0.000366 0.000333 -0.000283 -0.004760 -0.002343 0.000179 0.000515 -0.004545 0.002220 0.002001 -0.004134 0.004334 0.002197 -0.004992 0.000767 -0.004166 0.003576 0.004440 -0.003004 0.002799 0.001885 -0.004098 -0.001444 0.003276 0.002556 0.000766 -0.000059 0.001759 0.004375 -0.000417 -0.003391 -0.000870 0.002027 0.003458 -0.004446 0.002794 0.000622 -0.000508 -0.004840 0.000933 -0.002172 -0.003055 0.002821 -0.003875 0.004297 -0.003225 0.002168 0.000411 0.002735 0.002709 -0.004408 0.003918 0.001661 -0.002048 0.000908 0.004198 0.002619 0.000591 -0.001147 -0.004382 0.001151 -0.001982 -0.000825 0.003879 -0.004951 0.000444 -0.001414 -0.002481 -0.002589 -0.003844 -0.004813 -0.001204 0.003012 0.001385 -0.002308 0.000845 -0.003516 -0.003286 -0.003947 -0.000086 0.002313 0.000943 0.000535 -0.003001 0.002702
FYI -0.001208 -0.001284 0.003266 0.003453 0.002541 0.000096 0.002801 0.003995 0.003798 -0.004170 0.004401 -0.001406 -0.001806 0.004020 0.002827 0.000617 0.004957 0.001307 -0.003010 -0.003677 -0.003085 -0.000435 0.004555 0.000333 -0.001252 -0.002020 0.004653 0.002349 -0.001200 -0.002139 -0.002811 -0.000088 -0.000144 0.000165 -0.002400 -0.000315 -0.003608 0.000342 0.004858 0.003463 -0.003915 -0.002482 -0.001099 0.002086 0.000360 -0.003311 0.001698 -0.000992 0.003557 -0.001617 -0.002577 0.001165 0.001643 0.000351 -0.003629 -0.003551 -0.002821 -0.002454 0.002631 -0.000027 0.001298 0.003062 -0.001767 0.002466 0.000383 -0.003640 0.000720 0.003193 -0.001059 -0.000595 0.004732 -0.004766 -0.004829 -0.004509 0.000050 -0.003480 -0.002054 -0.000096 0.004164 -0.000782 0.002624 -0.004066 -0.002629 -0.002804 -0.004880 -0.004578 0.001786 -0.002340 -0.000945 -0.000544 0.003042 0.000576 -0.004712 0.003524 -0.004383 -0.001784 0.001703 -0.001811 0.000774 -0.001764
Gas -0.000478 0.000120 -0.002316 0.003427 -0.000956 -0.004862 0.000919 0.002381 -0.003840 -0.001487 -0.001483 0.004994 0.001904 0.000640 0.000098 -0.001753 -0.004457 -0.002899 0.001792 -0.000014 -0.000321 -0.001073 -0.003053 0.004789 0.000977 0.004133 -0.001498 0.002977 -0.001780 -0.004021 -0.001314 -0.003925 0.003775 0.001420 -0.003163 -0.004077 -0.003536 -0.003807 0.000093 0.003727 0.001089 0.003243 -0.004619 -0.001927 0.004105 -0.004864 0.000133 0.001030 0.001034 0.003474 0.002192 -0.002735 0.003740 0.001459 0.004819 0.003894 0.004969 -0.000881 -0.001194 0.001330 0.003514 -0.004766 -0.002410 -0.004205 0.003746 0.001729 -0.003509 -0.002052 -0.001116 0.001548 -0.000123 0.002781 0.002258 0.003035 -0.001457 -0.002078 -0.004440 -0.003930 -0.004710 -0.001596 -0.003533 0.000578 -0.004050 0.002987 -0.001467 -0.004550 0.002687 -0.004282 0.002288 -0.003631 -0.000605 0.004998 0.001912 -0.002680 -0.001406 0.002577 0.004144 -0.002046 -0.000218 0.001080
comments -0.004764 0.002114 0.004480 0.000519 -0.000229 -0.003235 -0.001791 -0.004430 0.004738 -0.000903 -0.001502 -0.003348 -0.002149 0.001019 0.002549 -0.004440 0.001542 -0.000834 0.002320 0.004094 -0.002633 -0.001396 0.001751 0.001755 0.002627 -0.003315 0.002439 0.001420 0.004974 -0.001326 0.003135 0.000078 0.004639 0.003450 -0.004049 -0.003733 -0.003036 0.003701 0.001623 -0.001862 -0.004928 -0.000630 0.004006 -0.001507 0.003993 -0.001022 -0.000423 -0.000476 0.003335 -0.000686 0.000958 -0.004374 -0.003757 -0.000202 0.000883 -0.003794 0.003186 -0.002617 0.002856 -0.002999 0.002186 -0.002475 -0.002353 -0.001938 -0.001909 -0.001437 -0.001502 0.000315 0.004202 -0.001701 -0.002405 0.002752 0.003453 -0.001175 0.002077 0.003864 -0.004685 0.004053 0.004226 -0.000622 -0.004319 -0.003185 0.001938 -0.002683 -0.002423 -0.000196 -0.004103 0.002978 0.004620 0.001064 0.001808 -0.001534 -0.004225 -0.002810 -0.002169 -0.001538 0.000392 0.004682 0.000928 -0.002928
matter -0.002553 -0.002418 -0.004343 -0.002962 0.004844 0.001600 0.001237 -0.001373 0.002028 0.000693 0.002278 -0.002757 0.002527 0.000332 0.001253 0.001153 0.000876 0.004394 -0.002989 0.001551 -0.001561 0.000023 -0.000950 0.003471 -0.000254 0.004262 -0.001274 0.000221 -0.004132 -0.003355 0.000135 -0.004876 -0.000342 -0.002360 -0.002490 -0.003598 -0.002605 0.001432 0.001060 0.001108 -0.002434 0.004716 0.001737 0.000971 -0.002203 -0.004083 0.003171 -0.001839 0.000192 0.003376 0.000374 -0.001440 -0.003739 0.002718 -0.000151 -0.001654 0.004173 0.004056 0.001354 0.004398 0.001189 0.000207 -0.000587 -0.002733 0.000694 0.002525 0.001160 -0.000248 0.000180 -0.001392 0.000218 -0.003715 0.001988 0.001476 0.002331 0.000021 0.002260 -0.004607 0.004007 0.003695 0.004274 -0.004565 0.004107 -0.000743 0.001978 -0.004595 0.002484 0.003932 0.003386 -0.001483 0.002998 0.002287 0.001326 -0.000569 0.003827 -0.002783 0.003808 0.003069 0.003744 -0.002310
filed 0.003783 0.003856 0.002932 -0.000605 0.001396 0.004519 -0.000245 0.001533 0.004517 0.004524 0.003246 0.004642 0.002469 0.001050 0.003308 -0.001174 -0.000278 0.003703 0.003746 -0.003771 0.002051 0.001272 -0.004140 -0.002186 -0.004990 -0.003512 0.003020 0.002322 0.004684 0.003513 -0.001329 -0.004163 0.003979 0.003602 -0.001886 -0.001654 -0.000880 0.000050 0.000356 -0.004417 -0.000380 0.002451 0.004796 0.002793 0.001606 0.004849 0.002107 -0.002363 0.003698 0.003486 0.001816 0.004539 0.002258 -0.001436 0.001108 0.004553 -0.003014 0.002229 0.003418 -0.003367 -0.002658 -0.003907 0.000249 -0.000930 -0.004317 -0.000948 -0.004691 -0.001461 -0.002365 0.001578 -0.000364 -0.000183 -0.000758 -0.004276 0.001543 -0.004444 0.002556 -0.003557 0.004406 0.001037 -0.002904 0.001569 -0.001720 -0.000481 -0.004087 0.004320 -0.000195 0.000582 0.003158 0.000680 0.002794 0.001661 -0.004414 -0.003878 0.001397 0.004103 -0.002909 0.003874 -0.001283 0.001308
version -0.000038 -0.002766 -0.004300 -0.004280 0.003069 -0.001307 -0.003769 0.004978 -0.004996 0.000145 0.000244 0.003815 0.000446 -0.001216 -0.002996 0.003611 -0.001643 -0.004789 -0.003048 0.000445 -0.000205 0.001123 0.003206 0.003996 0.000567 0.001286 0.002139 -0.003252 -0.002610 0.002966 0.000976 0.002711 0.004348 0.000854 -0.002310 -0.000311 -0.002808 0.001044 -0.003853 0.004682 0.001707 -0.000588 0.003025 0.002372 0.002878 -0.001227 -0.001935 0.003701 -0.003251 0.003300 0.004779 -0.004638 0.002569 0.003010 -0.002271 -0.002519 -0.004771 -0.002884 -0.000651 0.000563 -0.002034 -0.001585 -0.002819 0.002727 -0.004322 -0.003616 -0.002235 -0.000700 0.001470 -0.001274 -0.002725 -0.002599 0.000908 -0.001930 0.000992 0.002558 -0.001713 -0.001797 -0.000107 0.002445 -0.002172 -0.002793 -0.002749 -0.000570 -0.003465 -0.003539 -0.003547 0.001096 -0.001690 0.004395 0.003611 0.001464 0.002447 0.000638 -0.002795 0.000452 0.002129 0.003223 0.000764 0.004390
at 0.004809 0.002730 0.002411 0.001191 0.000239 -0.001107 -0.004086 -0.002951 0.003961 -0.000895 0.003237 0.000773 0.001436 0.003779 -0.003204 0.004047 -0.000151 -0.003555 0.002092 -0.002403 0.003982 0.004249 -0.004432 -0.003876 0.004449 0.004784 -0.003620 -0.001020 -0.002807 -0.003063 -0.000697 0.004805 0.002718 -0.001826 -0.003655 0.003199 0.001464 -0.000179 -0.002165 -0.002626 -0.004743 -0.003492 -0.002141 -0.003416 -0.002437 0.003127 -0.000342 -0.001217 0.004814 0.001991 -0.000276 0.004296 -0.004651 -0.001131 -0.004113 0.004910 -0.003115 0.001498 0.000185 -0.003633 0.003265 -0.001249 0.004689 0.002925 -0.002893 -0.002450 -0.000891 -0.001731 0.002678 0.001431 -0.000063 -0.001786 0.003611 0.003162 0.001814 0.004366 0.003581 0.002005 -0.003899 0.003968 -0.000039 -0.002549 0.000536 0.000303 -0.002777 -0.002121 0.001304 -0.004304 -0.001027 -0.000401 0.002335 -0.002033 0.002606 -0.002666 0.004836 0.000200 -0.003243 -0.001751 -0.001087 0.004767
in 0.003094 0.004399 0.002037 -0.001017 0.003414 0.002678 -0.004339 -0.004778 0.000233 0.004133 0.004866 -0.000610 0.000634 -0.003564 -0.001619 -0.003108 0.004087 0.001344 0.000493 0.003284 0.001141 0.004258 -0.002231 0.002117 -0.000043 -0.000816 0.000202 -0.000009 -0.003082 -0.001386 -0.000307 0.002106 -0.003676 -0.001892 0.003383 -0.002298 -0.003527 0.002710 -0.001360 -0.002473 0.001326 0.002159 0.004212 0.001760 -0.004915 0.001895 0.001378 -0.002111 -0.000760 0.003274 -0.003394 0.000146 -0.000202 0.001743 0.001624 0.001528 -0.000180 0.000556 0.000419 -0.003320 -0.004191 -0.004891 0.002029 -0.002747 0.000433 0.001113 -0.000955 0.004393 0.004575 0.002240 -0.001686 0.000880 -0.001684 0.002487 -0.004564 0.002108 -0.002867 0.002828 0.003835 -0.004877 -0.004822 0.002719 0.000555 0.003111 0.001830 0.003212 0.001000 0.000848 -0.004778 0.004771 0.002914 0.003264 -0.003908 -0.004889 0.001327 -0.003875 0.002395 0.004617 -0.000681 -0.004842
The 0.002244 0.001732 -0.002706 -0.003498 0.004558 0.001954 0.004627 0.003660 -0.002965 0.004738 0.003104 -0.002500 0.000779 -0.000804 0.002065 0.000985 -0.002983 -0.003267 0.003209 0.001829 -0.001679 0.002809 -0.000032 -0.002244 0.000689 0.003557 -0.001536 -0.004530 -0.002776 0.004968 0.000389 0.000132 0.003024 -0.004982 -0.004196 -0.003497 0.000691 0.001205 0.003571 -0.000006 -0.001227 0.003476 0.001461 -0.002378 0.004832 -0.001194 -0.003236 0.000454 0.001335 0.001252 -0.000413 -0.003929 0.000473 -0.000736 -0.002945 0.003206 -0.004174 -0.003089 -0.003947 -0.003778 0.002555 -0.003882 -0.000656 -0.002380 0.001889 0.001858 0.002066 0.004408 0.000173 0.001748 -0.000025 0.004632 0.002969 0.000354 -0.004949 0.001622 -0.002413 0.000562 -0.003875 -0.001092 -0.001659 -0.000259 -0.003872 -0.000789 0.004433 -0.003703 -0.004035 0.003870 0.004710 -0.004981 -0.000592 0.002014 -0.002619 -0.004217 -0.001804 0.003787 0.002601 0.004295 0.000765 0.000619
attached 0.001812 -0.004050 -0.002230 0.000085 0.003627 -0.002360 0.001158 -0.002840 -0.002332 -0.002820 -0.000223 -0.004984 -0.002812 0.004109 0.001967 -0.000598 0.003882 0.003147 0.004699 -0.004678 0.004346 0.000520 -0.002530 -0.001660 -0.003407 0.004581 0.001865 0.002413 -0.001146 0.000428 0.000679 -0.004348 -0.001235 0.000257 -0.002581 -0.002389 0.004275 0.001848 -0.002889 0.004086 0.000179 0.000551 0.003903 0.002797 -0.002755 0.002093 0.002801 -0.001052 0.003974 -0.001253 -0.000507 0.001178 -0.004461 0.000305 0.000498 0.001882 -0.004277 -0.003126 -0.001724 0.003634 -0.002961 0.003814 -0.002006 -0.004357 0.003206 -0.004579 -0.003967 0.003080 0.001473 0.001530 -0.001098 -0.001278 0.004253 -0.001836 0.000324 0.004039 0.001310 0.001339 0.000574 0.000977 -0.002055 0.004963 -0.002591 -0.000213 -0.001195 0.004450 0.001505 0.003816 0.003403 -0.004215 -0.004374 -0.004776 0.002602 -0.004883 0.002622 -0.004452 0.002617 -0.004450 0.003391 0.001635
