33 100
$ -0.004225 -0.002725 0.003038 -0.004015 0.004822 -0.001275 -0.004640 -0.001896 0.001315 0.001525 0.004902 -0.000573 0.001898 -0.001823 -0.000769 0.002713 0.004044 0.001293 -0.004216 -0.004000 0.000525 0.001313 -0.003620 -0.001668 0.001067 0.003562 -0.002467 0.003202 0.004004 0.001669 0.001939 -0.001288 -0.004877 0.001772 0.000503 -0.003836 -0.004188 0.003211 0.003085 0.002026 0.003952 0.004727 0.000922 -0.004886 -0.001189 -0.001250 -0.003853 -0.004688 0.002838 -0.000700 -0.001860 0.002277 -0.003226 0.000121 0.000568 -0.003843 -0.000260 0.001848 -0.003185 -0.001219 -0.002006 0.003505 -0.001849 -0.002295 -0.003334 0.002032 0.000345 0.002954 -0.003222 -0.003737 0.004915 0.002543 -0.003043 -0.000760 -0.003119 0.002757 0.002175 -0.001118 -0.002028 0.003826 -0.000065 -0.004290 -0.004331 -0.003563 -0.000707 -0.003794 -0.003080 0.003091 -0.000257 -0.003800 -0.002411 -0.002982 0.000738 0.001128 0.000418 0.003609 -0.003865 -0.002097 -0.003774 0.003393
executed 0.001916 -0.003691 0.001769 -0.002057 -0.002141 -0.003309 0.001864 0.004468 -0.000769 0.004205 -0.001300 0.002890 -0.003700 0.004496 -0.003831 0.003846 -0.001624 0.004006 0.004362 0.000144 0.000001 0.003409 -0.003833 0.000509 0.004722 -0.003805 0.000816 0.003860 0.003479 0.000619 -0.002221 -0.002375 0.003061 0.002473 -0.002596 0.002265 -0.000635 0.003344 0.004086 0.000673 -0.001265 0.002474 -0.003630 0.003084 -0.000671 0.000347 -0.002595 0.000901 0.002394 -0.001566 -0.002808 -0.004391 -0.003359 -0.001443 -0.002533 -0.000411 -0.002221 0.004616 -0.000876 -0.001830 0.003204 -0.003427 -0.001998 0.003188 -0.003901 -0.000949 0.003816 0.001438 0.000609 -0.000093 -0.001549 0.000759 0.002420 0.000197 -0.003771 0.000005 0.001765 -0.003181 -0.000293 0.001291 0.000606 -0.000404 0.000618 0.001780 -0.001818 -0.001483 0.002775 0.004440 -0.004926 0.000439 -0.001551 -0.000678 0.001794 0.002948 0.000795 0.000549 -0.004281 0.001158 -0.003545 -0.000421
- 0.004449 -0.004507 -0.004442 0.002670 0.004868 -0.002942 0.001643 0.000669 -0.001711 -0.002867 -0.002075 0.003289 -0.004058 -0.004061 0.002939 0.004581 0.003732 -0.000321 0.004186 0.000922 -0.000691 0.003447 -0.002551 -0.001026 -0.002323 0.004043 0.003952 0.004637 0.003748 0.003876 -0.004200 0.004287 0.001957 -0.001572 -0.002223 -0.003012 -0.004556 -0.004825 -0.000990 -0.004962 0.000217 -0.001684 -0.000950 -0.004621 0.002665 0.003474 0.001661 0.002375 0.000720 0.000223 0.003703 -0.001143 0.003990 0.002425 -0.000566 0.000704 -0.001245 0.001123 0.000848 -0.002418 -0.002195 0.004097 0.004040 -0.004727 0.004497 0.003812 -0.004037 -0.002947 -0.002555 -0.003123 0.002055 -0.001125 0.000342 0.004411 0.002038 -0.001881 0.003932 0.004127 0.002147 -0.002362 -0.002855 -0.004178 0.003407 0.000853 0.003542 -0.004023 -0.000215 -0.004058 0.004631 -0.003626 -0.004264 0.004562 -0.001420 -0.003378 0.001391 0.003486 0.001464 0.003484 0.002851 0.000654
is 0.000507 0.000974 0.003506 0.001968 0.000061 -0.002862 -0.004626 0.004127 0.001304 -0.001158 -0.001777 0.002187 -0.004494 -0.001018 0.000013 -0.000370 0.000324 -0.000282 -0.004749 -0.002348 0.000177 0.000513 -0.004561 0.002224 0.002015 -0.004139 0.004336 0.002208 -0.005007 0.000774 -0.004165 0.003587 0.004436 -0.003007 0.002795 0.001883 -0.004108 -0.001453 0.003278 0.002549 0.000773 -0.000054 0.001749 0.004380 -0.000410 -0.003403 -0.000875 0.002011 0.003450 -0.004449 0.002794 0.000605 -0.000486 -0.004826 0.000941 -0.002157 -0.003044 0.002836 -0.003893 0.004301 -0.003228 0.002158 0.000406 0.002730 0.002711 -0.004420 0.003913 0.001662 -0.002042 0.000905 0.004187 0.002645 0.000589 -0.001140 -0.004393 0.001147 -0.001992 -0.000829 0.003878 -0.004960 0.000441 -0.001414 -0.002479 -0.002582 -0.003856 -0.004824 -0.001191 0.003014 0.001393 -0.002312 0.000839 -0.003512 -0.003281 -0.003960 -0.000092 0.002328 0.000941 0.000541 -0.003007 0.002710
we 0.003838 0.002963 0.001037 -0.003873 -0.000910 0.001084 -0.002019 -0.000228 0.002412 -0.001530 -0.000318 -0.000656 -0.003486 0.000016 0.000324 0.004906 -0.002544 -0.004770 0.003024 0.000083 -0.001805 -0.002669 -0.001019 0.002930 -0.000951 -0.001164 0.004123 -0.003119 -0.003173 0.003049 -0.001442 -0.003940 -0.004474 -0.001347 -0.002409 0.002165 0.002080 0.002217 -0.001107 0.004572 -0.001119 0.000264 -0.003970 0.000145 -0.004752 -0.000712 0.003377 -0.000198 -0.004818 0.000972 0.000815 0.002811 -0.004636 -0.001759 0.003915 0.003491 -0.000849 0.004212 0.004108 -0.000595 -0.001459 -0.003569 0.001543 0.003206 0.002466 -0.000108 -0.003645 -0.004347 0.004870 0.000201 -0.004482 -0.002845 -0.003460 -0.000731 -0.003951 0.004243 -0.000333 -0.003460 0.003617 -0.003345 0.004129 0.002882 -0.000453 -0.003916 -0.002004 -0.004125 0.003702 0.004612 -0.002284 0.000401 -0.004367 0.001528 -0.000897 -0.004422 0.004995 0.000610 0.002091 -0.003671 0.001878 0.004782
need 0.003489 0.001676 -0.000871 -0.001903 0.004619 -0.000555 -0.002818 -0.002711 -0.003918 0.002216 0.000516 0.003009 0.002966 0.002372 0.000772 -0.003067 -0.004704 0.004891 0.003058 -0.002340 -0.003603 -0.003451 -0.003810 -0.003537 -0.000153 -0.002909 0.000859 0.002919 -0.003470 0.002521 0.001905 0.002497 0.004182 0.002825 -0.003676 -0.003428 -0.002123 0.000213 0.002487 -0.002067 0.004108 -0.000343 -0.003223 0.002826 -0.002679 0.000440 -0.003783 -0.002135 0.001511 -0.002138 0.000893 0.000347 0.001603 0.001461 -0.003668 0.003062 0.002957 0.000267 -0.004929 -0.004970 0.001904 -0.000602 0.004531 0.002129 0.003620 -0.004688 0.003689 -0.001255 -0.002764 -0.002838 -0.003322 0.002379 0.001293 -0.003647 0.002583 -0.000935 -0.001725 -0.002044 -0.000303 0.001704 -0.001340 0.003171 -0.001795 0.001229 -0.004653 -0.003089 -0.001159 0.000761 -0.003674 -0.001101 -0.003551 -0.000139 0.002703 0.001929 0.001167 0.001960 0.000506 0.004725 0.001514 0.001665
Pad 0.004824 -0.000231 0.001935 0.000847 0.000470 0.003335 -0.003000 0.000499 0.003068 0.001599 -0.000503 -0.001196 -0.004942 -0.001806 0.003033 -0.002950 0.000343 -0.000210 -0.004342 0.003486 -0.000632 0.002632 0.001164 0.004033 0.003706 -0.003775 0.004340 0.002586 0.000210 0.000579 0.002099 0.002884 -0.000019 -0.000748 0.003490 -0.003076 -0.001589 0.004418 0.000042 -0.000921 0.004822 0.000276 0.001688 0.004557 -0.001991 -0.002756 -0.004968 0.004304 0.002973 -0.003194 -0.003448 0.004717 0.004957 0.002689 0.001632 -0.001877 -0.001617 0.004747 0.004137 0.003713 -0.000699 0.002795 -0.002177 0.004096 0.003869 0.000796 -0.004782 0.000703 -0.001830 0.001245 0.002631 -0.004065 -0.000217 -0.004447 0.003410 0.002899 -0.001124 0.000199 -0.003356 0.002709 -0.002395 0.004114 -0.004529 -0.001321 -0.003253 0.001259 0.000342 0.001456 -0.004098 -0.004522 0.000081 -0.004710 -0.002657 -0.003651 0.001035 0.000493 -0.002020 0.003448 0.000183 0.001743
Napoleonville 0.003932 -0.002430 -0.003146 -0.001604 -0.002355 -0.004901 -0.000630 0.004292 -0.003673 -0.002095 -0.002867 0.002169 -0.000794 -0.001102 -0.003054 -0.002827 0.000163 -0.001889 -0.002065 0.000285 -0.000281 0.004483 0.004330 0.001303 0.004721 -0.004655 0.001149 0.000434 0.000293 0.000900 0.004163 0.004904 -0.000862 0.004727 0.004229 0.004445 0.001614 -0.000580 -0.000866 0.001721 0.001931 0.003580 0.002678 0.000262 -0.002601 0.000505 -0.003486 -0.001211 -0.002667 -0.003190 -0.004363 -0.000664 -0.000898 0.002405 0.004922 0.004524 -0.004004 0.003465 -0.000630 -0.001731 -0.003221 -0.004925 0.003735 0.003291 -0.004215 -0.002516 0.000305 0.004467 0.000641 -0.001244 -0.003464 0.004002 -0.003059 0.003590 -0.004705 -0.004209 -0.001509 0.002332 -0.004421 -0.000198 0.003375 0.002578 -0.000052 -0.003218 0.000700 0.002908 -0.003420 0.001903 0.004127 0.004323 0.000881 0.004490 0.003829 0.001537 -0.000783 0.003650 -0.001527 -0.003311 0.000801 -0.004739
1,000,000 -0.000422 0.000109 -0.001724 -0.004053 0.002405 -0.000499 -0.004620 -0.000923 -0.003549 -0.001135 -0.004809 0.001084 -0.000685 0.001874 -0.001392 -0.001615 0.000407 0.003779 -0.001049 -0.002654 0.000181 0.004293 0.002093 0.002115 -0.003355 -0.000637 -0.003825 0.004978 -0.003194 0.001327 0.001502 0.002870 -0.003831 -0.004364 -0.004286 -0.000635 -0.002890 -0.003020 -0.002943 -0.002016 0.000376 0.000213 0.003593 -0.000584 -0.000193 -0.002755 -0.000594 -0.001279 -0.001555 0.004476 0.004804 -0.003439 0.001093 0.000174 0.001142 0.003799 0.002094 -0.001769 0.000645 0.001936 0.000483 -0.000287 0.000367 -0.001656 -0.004143 -0.001384 0.003105 0.001589 0.002583 -0.004296 -0.003422 0.003603 -0.004437 0.004930 -0.002765 -0.004991 -0.001133 0.000981 0.002842 -0.001993 -0.001222 0.001133 0.003714 0.001702 -0.000852 0.001152 0.001823 0.000885 -0.000108 -0.001938 0.004129 -0.000916 0.002453 -0.003196 -0.000862 0.002738 -0.003451 -0.004657 -0.002947 0.004274
3,000,000 -0.001722 0.000719 0.001719 0.001746 -0.002684 0.000596 0.004653 -0.004175 -0.004829 -0.002671 -0.004965 -0.003598 -0.004897 0.003196 0.001812 0.004348 0.002351 -0.000383 -0.001401 -0.000677 0.001474 0.004974 -0.004502 0.001309 -0.000046 0.004267 -0.001824 0.001020 0.001354 -0.002750 0.000615 0.004129 0.004305 -0.000593 0.003277 0.002739 -0.004571 -0.000001 -0.004534 -0.003815 -0.002632 0.002439 -0.003133 -0.000294 0.002307 -0.001118 0.004934 0.003448 0.003447 -0.000661 0.004776 0.001305 0.004670 0.000277 0.001459 0.002628 0.001468 -0.002597 0.004630 -0.003633 -0.000164 0.002902 -0.003336 -0.001977 -0.002263 -0.002762 0.002214 0.004122 -0.000796 -0.000509 -0.001342 -0.004223 0.001354 -0.002449 0.004197 -0.000502 0.004727 0.000759 0.000630 0.000537 -0.000095 -0.003496 -0.004665 0.001233 -0.004577 0.004204 0.004125 0.000713 0.000258 -0.000773 0.004698 -0.002326 0.001105 -0.001172 0.001483 -0.001442 0.000224 0.003127 -0.000016 0.004822
if 0.001515 0.003538 0.001209 0.000488 0.000374 0.003741 0.003219 -0.002801 -0.004318 -0.003191 0.004596 -0.003522 -0.004721 -0.004365 0.002374 -0.001804 -0.001121 0.003393 -0.004746 0.004542 0.001421 -0.003302 -0.002820 0.004943 0.001807 0.001071 -0.002210 -0.001158 -0.005005 -0.000451 0.000143 -0.002267 -0.003063 0.003860 0.000615 0.002805 0.000598 -0.001981 -0.000694 -0.004421 0.001586 0.003003 -0.003476 0.000749 0.001388 -0.003625 0.002900 -0.002265 -0.003999 0.003889 0.001367 0.003040 -0.002301 -0.001031 -0.002871 -0.000150 0.001603 0.000320 -0.003770 0.001419 0.004993 0.003953 -0.002838 -0.001160 0.000587 0.002268 -0.002804 0.002114 -0.000237 -0.001032 -0.002577 0.002502 -0.001623 0.002518 0.003248 -0.000318 0.003742 0.001318 0.000410 0.000671 -0.003014 -0.003874 -0.000033 -0.000888 0.003643 -0.001296 0.001142 0.001621 0.002175 -0.002225 -0.001272 0.000283 -0.004848 -0.002689 0.003142 -0.002784 0.001173 0.002702 -0.000204 0.000565
what -0.003475 0.003327 0.002490 0.002536 -0.003035 0.001976 0.000265 -0.003720 0.002012 0.004421 -0.003828 0.002935 0.000354 0.004484 -0.001598 0.003377 0.002133 0.003866 0.002813 0.004651 0.003128 -0.004113 0.000422 -0.003086 -0.004023 0.003316 -0.001479 0.002152 -0.000941 0.003554 -0.001214 -0.003610 -0.004075 -0.004770 0.004173 0.002994 -0.003851 0.001405 -0.001947 -0.004208 0.000681 -0.003052 -0.004013 -0.002559 0.001374 -0.001251 0.002018 0.003394 -0.002687 -0.004319 -0.000626 0.000557 0.003146 0.002406 0.002691 -0.004041 0.004998 0.004747 -0.004109 0.001789 0.003450 0.000156 0.000819 -0.002337 0.004372 -0.000814 -0.000786 0.001614 -0.003363 0.004612 -0.004251 0.001097 0.000551 -0.001114 0.002628 -0.002364 0.004519 0.003803 -0.002031 -0.003320 -0.001766 -0.004288 0.001617 -0.000700 0.002071 0.000739 0.002196 0.001376 0.004824 -0.002740 -0.000562 0.002838 0.000112 0.000175 0.003471 -0.000847 -0.003792 0.003927 0.002566 0.001866
Schedule -0.003033 -0.003021 -0.002078 -0.002878 0.004568 0.004055 -0.003017 0.004917 0.003093 0.001600 -0.002568 -0.001803 -0.002360 -0.001853 0.003165 -0.003406 0.001660 -0.000488 -0.004840 0.002047 0.002776 0.003176 0.000896 0.000078 0.003956 0.001751 0.004659 -0.004863 -0.001628 0.000033 0.003486 -0.001997 0.002507 0.000008 -0.003852 0.003358 -0.003164 0.004892 0.002064 0.004204 -0.002483 -0.002504 -0.004812 -0.004038 -0.004563 0.004892 0.003626 -0.003425 -0.002129 -0.004519 -0.000412 -0.003175 -0.000896 -0.000637 -0.000845 -0.002416 0.003043 0.000475 0.003607 -0.000332 -0.002234 -0.001842 -0.004243 -0.003136 -0.001726 0.001118 -0.001642 -0.003127 0.001638 0.003992 -0.002540 0.003832 -0.002125 0.000382 -0.003568 -0.001242 0.000127 -0.001620 0.000982 -0.003013 0.001612 -0.003420 -0.004007 0.003860 0.003371 -0.004432 0.001543 -0.002231 -0.003778 -0.000116 -0.001099 -0.004850 0.003071 0.001957 0.002952 0.001248 -0.000573 -0.004028 -0.000290 -0.002219
Gas -0.000462 0.000120 -0.002331 0.003411 -0.000946 -0.004887 0.000907 0.002399 -0.003882 -0.001487 -0.001506 0.005017 0.001907 0.000643 0.000098 -0.001768 -0.004469 -0.002900 0.001810 -0.000020 -0.000329 -0.001064 -0.003068 0.004791 0.001001 0.004118 -0.001490 0.002991 -0.001802 -0.004009 -0.001306 -0.003904 0.003771 0.001423 -0.003164 -0.004076 -0.003548 -0.003816 0.000095 0.003720 0.001105 0.003256 -0.004629 -0.001919 0.004109 -0.004880 0.000124 0.001005 0.001019 0.003464 0.002183 -0.002761 0.003778 0.001485 0.004836 0.003922 0.004983 -0.000855 -0.001212 0.001334 0.003509 -0.004791 -0.002414 -0.004206 0.003741 0.001705 -0.003518 -0.002048 -0.001108 0.001536 -0.000146 0.002823 0.002252 0.003049 -0.001481 -0.002095 -0.004454 -0.003934 -0.004717 -0.001608 -0.003529 0.000578 -0.004050 0.002993 -0.001479 -0.004564 0.002700 -0.004278 0.002306 -0.003628 -0.000614 0.005017 0.001932 -0.002692 -0.001416 0.002608 0.004138 -0.002045 -0.000219 0.001082
, -0.001443 0.004659 0.000112 -0.001305 0.004252 0.003357 0.003979 -0.000745 0.001990 -0.002100 -0.002662 -0.001101 0.002442 -0.004942 0.002991 -0.004692 -0.001697 0.003915 -0.001610 0.001865 -0.002222 0.003549 0.001684 -0.001284 0.000973 -0.001874 -0.001270 -0.002715 0.001691 0.004887 0.001802 0.004878 -0.000982 0.004803 0.003000 0.003130 0.004035 -0.001103 0.003311 -0.004106 0.003841 0.000329 0.001600 0.001888 0.004891 -0.003736 0.002689 -0.000742 -0.000935 -0.003885 -0.004677 -0.000040 0.002727 0.003291 -0.002733 -0.000873 -0.000329 0.002648 0.001483 -0.001590 -0.000719 -0.001500 -0.004444 -0.004053 -0.002275 -0.004425 -0.001993 -0.002403 -0.000447 -0.000449 -0.003586 0.000484 -0.001803 -0.000884 -0.003321 0.000547 -0.000809 -0.004790 -0.000023 0.002346 0.003400 -0.003694 -0.004095 -0.002199 -0.001205 -0.004704 0.002686 -0.004704 -0.002309 -0.002672 -0.003832 -0.002840 -0.000500 -0.004752 0.002509 -0.001067 0.003471 -0.001957 0.001380 -0.004583
1,302,036 -0.004561 0.002295 -0.003102 -0.001168 -0.004016 0.001560 -0.000693 -0.000130 0.003359 0.003329 0.002193 -0.002000 0.004032 0.003819 0.002311 -0.002582 0.001823 0.002710 0.004562 0.004634 -0.000683 0.003036 -0.001724 0.003513 0.004791 0.004478 0.003662 -0.003510 -0.004297 -0.000815 -0.001135 0.002893 0.000735 0.000225 0.002239 -0.001933 -0.004522 0.000975 0.000922 0.002726 0.004713 -0.000195 -0.000522 0.000436 0.000511 0.002770 -0.003867 -0.003845 0.004144 -0.001345 0.002092 -0.002962 0.000540 -0.002560 -0.003964 -0.003832 0.002703 -0.002145 -0.000721 0.003543 0.002827 -0.003604 0.001931 -0.000960 -0.002636 -0.000979 0.000129 0.004829 0.002449 0.004457 -0.004248 0.002246 0.001694 0.003362 0.004714 -0.002614 -0.004935 -0.001856 -0.000367 -0.004803 -0.003806 0.003297 0.003256 -0.004606 0.002507 0.001421 0.000469 -0.004993 0.000638 0.004995 0.003225 0.004148 -0.001448 -0.000500 -0.001882 -0.002734 -0.001108 0.004983 0.002131 0.001116
. -0.001636 0.003934 0.001144 -0.002724 -0.000214 -0.003238 -0.004048 0.001573 -0.003539 -0.004846 -0.002747 0.000865 0.002053 -0.000109 0.003089 0.001063 -0.002004 0.004992 0.003929 0.002842 0.000864 0.000181 -0.004560 -0.003328 0.003129 0.001649 -0.004612 0.003152 0.000614 0.003585 -0.000628 -0.001877 -0.004484 -0.000280 -0.000673 0.000034 -0.004118 0.003712 0.003302 -0.002072 0.002478 0.000892 -0.000193 0.003514 -0.000826 0.001900 0.001417 -0.004674 0.000458 0.002448 -0.002589 0.000895 0.004035 0.001077 0.002436 0.000601 0.001254 -0.000565 0.002231 0.004211 -0.003604 0.002398 -0.000824 0.004048 -0.003727 -0.001158 0.000866 -0.000595 0.004076 0.003981 0.002315 0.000809 0.003420 -0.004469 -0.003073 -0.000242 -0.003141 0.003752 0.004042 -0.004461 0.003882 0.000037 0.003322 0.001120 0.000676 0.002467 0.003235 -0.001704 0.002746 0.000322 -0.003021 -0.002416 -0.001559 -0.001917 -0.000477 0.001806 0.003477 0.000968 -0.002123 0.000062
18th -0.000889 -0.002802 0.003525 0.003216 0.004079 0.000941 0.003129 0.004733 -0.004473 0.004424 -0.000463 0.003701 -0.001137 -0.001988 -0.000035 -0.000764 -0.003990 -0.002438 0.003729 -0.002553 -0.004256 0.002087 -0.003591 -0.003596 -0.003056 -0.004408 0.002988 0.000140 -0.003092 0.001111 0.001454 -0.000550 0.001625 -0.001768 0.003061 -0.002282 0.004571 0.004854 0.003171 0.004558 0.003036 0.003505 -0.004034 0.004117 -0.002446 -0.002115 0.002801 0.001244 -0.003025 0.003644 -0.001667 0.003374 0.004620 0.004407 -0.003366 -0.003151 0.004485 0.000263 0.003724 0.003337 0.001534 0.000133 -0.003555 0.001819 0.000243 0.004265 0.002158 -0.002820 0.000537 -0.004516 -0.000131 -0.003408 0.004780 0.000492 -0.003436 -0.001355 0.003228 -0.001391 -0.000511 0.003457 -0.004798 -0.002777 0.001925 -0.003901 0.003732 -0.000022 0.002060 0.002719 0.002686 0.001811 0.003023 0.003218 -0.001496 -0.000605 0.001696 0.003974 0.002219 0.002142 0.001214 -0.000776
Let 0.002285 0.001800 -0.001853 -0.002722 0.004709 0.003516 -0.003100 -0.003061 0.004111 0.000218 0.002101 0.000782 0.000733 -0.002076 0.003308 0.000179 0.002070 -0.002178 -0.002698 -0.003939 -0.004239 0.000457 0.002916 -0.001389 0.000735 -0.004706 0.003802 0.001049 -0.003555 -0.004048 -0.003727 0.002449 -0.003324 -0.003948 -0.004929 -0.002236 0.002982 -0.003018 0.000164 -0.001384 -0.000853 -0.004600 -0.002845 0.001159 0.003690 0.004542 -0.000821 -0.002642 -0.002758 -0.004175 0.000307 -0.002950 0.003074 -0.001126 -0.004176 -0.002632 -0.000373 0.001483 -0.002062 -0.001358 -0.000451 0.001938 -0.002771 0.003018 -0.003950 0.000113 -0.002943 0.001588 0.002981 -0.001863 0.001884 0.002328 0.002328 -0.003156 -0.000791 -0.001742 -0.000168 -0.004245 -0.001258 0.003348 0.002747 -0.003884 -0.003230 0.001535 0.000992 0.000621 -0.000481 -0.000770 -0.003256 0.001816 0.000302 0.003809 0.000297 -0.003096 0.002395 -0.002878 0.001274 0.002626 -0.004237 0.002635
you 0.004685 -0.000271 -0.003975 0.004790 -0.000138 0.003446 -0.003721 -0.000851 0.004985 0.001409 0.000335 -0.003380 -0.001973 0.002590 -0.004523 -0.001485 -0.003901 -0.003661 -0.003995 0.003512 -0.004617 -0.001536 -0.003547 0.000423 -0.003952 -0.000242 -0.001408 -0.002871 0.002419 0.001446 0.001715 -0.000472 -0.004578 0.003246 -0.004215 0.001489 0.002624 0.001244 -0.004926 0.001382 -0.003390 -0.001174 0.000978 0.002425 -0.003540 0.002399 -0.001580 -0.000056 0.004379 -0.003727 -0.003764 0.002082 0.003156 -0.000964 -0.002572 -0.004181 -0.002830 0.004559 -0.001100 -0.004783 -0.004804 0.003811 0.002480 -0.001700 0.002795 0.000467 0.003752 -0.004360 -0.004640 -0.000166 0.000193 -0.003543 -0.002294 0.002228 0.003585 -0.002086 0.004340 0.001085 0.002029 0.004940 0.004508 0.003963 -0.003062 -0.001803 -0.004092 0.003734 -0.000604 -0.001616 -0.000772 0.000818 0.002523 0.003522 0.004667 0.004388 0.001756 -0.002778 -0.001341 -0.004828 0.004888 0.004020
: 0.000285 0.001676 -0.002289 0.003861 0.000615 0.002972 0.004324 0.000664 -0.001602 -0.000265 -0.001504 0.001312 -0.001004 0.002801 0.000705 0.004274 0.000787 -0.002826 -0.003326 -0.004365 -0.001265 0.000903 0.001127 0.004879 0.002878 0.003504 0.001414 -0.003511 -0.001801 -0.000268 0.001526 0.001893 -0.002869 0.002546 0.004976 0.003452 0.000904 -0.000736 0.001789 -0.000378 -0.003008 -0.001025 -0.001431 -0.003804 0.000199 -0.000428 -0.004120 0.001515 0.002388 -0.004892 -0.000217 -0.004582 0.002875 0.000916 0.000355 -0.000496 0.002256 0.004284 -0.003483 -0.002784 0.000692 -0.004876 -0.003459 -0.003420 -0.002334 -0.000298 0.000762 0.004267 -0.002685 -0.002332 0.000660 0.004686 0.002791 0.000535 0.000452 0.001291 -0.000015 0.001441 0.002340 0.002882 -0.002327 0.004804 0.001251 -0.001546 -0.004427 0.004702 0.002749 0.004404 0.003253 0.003306 0.000659 0.001042 -0.000265 -0.004424 0.000100 0.003543 0.002807 0.000189 -0.003989 -0.000684
C -0.001179 -0.004754 0.001598 -0.002400 0.004446 0.002729 -0.004774 -0.002326 0.003699 0.003728 0.000808 0.001524 0.000802 -0.000690 -0.003184 0.002722 -0.000787 0.002328 0.004963 0.000984 0.002875 0.000828 -0.001948 0.000847 0.001389 -0.000820 -0.001558 0.002521 0.004175 -0.003341 0.000241 -0.002799 0.002871 0.003782 -0.000226 -0.001088 -0.000928 0.003692 -0.001570 -0.004079 -0.001263 -0.001529 0.003354 0.001259 0.000615 0.000729 0.000101 -0.001005 -0.001772 0.002455 0.003138 -0.001770 0.002190 -0.004932 0.000869 -0.000518 -0.003904 0.004988 -0.002818 -0.002522 0.001802 0.000556 -0.004724 -0.002002 0.002601 0.002286 0.000308 0.003162 -0.002707 -0.004037 -0.002778 0.001386 0.000538 0.000155 0.001157 -0.004881 -0.003322 -0.002281 0.004002 0.003432 -0.000882 -0.001140 -0.002516 0.000191 0.001580 0.002138 -0.002104 0.002233 0.002606 -0.001397 -0.003859 0.000700 0.002539 -0.001332 -0.003282 0.003372 -0.004990 0.000492 0.003635 0.002004
This 0.004218 -0.004960 0.003778 0.002943 -0.001842 -0.002941 0.001416 -0.001129 0.003450 -0.001560 0.002587 0.000234 0.003446 -0.002016 0.004421 -0.002879 -0.002390 -0.004504 -0.001497 0.000790 0.004984 0.001852 0.002319 -0.001693 -0.003308 0.004403 -0.004885 0.002605 0.000649 -0.002494 -0.003328 0.002013 0.003976 0.000656 0.003816 0.000293 -0.002285 -0.002233 -0.002071 -0.002181 -0.001248 -0.004721 0.001102 0.002742 0.000037 0.002286 0.001936 -0.003527 0.000601 -0.004303 -0.001684 0.004448 0.003736 -0.002875 -0.004442 0.001918 0.000305 -0.002604 0.003864 -0.003568 -0.004249 -0.002651 0.004897 0.004933 -0.000893 -0.000492 -0.002231 -0.002141 0.000372 0.002855 0.003218 0.003415 -0.004625 -0.002229 0.004808 0.003478 -0.004623 -0.000023 0.004430 0.002177 0.001955 0.003566 0.002778 -0.001018 -0.003146 0.000177 -0.004776 0.004185 -0.002464 -0.004862 0.002295 0.000004 0.004928 0.000399 -0.000481 0.001206 0.000258 -0.001182 -0.004688 0.000316
yesterday 0.003069 -0.004509 -0.001053 -0.004413 -0.000712 0.003626 0.003031 -0.000769 -0.002446 0.001020 0.002082 0.000885 0.004231 0.000820 -0.003422 -0.000925 -0.000120 0.003551 -0.000961 0.004713 -0.003240 -0.003920 0.004045 -0.001678 -0.001026 -0.002420 -0.003338 -0.003878 0.002866 0.004308 0.001543 0.003175 0.000348 0.000445 0.003722 0.003028 -0.000076 0.001170 0.002661 -0.003866 0.004855 -0.000301 -0.002096 0.001400 0.004761 0.000798 -0.002530 0.000196 0.002966 0.002941 0.003590 0.001668 -0.003341 0.002381 -0.003543 -0.003765 -0.000555 0.001945 0.001756 0.000724 -0.002815 -0.003655 0.002750 -0.001533 0.002728 0.002557 -0.000774 -0.002482 0.000404 -0.002783 0.000973 -0.004628 0.002413 -0.001986 -0.004503 -0.002369 -0.002531 -0.004233 -0.003075 0.004041 0.000820 -0.003955 0.003974 -0.003355 0.003798 0.004822 -0.001914 -0.001908 -0.003052 -0.004367 0.003096 -0.002323 0.000047 -0.004969 -0.004881 0.000517 0.004548 -0.003610 -0.001309 -0.002087
4th 0.003286 -0.001317 0.000899 -0.000795 0.002241 -0.003362 0.003828 -0.002160 -0.001534 0.003740 0.001255 -0.002532 -0.003597 0.001247 -0.004541 -0.004488 0.000814 -0.002874 0.004049 -0.003654 0.003332 -0.003532 0.004021 -0.001474 -0.003230 -0.002783 0.003014 -0.004373 -0.001105 -0.000526 -0.002124 0.004364 0.001987 -0.002671 0.003272 -0.003409 0.000300 -0.004315 0.001845 -0.004467 0.003404 0.004637 0.004272 0.000797 0.000471 -0.002948 -0.001500 -0.003901 -0.002998 0.004586 -0.002317 -0.004095 0.004849 -0.000634 -0.001996 0.003153 0.001000 0.001256 -0.002101 -0.001137 -0.003380 0.002903 -0.001418 0.001462 -0.003589 -0.004160 -0.002268 -0.001403 -0.001382 -0.003887 -0.002355 0.001957 -0.000169 0.003460 -0.003517 0.003646 0.003997 0.003619 0.002378 0.000066 0.000019 0.000256 -0.000209 -0.000878 -0.004325 -0.004971 -0.003891 -0.001529 -0.000708 0.001848 0.000596 0.002651 0.002234 0.003935 -0.004399 0.001928 -0.001703 -0.003842 0.002391 -0.002374
know 0.002301 -0.000056 0.002914 0.002446 -0.003769 0.001327 0.003660 -0.004961 0.000668 0.001858 -0.003594 0.003745 0.003944 -0.000281 0.004419 0.003035 0.004271 -0.003337 0.004862 0.002084 -0.004586 0.004735 -0.004915 0.004435 0.004895 0.002282 -0.001422 -0.001703 0.001484 -0.004265 -0.004279 -0.000111 0.003876 0.000594 -0.003349 0.003814 0.004093 0.002271 -0.003332 0.002691 0.002941 0.000467 0.004791 -0.003412 0.001573 0.003358 -0.001476 -0.002303 0.002124 -0.003761 0.001798 -0.000713 0.001900 0.002425 -0.003203 -0.000493 -0.001997 0.000014 0.004642 0.003955 0.001654 -0.003190 -0.002169 -0.002659 0.000304 0.000059 -0.001884 -0.003269 0.001374 -0.004433 -0.004197 0.004444 -0.003355 0.000948 0.002959 -0.002872 0.003362 -0.000974 0.002751 0.001060 -0.003236 -0.001633 0.002679 -0.000657 0.003300 -0.003001 0.001086 0.000618 0.002866 0.004467 0.003737 0.001773 0.000871 -0.004498 -0.001262 -0.004620 -0.003807 -0.001222 -0.002140 0.004839
Jean -0.002506 -0.004245 -0.001151 -0.003813 -0.001047 -0.002479 -0.000958 0.002176 -0.002973 0.004212 0.001793 -0.002676 -0.000532 0.001409 -0.002419 0.004396 -0.002979 -0.003778 0.004265 -0.004501 0.002930 -0.002236 -0.003090 -0.000272 0.003314 -0.003646 -0.001246 0.004032 0.002095 0.002372 0.003963 0.003952 -0.004415 -0.000520 0.002328 0.000499 0.003814 -0.001321 0.001079 0.001942 -0.002464 -0.003055 -0.002073 0.003836 -0.002148 0.000915 -0.001046 -0.001173 -0.004250 -0.004353 -0.003123 -0.003229 0.000622 0.003634 0.002993 -0.001847 -0.000734 0.001606 -0.005000 0.000854 -0.004801 -0.004170 -0.001372 0.003124 0.002782 0.000645 -0.001165 0.003179 0.004027 0.004639 -0.003634 -0.000979 -0.000102 0.003812 -0.004796 0.002114 -0.003285 -0.002622 -0.004053 0.000270 0.002533 -0.001797 0.004271 0.003106 -0.004886 0.002359 0.001690 -0.004828 -0.004580 -0.001615 -0.003806 -0.003831 -0.001125 -0.000255 -0.004398 -0.003780 -0.002417 0.003496 -0.001468 -0.000644
additional 0.000542 -0.001272 -0.001023 -0.002393 0.000762 0.001445 -0.004134 0.003913 -0.004289 -0.001121 -0.001529 -0.000016 0.003575 0.000030 0.002593 -0.004963 0.003645 0.001448 -0.000327 0.004827 0.000143 0.000502 -0.004190 -0.002016 0.003610 0.000136 0.003225 -0.002207 -0.002688 0.001750 0.000791 -0.002643 -0.000279 -0.002158 -0.002631 0.000830 -0.003886 0.001611 -0.002641 -0.004615 -0.003312 -0.003049 -0.001922 0.001502 0.002359 -0.002511 0.004144 -0.002721 0.000222 -0.002914 -0.000148 -0.001145 0.004325 -0.000287 0.001604 0.000679 -0.000615 0.001796 0.001436 0.004282 0.002908 -0.002033 -0.002295 -0.002368 0.003189 -0.003222 -0.003164 -0.002080 0.000203 0.000593 0.003012 0.002735 -0.003663 -0.001911 0.004979 -0.000466 -0.002168 -0.001017 0.003099 -0.003847 0.004843 -0.003816 -0.003114 0.003783 0.003764 -0.001440 0.003516 0.004096 0.000741 -0.000413 -0.002018 -0.001496 0.001204 0.002601 -0.001554 0.003126 -0.003966 0.004335 0.004235 0.000410
me -0.003482 0.004124 0.004909 -0.004566 -0.000711 0.000620 -0.000867 -0.000392 0.003271 -0.001405 -0.002040 0.000902 -0.003978 0.000558 0.000983 0.004850 -0.003307 0.001085 -0.000720 0.001563 -0.004908 0.004159 -0.002818 -0.000098 0.002185 0.000236 0.003208 -0.001174 -0.001645 0.000367 -0.003573 -0.002872 0.001461 0.002717 -0.000405 -0.000135 -0.003480 0.001973 -0.001377 0.000883 -0.004106 -0.001737 0.001486 0.000385 0.001910 -0.004293 0.003183 -0.002400 0.003231 -0.001840 0.002786 -0.001547 0.000196 0.003298 -0.004292 0.002228 0.001992 0.001258 -0.004470 -0.002933 0.001023 0.001724 -0.000832 -0.003547 0.002304 -0.004248 -0.003575 -0.000470 0.003849 -0.001151 -0.001075 -0.000310 -0.003877 -0.004205 -0.003896 0.004697 -0.000982 -0.004626 -0.004583 0.001977 -0.003848 0.003502 0.002844 0.004955 -0.004758 -0.001938 -0.002030 0.001891 0.002370 -0.004765 -0.000716 -0.002148 -0.002425 0.000071 -0.004214 0.002551 -0.004280 0.000326 -0.000667 0.000281
documentation -0.001127 0.003853 -0.000931 -0.004399 -0.001217 0.003359 0.003443 -0.002250 0.002858 0.000642 0.000283 -0.002433 0.004490 -0.004520 0.004321 0.001746 0.004610 -0.003575 -0.001775 0.002132 -0.004925 0.003775 -0.004615 -0.002620 0.004949 -0.001859 0.000137 0.002334 0.001783 -0.001154 -0.002581 -0.000744 -0.002545 0.002553 -0.003502 0.000653 -0.002226 -0.001943 -0.001635 0.003351 0.003132 -0.004824 -0.001848 0.003030 -0.001702 -0.000137 -0.001587 0.001365 0.002459 -0.004877 -0.001296 0.004048 -0.003536 0.002631 -0.004173 0.002929 0.003764 0.002049 -0.002725 -0.003384 -0.004326 0.002548 -0.003318 0.000780 -0.004123 0.000317 -0.000255 0.004573 0.000859 0.003092 -0.001510 -0.002498 0.001492 -0.000288 0.003552 0.001024 -0.001435 0.001362 -0.002757 0.004965 -0.001781 0.000165 0.003405 0.003357 0.000583 -0.003240 -0.002525 0.003026 0.002205 -0.004064 0.001894 -0.002909 0.001831 0.001095 0.002503 0.002490 -0.004895 -0.001239 0.000416 0.000762
2000 0.004323 0.002529 -0.002661 0.002655 0.000030 0.001331 0.004891 -0.002337 -0.000580 -0.002305 0.001667 -0.003463 -0.004211 -0.004842 -0.002914 -0.002515 0.003704 0.000948 -0.002482 -0.003692 -0.001420 -0.000668 0.000871 0.004201 -0.001076 0.003416 0.004287 0.004011 0.004016 0.001595 0.004263 0.001285 -0.004913 -0.001827 -0.004606 0.002400 0.002715 0.004536 -0.001068 -0.002205 -0.004347 -0.001970 -0.002246 -0.002868 0.003839 0.002917 0.000389 -0.000496 0.004793 -0.002523 -0.002477 0.004258 0.002086 -0.004635 0.002528 -0.001232 -0.004464 -0.003459 0.002736 -0.001212 0.002708 0.003384 0.001190 -0.002040 0.004482 -0.001558 0.003782 0.004791 0.003185 -0.003264 0.002087 0.003136 -0.001842 0.002707 0.000820 0.003064 0.004166 -0.001068 -0.002735 0.004060 0.000329 0.003285 0.000269 0.000011 0.004382 -0.000389 -0.003664 0.002575 0.002396 -0.002071 0.002808 0.000686 -0.002805 -0.004059 -0.003890 -0.000091 0.003885 -0.002342 -0.001887 0.000039
Jan. 0.002827 0.003383 0.003741 -0.000343 -0.003668 -0.004644 0.001956 -0.000619 -0.004629 -0.002654 -0.004801 -0.002498 -0.004669 -0.001804 0.004089 0.002841 0.002949 0.003647 0.001621 0.003983 0.004578 -0.003052 0.000057 -0.000280 0.002343 -0.003520 0.004829 -0.004021 -0.001165 0.004500 0.002992 0.002722 0.001899 -0.001943 -0.001268 0.002406 -0.001227 -0.003956 0.004324 -0.002060 0.000973 -0.003419 0.001436 0.002368 -0.004579 -0.002849 -0.000337 -0.001759 -0.001144 0.000402 -0.001802 0.001831 0.000003 0.004677 -0.002234 0.003065 -0.002836 0.004622 -0.004801 0.001504 -0.002205 -0.001755 0.004537 0.001483 0.003610 0.003653 0.004786 0.003040 -0.000311 -0.001136 -0.003080 -0.004319 0.003206 -0.003381 0.004843 0.002421 0.000951 -0.001848 -0.000057 0.000989 -0.004576 -0.003402 0.004023 0.003459 -0.002179 0.001501 0.001376 0.002890 -0.003411 0.003174 -0.001852 0.000785 0.002982 -0.000668 0.003079 -0.003464 -0.003773 0.001005 0.002084 0.002281
quarter 0.001114 0.003467 -0.003978 -0.002192 -0.003191 -0.003715 -0.001147 0.002703 0.002627 0.004747 0.004781 -0.004533 0.001578 -0.000255 0.002324 0.000343 -0.001929 0.000805 0.004894 0.002877 0.001272 -0.004696 0.000905 -0.004832 0.002702 0.001328 -0.001388 -0.001898 0.002961 0.000493 -0.001006 0.001617 0.002501 -0.003545 -0.002592 -0.000876 0.001653 0.004340 -0.002682 0.002467 0.004184 0.003561 -0.001417 -0.003767 0.003349 0.002832 -0.004117 -0.004810 0.000204 0.003928 -0.002988 -0.001811 -0.003108 0.004326 0.001521 0.003906 -0.000465 0.003319 -0.000371 -0.003919 -0.002295 0.002743 0.003908 -0.004649 -0.001557 -0.001005 0.003471 -0.004703 0.003447 0.002543 0.000844 0.004716 0.002062 -0.004265 0.002143 0.003064 -0.001430 -0.001160 0.000619 -0.002163 -0.004886 0.004449 -0.000610 -0.003774 -0.000442 -0.004473 0.004763 0.004585 0.000123 0.004398 0.003096 -0.003872 0.003387 -0.001089 0.004528 0.001102 -0.000336 0.000069 -0.004040 0.003955
