23 100
to -0.000479 0.004748 -0.002622 -0.004695 -0.004965 0.004804 0.003430 -0.004167 -0.000003 -0.000255 -0.004231 -0.000480 0.004226 -0.004763 0.003997 0.003588 0.001326 -0.002485 -0.000754 0.000745 -0.003893 -0.004099 0.003565 0.001213 -0.000993 -0.002572 -0.001474 0.003087 -0.000442 -0.002944 0.000726 0.003290 0.000214 -0.002484 -0.003849 0.002887 -0.003550 0.000649 0.004069 -0.002755 0.001321 -0.002529 -0.004062 -0.004205 -0.001566 -0.001563 -0.002520 -0.003178 -0.001503 -0.002360 0.001238 -0.004806 -0.002920 -0.004302 0.003796 -0.000016 -0.004314 0.001791 -0.000026 0.003073 -0.004112 -0.003111 0.004654 0.002788 -0.001936 -0.002399 -0.000585 -0.002972 0.003649 0.003898 -0.004457 -0.001313 -0.003668 0.003619 -0.000618 0.001469 0.002294 0.003425 -0.002642 0.001852 0.000989 -0.002667 -0.001049 -0.002243 -0.001215 0.003395 -0.000766 -0.003852 -0.001380 -0.004040 -0.004947 0.000539 0.001909 -0.000400 -0.001864 -0.000729 -0.003702 0.002206 -0.001193 0.000025
. -0.001646 0.003949 0.001141 -0.002728 -0.000224 -0.003227 -0.004046 0.001570 -0.003533 -0.004853 -0.002742 0.000856 0.002057 -0.000114 0.003099 0.001071 -0.002003 0.004989 0.003921 0.002845 0.000862 0.000173 -0.004557 -0.003327 0.003127 0.001654 -0.004620 0.003156 0.000620 0.003583 -0.000625 -0.001881 -0.004488 -0.000283 -0.000679 0.000035 -0.004121 0.003712 0.003313 -0.002072 0.002476 0.000885 -0.000201 0.003507 -0.000827 0.001903 0.001415 -0.004675 0.000463 0.002448 -0.002584 0.000899 0.004022 0.001066 0.002440 0.000596 0.001245 -0.000567 0.002234 0.004215 -0.003611 0.002400 -0.000818 0.004050 -0.003730 -0.001154 0.000868 -0.000597 0.004079 0.003997 0.002319 0.000793 0.003425 -0.004474 -0.003068 -0.000235 -0.003143 0.003757 0.004038 -0.004456 0.003885 0.000037 0.003319 0.001120 0.000673 0.002476 0.003235 -0.001710 0.002740 0.000313 -0.003030 -0.002421 -0.001559 -0.001920 -0.000475 0.001799 0.003478 0.000971 -0.002129 0.000055
a 0.000588 -0.001168 0.001327 0.001874 -0.002712 -0.004637 -0.002391 -0.001848 0.003537 0.003538 -0.000680 0.000357 -0.001827 0.001755 0.003700 0.001174 0.002087 0.004025 0.003319 0.000012 -0.002151 0.004833 0.002279 0.003742 0.000436 -0.001161 0.001625 -0.004061 0.004470 0.002754 -0.003070 0.000446 -0.001749 -0.002174 -0.004857 -0.000716 -0.001613 0.002025 0.001382 -0.001835 0.000906 0.002003 -0.003878 0.004938 -0.001996 0.000781 0.000523 0.000929 0.003728 0.000561 0.000134 -0.001621 0.000791 -0.003633 0.001653 0.002753 0.001618 -0.003103 0.003636 -0.001100 -0.002927 0.002345 0.003186 -0.002762 0.001622 0.001480 -0.002414 0.000704 -0.001207 -0.001531 -0.000231 -0.002094 -0.003287 0.000135 -0.002516 0.004572 0.001828 0.000738 0.000085 0.004930 -0.000686 0.002453 0.000540 -0.004166 0.000777 -0.004178 0.000834 -0.002661 0.004905 0.003971 -0.002805 0.003586 -0.000096 0.001057 -0.003988 -0.003032 0.002258 0.002958 -0.003938 -0.003868
will -0.001122 -0.001194 0.001042 0.002284 0.001702 0.003658 -0.004079 0.003207 -0.002876 -0.000353 0.004375 -0.004695 0.003190 -0.004126 0.002058 -0.003848 0.001391 -0.003733 -0.000642 0.004749 -0.003385 -0.004951 0.004996 0.002754 -0.002207 0.004106 -0.000077 0.003582 0.000014 0.000232 -0.000565 -0.001656 0.003385 -0.000573 -0.002629 -0.003610 0.002641 -0.001384 -0.001286 0.004495 -0.000541 -0.002117 -0.002860 -0.000570 0.000780 -0.004482 0.004771 0.004374 0.002263 -0.004370 -0.003304 0.004323 0.003037 -0.002780 -0.000620 -0.002237 0.000023 0.002270 -0.002565 0.004532 -0.000519 -0.003414 -0.001349 0.003362 -0.004586 0.001885 -0.002549 -0.002350 -0.002677 -0.004848 0.000477 -0.002098 -0.002566 0.003692 -0.002910 -0.004920 0.003343 0.004470 0.001001 -0.001836 0.002571 0.003949 0.002062 0.002165 -0.001609 0.003443 -0.002919 0.000051 -0.001224 -0.002243 -0.003635 -0.002379 -0.002516 -0.002902 -0.003910 -0.002188 0.003321 -0.004637 -0.002603 -0.002699
2nd -0.000252 0.003471 -0.002929 -0.000827 0.001880 -0.000416 -0.003863 0.003469 -0.002359 0.003911 -0.000091 -0.002536 -0.000988 -0.001561 0.000511 0.003631 0.004953 -0.001737 -0.004005 -0.000650 -0.003839 0.003573 0.003349 0.001455 -0.003464 -0.001257 0.001961 -0.004682 -0.003202 -0.004659 -0.001508 -0.001809 0.001977 0.001219 -0.000474 0.001138 0.003430 -0.002323 -0.004122 -0.002483 -0.002352 -0.004871 0.003093 0.002103 -0.000934 -0.000070 0.004071 0.000876 0.001392 0.003130 -0.001335 -0.004251 0.002901 -0.000871 -0.004833 0.004348 0.003070 -0.001314 0.000231 0.002546 -0.002793 0.004294 0.000372 -0.003592 0.002413 -0.004048 0.002383 -0.002554 0.001267 0.004707 -0.000926 -0.001067 -0.003150 0.004514 -0.000443 0.001329 -0.000513 0.004208 0.004827 -0.004338 0.004205 -0.000555 0.001437 -0.002930 0.004674 0.002095 0.002233 -0.001080 0.002754 -0.004758 -0.003066 -0.002307 0.003017 0.000385 -0.000793 -0.004458 -0.001250 0.003742 0.003825 0.001492
session 0.003159 0.003437 0.001240 -0.002802 -0.002977 0.004012 -0.003528 -0.001992 -0.003438 -0.001776 -0.002771 -0.001865 -0.004391 0.001611 0.003342 -0.002842 0.003288 0.002827 0.000009 -0.002993 -0.002386 -0.000816 0.004491 -0.001413 0.001869 0.001901 0.000667 0.002798 0.002560 -0.000458 0.001288 0.000913 -0.000301 0.000358 -0.003279 -0.002031 0.003050 0.000735 0.002706 0.004705 0.001146 0.000761 0.000738 -0.004400 -0.002814 -0.003000 -0.002674 0.004145 -0.003160 -0.003353 -0.002029 -0.004715 0.004690 0.000313 0.000178 0.001807 0.004084 0.003582 0.004791 -0.000092 -0.002884 -0.003838 -0.002652 -0.004924 -0.004441 -0.004131 -0.003631 -0.003848 -0.002036 -0.001428 0.002309 -0.004969 0.003605 0.000357 -0.001995 -0.001995 -0.004245 -0.001260 0.000738 -0.001070 0.000522 0.003739 0.004469 0.003074 -0.004299 -0.003825 0.000601 -0.003942 0.003893 0.001840 -0.002876 0.003274 0.001814 -0.002619 -0.000235 0.004343 -0.004083 0.004630 0.002022 -0.004288
another -0.001191 0.002287 -0.002877 -0.003907 -0.001228 0.000695 0.003205 0.003856 0.003806 -0.000387 0.003616 -0.002210 -0.002288 -0.001542 -0.000712 -0.004897 0.002141 0.004642 -0.002862 -0.001953 0.000710 -0.000570 0.003796 0.000918 0.002398 -0.002547 0.001456 -0.001326 -0.000704 -0.003695 -0.003661 0.004221 0.001750 0.002873 -0.004233 -0.000608 -0.000978 -0.004091 0.001923 0.004580 -0.004758 -0.000883 -0.003283 -0.000255 0.004053 0.003742 0.002538 -0.001902 -0.004587 0.004539 0.002124 0.003537 -0.001550 -0.001301 -0.003967 0.003658 0.001132 -0.004884 0.002225 0.004940 0.003933 -0.004951 0.002567 -0.003837 0.000737 0.003891 -0.003385 0.002470 -0.004253 0.000382 -0.000420 -0.003234 -0.000081 0.003617 -0.003728 -0.002680 0.000605 0.003188 -0.000191 -0.003165 -0.000919 0.003048 -0.001957 -0.003368 -0.001515 0.001707 -0.002607 0.004595 -0.001494 0.001658 0.000043 0.004377 0.004365 -0.002413 -0.004138 0.000944 0.004578 0.000924 -0.003476 -0.002740
different 0.004916 -0.004331 0.002717 -0.003326 -0.002843 -0.001759 0.002278 -0.004817 -0.002532 -0.000966 -0.004158 0.000330 -0.000173 0.003413 -0.003053 -0.003133 0.002139 -0.000749 -0.004537 -0.000516 -0.003259 -0.002147 0.000627 -0.003707 -0.002420 0.004908 -0.003558 -0.003822 0.001038 0.001400 -0.002888 0.000340 0.000433 0.001986 0.002962 -0.000894 0.000584 0.002791 0.000286 -0.000923 -0.003443 0.003959 -0.001223 0.004464 0.004914 0.001489 -0.000591 -0.000595 0.001334 -0.001719 0.001288 -0.004664 -0.004776 0.004788 0.000345 0.002960 0.004252 -0.000664 -0.003114 0.004381 -0.001439 0.004079 0.004257 0.003142 -0.000417 -0.002237 0.003889 0.003384 0.004570 0.002706 -0.000371 0.003726 -0.003076 -0.004886 -0.001101 0.001591 -0.003145 -0.000366 -0.003858 -0.000815 -0.002009 0.001520 0.001063 -0.003990 -0.004445 0.002610 0.001039 0.004620 0.002594 0.001928 -0.004652 -0.000557 -0.002718 0.001479 -0.000477 -0.000210 0.002727 -0.000114 0.001508 -0.003223
for 0.001353 -0.004254 0.003152 0.002151 -0.001596 -0.001829 0.000902 0.001320 0.004968 0.002948 -0.001546 -0.004170 -0.001878 0.001145 -0.001232 -0.004261 -0.003346 0.001024 0.003712 -0.003485 -0.003401 0.000623 -0.001910 0.004254 -0.002710 -0.001077 -0.002151 0.001778 -0.004328 0.000603 0.004019 0.000511 -0.001519 0.000317 -0.001522 0.000772 0.004041 -0.004107 -0.002372 -0.003896 -0.002334 0.004458 -0.003863 0.002035 0.003072 -0.003797 -0.001955 -0.003649 -0.003284 0.003700 -0.004282 0.004284 -0.000340 0.003290 -0.003130 -0.000477 0.000986 0.001290 0.003950 -0.003101 0.001040 0.003184 0.001447 -0.000078 0.004328 0.003107 -0.001816 0.002481 0.004925 0.002071 -0.004215 0.002875 0.001298 0.004050 -0.002000 -0.001145 -0.000134 0.001509 -0.000760 -0.004952 0.004227 0.001071 0.000050 0.003418 0.001056 0.001488 -0.002550 0.003073 0.003208 -0.002728 0.002794 -0.003909 0.000951 -0.004831 0.000074 0.003183 0.004130 0.001645 -0.000657 0.004822
May 0.003569 0.000781 -0.002248 0.004578 0.000086 -0.000964 -0.001406 0.002830 0.003934 0.002578 0.003917 0.002836 0.000902 -0.001853 0.000032 -0.001511 -0.003955 -0.000669 -0.002308 0.003051 -0.003816 0.003592 -0.003180 0.003170 -0.004127 -0.000463 -0.003804 0.003418 -0.002759 -0.000889 -0.002899 0.003871 -0.000572 0.002195 -0.001737 -0.002382 -0.001095 -0.001785 0.001930 -0.002175 0.003507 -0.003219 0.002639 -0.004336 0.002980 0.000947 0.001497 -0.001578 0.004333 0.003137 -0.002317 -0.001453 0.002140 0.003651 0.000376 0.004531 0.004450 -0.001858 -0.001939 -0.003436 -0.001548 0.001652 -0.000187 -0.001030 0.004139 -0.003489 0.002467 -0.001259 0.004476 -0.004183 0.001938 0.003276 0.001330 -0.001946 0.002270 -0.002851 -0.003576 -0.003670 0.000100 -0.004982 0.003679 0.001151 0.002015 -0.004055 0.000327 0.004272 -0.001537 0.004105 -0.004424 -0.004268 -0.003467 0.000566 0.000071 -0.001817 -0.001781 -0.001958 -0.002984 0.000386 -0.001494 0.003258
due 0.000080 0.000791 -0.003977 -0.003618 -0.002551 0.002345 -0.002838 -0.003015 -0.000219 0.002503 -0.002405 -0.002740 0.003770 0.004697 -0.003685 0.000370 0.002935 -0.002234 0.004771 0.004416 0.002530 -0.003833 -0.002053 0.000190 -0.004325 0.002721 0.002321 0.004405 0.003817 0.001428 0.003643 0.002069 0.004465 -0.002695 0.003417 0.004661 -0.000678 -0.000106 0.003314 -0.004753 0.002928 0.003009 0.003657 -0.000385 -0.002538 -0.000409 0.000189 -0.003381 -0.004955 -0.002616 0.002344 -0.004230 0.004038 0.000221 0.000323 -0.004379 0.000708 -0.003260 0.004148 0.000892 0.000397 0.001155 0.003991 0.002558 -0.002687 -0.000418 -0.000210 -0.000555 -0.001168 0.000209 0.003792 -0.000423 0.000642 0.001208 -0.000818 -0.001176 -0.004974 -0.000244 -0.001294 -0.000145 -0.003512 -0.003903 -0.002213 0.003585 0.003504 0.001404 0.003155 0.004676 0.000064 -0.003881 0.004330 0.001312 -0.001684 -0.001154 -0.003549 -0.003265 0.000158 -0.004072 0.003622 -0.000432
send -0.001885 -0.003120 0.000011 -0.001503 -0.000083 0.001857 0.000395 -0.001757 -0.002149 0.002486 0.003849 0.001229 -0.003714 -0.001965 0.004311 -0.002622 0.001324 0.004135 0.000424 -0.004861 -0.004829 -0.004600 -0.004425 0.001025 0.000950 0.000703 0.002564 0.000267 -0.001787 -0.000404 -0.003670 0.004999 -0.001495 0.001155 0.001051 0.004441 -0.003513 0.004669 -0.002854 0.003507 0.004453 -0.001909 -0.004566 0.002335 0.003011 0.001570 0.000302 0.003286 0.003735 -0.004844 -0.000266 -0.002260 -0.003822 -0.001596 -0.000289 0.004206 0.002328 -0.002257 0.000817 0.000094 -0.001705 0.002436 0.004987 0.000073 -0.003309 0.002255 0.003020 -0.003875 0.002129 -0.001136 0.001057 0.002850 -0.002736 -0.004520 0.001197 0.000587 0.000042 -0.001461 0.003691 0.003716 0.003596 -0.004827 0.004097 -0.001914 -0.000356 -0.003518 0.004025 -0.004005 -0.004880 0.001070 0.004103 0.004204 0.002942 0.004303 0.000222 -0.003985 -0.001961 0.002870 -0.000479 -0.002244
e-mail -0.003891 0.004455 -0.003195 0.000757 -0.001867 0.003392 0.004481 0.002036 -0.001059 0.000751 0.000266 -0.001479 -0.001350 0.003337 0.003244 0.002315 0.002454 -0.004698 -0.000028 0.000813 -0.004031 -0.000272 -0.004909 0.000201 -0.004661 -0.000283 0.000434 -0.002964 0.000019 -0.000195 0.004834 -0.001177 -0.001559 0.001046 0.001073 -0.001253 0.003326 -0.004165 0.003744 -0.002980 -0.004804 -0.003243 -0.004990 -0.000706 0.001561 -0.001122 0.000174 -0.004209 0.003882 -0.000406 -0.001142 0.003968 -0.001721 0.000952 -0.002657 -0.002270 -0.003452 0.002353 -0.002618 0.003157 -0.003880 0.000331 0.001278 -0.004182 0.000309 0.003225 0.004796 -0.000793 0.001970 0.003915 -0.003635 -0.002791 0.003581 -0.004460 0.003258 0.000706 0.000074 -0.001792 0.001446 0.002283 -0.003702 -0.000429 -0.003313 0.003992 -0.003858 -0.000100 -0.001597 0.002170 0.002351 -0.004034 0.002872 0.001223 -0.000110 -0.004684 -0.002149 0.000370 -0.004399 0.000258 -0.002958 -0.003214
new 0.001082 -0.002005 -0.003052 -0.004192 0.003055 -0.004600 0.004685 -0.004155 0.001681 -0.002670 0.000871 0.004270 -0.000592 -0.004620 -0.003344 0.003415 0.001361 -0.003502 -0.000613 -0.001674 0.000474 0.004421 0.004176 0.003813 0.003745 -0.001958 -0.003854 -0.001539 0.003136 0.000540 0.002191 0.000293 0.000827 0.004949 0.002871 -0.001569 0.004899 -0.004677 -0.002878 0.004522 -0.001299 0.003558 -0.000949 -0.004254 -0.000021 -0.000028 0.003137 0.002303 -0.001956 -0.001969 0.002263 0.002416 -0.003304 0.001126 0.004636 -0.002943 -0.000854 -0.003922 0.003501 -0.002973 -0.003876 0.002939 -0.000815 -0.003865 -0.002900 -0.001511 0.000382 0.004871 -0.003954 0.002258 0.002503 0.001024 0.000388 0.003255 -0.004746 0.001361 -0.002412 -0.002517 0.001955 0.004272 -0.002481 -0.004773 -0.002966 0.001614 -0.000544 -0.000721 0.000067 0.004612 0.002391 0.000734 0.004759 0.004868 0.001853 -0.001098 -0.003249 -0.003210 -0.004219 0.001887 -0.002303 -0.003380
conflict -0.001408 -0.003361 0.000076 -0.003905 -0.000246 -0.002194 0.003721 -0.001994 0.004931 0.004206 -0.002121 0.000527 0.002708 0.000355 -0.002768 -0.003967 -0.000824 -0.002579 0.001648 -0.002355 -0.004577 -0.001966 -0.000637 0.004835 0.004399 0.004554 -0.003317 0.004282 0.001725 -0.003366 -0.004342 0.003383 0.002849 0.001693 0.004279 -0.002989 0.002061 0.004106 0.001966 -0.000736 -0.000755 -0.001956 0.003565 -0.001565 0.000626 -0.003661 0.001333 -0.002698 0.001337 0.004036 0.004763 -0.002713 -0.001441 -0.000070 -0.001142 0.001951 0.004857 0.002769 -0.000112 0.003903 0.004889 -0.002894 0.002816 -0.001301 -0.001117 0.000367 0.000830 -0.000328 0.001961 0.003357 0.000151 0.002224 0.001604 0.003183 0.004313 0.004139 0.001597 -0.003821 -0.000285 -0.002308 0.003869 0.000932 -0.004763 0.003769 -0.003216 -0.000157 -0.000907 -0.004274 0.004210 0.001959 -0.002099 0.003455 -0.004860 -0.003974 -0.000838 -0.002861 -0.003354 -0.003290 -0.004391 0.002590
scheduled -0.002557 0.000605 -0.003260 -0.003129 0.000803 -0.001644 0.003024 -0.000348 -0.003873 -0.004008 -0.000082 0.004296 0.003909 0.002384 -0.001919 0.003667 0.004239 -0.001204 -0.000557 -0.004343 -0.002533 0.001360 0.000815 -0.002535 0.002070 0.002541 -0.002481 -0.002452 0.004276 0.000863 -0.001413 -0.003492 0.000430 0.002466 0.001507 0.001397 0.001260 -0.000279 -0.004872 -0.001654 -0.001741 0.000215 0.003138 -0.004586 0.003787 -0.003471 -0.001314 0.004664 0.001123 -0.004265 0.001117 -0.001354 -0.000663 -0.002870 0.001424 0.000936 -0.000973 -0.004069 0.004294 0.002603 -0.000105 -0.001894 -0.004099 0.000018 -0.004901 -0.002101 -0.004644 0.003622 0.002485 0.002429 0.000247 -0.002372 0.003834 0.001005 0.000484 -0.004180 -0.000259 0.003277 0.000468 -0.003898 0.004745 0.003178 0.001025 -0.004500 0.000932 -0.002282 -0.000298 -0.002317 -0.002718 0.004811 0.003179 -0.000209 -0.004684 0.001167 -0.003395 0.000730 -0.004993 -0.000716 0.001346 0.000952
be 0.003527 -0.004365 -0.001734 0.003567 -0.003990 -0.001411 0.001308 -0.001193 0.002819 -0.001304 -0.001926 0.000571 -0.004076 0.000796 -0.002801 0.000053 0.004496 0.002594 0.003014 -0.001048 0.003187 -0.002431 0.004080 -0.003429 -0.004986 -0.000063 -0.000221 -0.001171 0.000234 -0.000821 -0.002134 -0.004679 0.002464 0.004561 -0.003120 0.004721 0.002715 0.001048 -0.003811 -0.002924 -0.002735 0.004090 -0.004258 0.001410 -0.004191 -0.001949 -0.001349 0.003997 0.001595 0.003762 -0.003168 -0.000259 -0.002097 -0.000585 0.002079 0.000891 -0.001825 0.002742 -0.001020 -0.001033 -0.003311 -0.001861 0.003798 0.004781 0.001829 0.003478 0.002034 -0.003941 0.004611 -0.000732 -0.004443 -0.001780 -0.004831 -0.001835 -0.000635 -0.000588 -0.001516 -0.004773 0.004474 0.003024 -0.004980 -0.000041 0.000643 -0.003027 0.002977 -0.001190 0.001232 -0.004390 0.000233 0.001058 0.004529 0.004159 -0.004644 0.004872 -0.001153 0.000189 0.004730 0.000390 -0.001690 0.000111
I -0.004330 0.003339 -0.000112 -0.001202 -0.001464 0.001115 -0.002967 0.003887 0.002105 -0.000960 0.001582 -0.001644 0.000310 0.002061 -0.000956 0.002254 -0.003585 -0.004855 0.001650 -0.004223 0.003859 0.002873 0.003287 0.001643 0.004869 0.003479 0.000123 -0.003162 -0.003511 0.003243 -0.004563 0.001496 -0.003341 -0.001416 0.001145 0.003918 -0.003005 -0.001374 0.004153 -0.002453 0.001950 -0.001501 -0.001815 0.001032 -0.003564 0.004278 0.004594 0.002414 0.003163 0.002304 0.004609 -0.002371 -0.002397 0.000399 0.000591 0.003898 -0.003864 0.000404 0.002676 -0.003063 -0.000142 0.003161 0.004357 -0.002230 -0.001091 0.001818 0.002879 0.002738 0.004421 0.001405 -0.000241 -0.002495 -0.002247 0.001103 0.002407 0.001629 -0.003099 -0.002974 -0.002415 0.003542 -0.002425 0.003331 -0.004852 -0.003246 0.003518 0.003129 0.001467 0.002783 -0.001913 -0.002485 -0.004101 0.002000 0.002152 0.003385 -0.003597 -0.003582 0.003153 0.003017 -0.001793 -0.004722
date -0.002653 -0.000028 0.000248 -0.002484 -0.000289 -0.001855 0.002432 -0.002533 -0.002847 0.003559 0.004625 -0.000501 -0.002515 -0.001007 0.004910 0.000422 0.003792 0.004143 -0.001945 0.004480 -0.001532 0.000024 -0.002703 -0.002892 0.002386 0.001511 -0.000273 0.004609 0.001487 0.001138 0.000712 0.000454 -0.002022 -0.002990 0.002780 0.000028 0.003883 0.000490 0.000387 -0.004571 0.002309 0.000779 -0.000925 0.002932 0.004779 0.001448 -0.004520 -0.002701 0.003310 0.004180 0.004649 0.004701 0.003850 0.001671 0.000267 -0.001235 0.000436 0.002326 0.003134 0.004387 0.001679 -0.004148 -0.004251 0.001818 0.001415 0.004827 -0.004821 0.003661 -0.004617 -0.004024 -0.000166 -0.001033 -0.003723 -0.004235 0.001476 0.001211 0.003055 0.000731 -0.004698 0.004431 -0.001483 0.002772 -0.000231 0.002420 -0.000831 -0.000402 0.004216 -0.003814 -0.001130 0.000458 -0.003353 0.002881 0.003179 0.003151 0.004951 -0.003314 0.000591 -0.003657 -0.004089 0.001032
The 0.002246 0.001724 -0.002714 -0.003494 0.004553 0.001954 0.004633 0.003659 -0.002973 0.004737 0.003105 -0.002497 0.000779 -0.000802 0.002061 0.000990 -0.002984 -0.003267 0.003198 0.001823 -0.001677 0.002806 -0.000031 -0.002248 0.000689 0.003562 -0.001538 -0.004528 -0.002782 0.004966 0.000386 0.000132 0.003018 -0.004984 -0.004190 -0.003489 0.000695 0.001197 0.003565 -0.000003 -0.001219 0.003478 0.001451 -0.002378 0.004823 -0.001199 -0.003231 0.000459 0.001329 0.001250 -0.000416 -0.003925 0.000477 -0.000735 -0.002950 0.003203 -0.004171 -0.003083 -0.003947 -0.003771 0.002554 -0.003873 -0.000652 -0.002377 0.001898 0.001857 0.002068 0.004404 0.000172 0.001751 -0.000026 0.004629 0.002967 0.000352 -0.004950 0.001619 -0.002406 0.000564 -0.003877 -0.001094 -0.001650 -0.000256 -0.003874 -0.000790 0.004434 -0.003704 -0.004029 0.003866 0.004700 -0.004979 -0.000594 0.002014 -0.002606 -0.004208 -0.001800 0.003787 0.002602 0.004288 0.000766 0.000623
day 0.000482 0.002989 -0.001239 0.001707 -0.001046 -0.001453 -0.004054 0.000295 0.001268 -0.002698 0.002949 -0.003383 0.001552 -0.003625 -0.000132 -0.004037 0.004404 -0.004488 -0.002339 -0.003827 0.003022 0.004655 -0.002538 0.001648 -0.001439 0.002470 -0.004490 0.002795 -0.001133 0.002014 -0.003437 -0.003531 0.002622 -0.004833 -0.004835 0.001680 0.000656 -0.003388 -0.001537 -0.000880 0.004829 -0.000944 0.003094 0.001070 -0.000127 -0.000913 0.000190 -0.004014 0.001747 0.002060 0.004037 0.003125 -0.000737 0.000973 -0.002866 0.004892 0.003409 0.002933 -0.004678 0.003924 -0.001332 -0.000506 0.004951 0.002790 0.004191 -0.002115 -0.001456 -0.004709 0.002329 0.004980 -0.002186 -0.004639 0.001921 0.002898 0.004302 0.000816 -0.002032 0.000598 0.003252 0.003357 0.003952 -0.004469 0.004905 -0.003458 0.004649 0.004965 0.004111 0.002619 0.000378 0.003462 0.003235 0.002775 0.003799 -0.004502 0.002526 -0.000505 0.002119 -0.002679 -0.002240 -0.002898
announcing -0.004017 -0.002169 -0.001860 -0.000862 -0.002397 0.003829 0.002639 0.000804 -0.002548 -0.003514 -0.003328 0.001048 -0.003805 0.003841 0.002004 0.001160 0.000307 0.004772 0.003164 -0.004303 -0.002972 0.001255 -0.004158 -0.000280 0.004978 -0.004399 0.003431 0.003786 0.003965 0.002786 -0.001708 -0.003599 0.004977 -0.001107 -0.001755 -0.004454 -0.001227 -0.000886 -0.000125 0.003879 0.000742 -0.003352 -0.003108 -0.001386 -0.000111 0.002141 -0.004606 0.000779 0.000840 -0.003695 -0.001505 0.001511 -0.000797 0.001512 -0.000458 -0.004442 -0.002172 -0.001495 0.002021 -0.001557 0.002953 -0.000636 -0.001971 -0.004888 0.004367 0.004902 0.001172 0.003139 0.000877 -0.002102 0.001749 0.000424 0.004347 -0.000516 0.000306 0.001891 0.000410 -0.000130 -0.002001 0.000390 0.004165 -0.004885 -0.003853 -0.003474 -0.002354 -0.002065 0.004574 -0.003278 0.000024 0.002682 0.000282 0.000244 -0.004418 0.003301 -0.003337 -0.003707 0.001020 0.001234 -0.001786 0.000381
the 0.004958 -0.001650 -0.000719 0.000268 0.003203 -0.001626 -0.003290 -0.004304 -0.001779 -0.003555 -0.002185 0.004464 0.003234 0.002592 -0.002738 0.001924 -0.004395 0.000061 -0.004327 -0.004935 0.001491 0.001780 0.004538 0.001378 -0.003832 0.001577 -0.000804 -0.000390 -0.000513 -0.004041 0.000048 0.002447 0.001363 -0.003936 0.000030 0.000740 -0.001793 0.001935 -0.002133 0.002696 0.004668 -0.002540 0.001177 -0.004770 -0.000527 -0.004563 0.001253 -0.003979 0.000305 -0.000413 -0.004970 0.002094 0.003972 0.003216 0.004705 0.001440 0.000420 -0.002899 0.003031 -0.000418 0.001504 -0.001561 -0.004990 -0.001737 -0.004128 -0.001604 0.001072 0.000334 0.002299 -0.004723 0.003579 -0.002198 0.000662 0.001392 0.003573 -0.000500 0.001646 -0.001308 0.003320 0.002148 -0.003878 -0.000302 0.001259 0.001515 -0.000421 0.002589 0.000222 -0.001351 0.004631 0.000198 -0.002927 -0.003464 -0.004762 -0.004795 0.001606 0.000178 -0.002538 0.001942 -0.004923 -0.001721
