29 100
, -0.001441 0.004649 0.000103 -0.001314 0.004261 0.003361 0.003985 -0.000747 0.001989 -0.002091 -0.002655 -0.001112 0.002434 -0.004955 0.003002 -0.004693 -0.001697 0.003904 -0.001606 0.001869 -0.002230 0.003548 0.001686 -0.001292 0.000974 -0.001876 -0.001275 -0.002715 0.001699 0.004896 0.001800 0.004884 -0.000970 0.004797 0.003002 0.003141 0.004027 -0.001097 0.003312 -0.004108 0.003841 0.000319 0.001607 0.001889 0.004887 -0.003738 0.002682 -0.000736 -0.000931 -0.003887 -0.004681 -0.000043 0.002722 0.003289 -0.002731 -0.000885 -0.000336 0.002645 0.001479 -0.001601 -0.000734 -0.001502 -0.004437 -0.004064 -0.002254 -0.004419 -0.002008 -0.002402 -0.000445 -0.000449 -0.003575 0.000472 -0.001794 -0.000880 -0.003325 0.000552 -0.000794 -0.004783 -0.000008 0.002341 0.003400 -0.003688 -0.004105 -0.002211 -0.001201 -0.004696 0.002697 -0.004719 -0.002304 -0.002681 -0.003825 -0.002844 -0.000515 -0.004747 0.002516 -0.001069 0.003471 -0.001953 0.001385 -0.004587
the 0.004965 -0.001656 -0.000725 0.000270 0.003214 -0.001625 -0.003287 -0.004302 -0.001781 -0.003554 -0.002187 0.004465 0.003233 0.002583 -0.002735 0.001921 -0.004396 0.000058 -0.004322 -0.004932 0.001487 0.001782 0.004538 0.001380 -0.003833 0.001576 -0.000802 -0.000385 -0.000509 -0.004031 0.000044 0.002456 0.001368 -0.003934 0.000033 0.000745 -0.001798 0.001931 -0.002135 0.002694 0.004673 -0.002542 0.001178 -0.004775 -0.000525 -0.004563 0.001252 -0.003977 0.000305 -0.000417 -0.004969 0.002093 0.003975 0.003221 0.004703 0.001436 0.000419 -0.002897 0.003028 -0.000423 0.001497 -0.001558 -0.004987 -0.001747 -0.004116 -0.001601 0.001064 0.000331 0.002296 -0.004730 0.003580 -0.002198 0.000662 0.001399 0.003569 -0.000500 0.001653 -0.001305 0.003326 0.002149 -0.003879 -0.000306 0.001257 0.001510 -0.000421 0.002587 0.000229 -0.001358 0.004637 0.000192 -0.002926 -0.003464 -0.004768 -0.004800 0.001611 0.000180 -0.002540 0.001947 -0.004919 -0.001721
and 0.000144 0.002433 0.001209 -0.000537 0.002977 0.002872 0.004456 0.002465 0.002190 0.004773 0.000051 -0.000984 -0.004917 -0.001538 0.000443 0.003363 0.002197 -0.002398 -0.000350 0.000723 0.001760 0.003712 -0.000871 0.003242 -0.002382 -0.000784 -0.002182 0.001987 -0.004007 -0.004943 0.003532 0.002949 -0.003044 0.003732 0.004502 0.000604 0.003408 0.004723 0.004598 -0.003391 0.003028 0.000941 0.002122 -0.000750 -0.002581 0.003506 0.004638 0.004085 0.003097 0.004465 0.003766 -0.002295 -0.004100 0.001719 -0.001553 0.003841 0.000373 -0.002429 -0.004612 -0.002916 0.001467 0.003582 0.000039 0.001257 0.001644 -0.002424 -0.004748 0.003977 0.003776 -0.004877 0.002330 0.003390 0.001387 -0.004216 -0.001302 -0.004258 -0.004923 0.003352 -0.000974 -0.001374 0.000611 0.001180 -0.000126 -0.002559 0.001072 0.002419 0.000516 -0.000765 0.002995 0.004822 -0.004152 0.004927 -0.004535 0.003870 0.002962 -0.001242 -0.002912 0.001603 0.002381 -0.001427
ca 0.001961 0.001035 -0.000833 -0.003267 0.003945 -0.001723 0.000311 -0.004280 -0.003436 0.001680 0.003325 -0.001735 -0.004199 0.000202 0.001779 0.002158 0.004535 -0.003992 0.000906 -0.000913 -0.001733 -0.001264 -0.004887 -0.004705 -0.001518 -0.001446 0.001146 0.001330 -0.001579 -0.002376 -0.000776 0.003377 0.004318 -0.004987 -0.003249 0.000265 -0.002352 -0.000413 0.004705 0.001436 0.002772 -0.002433 -0.001649 0.002015 -0.004443 0.002240 -0.003720 0.002049 0.001938 0.001253 0.000795 0.002171 -0.001209 -0.004950 0.001122 -0.000338 -0.003384 -0.000851 0.000548 -0.002377 0.003886 -0.002217 -0.003606 0.004180 -0.002862 0.000390 -0.001950 0.000933 0.002845 -0.003427 0.003935 -0.002088 -0.002482 -0.001547 0.000993 -0.000672 0.004513 -0.000232 0.003215 -0.002580 -0.001696 -0.000708 0.003404 -0.000900 0.004619 -0.001071 0.004194 0.003161 0.003521 -0.002754 0.000511 0.003256 0.003084 0.003911 0.004028 0.001001 0.003122 -0.002865 0.002433 0.000454
back -0.004564 0.003172 0.001018 0.000305 0.001907 -0.002766 0.000377 -0.002749 0.002124 0.002757 0.002222 -0.001803 0.004626 0.000099 -0.002564 -0.000199 0.000619 0.003521 0.004119 -0.001765 -0.000990 0.003949 -0.003604 -0.004242 0.004725 -0.000009 0.002002 0.002459 0.004985 -0.004312 -0.000136 -0.000410 -0.002476 -0.004294 -0.001346 0.000980 -0.000029 0.000882 -0.004857 0.003479 -0.003695 -0.001151 -0.001656 -0.000563 0.002848 -0.002027 0.003509 0.001432 0.002853 -0.001312 -0.002234 -0.004824 0.004794 0.004923 -0.000186 -0.000375 -0.002059 0.003195 -0.002969 -0.002450 -0.003404 0.003745 0.003117 0.003241 -0.003348 -0.004919 0.002555 -0.002602 -0.001637 -0.002947 0.003132 -0.000818 0.000451 0.000780 -0.004257 0.001603 -0.001511 0.000316 -0.003827 -0.001946 -0.004445 -0.004279 -0.002582 0.000131 -0.000792 -0.003364 0.000875 -0.002061 -0.001533 0.002386 0.001017 0.004848 -0.000146 -0.001924 -0.004207 -0.002487 0.003428 -0.002089 0.002192 0.002835
Ellen 0.004288 -0.002771 -0.000476 -0.000877 0.003247 0.003102 -0.004472 0.003339 -0.003073 0.004521 -0.004443 0.004454 -0.002141 -0.002993 0.004459 -0.003024 0.001170 0.004942 -0.002613 0.001501 -0.004283 -0.004943 0.004990 -0.002120 -0.003280 -0.003559 0.000050 -0.000019 0.000811 -0.004283 -0.004894 -0.000146 0.004289 -0.004739 -0.001982 -0.000167 -0.000587 0.002978 0.004598 -0.001859 -0.003123 -0.003019 -0.000579 -0.003117 0.000604 0.000811 0.004032 -0.001035 0.004714 -0.004315 -0.001813 0.000931 -0.004834 -0.003687 -0.000057 -0.002461 -0.001731 0.003173 0.000780 0.004245 -0.001371 0.003701 0.003955 -0.002768 0.002751 0.004192 -0.004106 -0.003566 -0.004922 0.000813 -0.003953 0.002362 -0.001529 -0.004033 -0.000505 -0.003109 0.000581 -0.003634 -0.004877 0.004178 0.001116 -0.001043 -0.001780 0.000428 -0.000756 0.001474 0.004136 -0.003322 0.000341 -0.001953 -0.002593 0.000380 -0.002970 -0.001382 0.000943 0.003686 0.001124 0.003087 0.002891 -0.004438
in 0.003099 0.004395 0.002027 -0.001030 0.003418 0.002681 -0.004331 -0.004774 0.000229 0.004142 0.004872 -0.000619 0.000626 -0.003575 -0.001610 -0.003117 0.004081 0.001335 0.000498 0.003284 0.001131 0.004256 -0.002223 0.002108 -0.000036 -0.000823 0.000197 -0.000011 -0.003073 -0.001377 -0.000305 0.002107 -0.003665 -0.001901 0.003387 -0.002281 -0.003534 0.002722 -0.001360 -0.002473 0.001324 0.002150 0.004216 0.001763 -0.004924 0.001887 0.001373 -0.002107 -0.000761 0.003277 -0.003409 0.000147 -0.000203 0.001746 0.001630 0.001512 -0.000190 0.000554 0.000417 -0.003332 -0.004205 -0.004900 0.002031 -0.002750 0.000446 0.001109 -0.000968 0.004397 0.004578 0.002245 -0.001679 0.000869 -0.001677 0.002491 -0.004572 0.002107 -0.002851 0.002832 0.003846 -0.004884 -0.004819 0.002722 0.000542 0.003098 0.001824 0.003219 0.001008 0.000839 -0.004770 0.004761 0.002922 0.003263 -0.003919 -0.004881 0.001332 -0.003880 0.002394 0.004618 -0.000679 -0.004845
still 0.000024 -0.001213 -0.002846 0.000111 -0.000559 0.004919 -0.002600 0.004272 -0.001609 0.001929 0.003892 0.004801 -0.004757 0.003975 0.004698 0.003870 0.001506 -0.000991 -0.004704 -0.004605 0.003739 -0.000333 -0.004657 -0.003775 -0.001029 0.001546 -0.002379 0.002907 -0.004145 -0.004512 -0.002690 -0.001084 -0.003075 0.003542 0.001979 -0.003777 0.003795 0.001215 0.001825 -0.003746 0.000529 0.004988 0.003896 -0.000397 0.004961 -0.004529 0.002817 0.004726 -0.001706 -0.004075 -0.003355 -0.001042 0.001705 0.001645 0.003394 0.004152 0.003264 -0.004627 0.004235 -0.003257 -0.001567 0.002470 0.001696 0.004651 0.003557 -0.002701 0.004451 -0.001688 0.004321 0.003030 0.002895 -0.004005 -0.003401 0.004802 -0.003996 -0.001801 -0.003573 0.003996 0.003529 -0.004243 -0.003155 0.002936 -0.001277 0.001780 0.003813 -0.004937 0.001960 -0.004934 -0.004452 0.000800 -0.000141 0.000304 0.004774 0.001850 -0.003407 0.000785 -0.001998 -0.002892 0.002469 0.001585
find 0.004731 0.003699 -0.002821 0.001160 0.001623 0.004773 0.003683 -0.000225 0.003269 0.000988 0.003124 -0.000951 0.003586 0.002351 -0.001888 -0.001989 -0.004476 -0.003119 0.003462 0.002198 -0.000641 0.002430 0.000120 0.004568 0.004075 0.000891 -0.004023 0.004873 0.003478 0.000301 -0.002956 -0.001683 0.001483 0.003753 -0.000227 -0.001636 0.002430 -0.000587 -0.001688 0.003757 -0.001497 -0.000991 0.000535 -0.002207 -0.002760 0.001777 -0.004126 0.004529 -0.001976 -0.004380 0.004456 0.004297 0.001935 -0.001419 0.003702 -0.000977 0.004418 0.003798 -0.001397 0.004859 0.002655 0.001059 0.001756 0.000523 0.000324 0.000055 0.003377 -0.003990 0.003567 -0.001096 0.001532 0.000607 0.001883 0.002119 -0.002650 -0.001091 -0.001711 0.000096 -0.003943 -0.004273 0.001331 0.001350 -0.004743 -0.003960 -0.002328 0.001032 -0.002694 -0.003736 0.004901 -0.001109 -0.001834 -0.001780 -0.004318 0.004341 0.003052 0.000250 -0.000859 0.004332 -0.001252 0.000954
to -0.000473 0.004741 -0.002615 -0.004692 -0.004951 0.004798 0.003423 -0.004168 -0.000005 -0.000253 -0.004228 -0.000471 0.004225 -0.004765 0.003992 0.003586 0.001315 -0.002475 -0.000759 0.000756 -0.003882 -0.004096 0.003559 0.001210 -0.000985 -0.002577 -0.001466 0.003085 -0.000439 -0.002945 0.000724 0.003295 0.000215 -0.002485 -0.003841 0.002878 -0.003561 0.000660 0.004069 -0.002739 0.001327 -0.002530 -0.004046 -0.004199 -0.001568 -0.001550 -0.002516 -0.003177 -0.001509 -0.002362 0.001240 -0.004810 -0.002915 -0.004299 0.003797 -0.000020 -0.004306 0.001782 -0.000034 0.003065 -0.004101 -0.003106 0.004644 0.002786 -0.001934 -0.002405 -0.000582 -0.002970 0.003629 0.003885 -0.004440 -0.001301 -0.003667 0.003612 -0.000621 0.001474 0.002296 0.003423 -0.002643 0.001850 0.000984 -0.002674 -0.001046 -0.002241 -0.001217 0.003389 -0.000765 -0.003848 -0.001382 -0.004034 -0.004949 0.000534 0.001911 -0.000393 -0.001854 -0.000729 -0.003701 0.002202 -0.001183 0.000029
- 0.004459 -0.004514 -0.004451 0.002671 0.004872 -0.002938 0.001652 0.000669 -0.001698 -0.002862 -0.002063 0.003277 -0.004074 -0.004075 0.002940 0.004584 0.003732 -0.000332 0.004183 0.000920 -0.000694 0.003449 -0.002539 -0.001026 -0.002329 0.004042 0.003948 0.004639 0.003762 0.003878 -0.004205 0.004290 0.001966 -0.001577 -0.002219 -0.003003 -0.004559 -0.004825 -0.000993 -0.004955 0.000212 -0.001689 -0.000946 -0.004628 0.002658 0.003479 0.001656 0.002390 0.000722 0.000229 0.003699 -0.001134 0.003978 0.002425 -0.000564 0.000688 -0.001258 0.001116 0.000850 -0.002432 -0.002209 0.004099 0.004048 -0.004733 0.004511 0.003822 -0.004043 -0.002941 -0.002559 -0.003121 0.002064 -0.001142 0.000348 0.004420 0.002035 -0.001881 0.003950 0.004133 0.002152 -0.002363 -0.002862 -0.004178 0.003402 0.000842 0.003540 -0.004017 -0.000215 -0.004070 0.004634 -0.003632 -0.004256 0.004563 -0.001433 -0.003380 0.001402 0.003472 0.001467 0.003483 0.002853 0.000655
their 0.004608 0.001369 0.002536 0.003312 -0.003504 -0.000870 0.002188 -0.001316 -0.000779 -0.002151 0.001374 0.001227 0.002737 -0.003678 -0.004656 0.002068 0.002736 -0.004620 0.004555 0.000063 -0.003516 -0.003573 -0.000508 0.003065 0.000130 0.003497 -0.002351 -0.000265 0.002772 0.004132 -0.001543 -0.000719 -0.000797 0.002207 0.000954 0.001532 0.001047 -0.003230 -0.002021 0.002233 -0.003782 -0.002778 0.002717 0.002455 -0.002966 -0.000912 0.001344 0.001258 0.000777 0.002121 -0.000867 0.003869 -0.002489 0.004795 0.001997 0.000169 -0.001404 0.004905 -0.000789 -0.001128 -0.002967 -0.001411 -0.000180 -0.002180 -0.004302 0.001439 0.000189 -0.002773 -0.000016 0.002251 -0.004473 0.000133 -0.004566 -0.002316 -0.001421 -0.002084 -0.002069 -0.004004 0.004939 0.001977 0.000679 -0.001425 0.003350 0.000490 0.000584 -0.004105 0.000688 -0.004219 0.001108 0.003035 -0.004386 0.001410 -0.001969 0.003490 0.004155 0.000958 -0.004080 -0.000430 0.001065 0.003602
Kim -0.002812 0.000930 -0.001461 -0.003859 0.001928 -0.000285 -0.004632 -0.001466 0.001328 0.002127 -0.004838 -0.002167 0.000263 -0.002191 0.003686 -0.000024 0.002966 0.004053 -0.000267 -0.004185 -0.002368 -0.003806 0.002793 -0.001321 -0.000715 0.002662 0.004480 -0.001014 -0.002547 -0.001108 0.001958 0.004918 -0.002881 -0.000115 0.004057 0.001022 -0.001543 0.003392 0.001947 0.002055 0.004165 -0.001437 0.000918 0.000039 -0.002952 0.000979 -0.001350 0.002958 -0.000577 -0.001708 -0.004048 0.000306 0.001964 0.000563 -0.000915 -0.003844 0.003802 0.004177 -0.002201 -0.004552 -0.000165 0.000892 -0.002331 0.000207 0.003181 0.002715 -0.004742 -0.002606 -0.001254 0.001931 0.001214 0.003727 0.003503 0.000108 0.000720 0.002937 0.001527 0.001152 0.001499 -0.002914 -0.000062 0.003969 -0.001054 -0.001965 0.001767 0.004580 -0.002429 -0.003401 -0.003640 -0.004921 -0.004960 -0.003823 -0.002355 0.003502 -0.003681 0.000868 0.000946 0.000470 0.002618 -0.003634
ours 0.001809 0.000863 0.001860 -0.001384 -0.001788 -0.003458 0.004322 0.001378 -0.003616 -0.003344 -0.003251 -0.002415 0.004940 -0.000568 0.000990 -0.003609 0.000946 0.002936 -0.000472 0.003650 0.003786 -0.004772 0.003868 0.004082 0.002726 0.002926 0.004498 -0.003438 0.004430 0.000531 0.004969 -0.000781 -0.000525 -0.000787 0.001884 -0.002819 -0.004258 -0.001002 -0.001521 -0.001915 -0.003578 -0.003236 0.002513 0.000380 -0.002255 -0.004934 -0.004599 -0.002517 -0.004471 0.003494 0.002090 -0.001304 0.003875 0.001513 0.002295 -0.003751 -0.002447 0.000351 -0.003835 -0.001168 0.004482 -0.000093 -0.002197 -0.002924 -0.001872 0.000145 0.002628 -0.002629 0.003846 0.003853 -0.004663 -0.002133 -0.003625 -0.003169 0.002915 0.000891 -0.000067 0.001825 -0.001408 -0.000191 0.004479 -0.003074 -0.000139 -0.001638 0.001289 0.001154 0.003332 0.002956 0.003076 0.003557 -0.004187 0.003790 -0.002538 0.001971 -0.000488 -0.004701 0.004326 0.001573 -0.003769 -0.002112
you 0.004687 -0.000274 -0.003984 0.004774 -0.000134 0.003449 -0.003712 -0.000849 0.004981 0.001421 0.000344 -0.003391 -0.001981 0.002578 -0.004511 -0.001492 -0.003905 -0.003675 -0.003990 0.003513 -0.004629 -0.001536 -0.003544 0.000415 -0.003944 -0.000247 -0.001414 -0.002874 0.002428 0.001458 0.001717 -0.000470 -0.004565 0.003239 -0.004208 0.001507 0.002616 0.001257 -0.004926 0.001380 -0.003391 -0.001184 0.000984 0.002431 -0.003550 0.002391 -0.001589 -0.000053 0.004378 -0.003727 -0.003780 0.002079 0.003155 -0.000963 -0.002564 -0.004199 -0.002842 0.004559 -0.001105 -0.004799 -0.004821 0.003798 0.002483 -0.001706 0.002811 0.000464 0.003738 -0.004356 -0.004633 -0.000161 0.000202 -0.003557 -0.002287 0.002234 0.003576 -0.002083 0.004356 0.001090 0.002041 0.004929 0.004514 0.003971 -0.003078 -0.001819 -0.004093 0.003741 -0.000594 -0.001627 -0.000765 0.000809 0.002533 0.003523 0.004656 0.004397 0.001762 -0.002782 -0.001340 -0.004829 0.004890 0.004015
: 0.000278 0.001676 -0.002286 0.003865 0.000613 0.002980 0.004324 0.000660 -0.001589 -0.000266 -0.001496 0.001305 -0.001005 0.002798 0.000707 0.004280 0.000790 -0.002823 -0.003333 -0.004363 -0.001264 0.000902 0.001129 0.004876 0.002874 0.003508 0.001411 -0.003511 -0.001793 -0.000271 0.001524 0.001888 -0.002867 0.002546 0.004975 0.003451 0.000907 -0.000732 0.001789 -0.000375 -0.003013 -0.001031 -0.001430 -0.003805 0.000198 -0.000420 -0.004118 0.001522 0.002394 -0.004892 -0.000214 -0.004574 0.002863 0.000910 0.000348 -0.000507 0.002251 0.004275 -0.003481 -0.002785 0.000693 -0.004866 -0.003457 -0.003420 -0.002332 -0.000289 0.000767 0.004269 -0.002687 -0.002327 0.000670 0.004674 0.002795 0.000529 0.000459 0.001295 -0.000012 0.001440 0.002339 0.002886 -0.002329 0.004802 0.001252 -0.001545 -0.004421 0.004709 0.002746 0.004401 0.003248 0.003304 0.000661 0.001033 -0.000272 -0.004421 0.000103 0.003532 0.002809 0.000193 -0.003992 -0.000684
is 0.000508 0.000965 0.003507 0.001979 0.000065 -0.002847 -0.004618 0.004120 0.001328 -0.001156 -0.001772 0.002182 -0.004495 -0.001029 0.000013 -0.000369 0.000334 -0.000284 -0.004756 -0.002342 0.000174 0.000515 -0.004546 0.002221 0.001999 -0.004135 0.004339 0.002202 -0.004989 0.000775 -0.004171 0.003585 0.004444 -0.003004 0.002802 0.001888 -0.004105 -0.001447 0.003276 0.002553 0.000771 -0.000061 0.001758 0.004371 -0.000416 -0.003389 -0.000870 0.002030 0.003458 -0.004450 0.002795 0.000623 -0.000504 -0.004836 0.000931 -0.002177 -0.003056 0.002824 -0.003877 0.004291 -0.003232 0.002172 0.000412 0.002727 0.002719 -0.004403 0.003910 0.001657 -0.002054 0.000903 0.004199 0.002621 0.000590 -0.001141 -0.004384 0.001151 -0.001974 -0.000823 0.003883 -0.004950 0.000443 -0.001417 -0.002482 -0.002592 -0.003843 -0.004814 -0.001198 0.003006 0.001390 -0.002316 0.000844 -0.003515 -0.003290 -0.003951 -0.000082 0.002316 0.000942 0.000541 -0.002997 0.002701
counterparty 0.002386 -0.000321 0.002548 -0.002624 -0.000826 0.000403 0.001868 0.002144 -0.004253 0.001063 0.004605 -0.001513 -0.000606 0.001104 0.004802 -0.004988 0.004361 0.002752 0.003631 0.001293 0.001816 -0.004085 0.004153 0.003905 -0.000063 0.001270 -0.004954 0.002457 -0.002295 -0.001240 -0.004257 -0.003669 0.000395 0.000992 0.001903 0.003294 -0.003208 0.003429 0.000475 0.003122 -0.004243 -0.003636 -0.002517 -0.004654 -0.004534 0.004835 -0.002455 -0.002230 -0.001681 0.000832 -0.004166 0.000986 0.002656 0.001566 -0.003774 -0.003560 -0.004694 -0.002019 -0.003432 0.001353 0.004552 0.002957 -0.000879 -0.001675 0.000851 -0.003379 -0.003198 0.003875 0.000268 -0.002096 -0.003797 0.002583 -0.003460 0.001594 -0.003105 -0.004487 0.004156 0.002432 -0.002253 0.001557 0.003332 -0.004859 0.003077 -0.001869 -0.002918 -0.004695 -0.000896 -0.000847 0.000514 -0.003006 0.004944 0.004775 -0.001836 0.001283 0.002883 -0.004200 -0.001333 0.002560 0.001494 -0.004175
here -0.003198 -0.001105 -0.000563 -0.002589 0.001586 -0.001263 0.002526 0.003190 -0.000582 -0.000727 -0.001157 0.002874 0.001740 -0.003671 0.003629 0.004834 0.000193 -0.003552 -0.000485 -0.002428 -0.004708 0.004116 -0.002186 -0.002819 0.001858 -0.003013 0.003112 0.004621 0.000974 0.004181 -0.003733 -0.001807 0.002481 0.002472 0.002190 0.004912 0.002050 0.002769 0.000258 -0.003014 -0.003324 -0.003738 -0.003543 -0.004581 0.002835 -0.000336 0.003143 0.003818 -0.000936 0.000189 -0.004885 0.001791 -0.003522 0.004880 0.002688 -0.004079 -0.004886 0.002349 -0.004130 0.000709 -0.004820 0.000469 0.000113 0.000746 -0.001451 0.002038 -0.002435 -0.002556 0.003407 0.003119 0.004617 -0.002816 0.004139 0.004422 -0.002878 0.003081 -0.000468 -0.003676 -0.002707 -0.004133 0.001868 -0.000752 -0.000229 0.003415 -0.002338 0.003778 0.000942 -0.002435 0.001906 -0.001885 0.004570 0.000115 -0.002787 -0.002114 0.004319 -0.002246 0.000730 0.002363 -0.004727 -0.000908
regards -0.004291 -0.000676 0.001470 0.004333 0.003213 -0.001404 -0.002469 0.004145 -0.000611 0.001176 0.003573 0.002750 0.002549 -0.002152 0.003682 -0.000440 -0.001136 -0.004517 -0.000984 -0.003462 -0.000887 0.004885 0.003572 0.001377 -0.001504 0.003167 -0.003886 0.003238 0.003498 -0.002957 0.000414 0.002647 0.001106 -0.003749 0.004839 -0.000540 0.000810 0.004211 -0.004758 0.000891 -0.000974 0.001362 0.003741 0.002519 0.002912 0.001152 -0.003090 -0.004545 -0.001876 0.001136 -0.000284 0.003230 -0.000812 -0.001616 0.003979 -0.002799 0.001569 0.004794 0.000311 -0.004420 -0.001867 -0.004562 0.002430 -0.000455 -0.002541 -0.003684 0.000908 -0.001992 -0.001368 0.000317 0.004360 -0.004580 0.000326 -0.003823 0.001664 0.003413 -0.001310 -0.004509 0.000751 -0.002708 0.001146 0.003234 -0.004958 0.001586 -0.001718 -0.003540 -0.002071 0.002998 0.004182 0.000703 0.004767 0.001061 0.003787 0.004357 -0.002253 -0.002611 -0.003110 0.003795 -0.000762 -0.004944
copy -0.003920 -0.004375 0.004694 -0.001079 0.002292 -0.003310 0.002030 -0.002657 -0.001734 -0.000146 -0.001750 -0.003982 0.004545 -0.001619 0.001825 0.000823 0.000332 -0.002784 -0.001217 0.003588 0.002389 -0.002336 0.004186 0.000881 -0.001322 -0.000571 -0.002575 -0.002145 -0.003658 -0.000033 -0.000173 0.003876 -0.001078 0.004024 0.001515 0.001516 0.004367 -0.001139 -0.000438 0.004801 0.003048 0.001906 0.004630 -0.000567 0.004332 0.000975 -0.002942 -0.000401 -0.001066 -0.001840 0.004130 -0.002801 -0.004537 -0.000095 -0.001320 0.004428 0.003473 0.003363 -0.003998 0.004476 -0.000113 0.002764 0.004884 -0.004143 0.002565 0.004055 -0.004446 -0.004111 0.002964 -0.004059 -0.000942 0.003096 0.002652 -0.001439 -0.003500 0.004155 -0.001935 -0.000417 0.004215 0.003680 0.000672 0.003570 0.000360 -0.003549 0.003073 0.003343 0.004227 -0.004404 -0.000753 0.003804 0.003484 -0.002095 -0.003506 0.000920 0.001411 -0.000726 -0.000080 -0.001917 0.002875 -0.004910
case 0.004914 0.001728 0.000637 -0.003097 0.004370 0.001551 0.002128 0.000112 0.002486 0.002987 -0.000838 -0.003197 -0.001972 -0.004832 -0.002309 0.001227 0.002983 0.002336 0.000944 -0.004384 -0.000868 0.003994 0.000382 0.000071 -0.003218 -0.001102 -0.004769 0.001605 -0.002093 0.001208 0.000880 -0.001301 0.003892 0.001380 0.003647 0.000875 -0.004342 -0.002257 0.001406 -0.001857 0.001319 0.003007 -0.000926 -0.004557 0.000013 0.002146 -0.002806 0.002323 -0.000503 0.003504 0.002628 0.003173 -0.001823 0.002576 0.000488 -0.000258 0.004629 -0.001841 -0.001470 -0.004122 -0.003647 -0.002737 -0.002199 -0.001149 0.004034 0.001497 0.003378 0.004055 -0.000098 -0.003157 -0.002273 0.000669 -0.001567 -0.000114 0.002555 -0.000182 0.000135 0.000010 -0.004108 -0.001470 -0.003081 0.002600 -0.000615 0.002889 0.003453 0.001596 0.004238 0.000723 -0.004916 0.004726 0.003477 -0.001781 0.002479 -0.004461 0.002855 -0.002156 -0.004569 -0.000456 0.001027 0.003344
Just 0.000328 0.003433 0.004564 -0.003108 -0.002899 0.001079 -0.000736 -0.000264 0.000263 -0.000643 0.002150 0.000650 -0.004256 0.002859 0.002763 0.003298 0.002522 0.000941 -0.003573 -0.000127 -0.000631 0.004326 -0.003315 0.000572 0.000134 0.004230 -0.004608 -0.004123 0.001028 -0.001174 -0.001112 -0.004508 0.002477 -0.004730 0.000242 -0.002873 -0.003450 0.003507 0.001953 -0.004847 -0.003437 -0.002411 0.004145 0.000772 -0.001574 -0.002668 -0.001106 -0.003190 0.004790 -0.004396 -0.004065 -0.004223 0.004033 -0.003993 0.001965 -0.000305 -0.003976 -0.000097 0.001473 -0.000571 -0.002779 -0.003618 0.002719 -0.004118 0.001554 -0.003531 0.004790 0.003725 0.003430 0.004213 0.001354 -0.004900 0.000901 -0.000417 0.001110 -0.001645 -0.001412 0.002593 -0.001080 -0.004324 0.003872 0.002490 -0.003957 -0.000319 0.003078 -0.004731 -0.002323 -0.004372 -0.002738 0.004373 -0.003239 0.002558 -0.003369 -0.004629 -0.000040 0.003967 0.002473 -0.000837 -0.002934 -0.003599
of 0.004275 -0.003754 -0.000623 -0.002396 -0.000051 -0.001042 0.004698 0.000637 -0.000675 -0.002285 0.000417 -0.002270 -0.003525 0.003873 -0.002189 -0.000382 -0.003708 -0.002098 -0.001315 0.002150 -0.004753 0.001455 -0.003266 -0.000356 0.001993 -0.003056 0.001778 -0.000851 -0.000855 0.000742 -0.003992 0.003207 -0.001961 -0.001454 0.000186 0.001586 0.001946 0.003579 0.001990 -0.002139 -0.003148 0.001314 0.001989 -0.004597 -0.003549 -0.000195 0.000410 0.001254 0.003922 -0.000799 0.000985 0.004587 -0.001851 -0.004870 -0.001574 -0.004320 -0.004941 -0.001553 -0.004669 0.001587 0.002933 -0.001241 0.003690 -0.002106 0.002363 -0.004104 -0.000228 0.000863 -0.001276 0.001555 -0.003225 0.003798 0.003738 -0.003799 0.003490 0.000091 -0.000503 0.000411 -0.003411 0.003895 -0.002906 -0.001394 0.004309 -0.002370 -0.000571 -0.002103 -0.001643 -0.004263 0.004120 -0.002011 -0.004353 -0.001759 -0.001659 0.002958 -0.004816 0.001384 0.003223 0.001170 0.002868 0.003526
contract -0.004711 -0.002737 0.000805 0.004562 0.004979 0.001269 -0.002468 0.002922 -0.002686 0.004168 0.003730 0.000962 -0.001222 0.001292 -0.002159 -0.001221 -0.001784 -0.004930 0.003818 -0.000587 0.003751 0.004837 0.003125 -0.000530 -0.003379 -0.000013 -0.003965 0.000761 0.000570 0.002033 0.002357 0.001167 0.003236 0.003601 -0.002943 -0.002080 0.002456 -0.001796 0.001927 0.004435 -0.002314 -0.000266 0.004383 -0.003240 -0.001376 0.001159 0.004590 0.001587 0.004228 -0.002591 0.003524 -0.004329 -0.001132 0.004341 0.004616 -0.000608 -0.002580 -0.004368 -0.004255 -0.003219 -0.004815 0.001773 -0.003445 0.000139 0.004148 -0.004905 0.004567 -0.004257 0.002361 -0.004436 -0.004607 -0.004460 -0.000381 -0.001988 -0.002082 -0.002031 -0.003815 0.004196 0.001622 -0.002905 -0.002643 0.001320 0.000567 0.001679 -0.003518 0.004583 -0.002641 -0.003743 0.001565 -0.002438 0.003640 0.004218 -0.001883 0.000943 -0.001043 0.004588 0.004487 -0.002168 -0.002928 -0.000053
n't -0.003911 -0.002616 -0.002780 0.002041 -0.002139 0.004013 0.001528 0.000179 -0.000296 0.004077 0.001878 0.003857 0.004261 0.000862 -0.002412 -0.001655 -0.004241 -0.004679 0.004700 -0.001494 -0.000190 -0.004192 -0.003586 0.004994 0.004179 -0.001233 0.002846 0.001376 -0.000039 0.004385 0.003338 0.000210 0.002039 0.004595 0.004215 0.001515 0.000055 0.000846 0.000154 0.000524 0.003415 0.000935 -0.003041 0.001176 -0.001613 -0.002322 -0.000090 -0.001779 -0.002361 -0.003269 0.002698 -0.004486 -0.001611 -0.001245 0.000643 -0.001134 0.003938 -0.001816 -0.003937 -0.003234 -0.001403 -0.003580 -0.003231 0.000553 0.004652 0.002620 -0.000235 0.001493 -0.000923 -0.000491 -0.001763 0.000986 -0.000161 0.003916 -0.002280 0.004750 -0.001536 -0.000127 -0.002598 0.002194 0.000810 0.003508 -0.003875 -0.001607 0.000708 0.001109 0.002680 0.003741 -0.000189 -0.002769 0.004318 -0.002294 0.000892 0.003233 -0.002812 0.004001 -0.004728 0.003862 -0.004695 0.001098
comes 0.001023 -0.003022 -0.004731 -0.003391 -0.003633 -0.000483 0.003059 0.004294 -0.001257 0.002198 0.002885 -0.002181 -0.003990 -0.001912 0.001944 -0.003606 -0.004290 -0.002465 0.003853 0.000004 -0.000905 -0.000611 0.004934 -0.003412 0.004759 -0.002057 -0.002005 0.000099 0.004893 0.002279 0.000369 -0.003438 0.003472 -0.004989 -0.000521 0.004874 -0.002839 0.003329 -0.002390 -0.000003 -0.003754 -0.001889 0.000640 0.001503 -0.002332 -0.003653 -0.000407 0.001203 -0.002054 0.004818 -0.003436 -0.000340 -0.001099 0.001798 0.003268 -0.003896 -0.003009 -0.004654 0.001931 -0.000968 -0.004225 -0.003386 0.003223 0.001329 0.004149 -0.002888 -0.004042 0.004214 -0.000282 0.004148 0.002426 -0.004152 0.004136 0.000746 -0.002261 -0.002119 0.004750 0.003279 0.003119 -0.003569 -0.000988 -0.000310 -0.003676 -0.003953 -0.004596 0.002150 -0.001134 -0.001216 0.004326 -0.003063 0.002368 -0.000790 -0.004173 0.003589 -0.001490 -0.001473 -0.001734 0.001226 -0.000523 0.002331
x54099 -0.000017 0.002114 0.000107 -0.002097 0.004522 0.004617 -0.000765 0.004309 0.000207 0.004090 0.004984 -0.004752 0.002309 -0.001365 -0.003211 -0.003328 0.000551 -0.002625 0.000040 0.004814 -0.002959 -0.000216 -0.004259 0.001767 0.004241 -0.000873 0.003084 0.001178 0.003829 0.004994 -0.001131 -0.002099 -0.001185 -0.000219 0.004653 -0.001324 -0.004756 -0.003995 -0.003541 -0.000958 0.004927 0.002030 0.000233 0.003694 -0.000003 -0.003990 -0.002770 0.004473 -0.003731 -0.000853 0.003208 0.000717 0.001472 0.002851 -0.002149 -0.004428 -0.000821 -0.002258 0.003124 -0.002313 -0.000008 0.000543 -0.000278 -0.002504 0.004391 0.002968 -0.003870 -0.000541 0.000646 0.001439 0.004075 0.004224 0.000363 0.002416 -0.004345 0.003170 0.001731 -0.001646 0.004275 -0.001171 0.002628 -0.004850 0.001122 -0.002201 0.000937 0.004099 0.004237 -0.003025 0.003842 0.000369 -0.001905 -0.004929 -0.002588 -0.002828 -0.001289 -0.000955 0.000770 0.002384 0.001098 0.004786
Best -0.003999 0.001034 0.000681 0.004600 0.000831 -0.001329 0.001070 -0.000407 -0.003628 -0.002580 -0.003412 -0.004796 -0.004396 0.004326 -0.001619 -0.002776 0.000356 0.004301 -0.003833 0.004820 -0.003796 -0.004949 0.000963 0.004515 0.002462 -0.000026 0.004147 0.000396 -0.002771 -0.001097 -0.002127 0.004190 -0.003276 0.000093 -0.001138 0.003552 0.002223 -0.004847 -0.004238 -0.004199 0.000789 -0.003605 -0.004157 0.002991 -0.003208 0.003738 0.001602 -0.002989 -0.001271 0.000857 -0.001107 -0.002461 0.000756 -0.004900 -0.001294 -0.004327 -0.002162 -0.003667 0.000298 0.002023 0.003773 0.003172 0.003941 0.004400 -0.003028 -0.004576 -0.000366 -0.003844 0.004803 -0.003230 0.002555 -0.002413 -0.002114 -0.001215 -0.000366 0.000573 0.001751 0.000400 0.001935 -0.002836 0.001083 0.004074 -0.004175 0.000230 0.002250 -0.004201 0.003836 0.004250 0.003023 0.000164 -0.000976 0.003119 0.000038 -0.001660 -0.004833 0.000467 -0.001150 -0.003762 -0.003663 -0.001231
