16 100
to -0.000478 0.004743 -0.002617 -0.004692 -0.004951 0.004793 0.003420 -0.004169 -0.000007 -0.000260 -0.004233 -0.000470 0.004226 -0.004769 0.004002 0.003591 0.001316 -0.002470 -0.000753 0.000756 -0.003882 -0.004094 0.003559 0.001209 -0.000986 -0.002572 -0.001471 0.003091 -0.000438 -0.002944 0.000725 0.003290 0.000211 -0.002488 -0.003845 0.002880 -0.003566 0.000668 0.004072 -0.002741 0.001330 -0.002533 -0.004051 -0.004191 -0.001571 -0.001549 -0.002513 -0.003183 -0.001509 -0.002361 0.001238 -0.004808 -0.002913 -0.004300 0.003801 -0.000018 -0.004307 0.001779 -0.000032 0.003072 -0.004110 -0.003102 0.004646 0.002790 -0.001935 -0.002411 -0.000587 -0.002969 0.003637 0.003893 -0.004444 -0.001301 -0.003662 0.003610 -0.000626 0.001478 0.002295 0.003428 -0.002640 0.001851 0.000986 -0.002673 -0.001048 -0.002241 -0.001218 0.003395 -0.000763 -0.003854 -0.001378 -0.004039 -0.004960 0.000535 0.001910 -0.000400 -0.001856 -0.000734 -0.003696 0.002204 -0.001188 0.000030
draft 0.003206 -0.000358 0.001691 0.002000 -0.001152 -0.001102 0.002748 0.004670 -0.004748 0.000783 0.004259 0.000533 0.003681 0.004749 -0.004353 0.000361 0.004838 -0.002608 -0.004894 0.003253 -0.000887 -0.004435 -0.001179 0.003471 -0.003165 -0.000098 -0.002616 -0.003694 -0.000614 -0.004676 0.000855 -0.001214 -0.004910 0.001905 0.000407 0.004321 0.001103 0.003725 0.002366 -0.000527 -0.002667 -0.004522 0.004355 -0.003308 -0.000116 0.004682 0.003925 -0.003375 0.002133 0.003295 -0.001045 0.004315 -0.003623 0.000454 -0.001964 -0.003315 0.002144 0.001617 -0.004240 -0.002695 -0.004286 -0.001989 0.001710 -0.001964 0.000555 0.003175 0.004003 -0.001902 -0.000510 0.001104 -0.002287 0.001979 0.001579 0.002670 0.000611 -0.004420 -0.003637 -0.002832 -0.000190 0.001015 0.004630 -0.002857 -0.000431 -0.004494 0.002715 -0.003826 -0.004593 0.002095 0.000070 0.002476 -0.004883 0.000627 0.002271 0.002457 0.001428 -0.001153 0.002069 -0.004210 -0.004104 -0.001341
and 0.000144 0.002433 0.001209 -0.000537 0.002977 0.002872 0.004456 0.002465 0.002190 0.004773 0.000051 -0.000984 -0.004917 -0.001538 0.000443 0.003363 0.002197 -0.002398 -0.000350 0.000723 0.001760 0.003712 -0.000871 0.003242 -0.002382 -0.000784 -0.002182 0.001987 -0.004007 -0.004943 0.003532 0.002949 -0.003044 0.003732 0.004502 0.000604 0.003408 0.004723 0.004598 -0.003391 0.003028 0.000941 0.002122 -0.000750 -0.002581 0.003506 0.004638 0.004085 0.003097 0.004465 0.003766 -0.002295 -0.004100 0.001719 -0.001553 0.003841 0.000373 -0.002429 -0.004612 -0.002916 0.001467 0.003582 0.000039 0.001257 0.001644 -0.002424 -0.004748 0.003977 0.003776 -0.004877 0.002330 0.003390 0.001387 -0.004216 -0.001302 -0.004258 -0.004923 0.003352 -0.000974 -0.001374 0.000611 0.001180 -0.000126 -0.002559 0.001072 0.002419 0.000516 -0.000765 0.002995 0.004822 -0.004152 0.004927 -0.004535 0.003870 0.002962 -0.001242 -0.002912 0.001603 0.002381 -0.001427
a 0.000582 -0.001170 0.001322 0.001877 -0.002708 -0.004643 -0.002393 -0.001850 0.003537 0.003532 -0.000682 0.000360 -0.001827 0.001747 0.003713 0.001182 0.002091 0.004028 0.003328 0.000008 -0.002152 0.004839 0.002283 0.003740 0.000432 -0.001151 0.001620 -0.004055 0.004470 0.002752 -0.003069 0.000436 -0.001751 -0.002177 -0.004864 -0.000714 -0.001616 0.002032 0.001382 -0.001835 0.000909 0.001997 -0.003885 0.004948 -0.002001 0.000781 0.000528 0.000923 0.003728 0.000558 0.000132 -0.001621 0.000790 -0.003636 0.001658 0.002759 0.001616 -0.003107 0.003640 -0.001095 -0.002939 0.002349 0.003191 -0.002761 0.001625 0.001472 -0.002423 0.000705 -0.001197 -0.001521 -0.000240 -0.002096 -0.003279 0.000135 -0.002520 0.004581 0.001829 0.000744 0.000085 0.004936 -0.000687 0.002455 0.000532 -0.004168 0.000775 -0.004171 0.000833 -0.002669 0.004909 0.003960 -0.002821 0.003591 -0.000093 0.001045 -0.003993 -0.003045 0.002264 0.002959 -0.003943 -0.003864
terms 0.004909 0.003324 -0.002010 0.003506 -0.002144 -0.000607 0.002312 0.004806 0.002982 0.003895 0.002639 0.002028 -0.003078 0.004522 -0.004954 0.004206 0.003169 -0.004994 0.001440 0.000560 0.002282 -0.004540 -0.004125 0.000167 0.002538 0.002670 -0.004670 -0.000585 -0.003279 0.003421 -0.002708 -0.000827 0.002706 0.002242 0.001424 0.003999 -0.003258 -0.003651 -0.004274 0.004922 -0.003498 0.003190 -0.003919 0.003381 0.000106 0.001393 0.000505 -0.003538 -0.000526 -0.004749 0.002155 -0.002804 0.004036 0.000142 0.002202 -0.002714 0.001488 -0.000901 -0.003810 -0.004189 -0.000333 0.001558 -0.004091 0.000019 0.002316 0.002772 0.003924 -0.001461 0.004652 0.003958 0.004904 0.000420 0.003945 0.000222 -0.000179 0.001294 0.002092 0.004909 0.002748 -0.003601 -0.002771 0.004773 0.001005 0.000055 -0.000379 0.000903 0.002089 0.001226 -0.004172 0.000970 0.001865 0.004025 0.002841 0.004607 -0.002514 -0.004678 0.004509 -0.000392 -0.002396 -0.000109
isda -0.004547 0.003234 0.004691 -0.001426 0.001349 -0.003169 -0.000701 0.002460 -0.003671 -0.000893 0.001990 0.000518 0.004092 -0.001818 0.003195 0.003470 0.002810 -0.004078 0.000439 0.000826 -0.002800 -0.003416 0.000225 0.000257 0.001498 0.001154 -0.000726 -0.001853 -0.000977 -0.003847 0.004906 -0.003267 -0.000553 0.002225 0.002022 0.000511 -0.000297 -0.004440 -0.000259 -0.000247 -0.000950 -0.002414 -0.000289 -0.004800 -0.001349 0.002436 0.003694 0.002926 0.001261 0.001899 -0.001262 0.000885 -0.001908 -0.001957 -0.004290 0.001541 -0.001693 0.004714 0.000429 -0.002658 -0.001686 0.000270 -0.001660 0.004384 0.002483 0.004506 -0.000269 -0.000750 0.004119 0.003144 0.002522 0.004512 -0.003076 -0.000617 -0.001368 0.003741 -0.004388 -0.002860 -0.001961 0.003445 -0.001300 0.001480 0.004067 0.003150 0.001853 -0.002616 0.004141 -0.001541 0.003005 -0.003496 0.004008 -0.001100 -0.001998 0.003024 0.003804 0.000767 -0.004246 0.004833 -0.000335 0.002778
Please 0.004357 -0.002790 0.003549 -0.001675 -0.003369 -0.002186 0.004823 0.003049 0.004961 -0.002173 0.003077 0.003823 -0.002317 -0.001106 0.000942 0.001952 -0.003362 -0.004808 -0.002489 0.001055 -0.003814 0.004106 0.000722 0.000767 -0.002615 0.003657 -0.003253 -0.002379 0.002493 0.001017 0.003584 0.001759 0.001102 -0.004910 0.004902 0.002137 0.003175 -0.003920 -0.001514 0.003582 0.003224 0.002747 0.004408 0.003079 0.002097 -0.004646 -0.001954 0.001723 0.002256 -0.003590 0.002962 0.004044 0.002875 0.003713 0.002727 0.000175 -0.000811 0.003533 0.000665 -0.000513 0.003963 0.003945 0.002108 0.001836 -0.000799 -0.004808 0.000050 0.004480 -0.004578 -0.000451 -0.004971 -0.003404 0.002121 0.004312 -0.001398 -0.000002 0.003223 0.000851 -0.004328 -0.002640 0.000007 0.000736 0.003069 0.003430 -0.001955 -0.004564 -0.000099 -0.001222 0.003567 -0.004931 -0.002419 0.003784 -0.003759 0.001106 -0.004898 0.002246 0.000727 -0.003010 0.003183 0.000231
pursuant -0.004164 -0.004552 0.002502 -0.000987 -0.002847 -0.003108 -0.001112 0.001016 0.003421 0.002553 -0.000566 -0.003873 -0.001409 0.003907 -0.004430 0.002825 -0.002074 -0.001008 0.003024 -0.000411 -0.003902 -0.004985 -0.003105 -0.004638 0.004926 0.001690 0.002125 -0.002888 0.004003 0.002513 0.004565 -0.003386 0.000163 0.004415 0.000076 0.000600 0.001529 0.001607 0.003005 0.002037 0.000260 0.004877 -0.001306 0.003148 0.001825 -0.002424 -0.001175 0.000508 -0.002124 0.003034 -0.000000 0.001672 -0.001701 0.000520 0.000007 -0.000913 0.000491 -0.000499 0.003292 0.002125 0.001744 -0.000602 -0.003913 0.003763 -0.001036 0.000064 -0.002108 -0.004026 0.001838 0.000849 0.001415 -0.004258 0.002328 -0.004845 0.002592 0.004782 0.000861 0.003709 0.002609 0.003395 0.000453 0.004266 -0.002677 0.001388 -0.004078 -0.002918 0.000833 -0.002721 -0.004663 -0.003541 -0.000698 -0.001152 0.004534 0.000208 -0.003651 -0.004735 -0.003482 -0.004405 0.004702 -0.002009
an -0.004541 -0.004200 -0.003864 0.004985 0.000256 0.000777 -0.002343 0.000355 0.002474 -0.002300 -0.000686 0.001893 -0.003184 -0.004412 0.002554 0.004057 0.000938 -0.003874 -0.001588 -0.000765 0.000308 0.003536 0.003058 0.003423 -0.003948 0.003401 -0.000197 0.001096 0.001956 -0.003878 0.003996 -0.000688 0.002697 -0.000503 -0.001494 0.002928 -0.002595 0.004677 0.002989 0.003179 -0.004911 -0.003583 -0.004948 0.003715 0.000050 -0.001969 0.000125 -0.001489 -0.004952 0.000322 0.002970 0.004734 -0.001913 0.001712 -0.003877 -0.000377 -0.000519 -0.000646 -0.000655 -0.000902 -0.000772 0.001810 0.000937 0.001689 0.000477 -0.002649 -0.002804 0.003321 0.002374 0.000962 -0.004813 0.004741 0.000853 0.004541 -0.004220 -0.001296 0.002092 -0.002598 0.000001 0.002806 -0.002830 -0.002214 -0.003483 0.003335 -0.001015 0.003283 -0.001543 -0.004993 0.000409 -0.001791 -0.002640 0.004180 -0.002201 -0.000682 0.000237 -0.004508 0.000658 0.002329 -0.002522 -0.001271
credit -0.003971 -0.002403 0.002324 0.000374 0.002894 -0.002226 0.004002 -0.001089 0.001587 -0.004940 -0.001176 0.003869 0.003866 -0.002315 0.004729 -0.002523 -0.002662 0.003719 -0.000060 -0.003551 -0.000089 -0.000880 0.002620 -0.000335 0.003699 0.003840 -0.001491 0.003066 -0.003359 -0.000735 0.002167 -0.004914 -0.002435 -0.001953 0.002348 -0.001784 0.004481 0.002017 -0.003191 -0.000550 0.004691 -0.000159 0.000632 0.004956 0.003108 0.003659 0.002018 0.004875 -0.001463 0.002823 -0.001136 0.003993 0.003226 -0.000339 0.002807 -0.001655 0.002191 -0.004846 -0.001523 0.003670 -0.001869 0.001972 0.000036 -0.000539 0.004176 -0.001748 -0.004308 0.000395 -0.002407 0.000376 -0.004392 -0.004810 0.001905 -0.004252 0.003963 0.002316 0.001894 -0.001673 0.004106 -0.000308 -0.000534 0.001265 -0.002287 -0.001920 -0.002738 0.000375 -0.001211 -0.002317 0.001417 -0.004491 -0.002125 0.004302 -0.004486 -0.004673 -0.001658 0.000522 0.003188 0.003697 -0.000709 0.004669
Joe -0.000540 0.000077 -0.003111 0.003360 -0.004385 -0.004181 0.004243 -0.002751 -0.000973 0.003437 -0.002294 -0.002919 0.001526 -0.001209 0.002253 0.003512 0.000376 -0.003417 -0.003538 0.004581 -0.001525 0.000140 -0.002117 0.000617 0.003942 -0.001547 -0.004457 0.003471 -0.002244 0.002532 -0.002790 -0.001686 -0.001891 -0.000433 -0.000358 0.002119 -0.001054 -0.002958 -0.001180 0.000299 0.003367 -0.003994 0.004459 0.000977 0.003994 -0.000330 -0.002133 0.004647 -0.000179 -0.003212 -0.004471 0.004458 0.003662 -0.002960 -0.002235 0.001323 -0.002793 0.003257 -0.000994 0.002393 -0.003291 0.002734 -0.001741 -0.000679 0.003662 -0.000847 0.000982 0.001009 0.000538 -0.001780 0.002247 -0.000055 -0.001129 -0.004822 -0.004123 0.004714 0.001389 -0.000063 -0.001616 -0.002117 -0.004833 -0.004035 -0.002686 -0.003550 0.004484 0.002911 0.003132 0.003612 0.001876 -0.000346 -0.002037 0.002862 -0.002221 -0.004877 -0.004658 -0.004522 0.003556 0.004010 -0.004487 0.003328
forward -0.003825 -0.004836 -0.003239 0.001995 0.002619 0.002321 -0.003312 -0.000560 -0.004720 0.000710 0.003326 -0.001496 -0.001759 -0.004510 0.002542 -0.004694 -0.000620 -0.000856 0.003030 0.000678 0.002152 -0.002481 -0.004262 0.003869 0.000211 -0.001021 -0.000172 -0.001311 -0.000318 -0.001216 -0.004309 -0.002603 -0.001921 0.000675 0.003182 -0.002277 0.004816 0.001619 0.000293 -0.003541 0.002871 0.002743 0.000684 -0.004619 -0.000991 -0.001435 -0.004104 0.003065 -0.001447 -0.000801 -0.003555 0.003892 0.002221 0.001532 -0.002482 0.004033 -0.001589 -0.003521 -0.003121 -0.004822 -0.000162 0.000932 0.003898 0.001082 -0.001502 -0.001764 -0.001207 -0.000011 -0.001136 -0.003992 0.000465 -0.004251 -0.001509 0.001338 0.004652 -0.003053 -0.002016 0.004115 0.003310 0.002161 0.001733 0.003695 0.002095 -0.003392 0.002586 -0.002411 0.004553 0.001406 0.002026 0.000982 -0.000404 -0.002631 -0.004534 0.002091 -0.003591 0.003819 -0.002838 -0.001237 0.001246 0.004088
the 0.004958 -0.001650 -0.000719 0.000268 0.003203 -0.001626 -0.003290 -0.004304 -0.001779 -0.003555 -0.002185 0.004464 0.003234 0.002592 -0.002738 0.001924 -0.004395 0.000061 -0.004327 -0.004935 0.001491 0.001780 0.004538 0.001378 -0.003832 0.001577 -0.000804 -0.000390 -0.000513 -0.004041 0.000048 0.002447 0.001363 -0.003936 0.000030 0.000740 -0.001793 0.001935 -0.002133 0.002696 0.004668 -0.002540 0.001177 -0.004770 -0.000527 -0.004563 0.001253 -0.003979 0.000305 -0.000413 -0.004970 0.002094 0.003972 0.003216 0.004705 0.001440 0.000420 -0.002899 0.003031 -0.000418 0.001504 -0.001561 -0.004990 -0.001737 -0.004128 -0.001604 0.001072 0.000334 0.002299 -0.004723 0.003579 -0.002198 0.000662 0.001392 0.003573 -0.000500 0.001646 -0.001308 0.003320 0.002148 -0.003878 -0.000302 0.001259 0.001515 -0.000421 0.002589 0.000222 -0.001351 0.004631 0.000198 -0.002927 -0.003464 -0.004762 -0.004795 0.001606 0.000178 -0.002538 0.001942 -0.004923 -0.001721
. -0.001643 0.003937 0.001144 -0.002721 -0.000218 -0.003234 -0.004048 0.001572 -0.003528 -0.004851 -0.002739 0.000859 0.002053 -0.000112 0.003091 0.001068 -0.002006 0.004993 0.003921 0.002845 0.000867 0.000176 -0.004556 -0.003326 0.003126 0.001655 -0.004617 0.003151 0.000621 0.003581 -0.000627 -0.001884 -0.004484 -0.000278 -0.000674 0.000034 -0.004119 0.003715 0.003305 -0.002068 0.002472 0.000889 -0.000197 0.003512 -0.000827 0.001903 0.001418 -0.004668 0.000461 0.002452 -0.002587 0.000902 0.004023 0.001070 0.002437 0.000595 0.001251 -0.000570 0.002233 0.004208 -0.003604 0.002404 -0.000821 0.004050 -0.003726 -0.001152 0.000869 -0.000594 0.004076 0.003990 0.002322 0.000800 0.003424 -0.004473 -0.003070 -0.000237 -0.003142 0.003751 0.004041 -0.004460 0.003883 0.000038 0.003318 0.001120 0.000676 0.002472 0.003234 -0.001710 0.002740 0.000318 -0.003024 -0.002421 -0.001566 -0.001915 -0.000474 0.001799 0.003484 0.000969 -0.002126 0.000059
Jure -0.000344 0.002658 -0.000146 0.001034 0.003701 -0.002925 -0.001073 0.004549 -0.000816 0.002756 0.004957 0.003535 0.001457 -0.004824 0.000975 0.002654 0.000777 -0.001047 0.002486 0.000525 -0.003050 0.002834 0.002461 -0.004341 -0.000627 0.001829 -0.003691 -0.000771 -0.002805 0.000333 -0.003960 -0.004081 0.001538 0.000069 0.001842 0.001321 -0.001176 -0.003738 -0.004983 -0.003934 0.003365 -0.003663 -0.002113 -0.000308 -0.001906 -0.002864 0.003201 -0.002382 0.001029 -0.004263 -0.003374 -0.004866 0.002575 -0.001590 0.002377 0.004719 0.003041 0.004091 0.003699 -0.003737 -0.002419 -0.003337 0.002198 0.000499 0.000342 0.001509 -0.000402 -0.003987 0.004661 0.004828 0.000768 -0.002182 0.004868 -0.000626 0.001757 0.003450 -0.004852 0.003974 -0.004349 0.002231 0.000458 -0.000585 -0.003408 -0.000667 0.002240 -0.002682 -0.002450 -0.001362 -0.004075 -0.004341 -0.003666 0.003671 0.004793 -0.004928 -0.004438 -0.004300 0.001174 -0.003033 -0.001892 0.004630
attached 0.001813 -0.004053 -0.002232 0.000085 0.003630 -0.002362 0.001159 -0.002842 -0.002333 -0.002822 -0.000223 -0.004987 -0.002814 0.004112 0.001968 -0.000598 0.003885 0.003148 0.004702 -0.004682 0.004349 0.000520 -0.002532 -0.001660 -0.003409 0.004584 0.001867 0.002414 -0.001147 0.000428 0.000680 -0.004350 -0.001235 0.000257 -0.002583 -0.002390 0.004278 0.001849 -0.002891 0.004089 0.000179 0.000552 0.003906 0.002799 -0.002757 0.002095 0.002803 -0.001052 0.003977 -0.001254 -0.000507 0.001178 -0.004464 0.000305 0.000498 0.001884 -0.004280 -0.003128 -0.001725 0.003636 -0.002962 0.003817 -0.002007 -0.004360 0.003208 -0.004582 -0.003970 0.003082 0.001473 0.001531 -0.001099 -0.001279 0.004255 -0.001837 0.000324 0.004042 0.001311 0.001340 0.000574 0.000978 -0.002057 0.004967 -0.002593 -0.000213 -0.001195 0.004453 0.001506 0.003819 0.003406 -0.004218 -0.004377 -0.004779 0.002604 -0.004886 0.002624 -0.004455 0.002618 -0.004454 0.003393 0.001636
