26 100
: 0.000262 0.001681 -0.002282 0.003859 0.000612 0.002985 0.004329 0.000654 -0.001586 -0.000255 -0.001487 0.001326 -0.001020 0.002792 0.000726 0.004296 0.000794 -0.002808 -0.003334 -0.004367 -0.001263 0.000912 0.001116 0.004891 0.002872 0.003514 0.001416 -0.003511 -0.001797 -0.000277 0.001530 0.001889 -0.002859 0.002560 0.004963 0.003441 0.000905 -0.000730 0.001786 -0.000374 -0.003043 -0.001036 -0.001442 -0.003813 0.000192 -0.000426 -0.004113 0.001528 0.002407 -0.004880 -0.000210 -0.004564 0.002857 0.000911 0.000366 -0.000512 0.002255 0.004289 -0.003477 -0.002783 0.000695 -0.004863 -0.003461 -0.003414 -0.002330 -0.000293 0.000765 0.004270 -0.002687 -0.002337 0.000673 0.004675 0.002808 0.000541 0.000458 0.001297 -0.000020 0.001440 0.002340 0.002886 -0.002333 0.004804 0.001263 -0.001545 -0.004448 0.004702 0.002739 0.004401 0.003247 0.003309 0.000656 0.001043 -0.000267 -0.004413 0.000088 0.003550 0.002808 0.000185 -0.003990 -0.000694
No 0.000561 -0.003777 -0.002946 -0.002195 0.002939 -0.004984 -0.003880 -0.000274 -0.003528 0.000220 -0.002845 0.004517 0.001083 -0.000947 0.002352 -0.000525 0.000997 0.004409 0.001310 0.003426 0.004200 0.002220 0.000819 0.001439 0.004050 0.002178 -0.001183 -0.004961 0.000321 -0.002884 -0.001936 -0.002613 -0.001711 0.001669 0.003713 -0.002133 -0.003339 0.001161 0.001785 -0.001437 -0.001134 0.000987 0.001388 0.002452 -0.001174 -0.000965 -0.002756 0.001205 -0.003874 -0.003190 -0.004897 0.004081 0.004591 -0.003697 -0.000062 -0.003045 -0.004251 -0.004542 -0.000515 0.000492 -0.004533 -0.000155 -0.003282 0.004971 0.004534 0.000120 0.000533 0.002394 0.002003 0.003427 -0.003419 -0.001529 0.004506 -0.000047 -0.002301 -0.000621 -0.004463 0.004959 -0.002099 0.002837 -0.001317 -0.004899 0.001079 0.004908 0.000950 0.003089 -0.002873 0.002603 0.004238 0.000470 -0.000202 -0.001076 0.002184 -0.000017 -0.002891 0.000416 0.000827 -0.004910 0.003350 -0.003689
. -0.001641 0.003936 0.001144 -0.002721 -0.000218 -0.003234 -0.004047 0.001572 -0.003528 -0.004850 -0.002738 0.000859 0.002052 -0.000110 0.003089 0.001067 -0.002005 0.004993 0.003921 0.002844 0.000867 0.000176 -0.004556 -0.003327 0.003126 0.001654 -0.004615 0.003150 0.000620 0.003582 -0.000628 -0.001884 -0.004484 -0.000277 -0.000674 0.000033 -0.004117 0.003713 0.003303 -0.002067 0.002472 0.000890 -0.000195 0.003511 -0.000827 0.001903 0.001418 -0.004667 0.000463 0.002451 -0.002587 0.000901 0.004022 0.001069 0.002437 0.000595 0.001251 -0.000571 0.002232 0.004208 -0.003602 0.002403 -0.000822 0.004048 -0.003725 -0.001151 0.000869 -0.000594 0.004074 0.003989 0.002323 0.000799 0.003424 -0.004473 -0.003069 -0.000236 -0.003142 0.003750 0.004040 -0.004459 0.003883 0.000039 0.003318 0.001120 0.000676 0.002471 0.003233 -0.001707 0.002740 0.000319 -0.003022 -0.002422 -0.001565 -0.001915 -0.000473 0.001799 0.003483 0.000968 -0.002125 0.000060
; 0.001358 -0.002387 -0.004576 0.003385 0.002918 -0.001776 0.004533 0.000723 0.000410 -0.004882 0.002201 0.004394 -0.001561 -0.003848 0.002923 0.001072 -0.004829 -0.001768 0.002165 0.004308 0.003094 -0.000581 -0.003300 -0.000489 -0.001802 -0.003166 0.000998 0.003917 0.003562 -0.001159 0.002437 0.001791 0.003877 0.003360 0.004935 -0.003141 -0.000498 -0.001650 0.002989 0.002152 0.001668 0.003665 -0.002445 -0.003778 -0.004749 -0.001399 -0.000346 0.004078 0.004894 -0.000600 -0.001676 -0.002876 0.002904 -0.000939 0.003100 0.003629 0.003274 0.001713 0.001753 0.000456 -0.000021 -0.000081 -0.002749 0.003060 -0.003900 -0.004919 0.004491 -0.004534 -0.003138 0.002738 0.003280 0.001216 -0.003744 -0.002297 0.004043 -0.000824 0.001729 0.002085 -0.004405 0.002206 -0.004637 -0.003282 0.000677 0.004041 0.004753 0.002329 -0.003545 0.003558 -0.002258 0.003186 -0.002756 0.002870 0.004780 0.002902 -0.002530 0.001169 -0.003426 0.003989 0.000429 0.002564
> -0.002113 -0.004214 -0.002897 -0.004246 -0.002147 0.001909 0.002240 0.001338 -0.002795 -0.001847 -0.000135 0.004609 -0.000815 0.003198 0.002077 0.004952 -0.000019 -0.004417 -0.002116 0.001963 0.002539 -0.002336 -0.001426 -0.001516 0.003913 0.000864 0.000378 -0.000933 -0.002643 -0.001337 0.000574 0.003179 0.001266 0.002694 -0.003805 0.003571 0.001316 -0.002388 -0.000887 0.004647 -0.003815 -0.002386 0.000964 -0.000577 0.001885 0.004797 -0.000778 -0.004847 -0.001786 0.001910 0.002397 0.004263 0.004238 -0.004299 -0.004672 0.003836 0.002569 0.002639 0.000199 0.004377 0.002689 0.003758 0.004305 -0.004017 -0.004971 -0.000450 0.004665 -0.003807 0.000237 0.003118 0.001690 0.002207 -0.003387 0.001990 0.000977 -0.002117 -0.002450 0.003055 0.004199 0.000342 -0.000755 -0.000506 -0.003461 -0.004939 -0.000684 0.001703 0.001866 -0.002941 -0.004388 0.002251 0.001136 -0.001389 -0.002571 0.002363 -0.001335 -0.001631 -0.001668 -0.003184 0.002859 -0.003002
awarded -0.002653 0.003321 0.002326 -0.004116 -0.000175 -0.001441 0.000002 -0.004228 0.003766 0.002216 0.004619 0.003036 -0.002431 -0.004303 0.000683 0.000805 -0.000614 0.001245 -0.000251 -0.000823 0.001017 0.004136 -0.003457 0.003008 -0.003205 0.002721 0.003087 0.004976 0.000162 -0.002446 -0.002178 0.004527 0.002264 -0.002083 -0.004924 -0.003709 0.001649 0.003828 -0.004133 -0.002758 -0.003071 0.001627 -0.000479 -0.000112 0.001565 0.002036 0.000579 0.004929 0.003776 0.001437 0.001210 0.002261 -0.000777 0.004824 0.004258 -0.000369 0.003762 0.003059 -0.000053 -0.001961 0.003409 -0.001791 -0.004880 -0.000356 -0.000504 -0.004477 -0.004387 0.001176 0.001928 -0.002975 0.001928 -0.001168 -0.001346 0.003877 -0.002775 -0.002493 0.002061 -0.000471 0.001857 0.003899 0.004740 0.002013 0.004912 0.000019 -0.002755 0.001067 -0.004532 -0.004460 -0.001935 0.000563 0.000169 0.002920 -0.001477 0.003038 -0.003989 0.004643 -0.000727 0.003756 -0.002461 -0.003341
Scheduling\ISO -0.001706 -0.004377 0.000703 -0.000034 -0.003543 -0.004468 -0.000850 -0.003834 -0.001584 0.002868 0.000598 -0.003070 0.001623 -0.004524 -0.002839 -0.002573 -0.004841 0.000168 -0.001812 0.001137 0.003984 -0.000972 -0.004696 0.002087 0.000474 0.004060 -0.000421 0.002590 -0.002617 -0.000352 -0.004730 -0.001576 0.003874 0.004022 -0.003590 -0.002888 0.002204 -0.002960 -0.001222 0.003929 -0.004042 -0.002284 0.004459 0.003676 0.004824 -0.003567 -0.000365 -0.000055 0.001428 -0.001891 -0.001448 0.000201 -0.002290 -0.001247 0.001948 0.000656 -0.000548 0.000154 -0.003711 0.003719 0.002507 0.000684 0.002527 -0.001511 0.001779 0.002931 0.002887 -0.001260 -0.004426 0.003440 0.004277 0.001636 0.001187 -0.004401 -0.001984 -0.001282 -0.003291 0.003924 -0.004161 0.000568 0.002200 -0.003530 0.002346 -0.003284 -0.000246 0.001057 0.003723 0.003412 0.002984 -0.001246 -0.000877 0.004776 0.004808 -0.003619 0.003047 -0.001911 -0.003419 0.003439 0.001021 0.001878
LOG -0.004482 0.003619 0.003137 -0.001260 -0.001483 0.001874 -0.003562 -0.000066 0.002639 0.002016 0.003817 0.002048 -0.004004 0.001363 0.001302 0.004946 0.000129 0.004901 -0.000208 0.000155 -0.003663 0.000240 -0.001513 0.003250 -0.000856 -0.002008 0.002293 -0.002040 0.004355 0.000437 0.001992 -0.001872 0.000799 0.002004 -0.001868 -0.003616 -0.001218 0.002519 -0.000518 0.000784 -0.004319 -0.003973 -0.002157 0.000405 -0.002791 -0.004109 0.002195 0.001486 0.001073 0.002926 0.004062 -0.000335 -0.002499 -0.003603 0.002394 -0.000073 -0.002762 0.000174 0.001226 0.000549 -0.002143 0.004508 0.003931 -0.002033 0.002265 0.003317 0.001517 -0.001954 0.002121 -0.003345 0.002056 0.001649 0.000337 0.003611 0.000074 0.003384 -0.002084 0.004187 -0.004424 -0.003584 -0.000253 0.000087 -0.001748 -0.001695 -0.002985 -0.004852 -0.003988 0.002032 -0.001575 0.003556 -0.002795 0.002326 0.004780 -0.000558 -0.003970 0.004242 0.001102 -0.000920 0.002474 -0.004805
Start 0.000604 -0.001187 -0.000747 0.002356 0.004386 -0.000672 -0.000746 0.002586 0.001950 -0.002114 0.003465 0.000870 -0.003576 0.004107 0.004683 -0.004810 -0.000474 -0.000880 -0.001071 -0.000656 0.000390 0.001693 0.001446 0.003021 -0.002918 -0.000866 0.004323 0.004122 -0.002946 -0.001502 -0.001572 0.002213 0.003065 -0.001643 0.001124 -0.001273 0.002758 -0.002088 0.004509 -0.002780 0.002070 0.003328 0.003945 0.001236 0.003331 -0.004950 0.003401 0.000781 -0.004560 0.001070 0.001973 -0.001489 0.002155 0.000908 0.002434 -0.000645 -0.003220 0.003167 -0.004035 -0.002826 0.002513 -0.001950 -0.001210 -0.000382 -0.000488 -0.002719 0.000656 0.003385 -0.000309 -0.003781 0.000329 0.002081 -0.002351 0.004409 0.001395 0.000737 0.000479 -0.003359 0.004143 0.004774 -0.000157 0.001570 0.002387 -0.003475 -0.003024 -0.002730 -0.004204 -0.004486 -0.001372 -0.001847 0.000491 0.004492 -0.000018 0.003056 -0.003246 -0.004161 -0.003881 0.003669 0.003984 0.000211
FILE -0.000995 0.000546 0.000777 -0.000776 -0.004220 -0.001315 0.003463 0.000878 0.000304 0.003246 -0.000778 -0.003621 0.002921 -0.004912 -0.004747 0.003552 0.004016 0.001444 0.000861 0.002285 0.004215 0.003962 0.000356 0.001701 0.001919 0.002843 -0.003373 0.000381 -0.004267 0.002448 0.002658 -0.003227 0.003908 0.001025 0.003199 0.004368 -0.000017 0.002572 -0.002088 -0.000885 -0.000645 0.000837 0.000961 0.002647 0.000874 -0.001727 -0.002715 -0.002165 -0.003180 -0.004375 0.002765 0.000751 0.003052 0.004528 -0.002629 -0.003701 -0.004252 0.004786 -0.001400 -0.003878 -0.002531 -0.000425 -0.000144 0.004238 -0.001238 0.001700 0.002295 0.000017 -0.001722 0.003796 -0.003546 -0.002103 -0.002374 -0.004762 -0.000468 -0.002422 0.000708 -0.001481 -0.004388 -0.004897 0.002273 0.002325 -0.004232 -0.004715 -0.003448 0.004754 -0.004672 -0.001055 -0.001764 0.003561 -0.002509 0.002343 -0.003695 0.004821 -0.002801 0.000209 0.002029 0.000139 0.000689 0.003843
PARSING -0.002489 -0.001547 0.000243 -0.004792 0.000027 0.002033 0.001815 0.000196 -0.004834 0.000392 0.001003 0.001549 0.003507 0.001302 -0.001182 0.000383 0.001300 0.003188 0.004924 -0.002826 0.003197 -0.002656 -0.003478 -0.003042 -0.004723 -0.002976 -0.004638 -0.000227 0.004708 0.004284 -0.004154 -0.000864 0.002048 -0.000109 -0.004485 0.002330 0.004653 0.004438 0.004519 0.003884 0.003749 0.004987 -0.004593 0.003084 0.002103 0.003232 -0.002577 -0.001296 0.004402 -0.002374 -0.004004 -0.002460 -0.000811 -0.003016 -0.000612 0.002859 -0.004217 0.002763 0.003537 0.000188 -0.000166 0.000734 -0.003153 -0.002470 -0.003836 0.003863 -0.001307 0.004309 -0.004052 0.002520 0.003838 0.001766 0.004732 -0.003863 -0.002913 0.002440 -0.001558 0.004994 0.001142 0.004867 -0.004313 0.002518 -0.000357 -0.003337 -0.000279 0.002269 -0.000145 -0.001629 0.004917 0.003116 0.002550 -0.004138 -0.004458 -0.001844 -0.000198 -0.002427 0.004096 0.003072 -0.000033 -0.002437
Final -0.003753 -0.003497 0.001298 0.002732 -0.001861 -0.000265 -0.001120 0.004924 0.002616 -0.003398 -0.003890 0.000289 -0.002856 0.003265 0.002196 0.001026 0.001959 -0.003561 -0.003147 0.000039 -0.003229 0.000787 0.003098 -0.003032 -0.001969 0.000310 0.001765 0.000684 0.001910 -0.003176 0.001670 -0.002213 0.001916 0.000597 0.001333 0.003395 -0.001385 -0.000466 -0.004930 0.001723 0.001166 -0.002074 0.002417 -0.004847 -0.001780 0.004799 -0.004414 0.004347 -0.003766 0.000083 -0.003565 -0.002350 -0.000465 0.004868 -0.000941 0.002002 0.001079 0.002664 -0.003701 -0.003570 -0.004387 -0.003045 -0.001645 0.004766 -0.000404 0.002761 -0.003644 0.003715 -0.002389 -0.003458 -0.003912 -0.003269 -0.003850 -0.000840 0.003754 0.004195 0.001202 -0.002239 -0.001063 -0.001793 0.003728 0.002116 0.004580 0.004040 0.002293 0.004617 0.000339 -0.003087 -0.004420 0.003895 -0.003790 -0.000320 -0.004083 -0.003796 0.002082 0.002892 0.002388 -0.004116 0.004239 0.002284
HourAhead -0.003015 0.001206 0.003134 0.002471 -0.000134 -0.000155 0.002126 -0.002168 -0.001768 0.000830 -0.002413 0.000412 -0.002828 0.001006 0.004486 0.003437 0.001905 0.000453 0.000152 -0.003202 0.000266 0.003383 -0.004491 0.000841 0.001178 -0.001675 -0.003991 0.002550 -0.003360 0.004433 0.003715 0.002066 0.004626 0.002749 -0.002491 0.000320 -0.002426 -0.001038 -0.004740 0.000390 -0.004711 0.001177 -0.003402 -0.002621 -0.000430 -0.002211 0.002442 -0.002573 0.004892 0.002023 -0.002836 0.002427 -0.001948 0.004040 0.004351 -0.004487 0.002471 0.004349 0.004199 -0.003385 -0.001514 -0.000838 -0.000810 0.004097 0.001099 0.000708 0.000014 0.002792 -0.003570 -0.000774 0.001846 -0.000808 0.004627 -0.000338 -0.002085 0.000333 0.002347 -0.004344 -0.000463 -0.002603 0.001668 0.000646 0.004821 0.000893 -0.003670 -0.003667 0.003603 0.000771 0.003117 0.001426 -0.000895 0.000868 -0.002718 0.001041 -0.001997 -0.002811 -0.000848 -0.000526 -0.002045 0.003890
detected -0.004856 -0.002959 -0.004388 -0.004040 -0.003892 0.004686 -0.000675 0.003925 -0.004012 0.004453 -0.003356 0.001343 -0.004992 -0.004905 0.002322 -0.000028 0.003589 0.001952 0.001047 0.002007 0.001599 0.000828 -0.003201 -0.003080 -0.003316 -0.000018 0.001780 0.001583 -0.000389 -0.002471 -0.000421 -0.002734 0.000926 0.003596 0.000860 0.004078 0.002818 -0.000360 0.004148 0.004635 0.003693 -0.002951 -0.004467 -0.004067 0.000050 0.004045 0.001871 0.002500 -0.001712 0.004570 0.000116 0.002206 -0.004004 -0.004395 0.002115 0.003036 0.002102 0.002489 -0.003578 0.001392 0.000495 0.004997 0.001604 0.004651 -0.001541 -0.002646 0.004485 0.004143 0.000583 0.003593 -0.004945 0.004260 0.001942 -0.000609 0.002704 -0.001824 -0.003928 -0.003163 -0.001129 0.004215 -0.004060 0.000741 -0.000596 -0.000258 -0.000149 0.003029 0.003868 -0.001388 0.003061 -0.003611 -0.001161 0.000484 -0.002259 0.004489 0.001930 0.004219 -0.001439 -0.004766 -0.000100 -0.000345
Date 0.004276 -0.000063 0.002733 0.001536 -0.001618 0.002276 0.004555 -0.003591 0.001386 0.004546 -0.003393 0.003743 0.004245 -0.004601 0.000477 -0.003652 -0.003164 0.001233 -0.001228 -0.000678 -0.003332 -0.004389 0.004121 0.004593 0.000308 -0.001971 -0.004296 0.001489 -0.004083 0.001980 0.001501 -0.000971 0.004055 -0.004707 -0.004751 -0.002300 0.000607 -0.003435 -0.001933 -0.003357 0.001132 -0.002918 0.003781 0.003387 0.004656 0.000932 -0.001241 0.002521 0.002970 -0.000964 -0.000965 0.000445 0.003407 -0.002976 -0.002383 -0.002612 -0.004023 -0.002261 -0.003035 0.003431 0.003231 0.003639 -0.001514 0.001366 0.004400 0.000828 -0.002224 0.001238 0.003898 0.000904 -0.001876 0.004808 -0.003677 -0.000401 -0.004480 -0.002080 -0.000080 0.003290 0.003772 -0.004576 0.000369 -0.003890 -0.004339 0.001946 0.004877 0.000468 0.001516 -0.003277 0.000029 0.002058 0.000827 -0.004374 0.001706 0.001801 -0.004847 -0.002174 0.003870 0.004660 0.001854 -0.002299
1/14/02 -0.001096 0.000164 0.004143 -0.002964 -0.004787 0.003301 0.004931 0.001119 -0.000481 -0.003389 0.003442 0.000614 0.002016 0.003100 0.004002 0.003675 -0.001709 0.001281 -0.002428 0.001634 0.001070 -0.000128 0.001002 -0.000526 0.000726 0.001220 -0.003824 -0.004064 -0.002704 0.002241 -0.000683 -0.003584 0.000807 0.004297 -0.003391 0.003732 -0.001032 0.003544 -0.003239 -0.002158 -0.004043 -0.001899 -0.003625 0.002645 -0.003304 0.001105 -0.003458 0.002188 -0.003499 -0.001296 0.000588 0.003627 0.004802 -0.003002 0.002717 -0.001995 -0.003987 0.003490 0.004167 0.001326 -0.004993 -0.000068 -0.002139 -0.001839 0.001853 -0.004843 -0.000247 -0.004313 -0.000948 -0.003349 0.003154 -0.002046 -0.004800 -0.001153 -0.003304 -0.001662 0.003899 -0.001398 0.003904 -0.004339 -0.000944 0.004762 -0.001702 0.001319 -0.004788 -0.000576 -0.003877 0.004461 -0.004159 0.004954 0.004388 -0.002300 -0.002152 0.000823 0.004811 -0.000653 -0.004156 -0.001809 0.004267 -0.000302
O -0.002824 -0.003332 0.004155 0.001631 0.002915 -0.003670 0.003507 0.002469 0.002114 0.003691 0.003263 0.003591 0.002399 -0.004727 0.000971 -0.003297 -0.002514 -0.001549 -0.001408 -0.003383 -0.003539 -0.002843 0.002935 0.003257 -0.000854 0.003281 0.001841 -0.004770 0.003255 0.002195 0.002678 0.000472 -0.001205 -0.004032 -0.002618 -0.004749 -0.000176 -0.001091 0.004488 -0.001050 -0.004842 -0.001338 -0.002417 -0.003124 -0.003592 -0.000553 -0.004386 0.004409 -0.001803 0.004472 0.004180 -0.000613 -0.002467 -0.000144 -0.003461 0.003828 0.003692 -0.000007 0.000173 0.004025 0.002498 0.000444 0.003666 0.001055 -0.004357 -0.001798 -0.002469 -0.004587 0.000703 -0.004119 0.004875 -0.004597 0.002752 0.001602 0.002163 0.002102 -0.001962 0.000344 0.003785 -0.003453 -0.002676 0.003592 0.003906 0.003619 -0.004800 -0.001743 -0.001005 -0.004427 -0.001750 -0.002108 -0.001753 -0.002458 0.002591 -0.000212 -0.004971 -0.002982 0.001459 0.000662 0.003011 0.003795
ancillary 0.004976 0.003803 -0.000126 0.003786 0.000750 -0.002787 0.004677 0.001772 0.004187 0.001970 -0.003056 0.003614 -0.000441 0.001528 0.001044 0.001863 -0.004865 -0.002069 0.000091 -0.003612 -0.004273 0.003626 0.004607 0.000169 -0.001401 0.004078 0.000626 0.003219 -0.004364 -0.003711 0.000144 -0.002497 0.004255 -0.000486 0.004352 -0.001801 0.000046 -0.003326 0.004463 0.003671 -0.003585 0.001186 0.004901 0.003673 -0.003393 -0.004304 -0.002443 -0.003004 0.004394 0.003123 -0.001141 -0.004003 -0.000349 0.002116 0.002248 0.000676 0.000308 -0.001099 -0.004293 0.003976 0.004751 -0.002036 -0.001553 0.002870 -0.003286 -0.003014 0.004722 -0.003941 0.004497 0.000270 -0.004406 0.002961 -0.003599 -0.003235 0.003995 -0.003395 -0.004716 -0.000509 0.002979 -0.000561 0.001123 -0.002989 -0.004093 -0.004182 -0.002187 -0.000848 -0.000617 0.000328 -0.003668 -0.002682 -0.002111 0.002291 -0.003089 -0.002364 0.003194 0.000483 0.001933 0.004575 0.001896 0.003172
schedules 0.002206 -0.004059 0.004027 -0.001002 0.004348 0.004733 -0.002229 -0.000069 -0.004381 -0.000260 0.001357 0.002881 0.003467 0.004628 -0.001283 -0.003991 0.002072 0.004271 -0.004766 -0.003315 -0.001122 0.002124 0.000108 0.001527 -0.003393 0.001812 0.002598 -0.001943 0.004743 -0.003263 0.004638 -0.003963 0.000627 -0.003364 -0.004554 -0.002766 -0.002837 -0.004240 0.000277 -0.003495 0.002029 0.004039 -0.003132 -0.004221 -0.000647 -0.002362 0.001548 0.002434 0.004479 -0.000375 0.003088 0.001200 0.002641 -0.004315 0.001935 -0.000596 0.003145 0.003037 0.002845 -0.003403 0.002155 -0.000614 -0.003712 -0.002485 -0.004377 0.001220 0.004610 -0.004106 -0.004101 0.001470 -0.004302 -0.004443 0.004100 -0.004804 -0.003370 -0.002555 0.003760 -0.003183 0.004864 0.003502 -0.003808 0.001419 0.001565 -0.000511 0.003531 -0.000466 0.000626 -0.002669 0.003227 -0.001714 0.000923 0.004099 -0.002230 0.004194 -0.002649 -0.004470 0.000536 0.004401 0.003013 0.002204
10 0.001028 -0.000492 -0.002563 0.001105 0.002154 0.004781 0.002856 -0.000244 0.004174 -0.003568 0.002745 0.003054 -0.003151 0.003820 -0.001926 0.003969 0.001677 0.003315 -0.002649 0.001138 0.002473 -0.000709 0.000832 0.004742 -0.002031 -0.001144 0.001911 -0.003419 -0.001355 -0.003106 -0.003909 -0.004188 0.001969 0.003756 -0.003954 -0.000851 0.003429 -0.004390 -0.003706 -0.004205 -0.002836 -0.001726 0.004216 0.004186 0.004059 0.004895 0.004901 -0.001124 0.004998 -0.003913 0.000484 0.001455 0.003967 -0.002101 -0.001573 0.003025 0.002142 -0.004499 -0.004388 0.002182 0.001768 -0.000183 -0.004730 0.001249 0.000424 0.001465 -0.002479 -0.002900 -0.004376 -0.003794 0.003522 -0.003920 0.004623 -0.000385 0.004575 0.001945 -0.000217 -0.002251 -0.003994 -0.000193 -0.004690 -0.003155 0.000296 0.003289 -0.003953 0.001131 -0.003631 -0.003347 -0.000121 -0.002287 0.004182 0.001028 0.004316 0.003743 0.000449 0.003106 -0.000698 -0.004379 0.001043 0.003108
hour 0.004725 0.000294 -0.001249 -0.000007 0.002216 -0.000079 -0.004033 -0.002925 0.003784 0.004015 0.004471 -0.002838 0.000990 0.003735 0.004736 0.003090 0.000788 0.004860 0.002555 -0.001871 -0.002031 -0.000950 0.000541 0.002568 -0.004761 0.000864 -0.001168 -0.000093 0.000088 0.001991 0.003013 -0.004188 -0.004619 0.003862 -0.004804 0.001202 -0.002835 -0.003898 -0.003631 -0.001918 -0.001967 -0.000441 -0.001450 -0.000734 -0.004139 0.000092 -0.003808 0.002564 -0.002941 -0.002791 -0.004043 -0.000896 0.001768 0.003297 0.004366 -0.002025 -0.000366 0.001249 -0.000080 -0.003434 -0.004499 -0.000824 -0.003650 -0.002597 0.004624 0.004929 0.000007 -0.004918 -0.004276 0.004024 0.004708 0.004727 -0.004902 0.002160 0.000883 -0.004898 0.003350 0.003986 0.004589 -0.002937 0.003853 -0.002983 0.003436 0.001801 0.003980 0.004982 -0.002029 -0.000687 0.004220 -0.004001 0.003794 0.003239 -0.004867 -0.001566 -0.003729 -0.003560 0.001355 0.004581 -0.002036 0.002758
-- 0.003599 -0.001623 -0.000338 -0.004052 -0.003187 0.000003 0.004645 0.002564 -0.003367 -0.001726 0.004502 0.001392 -0.001668 0.004595 0.000273 -0.002909 0.003328 -0.003700 0.003865 0.001758 -0.003093 0.003598 0.001459 -0.001424 -0.004665 0.001826 -0.000222 -0.001500 -0.002267 -0.000976 -0.004502 -0.000083 0.001093 0.000346 -0.004885 0.000779 0.004820 0.000823 0.002026 -0.004649 -0.002742 -0.000703 -0.002239 -0.001446 -0.003782 0.003492 -0.000271 -0.002089 -0.004830 0.003712 0.000496 0.001034 0.001741 0.001006 -0.004775 0.001083 0.004263 -0.001236 0.003858 -0.004077 0.004111 -0.004458 0.000731 -0.003352 -0.001089 0.003802 0.002087 0.000939 0.002316 -0.000228 0.002783 0.004664 0.001599 -0.000299 -0.000784 0.003704 0.001433 -0.001039 -0.004765 -0.002356 0.002448 -0.004610 0.004204 0.001741 -0.000548 -0.001648 -0.002129 -0.000027 0.001491 -0.003788 0.000995 -0.000200 -0.003804 0.002984 0.000072 -0.002969 0.001377 0.001063 -0.000575 0.004718
variances 0.003299 0.004560 -0.001018 -0.001860 0.003868 0.002968 0.001151 -0.003949 -0.003074 0.002595 0.000621 -0.003303 -0.000469 0.003367 0.003937 -0.002143 -0.000407 0.004314 0.004658 0.000836 0.001491 0.004793 -0.000305 0.003506 -0.000430 -0.004424 -0.000009 0.003934 -0.000690 0.002014 -0.001502 -0.001008 0.003394 0.002675 -0.001546 -0.004741 0.003724 -0.000005 0.001085 0.003718 0.000710 -0.002544 -0.003414 -0.000168 0.000700 0.002484 -0.003397 0.004666 -0.000570 0.002019 -0.002857 0.000205 0.001283 -0.003993 0.000809 0.003698 0.001078 -0.000134 0.002757 0.002972 -0.003900 -0.003440 0.001968 0.004307 0.001301 0.000628 -0.000176 -0.004318 -0.003277 0.002122 0.004066 0.004649 0.002026 0.000036 0.001702 -0.000490 0.000003 -0.004249 0.003751 0.004550 0.002493 -0.003540 0.000829 0.002388 -0.001948 0.001542 0.002537 -0.001758 0.004352 -0.001448 0.002843 -0.000092 -0.002559 0.002252 -0.001584 0.002344 0.002889 -0.001909 0.001269 0.004967
\Portland\WestDesk\California -0.003438 0.003524 -0.001982 0.003045 0.002675 0.000310 0.000406 0.001786 -0.001004 0.000023 0.004201 -0.002780 -0.003805 -0.000070 -0.001075 0.002072 0.003248 -0.004740 -0.004846 0.004558 -0.003661 -0.001331 0.000715 0.003496 -0.002213 -0.000590 -0.000182 -0.003667 -0.002313 -0.002244 0.002573 -0.004255 -0.004559 0.004591 0.002303 0.003554 0.001667 -0.003823 -0.002232 0.002787 -0.002839 0.000727 0.004837 -0.003322 0.001732 0.000856 -0.002348 0.003596 -0.000181 0.001187 -0.002455 -0.000437 -0.002413 0.004190 0.004239 0.001538 -0.001257 -0.004483 -0.003121 0.002638 -0.001226 0.001646 0.001851 0.002941 -0.000766 0.000040 0.002820 -0.000751 0.002073 0.004464 0.002380 -0.000801 0.004966 -0.004775 -0.004415 0.004579 -0.004478 0.000334 0.003877 0.001348 0.000514 -0.004321 0.002371 0.003809 -0.000605 0.003178 0.001454 0.004002 -0.003349 0.003285 0.004768 -0.002603 0.000099 0.000414 0.004526 -0.000972 0.004861 -0.004526 -0.002931 -0.003054
MESSAGES -0.002158 -0.004567 0.001422 0.004153 0.000763 -0.001389 0.001870 -0.002663 -0.004557 0.000782 0.003439 0.004297 0.003052 -0.004824 0.004972 0.001407 -0.002212 0.003211 0.002514 0.002260 -0.004454 0.004905 0.003390 -0.003232 0.003299 0.004495 0.004676 -0.003879 0.003956 -0.004369 -0.000943 0.002219 -0.003818 -0.003780 -0.003535 -0.001909 -0.001085 0.003627 -0.002500 0.003044 -0.003697 -0.000793 0.003385 -0.002709 0.004150 -0.004522 -0.003894 -0.004952 0.004697 0.003011 0.002234 0.000272 0.000045 -0.004315 0.002261 0.004918 -0.000409 -0.004301 -0.000320 0.004487 0.000973 -0.002645 0.004753 -0.000792 0.002662 0.002636 -0.000476 0.001948 0.004604 -0.002228 0.000527 -0.001739 -0.001120 -0.001078 -0.004203 0.001126 0.000157 -0.001537 0.004524 -0.003991 0.000190 -0.004160 -0.003036 0.003389 0.001206 -0.002885 -0.000980 -0.001222 0.000712 0.004456 -0.000488 0.000078 -0.002368 0.002726 -0.003405 0.002614 -0.004548 -0.003690 -0.004359 -0.003863
Schedules\2002011410.txt 0.003825 -0.000957 -0.004574 0.000925 -0.000095 0.004508 0.002058 -0.003752 -0.001493 -0.001236 0.002885 -0.001390 0.003044 -0.003012 0.003776 -0.004904 0.000736 0.002681 0.004954 0.003114 0.003780 -0.003289 -0.001865 -0.002020 0.001854 0.000131 0.000664 0.002375 -0.004688 -0.003685 0.001122 0.001947 -0.004733 0.004616 -0.000338 -0.000381 -0.000810 -0.002517 0.003941 0.001135 -0.004131 0.001524 -0.003757 -0.004586 -0.001327 -0.004513 0.004943 -0.004837 -0.001903 0.001837 0.001069 -0.000321 -0.003886 0.003812 0.002696 -0.002775 -0.004693 0.004626 0.004014 0.002058 0.001930 -0.003042 0.002262 -0.004232 0.002616 0.001588 -0.004554 -0.000298 -0.002361 0.000271 -0.003731 -0.000826 -0.000307 0.003180 0.002062 0.002017 -0.000327 -0.003915 0.003799 -0.000347 -0.004355 -0.002002 -0.000857 -0.002922 -0.004689 -0.003067 0.002800 0.003377 -0.004213 -0.002718 -0.000782 0.001983 0.004220 0.001433 0.002517 0.004779 -0.003856 -0.004367 -0.000918 -0.003799
