31 100
Please 0.004356 -0.002790 0.003549 -0.001675 -0.003370 -0.002186 0.004824 0.003048 0.004961 -0.002173 0.003077 0.003823 -0.002317 -0.001105 0.000942 0.001952 -0.003362 -0.004809 -0.002489 0.001055 -0.003815 0.004105 0.000722 0.000767 -0.002614 0.003657 -0.003253 -0.002379 0.002494 0.001017 0.003583 0.001759 0.001102 -0.004910 0.004902 0.002136 0.003175 -0.003920 -0.001514 0.003582 0.003224 0.002747 0.004408 0.003079 0.002097 -0.004646 -0.001954 0.001723 0.002256 -0.003590 0.002962 0.004044 0.002875 0.003713 0.002727 0.000175 -0.000811 0.003533 0.000665 -0.000514 0.003963 0.003946 0.002109 0.001836 -0.000799 -0.004807 0.000049 0.004480 -0.004578 -0.000451 -0.004971 -0.003404 0.002120 0.004312 -0.001399 -0.000002 0.003223 0.000850 -0.004327 -0.002641 0.000007 0.000736 0.003069 0.003429 -0.001955 -0.004564 -0.000098 -0.001222 0.003567 -0.004931 -0.002419 0.003783 -0.003759 0.001106 -0.004898 0.002247 0.000727 -0.003010 0.003183 0.000231
. -0.001643 0.003936 0.001143 -0.002723 -0.000218 -0.003233 -0.004047 0.001572 -0.003530 -0.004851 -0.002740 0.000858 0.002053 -0.000111 0.003091 0.001066 -0.002005 0.004994 0.003921 0.002844 0.000864 0.000175 -0.004555 -0.003328 0.003127 0.001654 -0.004616 0.003152 0.000620 0.003583 -0.000630 -0.001884 -0.004482 -0.000278 -0.000673 0.000033 -0.004119 0.003716 0.003305 -0.002069 0.002472 0.000891 -0.000196 0.003513 -0.000826 0.001904 0.001418 -0.004668 0.000464 0.002452 -0.002585 0.000901 0.004022 0.001069 0.002438 0.000596 0.001252 -0.000569 0.002231 0.004207 -0.003602 0.002405 -0.000825 0.004048 -0.003726 -0.001152 0.000868 -0.000596 0.004074 0.003990 0.002323 0.000800 0.003425 -0.004477 -0.003071 -0.000237 -0.003143 0.003750 0.004041 -0.004459 0.003882 0.000041 0.003318 0.001119 0.000676 0.002475 0.003235 -0.001708 0.002740 0.000318 -0.003025 -0.002423 -0.001567 -0.001916 -0.000473 0.001801 0.003485 0.000965 -0.002124 0.000059
outlining 0.004170 0.002617 -0.002761 0.004934 0.001789 -0.000312 -0.002219 -0.000035 0.003037 0.004918 -0.002783 -0.001431 0.000929 -0.002054 0.002759 -0.000999 -0.003950 0.002039 -0.001199 0.003013 0.004842 0.003055 0.000271 0.002650 0.000532 0.002384 0.001692 -0.004181 -0.004325 0.001937 0.004457 0.004911 -0.004048 -0.000888 0.000632 0.001261 -0.002136 0.003843 -0.001471 0.004122 0.003632 -0.000213 0.004352 -0.001402 -0.003167 0.002420 0.004292 0.003960 0.001005 -0.004784 -0.004013 -0.000138 -0.004132 -0.002391 0.002217 0.001907 -0.004324 -0.001863 -0.000040 0.000017 -0.001388 -0.004786 -0.003590 -0.001427 -0.004949 0.000074 0.003988 -0.002986 -0.003119 0.001843 -0.004186 0.004293 0.004747 -0.000083 -0.000378 -0.003881 -0.002764 0.001898 0.001374 0.002551 -0.001164 0.000028 -0.002138 0.002126 0.001976 0.002388 0.004283 -0.000125 -0.000927 -0.004528 -0.000981 0.004898 0.000444 -0.003392 -0.002460 -0.003974 0.000128 -0.000073 -0.000927 0.001677
via 0.002076 0.004910 -0.004748 -0.004804 -0.000221 0.001680 0.002020 0.003705 -0.000140 0.001540 0.000079 0.001094 -0.001284 -0.001850 0.001180 0.003900 -0.004212 0.002951 -0.000856 -0.002436 -0.003843 -0.000544 -0.003987 -0.003637 0.000848 -0.004052 0.002106 0.003492 0.001699 -0.000337 0.004517 0.002178 -0.002464 0.004879 -0.000736 0.002410 0.001658 0.002943 -0.000390 0.004852 0.001482 0.001745 -0.000903 -0.002265 0.002989 -0.000677 -0.004866 -0.000564 0.001160 -0.000228 -0.003768 -0.001346 -0.003542 -0.002971 -0.004690 0.000031 0.001346 0.001487 -0.004264 -0.002079 0.001015 -0.003159 -0.003738 -0.004780 -0.004713 0.003096 -0.003940 -0.002287 0.003946 -0.002600 -0.000642 0.001448 0.002165 -0.000079 -0.000762 -0.003422 0.002725 0.000771 -0.003313 0.002667 -0.002705 -0.000519 -0.001858 -0.000676 0.004909 -0.003624 -0.002029 0.000256 -0.003822 -0.001489 -0.003042 0.001362 -0.004317 -0.000942 -0.000844 -0.004407 -0.004930 -0.002698 0.001325 -0.001551
saving 0.002114 0.001543 -0.002802 -0.003235 -0.000068 -0.001952 -0.004768 0.004208 0.000346 0.000966 0.001344 -0.001629 -0.002299 0.000312 0.001525 0.002253 0.003446 -0.000097 -0.003424 0.002792 -0.002875 -0.000412 -0.002607 -0.003582 -0.004858 -0.000559 0.000119 -0.000183 -0.000960 -0.004791 -0.002943 0.000797 0.000313 -0.001264 0.000423 0.003345 0.003961 -0.003835 -0.003310 0.003666 -0.001255 -0.000946 0.002593 0.001838 -0.001639 -0.001462 -0.002833 0.004661 -0.001711 -0.001109 -0.003669 0.002843 0.004194 -0.002175 0.003371 -0.002415 -0.001250 -0.002233 0.004360 0.003169 -0.001800 0.000457 0.000967 -0.004527 0.003251 0.001557 -0.004160 -0.004920 -0.004552 0.004741 -0.004674 -0.001689 -0.004147 0.002434 0.000627 0.002544 -0.001369 -0.001477 0.001584 -0.000291 -0.001612 0.002081 -0.004058 -0.004762 -0.000809 -0.001249 -0.002249 0.000669 -0.003701 -0.004663 -0.003761 -0.000529 -0.004745 0.003316 0.000711 -0.000609 -0.004457 0.001381 0.000405 0.004287
cost -0.001316 -0.002748 -0.003363 0.002199 0.000665 0.004440 0.004772 0.002458 0.001068 0.003963 0.001721 -0.003189 0.003577 -0.003516 0.002780 0.002887 0.003380 0.001519 0.000034 0.002921 -0.004474 0.001885 0.000882 -0.000882 -0.002648 0.003438 0.003740 0.000236 -0.001858 0.001871 -0.000585 0.004388 0.002583 -0.004073 0.004158 0.003995 -0.003492 0.002571 0.000378 -0.004361 0.002350 0.001258 0.001159 0.003231 0.003223 -0.002287 -0.002033 -0.002364 0.003577 0.004281 0.004615 0.003007 -0.001626 0.004663 0.001342 0.004302 0.003988 -0.001653 0.002606 -0.001321 0.004427 -0.001022 -0.004701 0.002255 -0.000619 0.000415 0.000473 -0.000263 -0.000222 -0.004760 0.004153 0.002171 0.000122 -0.003345 0.000533 0.002678 -0.001395 0.001486 -0.004707 0.000392 0.000293 0.002253 0.003406 -0.001004 0.000414 0.003781 -0.002718 0.003275 -0.003491 -0.004799 -0.002875 0.001686 -0.003287 -0.002872 -0.001190 0.001195 0.003477 -0.004978 0.002551 -0.001213
opportunities 0.002132 0.002928 -0.002161 0.003858 0.001665 0.003890 0.004349 0.000224 -0.000107 -0.004399 0.001666 -0.004445 0.001757 0.001074 -0.000050 -0.001716 0.001580 0.002264 -0.001812 0.002753 0.000543 -0.003588 -0.004754 0.001765 -0.002053 0.002427 0.003704 0.004059 0.004875 0.003044 -0.002760 -0.004813 -0.001385 0.004296 -0.003783 -0.001950 0.004602 0.004367 -0.001869 -0.003804 -0.002972 0.003252 -0.004363 -0.002193 0.004466 -0.004524 0.004040 0.001736 -0.000230 -0.002668 0.003390 -0.000109 0.004065 0.001986 0.002360 0.001210 0.001677 0.000747 -0.003352 0.002279 -0.001444 -0.001579 0.000962 -0.003177 0.003004 -0.000273 0.003278 -0.003582 -0.001502 -0.003231 0.004369 -0.004177 -0.003562 0.003145 0.003019 0.003668 0.000547 0.002871 0.004189 -0.003451 0.000191 -0.000541 0.000365 0.001202 -0.001159 -0.002670 -0.001479 -0.003476 -0.000299 -0.000652 0.002487 0.004130 -0.001054 0.004116 -0.003752 -0.000724 0.001087 -0.004844 0.003286 0.003817
have -0.000514 -0.003156 0.002486 -0.000859 0.002908 -0.001983 0.001067 -0.000772 -0.003420 -0.003755 -0.002116 -0.002704 -0.003615 -0.000479 -0.000578 -0.000702 0.001647 0.004878 -0.003859 -0.003928 -0.002319 -0.002429 0.003704 -0.002294 0.002899 0.003101 -0.002154 0.004533 0.000651 0.000904 -0.002719 -0.003355 0.002973 -0.003971 0.004670 0.003958 0.000583 0.004133 0.004278 0.004311 -0.004782 0.002746 -0.002556 0.003401 0.002573 0.001145 0.000473 0.001967 0.002001 -0.000173 -0.000600 -0.000819 -0.000051 -0.004544 -0.000027 -0.003902 0.000541 -0.000091 -0.004927 0.002884 0.000103 0.002672 -0.003392 -0.000992 0.002102 -0.004664 -0.001125 -0.003319 -0.002851 0.001623 -0.004190 0.002583 0.001784 -0.004139 -0.004493 -0.002655 0.000055 -0.002884 -0.001910 0.000345 0.000316 0.004718 -0.002574 0.002811 -0.002993 0.004695 -0.002790 0.000091 0.001215 -0.004978 -0.004231 -0.003962 -0.002337 0.002895 0.002345 0.004885 -0.000035 -0.003311 -0.001955 -0.003090
close 0.004372 -0.000329 0.002291 0.001596 0.002246 -0.000517 -0.001833 0.004453 -0.003821 -0.004991 -0.002090 0.003959 -0.003498 -0.003993 -0.001122 -0.004492 0.000567 0.004404 -0.000893 0.004056 0.004631 -0.003573 -0.000116 0.003284 -0.001731 -0.004762 0.002698 -0.002208 0.001344 0.001238 -0.003528 -0.004856 -0.002855 -0.003493 0.000108 -0.002067 -0.004323 -0.002499 -0.001163 0.001816 0.003754 0.001637 -0.003524 0.004431 0.002936 0.003743 -0.000592 0.001933 0.000692 0.002027 0.003617 0.001768 -0.000983 0.001129 -0.004573 -0.003328 0.000643 -0.002564 -0.001299 -0.000341 -0.004870 -0.003183 -0.001677 0.004296 -0.000466 -0.004339 -0.001671 -0.003676 -0.003615 -0.000272 -0.001119 0.002109 -0.001326 -0.003711 0.004865 -0.000741 -0.004731 -0.003916 0.002343 0.004207 -0.000947 0.004116 0.001458 0.001466 -0.004272 0.001038 -0.000164 -0.001357 0.004388 0.004600 0.001664 0.002243 -0.004317 -0.000678 -0.000699 -0.004047 -0.002051 -0.000613 -0.001228 0.004104
any -0.002812 0.001366 -0.002779 -0.004941 -0.004549 0.002464 0.000717 -0.000147 -0.004476 -0.000449 -0.002217 0.004125 0.004461 -0.001138 -0.001054 0.001076 0.003434 -0.002420 -0.001676 0.002004 -0.002455 -0.002783 0.003000 -0.003649 0.002062 -0.004284 -0.002356 -0.004712 -0.001484 0.002981 -0.004086 0.000982 0.004775 -0.002151 -0.002735 -0.001185 0.001720 -0.003804 0.001176 -0.003839 -0.002781 0.000802 -0.001339 -0.003829 0.000538 0.004079 -0.000032 -0.003357 0.000768 0.000974 0.004050 0.003475 0.000428 -0.001666 0.000314 -0.002018 0.002265 0.004028 -0.002069 -0.001783 0.001133 0.002627 -0.002608 -0.004451 0.000091 -0.004395 -0.001150 -0.003923 -0.003732 -0.000063 -0.003623 0.004458 0.003397 -0.003233 -0.003383 -0.002769 0.004098 0.002118 0.002314 0.001399 -0.004649 0.003531 -0.001062 -0.004646 0.002934 0.004252 0.003516 -0.000883 0.002470 0.001762 0.001143 0.001904 0.000379 -0.004851 0.002094 -0.004890 0.004167 -0.002580 0.004677 0.002893
Brown -0.002997 -0.000339 0.000205 -0.004362 0.001972 0.003497 0.002798 -0.001784 0.001811 -0.002879 0.004193 0.003503 -0.000639 -0.002189 0.004152 0.004243 -0.002296 0.002698 -0.003569 0.001083 -0.002109 0.004920 0.002528 0.003162 0.003115 0.001852 -0.001518 -0.001990 0.001552 0.004360 -0.004011 0.003507 -0.002242 -0.004981 -0.004385 0.004553 0.003058 0.002904 0.003429 0.004600 0.004307 0.001178 -0.001445 0.002773 0.004767 -0.003312 -0.000561 0.002207 -0.004996 0.002028 -0.001971 -0.004570 -0.001506 0.002319 -0.001797 -0.002921 0.002941 -0.003909 -0.001034 -0.002619 0.002112 0.001744 -0.002192 -0.004390 0.002186 -0.003569 0.002249 -0.001740 -0.002080 0.002425 0.001525 -0.004482 -0.004071 0.000782 -0.000040 0.004722 0.001909 0.001537 -0.001634 0.002439 -0.003671 -0.002349 -0.001047 0.001208 -0.001822 0.001562 0.004249 -0.004146 0.001062 -0.003305 0.003898 -0.001585 0.003913 0.004019 0.002066 -0.001141 0.002668 0.004594 -0.004700 0.000458
review -0.003098 -0.001579 0.002441 -0.000693 0.003332 0.003254 -0.000211 0.004757 -0.003366 -0.003191 -0.003041 -0.000928 0.002215 -0.001993 0.002892 0.000827 0.003352 0.004599 -0.001928 -0.001833 -0.002696 -0.001363 -0.004088 -0.000220 -0.004983 -0.001690 -0.003140 0.003920 -0.001247 -0.003075 -0.003452 -0.004662 0.002269 -0.004182 -0.003601 0.004528 -0.002866 -0.003228 -0.002101 0.000438 0.000942 -0.001402 -0.000888 0.002753 -0.000012 -0.001911 -0.003905 -0.002306 0.003663 0.000596 0.002970 0.002295 -0.004501 -0.000595 0.001706 0.004248 -0.004805 0.002310 -0.002192 0.000720 0.004438 -0.000848 -0.003379 -0.002856 0.003160 -0.003823 0.001931 0.001113 0.004534 0.001962 0.003262 0.000223 0.001769 -0.002312 0.002671 -0.004477 0.002430 -0.000961 -0.004790 0.001413 -0.004422 0.001012 -0.003602 0.001699 -0.003642 0.003119 -0.002496 -0.001892 0.004083 0.002109 -0.004819 -0.000168 -0.003317 -0.000854 -0.003816 -0.003873 0.003127 0.002592 0.004107 -0.004859
June -0.000973 0.002280 0.004680 0.001628 -0.004355 0.001463 -0.002632 -0.002051 -0.004428 -0.002612 0.002697 0.001578 -0.000212 -0.001023 0.000488 0.004728 -0.004669 0.001476 -0.004498 0.004584 -0.003593 -0.000295 0.001452 -0.001055 -0.003035 -0.001628 -0.001462 -0.004840 -0.000051 0.002664 -0.001682 -0.000523 -0.000599 -0.002562 0.003122 -0.003908 0.000150 0.003411 -0.002328 0.000152 -0.001876 -0.004116 0.002789 0.001197 -0.001681 -0.003704 -0.001325 -0.000773 -0.000584 0.002773 -0.000308 0.003969 -0.004502 0.001259 0.004299 0.002184 0.001031 -0.002582 -0.003403 0.002692 -0.001485 0.003343 -0.000334 0.003800 0.003624 0.001912 0.004468 0.000727 0.002648 -0.000849 0.000922 0.000281 -0.002936 -0.003071 -0.004019 -0.004886 -0.001951 0.001315 -0.000581 0.004831 -0.001602 -0.000653 0.000623 0.002074 0.002211 -0.003356 -0.004820 -0.001695 0.002793 0.004084 0.004529 0.004283 0.002944 -0.001369 -0.001268 0.003952 0.003699 0.001104 0.003335 0.004146
, -0.001444 0.004662 0.000113 -0.001307 0.004253 0.003361 0.003978 -0.000746 0.001993 -0.002103 -0.002663 -0.001104 0.002446 -0.004942 0.002993 -0.004687 -0.001696 0.003920 -0.001617 0.001864 -0.002224 0.003549 0.001686 -0.001287 0.000969 -0.001872 -0.001274 -0.002713 0.001692 0.004884 0.001801 0.004877 -0.000980 0.004800 0.002996 0.003133 0.004030 -0.001102 0.003310 -0.004105 0.003839 0.000324 0.001600 0.001889 0.004892 -0.003735 0.002692 -0.000743 -0.000929 -0.003885 -0.004675 -0.000039 0.002723 0.003287 -0.002732 -0.000877 -0.000330 0.002646 0.001484 -0.001587 -0.000717 -0.001497 -0.004452 -0.004058 -0.002274 -0.004424 -0.001992 -0.002405 -0.000446 -0.000445 -0.003583 0.000484 -0.001800 -0.000889 -0.003321 0.000548 -0.000808 -0.004794 -0.000022 0.002349 0.003394 -0.003695 -0.004098 -0.002195 -0.001207 -0.004696 0.002685 -0.004708 -0.002312 -0.002675 -0.003837 -0.002845 -0.000505 -0.004754 0.002511 -0.001074 0.003473 -0.001952 0.001377 -0.004588
comments -0.004761 0.002114 0.004477 0.000517 -0.000228 -0.003234 -0.001790 -0.004426 0.004736 -0.000902 -0.001502 -0.003347 -0.002148 0.001018 0.002549 -0.004437 0.001541 -0.000834 0.002321 0.004092 -0.002632 -0.001394 0.001749 0.001754 0.002627 -0.003313 0.002437 0.001418 0.004971 -0.001323 0.003133 0.000079 0.004637 0.003446 -0.004047 -0.003733 -0.003034 0.003700 0.001623 -0.001860 -0.004926 -0.000629 0.004005 -0.001506 0.003992 -0.001021 -0.000425 -0.000477 0.003333 -0.000686 0.000958 -0.004373 -0.003755 -0.000203 0.000881 -0.003791 0.003184 -0.002617 0.002854 -0.002998 0.002185 -0.002476 -0.002353 -0.001939 -0.001908 -0.001435 -0.001501 0.000316 0.004200 -0.001700 -0.002403 0.002752 0.003453 -0.001174 0.002075 0.003863 -0.004683 0.004050 0.004223 -0.000621 -0.004316 -0.003184 0.001937 -0.002682 -0.002422 -0.000197 -0.004102 0.002979 0.004618 0.001062 0.001807 -0.001533 -0.004223 -0.002809 -0.002170 -0.001538 0.000392 0.004681 0.000927 -0.002927
to -0.000476 0.004741 -0.002619 -0.004693 -0.004949 0.004802 0.003424 -0.004169 -0.000009 -0.000250 -0.004231 -0.000471 0.004226 -0.004771 0.003996 0.003584 0.001314 -0.002475 -0.000763 0.000759 -0.003889 -0.004100 0.003559 0.001213 -0.000984 -0.002581 -0.001464 0.003087 -0.000440 -0.002946 0.000723 0.003299 0.000221 -0.002488 -0.003836 0.002876 -0.003566 0.000664 0.004070 -0.002746 0.001331 -0.002526 -0.004044 -0.004201 -0.001567 -0.001549 -0.002523 -0.003174 -0.001503 -0.002361 0.001243 -0.004811 -0.002916 -0.004301 0.003798 -0.000015 -0.004305 0.001782 -0.000038 0.003059 -0.004095 -0.003103 0.004640 0.002784 -0.001934 -0.002405 -0.000585 -0.002970 0.003626 0.003884 -0.004443 -0.001300 -0.003669 0.003610 -0.000621 0.001467 0.002291 0.003421 -0.002641 0.001854 0.000981 -0.002668 -0.001042 -0.002240 -0.001221 0.003393 -0.000759 -0.003852 -0.001384 -0.004032 -0.004953 0.000533 0.001902 -0.000395 -0.001857 -0.000727 -0.003700 0.002200 -0.001184 0.000028
forward -0.003827 -0.004838 -0.003241 0.001992 0.002620 0.002320 -0.003314 -0.000567 -0.004726 0.000709 0.003327 -0.001494 -0.001763 -0.004511 0.002541 -0.004699 -0.000624 -0.000861 0.003030 0.000676 0.002151 -0.002485 -0.004261 0.003872 0.000215 -0.001025 -0.000173 -0.001311 -0.000316 -0.001217 -0.004311 -0.002604 -0.001919 0.000678 0.003184 -0.002284 0.004820 0.001622 0.000295 -0.003545 0.002872 0.002746 0.000685 -0.004625 -0.000992 -0.001434 -0.004107 0.003068 -0.001448 -0.000803 -0.003558 0.003890 0.002225 0.001531 -0.002484 0.004033 -0.001589 -0.003521 -0.003126 -0.004827 -0.000162 0.000938 0.003901 0.001081 -0.001503 -0.001763 -0.001212 -0.000010 -0.001139 -0.003994 0.000461 -0.004256 -0.001512 0.001340 0.004652 -0.003056 -0.002018 0.004114 0.003318 0.002163 0.001733 0.003698 0.002099 -0.003394 0.002585 -0.002413 0.004560 0.001403 0.002027 0.000986 -0.000404 -0.002636 -0.004538 0.002092 -0.003591 0.003825 -0.002842 -0.001237 0.001242 0.004091
you 0.004685 -0.000274 -0.003979 0.004790 -0.000135 0.003449 -0.003721 -0.000853 0.004979 0.001407 0.000336 -0.003378 -0.001973 0.002587 -0.004525 -0.001485 -0.003902 -0.003662 -0.003994 0.003514 -0.004620 -0.001535 -0.003546 0.000422 -0.003955 -0.000243 -0.001408 -0.002871 0.002419 0.001447 0.001711 -0.000473 -0.004573 0.003244 -0.004213 0.001488 0.002624 0.001244 -0.004922 0.001377 -0.003388 -0.001172 0.000978 0.002423 -0.003540 0.002397 -0.001583 -0.000056 0.004381 -0.003724 -0.003761 0.002083 0.003157 -0.000962 -0.002569 -0.004182 -0.002829 0.004558 -0.001103 -0.004786 -0.004804 0.003814 0.002478 -0.001697 0.002794 0.000466 0.003752 -0.004361 -0.004643 -0.000170 0.000194 -0.003543 -0.002296 0.002229 0.003586 -0.002085 0.004340 0.001087 0.002031 0.004942 0.004507 0.003965 -0.003059 -0.001806 -0.004092 0.003735 -0.000604 -0.001615 -0.000773 0.000814 0.002522 0.003520 0.004662 0.004385 0.001754 -0.002776 -0.001342 -0.004832 0.004888 0.004022
email -0.003586 -0.004674 0.002912 -0.002004 0.004134 -0.003048 0.004022 -0.002229 0.003106 0.004982 -0.003183 -0.001520 0.004889 0.001897 -0.002712 -0.002426 -0.004170 0.003429 -0.000939 0.000903 0.001983 0.004707 -0.003049 -0.002748 -0.004749 0.001732 -0.004666 0.001872 0.001642 -0.001525 0.001025 -0.002550 -0.000271 0.001217 -0.002136 0.002096 0.004577 -0.002867 -0.003441 0.004760 0.000154 -0.001134 -0.003517 0.003017 -0.003484 -0.001066 -0.002841 0.000127 -0.003362 -0.000375 0.004424 -0.004655 -0.003842 -0.000470 -0.001233 0.004362 0.000097 0.003552 0.004389 -0.001638 -0.003779 -0.003029 -0.000079 0.000104 0.002933 0.000716 -0.003395 0.000845 -0.004167 0.004791 -0.001020 -0.000604 -0.000809 -0.000926 -0.002830 -0.003615 0.003509 0.004321 -0.003969 -0.001239 -0.002449 0.000013 -0.003482 0.000345 0.004406 -0.004333 -0.002241 -0.004021 -0.001159 -0.004390 0.001738 0.004503 0.004332 0.001473 -0.001762 0.001889 0.002350 0.002106 -0.000692 0.001372
business 0.003203 0.004690 -0.001567 0.003955 0.004539 0.004149 -0.004019 -0.003964 -0.002141 -0.002777 -0.004691 0.003214 0.001125 -0.001325 -0.001584 0.000765 -0.004705 0.002745 0.003826 0.004246 -0.000072 0.002678 0.002108 -0.003363 -0.004324 -0.004324 0.003017 -0.002684 -0.002492 0.004772 0.004633 -0.000411 0.004048 -0.002877 0.003566 -0.002143 0.000129 -0.003509 0.002914 -0.004083 -0.002785 0.003523 0.004869 -0.002214 -0.003721 -0.002712 -0.002412 0.003561 -0.000574 0.002969 -0.003683 0.001973 -0.002539 0.001681 0.002488 -0.004495 -0.001919 0.000918 -0.002871 -0.002381 -0.001277 0.003301 -0.002002 0.002949 0.000810 0.003815 0.000483 0.003088 -0.002430 -0.001046 -0.000400 -0.004741 0.001522 0.004855 0.003883 -0.001335 -0.002912 0.004808 0.001984 0.004596 -0.001181 -0.003144 0.002494 -0.003212 -0.003039 -0.004525 0.001311 -0.000900 -0.002390 -0.000433 0.002951 0.000494 -0.002997 -0.004941 -0.004051 -0.002961 -0.003489 -0.003254 -0.003337 0.001686
that 0.001260 -0.003781 -0.004643 0.002190 0.004892 -0.002412 0.003535 0.000487 -0.004378 0.001985 0.002984 0.003589 -0.004088 -0.001390 -0.004218 -0.000252 0.003568 -0.004294 -0.002279 0.002567 -0.001644 0.002175 -0.001280 -0.001925 0.001792 -0.000992 0.001390 -0.000050 -0.000159 -0.000869 -0.001146 0.004255 0.004355 0.002152 -0.001572 -0.004190 0.001022 0.003696 0.003229 -0.001485 0.003992 -0.000513 0.002327 -0.000526 0.002325 0.003087 -0.004615 0.004012 0.004025 0.000092 0.004353 -0.003818 0.002670 -0.002485 0.004220 0.002205 -0.002591 -0.001747 -0.002794 -0.002466 0.001984 0.002469 0.000973 -0.000332 -0.000969 -0.000687 0.004314 -0.000406 -0.004523 -0.002141 -0.002203 0.004785 -0.002598 0.004066 -0.003075 0.001709 0.000724 -0.002401 0.001938 -0.002793 0.002901 -0.000627 0.003598 0.002376 -0.002465 -0.000486 0.000498 -0.001831 -0.001715 -0.003550 0.000977 0.000103 -0.001567 -0.003775 0.000372 0.000487 0.000034 0.000052 0.002657 0.001347
memo 0.001478 -0.000118 -0.002913 0.002166 0.004832 0.003266 -0.001356 -0.004814 -0.004570 -0.004497 -0.003229 -0.003600 0.004315 -0.002978 -0.001397 0.000758 0.002301 -0.004065 -0.000393 -0.004876 -0.004859 -0.001330 0.001519 -0.002762 -0.004583 0.002537 -0.000931 -0.003864 -0.004118 0.000331 0.001665 0.004013 0.000170 -0.001408 -0.000597 -0.000968 -0.000721 -0.001936 0.000566 -0.001026 -0.002424 -0.002459 0.000266 0.000385 0.001640 0.003799 0.003928 0.003659 -0.003228 -0.000150 0.000631 -0.002659 -0.002247 -0.001937 0.001839 0.001205 -0.003796 -0.003206 0.001217 0.004189 0.004861 -0.002131 -0.003953 -0.002356 0.000566 0.004072 -0.002322 -0.004736 0.000213 0.000650 0.004527 -0.000301 0.002532 -0.004190 0.002617 -0.003601 0.003979 -0.003172 -0.000954 0.000630 0.002438 -0.001830 -0.002894 0.000981 0.003701 0.003674 0.004783 0.004964 -0.003898 -0.001328 0.000166 -0.001004 0.001894 0.002205 -0.001745 0.001360 0.004848 0.000501 0.001681 0.001477
Wednesday -0.001658 -0.001355 -0.003449 -0.002320 0.000912 0.000951 -0.002708 -0.001839 -0.000291 -0.000088 0.000520 -0.000710 -0.000009 0.000624 0.003005 -0.004721 -0.004978 -0.001592 0.000693 0.000327 -0.004345 0.003324 0.001445 0.002235 -0.001875 -0.004281 0.001497 0.002485 0.002397 0.001226 -0.002901 -0.001127 0.004065 0.003915 -0.002816 -0.002296 -0.003276 0.003639 0.001974 -0.002456 0.002329 -0.000113 0.000677 0.000821 -0.002980 -0.000689 0.001920 -0.000812 0.001558 -0.002120 0.002881 -0.004245 -0.000921 0.001625 0.003021 0.001220 -0.002327 0.004236 -0.002310 -0.002837 0.001134 -0.001379 -0.002832 0.000097 -0.004647 0.004250 -0.002984 -0.003347 0.000895 0.002831 0.003238 0.000210 -0.003822 -0.003319 0.001140 0.001275 -0.000896 -0.003563 0.004334 0.004144 -0.001956 -0.002530 -0.003680 -0.002152 -0.000956 0.004771 0.001904 -0.000871 -0.001357 -0.000752 -0.003597 -0.001286 -0.001542 -0.001264 -0.000821 0.004923 -0.000416 -0.004987 0.000475 -0.001667
by 0.000107 0.000944 -0.003922 0.000628 -0.003211 0.004441 -0.001041 0.003092 0.003619 -0.003893 -0.000834 0.000100 0.001027 0.002258 -0.003016 -0.003965 -0.004838 0.001668 0.001690 0.001416 -0.003087 0.000853 0.001872 0.001189 0.001557 0.004903 0.003599 0.001501 0.003091 -0.003642 0.004848 -0.003952 0.004579 -0.004703 0.002623 0.001087 0.004704 0.003353 -0.003892 0.004758 0.003460 0.004426 -0.003201 0.001883 0.002516 -0.001776 -0.002043 0.004445 -0.002461 -0.003688 0.001952 -0.004976 0.001494 -0.000561 -0.001418 0.000750 0.001695 -0.001984 0.004134 -0.004945 0.000114 0.002851 -0.004629 -0.003315 -0.001687 -0.002120 -0.002767 0.003043 0.002547 0.000986 -0.003253 0.002479 0.001930 -0.003388 -0.003620 0.003400 -0.000416 -0.004842 -0.000399 -0.001598 -0.003111 0.001850 0.003385 0.001755 0.001802 0.002473 -0.004091 -0.004742 -0.002567 0.000497 -0.004860 -0.000063 0.004533 -0.004449 0.004458 0.004259 0.001885 -0.004647 -0.002645 -0.003459
on 0.002814 0.004760 -0.002561 0.000595 0.002305 0.004947 0.001837 -0.002241 -0.003514 -0.002857 0.003533 -0.001338 -0.000580 -0.001924 -0.004470 0.004138 -0.001338 -0.001195 0.000896 0.000302 0.002615 -0.000876 0.000085 0.000762 -0.002203 0.004790 -0.003003 -0.001606 -0.000587 -0.000495 -0.003528 -0.002615 -0.004570 0.000891 -0.002428 0.004261 -0.004548 -0.002583 0.002900 -0.003328 0.003565 -0.001568 0.001292 -0.003277 0.000397 -0.004826 0.001161 -0.000282 0.002032 0.003219 0.001693 -0.002879 -0.001639 0.001741 0.000899 -0.003947 0.003945 -0.004820 -0.004651 0.003986 -0.001804 0.001005 -0.004643 0.004122 -0.000058 -0.002488 0.000936 -0.000246 -0.001441 -0.004828 -0.002018 0.000717 0.000167 0.003460 -0.004498 0.003738 0.001515 0.000637 0.001104 0.002633 -0.003871 -0.001907 -0.002277 -0.000304 0.000917 0.003520 0.001440 0.002789 -0.003946 -0.003961 -0.001062 -0.000021 -0.002759 0.002854 -0.001239 -0.002827 -0.003017 0.004741 -0.004502 -0.002243
of 0.004273 -0.003752 -0.000633 -0.002406 -0.000041 -0.001037 0.004704 0.000630 -0.000688 -0.002291 0.000405 -0.002274 -0.003519 0.003868 -0.002179 -0.000380 -0.003706 -0.002090 -0.001323 0.002146 -0.004764 0.001451 -0.003264 -0.000359 0.001990 -0.003054 0.001775 -0.000845 -0.000859 0.000741 -0.003996 0.003211 -0.001952 -0.001462 0.000185 0.001590 0.001939 0.003586 0.001992 -0.002145 -0.003139 0.001316 0.001996 -0.004597 -0.003549 -0.000194 0.000406 0.001249 0.003940 -0.000800 0.000989 0.004586 -0.001857 -0.004874 -0.001563 -0.004312 -0.004944 -0.001554 -0.004676 0.001589 0.002939 -0.001232 0.003668 -0.002121 0.002364 -0.004117 -0.000238 0.000860 -0.001278 0.001558 -0.003236 0.003803 0.003744 -0.003809 0.003481 0.000086 -0.000502 0.000406 -0.003406 0.003904 -0.002922 -0.001381 0.004305 -0.002370 -0.000580 -0.002081 -0.001631 -0.004270 0.004122 -0.002020 -0.004377 -0.001768 -0.001673 0.002941 -0.004813 0.001376 0.003233 0.001166 0.002869 0.003520
attached 0.001814 -0.004049 -0.002232 0.000085 0.003632 -0.002359 0.001156 -0.002840 -0.002334 -0.002822 -0.000227 -0.004984 -0.002810 0.004108 0.001969 -0.000596 0.003881 0.003150 0.004696 -0.004679 0.004346 0.000522 -0.002531 -0.001660 -0.003412 0.004581 0.001865 0.002413 -0.001149 0.000426 0.000679 -0.004347 -0.001233 0.000253 -0.002584 -0.002386 0.004272 0.001848 -0.002891 0.004088 0.000183 0.000550 0.003907 0.002797 -0.002757 0.002091 0.002800 -0.001053 0.003978 -0.001254 -0.000508 0.001179 -0.004463 0.000305 0.000503 0.001885 -0.004281 -0.003127 -0.001724 0.003635 -0.002959 0.003813 -0.002012 -0.004361 0.003205 -0.004581 -0.003966 0.003079 0.001473 0.001531 -0.001098 -0.001278 0.004255 -0.001836 0.000325 0.004037 0.001311 0.001338 0.000575 0.000980 -0.002061 0.004964 -0.002594 -0.000212 -0.001197 0.004455 0.001506 0.003815 0.003405 -0.004217 -0.004380 -0.004777 0.002598 -0.004887 0.002620 -0.004457 0.002617 -0.004449 0.003391 0.001633
business-wide -0.001996 -0.002842 0.004996 0.004100 0.004807 0.002934 -0.000747 -0.000581 0.003612 -0.003064 -0.004665 0.004359 0.000046 -0.004077 0.003746 -0.002568 0.003235 -0.000086 0.003999 -0.002682 0.002104 -0.001889 0.002669 -0.000074 0.003205 0.004542 -0.002935 -0.001000 0.004143 0.004099 -0.002046 -0.004523 0.000381 0.001668 0.004019 0.001391 -0.001333 0.003683 0.000103 -0.001549 -0.002458 -0.002816 0.000698 0.003648 -0.002026 -0.004029 -0.001108 -0.001938 -0.004422 -0.003801 -0.002210 -0.004096 0.003217 -0.001994 0.004276 0.002287 -0.000678 -0.004275 -0.003859 -0.003280 0.002677 0.003720 -0.000201 -0.002821 -0.003775 -0.001231 0.000460 -0.004303 0.001788 -0.004194 0.001703 0.000263 -0.001890 0.001577 -0.000155 -0.003526 0.001564 0.001353 0.003909 0.002854 -0.001062 -0.004451 -0.001016 0.004980 -0.001004 -0.000671 0.004366 0.004753 -0.000880 0.000134 0.003319 -0.004873 -0.000008 0.003380 0.002482 -0.000548 0.000527 -0.001507 0.003721 -0.004688
6th 0.002404 -0.002243 0.001998 -0.002146 0.003048 -0.000934 0.004292 -0.004581 0.004163 -0.003828 0.004459 -0.000517 -0.004014 0.000369 -0.002174 0.002557 -0.003997 0.002189 -0.004916 -0.004402 -0.002990 -0.000553 -0.004066 0.004399 -0.001582 -0.001881 -0.001457 0.001883 -0.002391 0.003423 -0.000825 -0.002864 0.003229 -0.003606 0.002070 0.003802 0.003205 0.003429 0.000655 0.002429 0.004173 -0.004455 0.000033 -0.001902 0.003397 0.002649 -0.001852 -0.000014 -0.000547 -0.002997 -0.000088 -0.000739 -0.001418 -0.000068 0.000118 -0.003420 -0.004590 0.002365 0.003887 -0.000565 -0.003935 -0.001246 -0.000083 -0.002250 0.003914 0.002171 -0.003713 0.004128 0.004110 -0.003587 -0.003796 0.003619 0.003894 -0.002112 0.004459 0.003735 -0.003593 0.003906 -0.000086 -0.003076 -0.001997 -0.004578 0.002562 -0.002417 0.000112 -0.004279 -0.004047 0.004713 -0.000051 -0.002618 0.003234 0.002421 0.000455 0.001523 0.002316 0.003332 -0.002213 0.002097 0.001699 -0.004659
the 0.004955 -0.001649 -0.000720 0.000265 0.003205 -0.001626 -0.003292 -0.004303 -0.001784 -0.003558 -0.002190 0.004463 0.003237 0.002590 -0.002734 0.001923 -0.004396 0.000066 -0.004329 -0.004934 0.001486 0.001780 0.004539 0.001376 -0.003831 0.001577 -0.000807 -0.000386 -0.000513 -0.004039 0.000044 0.002446 0.001366 -0.003939 0.000030 0.000742 -0.001797 0.001939 -0.002130 0.002695 0.004669 -0.002539 0.001177 -0.004768 -0.000527 -0.004561 0.001253 -0.003982 0.000310 -0.000413 -0.004969 0.002094 0.003972 0.003214 0.004709 0.001441 0.000420 -0.002897 0.003028 -0.000417 0.001506 -0.001559 -0.004997 -0.001739 -0.004130 -0.001607 0.001071 0.000330 0.002299 -0.004720 0.003579 -0.002194 0.000665 0.001385 0.003570 -0.000504 0.001645 -0.001308 0.003322 0.002149 -0.003881 -0.000299 0.001257 0.001516 -0.000423 0.002598 0.000225 -0.001353 0.004633 0.000196 -0.002934 -0.003466 -0.004767 -0.004798 0.001606 0.000180 -0.002534 0.001939 -0.004923 -0.001723
Suzanne -0.001866 0.002835 0.001217 -0.001844 0.000549 -0.000473 0.003692 -0.002315 0.000826 0.003541 -0.003078 -0.002733 -0.000406 -0.000976 0.003280 0.000718 -0.000788 0.000139 -0.004496 -0.002237 -0.004971 -0.004447 -0.000680 0.003299 0.003989 0.000354 0.002057 0.004472 -0.000437 -0.004983 0.004743 0.004684 0.001366 -0.000426 0.003547 -0.001464 -0.004246 0.003370 -0.002662 -0.002032 0.000975 0.001372 0.001454 -0.000382 0.001911 0.001263 -0.004658 0.002448 0.004499 0.000126 -0.000081 -0.004362 -0.002024 -0.004344 -0.000993 0.004549 0.002534 -0.001521 -0.000056 -0.001706 0.004878 0.003781 -0.001895 -0.004603 0.004733 0.003381 -0.003832 0.004462 -0.000228 0.001066 -0.004975 -0.001357 -0.002008 -0.000226 -0.002813 -0.004452 -0.004110 -0.004972 -0.000876 -0.000502 -0.002878 0.003709 0.004627 0.004738 -0.004683 0.001322 0.004179 -0.004042 -0.003377 0.004462 -0.003489 -0.002178 -0.003943 0.001405 0.001156 0.000732 0.001296 0.004675 -0.004913 -0.003854
