3 100
- 0.004445 -0.004509 -0.004441 0.002675 0.004863 -0.002938 0.001649 0.000666 -0.001697 -0.002866 -0.002066 0.003282 -0.004063 -0.004063 0.002935 0.004588 0.003732 -0.000327 0.004178 0.000919 -0.000688 0.003444 -0.002542 -0.001021 -0.002328 0.004045 0.003950 0.004634 0.003755 0.003869 -0.004200 0.004285 0.001958 -0.001570 -0.002220 -0.003011 -0.004547 -0.004826 -0.000990 -0.004952 0.000212 -0.001684 -0.000949 -0.004626 0.002663 0.003479 0.001659 0.002385 0.000721 0.000225 0.003704 -0.001137 0.003974 0.002419 -0.000566 0.000696 -0.001251 0.001118 0.000849 -0.002422 -0.002196 0.004100 0.004042 -0.004726 0.004497 0.003822 -0.004034 -0.002944 -0.002556 -0.003119 0.002058 -0.001136 0.000346 0.004413 0.002038 -0.001877 0.003935 0.004125 0.002140 -0.002356 -0.002858 -0.004176 0.003406 0.000848 0.003543 -0.004018 -0.000221 -0.004062 0.004626 -0.003626 -0.004260 0.004560 -0.001425 -0.003377 0.001395 0.003476 0.001469 0.003480 0.002847 0.000652
WEBLINK -0.004151 -0.000772 0.000460 -0.000272 0.004812 0.001453 0.003542 0.004461 -0.001978 0.002275 -0.004745 -0.000021 -0.003428 0.003206 -0.000691 0.000514 -0.003100 0.000966 0.002762 -0.004633 -0.004095 0.000573 -0.004078 -0.002849 0.001897 0.004803 0.003156 0.004809 -0.000865 0.002658 -0.001505 0.003240 -0.001392 0.000510 0.000547 0.003547 0.003683 -0.001517 -0.002155 -0.002145 0.001278 -0.004684 0.001524 0.003299 0.002734 0.002504 -0.001042 0.003340 -0.001421 0.001678 -0.002919 0.003366 -0.001520 0.002658 -0.004417 0.004636 0.003243 -0.001537 0.000955 -0.001961 -0.004571 0.004320 0.002637 0.003357 -0.002140 0.000959 -0.002144 -0.003384 0.003458 0.000729 -0.003700 0.001389 -0.003404 0.000715 0.002657 0.001780 -0.002072 -0.000232 0.000466 -0.002428 0.000470 -0.002283 0.000233 -0.004626 0.003953 0.000876 -0.002670 0.000750 0.000560 -0.000406 -0.003318 0.001208 0.004086 0.001488 0.000767 0.001870 -0.000434 -0.002772 0.004303 -0.003823
consulting.url -0.001639 0.000485 -0.000489 -0.003354 0.001605 -0.000257 0.000469 0.000751 0.003425 0.000532 0.004049 -0.002054 -0.001875 -0.001880 -0.002971 0.000315 0.000721 0.004754 -0.003149 -0.003795 -0.001676 0.002599 -0.000130 0.003535 -0.000714 0.000689 -0.001834 -0.002597 -0.000904 0.000647 -0.001818 0.000018 0.000627 0.000239 0.000454 0.001318 -0.003793 -0.002448 -0.001340 0.003722 -0.002651 0.001950 -0.002983 0.002815 -0.000757 -0.003858 0.001924 -0.000835 -0.002504 -0.001096 -0.000086 0.000616 -0.001888 0.002720 -0.000158 -0.004740 0.001593 -0.000976 -0.001346 0.004757 0.001537 -0.002576 -0.003111 -0.002311 0.002731 0.001020 0.001496 -0.000284 -0.001099 0.002161 0.002425 0.004173 0.002524 0.001225 0.002029 0.004922 -0.002728 0.002385 0.001119 -0.003871 0.003828 0.003128 0.000874 -0.000994 0.000290 0.001158 -0.002587 0.001458 0.002804 0.003177 0.003052 0.004314 0.003589 0.004053 0.003729 -0.002480 -0.003048 0.004436 -0.002488 -0.003728
