7 100
02 0.004962 -0.003123 0.002874 0.002847 -0.004007 0.001469 0.002454 0.001653 0.003509 -0.000444 0.000206 -0.003560 0.001101 0.004877 -0.003746 -0.004727 0.004132 -0.003515 0.003361 -0.003378 -0.003326 -0.002139 -0.001430 -0.001933 0.001497 -0.002923 0.001446 -0.004658 -0.000575 -0.000884 -0.000765 -0.001596 -0.001331 0.003618 -0.000610 -0.000031 -0.000752 0.002107 -0.003891 -0.002787 -0.003949 0.004028 0.000762 -0.003103 -0.002916 0.003726 0.000888 0.001707 0.002924 -0.002480 -0.001845 -0.003090 -0.003765 -0.004449 0.004062 -0.004272 0.004749 0.003751 0.002493 -0.001492 0.003031 0.003841 -0.002972 0.001225 0.000183 0.001985 -0.002886 -0.003478 0.002971 0.001148 0.000486 -0.000703 -0.001816 -0.001100 -0.004017 -0.004863 0.002260 0.000015 0.001171 0.003493 -0.001338 0.001317 -0.000175 0.003317 0.001588 0.004951 -0.003739 0.003644 0.003745 0.001410 0.004502 0.000510 0.003643 0.003281 0.004697 -0.004284 -0.001820 0.000436 -0.004615 0.001102
03 -0.004521 -0.002908 -0.003744 0.000371 0.000739 0.000245 -0.002584 0.003573 -0.001922 0.003111 0.001004 -0.003891 0.000016 0.003733 0.003430 0.002931 -0.000287 0.001329 -0.003704 -0.004679 0.002870 0.001332 0.001131 -0.004368 -0.004439 0.004205 -0.001713 0.003854 0.003627 -0.002349 0.004632 0.001403 0.001992 -0.004996 0.004708 0.002780 0.000215 0.000377 0.000753 -0.003261 0.004707 0.000926 0.000343 -0.004047 0.002223 -0.001715 0.002831 0.002390 0.002545 0.000236 -0.002065 0.002111 0.004951 0.004333 0.004581 0.004483 0.001679 -0.004303 -0.004785 0.004970 0.002573 -0.003782 0.002340 -0.001325 -0.001681 -0.002505 -0.001071 0.002038 0.004819 0.000522 0.002018 -0.002909 0.001529 0.000019 -0.004157 0.001297 0.004807 -0.004257 0.001537 0.001428 -0.004965 -0.004462 -0.001071 -0.002399 0.000058 0.003295 0.003398 -0.004830 -0.003137 0.004988 0.004515 0.000289 -0.003907 -0.004286 0.000922 0.001914 -0.001973 -0.004816 0.002023 -0.000678
01 -0.002824 -0.004260 -0.001036 0.001221 -0.000587 -0.000581 0.000425 0.003572 -0.000237 0.000906 -0.003070 0.001935 -0.002299 0.000519 0.002772 0.004519 0.002363 0.002462 -0.003923 0.004484 -0.002391 -0.000174 -0.000344 -0.002471 0.000094 -0.003769 0.000344 -0.001855 0.001856 0.001648 -0.000713 -0.000205 -0.002867 -0.002581 -0.004786 -0.003280 -0.000953 0.001776 -0.004046 -0.004161 0.001289 0.001852 -0.004175 0.000622 -0.001798 -0.003015 0.000586 0.001311 -0.002913 0.002674 0.002487 -0.001827 -0.004075 -0.001670 -0.003591 0.000513 0.001500 0.003314 -0.001330 -0.000550 0.001577 -0.002237 -0.003541 0.003192 -0.000970 0.004547 0.004967 0.004101 -0.004543 -0.002115 0.000788 -0.000522 -0.003336 0.002225 -0.002107 0.000132 0.002795 0.002890 -0.004845 -0.001867 0.003710 -0.004521 0.004749 0.003904 0.000757 -0.003803 0.002729 0.003370 -0.004098 -0.004664 -0.002836 0.004943 -0.000672 -0.001351 -0.002477 0.001794 0.003201 0.003321 -0.004166 -0.003126
04 0.000231 0.002639 -0.003005 -0.001085 -0.004072 0.003252 0.002573 0.002785 -0.004293 -0.000947 0.002266 0.002973 -0.002876 0.004236 0.002798 -0.004768 -0.002545 -0.000323 -0.001428 -0.001475 0.003279 0.003936 0.000098 -0.001552 -0.002370 -0.003765 0.004628 -0.002210 0.000637 -0.002743 -0.003289 0.000452 0.003417 -0.004592 0.001800 -0.000331 -0.004143 0.001748 0.001194 0.002706 -0.003587 0.004475 0.003169 -0.002944 0.001357 0.002028 -0.000268 -0.000061 -0.000439 0.000043 0.002640 -0.000091 0.002940 -0.004596 0.002926 -0.004935 0.000293 0.000349 -0.000233 0.001909 0.004023 0.001954 0.002704 0.002739 -0.001647 -0.000154 0.003726 -0.002210 0.004591 0.000947 -0.003201 -0.004011 0.004085 0.004109 0.001447 -0.002995 -0.000142 0.002131 0.003233 0.000887 -0.001773 -0.000331 -0.001352 0.001042 -0.001372 -0.004150 -0.003358 0.002608 -0.000431 -0.003104 -0.004470 0.001932 -0.003096 -0.002383 -0.000880 -0.003681 0.003066 0.004449 -0.002970 0.003737
This 0.004217 -0.004961 0.003777 0.002942 -0.001842 -0.002941 0.001414 -0.001128 0.003449 -0.001560 0.002587 0.000233 0.003447 -0.002016 0.004421 -0.002880 -0.002388 -0.004501 -0.001499 0.000792 0.004984 0.001854 0.002319 -0.001695 -0.003306 0.004402 -0.004885 0.002606 0.000649 -0.002494 -0.003327 0.002014 0.003976 0.000656 0.003816 0.000293 -0.002286 -0.002231 -0.002071 -0.002182 -0.001248 -0.004722 0.001103 0.002743 0.000037 0.002288 0.001936 -0.003528 0.000602 -0.004305 -0.001685 0.004448 0.003736 -0.002875 -0.004443 0.001917 0.000304 -0.002605 0.003864 -0.003567 -0.004250 -0.002650 0.004898 0.004934 -0.000894 -0.000492 -0.002229 -0.002139 0.000372 0.002855 0.003220 0.003415 -0.004625 -0.002230 0.004810 0.003476 -0.004623 -0.000022 0.004430 0.002176 0.001956 0.003565 0.002779 -0.001017 -0.003144 0.000180 -0.004777 0.004186 -0.002463 -0.004861 0.002295 0.000002 0.004928 0.000402 -0.000482 0.001206 0.000256 -0.001180 -0.004687 0.000314
Agenda -0.004538 -0.004200 0.003899 -0.002860 -0.002026 0.002590 0.002212 0.003552 -0.004511 0.001039 -0.002229 0.003442 -0.003730 -0.003337 -0.002622 -0.001229 -0.000994 0.003663 0.000243 -0.001508 -0.003069 0.004666 -0.003417 0.004631 -0.003000 -0.003748 0.002138 0.004145 -0.002959 0.003182 0.000640 0.001822 -0.002887 -0.002394 -0.002739 -0.000064 -0.004719 0.002296 -0.003350 0.004658 0.000688 0.001346 -0.003159 0.000531 0.002141 0.000752 0.001594 -0.004146 -0.000104 -0.000591 0.002477 0.003112 -0.000998 -0.001323 -0.000803 0.004580 0.003185 0.001502 -0.003399 0.003042 -0.000186 0.003469 0.004550 -0.000442 0.001835 0.003305 0.003684 0.000875 0.001208 -0.003710 0.003140 0.000121 -0.003886 -0.004316 0.004652 -0.001870 -0.001373 -0.002236 0.003088 0.003979 0.000435 0.004054 -0.004174 -0.004335 -0.002232 0.002240 0.001881 -0.003604 -0.004169 -0.001873 0.000662 -0.001159 0.003293 0.000085 -0.000865 0.004220 0.001416 0.002922 -0.001890 -0.001813
Order -0.001433 0.002256 -0.003948 0.003586 0.004066 0.002325 -0.000734 -0.003400 -0.003420 -0.003335 0.001356 -0.004641 -0.000770 0.002157 0.001666 -0.002380 0.001496 0.000772 -0.003554 0.004455 0.003651 -0.003409 -0.001908 -0.004265 -0.000663 0.004412 -0.003167 0.002922 -0.002412 0.003660 0.001578 0.003761 -0.004276 -0.002502 0.000467 -0.000731 -0.000965 0.004455 -0.004626 0.002752 0.002661 0.002246 -0.004652 -0.000052 0.003381 -0.002257 0.000600 -0.004971 0.001289 0.004431 0.000978 -0.000190 0.002142 -0.001471 0.002175 0.004491 -0.000407 -0.004523 0.001716 0.001037 -0.000485 0.003782 -0.000321 -0.003410 -0.003679 0.003420 -0.001762 0.002900 0.001820 0.004260 -0.000718 -0.004267 0.001731 0.001583 0.002069 0.002610 0.004737 0.001820 -0.001930 0.001451 0.000864 0.001818 -0.000390 -0.001091 -0.004700 0.003104 -0.003499 -0.004683 0.001765 -0.003785 -0.003240 0.004334 0.000813 0.003172 0.002902 -0.003225 0.001964 -0.004022 -0.002065 -0.004553
