30 100
. -0.001641 0.003936 0.001144 -0.002721 -0.000218 -0.003234 -0.004047 0.001572 -0.003528 -0.004850 -0.002738 0.000859 0.002052 -0.000110 0.003089 0.001067 -0.002005 0.004993 0.003921 0.002844 0.000867 0.000176 -0.004556 -0.003327 0.003126 0.001654 -0.004615 0.003150 0.000620 0.003582 -0.000628 -0.001884 -0.004484 -0.000277 -0.000674 0.000033 -0.004117 0.003713 0.003303 -0.002067 0.002472 0.000890 -0.000195 0.003511 -0.000827 0.001903 0.001418 -0.004667 0.000463 0.002451 -0.002587 0.000901 0.004022 0.001069 0.002437 0.000595 0.001251 -0.000571 0.002232 0.004208 -0.003602 0.002403 -0.000822 0.004048 -0.003725 -0.001151 0.000869 -0.000594 0.004074 0.003989 0.002323 0.000799 0.003424 -0.004473 -0.003069 -0.000236 -0.003142 0.003750 0.004040 -0.004459 0.003883 0.000039 0.003318 0.001120 0.000676 0.002471 0.003233 -0.001707 0.002740 0.000319 -0.003022 -0.002422 -0.001565 -0.001915 -0.000473 0.001799 0.003483 0.000968 -0.002125 0.000060
the 0.004958 -0.001649 -0.000719 0.000267 0.003206 -0.001623 -0.003290 -0.004306 -0.001779 -0.003554 -0.002184 0.004462 0.003236 0.002590 -0.002736 0.001923 -0.004394 0.000063 -0.004327 -0.004934 0.001491 0.001782 0.004540 0.001378 -0.003832 0.001576 -0.000804 -0.000390 -0.000513 -0.004040 0.000049 0.002449 0.001360 -0.003935 0.000031 0.000741 -0.001793 0.001935 -0.002133 0.002694 0.004669 -0.002539 0.001179 -0.004770 -0.000526 -0.004562 0.001254 -0.003981 0.000304 -0.000412 -0.004973 0.002093 0.003973 0.003217 0.004706 0.001439 0.000421 -0.002900 0.003032 -0.000420 0.001505 -0.001563 -0.004992 -0.001739 -0.004127 -0.001605 0.001072 0.000334 0.002301 -0.004724 0.003577 -0.002198 0.000662 0.001391 0.003571 -0.000501 0.001645 -0.001310 0.003321 0.002149 -0.003878 -0.000302 0.001257 0.001517 -0.000420 0.002590 0.000224 -0.001353 0.004629 0.000199 -0.002927 -0.003465 -0.004763 -0.004796 0.001606 0.000178 -0.002536 0.001943 -0.004922 -0.001724
and 0.000144 0.002433 0.001209 -0.000537 0.002977 0.002872 0.004456 0.002465 0.002190 0.004773 0.000051 -0.000984 -0.004917 -0.001538 0.000443 0.003363 0.002197 -0.002398 -0.000350 0.000723 0.001760 0.003712 -0.000871 0.003242 -0.002382 -0.000784 -0.002182 0.001987 -0.004007 -0.004943 0.003532 0.002949 -0.003044 0.003732 0.004502 0.000604 0.003408 0.004723 0.004598 -0.003391 0.003028 0.000941 0.002122 -0.000750 -0.002581 0.003506 0.004638 0.004085 0.003097 0.004465 0.003766 -0.002295 -0.004100 0.001719 -0.001553 0.003841 0.000373 -0.002429 -0.004612 -0.002916 0.001467 0.003582 0.000039 0.001257 0.001644 -0.002424 -0.004748 0.003977 0.003776 -0.004877 0.002330 0.003390 0.001387 -0.004216 -0.001302 -0.004258 -0.004923 0.003352 -0.000974 -0.001374 0.000611 0.001180 -0.000126 -0.002559 0.001072 0.002419 0.000516 -0.000765 0.002995 0.004822 -0.004152 0.004927 -0.004535 0.003870 0.002962 -0.001242 -0.002912 0.001603 0.002381 -0.001427
is 0.000501 0.000976 0.003512 0.001981 0.000054 -0.002850 -0.004619 0.004120 0.001329 -0.001159 -0.001768 0.002179 -0.004494 -0.001020 0.000006 -0.000369 0.000332 -0.000285 -0.004761 -0.002345 0.000179 0.000516 -0.004545 0.002224 0.002003 -0.004133 0.004332 0.002198 -0.004992 0.000767 -0.004165 0.003579 0.004440 -0.003004 0.002800 0.001885 -0.004096 -0.001445 0.003275 0.002554 0.000771 -0.000059 0.001762 0.004374 -0.000417 -0.003393 -0.000866 0.002028 0.003460 -0.004448 0.002796 0.000625 -0.000509 -0.004837 0.000931 -0.002172 -0.003057 0.002823 -0.003876 0.004297 -0.003228 0.002168 0.000411 0.002737 0.002708 -0.004411 0.003918 0.001663 -0.002047 0.000912 0.004195 0.002617 0.000588 -0.001144 -0.004382 0.001156 -0.001985 -0.000823 0.003880 -0.004953 0.000440 -0.001414 -0.002484 -0.002593 -0.003846 -0.004814 -0.001204 0.003012 0.001384 -0.002309 0.000841 -0.003515 -0.003290 -0.003949 -0.000085 0.002312 0.000944 0.000534 -0.003003 0.002700
memorandum -0.002652 0.001374 0.001022 -0.003931 0.004066 -0.002439 -0.004117 -0.003419 0.002851 -0.000301 -0.000619 0.004377 -0.002140 -0.002834 0.001652 -0.004084 0.003181 0.000338 -0.004463 0.000129 -0.001357 0.003551 0.002445 -0.000256 -0.004304 -0.001506 -0.004391 0.002613 0.000038 -0.004029 0.002586 0.003382 -0.001890 -0.000479 -0.000973 0.000415 0.004015 -0.002941 -0.003091 -0.003686 0.002963 -0.001314 0.000859 -0.002865 0.000114 0.003037 0.001313 0.000177 -0.003849 -0.000866 0.003207 0.001253 -0.003044 0.000530 -0.000865 -0.003391 0.001452 -0.004766 -0.004982 -0.000985 0.003250 0.000989 0.000861 -0.002397 0.003735 0.003747 -0.003391 -0.001644 0.004226 0.001108 0.000773 -0.001981 0.000359 0.004513 0.002818 0.004969 -0.001920 0.002525 0.003143 -0.000907 -0.004029 0.001087 0.000222 -0.000227 0.001180 0.002147 -0.002761 0.002132 0.003761 0.004671 -0.004193 0.002416 -0.002027 -0.004357 -0.002768 0.003378 -0.003200 0.002637 0.004152 -0.004624
am 0.003429 -0.000097 0.000110 -0.003096 -0.000434 0.004183 0.001608 -0.003060 -0.004950 -0.001354 0.001619 -0.004938 -0.001784 -0.002481 0.001586 -0.000874 0.001838 0.002063 0.001299 -0.004543 -0.003852 -0.002677 -0.003145 0.004366 0.001591 0.004859 0.003110 -0.002190 -0.001456 -0.002743 -0.002130 -0.001717 -0.002975 0.004463 0.002407 0.000956 -0.002196 -0.002113 0.002475 -0.002087 -0.003864 -0.002744 -0.001406 0.004242 -0.001719 0.003326 -0.001915 0.003166 -0.004581 0.002387 -0.001651 0.001849 -0.000675 -0.003969 -0.001615 -0.000406 0.001333 -0.001023 -0.001764 -0.002173 -0.001832 0.002385 0.001836 -0.004537 0.002119 -0.000074 0.000213 -0.003671 0.003459 -0.000721 -0.000579 -0.003710 -0.002868 -0.002705 0.001334 -0.004415 0.003733 -0.004643 -0.002614 0.001674 -0.004656 0.000614 -0.003874 0.000228 -0.001424 -0.004782 0.002281 0.000064 -0.000993 0.001003 0.004794 0.001469 0.002569 -0.004376 0.000873 0.003370 -0.003535 0.004885 0.002652 0.000042
Exhibits -0.003968 0.003099 0.001673 -0.001460 0.004092 0.001358 0.004747 -0.000066 0.000206 -0.001546 -0.001298 -0.002970 -0.003807 0.001673 0.000577 -0.000244 -0.001747 -0.003614 -0.000306 0.002481 0.001334 0.002493 -0.004441 -0.004707 -0.000699 -0.003954 0.003232 0.004694 0.001537 0.002323 -0.000079 0.000454 -0.000397 -0.001144 0.004489 0.004739 -0.002663 -0.001215 0.000515 0.003216 0.000614 0.004746 -0.001966 -0.000853 -0.004393 -0.003225 0.004842 -0.003452 -0.001168 0.002676 -0.003828 -0.003519 0.001970 0.000012 0.001747 -0.004385 0.001490 0.003946 -0.001257 0.004083 -0.001522 -0.004491 0.003790 -0.002126 -0.001991 -0.004891 0.000569 0.000410 -0.003531 -0.003743 0.004073 -0.001713 -0.003045 -0.000418 -0.004214 -0.000732 0.004676 -0.000379 0.000041 -0.002706 -0.003393 -0.003541 0.004945 -0.002909 -0.002626 -0.003338 0.002821 -0.004495 0.000106 -0.004403 0.004924 0.004298 -0.001354 0.001685 -0.000216 -0.002750 -0.004748 -0.000139 0.002154 0.000422
Agreement -0.002678 -0.001889 0.003612 0.000217 -0.001212 -0.000663 0.004736 -0.003763 -0.002501 0.001207 0.004427 0.004540 0.002606 0.001880 -0.002780 -0.004510 0.001949 -0.004791 0.003222 0.001068 -0.004836 0.001462 -0.004080 0.003658 0.003244 -0.000086 -0.002548 0.000907 0.000537 0.001429 -0.000292 -0.004249 -0.000054 0.004893 -0.000381 -0.001832 -0.001211 0.000936 -0.004804 0.002018 0.000196 -0.004087 -0.001429 0.004718 -0.004323 -0.003790 -0.000629 -0.003813 -0.000702 -0.001117 -0.003560 0.002680 0.003165 0.004402 -0.000873 0.004364 0.000401 0.000353 -0.000899 0.000485 0.000067 0.001932 -0.002448 -0.001316 -0.004136 0.003707 0.002455 -0.003999 0.003534 0.002747 0.002614 -0.001781 -0.004746 -0.001728 -0.000568 0.000593 0.001410 0.000777 -0.001284 -0.002264 0.001268 -0.003508 0.001103 -0.002141 0.002679 -0.003526 0.001927 0.001220 0.004812 0.000044 -0.004470 -0.000753 0.004499 0.002888 -0.004574 -0.004637 -0.003773 -0.004185 -0.002886 -0.001585
as 0.004605 0.004752 -0.004072 0.003520 -0.001787 -0.003600 -0.003102 -0.000296 0.003222 -0.003761 -0.001285 -0.001620 -0.003421 0.000041 -0.002396 0.001573 0.000641 -0.001123 -0.000527 -0.003158 0.000380 0.001150 0.001367 0.000324 0.002829 -0.000240 -0.004088 0.002288 -0.001827 0.004955 0.001106 0.000739 -0.002120 0.004357 -0.003248 -0.003637 0.004149 0.000940 -0.003252 -0.002448 0.004901 0.004811 0.004662 -0.004108 0.002324 0.003665 0.004151 0.000243 -0.000504 0.004028 -0.001399 0.003103 0.002761 0.004027 -0.004692 0.000290 0.001503 0.003531 0.001065 0.003715 -0.002037 -0.004031 0.002752 0.004200 -0.003654 -0.003158 -0.002345 0.000138 0.004468 0.001609 -0.003333 -0.001168 -0.003212 0.003460 0.004788 0.001019 -0.002918 0.002409 0.002983 -0.003970 -0.004545 0.001222 -0.002676 -0.003976 -0.004355 -0.002786 0.000268 -0.000680 0.000969 -0.001392 0.003973 -0.003048 -0.004615 0.004414 0.002987 0.000547 -0.003652 -0.004434 -0.003233 0.002740
are -0.000685 0.004016 -0.003071 -0.002273 -0.001225 -0.001828 0.002543 0.003647 -0.004818 0.004233 0.000954 -0.003879 0.002282 -0.002652 -0.003102 -0.004821 -0.002612 0.002388 0.003047 0.002373 -0.002320 0.001521 0.001254 -0.000326 0.004999 0.003549 0.001175 0.004749 0.004003 -0.004191 -0.002534 -0.000901 -0.001106 -0.003168 -0.004258 -0.001066 -0.001486 -0.002302 0.001881 0.000908 -0.003523 -0.003371 0.000034 -0.003046 0.004592 -0.003258 -0.000419 -0.003094 -0.003550 0.001223 -0.004307 -0.001168 -0.004271 0.000855 -0.001088 0.001082 0.003492 0.000025 0.003393 0.003980 -0.003857 0.003951 -0.004373 0.001871 0.001933 -0.002328 -0.000348 -0.002993 -0.000219 0.003191 -0.002485 -0.001520 0.001857 -0.002468 -0.004808 -0.000962 0.002439 0.001076 0.000743 0.003259 -0.001298 0.002132 0.002960 0.000145 -0.003184 0.001210 -0.003918 -0.001558 0.003985 -0.004475 -0.004390 0.000346 0.001182 -0.000150 0.000572 0.003232 0.000509 -0.003724 0.000568 -0.004956
blacklined -0.000540 -0.000705 0.004695 0.002419 0.004107 -0.002268 -0.000460 -0.000076 0.001417 0.002784 -0.000008 -0.003346 -0.001330 0.003673 -0.004569 -0.001493 0.000917 0.001314 -0.002562 0.002018 0.002900 0.002681 -0.002523 0.001393 0.004353 -0.002057 -0.004363 0.002455 0.003769 0.003531 -0.002088 -0.000594 -0.001233 0.002934 0.001902 -0.003968 -0.003919 0.003153 -0.003956 -0.002614 -0.001555 0.002098 -0.002250 -0.000069 -0.003598 -0.004699 0.003051 0.002272 -0.004499 -0.001162 -0.004054 -0.003173 -0.003823 -0.001715 0.003588 0.001788 -0.004531 -0.000780 -0.002375 -0.002882 -0.001111 0.003833 0.000626 -0.004456 -0.003790 0.003041 -0.003278 -0.003484 -0.002852 0.004241 -0.004362 0.004572 -0.000431 -0.001742 0.004572 0.001879 -0.000563 0.004303 0.003326 0.001342 -0.003545 0.002468 0.004318 -0.001617 0.002092 -0.000158 0.001658 0.004590 0.003486 -0.004623 -0.001534 0.000692 0.003907 -0.002699 0.000349 0.004767 0.002575 0.004403 -0.000014 -0.000275
its 0.002188 -0.003053 0.001712 -0.000066 0.000900 0.000774 0.000588 0.003833 -0.002201 -0.001603 0.002081 -0.003442 0.004031 0.000459 -0.003301 -0.003536 -0.004001 -0.002745 0.003873 0.001827 -0.004386 0.004624 0.003136 -0.003094 -0.001735 -0.001924 -0.003799 0.003737 -0.002848 -0.003952 0.004679 0.002457 -0.000500 0.002735 0.000903 -0.003096 0.001615 -0.003267 -0.001083 0.001703 -0.001323 0.003676 -0.000411 -0.000679 0.002475 -0.004828 0.002241 0.002059 -0.002158 -0.002322 0.000751 0.004202 -0.003915 0.004504 0.004183 0.001913 0.000636 -0.003040 -0.003274 -0.002488 0.004337 -0.003295 -0.004909 -0.003783 -0.002821 -0.003986 0.003190 0.000176 0.001236 0.001147 0.000727 -0.004203 -0.002602 -0.000057 0.000635 0.003190 -0.003098 -0.001695 0.002017 -0.000313 0.002632 0.002493 -0.002239 -0.004063 -0.004265 -0.003194 0.001436 0.001365 -0.001168 -0.004134 -0.001563 -0.004758 0.002686 -0.004905 0.002056 -0.003162 -0.004901 -0.003751 -0.003660 0.004128
More 0.003734 -0.000982 0.001035 -0.000295 0.004101 0.001739 0.004814 -0.003588 0.000837 0.001528 0.002941 -0.002919 -0.004593 -0.003607 -0.004703 0.000380 -0.004563 0.002543 0.001967 -0.002564 0.001759 0.001881 0.002275 -0.004159 0.002216 0.000629 0.000619 -0.002434 0.003585 -0.003476 -0.002897 -0.002892 0.002830 -0.001725 0.002409 0.003029 -0.003451 -0.001428 0.001816 0.004729 0.001950 -0.000613 -0.004119 0.003260 -0.000650 0.001595 -0.001297 -0.004058 0.004852 0.004108 -0.002185 0.002656 0.004104 -0.000866 0.003800 -0.003333 -0.000934 0.000312 0.003353 0.002783 0.002328 -0.003401 0.001032 -0.000372 -0.004874 0.004489 -0.002286 -0.000950 0.004804 -0.002949 0.002529 -0.002217 -0.001622 -0.004404 -0.000588 0.000756 0.001807 0.000987 0.002127 -0.002903 0.001831 0.000514 0.003795 -0.002991 -0.004861 -0.000894 -0.001196 0.004159 0.000096 0.002529 -0.003147 -0.002598 0.001844 -0.003595 -0.000262 -0.004793 0.001346 -0.003849 0.001657 0.004348
documents -0.004663 0.000438 0.000860 0.004445 0.002090 0.004410 0.002678 -0.000033 0.000720 -0.003969 0.004209 -0.002692 0.001153 0.002653 0.003183 0.001315 0.003773 -0.002462 -0.000667 0.001850 0.001167 -0.004142 0.000643 -0.004844 0.004121 0.001959 -0.004343 -0.001978 0.001538 -0.003948 0.001996 -0.000659 0.002183 0.004491 0.000938 0.003552 -0.001003 0.004362 0.002584 0.002002 0.002025 0.000559 0.004177 0.003518 -0.004510 -0.002878 -0.002967 -0.004867 0.003864 -0.004134 -0.004365 0.004127 -0.001103 0.002382 0.004128 0.000331 -0.004951 -0.002539 -0.002070 -0.002452 -0.004156 -0.003749 -0.001388 0.000336 -0.002320 0.003106 0.001375 -0.002940 0.001129 -0.003822 -0.004332 -0.003803 0.003066 -0.002876 -0.004516 0.004704 -0.000427 0.004735 -0.001937 0.004746 -0.003819 -0.003679 -0.002986 -0.000397 -0.001416 -0.003286 -0.002875 0.002606 -0.004897 0.003430 0.002598 -0.000185 -0.000507 0.004157 -0.001205 0.001559 -0.000314 0.000600 -0.002304 -0.000588
, -0.001447 0.004658 0.000113 -0.001306 0.004253 0.003361 0.003976 -0.000746 0.001994 -0.002100 -0.002659 -0.001104 0.002444 -0.004944 0.002994 -0.004690 -0.001694 0.003918 -0.001612 0.001868 -0.002221 0.003550 0.001684 -0.001286 0.000973 -0.001874 -0.001271 -0.002714 0.001692 0.004887 0.001800 0.004876 -0.000983 0.004802 0.002998 0.003128 0.004033 -0.001102 0.003312 -0.004107 0.003837 0.000327 0.001600 0.001888 0.004892 -0.003733 0.002689 -0.000742 -0.000933 -0.003883 -0.004677 -0.000039 0.002724 0.003288 -0.002734 -0.000876 -0.000329 0.002644 0.001484 -0.001589 -0.000719 -0.001496 -0.004445 -0.004055 -0.002273 -0.004422 -0.001991 -0.002403 -0.000446 -0.000447 -0.003580 0.000482 -0.001800 -0.000887 -0.003320 0.000548 -0.000809 -0.004790 -0.000021 0.002347 0.003400 -0.003694 -0.004095 -0.002196 -0.001203 -0.004701 0.002686 -0.004705 -0.002311 -0.002673 -0.003830 -0.002845 -0.000502 -0.004751 0.002508 -0.001070 0.003472 -0.001954 0.001379 -0.004584
contained -0.003275 0.002584 0.000323 -0.004154 -0.004500 0.001672 0.001933 0.000785 -0.000875 -0.001392 0.004134 -0.004984 -0.000117 0.001045 0.001693 -0.003115 -0.004030 0.004715 0.003438 -0.003891 0.003022 0.003033 -0.003609 0.001824 0.001458 0.000666 0.002216 -0.002084 0.004519 -0.001231 0.001204 -0.000481 0.000719 -0.003643 -0.000050 -0.002034 0.002739 -0.004311 -0.002683 -0.000727 -0.003171 -0.000605 -0.001732 0.003990 0.004479 0.004622 0.004142 0.003736 -0.001060 0.004295 -0.001151 0.004788 -0.003893 0.000693 0.002304 -0.002529 0.000662 -0.001795 -0.001054 0.003489 -0.003319 -0.002224 0.002128 -0.002145 -0.002082 -0.000626 -0.000759 -0.002491 -0.003494 0.000639 0.004354 -0.001478 -0.003793 -0.003206 -0.000628 0.002041 0.003255 0.002115 0.000114 -0.000874 0.000245 -0.001774 -0.000868 -0.001821 -0.002093 0.002929 0.002385 0.002919 -0.001699 -0.000023 0.001559 -0.004912 0.003276 0.004996 0.002636 -0.000808 0.001797 0.001803 0.000561 0.001124
Regards -0.004499 -0.004237 -0.004023 0.004172 -0.002308 0.004957 0.002968 -0.000193 -0.002566 -0.000649 0.004065 -0.000065 -0.000743 0.004820 0.001705 0.002761 0.001835 -0.001274 0.002730 -0.004447 0.002000 -0.002647 0.001112 0.004865 0.001257 0.000747 0.003637 0.001823 -0.003505 0.001250 0.001834 -0.002444 -0.004835 0.002939 0.001948 -0.002088 -0.000013 -0.004448 -0.000769 0.001156 0.001945 0.000921 -0.003007 0.000517 0.002740 -0.002922 0.001248 -0.000231 0.001120 0.000542 0.003826 -0.000602 0.002047 -0.004214 0.001614 -0.004859 0.000653 -0.003046 -0.001553 -0.001711 0.001152 0.003477 -0.000949 0.003525 0.004446 -0.004718 0.001833 -0.002004 0.001895 0.001009 0.000533 -0.000154 0.000965 -0.004282 -0.001724 -0.001633 0.001292 -0.004632 -0.004365 -0.000697 0.001127 -0.000830 -0.004439 0.003735 0.000064 -0.001989 0.004154 -0.004206 -0.001096 0.001826 -0.002615 0.001356 0.002305 0.004666 -0.002428 0.001637 0.004007 -0.004052 0.002716 0.001768
email -0.003587 -0.004674 0.002921 -0.001995 0.004125 -0.003052 0.004015 -0.002225 0.003118 0.004989 -0.003171 -0.001516 0.004881 0.001900 -0.002721 -0.002431 -0.004173 0.003419 -0.000928 0.000908 0.001997 0.004708 -0.003053 -0.002743 -0.004742 0.001728 -0.004664 0.001864 0.001647 -0.001524 0.001030 -0.002556 -0.000282 0.001229 -0.002136 0.002088 0.004587 -0.002875 -0.003442 0.004764 0.000146 -0.001135 -0.003523 0.003015 -0.003486 -0.001064 -0.002839 0.000136 -0.003381 -0.000376 0.004420 -0.004657 -0.003837 -0.000468 -0.001245 0.004354 0.000099 0.003553 0.004393 -0.001642 -0.003787 -0.003035 -0.000054 0.000118 0.002932 0.000730 -0.003387 0.000850 -0.004167 0.004790 -0.001013 -0.000611 -0.000816 -0.000913 -0.002823 -0.003611 0.003508 0.004327 -0.003969 -0.001248 -0.002433 0.000001 -0.003479 0.000345 0.004415 -0.004357 -0.002248 -0.004016 -0.001163 -0.004378 0.001764 0.004512 0.004348 0.001490 -0.001765 0.001896 0.002338 0.002111 -0.000693 0.001380
separate -0.004929 -0.004612 0.001681 -0.003882 0.000255 0.001292 -0.002316 0.000859 0.004561 0.001844 -0.000227 0.000180 0.001671 -0.002470 0.004749 0.001720 0.004495 0.000641 -0.001867 0.002439 0.000327 0.004723 0.002752 -0.004499 0.001774 -0.004050 0.003549 0.001271 -0.003618 0.002791 -0.004444 -0.000405 -0.001889 -0.000390 -0.003969 -0.001262 -0.003004 -0.002752 0.002228 0.003188 -0.004283 0.000761 -0.000524 0.000436 0.004668 0.002665 -0.004506 -0.002089 -0.002535 0.002340 -0.003396 -0.004015 0.000547 -0.003262 0.001189 -0.000393 0.002933 -0.001745 0.001130 0.002664 0.002383 -0.000447 -0.000893 -0.001591 0.004482 0.002082 0.001822 -0.004511 0.001375 -0.002956 0.003797 0.003859 0.003551 -0.003556 -0.003102 -0.004720 0.001794 -0.002357 0.000940 0.003110 0.002729 0.001579 -0.001969 0.002909 0.001113 -0.000224 -0.002014 0.001823 0.004269 0.000104 0.004677 -0.004312 0.004220 0.004699 -0.003820 0.003658 -0.000289 -0.003471 0.000643 -0.002672
I -0.004334 0.003343 -0.000112 -0.001198 -0.001467 0.001106 -0.002969 0.003892 0.002104 -0.000964 0.001579 -0.001639 0.000308 0.002063 -0.000962 0.002252 -0.003592 -0.004852 0.001653 -0.004222 0.003860 0.002876 0.003282 0.001639 0.004881 0.003482 0.000121 -0.003157 -0.003507 0.003246 -0.004571 0.001495 -0.003337 -0.001413 0.001142 0.003916 -0.003008 -0.001374 0.004156 -0.002450 0.001954 -0.001502 -0.001811 0.001034 -0.003560 0.004273 0.004598 0.002414 0.003167 0.002300 0.004606 -0.002369 -0.002395 0.000404 0.000588 0.003901 -0.003861 0.000407 0.002677 -0.003056 -0.000148 0.003167 0.004351 -0.002221 -0.001095 0.001814 0.002878 0.002733 0.004422 0.001407 -0.000235 -0.002494 -0.002249 0.001095 0.002403 0.001630 -0.003099 -0.002971 -0.002416 0.003538 -0.002426 0.003329 -0.004850 -0.003254 0.003514 0.003119 0.001468 0.002781 -0.001908 -0.002489 -0.004109 0.001994 0.002152 0.003390 -0.003596 -0.003578 0.003152 0.003006 -0.001794 -0.004721
detail 0.003745 -0.004951 0.000499 -0.000978 0.002172 0.000904 0.002544 -0.001095 0.002831 0.003759 -0.000389 -0.003799 0.000503 -0.001282 0.004823 0.001891 0.000803 -0.002847 0.004864 -0.003457 0.004740 -0.003783 -0.002119 -0.000128 0.001283 -0.003710 0.001188 -0.001552 0.004513 -0.004749 -0.001537 0.000304 -0.000720 0.001302 -0.002512 0.003782 -0.004517 0.001378 -0.001532 -0.004056 -0.002518 0.002039 0.004554 0.000473 0.000325 0.001584 0.004182 0.000795 -0.000503 0.002655 0.001596 -0.004748 -0.002585 -0.001149 0.002245 -0.002486 0.002160 0.002212 -0.000070 -0.002120 0.003312 -0.003781 -0.004831 0.004834 -0.001424 -0.002197 0.004284 0.002028 -0.000932 0.002494 -0.004262 0.003504 0.002840 -0.003497 -0.000627 0.001067 -0.003790 -0.003559 0.001194 0.001637 0.001330 0.002021 -0.001807 0.000813 0.003778 0.003777 -0.003663 -0.002538 -0.004526 -0.002798 0.003068 -0.004825 -0.000680 0.001128 -0.004717 0.002752 -0.004885 -0.000406 0.003056 -0.004956
Attached -0.001444 0.002025 -0.000932 0.002607 -0.003750 0.000028 -0.003711 -0.004539 0.004476 0.002370 -0.004276 0.004774 -0.000713 -0.000609 -0.003373 0.002129 -0.001768 0.001191 0.002391 0.002364 0.002390 0.003284 -0.001711 -0.003211 -0.002738 0.001436 -0.000523 -0.001638 0.002252 -0.002481 -0.002917 0.002146 0.003800 -0.002874 -0.002766 -0.004816 -0.001147 -0.001881 0.004365 -0.000861 0.000686 -0.000498 0.000272 -0.004944 0.002957 -0.001327 0.002050 0.001328 0.004327 -0.002648 0.000345 -0.000569 -0.000324 0.004298 -0.002038 0.001929 0.002754 0.003595 0.000779 -0.002476 -0.004101 -0.003105 0.000068 0.003222 0.000243 0.002977 -0.004943 -0.000600 0.003239 0.001314 0.003335 0.003109 -0.000267 -0.003106 0.002242 -0.000026 -0.000346 0.003465 -0.004351 -0.001646 -0.003486 0.001607 0.001699 0.002511 0.000063 -0.000198 0.000515 -0.004044 -0.001620 -0.000555 -0.002949 0.000949 0.001481 -0.003661 0.001187 0.002643 -0.003042 -0.003245 0.003937 -0.002798
a 0.000588 -0.001164 0.001327 0.001876 -0.002714 -0.004638 -0.002392 -0.001846 0.003533 0.003536 -0.000679 0.000357 -0.001830 0.001754 0.003699 0.001171 0.002086 0.004026 0.003320 0.000009 -0.002154 0.004833 0.002275 0.003747 0.000441 -0.001159 0.001626 -0.004060 0.004468 0.002754 -0.003072 0.000446 -0.001749 -0.002172 -0.004855 -0.000716 -0.001615 0.002023 0.001385 -0.001836 0.000907 0.002000 -0.003878 0.004944 -0.001996 0.000778 0.000523 0.000930 0.003729 0.000558 0.000135 -0.001618 0.000791 -0.003635 0.001652 0.002753 0.001617 -0.003102 0.003635 -0.001098 -0.002932 0.002350 0.003186 -0.002760 0.001623 0.001476 -0.002412 0.000703 -0.001205 -0.001527 -0.000231 -0.002096 -0.003289 0.000132 -0.002519 0.004573 0.001827 0.000737 0.000086 0.004928 -0.000686 0.002452 0.000536 -0.004169 0.000774 -0.004183 0.000835 -0.002660 0.004906 0.003970 -0.002809 0.003585 -0.000096 0.001053 -0.003988 -0.003031 0.002260 0.002958 -0.003940 -0.003868
sending 0.002080 -0.002038 -0.004744 0.002468 -0.001192 0.001540 0.003092 -0.000191 -0.001028 -0.000377 -0.001692 0.001064 -0.000406 0.000015 -0.002685 0.001670 0.003618 -0.004552 0.004130 0.002122 -0.001654 0.000885 -0.001349 -0.004284 0.003283 -0.001891 -0.001174 -0.000241 0.000569 -0.001619 0.001078 -0.003472 -0.004675 0.004913 0.001330 -0.003973 0.002795 -0.001068 0.002359 0.003632 -0.000635 -0.000361 -0.004104 0.001815 0.003389 0.001093 -0.002354 -0.001750 0.004818 -0.004188 -0.004252 0.000935 0.000806 -0.004500 0.000405 0.002541 -0.002261 -0.000982 -0.000990 -0.001098 0.003908 0.003078 -0.001695 -0.002359 0.004539 0.001764 -0.000376 0.004901 0.003336 -0.002637 0.000443 -0.004156 -0.002829 0.001649 -0.004688 0.001272 0.000907 0.002810 0.004392 -0.004504 -0.001394 0.003274 0.000545 -0.003732 -0.001808 -0.000446 0.000896 -0.003027 0.003010 -0.003592 0.003883 0.001629 -0.002223 -0.000224 0.000381 0.002355 -0.000065 0.000054 0.004749 -0.003078
in 0.003095 0.004399 0.002037 -0.001016 0.003414 0.002678 -0.004338 -0.004778 0.000234 0.004133 0.004867 -0.000610 0.000634 -0.003564 -0.001620 -0.003108 0.004087 0.001344 0.000492 0.003283 0.001141 0.004258 -0.002230 0.002117 -0.000043 -0.000817 0.000203 -0.000010 -0.003082 -0.001387 -0.000307 0.002106 -0.003676 -0.001892 0.003383 -0.002298 -0.003527 0.002710 -0.001361 -0.002472 0.001326 0.002159 0.004212 0.001759 -0.004915 0.001895 0.001378 -0.002110 -0.000760 0.003274 -0.003393 0.000146 -0.000203 0.001743 0.001623 0.001527 -0.000180 0.000557 0.000418 -0.003321 -0.004191 -0.004891 0.002029 -0.002747 0.000433 0.001113 -0.000955 0.004393 0.004575 0.002240 -0.001686 0.000880 -0.001684 0.002487 -0.004563 0.002108 -0.002866 0.002828 0.003835 -0.004876 -0.004823 0.002719 0.000555 0.003111 0.001829 0.003212 0.000999 0.000849 -0.004779 0.004771 0.002915 0.003264 -0.003908 -0.004889 0.001327 -0.003876 0.002394 0.004617 -0.000681 -0.004842
Facility 0.000729 0.002594 0.001947 -0.001955 0.000469 -0.004522 0.000367 0.001329 0.002000 0.002776 -0.003460 0.002724 0.001552 -0.001842 0.004954 0.001349 0.003105 -0.004604 0.003511 -0.001829 -0.002927 0.000742 0.003277 -0.001088 0.001329 0.001923 -0.003856 -0.001530 0.001105 -0.000284 0.004316 -0.003790 -0.001384 -0.002267 -0.002259 -0.004986 -0.002131 -0.004909 0.003443 -0.000347 0.002087 -0.002821 0.003227 -0.000878 -0.001684 -0.004081 -0.001967 -0.000516 0.001603 0.003062 -0.001034 0.001040 0.004180 -0.003897 -0.001796 -0.004711 -0.000804 0.002193 0.004836 0.002579 -0.002480 0.001386 0.000592 0.001465 0.004108 0.002459 0.004076 0.000877 -0.002409 -0.003322 0.001943 -0.003155 -0.003558 -0.001291 0.000126 -0.004039 -0.001127 0.004841 -0.002472 0.004365 0.001756 0.000904 0.004234 -0.001013 -0.000895 0.003733 -0.003750 0.000631 -0.001683 -0.000367 0.001961 0.002946 0.003478 -0.003427 0.002578 0.001115 0.004086 -0.004708 -0.003808 -0.000827
of 0.004275 -0.003754 -0.000623 -0.002396 -0.000051 -0.001042 0.004698 0.000637 -0.000675 -0.002285 0.000417 -0.002270 -0.003525 0.003873 -0.002189 -0.000382 -0.003708 -0.002098 -0.001315 0.002150 -0.004753 0.001455 -0.003266 -0.000356 0.001993 -0.003056 0.001778 -0.000851 -0.000855 0.000742 -0.003992 0.003207 -0.001961 -0.001454 0.000186 0.001586 0.001946 0.003579 0.001990 -0.002139 -0.003148 0.001314 0.001989 -0.004597 -0.003549 -0.000195 0.000410 0.001254 0.003922 -0.000799 0.000985 0.004587 -0.001851 -0.004870 -0.001574 -0.004320 -0.004941 -0.001553 -0.004669 0.001587 0.002933 -0.001241 0.003690 -0.002106 0.002363 -0.004104 -0.000228 0.000863 -0.001276 0.001555 -0.003225 0.003798 0.003738 -0.003799 0.003490 0.000091 -0.000503 0.000411 -0.003411 0.003895 -0.002906 -0.001394 0.004309 -0.002370 -0.000571 -0.002103 -0.001643 -0.004263 0.004120 -0.002011 -0.004353 -0.001759 -0.001659 0.002958 -0.004816 0.001384 0.003223 0.001170 0.002868 0.003526
versions -0.001026 0.001992 -0.001606 0.000328 0.000207 -0.002725 0.000527 0.001176 -0.000164 -0.002727 0.001903 -0.004764 0.001504 0.000701 -0.001700 -0.002320 0.002686 -0.003001 -0.004748 0.001732 0.004241 -0.002028 -0.001197 0.002730 -0.003332 0.002109 0.001555 0.002699 0.003036 -0.004710 -0.002543 0.004083 0.000455 -0.004563 0.003983 -0.003003 0.000402 0.004608 0.002949 -0.003488 -0.000576 -0.002775 0.001495 -0.000506 0.002666 -0.001328 -0.002318 -0.004360 0.004678 -0.004082 -0.000499 0.001723 -0.000036 0.001145 0.002676 0.001547 -0.004513 -0.004275 0.003531 -0.000822 0.001681 -0.003739 -0.003767 -0.002804 -0.000020 0.001855 0.003287 -0.002780 0.001361 -0.002999 -0.002290 0.002776 -0.000157 -0.003161 0.000592 0.004873 -0.004496 -0.000367 -0.002831 -0.004435 0.003496 0.001424 0.001684 0.004434 0.000737 -0.001260 -0.004134 0.002021 -0.003045 -0.003532 -0.000095 -0.001974 -0.001657 0.003733 -0.002127 0.003317 0.001779 -0.004126 0.003596 -0.003763
Paul 0.001639 -0.004769 -0.000229 0.002977 -0.001128 -0.001163 0.000413 0.000523 0.003602 0.001703 -0.003545 -0.003800 -0.002442 0.000938 0.003041 0.002838 0.004791 0.002209 -0.004864 0.004286 -0.002139 0.002272 -0.001118 -0.000044 0.000428 -0.004976 -0.000006 0.001205 0.003946 0.000669 -0.003389 -0.004974 -0.004655 0.004737 -0.001443 -0.001231 0.001379 0.004130 -0.003073 0.002264 0.001617 0.004736 -0.002003 0.000846 -0.003612 -0.001226 0.004914 -0.000236 0.004125 0.001594 0.000565 0.000008 -0.000129 0.000169 0.002373 0.000090 -0.003858 -0.003928 0.000541 -0.003127 0.003372 -0.004099 -0.001079 0.003097 0.003933 0.001773 -0.002980 0.004588 -0.000533 0.000835 -0.003182 0.002478 -0.000050 0.000675 0.000805 -0.003221 0.001557 -0.003200 -0.003396 -0.003270 -0.001282 0.004236 0.003164 0.000606 -0.000623 -0.003529 -0.002817 0.004629 -0.004946 0.000417 0.002501 -0.000719 -0.004108 0.001970 -0.001109 -0.000135 -0.004938 -0.004393 0.000213 -0.003081
enclosed 0.002378 -0.000870 -0.001295 -0.002053 -0.000665 0.000378 0.004166 -0.004109 0.003718 0.003569 0.003404 0.003726 -0.002429 0.002014 0.002747 -0.003949 0.002719 -0.001585 -0.002946 0.001066 -0.004710 -0.002464 -0.000662 -0.002617 -0.001623 -0.002534 0.001952 -0.003268 -0.004779 0.001137 0.000521 0.001545 -0.002418 0.001172 0.002185 -0.004656 0.003569 0.001965 -0.002583 -0.004091 0.002685 0.003222 -0.002966 -0.004648 0.001358 -0.000376 -0.004902 -0.002940 -0.002034 -0.001948 0.002846 -0.003015 0.003777 -0.003375 -0.000754 -0.001216 0.004079 0.000925 -0.003316 -0.004364 0.003101 0.004658 0.000164 0.002627 0.004804 -0.000970 0.001386 -0.001712 -0.004374 -0.002663 -0.004864 -0.004485 -0.002026 0.001892 -0.001759 -0.004980 -0.000908 -0.000579 -0.002637 0.001947 0.002307 -0.004697 -0.003576 -0.001091 -0.002468 -0.000734 0.002810 -0.004169 0.001921 0.002268 -0.003523 -0.000258 0.002320 0.003780 -0.000934 -0.004878 -0.000123 -0.002833 -0.004305 -0.003619
