13 100
. -0.001641 0.003936 0.001144 -0.002721 -0.000218 -0.003234 -0.004047 0.001572 -0.003528 -0.004850 -0.002738 0.000859 0.002052 -0.000110 0.003089 0.001067 -0.002005 0.004993 0.003921 0.002844 0.000867 0.000176 -0.004556 -0.003327 0.003126 0.001654 -0.004615 0.003150 0.000620 0.003582 -0.000628 -0.001884 -0.004484 -0.000277 -0.000674 0.000033 -0.004117 0.003713 0.003303 -0.002067 0.002472 0.000890 -0.000195 0.003511 -0.000827 0.001903 0.001418 -0.004667 0.000463 0.002451 -0.002587 0.000901 0.004022 0.001069 0.002437 0.000595 0.001251 -0.000571 0.002232 0.004208 -0.003602 0.002403 -0.000822 0.004048 -0.003725 -0.001151 0.000869 -0.000594 0.004074 0.003989 0.002323 0.000799 0.003424 -0.004473 -0.003069 -0.000236 -0.003142 0.003750 0.004040 -0.004459 0.003883 0.000039 0.003318 0.001120 0.000676 0.002471 0.003233 -0.001707 0.002740 0.000319 -0.003022 -0.002422 -0.001565 -0.001915 -0.000473 0.001799 0.003483 0.000968 -0.002125 0.000060
the 0.004958 -0.001650 -0.000719 0.000268 0.003203 -0.001626 -0.003290 -0.004304 -0.001779 -0.003555 -0.002185 0.004464 0.003234 0.002592 -0.002738 0.001924 -0.004395 0.000061 -0.004327 -0.004935 0.001491 0.001780 0.004538 0.001378 -0.003832 0.001577 -0.000804 -0.000390 -0.000513 -0.004041 0.000048 0.002447 0.001363 -0.003936 0.000030 0.000740 -0.001793 0.001935 -0.002133 0.002696 0.004668 -0.002540 0.001177 -0.004770 -0.000527 -0.004563 0.001253 -0.003979 0.000305 -0.000413 -0.004970 0.002094 0.003972 0.003216 0.004705 0.001440 0.000420 -0.002899 0.003031 -0.000418 0.001504 -0.001561 -0.004990 -0.001737 -0.004128 -0.001604 0.001072 0.000334 0.002299 -0.004723 0.003579 -0.002198 0.000662 0.001392 0.003573 -0.000500 0.001646 -0.001308 0.003320 0.002148 -0.003878 -0.000302 0.001259 0.001515 -0.000421 0.002589 0.000222 -0.001351 0.004631 0.000198 -0.002927 -0.003464 -0.004762 -0.004795 0.001606 0.000178 -0.002538 0.001942 -0.004923 -0.001721
dates -0.001354 0.000584 -0.003415 0.004128 0.000894 0.003014 -0.004532 0.000459 -0.001898 0.003418 -0.003839 -0.001401 0.004052 0.003188 0.000866 -0.003532 0.001408 -0.003415 -0.001449 -0.004122 0.003473 0.002982 0.003946 0.003124 -0.004503 -0.003938 0.002489 -0.000938 -0.001250 -0.002957 0.001925 0.004623 0.001558 -0.004413 -0.001493 0.001233 0.003279 0.004965 0.003581 -0.003667 0.002994 0.003154 -0.002213 -0.003716 0.000466 -0.004525 -0.003238 -0.002874 0.004785 -0.001498 0.001042 -0.003364 -0.003038 0.000935 -0.003414 0.001253 0.003810 -0.000527 0.001657 0.003440 -0.001021 -0.002676 -0.000241 0.003138 -0.001241 -0.003883 0.002761 -0.000147 -0.003053 0.002381 -0.003958 -0.002545 0.002377 -0.000813 -0.002827 0.004217 0.001650 -0.002525 -0.004361 -0.000138 -0.003777 -0.004610 0.000662 0.000095 -0.002258 0.003633 -0.000266 0.000026 0.003017 -0.002065 0.002822 0.001281 -0.000292 0.000085 0.001710 -0.000709 0.001340 0.003872 -0.003988 0.001235
of 0.004275 -0.003754 -0.000622 -0.002395 -0.000049 -0.001042 0.004697 0.000637 -0.000671 -0.002284 0.000418 -0.002271 -0.003526 0.003876 -0.002193 -0.000380 -0.003704 -0.002101 -0.001314 0.002146 -0.004752 0.001457 -0.003266 -0.000357 0.001992 -0.003056 0.001778 -0.000852 -0.000854 0.000745 -0.003990 0.003206 -0.001964 -0.001456 0.000187 0.001586 0.001946 0.003578 0.001988 -0.002140 -0.003148 0.001315 0.001992 -0.004598 -0.003553 -0.000191 0.000408 0.001253 0.003922 -0.000800 0.000984 0.004588 -0.001847 -0.004867 -0.001576 -0.004318 -0.004941 -0.001551 -0.004666 0.001587 0.002931 -0.001241 0.003692 -0.002108 0.002363 -0.004104 -0.000230 0.000866 -0.001275 0.001556 -0.003228 0.003796 0.003737 -0.003798 0.003492 0.000094 -0.000503 0.000413 -0.003413 0.003895 -0.002908 -0.001393 0.004309 -0.002370 -0.000574 -0.002101 -0.001645 -0.004265 0.004121 -0.002013 -0.004352 -0.001759 -0.001661 0.002960 -0.004818 0.001383 0.003222 0.001167 0.002864 0.003523
Please 0.004357 -0.002790 0.003549 -0.001675 -0.003369 -0.002186 0.004823 0.003049 0.004961 -0.002173 0.003077 0.003823 -0.002317 -0.001106 0.000942 0.001952 -0.003362 -0.004808 -0.002489 0.001055 -0.003814 0.004106 0.000722 0.000767 -0.002615 0.003657 -0.003253 -0.002379 0.002493 0.001017 0.003584 0.001759 0.001102 -0.004910 0.004902 0.002137 0.003175 -0.003920 -0.001514 0.003582 0.003224 0.002747 0.004408 0.003079 0.002097 -0.004646 -0.001954 0.001723 0.002256 -0.003590 0.002962 0.004044 0.002875 0.003713 0.002727 0.000175 -0.000811 0.003533 0.000665 -0.000513 0.003963 0.003945 0.002108 0.001836 -0.000799 -0.004808 0.000050 0.004480 -0.004578 -0.000451 -0.004971 -0.003404 0.002121 0.004312 -0.001398 -0.000002 0.003223 0.000851 -0.004328 -0.002640 0.000007 0.000736 0.003069 0.003430 -0.001955 -0.004564 -0.000099 -0.001222 0.003567 -0.004931 -0.002419 0.003784 -0.003759 0.001106 -0.004898 0.002246 0.000727 -0.003010 0.003183 0.000231
update 0.002268 -0.002504 0.002153 -0.004580 0.000744 0.000179 -0.004647 0.001924 0.001264 -0.003590 0.002990 0.000867 0.001343 0.003306 -0.000244 0.000255 0.001610 0.003769 0.002564 -0.001489 -0.004202 0.002428 -0.004106 0.002445 0.004239 0.004322 0.000975 0.003218 0.003784 0.004234 -0.004290 -0.004991 -0.000242 -0.001674 -0.002718 0.003265 -0.004089 0.000462 0.002212 0.001817 -0.004559 0.000467 -0.003312 -0.002262 -0.000090 -0.002040 0.002922 -0.003162 -0.000167 -0.004380 0.002564 -0.002760 0.003369 0.004703 -0.001079 0.001625 -0.003344 -0.003436 -0.004394 -0.000875 -0.001632 -0.002305 -0.001145 0.003398 -0.003402 -0.004593 -0.003802 0.002698 0.000668 -0.001751 -0.002031 0.001441 0.000748 0.003408 0.000692 -0.001911 0.004257 0.003557 -0.001917 -0.004223 0.003389 -0.000498 -0.003779 0.003482 0.004980 0.002209 0.004087 0.001354 -0.004800 0.002849 -0.003912 0.002528 0.001011 0.004181 -0.002373 0.000591 0.001832 -0.000761 0.001425 0.000406
rest -0.003169 -0.000532 0.002288 0.002639 0.003053 -0.002065 0.002070 0.002540 0.004174 0.001093 0.000651 -0.000399 -0.000140 0.004458 -0.002671 0.003472 0.004746 -0.003675 0.004786 -0.004913 -0.000180 0.003003 -0.002165 -0.002748 -0.000608 0.002824 -0.000879 0.001557 0.003211 0.002664 0.003933 -0.001619 0.000024 -0.001680 0.003809 0.000661 -0.001917 -0.003273 0.000517 -0.000390 -0.002825 -0.002816 0.002128 -0.000260 -0.003481 0.002908 -0.004557 -0.001765 0.002096 -0.003558 -0.003165 0.000256 0.003835 0.003246 -0.000470 0.002294 -0.003625 0.003890 0.004438 -0.002487 -0.002070 0.002732 0.001029 -0.001422 -0.001553 -0.000285 -0.001037 0.002354 0.001466 0.002960 -0.004145 -0.003586 -0.002997 -0.001485 0.000881 0.002922 -0.001920 0.002630 -0.003696 0.004848 -0.002230 -0.001176 -0.001754 0.002284 -0.004027 0.002543 -0.003703 0.000099 0.000846 -0.004337 0.002156 -0.004202 -0.003757 0.003098 -0.004839 -0.003392 -0.000080 -0.004455 -0.003830 -0.003311
as 0.004608 0.004743 -0.004069 0.003519 -0.001778 -0.003596 -0.003100 -0.000298 0.003230 -0.003754 -0.001280 -0.001625 -0.003421 0.000044 -0.002397 0.001577 0.000653 -0.001127 -0.000529 -0.003162 0.000382 0.001152 0.001372 0.000322 0.002819 -0.000244 -0.004084 0.002283 -0.001827 0.004956 0.001114 0.000739 -0.002123 0.004352 -0.003242 -0.003636 0.004152 0.000939 -0.003260 -0.002448 0.004894 0.004815 0.004666 -0.004111 0.002317 0.003675 0.004142 0.000244 -0.000508 0.004029 -0.001400 0.003099 0.002763 0.004027 -0.004692 0.000290 0.001499 0.003530 0.001069 0.003706 -0.002030 -0.004034 0.002758 0.004189 -0.003649 -0.003155 -0.002349 0.000147 0.004463 0.001604 -0.003342 -0.001170 -0.003213 0.003470 0.004791 0.001021 -0.002918 0.002408 0.002980 -0.003963 -0.004547 0.001225 -0.002677 -0.003970 -0.004354 -0.002776 0.000262 -0.000678 0.000964 -0.001388 0.003985 -0.003046 -0.004620 0.004418 0.002983 0.000540 -0.003650 -0.004430 -0.003235 0.002736
Thanks -0.000934 -0.002261 -0.001524 -0.003992 -0.001110 0.002116 -0.004426 0.002238 -0.003583 0.003893 0.003534 -0.002289 -0.000465 -0.002551 0.001637 -0.000518 -0.001593 0.000574 -0.003960 0.002008 0.004251 0.002244 0.003791 0.000515 0.004781 0.002573 0.002013 0.002630 0.002167 -0.002566 -0.002163 0.002585 0.000495 0.000863 0.003366 0.000787 -0.000400 0.003862 0.004411 0.001873 0.001434 0.000428 0.003584 -0.004449 -0.004077 0.002307 -0.002352 -0.004175 -0.004094 0.004609 -0.001013 0.004889 0.000627 0.003161 0.002762 -0.001955 0.001636 -0.002339 0.003963 0.000876 0.001652 0.003942 0.002237 -0.004137 0.001408 0.000705 0.003327 -0.004626 -0.004083 -0.004632 0.004834 0.001664 0.002104 -0.002614 -0.002565 -0.003608 -0.004650 -0.001715 -0.000281 -0.002702 0.001272 0.003848 0.004684 0.004666 -0.000654 0.000277 0.001055 -0.004076 0.001542 -0.001451 0.001020 -0.002772 0.000372 -0.000995 -0.000650 0.002261 0.000838 -0.002749 -0.000381 -0.004507
in 0.003094 0.004401 0.002037 -0.001013 0.003416 0.002674 -0.004338 -0.004776 0.000238 0.004132 0.004867 -0.000611 0.000633 -0.003560 -0.001623 -0.003104 0.004091 0.001341 0.000497 0.003278 0.001141 0.004261 -0.002232 0.002114 -0.000042 -0.000814 0.000199 -0.000007 -0.003080 -0.001382 -0.000303 0.002105 -0.003677 -0.001892 0.003385 -0.002299 -0.003527 0.002708 -0.001361 -0.002474 0.001326 0.002158 0.004216 0.001758 -0.004917 0.001899 0.001376 -0.002112 -0.000758 0.003273 -0.003398 0.000148 -0.000197 0.001748 0.001622 0.001530 -0.000183 0.000562 0.000423 -0.003321 -0.004194 -0.004890 0.002031 -0.002746 0.000429 0.001111 -0.000956 0.004395 0.004579 0.002244 -0.001691 0.000876 -0.001688 0.002487 -0.004561 0.002111 -0.002870 0.002832 0.003834 -0.004874 -0.004827 0.002719 0.000552 0.003112 0.001824 0.003213 0.000997 0.000848 -0.004778 0.004766 0.002919 0.003259 -0.003914 -0.004885 0.001324 -0.003879 0.002393 0.004612 -0.000686 -0.004844
you 0.004690 -0.000267 -0.003977 0.004792 -0.000138 0.003444 -0.003724 -0.000853 0.004989 0.001408 0.000336 -0.003382 -0.001976 0.002591 -0.004527 -0.001485 -0.003900 -0.003663 -0.003996 0.003510 -0.004618 -0.001534 -0.003548 0.000424 -0.003951 -0.000242 -0.001411 -0.002870 0.002417 0.001450 0.001716 -0.000471 -0.004581 0.003249 -0.004216 0.001486 0.002627 0.001245 -0.004930 0.001380 -0.003388 -0.001170 0.000983 0.002422 -0.003541 0.002403 -0.001577 -0.000057 0.004380 -0.003725 -0.003766 0.002085 0.003158 -0.000961 -0.002576 -0.004181 -0.002831 0.004563 -0.001099 -0.004782 -0.004808 0.003807 0.002484 -0.001699 0.002793 0.000464 0.003750 -0.004359 -0.004636 -0.000164 0.000189 -0.003544 -0.002297 0.002231 0.003589 -0.002084 0.004337 0.001088 0.002031 0.004937 0.004503 0.003965 -0.003063 -0.001806 -0.004095 0.003733 -0.000604 -0.001617 -0.000772 0.000817 0.002527 0.003520 0.004663 0.004391 0.001757 -0.002780 -0.001342 -0.004832 0.004886 0.004021
Mark -0.004428 -0.003137 0.001790 -0.003064 -0.000836 -0.001128 0.000487 0.002098 -0.003296 -0.001121 -0.004462 0.004874 0.002009 0.001255 0.003769 -0.003775 0.001949 0.004801 0.001600 -0.004440 0.001796 0.004797 -0.001427 -0.002280 -0.001884 -0.002426 0.000752 -0.003159 0.004508 -0.001866 0.003287 0.000941 -0.001613 -0.000203 -0.002836 0.000959 0.003448 0.001392 -0.001256 0.003512 -0.002934 0.000519 -0.000932 -0.004976 -0.000357 -0.002648 0.004730 0.000958 0.003317 -0.002406 0.001165 -0.001037 0.003390 0.003455 -0.001353 -0.000202 -0.004588 -0.001281 0.004459 -0.002683 0.000348 0.001381 0.001261 -0.002465 0.003651 -0.004997 -0.002045 -0.001312 0.001299 -0.004142 -0.002721 -0.001541 0.004248 0.004470 -0.001910 0.001744 0.001087 -0.004506 -0.001709 0.004343 -0.000548 -0.004838 -0.004297 0.003324 -0.000750 -0.002811 0.004162 0.002394 -0.004131 0.000579 0.000523 0.003775 0.004733 -0.003676 -0.002167 0.002903 0.002834 0.000401 0.001826 -0.002110
fill -0.000458 -0.003721 0.002733 -0.002804 -0.000646 0.003908 -0.001862 -0.001433 0.002929 0.001204 0.000285 -0.003630 -0.002440 0.004125 -0.003334 0.001140 0.004601 -0.002597 -0.001416 -0.003866 0.001309 -0.002030 0.001562 0.000479 -0.004349 -0.003990 0.003204 -0.004908 0.000950 0.003553 0.000605 -0.002206 -0.004067 -0.003634 -0.001661 -0.000060 0.002035 0.000648 -0.004283 0.000601 -0.001608 0.005000 0.002485 -0.000622 -0.004850 0.004901 -0.002377 -0.001416 -0.003154 -0.002301 0.001940 0.000190 0.004200 0.002699 -0.004200 0.003180 0.002191 0.001128 0.001874 0.003998 -0.000514 0.003461 0.001905 -0.004785 0.003652 0.002572 -0.004675 0.003272 -0.003443 -0.001529 0.000256 -0.003534 0.003629 0.004160 0.002199 0.002250 0.004336 -0.001406 -0.004796 -0.004599 0.003541 0.001721 0.003369 -0.003101 0.000663 0.002025 0.000375 -0.003901 0.003516 0.000403 -0.004478 0.004187 0.004244 0.002694 -0.003273 0.003955 -0.000736 -0.002622 -0.004794 -0.004863
