16 100
accessible -0.001814 -0.003072 -0.004204 -0.000030 -0.003335 -0.002355 -0.002209 0.004931 0.002150 -0.003282 -0.002688 -0.002074 0.002817 -0.002849 -0.001223 0.002389 -0.001739 -0.003054 -0.002817 -0.000589 0.000660 0.004595 -0.002556 0.003415 0.004263 0.004800 0.003320 -0.000172 0.002793 0.002730 -0.004546 -0.002491 0.003647 0.004347 -0.004564 -0.002362 -0.000046 0.000812 -0.001905 -0.004516 -0.003192 0.000287 -0.002714 -0.003149 -0.002457 0.002189 -0.001641 -0.000381 -0.000384 0.002919 0.003527 -0.003513 -0.003429 -0.003743 0.004994 0.000996 0.001642 -0.002412 0.000960 0.003979 -0.000580 -0.002419 -0.001940 0.003460 0.003914 -0.004621 0.002475 -0.003709 -0.000638 -0.003263 0.001617 0.000050 0.002731 -0.000600 -0.003864 0.002985 0.003357 0.002846 0.003702 0.003334 0.004777 0.004762 0.004787 -0.000702 0.001335 0.003013 -0.000833 0.003957 -0.004761 0.000864 0.000485 -0.002363 -0.002597 -0.001592 -0.002378 -0.001260 0.000709 -0.003512 -0.000327 -0.001564
be 0.003530 -0.004365 -0.001725 0.003563 -0.003975 -0.001415 0.001301 -0.001199 0.002817 -0.001299 -0.001921 0.000576 -0.004071 0.000789 -0.002802 0.000052 0.004478 0.002603 0.003003 -0.001034 0.003195 -0.002427 0.004072 -0.003428 -0.004972 -0.000070 -0.000215 -0.001168 0.000234 -0.000824 -0.002135 -0.004664 0.002461 0.004552 -0.003110 0.004711 0.002698 0.001060 -0.003804 -0.002908 -0.002720 0.004086 -0.004239 0.001413 -0.004190 -0.001932 -0.001347 0.003989 0.001587 0.003759 -0.003160 -0.000265 -0.002090 -0.000584 0.002079 0.000887 -0.001816 0.002731 -0.001024 -0.001039 -0.003294 -0.001856 0.003786 0.004777 0.001831 0.003467 0.002033 -0.003935 0.004587 -0.000743 -0.004423 -0.001766 -0.004831 -0.001837 -0.000637 -0.000581 -0.001508 -0.004768 0.004464 0.003022 -0.004979 -0.000050 0.000644 -0.003024 0.002973 -0.001192 0.001235 -0.004384 0.000228 0.001063 0.004516 0.004151 -0.004633 0.004877 -0.001139 0.000185 0.004724 0.000388 -0.001677 0.000118
code 0.000088 -0.002155 -0.004225 0.001017 -0.004546 0.001517 0.000106 -0.003064 0.004066 -0.000335 -0.002079 -0.004270 0.001788 -0.000394 0.001769 0.002065 0.001871 0.001316 0.003030 -0.001966 0.002657 -0.002542 0.003480 0.004247 -0.001592 0.000952 -0.001332 0.001045 -0.003193 -0.000573 -0.002153 0.002605 -0.001060 -0.002881 0.004345 0.003468 -0.002859 -0.004024 0.004577 -0.003633 0.000795 -0.003045 0.001535 -0.001953 -0.004099 -0.003151 -0.002192 -0.000642 0.004636 0.004780 0.000444 0.000403 -0.003434 -0.002462 0.000496 -0.004126 -0.001659 -0.004900 -0.000786 -0.003133 0.001100 0.004541 -0.003751 0.004641 0.000656 0.000185 0.003886 -0.002027 -0.001798 -0.004195 0.001319 -0.004143 0.002919 0.000556 -0.003054 0.002446 0.004602 -0.000754 -0.002002 0.003235 0.003538 -0.000951 0.003716 -0.002936 -0.000992 -0.000295 0.002612 0.004115 -0.003998 0.003122 -0.000327 -0.001918 -0.003661 0.000204 -0.000738 -0.004193 0.002624 0.000834 0.003539 -0.003508
retransmit -0.003749 -0.002827 -0.003755 -0.003879 0.004624 0.001729 -0.000617 -0.001959 0.001620 -0.004614 -0.002133 -0.004995 -0.001705 0.002995 -0.000916 0.003130 0.000299 0.000024 -0.001893 -0.000437 -0.003180 -0.003227 0.000647 0.002941 -0.002961 0.002251 0.000864 0.000150 0.003097 -0.004754 -0.000144 -0.000824 -0.004419 -0.001348 0.004773 0.001414 -0.000100 0.002242 0.004108 -0.001246 0.001581 0.004385 0.002129 0.002146 0.004844 -0.003581 0.002241 -0.001639 -0.004117 0.004058 -0.001125 0.001095 0.002067 0.001651 0.002986 0.002007 0.004685 -0.003430 0.003130 0.002871 0.000883 0.001592 -0.003878 -0.001503 -0.001072 0.003548 0.001606 0.004855 0.004091 -0.002740 0.002007 -0.003900 -0.001281 0.001139 -0.004065 0.004537 -0.003761 -0.000074 0.000869 0.004615 0.001415 -0.000765 -0.003559 -0.001704 -0.002112 -0.000695 0.001329 -0.004071 0.000601 -0.002939 -0.004444 -0.001704 -0.004016 -0.004220 -0.002446 0.002697 0.001959 -0.000402 -0.002695 -0.001851
Jeff -0.001100 -0.002621 0.003448 0.001960 -0.004927 0.003365 -0.002406 0.002777 0.003326 0.004669 0.001864 -0.001765 -0.000192 -0.004629 0.003720 0.001664 0.004713 -0.004702 -0.000751 0.003067 0.004926 0.000932 0.004559 0.000891 0.001352 0.002513 -0.003883 -0.002655 0.004466 0.002405 -0.003891 -0.003101 -0.001759 -0.001279 0.000778 0.000957 -0.003001 0.001014 -0.002614 0.004472 0.001615 0.002992 0.004969 -0.003777 0.000705 -0.002962 -0.000852 0.000100 0.003215 -0.003106 -0.003286 0.001986 0.004013 0.004885 0.002323 -0.000455 0.000921 0.004953 -0.003259 -0.000478 0.004153 -0.001725 0.001504 -0.000639 0.003104 -0.002566 -0.003115 -0.001241 0.001731 -0.000401 -0.001662 0.000457 -0.000923 0.002510 -0.002558 0.003994 0.000548 0.004270 -0.002624 0.004177 -0.001777 0.001679 0.000834 -0.000440 -0.001298 0.000378 -0.003076 -0.001825 -0.002236 -0.000736 0.001577 0.002795 0.001880 -0.004820 -0.000788 -0.003560 -0.004692 0.002312 0.004463 -0.003430
I -0.004326 0.003336 -0.000111 -0.001201 -0.001461 0.001114 -0.002968 0.003888 0.002104 -0.000959 0.001581 -0.001641 0.000308 0.002060 -0.000957 0.002254 -0.003586 -0.004850 0.001650 -0.004221 0.003861 0.002873 0.003286 0.001642 0.004872 0.003478 0.000125 -0.003162 -0.003507 0.003244 -0.004565 0.001495 -0.003341 -0.001414 0.001146 0.003916 -0.003006 -0.001371 0.004148 -0.002452 0.001949 -0.001500 -0.001810 0.001034 -0.003565 0.004278 0.004593 0.002418 0.003161 0.002302 0.004608 -0.002372 -0.002396 0.000399 0.000592 0.003897 -0.003861 0.000403 0.002675 -0.003066 -0.000140 0.003163 0.004355 -0.002229 -0.001090 0.001816 0.002877 0.002738 0.004417 0.001401 -0.000237 -0.002491 -0.002248 0.001103 0.002406 0.001629 -0.003099 -0.002974 -0.002416 0.003541 -0.002423 0.003333 -0.004851 -0.003247 0.003518 0.003126 0.001467 0.002782 -0.001915 -0.002481 -0.004099 0.002000 0.002151 0.003388 -0.003593 -0.003583 0.003155 0.003014 -0.001790 -0.004719
could 0.002365 0.000401 0.000985 -0.004150 0.003950 0.004206 0.001033 -0.000273 -0.000893 0.002792 0.003331 0.000403 -0.002810 0.003142 0.000919 0.004601 -0.000526 0.003996 0.003229 -0.000600 0.002141 0.001324 -0.000156 0.001848 0.003746 0.001081 -0.001768 -0.002628 -0.000317 -0.000504 -0.000603 -0.004317 -0.001489 0.003732 0.004676 0.004799 -0.003261 0.001338 0.002100 -0.001157 -0.000601 -0.004740 0.000035 0.001949 -0.000895 0.003318 0.004204 0.003438 0.001930 -0.002092 -0.002867 0.001436 -0.004260 0.001057 0.003816 -0.001948 0.001317 0.002163 -0.002482 -0.001487 0.002851 -0.003418 0.002849 0.000680 0.004147 -0.001967 -0.001342 -0.003620 -0.002538 -0.004754 0.002706 -0.004617 -0.003687 -0.000430 0.000117 -0.001926 -0.000460 0.000228 -0.004666 -0.004651 -0.000662 0.000394 0.004654 0.001181 0.003773 0.004780 0.003347 0.002036 -0.003622 -0.000341 -0.000572 -0.004206 0.003315 -0.003550 0.001390 -0.004099 0.001914 -0.001371 -0.001143 0.001908
, -0.001446 0.004659 0.000112 -0.001304 0.004252 0.003360 0.003978 -0.000746 0.001993 -0.002101 -0.002659 -0.001104 0.002443 -0.004943 0.002993 -0.004690 -0.001696 0.003917 -0.001612 0.001866 -0.002221 0.003548 0.001684 -0.001285 0.000972 -0.001872 -0.001271 -0.002715 0.001693 0.004885 0.001801 0.004876 -0.000981 0.004803 0.002999 0.003129 0.004035 -0.001102 0.003311 -0.004107 0.003838 0.000326 0.001600 0.001887 0.004892 -0.003734 0.002690 -0.000740 -0.000932 -0.003885 -0.004675 -0.000038 0.002724 0.003288 -0.002735 -0.000877 -0.000330 0.002645 0.001483 -0.001590 -0.000719 -0.001496 -0.004445 -0.004055 -0.002274 -0.004423 -0.001992 -0.002403 -0.000447 -0.000447 -0.003582 0.000481 -0.001801 -0.000886 -0.003318 0.000549 -0.000809 -0.004790 -0.000022 0.002347 0.003399 -0.003695 -0.004095 -0.002197 -0.001204 -0.004702 0.002685 -0.004706 -0.002312 -0.002674 -0.003832 -0.002844 -0.000503 -0.004751 0.002509 -0.001071 0.003471 -0.001954 0.001379 -0.004583
. -0.001641 0.003936 0.001144 -0.002721 -0.000218 -0.003234 -0.004047 0.001572 -0.003528 -0.004850 -0.002738 0.000859 0.002052 -0.000110 0.003089 0.001067 -0.002005 0.004993 0.003921 0.002844 0.000867 0.000176 -0.004556 -0.003327 0.003126 0.001654 -0.004615 0.003150 0.000620 0.003582 -0.000628 -0.001884 -0.004484 -0.000277 -0.000674 0.000033 -0.004117 0.003713 0.003303 -0.002067 0.002472 0.000890 -0.000195 0.003511 -0.000827 0.001903 0.001418 -0.004667 0.000463 0.002451 -0.002587 0.000901 0.004022 0.001069 0.002437 0.000595 0.001251 -0.000571 0.002232 0.004208 -0.003602 0.002403 -0.000822 0.004048 -0.003725 -0.001151 0.000869 -0.000594 0.004074 0.003989 0.002323 0.000799 0.003424 -0.004473 -0.003069 -0.000236 -0.003142 0.003750 0.004040 -0.004459 0.003883 0.000039 0.003318 0.001120 0.000676 0.002471 0.003233 -0.001707 0.002740 0.000319 -0.003022 -0.002422 -0.001565 -0.001915 -0.000473 0.001799 0.003483 0.000968 -0.002125 0.000060
this -0.004644 -0.000601 -0.001337 -0.001634 -0.002128 -0.001524 -0.002497 0.003354 -0.003800 0.002767 0.003923 -0.003276 0.004945 -0.002549 0.001346 -0.000137 -0.002882 0.001769 -0.000229 0.003288 -0.004685 0.002063 0.001649 -0.000189 0.004255 0.002763 -0.001911 -0.003882 0.004813 -0.002740 -0.001663 -0.003642 0.000318 -0.003858 0.004083 0.001870 0.002329 -0.000407 -0.004233 -0.003278 -0.003615 0.004180 -0.001553 -0.003291 -0.000211 0.001313 0.004382 0.001746 -0.003594 0.003776 -0.004906 -0.002927 -0.001447 -0.001380 -0.002770 -0.000561 -0.004387 -0.001542 -0.001819 -0.002559 0.002117 0.002722 0.000236 -0.004520 0.001286 -0.004294 -0.001804 0.003016 0.000945 0.001490 -0.003630 0.001533 -0.004598 0.000418 0.001277 0.002973 -0.000592 0.004938 -0.004792 0.000992 -0.002577 -0.001137 -0.002469 -0.000050 0.004936 -0.000794 -0.004018 -0.004092 0.004452 -0.003745 -0.001163 -0.001066 0.003876 0.004855 0.001624 -0.003123 0.002017 0.002342 -0.003350 -0.000198
'd -0.004858 -0.002605 0.000099 0.001962 0.000356 -0.004865 -0.001670 -0.004982 0.003844 0.000141 0.004875 -0.004310 0.004440 0.004937 -0.004802 -0.004212 -0.003554 -0.004793 -0.001808 0.000373 -0.000794 0.003231 0.002307 -0.002649 -0.004940 0.003715 -0.002724 -0.002040 -0.004993 -0.002762 0.002323 0.001906 0.004655 -0.001219 -0.000614 0.002330 0.002364 0.000111 0.001399 0.004695 0.004208 0.001943 -0.003436 -0.002035 0.002272 0.003439 0.001149 -0.004612 0.004423 0.004251 -0.002511 0.002599 0.003618 -0.000318 -0.003269 0.000724 -0.002531 -0.002087 0.002229 0.002805 0.004234 -0.004776 -0.004341 0.001199 -0.000078 0.004335 0.002620 -0.000184 0.001638 0.000036 -0.003198 -0.003442 -0.001805 -0.001944 -0.001484 -0.004753 0.004793 -0.001098 0.004002 -0.002789 -0.001421 -0.003995 0.002930 0.000002 0.000882 0.003700 0.002164 0.001973 0.000866 0.001930 -0.002168 -0.002923 -0.002800 0.000873 -0.004753 -0.000550 -0.003348 0.003395 0.000370 0.003583
grateful -0.004749 0.001273 0.002600 -0.000205 0.003570 -0.004893 -0.000413 0.000400 0.002115 0.001168 0.004267 -0.002783 0.003451 -0.004285 -0.000680 -0.002317 0.000015 0.001719 -0.002742 0.003635 -0.004824 -0.001223 0.002609 -0.003451 0.003621 0.004382 0.002916 0.003241 -0.003396 0.000348 0.004025 -0.002047 0.001486 -0.004040 0.000875 0.000492 0.004888 0.000617 0.000740 -0.002128 -0.000600 0.002180 0.003553 -0.001077 -0.000553 0.004332 -0.001043 0.003931 -0.000294 0.000146 -0.003764 -0.000645 0.003565 -0.002238 -0.001218 0.001300 -0.003753 -0.000411 0.000960 0.004279 -0.003677 0.002669 0.003503 0.002092 -0.003948 0.003673 0.004544 -0.000332 0.002853 -0.004408 0.002887 -0.004365 0.003085 0.000007 -0.002564 -0.004559 0.000546 0.003179 -0.002896 -0.003686 -0.004581 0.004163 0.002370 0.001452 0.002019 0.004343 0.003052 0.001712 -0.003905 -0.000696 0.002181 -0.000247 -0.000661 -0.000189 -0.000718 -0.003938 0.004678 0.003370 0.003788 0.000288
in 0.003087 0.004406 0.002039 -0.001017 0.003412 0.002681 -0.004345 -0.004776 0.000237 0.004133 0.004875 -0.000618 0.000634 -0.003566 -0.001619 -0.003107 0.004083 0.001336 0.000492 0.003284 0.001148 0.004263 -0.002226 0.002124 -0.000036 -0.000810 0.000199 -0.000015 -0.003092 -0.001384 -0.000312 0.002109 -0.003683 -0.001895 0.003388 -0.002292 -0.003535 0.002708 -0.001355 -0.002476 0.001332 0.002160 0.004212 0.001759 -0.004919 0.001899 0.001387 -0.002113 -0.000755 0.003280 -0.003391 0.000148 -0.000204 0.001744 0.001623 0.001533 -0.000184 0.000558 0.000421 -0.003325 -0.004186 -0.004887 0.002031 -0.002752 0.000432 0.001118 -0.000953 0.004398 0.004582 0.002242 -0.001688 0.000876 -0.001688 0.002490 -0.004564 0.002110 -0.002867 0.002828 0.003833 -0.004875 -0.004828 0.002722 0.000551 0.003109 0.001835 0.003219 0.001002 0.000855 -0.004782 0.004770 0.002908 0.003267 -0.003908 -0.004891 0.001324 -0.003886 0.002396 0.004627 -0.000681 -0.004850
you 0.004685 -0.000271 -0.003975 0.004790 -0.000138 0.003446 -0.003721 -0.000851 0.004985 0.001409 0.000335 -0.003380 -0.001973 0.002590 -0.004523 -0.001485 -0.003901 -0.003661 -0.003995 0.003512 -0.004617 -0.001536 -0.003547 0.000423 -0.003952 -0.000242 -0.001408 -0.002871 0.002419 0.001446 0.001715 -0.000472 -0.004578 0.003246 -0.004215 0.001489 0.002624 0.001244 -0.004926 0.001382 -0.003390 -0.001174 0.000978 0.002425 -0.003540 0.002399 -0.001580 -0.000056 0.004379 -0.003727 -0.003764 0.002082 0.003156 -0.000964 -0.002572 -0.004181 -0.002830 0.004559 -0.001100 -0.004783 -0.004804 0.003811 0.002480 -0.001700 0.002795 0.000467 0.003752 -0.004360 -0.004640 -0.000166 0.000193 -0.003543 -0.002294 0.002228 0.003585 -0.002086 0.004340 0.001085 0.002029 0.004940 0.004508 0.003963 -0.003062 -0.001803 -0.004092 0.003734 -0.000604 -0.001616 -0.000772 0.000818 0.002523 0.003522 0.004667 0.004388 0.001756 -0.002778 -0.001341 -0.004828 0.004888 0.004020
if 0.001501 0.003534 0.001218 0.000499 0.000360 0.003753 0.003222 -0.002805 -0.004291 -0.003192 0.004609 -0.003538 -0.004720 -0.004363 0.002364 -0.001802 -0.001112 0.003387 -0.004759 0.004546 0.001432 -0.003300 -0.002800 0.004942 0.001796 0.001078 -0.002214 -0.001173 -0.004993 -0.000458 0.000141 -0.002278 -0.003058 0.003861 0.000623 0.002813 0.000605 -0.001973 -0.000693 -0.004413 0.001580 0.003002 -0.003464 0.000745 0.001377 -0.003612 0.002907 -0.002244 -0.003986 0.003898 0.001370 0.003059 -0.002330 -0.001049 -0.002875 -0.000163 0.001584 0.000303 -0.003750 0.001418 0.004998 0.003966 -0.002828 -0.001156 0.000586 0.002284 -0.002791 0.002118 -0.000243 -0.001024 -0.002565 0.002470 -0.001624 0.002514 0.003263 -0.000314 0.003752 0.001324 0.000408 0.000679 -0.003013 -0.003871 -0.000039 -0.000898 0.003661 -0.001278 0.001128 0.001623 0.002167 -0.002220 -0.001266 0.000277 -0.004854 -0.002669 0.003141 -0.002805 0.001173 0.002700 -0.000196 0.000552
more -0.003030 -0.001000 -0.002991 0.002879 -0.003014 -0.003583 -0.002170 0.004939 0.002692 -0.001853 -0.002482 -0.003171 -0.003959 -0.002863 -0.000669 0.001975 -0.001387 -0.001197 0.001638 0.004552 0.002893 0.000997 0.003011 0.003840 0.002335 -0.004346 0.003571 -0.000482 -0.002896 -0.004416 0.002876 0.003041 0.001441 0.003910 0.001828 0.001429 -0.004928 -0.002295 0.000089 -0.002239 -0.003092 0.002394 0.003091 0.000107 0.000943 -0.003793 0.003073 -0.001059 -0.000682 -0.003453 -0.004522 0.003020 -0.003259 -0.003983 0.001180 0.002214 0.002378 0.003200 0.003308 -0.004281 0.002891 0.004392 0.000661 -0.004050 -0.002277 0.003693 0.001091 -0.002644 -0.002601 0.001504 0.001647 -0.004308 -0.002187 -0.002729 -0.002810 -0.002378 0.000847 -0.001282 0.002398 -0.003699 -0.000336 0.000831 0.000509 0.003835 -0.000864 0.001569 -0.003663 -0.000340 0.002334 0.003436 -0.003115 0.002947 0.003796 0.000889 0.004401 -0.004176 -0.003294 0.002324 0.001686 0.000373
