18 100
, -0.001446 0.004659 0.000112 -0.001304 0.004252 0.003360 0.003978 -0.000746 0.001993 -0.002101 -0.002659 -0.001104 0.002443 -0.004943 0.002993 -0.004690 -0.001696 0.003917 -0.001612 0.001866 -0.002221 0.003548 0.001684 -0.001285 0.000972 -0.001872 -0.001271 -0.002715 0.001693 0.004885 0.001801 0.004876 -0.000981 0.004803 0.002999 0.003129 0.004035 -0.001102 0.003311 -0.004107 0.003838 0.000326 0.001600 0.001887 0.004892 -0.003734 0.002690 -0.000740 -0.000932 -0.003885 -0.004675 -0.000038 0.002724 0.003288 -0.002735 -0.000877 -0.000330 0.002645 0.001483 -0.001590 -0.000719 -0.001496 -0.004445 -0.004055 -0.002274 -0.004423 -0.001992 -0.002403 -0.000447 -0.000447 -0.003582 0.000481 -0.001801 -0.000886 -0.003318 0.000549 -0.000809 -0.004790 -0.000022 0.002347 0.003399 -0.003695 -0.004095 -0.002197 -0.001204 -0.004702 0.002685 -0.004706 -0.002312 -0.002674 -0.003832 -0.002844 -0.000503 -0.004751 0.002509 -0.001071 0.003471 -0.001954 0.001379 -0.004583
to -0.000473 0.004741 -0.002615 -0.004692 -0.004951 0.004798 0.003423 -0.004168 -0.000005 -0.000253 -0.004228 -0.000471 0.004225 -0.004765 0.003992 0.003586 0.001315 -0.002475 -0.000759 0.000756 -0.003882 -0.004096 0.003559 0.001210 -0.000985 -0.002577 -0.001466 0.003085 -0.000439 -0.002945 0.000724 0.003295 0.000215 -0.002485 -0.003841 0.002878 -0.003561 0.000660 0.004069 -0.002739 0.001327 -0.002530 -0.004046 -0.004199 -0.001568 -0.001550 -0.002516 -0.003177 -0.001509 -0.002362 0.001240 -0.004810 -0.002915 -0.004299 0.003797 -0.000020 -0.004306 0.001782 -0.000034 0.003065 -0.004101 -0.003106 0.004644 0.002786 -0.001934 -0.002405 -0.000582 -0.002970 0.003629 0.003885 -0.004440 -0.001301 -0.003667 0.003612 -0.000621 0.001474 0.002296 0.003423 -0.002643 0.001850 0.000984 -0.002674 -0.001046 -0.002241 -0.001217 0.003389 -0.000765 -0.003848 -0.001382 -0.004034 -0.004949 0.000534 0.001911 -0.000393 -0.001854 -0.000729 -0.003701 0.002202 -0.001183 0.000029
me -0.003486 0.004122 0.004910 -0.004561 -0.000716 0.000624 -0.000861 -0.000394 0.003285 -0.001404 -0.002031 0.000896 -0.003983 0.000556 0.000979 0.004857 -0.003306 0.001079 -0.000728 0.001560 -0.004905 0.004157 -0.002809 -0.000093 0.002180 0.000238 0.003206 -0.001177 -0.001638 0.000360 -0.003573 -0.002875 0.001462 0.002719 -0.000402 -0.000134 -0.003471 0.001972 -0.001377 0.000893 -0.004110 -0.001737 0.001487 0.000381 0.001908 -0.004288 0.003182 -0.002390 0.003232 -0.001838 0.002787 -0.001542 0.000180 0.003292 -0.004293 0.002221 0.001987 0.001253 -0.004468 -0.002938 0.001022 0.001728 -0.000830 -0.003546 0.002303 -0.004238 -0.003572 -0.000466 0.003847 -0.001146 -0.001071 -0.000321 -0.003874 -0.004204 -0.003896 0.004701 -0.000979 -0.004628 -0.004590 0.001983 -0.003851 0.003504 0.002842 0.004950 -0.004756 -0.001933 -0.002035 0.001887 0.002365 -0.004764 -0.000712 -0.002150 -0.002430 0.000072 -0.004210 0.002540 -0.004276 0.000322 -0.000670 0.000279
a 0.000587 -0.001169 0.001328 0.001875 -0.002713 -0.004639 -0.002392 -0.001850 0.003538 0.003539 -0.000681 0.000357 -0.001827 0.001756 0.003702 0.001175 0.002088 0.004026 0.003320 0.000013 -0.002152 0.004835 0.002281 0.003743 0.000436 -0.001161 0.001625 -0.004064 0.004472 0.002755 -0.003071 0.000447 -0.001750 -0.002174 -0.004859 -0.000716 -0.001613 0.002026 0.001382 -0.001834 0.000906 0.002004 -0.003879 0.004941 -0.001996 0.000781 0.000522 0.000929 0.003730 0.000560 0.000135 -0.001622 0.000791 -0.003634 0.001654 0.002755 0.001620 -0.003104 0.003637 -0.001100 -0.002929 0.002347 0.003189 -0.002764 0.001624 0.001481 -0.002416 0.000703 -0.001208 -0.001533 -0.000231 -0.002095 -0.003288 0.000135 -0.002518 0.004575 0.001829 0.000739 0.000086 0.004933 -0.000686 0.002455 0.000540 -0.004169 0.000778 -0.004179 0.000835 -0.002663 0.004907 0.003974 -0.002805 0.003587 -0.000096 0.001058 -0.003990 -0.003034 0.002259 0.002959 -0.003938 -0.003871
wanted -0.001206 -0.004437 0.002699 -0.004089 -0.003113 -0.003921 -0.001277 -0.003265 0.004296 0.002749 -0.000794 -0.003039 0.000761 -0.000964 -0.003450 0.003985 0.004481 0.004262 0.004270 0.001797 0.000740 -0.003811 0.003436 -0.001834 -0.000046 -0.002347 -0.003133 0.000693 0.001767 -0.003594 -0.004250 0.002314 -0.001726 0.000350 -0.002880 -0.000805 -0.000947 -0.001464 -0.002751 0.001236 0.002652 0.001726 -0.004301 0.001449 0.000405 -0.004011 0.002585 0.002816 0.002209 -0.003181 0.004818 -0.004635 -0.003516 -0.004513 -0.003067 0.002279 0.004117 -0.003724 -0.000665 -0.002444 0.000573 -0.003273 -0.000516 0.004881 0.001541 0.000127 -0.003259 0.000176 0.001617 -0.001773 0.000554 0.002100 0.002514 0.000910 -0.003491 -0.002444 0.002807 -0.001453 0.003344 -0.003500 -0.004943 0.002887 0.000565 0.000657 0.004583 -0.000630 0.002155 0.003032 -0.002480 -0.001202 -0.001615 0.001608 -0.003421 -0.002478 0.002471 -0.003813 -0.004139 -0.004084 0.002606 -0.004999
Just 0.000328 0.003434 0.004564 -0.003107 -0.002899 0.001079 -0.000736 -0.000264 0.000263 -0.000643 0.002150 0.000650 -0.004256 0.002859 0.002763 0.003298 0.002522 0.000941 -0.003573 -0.000128 -0.000631 0.004326 -0.003315 0.000573 0.000134 0.004230 -0.004608 -0.004123 0.001027 -0.001174 -0.001112 -0.004508 0.002477 -0.004730 0.000242 -0.002874 -0.003450 0.003506 0.001953 -0.004847 -0.003437 -0.002411 0.004144 0.000772 -0.001575 -0.002668 -0.001106 -0.003190 0.004790 -0.004396 -0.004065 -0.004222 0.004033 -0.003993 0.001965 -0.000305 -0.003976 -0.000097 0.001473 -0.000571 -0.002779 -0.003618 0.002718 -0.004118 0.001553 -0.003531 0.004791 0.003725 0.003430 0.004213 0.001354 -0.004899 0.000901 -0.000417 0.001110 -0.001645 -0.001412 0.002593 -0.001080 -0.004323 0.003871 0.002490 -0.003957 -0.000319 0.003078 -0.004731 -0.002323 -0.004372 -0.002738 0.004373 -0.003239 0.002558 -0.003369 -0.004629 -0.000040 0.003967 0.002473 -0.000837 -0.002934 -0.003598
get 0.002104 0.001826 -0.001891 0.000928 0.001478 -0.001981 -0.002435 0.000065 0.004197 0.001316 0.002591 0.000099 -0.002540 -0.002495 -0.000663 0.001319 0.001098 -0.001727 0.003823 -0.003779 0.002566 -0.003362 -0.003447 0.003722 0.004919 -0.004477 0.003271 0.004083 0.000487 -0.002477 -0.004578 0.000135 0.003067 -0.000312 0.000113 0.001772 -0.000561 -0.004593 0.001965 -0.004510 0.002064 -0.004618 0.001332 -0.001028 0.003626 -0.001028 0.004213 -0.002561 -0.004917 0.002030 -0.001307 -0.004270 -0.004242 -0.001556 0.000502 0.000683 0.000466 -0.002538 -0.000430 0.004262 0.004829 0.004738 0.002471 -0.002166 0.003546 -0.000997 0.003134 0.004689 0.002521 0.001271 -0.002587 0.001697 0.004772 -0.000838 -0.003203 0.000168 -0.004876 -0.003252 0.004835 0.004549 0.003705 -0.003108 0.002320 0.002156 0.001965 0.001578 0.000923 -0.000912 0.002594 0.000083 -0.004820 -0.002158 -0.002274 -0.002765 0.003414 0.004382 -0.003614 -0.004429 -0.004641 -0.004150
check 0.004616 -0.004528 -0.003510 0.001766 -0.001896 -0.004783 -0.003858 0.001268 -0.000964 0.002064 -0.000280 -0.003616 0.003221 -0.001474 0.000994 0.003790 0.004838 0.000478 -0.002582 0.002798 -0.003213 0.003865 -0.002492 -0.001746 0.000516 0.004277 0.003920 0.000067 -0.003547 -0.003666 -0.001925 -0.004331 -0.004002 -0.002393 0.003963 0.000083 -0.002417 -0.003845 -0.004063 0.001036 0.000690 -0.002891 0.001200 -0.004709 -0.004573 -0.000309 -0.004825 0.004719 -0.000258 -0.001691 0.004303 0.002858 -0.002994 -0.004946 0.000644 -0.001767 -0.004123 0.000224 0.004752 -0.003487 0.002684 -0.001805 -0.001021 -0.003868 -0.001193 0.003676 0.000549 0.002081 -0.001958 -0.004978 -0.001254 0.002208 -0.001465 -0.003886 0.001760 0.000753 0.002261 0.002408 0.002907 -0.000218 -0.003906 0.001311 0.003385 0.000808 0.000427 -0.003382 -0.002351 0.001255 -0.002428 0.000026 -0.004704 -0.002769 -0.003450 0.002832 -0.001302 -0.001938 -0.003719 0.004595 0.001389 -0.004204
can 0.002359 -0.004191 0.003345 -0.002228 -0.003816 -0.004423 -0.003200 -0.004073 0.000345 -0.004747 -0.003171 -0.004427 -0.002195 -0.001429 0.003752 0.001396 0.001854 0.000006 -0.002428 0.001979 0.001275 0.000523 -0.001589 -0.003270 0.004861 0.001804 -0.001368 0.002584 -0.001710 -0.002128 0.001400 -0.003914 -0.001462 0.003007 0.004534 0.002988 -0.002096 -0.003530 -0.004096 -0.003563 -0.004567 -0.002439 -0.002871 0.001084 0.004542 0.004033 -0.003566 0.002645 -0.002077 -0.001950 -0.003882 -0.002907 -0.004253 -0.002058 0.003860 0.001271 0.001145 0.000448 -0.004593 0.004316 -0.000655 0.004418 -0.000247 -0.002955 -0.001109 0.000297 0.003007 -0.000989 0.004389 -0.003979 0.003014 -0.002818 0.003373 0.003134 0.002196 -0.004281 0.000600 0.001872 -0.000437 -0.002465 -0.004720 -0.000675 -0.002001 0.004275 0.002307 -0.002050 0.001287 -0.003214 -0.003712 -0.002963 0.002212 -0.002553 -0.000631 -0.003147 -0.003382 -0.000658 0.002886 0.004541 -0.002941 0.000374
. -0.001641 0.003936 0.001144 -0.002721 -0.000218 -0.003234 -0.004047 0.001572 -0.003528 -0.004850 -0.002738 0.000859 0.002052 -0.000110 0.003089 0.001067 -0.002005 0.004993 0.003921 0.002844 0.000867 0.000176 -0.004556 -0.003327 0.003126 0.001654 -0.004615 0.003150 0.000620 0.003582 -0.000628 -0.001884 -0.004484 -0.000277 -0.000674 0.000033 -0.004117 0.003713 0.003303 -0.002067 0.002472 0.000890 -0.000195 0.003511 -0.000827 0.001903 0.001418 -0.004667 0.000463 0.002451 -0.002587 0.000901 0.004022 0.001069 0.002437 0.000595 0.001251 -0.000571 0.002232 0.004208 -0.003602 0.002403 -0.000822 0.004048 -0.003725 -0.001151 0.000869 -0.000594 0.004074 0.003989 0.002323 0.000799 0.003424 -0.004473 -0.003069 -0.000236 -0.003142 0.003750 0.004040 -0.004459 0.003883 0.000039 0.003318 0.001120 0.000676 0.002471 0.003233 -0.001707 0.002740 0.000319 -0.003022 -0.002422 -0.001565 -0.001915 -0.000473 0.001799 0.003483 0.000968 -0.002125 0.000060
see 0.003234 0.002361 -0.001278 -0.000830 -0.001228 0.003005 0.001281 -0.002029 -0.001850 0.002075 0.003535 -0.001074 -0.001601 0.004674 -0.000493 -0.002647 0.003025 -0.002917 -0.000846 0.003772 -0.002397 0.003153 0.004394 -0.001334 0.002541 -0.001612 -0.001503 -0.001364 0.000106 -0.000883 0.004419 0.003091 -0.004969 0.001404 -0.000030 -0.003872 -0.003614 -0.005000 0.004762 0.002041 -0.001833 -0.003748 0.001206 -0.004370 -0.000454 0.002784 0.000561 -0.002772 0.000442 -0.003047 -0.001215 -0.004351 -0.004277 -0.004010 0.002321 0.002148 -0.004488 -0.003168 0.000264 -0.003844 -0.004170 0.001569 0.001826 -0.003900 0.001244 -0.000246 0.002055 -0.000267 -0.001078 -0.004289 0.000888 0.004960 0.003080 0.001074 -0.002139 -0.004309 -0.001325 0.004974 0.003958 0.003937 0.004261 0.002293 0.000618 -0.002311 -0.004627 0.000146 0.004118 -0.001291 -0.004308 0.000455 0.001012 0.004406 -0.000238 0.003363 0.000542 -0.002554 0.002110 0.000341 -0.002973 0.002400
Hi 0.001117 -0.002074 -0.002679 -0.001649 -0.004047 0.002007 0.003620 -0.001162 0.003829 0.000995 -0.004546 -0.002492 0.002368 -0.001566 0.003181 0.002712 -0.004865 -0.004847 -0.003237 -0.000326 -0.003376 -0.004805 0.000224 0.001196 0.004419 -0.001485 0.004860 0.000589 0.000694 -0.002540 -0.001971 0.002894 0.001744 -0.004730 0.002115 -0.000577 -0.001482 0.000917 0.001631 0.003674 -0.001256 -0.000923 0.002625 0.000603 0.000948 -0.002697 -0.000308 0.003109 0.004525 0.003017 -0.004140 0.002782 -0.004473 -0.001989 -0.000154 0.003242 -0.000636 0.000203 -0.000203 -0.000677 0.000479 -0.002445 -0.000158 0.003061 0.002417 0.001788 -0.004736 -0.001147 -0.002795 0.003686 0.001900 0.000959 0.002279 0.002583 -0.001046 -0.003571 -0.001049 0.000170 -0.002133 0.004588 0.001368 0.001519 -0.002207 0.002332 -0.003430 -0.002223 0.002017 -0.004286 0.000900 0.000115 0.001107 0.003145 0.002464 0.001037 0.003273 0.002746 -0.003823 0.002816 0.001933 -0.002857
if 0.001506 0.003532 0.001218 0.000499 0.000362 0.003753 0.003226 -0.002807 -0.004294 -0.003191 0.004607 -0.003535 -0.004720 -0.004365 0.002365 -0.001803 -0.001109 0.003393 -0.004760 0.004548 0.001428 -0.003304 -0.002804 0.004941 0.001793 0.001074 -0.002213 -0.001170 -0.004989 -0.000460 0.000144 -0.002280 -0.003056 0.003862 0.000622 0.002808 0.000608 -0.001972 -0.000697 -0.004412 0.001577 0.003002 -0.003463 0.000745 0.001379 -0.003615 0.002903 -0.002245 -0.003990 0.003896 0.001368 0.003060 -0.002329 -0.001050 -0.002875 -0.000166 0.001587 0.000302 -0.003753 0.001420 0.004996 0.003964 -0.002831 -0.001154 0.000586 0.002281 -0.002793 0.002116 -0.000247 -0.001025 -0.002564 0.002473 -0.001621 0.002513 0.003262 -0.000314 0.003753 0.001326 0.000409 0.000677 -0.003010 -0.003873 -0.000036 -0.000896 0.003658 -0.001281 0.001127 0.001620 0.002168 -0.002219 -0.001262 0.000276 -0.004855 -0.002671 0.003145 -0.002801 0.001172 0.002696 -0.000195 0.000555
Thanks -0.000934 -0.002261 -0.001524 -0.003992 -0.001110 0.002116 -0.004426 0.002238 -0.003583 0.003893 0.003534 -0.002289 -0.000465 -0.002551 0.001637 -0.000518 -0.001593 0.000574 -0.003960 0.002008 0.004251 0.002244 0.003791 0.000515 0.004781 0.002573 0.002013 0.002630 0.002167 -0.002566 -0.002163 0.002585 0.000495 0.000863 0.003366 0.000787 -0.000400 0.003862 0.004411 0.001873 0.001434 0.000428 0.003584 -0.004449 -0.004077 0.002307 -0.002352 -0.004175 -0.004094 0.004609 -0.001013 0.004889 0.000627 0.003161 0.002762 -0.001955 0.001636 -0.002339 0.003963 0.000876 0.001652 0.003942 0.002237 -0.004137 0.001408 0.000705 0.003327 -0.004626 -0.004083 -0.004632 0.004834 0.001664 0.002104 -0.002614 -0.002565 -0.003608 -0.004650 -0.001715 -0.000281 -0.002702 0.001272 0.003848 0.004684 0.004666 -0.000654 0.000277 0.001055 -0.004076 0.001542 -0.001451 0.001020 -0.002772 0.000372 -0.000995 -0.000650 0.002261 0.000838 -0.002749 -0.000381 -0.004507
Kay -0.001404 0.002467 0.002526 0.004007 0.001642 0.000841 -0.000079 -0.001792 -0.003431 0.004867 0.001218 0.003045 -0.004311 0.001753 0.000261 -0.001152 0.001996 0.004135 -0.004829 0.000915 -0.002034 0.002855 -0.001397 0.003623 -0.000896 0.002549 -0.002512 -0.003556 -0.002104 -0.001979 0.001220 -0.000154 -0.000954 0.002532 0.003529 -0.001460 0.003153 -0.003890 -0.004909 -0.000566 -0.002210 0.003952 -0.001646 -0.001337 0.001519 0.001980 -0.003113 0.001786 -0.003297 0.000659 0.000453 0.000915 -0.001275 0.004883 -0.000751 -0.003382 0.001043 0.000482 0.001688 0.000739 -0.003493 0.003663 0.001687 -0.001493 0.000410 -0.004910 -0.000357 0.003990 0.003126 -0.002327 0.004537 0.002075 -0.002172 0.000223 -0.002649 -0.001105 -0.003997 -0.004228 0.003126 0.001237 -0.001678 -0.000883 0.004770 0.002191 -0.000355 -0.003376 -0.004931 0.000290 0.000877 0.001197 -0.003181 0.001845 0.004903 -0.003962 0.003268 -0.001530 -0.002913 0.003628 0.003950 0.000664
copy -0.003925 -0.004369 0.004698 -0.001072 0.002289 -0.003312 0.002026 -0.002657 -0.001730 -0.000154 -0.001754 -0.003977 0.004554 -0.001613 0.001818 0.000827 0.000333 -0.002777 -0.001220 0.003583 0.002396 -0.002335 0.004184 0.000888 -0.001323 -0.000567 -0.002568 -0.002141 -0.003663 -0.000037 -0.000172 0.003874 -0.001088 0.004031 0.001517 0.001509 0.004372 -0.001145 -0.000441 0.004803 0.003050 0.001911 0.004625 -0.000570 0.004337 0.000977 -0.002937 -0.000401 -0.001071 -0.001838 0.004135 -0.002798 -0.004534 -0.000091 -0.001324 0.004433 0.003479 0.003363 -0.003997 0.004481 -0.000102 0.002770 0.004877 -0.004138 0.002554 0.004054 -0.004437 -0.004113 0.002963 -0.004059 -0.000944 0.003105 0.002651 -0.001439 -0.003496 0.004156 -0.001945 -0.000421 0.004209 0.003682 0.000670 0.003565 0.000369 -0.003539 0.003072 0.003341 0.004218 -0.004396 -0.000758 0.003805 0.003478 -0.002099 -0.003500 0.000916 0.001407 -0.000727 -0.000081 -0.001916 0.002870 -0.004906
you 0.004685 -0.000271 -0.003975 0.004790 -0.000138 0.003446 -0.003721 -0.000851 0.004985 0.001409 0.000335 -0.003380 -0.001973 0.002590 -0.004523 -0.001485 -0.003901 -0.003661 -0.003995 0.003512 -0.004617 -0.001536 -0.003547 0.000423 -0.003952 -0.000242 -0.001408 -0.002871 0.002419 0.001446 0.001715 -0.000472 -0.004578 0.003246 -0.004215 0.001489 0.002624 0.001244 -0.004926 0.001382 -0.003390 -0.001174 0.000978 0.002425 -0.003540 0.002399 -0.001580 -0.000056 0.004379 -0.003727 -0.003764 0.002082 0.003156 -0.000964 -0.002572 -0.004181 -0.002830 0.004559 -0.001100 -0.004783 -0.004804 0.003811 0.002480 -0.001700 0.002795 0.000467 0.003752 -0.004360 -0.004640 -0.000166 0.000193 -0.003543 -0.002294 0.002228 0.003585 -0.002086 0.004340 0.001085 0.002029 0.004940 0.004508 0.003963 -0.003062 -0.001803 -0.004092 0.003734 -0.000604 -0.001616 -0.000772 0.000818 0.002523 0.003522 0.004667 0.004388 0.001756 -0.002778 -0.001341 -0.004828 0.004888 0.004020
Rusty 0.002618 -0.002239 0.002586 0.003837 -0.002693 0.003706 -0.004073 -0.004656 -0.002497 0.004998 0.002592 0.004903 0.004557 0.003643 -0.000958 0.004164 -0.001675 0.001055 -0.002165 0.002170 -0.004964 0.004067 -0.000890 0.003017 -0.001343 -0.004911 -0.002840 0.003593 0.001894 0.004476 -0.001731 -0.003350 0.000175 -0.002999 -0.002934 -0.002374 0.000185 -0.001096 -0.001331 -0.000012 -0.004044 -0.003515 0.003716 0.000400 0.001906 -0.003325 0.001948 -0.000337 -0.003105 0.002318 -0.003648 0.004001 0.001537 0.001778 0.001837 -0.004844 -0.000309 0.000883 0.001859 -0.003610 -0.003418 -0.002871 0.004242 -0.000336 -0.003575 0.004439 -0.000535 0.002476 0.001628 -0.000451 0.001338 0.003784 -0.003263 0.003906 0.004922 -0.003734 -0.000108 0.001783 -0.001050 -0.003758 0.004764 -0.001379 0.004279 0.003456 -0.002887 -0.000364 0.004590 0.002584 -0.001357 0.003173 -0.003440 -0.000501 -0.004393 0.000833 -0.003873 0.000058 -0.001445 -0.004538 -0.001510 0.001518
