7 100
information -0.000366 0.001337 0.004118 -0.000094 -0.001995 0.002776 -0.003743 0.000914 0.002799 -0.003527 -0.004789 -0.001500 -0.004525 0.000113 0.002293 -0.002313 -0.000808 0.001012 -0.003161 -0.003651 0.004357 0.003414 0.004952 -0.001209 0.003892 -0.001472 -0.002683 -0.002445 -0.002889 -0.004755 -0.003183 -0.000252 0.004885 -0.002174 0.003453 -0.001730 0.001829 -0.000669 0.002919 0.002078 0.002723 -0.001744 -0.004689 -0.001959 0.000405 0.002856 0.004734 0.004399 -0.004890 0.001108 0.004399 -0.004297 -0.003906 0.003506 -0.001161 -0.000795 0.002422 -0.000179 -0.002371 -0.001621 0.004605 0.002012 -0.003657 -0.003626 0.002437 -0.000662 0.004972 -0.001426 -0.004686 -0.004335 0.000935 -0.002032 -0.001961 -0.000276 -0.004025 -0.001875 -0.001131 -0.000482 0.004497 -0.004985 0.001810 -0.004208 -0.000667 -0.001765 -0.002211 0.001165 0.003772 0.004618 0.004551 0.000278 0.001518 0.003486 -0.001620 -0.004941 -0.000822 0.004997 0.001305 0.003697 0.003526 -0.001971
's 0.004075 -0.000238 0.003078 -0.004263 -0.002481 0.001874 0.001638 0.003823 -0.004612 -0.003222 0.003557 -0.004272 -0.000260 0.003027 -0.003416 0.001833 -0.002739 -0.002035 0.003622 0.001187 -0.003639 -0.000943 -0.000253 -0.002200 0.003994 -0.004074 -0.004291 -0.003842 -0.003018 0.004663 0.004551 0.002182 0.002888 0.004102 0.004714 -0.002360 0.002746 0.004012 -0.000463 0.004756 0.000169 -0.001930 -0.001718 0.004851 -0.001541 -0.003557 0.000106 -0.000245 0.000372 0.001435 0.000405 0.002907 -0.000844 -0.000199 0.004558 -0.004038 -0.000750 0.000566 -0.000463 -0.002569 0.000114 -0.004502 0.003020 0.003124 -0.003055 -0.000415 -0.002248 -0.000327 -0.002287 0.002711 0.000071 -0.001762 -0.000372 0.002085 0.004954 0.002718 -0.004634 0.004196 0.003164 -0.003336 0.002563 -0.000772 0.001397 0.001804 0.000191 0.003399 -0.000415 -0.001728 -0.001256 0.004598 -0.004534 -0.004954 -0.003626 -0.003688 0.001934 -0.003969 0.000143 -0.004732 0.000154 -0.001676
this -0.004644 -0.000601 -0.001337 -0.001634 -0.002128 -0.001524 -0.002497 0.003354 -0.003800 0.002767 0.003923 -0.003276 0.004945 -0.002549 0.001346 -0.000137 -0.002882 0.001769 -0.000229 0.003288 -0.004685 0.002063 0.001649 -0.000189 0.004255 0.002763 -0.001911 -0.003882 0.004813 -0.002740 -0.001663 -0.003642 0.000318 -0.003858 0.004083 0.001870 0.002329 -0.000407 -0.004233 -0.003278 -0.003615 0.004180 -0.001553 -0.003291 -0.000211 0.001313 0.004382 0.001746 -0.003594 0.003776 -0.004906 -0.002927 -0.001447 -0.001380 -0.002770 -0.000561 -0.004387 -0.001542 -0.001819 -0.002559 0.002117 0.002722 0.000236 -0.004520 0.001286 -0.004294 -0.001804 0.003016 0.000945 0.001490 -0.003630 0.001533 -0.004598 0.000418 0.001277 0.002973 -0.000592 0.004938 -0.004792 0.000992 -0.002577 -0.001137 -0.002469 -0.000050 0.004936 -0.000794 -0.004018 -0.004092 0.004452 -0.003745 -0.001163 -0.001066 0.003876 0.004855 0.001624 -0.003123 0.002017 0.002342 -0.003350 -0.000198
Please 0.004357 -0.002790 0.003549 -0.001675 -0.003369 -0.002186 0.004823 0.003049 0.004961 -0.002173 0.003077 0.003823 -0.002317 -0.001106 0.000942 0.001952 -0.003362 -0.004808 -0.002489 0.001055 -0.003814 0.004106 0.000722 0.000767 -0.002615 0.003657 -0.003253 -0.002379 0.002493 0.001017 0.003584 0.001759 0.001102 -0.004910 0.004902 0.002137 0.003175 -0.003920 -0.001514 0.003582 0.003224 0.002747 0.004408 0.003079 0.002097 -0.004646 -0.001954 0.001723 0.002256 -0.003590 0.002962 0.004044 0.002875 0.003713 0.002727 0.000175 -0.000811 0.003533 0.000665 -0.000513 0.003963 0.003945 0.002108 0.001836 -0.000799 -0.004808 0.000050 0.004480 -0.004578 -0.000451 -0.004971 -0.003404 0.002121 0.004312 -0.001398 -0.000002 0.003223 0.000851 -0.004328 -0.002640 0.000007 0.000736 0.003069 0.003430 -0.001955 -0.004564 -0.000099 -0.001222 0.003567 -0.004931 -0.002419 0.003784 -0.003759 0.001106 -0.004898 0.002246 0.000727 -0.003010 0.003183 0.000231
Scott -0.001436 -0.001440 -0.004676 -0.002203 0.003256 -0.002568 -0.002073 0.002427 0.004522 0.003807 -0.000479 -0.003502 -0.003603 0.004070 0.002583 -0.000666 0.001918 -0.004176 -0.003581 0.003188 0.000496 -0.003834 -0.004244 -0.003680 0.004859 -0.004910 0.003297 -0.002563 0.000336 -0.000013 -0.002718 -0.002999 -0.000107 0.002232 -0.001806 0.001114 -0.002624 -0.002148 -0.001442 -0.000660 -0.000601 -0.003590 -0.001264 -0.003450 -0.000741 0.000890 0.004951 0.001429 -0.003095 -0.003811 0.003536 -0.002670 -0.001161 -0.004200 -0.003797 -0.001387 -0.004477 -0.003897 -0.003632 0.000408 0.000869 -0.002793 0.001708 -0.004411 -0.004088 0.002943 0.000782 0.001612 -0.000305 0.003415 0.004217 -0.002792 -0.002392 -0.000115 -0.004548 -0.000190 0.000683 -0.002240 0.004518 -0.001272 -0.003271 -0.003632 0.001646 -0.003415 0.001004 0.004565 0.003972 -0.004691 0.001036 0.004755 0.001298 -0.003816 -0.003350 0.003433 0.003885 0.001455 -0.003712 0.004314 0.000964 0.001277
include 0.001831 0.001170 0.003436 0.004179 0.002533 0.004038 -0.003420 -0.003070 0.000035 -0.001877 0.001438 -0.004587 0.003137 -0.004176 -0.001789 0.002218 0.000183 -0.000500 0.000228 0.004216 -0.004174 0.002385 -0.000413 -0.002441 0.004573 -0.004237 0.002516 -0.000999 -0.003483 0.000726 -0.004417 0.001815 -0.004289 -0.002252 -0.000085 -0.002407 -0.003614 0.003692 -0.002268 0.001463 0.003000 0.004908 -0.000156 0.001219 0.003507 0.003939 -0.004453 0.000268 -0.003058 -0.001664 -0.001093 0.003190 0.003394 0.001699 0.001354 0.003638 -0.004825 0.000667 -0.000768 0.002420 0.003508 -0.002956 0.003628 0.002461 -0.002851 0.001209 -0.004745 0.002049 0.002242 0.001499 -0.002201 -0.001481 0.002395 -0.001339 0.001784 -0.002320 -0.000502 0.001830 -0.002188 0.004753 0.002328 0.001157 0.004596 0.002531 0.000785 0.002174 -0.002269 -0.003716 0.003612 -0.001178 0.001355 -0.004631 -0.002294 0.004709 0.004554 -0.003241 -0.001687 0.000208 -0.000396 -0.004047
with 0.001372 0.002585 0.000191 -0.000904 0.001891 0.000164 0.004756 0.001423 -0.001556 0.001310 -0.002579 -0.003760 0.000168 0.004583 -0.000358 -0.004469 0.003056 -0.000420 -0.000753 -0.002464 -0.002186 0.001190 -0.002511 0.004517 -0.004031 -0.001104 0.001297 -0.004872 0.002637 0.004153 -0.003601 0.000386 0.000516 -0.000496 -0.003681 0.000734 0.000123 -0.003084 -0.000180 0.000489 -0.001224 0.000328 0.001291 0.004473 -0.004569 -0.002183 0.001427 -0.000703 -0.002355 0.000973 0.004220 -0.003979 -0.004270 -0.002899 -0.003190 -0.002650 0.003014 0.000609 -0.004264 -0.002794 -0.002114 0.003251 0.001086 0.004821 -0.002693 0.001852 0.000137 0.004286 -0.004372 0.002685 0.004788 0.004528 0.004266 -0.003863 0.004639 -0.003684 -0.002644 -0.002367 -0.004799 -0.002157 0.000881 -0.003584 -0.001112 -0.003791 -0.002502 -0.000219 -0.003309 0.001399 0.003518 -0.000069 -0.002747 -0.000482 -0.000286 0.003911 0.000444 -0.000091 0.002006 -0.000190 0.000389 -0.003328
