22 100
, -0.001446 0.004659 0.000112 -0.001304 0.004252 0.003360 0.003978 -0.000746 0.001993 -0.002101 -0.002659 -0.001104 0.002443 -0.004943 0.002993 -0.004690 -0.001696 0.003917 -0.001612 0.001866 -0.002221 0.003548 0.001684 -0.001285 0.000972 -0.001872 -0.001271 -0.002715 0.001693 0.004885 0.001801 0.004876 -0.000981 0.004803 0.002999 0.003129 0.004035 -0.001102 0.003311 -0.004107 0.003838 0.000326 0.001600 0.001887 0.004892 -0.003734 0.002690 -0.000740 -0.000932 -0.003885 -0.004675 -0.000038 0.002724 0.003288 -0.002735 -0.000877 -0.000330 0.002645 0.001483 -0.001590 -0.000719 -0.001496 -0.004445 -0.004055 -0.002274 -0.004423 -0.001992 -0.002403 -0.000447 -0.000447 -0.003582 0.000481 -0.001801 -0.000886 -0.003318 0.000549 -0.000809 -0.004790 -0.000022 0.002347 0.003399 -0.003695 -0.004095 -0.002197 -0.001204 -0.004702 0.002685 -0.004706 -0.002312 -0.002674 -0.003832 -0.002844 -0.000503 -0.004751 0.002509 -0.001071 0.003471 -0.001954 0.001379 -0.004583
. -0.001640 0.003940 0.001146 -0.002723 -0.000218 -0.003237 -0.004051 0.001574 -0.003531 -0.004854 -0.002742 0.000861 0.002054 -0.000110 0.003090 0.001069 -0.002007 0.004998 0.003925 0.002847 0.000868 0.000175 -0.004557 -0.003328 0.003129 0.001657 -0.004620 0.003155 0.000621 0.003584 -0.000629 -0.001885 -0.004486 -0.000278 -0.000674 0.000034 -0.004119 0.003715 0.003307 -0.002069 0.002474 0.000890 -0.000196 0.003514 -0.000826 0.001904 0.001419 -0.004673 0.000463 0.002453 -0.002590 0.000902 0.004026 0.001070 0.002438 0.000596 0.001251 -0.000573 0.002233 0.004212 -0.003606 0.002405 -0.000820 0.004050 -0.003726 -0.001150 0.000869 -0.000596 0.004079 0.003992 0.002323 0.000799 0.003425 -0.004477 -0.003072 -0.000236 -0.003143 0.003752 0.004043 -0.004464 0.003885 0.000038 0.003322 0.001120 0.000678 0.002473 0.003235 -0.001708 0.002741 0.000319 -0.003027 -0.002425 -0.001566 -0.001915 -0.000473 0.001801 0.003485 0.000969 -0.002125 0.000060
Deb 0.003692 0.001400 0.002641 -0.004487 -0.002039 -0.001214 -0.001206 -0.003987 -0.000473 0.003254 0.000977 -0.002165 -0.003952 -0.002929 -0.001031 0.001623 -0.001882 0.000759 0.001104 0.002824 -0.004728 -0.004996 0.003917 -0.003555 -0.004029 -0.000846 -0.002091 0.003087 -0.000221 -0.002615 -0.000904 0.001103 0.000514 0.001080 -0.000202 0.003485 0.000189 0.001095 0.003403 -0.000887 -0.001063 -0.000117 -0.001545 0.004006 -0.002925 -0.001281 -0.002522 -0.002400 0.002402 -0.003752 0.004847 -0.002277 -0.004705 0.001125 0.004068 -0.000008 -0.004832 -0.000749 0.000298 0.004256 0.001242 0.002446 0.004827 -0.003505 0.004433 -0.001240 -0.004867 -0.004170 -0.002054 0.001555 -0.000982 0.003747 -0.002319 -0.001086 -0.002899 -0.003883 -0.000789 0.004387 -0.003097 -0.002115 0.000201 -0.000002 -0.003026 -0.001014 0.003015 0.002776 -0.002852 0.001705 -0.002467 -0.004522 0.001283 -0.000863 -0.003031 0.002696 0.001199 -0.004399 0.000733 -0.002353 -0.004734 0.002071
Smith 0.004221 -0.002685 0.004506 0.002389 -0.002297 0.002242 0.001369 0.000054 0.002707 -0.001879 0.001728 -0.000151 -0.001327 0.002383 -0.004891 -0.002932 0.000609 0.004047 0.004614 -0.001856 -0.004021 -0.001547 0.004340 0.003045 -0.000099 0.001167 -0.004574 0.003065 0.002380 0.000290 0.001452 -0.000967 0.004299 -0.003274 -0.002192 -0.004675 0.001494 -0.004599 0.004959 0.003401 -0.000247 0.002217 -0.004162 -0.000747 0.003846 0.004502 0.002469 -0.004022 -0.004556 -0.004651 -0.004838 0.004799 0.004457 0.004723 -0.000954 -0.001073 0.000999 -0.004101 -0.002847 0.004684 -0.001816 0.001224 0.002653 -0.000490 0.004226 0.004330 0.002023 -0.003311 0.002398 -0.003431 -0.003013 0.000298 -0.002530 0.000437 0.003715 -0.000384 0.004249 -0.000513 -0.003283 0.001112 -0.004009 0.000787 -0.000200 0.002479 0.001424 0.002250 0.000113 -0.001451 0.000795 0.000052 -0.000850 -0.002304 0.003580 -0.001668 0.002036 -0.001092 -0.000590 0.002148 0.004708 -0.003533
Legal -0.000863 -0.003378 0.003659 -0.004489 -0.002807 0.004358 0.000470 0.001486 -0.001548 0.000263 -0.000403 -0.003479 0.004790 0.003124 0.000567 -0.003787 0.004459 0.001937 -0.001126 -0.002636 -0.004408 0.004781 -0.004050 -0.002621 0.002552 -0.001654 -0.000505 -0.004626 -0.001457 0.001958 -0.001143 -0.001076 -0.001102 -0.003837 -0.004923 0.001480 0.003115 0.001097 -0.001803 -0.002431 -0.001702 -0.000645 0.003403 0.001857 -0.003379 0.001677 0.001355 -0.001143 0.003596 -0.001472 -0.001283 0.002352 0.000088 0.003535 -0.001088 -0.004169 -0.001285 -0.001594 -0.000595 -0.000733 -0.002143 -0.003656 -0.001285 0.003144 -0.003617 -0.004930 0.000562 0.004097 -0.002472 -0.002294 0.000507 0.004878 0.001621 0.002448 0.003447 -0.000304 0.002113 -0.002603 0.000422 -0.004888 0.003044 0.000524 0.001057 -0.003986 0.001847 -0.000575 0.001793 0.004698 0.004985 0.000306 -0.002319 0.004230 -0.004670 -0.003729 0.000321 0.001845 0.004748 -0.000617 0.002986 -0.000367
77002 0.003393 0.001602 0.003514 -0.003981 -0.001117 -0.002380 0.003852 -0.002967 -0.000719 -0.002344 0.004901 -0.000301 -0.004037 0.002391 0.003461 -0.003505 0.001731 0.003799 0.004710 -0.001791 0.000741 0.001928 -0.002114 -0.003857 0.003144 -0.002110 -0.002253 0.004783 0.003189 0.001534 -0.004024 0.002140 -0.001790 0.000671 -0.001734 0.002337 -0.002259 -0.003308 0.004758 -0.000175 -0.002423 -0.003427 -0.004705 0.001112 0.002951 -0.000613 0.002746 0.003981 -0.002948 -0.003105 0.004039 -0.002611 -0.001486 0.003104 0.000359 0.000850 -0.003820 -0.000103 0.000457 -0.004039 -0.004995 -0.002224 0.001964 0.003450 0.004108 0.002731 0.004411 0.002186 -0.003499 0.002515 0.002821 -0.001390 -0.001730 0.002885 -0.003084 0.004360 0.001977 -0.000031 -0.003543 -0.001021 0.004359 0.000575 -0.000010 -0.004465 -0.002570 0.003739 -0.004024 -0.003838 -0.003192 0.002811 0.000139 0.003517 -0.000095 -0.002164 0.004129 -0.000956 -0.002786 -0.003406 -0.000447 -0.000207
Board -0.004779 0.000195 0.001911 -0.001773 0.004705 -0.002309 0.004955 0.004695 -0.002689 -0.003873 -0.004082 0.003145 0.001667 -0.002496 -0.000426 -0.000338 -0.004892 -0.000225 -0.004776 0.004541 0.000679 -0.002044 0.004493 0.004934 -0.001650 0.001479 -0.003078 -0.004518 -0.001973 0.000993 0.001653 0.002575 0.000109 -0.004081 0.004286 0.004978 0.003996 0.001917 0.002372 0.001857 0.002528 0.000465 0.002882 -0.003482 0.003387 -0.000842 -0.002677 -0.001732 0.000903 0.003375 -0.003222 0.004291 -0.001746 -0.004927 0.002444 0.004980 0.003070 0.001940 -0.003163 -0.003747 -0.000563 -0.003447 -0.004009 0.000545 0.000730 -0.002165 -0.002676 -0.004503 0.003471 0.004230 0.001811 -0.003509 -0.003418 -0.001315 -0.004834 0.004630 0.004414 0.002693 0.000641 -0.003374 0.002857 -0.002301 -0.003385 -0.002310 -0.000788 -0.002108 0.000931 -0.003241 -0.001174 -0.004722 -0.004957 0.000448 0.002531 -0.002377 0.001732 -0.002477 0.003320 -0.000852 0.001526 -0.002800
Meeting 0.000123 -0.001519 0.000538 -0.003385 -0.003795 0.000706 0.003568 0.002669 -0.001197 -0.001240 -0.001536 -0.004970 -0.002810 0.003636 0.001242 0.004985 -0.003221 0.000292 -0.002669 -0.001181 0.002039 0.000423 -0.003341 0.000028 -0.002416 0.000896 -0.001884 -0.001317 0.001628 0.001299 0.003922 0.004641 -0.000121 -0.002036 -0.002409 0.002560 -0.004781 -0.000098 -0.001648 0.003272 -0.003029 -0.000503 -0.001186 0.002364 -0.003271 -0.003682 0.000024 -0.004128 0.004960 0.000880 -0.002055 0.001991 0.000515 -0.000827 0.003963 0.000133 -0.002078 -0.002684 0.001080 -0.004852 0.000521 0.004901 -0.004489 -0.001639 -0.002191 0.004805 -0.003156 0.001092 0.003377 -0.004887 -0.000764 -0.004267 -0.003188 0.001804 0.003741 -0.002213 0.002098 -0.002845 0.000469 -0.003339 0.001145 0.001960 -0.003084 0.000200 0.004997 0.001710 -0.001977 0.002032 0.004022 -0.002193 0.003656 -0.004280 -0.000591 -0.000429 0.003944 0.003545 -0.000232 0.004183 0.000879 -0.000792
information -0.000366 0.001337 0.004118 -0.000094 -0.001995 0.002776 -0.003743 0.000914 0.002799 -0.003527 -0.004789 -0.001500 -0.004525 0.000113 0.002293 -0.002313 -0.000808 0.001012 -0.003161 -0.003651 0.004357 0.003414 0.004952 -0.001209 0.003892 -0.001472 -0.002683 -0.002445 -0.002889 -0.004755 -0.003183 -0.000252 0.004885 -0.002174 0.003453 -0.001730 0.001829 -0.000669 0.002919 0.002078 0.002723 -0.001744 -0.004689 -0.001959 0.000405 0.002856 0.004734 0.004399 -0.004890 0.001108 0.004399 -0.004297 -0.003906 0.003506 -0.001161 -0.000795 0.002422 -0.000179 -0.002371 -0.001621 0.004605 0.002012 -0.003657 -0.003626 0.002437 -0.000662 0.004972 -0.001426 -0.004686 -0.004335 0.000935 -0.002032 -0.001961 -0.000276 -0.004025 -0.001875 -0.001131 -0.000482 0.004497 -0.004985 0.001810 -0.004208 -0.000667 -0.001765 -0.002211 0.001165 0.003772 0.004618 0.004551 0.000278 0.001518 0.003486 -0.001620 -0.004941 -0.000822 0.004997 0.001305 0.003697 0.003526 -0.001971
TX 0.003987 0.003613 0.000656 0.001460 0.004925 0.001709 -0.003850 0.002889 0.000186 0.003417 -0.003511 0.004672 0.001940 -0.001728 -0.002790 0.000033 0.003930 0.003733 -0.000790 0.004275 -0.000729 -0.004707 -0.003562 -0.003169 0.002140 0.003431 -0.002082 0.001576 -0.004471 0.004825 0.004657 0.003249 0.003939 -0.001883 0.003358 0.002068 0.001553 0.003898 0.004375 0.001725 0.003948 -0.002328 -0.002587 -0.004140 -0.003649 -0.004163 0.000519 0.002411 -0.004904 0.000339 -0.003491 -0.001622 -0.002580 0.003706 0.004555 -0.002524 -0.002681 -0.000773 0.003871 -0.001955 -0.000338 -0.001772 0.003198 0.000912 0.004111 -0.000865 -0.003510 0.002024 -0.003781 -0.000500 -0.002709 0.000415 -0.000467 0.001480 0.001413 -0.000336 0.003390 -0.002681 0.004533 0.001937 -0.001720 0.000293 0.003802 -0.001629 0.003080 -0.002888 -0.003477 0.000800 0.004524 0.002751 -0.004933 -0.003641 -0.001340 -0.002489 -0.004088 -0.002504 -0.002315 0.003358 0.003760 -0.002255
Korkmas -0.002938 0.002181 -0.003990 -0.003864 0.004832 -0.001956 0.004027 -0.001428 -0.004404 -0.000226 0.004350 0.002552 -0.001223 0.001722 -0.001905 0.000448 0.000342 0.002720 0.002709 -0.002390 0.002135 -0.001902 0.000845 -0.003652 -0.000620 0.003680 -0.003987 0.000670 0.000164 0.001999 -0.001711 0.001212 -0.003996 0.000030 -0.003900 -0.001186 0.000050 -0.002646 -0.000443 0.002704 -0.001699 0.000748 0.002953 -0.002886 0.004649 0.000537 -0.000770 0.002734 -0.002012 0.001463 -0.004109 0.001772 -0.001696 0.004465 0.002787 0.004484 -0.001301 -0.004058 0.004815 0.004034 0.001358 0.002298 0.003792 0.002349 -0.003401 0.003246 0.001115 0.001751 -0.002361 -0.001461 -0.000568 -0.002536 0.004518 -0.004347 0.000605 -0.003766 -0.004954 0.001120 -0.002218 -0.002406 0.001574 -0.004062 -0.003140 0.003906 -0.003045 -0.004577 -0.002319 -0.003968 0.004510 0.001618 -0.002815 0.002163 0.002230 0.003724 0.004955 -0.003143 -0.002852 -0.003011 -0.003962 0.001389
Corp. 0.003280 0.002502 -0.002726 0.002020 -0.003596 -0.004811 -0.004092 -0.004548 -0.003782 -0.002859 -0.000088 -0.001058 0.000633 -0.000610 -0.000067 0.003458 -0.000710 0.002108 -0.001365 -0.002211 0.001007 -0.001262 -0.001458 0.003612 0.002098 -0.000510 0.002361 0.004481 0.003297 -0.001300 0.001171 -0.002952 -0.001520 -0.004981 -0.000371 -0.003956 0.003090 -0.001885 0.000571 0.002607 0.001140 -0.003241 0.002999 0.000328 0.001130 0.002120 -0.002054 -0.004648 0.003872 -0.003376 -0.003808 -0.000404 0.003030 -0.004678 -0.004984 -0.004244 -0.000002 -0.003483 -0.000838 0.001593 0.003965 -0.000075 0.004884 0.004316 -0.003954 0.000395 -0.000667 0.001147 0.003080 -0.004052 0.000313 0.004729 -0.004032 0.003179 0.002144 0.003798 0.003708 -0.004829 -0.004151 -0.003765 -0.003310 0.001269 0.003610 -0.002296 -0.001317 0.003676 -0.002642 0.003965 -0.003908 0.003345 -0.003231 0.000565 -0.004455 0.003605 -0.000541 0.004396 -0.003625 -0.002915 -0.003038 0.003552
Enron 0.004549 -0.000760 0.004643 -0.004850 0.004820 -0.000186 -0.004797 -0.000172 -0.003949 0.003035 -0.002883 0.004945 -0.002994 0.003256 0.001751 -0.001782 0.001970 -0.000527 0.003943 0.003298 -0.000492 0.003470 -0.001158 -0.002138 0.001750 -0.003095 0.003976 -0.003213 0.002806 -0.003463 -0.001926 -0.004400 -0.003528 0.004320 -0.000851 0.003119 -0.004820 0.004015 0.001041 -0.004951 0.004635 -0.003465 0.004466 -0.002708 0.003662 -0.001375 -0.000186 0.003971 0.002797 0.003853 -0.004472 0.003508 0.003899 0.004027 -0.000327 0.003501 0.003483 -0.000214 0.000615 0.001964 0.001737 0.000566 -0.001003 0.002526 -0.001675 -0.004084 -0.000643 0.003470 -0.002201 -0.004714 -0.001887 0.000572 0.002553 -0.000509 -0.002345 -0.002352 -0.003211 0.004503 0.001267 0.000655 -0.004499 -0.004812 -0.002510 -0.003280 -0.004215 0.004704 -0.004654 -0.004491 -0.004561 0.002294 0.002289 0.002777 -0.004477 -0.001527 0.002968 0.000651 0.000493 0.004853 -0.003738 -0.002561
Room -0.004499 0.001057 0.002345 -0.002752 0.004935 0.002127 -0.002710 -0.000300 0.003823 -0.003834 -0.004655 0.001267 0.001916 0.000370 0.003448 -0.004741 0.001498 0.004578 0.002955 -0.001719 0.000417 0.001981 0.001533 -0.001970 -0.000074 0.000030 0.002679 0.001437 -0.000884 -0.000249 0.001839 0.002526 0.003202 0.001555 -0.004251 -0.001570 0.002318 -0.001647 -0.003166 0.001002 0.004650 0.004929 0.001525 0.004334 0.003943 0.000270 -0.002029 0.003154 0.001720 -0.003545 0.000985 -0.000494 -0.003424 0.002474 -0.004102 0.000547 -0.000859 -0.001435 0.002695 -0.002417 0.003604 -0.002579 0.002018 0.002562 0.002377 0.002810 -0.004792 0.004759 0.001421 0.001226 -0.001571 0.002573 0.001176 0.004063 0.001059 -0.000666 0.000656 -0.001859 0.004267 -0.004690 -0.001834 -0.004734 0.003842 0.003303 -0.000292 0.003576 0.003245 -0.000003 -0.000995 0.002482 0.000195 0.001441 0.004042 -0.000996 0.001109 0.001156 -0.003538 -0.003748 0.003276 -0.003522
3819 0.000955 -0.004979 0.004747 -0.001029 0.001636 0.001022 -0.003854 0.004035 -0.000279 -0.000708 0.002204 -0.002854 0.004439 0.004615 0.001022 0.000542 0.004069 -0.003062 0.003366 -0.004201 0.000601 -0.003357 0.004061 -0.000048 -0.002984 0.002305 -0.003756 0.000764 -0.001836 -0.002603 0.001666 0.000824 0.000087 0.002727 0.002921 -0.000610 0.001502 -0.002811 -0.003640 0.000977 0.002040 -0.000675 -0.001517 0.004276 -0.002628 0.004811 0.003874 -0.004213 0.004402 0.002387 0.001511 -0.000798 0.004417 0.003867 0.000971 -0.001237 0.001984 0.002113 -0.003597 0.000381 -0.001478 -0.002573 0.004648 -0.003960 -0.003067 0.004028 -0.003058 0.002146 0.001459 0.001663 -0.001841 -0.001078 0.003520 -0.004130 0.002735 -0.001567 0.003439 0.002903 0.004445 -0.004948 0.004473 -0.004828 -0.000662 -0.004949 0.002618 -0.004893 0.000229 -0.002839 -0.002351 0.001373 0.001556 -0.001175 0.004633 -0.001473 0.003476 -0.003238 0.001893 -0.003080 0.000051 0.000551
Dept 0.001729 -0.001362 -0.004305 0.000577 0.001473 0.000393 0.002716 0.003701 -0.000530 0.002834 0.001664 0.003060 0.000865 0.004344 0.003156 0.004694 -0.003105 -0.002768 -0.000982 -0.000795 0.002407 0.001859 -0.000253 0.001418 -0.002855 0.003695 -0.001500 0.004873 0.000066 -0.002156 -0.003948 0.001207 0.001942 0.002408 0.003791 0.003702 -0.004892 0.004341 0.002649 -0.000055 -0.001632 -0.002715 -0.004209 -0.002632 0.004268 -0.004959 0.001678 0.000453 0.000977 -0.002238 -0.002373 -0.001158 0.002586 -0.004505 0.004675 0.000440 -0.000066 -0.001461 0.003935 -0.000997 -0.003276 -0.002288 0.003448 -0.001540 0.004371 0.000224 0.004629 -0.004291 -0.003514 -0.002975 -0.004468 0.001440 -0.000087 -0.002596 -0.002213 -0.000036 0.003045 -0.002122 -0.001248 -0.002035 0.004077 0.002244 0.002684 0.001053 0.002788 -0.004475 -0.002793 0.002228 -0.002094 0.001593 0.001852 -0.004156 0.003180 0.004246 0.004504 0.004446 -0.003266 -0.000508 0.003087 -0.003736
EWS 0.004079 0.001249 0.002100 -0.003287 -0.001277 0.000575 -0.004692 0.002171 -0.000883 -0.000635 -0.004428 0.002999 -0.000434 -0.000560 -0.004930 0.000404 0.003879 0.001434 0.002547 0.002359 0.001201 0.002465 0.002592 0.000300 0.004753 0.001663 0.003355 0.000796 0.002851 0.000832 -0.004590 0.002069 0.002548 0.001439 -0.003176 0.004827 -0.000902 -0.003371 -0.002540 -0.004611 -0.002786 -0.000759 -0.000091 0.004526 -0.002440 0.000163 0.002103 -0.004756 0.001413 0.004034 0.002227 -0.002176 0.001773 0.004201 -0.004640 0.001716 -0.003158 -0.001792 -0.003605 0.002318 -0.002413 -0.000569 0.002966 -0.003014 -0.001481 0.003902 0.000787 0.001637 0.003397 0.000752 0.000582 -0.002569 -0.002539 0.000795 -0.003972 0.000898 -0.001322 -0.003700 0.002597 -0.001202 -0.001158 -0.002933 0.003524 -0.002313 0.002737 0.002870 0.003079 0.001294 0.000403 0.001106 -0.003342 0.001084 -0.001927 0.000787 -0.004613 0.004195 0.001582 0.002532 0.003065 0.002110
below -0.000703 -0.004189 0.001007 -0.003483 0.003792 -0.001270 -0.003515 -0.004172 0.000191 0.002313 -0.001273 0.001814 0.000537 -0.004680 0.001792 0.004564 0.004626 -0.004639 0.004069 -0.003587 0.001283 0.000510 0.003494 0.004530 -0.002261 0.003839 0.000422 -0.001296 0.001098 0.003504 -0.003711 0.000730 0.004216 -0.000364 0.001189 0.000081 -0.000818 0.000329 0.000868 0.004820 0.004427 -0.001113 -0.002920 -0.003326 -0.004932 -0.003890 -0.003918 -0.004146 0.000674 -0.001821 0.001750 0.001879 -0.000022 -0.001460 -0.003965 -0.000306 0.004363 -0.001475 -0.000732 -0.000401 0.004246 0.002946 0.003763 -0.002939 -0.002025 0.004205 -0.000363 -0.000651 0.004049 -0.004565 0.001444 0.003299 -0.003082 -0.002118 0.003864 -0.002722 0.003736 0.001763 -0.000693 0.001271 0.003395 0.004002 -0.001364 -0.001081 0.004053 -0.003925 -0.001699 0.002295 -0.001069 -0.003135 0.003075 -0.001331 0.002000 0.004077 0.003254 0.002836 -0.003261 -0.004892 -0.001800 -0.003209
Houston -0.001273 -0.001048 -0.001129 0.001913 -0.003434 -0.004370 -0.003990 -0.004901 -0.001786 -0.004124 -0.004198 0.003768 -0.002526 -0.000229 -0.000178 -0.000061 0.004338 0.002031 -0.000984 0.000397 -0.002810 0.001368 0.001880 -0.003848 -0.003073 0.001859 0.004302 0.002422 0.003355 0.003156 -0.004758 -0.002644 0.002124 0.001675 -0.001217 0.003721 -0.001607 0.001605 0.000864 0.004676 0.004372 -0.000004 0.002619 -0.001976 0.001733 -0.000273 -0.001456 -0.003974 -0.000131 -0.001394 -0.003365 -0.000604 -0.002043 0.000982 0.000117 -0.002287 0.002276 0.004359 0.004642 0.002089 -0.002472 0.004876 0.003230 -0.000780 0.002480 0.000076 -0.002149 0.001851 -0.003446 0.003565 0.000747 -0.000608 0.002987 0.003647 -0.001704 0.002846 0.001368 0.002884 0.004399 -0.004918 -0.000046 0.001253 0.004459 0.003239 0.002603 0.001671 0.002451 0.002844 -0.004679 -0.004866 -0.001895 0.000169 -0.000323 -0.004331 0.000443 -0.002013 -0.001865 0.000497 -0.003655 -0.003608
1400 0.002400 0.003001 -0.001471 0.000859 0.000062 -0.000971 0.001344 -0.003612 -0.004214 0.000252 0.002178 -0.000252 0.001846 -0.002819 -0.002891 0.004333 -0.000189 0.001265 -0.001192 -0.000925 -0.000882 0.000368 -0.001336 0.000603 0.004126 -0.001128 0.001281 -0.003435 -0.003676 0.004370 0.002465 -0.001065 -0.001288 -0.001441 0.003328 -0.003450 -0.001761 -0.002043 0.004793 0.002432 0.000876 0.004685 0.003668 -0.003615 -0.000631 -0.002728 0.003925 0.003300 -0.002454 -0.004837 0.003382 -0.004813 -0.003085 -0.004689 -0.002570 0.002825 0.004412 -0.004381 0.001376 0.004156 0.002682 0.002633 0.000607 -0.002689 -0.000520 0.003051 0.003440 0.001915 0.003121 0.003871 0.004443 -0.002260 0.001199 0.003632 -0.000274 -0.002520 0.000807 -0.000433 -0.003192 0.002420 -0.004700 0.002951 -0.000940 0.000236 0.004501 -0.001304 0.000675 0.000167 -0.002015 -0.001368 -0.003419 0.004881 -0.002615 0.002061 0.002512 0.003336 -0.000307 -0.001744 0.003895 0.003268
See -0.000846 -0.004684 0.003263 -0.000397 0.000084 0.003722 -0.004733 -0.004837 -0.001815 0.001734 -0.001616 -0.001855 -0.000797 0.004664 -0.001384 -0.000808 0.004879 0.001636 0.001829 0.003284 -0.000286 0.002640 0.000934 0.000015 -0.003433 0.002802 -0.003857 -0.003210 0.004527 -0.000762 0.002509 0.004933 0.002578 -0.001120 0.003140 -0.000495 -0.001333 -0.004427 0.003736 0.002124 0.001389 -0.003603 0.002724 -0.002947 0.002255 0.000394 0.001919 -0.002182 -0.004222 -0.002314 0.001603 -0.001873 0.002183 -0.002600 -0.002512 0.003097 -0.003337 -0.004043 0.002901 0.003470 -0.004748 -0.003876 -0.003997 -0.002586 -0.004262 0.000270 -0.000787 -0.001074 -0.003881 0.001767 0.000994 0.003403 -0.004793 -0.003789 0.003593 -0.001955 0.002419 0.000990 0.002237 -0.004911 0.000679 -0.000766 -0.000549 -0.000868 0.004939 -0.001631 -0.004841 0.002671 -0.001161 0.003914 0.001889 -0.001589 0.001135 0.002574 0.004218 -0.002427 0.002805 -0.000483 -0.000306 0.001341
Street -0.002959 0.002930 0.000974 -0.004711 0.000986 0.000140 0.000985 -0.004692 0.001898 -0.000582 -0.003219 -0.003248 -0.002629 -0.001086 -0.004909 0.000217 0.002272 -0.003740 0.000278 0.003318 -0.002479 -0.004730 -0.000655 0.002298 0.003625 0.000846 -0.003158 0.002782 -0.004691 0.000167 -0.001859 -0.002149 -0.001835 -0.003946 -0.001720 0.002106 -0.001676 -0.004108 0.004124 -0.000843 -0.002815 0.003075 0.004176 0.001929 -0.004291 -0.002329 -0.001617 0.000955 -0.003124 0.003564 -0.001642 -0.002609 -0.003024 0.002717 0.004851 0.000542 0.004152 0.001117 0.000459 -0.004287 0.000733 0.004580 -0.004499 0.001891 -0.001884 -0.000428 0.003617 0.003046 -0.003275 -0.000707 -0.002907 0.001856 -0.003749 -0.003123 0.000968 -0.002704 0.003203 0.000515 0.002562 0.003878 -0.002488 -0.003093 0.002162 -0.003731 -0.004058 -0.001066 0.004603 0.000241 0.002593 -0.002031 0.003129 -0.002978 -0.004962 -0.000325 -0.001287 -0.000276 0.002482 0.004593 -0.002452 0.001260
