44 100
, -0.001443 0.004665 0.000114 -0.001300 0.004243 0.003360 0.003985 -0.000714 0.001996 -0.002088 -0.002659 -0.001103 0.002424 -0.004945 0.003001 -0.004698 -0.001697 0.003921 -0.001625 0.001874 -0.002244 0.003557 0.001680 -0.001277 0.000976 -0.001865 -0.001274 -0.002742 0.001679 0.004885 0.001798 0.004890 -0.000972 0.004783 0.003015 0.003132 0.004031 -0.001111 0.003323 -0.004114 0.003843 0.000332 0.001604 0.001895 0.004887 -0.003734 0.002682 -0.000734 -0.000931 -0.003882 -0.004679 -0.000036 0.002729 0.003268 -0.002720 -0.000870 -0.000342 0.002644 0.001467 -0.001597 -0.000720 -0.001494 -0.004445 -0.004058 -0.002265 -0.004425 -0.001998 -0.002398 -0.000452 -0.000441 -0.003586 0.000486 -0.001813 -0.000882 -0.003350 0.000565 -0.000823 -0.004786 -0.000025 0.002338 0.003393 -0.003690 -0.004093 -0.002180 -0.001218 -0.004706 0.002678 -0.004699 -0.002290 -0.002685 -0.003830 -0.002869 -0.000505 -0.004754 0.002494 -0.001065 0.003488 -0.001941 0.001380 -0.004580
to -0.000471 0.004744 -0.002618 -0.004694 -0.004956 0.004800 0.003424 -0.004163 -0.000007 -0.000250 -0.004229 -0.000470 0.004221 -0.004766 0.003993 0.003585 0.001319 -0.002477 -0.000762 0.000758 -0.003885 -0.004098 0.003558 0.001209 -0.000986 -0.002578 -0.001466 0.003081 -0.000439 -0.002946 0.000725 0.003296 0.000218 -0.002489 -0.003840 0.002880 -0.003562 0.000656 0.004074 -0.002740 0.001325 -0.002528 -0.004047 -0.004202 -0.001572 -0.001552 -0.002517 -0.003178 -0.001507 -0.002364 0.001242 -0.004814 -0.002917 -0.004301 0.003797 -0.000017 -0.004311 0.001782 -0.000037 0.003065 -0.004097 -0.003109 0.004645 0.002787 -0.001934 -0.002404 -0.000584 -0.002971 0.003630 0.003888 -0.004439 -0.001300 -0.003668 0.003614 -0.000627 0.001476 0.002295 0.003425 -0.002646 0.001852 0.000984 -0.002674 -0.001048 -0.002238 -0.001219 0.003388 -0.000768 -0.003847 -0.001379 -0.004035 -0.004949 0.000528 0.001913 -0.000392 -0.001855 -0.000727 -0.003700 0.002202 -0.001184 0.000028
is 0.000522 0.001005 0.003499 0.001989 0.000021 -0.002861 -0.004606 0.004180 0.001327 -0.001129 -0.001809 0.002188 -0.004529 -0.001024 0.000038 -0.000364 0.000343 -0.000286 -0.004804 -0.002352 0.000145 0.000499 -0.004557 0.002225 0.001997 -0.004128 0.004330 0.002147 -0.005017 0.000756 -0.004160 0.003587 0.004463 -0.003041 0.002826 0.001887 -0.004112 -0.001481 0.003331 0.002572 0.000777 -0.000054 0.001750 0.004392 -0.000431 -0.003402 -0.000884 0.002046 0.003476 -0.004467 0.002810 0.000606 -0.000505 -0.004866 0.000963 -0.002153 -0.003099 0.002831 -0.003912 0.004300 -0.003225 0.002153 0.000426 0.002764 0.002722 -0.004408 0.003894 0.001659 -0.002050 0.000924 0.004201 0.002602 0.000588 -0.001137 -0.004439 0.001171 -0.001992 -0.000817 0.003870 -0.004974 0.000419 -0.001396 -0.002497 -0.002567 -0.003872 -0.004809 -0.001232 0.003049 0.001417 -0.002319 0.000831 -0.003575 -0.003284 -0.003971 -0.000112 0.002332 0.000975 0.000546 -0.003013 0.002714
from 0.003257 0.002111 0.001555 -0.000878 -0.004880 0.001178 -0.002106 0.001973 -0.002107 0.002595 0.000187 -0.003069 0.002163 0.002463 0.003528 0.004457 0.002247 0.004021 -0.004692 -0.004056 0.003764 0.004322 0.000377 0.002403 -0.002146 -0.000998 -0.000619 -0.003147 -0.004959 -0.002599 -0.002149 0.002876 -0.001796 0.004613 0.002964 0.000689 -0.000195 0.004773 0.002565 0.004836 0.000655 -0.001581 -0.004217 -0.004117 -0.001648 -0.004283 -0.002480 0.003232 -0.001835 -0.002466 -0.002063 0.002021 0.002691 -0.001153 0.003427 -0.000557 0.003467 0.000422 -0.003417 -0.003927 0.002410 0.002575 0.002430 -0.004859 0.000302 0.001202 -0.004675 -0.003773 0.000151 0.001846 -0.002805 -0.002892 -0.003209 0.004343 -0.001154 0.000872 -0.000619 0.003336 -0.002948 0.004391 0.002969 0.004327 0.000742 0.003573 0.001493 -0.003200 -0.003419 0.001648 -0.002248 0.000590 -0.001558 -0.002592 -0.001583 0.000372 -0.004766 0.003688 -0.000049 0.000560 0.002434 0.002089
-- 0.003620 -0.001604 -0.000340 -0.004045 -0.003210 0.000000 0.004659 0.002612 -0.003366 -0.001702 0.004484 0.001396 -0.001697 0.004599 0.000291 -0.002913 0.003335 -0.003692 0.003840 0.001764 -0.003119 0.003596 0.001452 -0.001416 -0.004671 0.001829 -0.000226 -0.001541 -0.002287 -0.000979 -0.004498 -0.000068 0.001099 0.000328 -0.004865 0.000779 0.004812 0.000809 0.002060 -0.004643 -0.002734 -0.000695 -0.002246 -0.001434 -0.003790 0.003482 -0.000286 -0.002081 -0.004827 0.003710 0.000496 0.001033 0.001743 0.000988 -0.004756 0.001096 0.004243 -0.001230 0.003831 -0.004086 0.004109 -0.004463 0.000736 -0.003344 -0.001079 0.003806 0.002067 0.000940 0.002318 -0.000222 0.002785 0.004666 0.001587 -0.000292 -0.000829 0.003718 0.001422 -0.001036 -0.004770 -0.002376 0.002438 -0.004594 0.004204 0.001768 -0.000563 -0.001648 -0.002144 -0.000005 0.001518 -0.003790 0.000995 -0.000246 -0.003804 0.002970 0.000049 -0.002961 0.001402 0.001076 -0.000573 0.004719
What 0.004451 0.000759 -0.001739 0.003883 -0.001787 0.003971 0.004395 -0.003017 0.001937 0.003942 -0.004922 0.002881 -0.003693 0.004595 0.004030 0.002286 0.004278 0.000600 -0.000594 0.002005 0.000558 -0.004316 0.000238 0.003955 -0.000617 -0.000139 -0.004149 -0.004354 0.004871 -0.001384 0.002890 -0.003880 -0.004956 0.004941 -0.001760 -0.001545 -0.002489 0.002975 -0.001658 0.002411 0.003506 0.002122 -0.001882 0.001859 -0.002552 0.000947 -0.004339 0.000127 -0.001932 0.004209 0.001069 -0.000799 -0.002016 0.000940 -0.002660 -0.000502 -0.001728 -0.002805 -0.003036 0.000270 -0.003815 0.002077 0.001652 0.001184 -0.004427 -0.000741 -0.003597 0.000235 0.001149 -0.002135 0.002862 -0.002245 -0.000111 -0.004155 -0.002034 -0.002482 0.004529 -0.004294 0.003934 -0.001103 0.001241 0.003023 -0.004903 0.000559 0.002972 -0.002469 0.001134 0.003136 0.001365 0.004341 0.004297 -0.002961 -0.000133 -0.002882 -0.004427 -0.001988 0.003766 -0.000415 0.003639 -0.004341
set -0.003202 0.000347 -0.001167 -0.004736 -0.000085 0.002626 -0.003582 0.000373 -0.002591 0.001183 0.004035 0.004749 0.000161 -0.001517 0.002643 0.000346 -0.002568 0.000020 -0.004837 0.002070 0.003382 -0.004284 -0.000568 0.004927 -0.001215 -0.000949 -0.000094 -0.002903 -0.002872 -0.002499 0.004614 -0.004705 -0.003680 0.000210 0.001295 0.004775 -0.002667 0.004237 0.003388 -0.001417 -0.003718 0.000595 0.000238 -0.003202 0.002028 -0.002964 -0.004676 -0.001180 -0.003251 -0.003716 -0.001302 0.001529 -0.004099 0.000120 -0.003334 0.004618 -0.004443 0.003736 0.003635 0.003642 0.002850 0.001905 -0.001512 -0.003306 -0.001014 0.000521 0.003281 -0.003229 -0.000140 -0.001969 -0.004471 -0.001611 0.000188 -0.001932 0.004247 0.001457 -0.003140 -0.003855 0.003512 0.002642 0.004315 0.004985 -0.000109 0.001212 -0.000297 -0.003653 -0.000455 0.000378 0.000146 -0.003760 -0.003538 -0.000678 0.000614 -0.004914 -0.003152 0.004938 0.004971 0.000955 -0.000058 -0.004432
Garred 0.004180 -0.001592 -0.002172 0.004823 0.002539 0.002235 0.004097 0.002302 0.003917 -0.002130 0.001930 0.001558 -0.003199 0.004512 0.000348 0.001987 -0.000723 0.003230 -0.001379 -0.001144 0.002965 -0.001848 0.003655 0.000178 -0.001525 0.003009 -0.004002 0.002610 0.001981 0.004110 0.004461 -0.004726 -0.004596 -0.002990 0.004088 -0.003325 -0.002385 -0.000356 0.004477 0.000000 0.003483 0.003078 0.004332 -0.001639 0.000130 -0.002489 0.002592 0.003350 0.004636 0.001428 -0.001008 0.002241 -0.001071 -0.001311 -0.002141 0.003836 -0.001783 -0.000524 -0.002771 -0.002281 -0.002091 -0.004411 -0.001130 -0.004951 0.004615 0.002058 -0.002334 0.001107 -0.001517 -0.002382 0.002507 0.001560 0.003990 -0.003619 -0.001991 0.000413 0.000524 0.002481 -0.002566 -0.004276 -0.004612 0.002559 -0.005006 0.001323 -0.000559 -0.002743 -0.001179 -0.001814 0.002567 0.003513 0.001445 -0.003423 0.003166 0.004533 -0.000918 0.000184 0.001743 0.000739 -0.003412 -0.000475
EOL -0.003826 0.002927 0.000402 0.002914 -0.001106 -0.004319 0.000158 0.003551 -0.000379 0.000470 -0.002196 0.001145 0.003261 0.002227 0.002842 0.004728 -0.002762 -0.000241 0.001153 -0.004833 -0.003373 0.001485 -0.003222 -0.000425 -0.001734 0.002265 -0.004882 -0.003618 0.000466 -0.002639 -0.004100 -0.001613 -0.002909 0.000291 0.002162 -0.000859 -0.002782 0.003516 0.004901 -0.002622 -0.002840 -0.002230 -0.003117 0.002682 0.004929 0.004594 0.001876 0.004859 -0.004764 -0.004447 -0.003324 -0.003058 0.000613 -0.002074 0.000306 -0.000130 0.001575 -0.000353 0.003503 -0.003396 -0.004691 -0.004775 0.002551 0.000923 0.002285 -0.000394 -0.000222 0.002142 -0.000228 0.000755 -0.000793 -0.001572 -0.000995 -0.000412 -0.002576 -0.001071 -0.004456 0.002400 -0.002970 0.003345 -0.002629 -0.002915 0.003221 -0.000140 0.003282 -0.001148 -0.000845 -0.003031 -0.004919 -0.000729 -0.002458 -0.004969 0.002848 0.000328 -0.002011 -0.003846 0.000643 -0.002106 -0.004152 -0.004775
in 0.003107 0.004418 0.002033 -0.001007 0.003388 0.002660 -0.004325 -0.004721 0.000228 0.004154 0.004848 -0.000612 0.000611 -0.003558 -0.001602 -0.003103 0.004078 0.001346 0.000467 0.003282 0.001107 0.004258 -0.002232 0.002124 -0.000046 -0.000812 0.000205 -0.000049 -0.003106 -0.001392 -0.000311 0.002126 -0.003660 -0.001925 0.003411 -0.002301 -0.003530 0.002688 -0.001318 -0.002466 0.001334 0.002160 0.004213 0.001772 -0.004914 0.001889 0.001374 -0.002089 -0.000750 0.003261 -0.003393 0.000143 -0.000200 0.001714 0.001652 0.001541 -0.000206 0.000570 0.000394 -0.003322 -0.004193 -0.004902 0.002042 -0.002740 0.000453 0.001113 -0.000963 0.004395 0.004567 0.002246 -0.001683 0.000875 -0.001690 0.002499 -0.004602 0.002128 -0.002886 0.002832 0.003821 -0.004901 -0.004846 0.002728 0.000557 0.003135 0.001812 0.003217 0.000977 0.000869 -0.004748 0.004758 0.002898 0.003216 -0.003903 -0.004902 0.001311 -0.003869 0.002419 0.004636 -0.000690 -0.004832
need 0.003483 0.001679 -0.000871 -0.001899 0.004614 -0.000551 -0.002817 -0.002713 -0.003910 0.002214 0.000522 0.003005 0.002969 0.002374 0.000772 -0.003063 -0.004701 0.004895 0.003055 -0.002336 -0.003602 -0.003456 -0.003809 -0.003540 -0.000158 -0.002904 0.000856 0.002918 -0.003464 0.002519 0.001902 0.002491 0.004186 0.002824 -0.003680 -0.003430 -0.002123 0.000213 0.002484 -0.002067 0.004100 -0.000348 -0.003222 0.002824 -0.002676 0.000444 -0.003781 -0.002127 0.001518 -0.002135 0.000899 0.000351 0.001593 0.001454 -0.003670 0.003058 0.002953 0.000259 -0.004929 -0.004972 0.001908 -0.000597 0.004536 0.002126 0.003625 -0.004684 0.003695 -0.001256 -0.002767 -0.002833 -0.003313 0.002369 0.001297 -0.003652 0.002593 -0.000933 -0.001725 -0.002044 -0.000301 0.001703 -0.001341 0.003173 -0.001794 0.001231 -0.004649 -0.003084 -0.001160 0.000760 -0.003676 -0.001101 -0.003549 -0.000144 0.002699 0.001934 0.001168 0.001953 0.000509 0.004729 0.001515 0.001665
our 0.000045 0.004428 0.003359 0.000430 -0.003630 -0.004184 0.004628 0.001884 -0.001801 0.001910 -0.004323 0.002554 0.000822 0.002282 -0.004558 -0.000024 -0.002329 -0.000840 0.003124 0.000910 -0.001146 -0.000449 0.001502 -0.002309 -0.002783 -0.002677 0.003933 0.003631 -0.000959 0.000434 0.000262 0.001895 -0.000258 -0.000144 0.002981 -0.001602 0.002376 0.002475 -0.000508 0.001416 0.003205 0.001443 -0.000185 0.002040 0.002799 -0.004100 0.001883 0.001859 0.003509 0.003294 0.003916 -0.002138 -0.003050 -0.000359 0.003092 0.002324 0.002914 -0.003459 -0.004925 0.000696 0.000144 0.002839 0.002856 0.004085 0.004102 -0.000173 -0.000564 -0.001382 0.002683 -0.003866 0.003113 -0.000115 -0.003909 0.002428 0.003113 -0.003733 0.001689 -0.002171 -0.000439 -0.001586 0.000800 -0.003803 -0.001468 -0.001351 -0.004442 0.001939 0.000700 -0.003499 -0.002362 0.002411 0.001620 0.001704 0.004107 0.003000 0.003389 -0.004262 0.002143 0.002362 0.004676 -0.001113
fine -0.001882 -0.003591 0.000653 -0.002483 -0.002791 -0.003640 0.002355 -0.004467 0.003579 -0.001592 -0.000087 0.001164 -0.001072 0.001455 -0.002974 0.004634 -0.000372 -0.001480 0.002114 -0.004836 -0.003409 -0.001861 0.004624 -0.003769 -0.001683 0.001913 -0.001881 0.003923 0.002749 0.004773 0.003635 -0.002454 -0.004916 0.002102 -0.002646 0.001218 0.004618 -0.000097 0.003660 -0.003911 -0.002066 0.004165 -0.000593 -0.004695 -0.003410 -0.004514 -0.000723 -0.000013 0.000007 0.001960 -0.004236 -0.003924 0.004925 -0.004810 0.001165 0.004929 0.001875 -0.004995 -0.004763 0.003425 0.003197 -0.001271 0.001494 -0.002670 -0.003542 0.004655 0.003443 0.003417 -0.001477 -0.002632 0.000285 -0.002241 0.003535 0.003972 0.001738 0.002758 0.004632 -0.000725 -0.004246 -0.002930 0.001171 -0.004531 -0.002215 -0.000312 0.002955 -0.004654 -0.002765 -0.000146 0.004556 -0.003460 0.002252 -0.000506 -0.004985 -0.002556 -0.004978 0.001279 0.001638 0.001334 0.002249 -0.003129
admin -0.003110 -0.004617 -0.003519 -0.002808 -0.004391 0.000774 0.002729 0.004553 -0.000893 -0.000996 -0.004971 0.003967 -0.000775 0.003541 -0.001616 -0.004466 0.003342 0.000223 -0.004377 -0.001268 0.001026 -0.001985 -0.003706 0.001140 -0.003475 -0.000318 0.001110 -0.002631 0.004047 -0.002911 0.001620 0.004498 -0.000201 -0.002469 -0.001842 0.002303 0.003845 -0.000090 0.004927 0.004256 -0.001680 0.004746 -0.000540 -0.000669 -0.002569 0.004012 0.000829 0.000003 -0.002783 0.003525 -0.003698 -0.000674 -0.003385 0.004665 0.002581 -0.000033 -0.003156 0.003044 -0.003574 0.003623 0.004205 0.003864 -0.000658 -0.000877 0.003435 -0.000305 0.000297 -0.004985 -0.000326 0.004520 0.001373 -0.001669 -0.004144 0.000411 -0.001113 0.002595 0.004423 -0.003256 0.003030 0.002975 -0.001103 0.002015 0.004476 0.003575 0.004360 0.004937 -0.002936 -0.002763 0.004091 0.003671 -0.002649 -0.000825 0.003921 -0.004568 -0.004313 -0.000040 -0.003383 0.002968 0.000525 -0.004383
Mike 0.004284 0.001547 -0.004905 -0.000606 -0.004845 -0.003032 0.002446 0.002962 -0.003877 0.001754 -0.004714 -0.003684 0.001143 -0.001368 0.004504 0.003987 0.000274 -0.001986 -0.001490 0.001507 -0.004364 -0.004583 0.004681 -0.002165 0.000684 0.000030 0.000763 -0.003997 0.004750 -0.002857 0.003597 -0.003590 0.001343 -0.000166 -0.001402 -0.004208 -0.000040 -0.004435 0.002609 0.004946 0.000928 -0.000552 -0.002878 -0.002215 -0.004014 -0.000883 -0.002334 -0.002195 0.002359 -0.003725 0.004327 -0.001973 -0.002706 0.003970 0.001103 0.001809 -0.004515 0.003266 0.003922 0.001059 0.002171 -0.001303 0.001817 0.004505 0.001244 0.003607 -0.000314 -0.002873 0.001508 -0.001075 -0.000694 -0.004187 0.003366 0.004628 0.002991 -0.004342 -0.000362 -0.000067 -0.004745 -0.003603 -0.002386 0.002012 -0.001647 0.001359 -0.001334 0.004913 -0.003743 0.004282 0.004457 0.001105 -0.002473 -0.004278 0.000819 -0.004204 0.004141 0.001157 0.001777 -0.001950 -0.003458 0.002965
for 0.001366 -0.004240 0.003149 0.002155 -0.001611 -0.001835 0.000907 0.001363 0.004963 0.002970 -0.001557 -0.004169 -0.001904 0.001146 -0.001220 -0.004265 -0.003349 0.001026 0.003687 -0.003486 -0.003423 0.000628 -0.001919 0.004261 -0.002712 -0.001073 -0.002147 0.001746 -0.004349 0.000599 0.004013 0.000534 -0.001502 0.000289 -0.001501 0.000773 0.004040 -0.004123 -0.002339 -0.003897 -0.002329 0.004464 -0.003857 0.002043 0.003070 -0.003804 -0.001962 -0.003634 -0.003275 0.003693 -0.004281 0.004280 -0.000332 0.003263 -0.003107 -0.000465 0.000969 0.001291 0.003921 -0.003104 0.001042 0.003178 0.001454 -0.000075 0.004335 0.003104 -0.001827 0.002479 0.004918 0.002080 -0.004213 0.002874 0.001288 0.004057 -0.002042 -0.001121 -0.000146 0.001512 -0.000769 -0.004964 0.004216 0.001076 0.000053 0.003439 0.001040 0.001486 -0.002568 0.003084 0.003229 -0.002739 0.002784 -0.003943 0.000955 -0.004834 0.000054 0.003191 0.004152 0.001660 -0.000660 0.004829
confirm -0.002215 0.002863 -0.001497 0.004593 0.001399 -0.001465 0.004306 0.002870 0.002947 -0.001136 -0.003021 -0.000288 -0.002213 -0.000429 0.002703 0.001508 0.001203 0.004191 -0.004401 0.004364 -0.001174 -0.002431 -0.001632 -0.004391 -0.002556 0.003309 -0.001470 -0.004068 -0.000813 -0.002780 0.002293 -0.004799 -0.002107 -0.000958 0.004718 0.002360 -0.001318 -0.004277 0.003612 0.002027 -0.001629 -0.004671 -0.001059 0.002937 0.002213 0.002404 -0.003680 0.000394 -0.002029 0.002842 -0.001175 -0.001094 0.002111 0.002666 0.003664 0.000701 -0.003446 0.004484 -0.002043 0.002122 -0.000760 -0.002524 -0.002246 0.002310 0.002278 -0.001160 0.000116 0.002470 -0.003315 -0.001318 0.001892 0.003869 -0.004556 -0.003715 0.002724 -0.000040 0.000900 -0.000649 -0.000224 -0.004247 -0.004733 0.004409 0.002484 0.002207 -0.002452 0.000096 0.001069 0.004879 0.003403 -0.003239 0.004037 -0.000425 0.000152 -0.000455 0.001049 0.000620 -0.001427 0.001260 0.004369 -0.002977
Company 0.000068 0.001624 0.002942 0.002471 -0.002929 0.001487 0.003450 0.001910 -0.000744 -0.000677 0.001629 -0.004749 -0.002262 0.004448 -0.002093 -0.000136 0.003602 -0.003473 0.002830 0.001124 0.004636 0.000857 -0.000853 0.001197 -0.003388 0.001200 -0.004135 -0.001695 -0.002089 -0.004657 0.004329 -0.000111 -0.001318 -0.003398 -0.000008 0.004451 0.003478 -0.001720 -0.002806 0.000681 0.001520 -0.000216 0.002909 -0.004067 -0.001698 0.003203 0.002146 -0.003761 0.004383 -0.002422 0.001998 0.001734 0.003746 -0.002102 0.003065 0.003049 -0.002835 0.001478 0.002284 0.001260 -0.000030 0.003268 -0.004899 0.002979 -0.003695 0.001259 0.001816 0.000927 0.002257 0.002746 -0.000004 -0.001760 -0.000721 0.004741 -0.003993 0.000973 0.000129 0.002716 -0.002704 0.001341 -0.000035 -0.003769 0.000423 0.002196 -0.004225 0.001101 0.004927 -0.000929 0.001975 0.002327 0.004439 0.003747 -0.004002 -0.000486 0.000482 0.000863 -0.003010 0.001002 0.003820 0.000410
that 0.001281 -0.003768 -0.004653 0.002214 0.004867 -0.002420 0.003556 0.000528 -0.004370 0.002015 0.002975 0.003591 -0.004117 -0.001377 -0.004218 -0.000246 0.003577 -0.004305 -0.002294 0.002575 -0.001649 0.002163 -0.001279 -0.001919 0.001789 -0.000987 0.001386 -0.000088 -0.000160 -0.000869 -0.001129 0.004254 0.004352 0.002149 -0.001560 -0.004202 0.001022 0.003672 0.003263 -0.001465 0.003996 -0.000511 0.002314 -0.000522 0.002319 0.003086 -0.004626 0.004022 0.004024 0.000088 0.004359 -0.003830 0.002662 -0.002489 0.004223 0.002215 -0.002620 -0.001738 -0.002806 -0.002479 0.001986 0.002450 0.001002 -0.000303 -0.000963 -0.000669 0.004311 -0.000405 -0.004521 -0.002142 -0.002185 0.004780 -0.002603 0.004083 -0.003094 0.001712 0.000723 -0.002395 0.001922 -0.002823 0.002897 -0.000619 0.003594 0.002401 -0.002470 -0.000498 0.000479 -0.001800 -0.001696 -0.003539 0.000996 0.000077 -0.001540 -0.003772 0.000357 0.000496 0.000045 0.000057 0.002658 0.001354
. -0.001636 0.003942 0.001142 -0.002717 -0.000226 -0.003242 -0.004043 0.001583 -0.003533 -0.004844 -0.002749 0.000856 0.002049 -0.000105 0.003093 0.001075 -0.002009 0.004990 0.003916 0.002838 0.000858 0.000175 -0.004557 -0.003324 0.003123 0.001653 -0.004614 0.003141 0.000618 0.003576 -0.000630 -0.001878 -0.004482 -0.000280 -0.000670 0.000029 -0.004118 0.003709 0.003315 -0.002062 0.002475 0.000888 -0.000198 0.003515 -0.000824 0.001904 0.001413 -0.004661 0.000466 0.002445 -0.002585 0.000898 0.004021 0.001066 0.002447 0.000597 0.001245 -0.000566 0.002229 0.004206 -0.003602 0.002402 -0.000814 0.004053 -0.003721 -0.001153 0.000871 -0.000596 0.004074 0.003990 0.002325 0.000795 0.003421 -0.004467 -0.003073 -0.000235 -0.003144 0.003747 0.004036 -0.004466 0.003877 0.000040 0.003321 0.001124 0.000673 0.002474 0.003229 -0.001703 0.002742 0.000318 -0.003029 -0.002432 -0.001561 -0.001920 -0.000473 0.001798 0.003489 0.000969 -0.002127 0.000064
does -0.003194 -0.003919 -0.003590 0.003061 -0.002118 0.002191 0.003536 0.001415 0.000459 -0.000895 0.003850 -0.000865 0.004000 0.000511 -0.001536 0.004803 0.001353 0.000246 0.000915 -0.000050 -0.004689 0.004260 -0.001064 -0.002955 0.000694 0.004431 -0.004711 -0.004637 0.002043 -0.000159 -0.001319 0.000679 -0.000654 0.000720 0.004037 -0.002424 -0.004458 -0.000027 -0.004330 -0.004995 -0.000246 -0.004452 0.004380 -0.000261 -0.004689 0.002574 -0.004393 0.000896 0.000964 -0.004092 -0.000845 -0.003219 -0.001439 -0.003684 0.003152 -0.001597 -0.004083 -0.000527 0.002508 0.000033 0.004856 -0.002852 0.004718 0.000416 0.003051 0.003413 0.003348 -0.001456 -0.002618 0.004689 -0.001112 -0.004603 -0.003709 -0.001894 0.002874 -0.000997 -0.002146 0.000838 -0.000760 0.004986 -0.004076 0.002888 -0.004646 0.003564 -0.004310 -0.001265 -0.001195 0.003230 -0.000151 -0.002206 0.003788 -0.003404 0.001369 0.001238 -0.002156 0.001919 -0.000490 0.003551 0.004282 -0.004725
call -0.003822 -0.000553 0.003487 -0.001825 0.003977 0.000319 -0.000686 0.001111 -0.003191 0.002311 0.000537 0.001880 0.000146 -0.004259 -0.000509 -0.000379 0.001800 0.000829 -0.001834 -0.001626 0.002665 0.002531 -0.001954 0.003693 -0.002417 -0.000219 0.000759 0.002183 0.000598 0.000563 0.000876 0.000708 -0.000889 0.004135 -0.004809 -0.001766 -0.001429 -0.001793 -0.000352 -0.004487 -0.002473 -0.003797 -0.002912 -0.002868 -0.004015 -0.000311 -0.002762 -0.004712 0.001053 0.000091 0.002690 0.002138 -0.002853 -0.004381 -0.001498 0.004891 0.001650 0.003954 -0.004480 -0.001774 -0.001637 -0.000412 0.000827 0.002030 -0.001033 0.002535 -0.000409 -0.004192 0.000766 0.004617 0.003009 0.003890 -0.000911 0.000110 -0.002801 -0.002065 0.004050 0.000026 -0.001350 0.001030 0.004783 0.002923 -0.002172 -0.004038 -0.004147 -0.001995 0.000357 -0.001429 0.004037 0.001304 0.001622 0.003858 -0.002571 -0.001460 0.002024 0.003889 0.001007 -0.002931 -0.001937 0.004321
wanting -0.002867 0.002741 0.000344 -0.004177 -0.002029 0.004490 -0.002740 0.004240 -0.000485 0.000018 0.003268 -0.000927 0.001774 -0.002542 -0.004148 -0.004720 0.001150 -0.003864 -0.000108 -0.001798 -0.003286 0.002236 0.004051 0.003658 -0.004742 -0.000116 0.001275 -0.004562 -0.002944 0.000300 0.002653 0.001599 0.004671 -0.000454 -0.001698 0.003274 0.000040 -0.002871 -0.003322 -0.000268 0.000242 0.000414 -0.003930 0.001666 0.001200 -0.004518 0.003377 -0.002064 -0.003094 -0.002527 -0.000517 0.003268 -0.002069 -0.004018 -0.003827 -0.004399 -0.004674 -0.002036 -0.002015 -0.004822 0.001681 -0.003065 -0.002339 0.004631 0.000170 -0.002187 -0.003874 0.002957 -0.000070 -0.000221 0.002029 -0.004871 0.001386 -0.000204 -0.004341 -0.001986 -0.001369 0.001955 0.002564 0.004278 -0.002697 0.000277 -0.004974 -0.001969 -0.004170 0.001808 0.004807 0.002713 0.000719 0.002340 -0.000227 0.000781 -0.001420 0.001851 -0.001640 0.001062 -0.004676 -0.004308 0.001307 0.003070
New 0.002939 0.002384 0.003433 0.000490 -0.001749 -0.001768 0.005001 0.003881 -0.000019 0.001716 -0.000795 0.002240 0.000789 0.003181 -0.004663 0.001392 -0.002821 0.001056 -0.004640 -0.001430 -0.000607 -0.003360 -0.000429 0.002412 0.003269 -0.001445 -0.000290 0.000648 -0.002790 0.002899 -0.004793 0.004145 0.001698 0.002372 0.004920 0.002819 -0.000071 -0.000718 -0.000657 -0.000103 0.000393 -0.000192 -0.001635 -0.000432 0.002486 0.004383 -0.002890 -0.004764 0.000464 -0.002700 -0.001707 0.000973 -0.004327 -0.003332 0.001360 -0.003425 0.003488 0.004311 -0.003257 -0.003927 0.003916 0.002582 -0.001307 0.001806 -0.003656 -0.003553 0.000389 -0.004982 0.003655 0.000579 0.001118 0.003461 -0.003434 -0.001932 -0.000863 0.002145 0.003207 -0.000152 -0.002850 -0.002685 -0.001069 0.000435 0.003927 0.003766 -0.000914 -0.001234 0.001538 -0.000961 -0.002648 0.003899 -0.004195 -0.001621 0.002640 0.003601 -0.004800 -0.004707 0.005018 -0.002288 0.000511 0.000626
? 0.001872 0.001634 0.004020 0.000336 -0.004491 0.003483 -0.001687 -0.003657 -0.001847 0.002780 -0.003438 -0.002420 -0.004460 -0.002100 0.003576 -0.003746 -0.002627 -0.000847 0.002021 -0.001023 0.000493 -0.004472 0.000160 0.003361 0.001801 -0.004881 -0.004949 0.000775 0.002500 0.001184 0.000889 -0.001745 -0.001280 -0.002155 -0.003284 0.002109 -0.002256 -0.003358 0.002616 0.003966 -0.000948 -0.003635 0.001924 -0.002401 -0.002519 -0.003985 0.002797 -0.001026 0.004764 0.001888 -0.002489 -0.002793 -0.003735 0.004730 0.002027 -0.001431 0.001946 -0.003605 0.001313 -0.001147 0.002173 -0.001185 0.001207 -0.003503 -0.001991 -0.001610 -0.002119 -0.001317 -0.002959 0.000703 -0.001545 -0.000112 0.001969 0.000513 -0.004802 0.003010 -0.000737 0.000470 -0.001228 0.003155 -0.000131 -0.002549 -0.002756 0.001776 -0.002185 0.000176 0.003880 -0.004663 0.001490 -0.003379 0.004863 0.003372 0.002276 0.001607 0.004824 -0.001688 -0.004461 -0.004336 -0.004587 -0.000300
Thanks -0.000933 -0.002260 -0.001525 -0.003993 -0.001112 0.002114 -0.004425 0.002241 -0.003585 0.003894 0.003533 -0.002290 -0.000465 -0.002551 0.001639 -0.000518 -0.001594 0.000573 -0.003961 0.002008 0.004250 0.002242 0.003794 0.000515 0.004781 0.002574 0.002013 0.002628 0.002167 -0.002568 -0.002161 0.002582 0.000495 0.000863 0.003366 0.000787 -0.000398 0.003861 0.004412 0.001876 0.001435 0.000428 0.003583 -0.004450 -0.004078 0.002308 -0.002353 -0.004177 -0.004095 0.004609 -0.001013 0.004891 0.000627 0.003163 0.002763 -0.001955 0.001636 -0.002338 0.003965 0.000875 0.001654 0.003943 0.002237 -0.004137 0.001409 0.000707 0.003327 -0.004627 -0.004083 -0.004634 0.004834 0.001662 0.002106 -0.002613 -0.002564 -0.003609 -0.004650 -0.001716 -0.000283 -0.002704 0.001271 0.003849 0.004685 0.004668 -0.000654 0.000279 0.001054 -0.004075 0.001545 -0.001451 0.001018 -0.002774 0.000371 -0.000998 -0.000649 0.002262 0.000840 -0.002750 -0.000382 -0.004504
do 0.002265 0.003307 -0.004694 -0.002463 -0.002237 0.003823 -0.001001 0.000338 -0.000647 0.003877 -0.003218 0.002143 -0.002771 -0.003424 0.001911 -0.002983 0.004263 -0.000903 -0.004553 -0.001239 0.002934 -0.003900 -0.003030 -0.003151 -0.002068 0.001609 0.001829 0.002403 0.000107 -0.000195 0.003648 -0.000219 0.004255 -0.002698 0.000338 0.001341 0.003243 -0.004865 0.004323 -0.003653 -0.002896 0.002095 0.002678 -0.003067 -0.003286 -0.004905 -0.000292 -0.002089 0.002846 -0.001513 0.003412 -0.003541 0.004271 0.000484 -0.000837 0.002476 -0.002327 -0.003040 -0.003921 0.003758 0.002742 -0.003364 0.001898 0.003337 -0.004724 0.001469 -0.004824 -0.004930 0.003866 0.002848 -0.001995 -0.003487 0.000581 -0.000199 -0.004569 0.002390 0.002528 0.003094 -0.003618 0.003163 0.002053 0.000265 -0.003400 0.000484 -0.001292 -0.000493 -0.003825 0.000642 -0.002043 -0.002027 -0.002887 -0.001740 0.002517 0.002990 -0.003150 0.003471 0.002733 0.001553 -0.000020 -0.000289
his 0.002008 -0.003600 0.004811 -0.003801 0.002899 0.003461 -0.001889 0.003808 0.002718 -0.001663 0.004920 0.001415 -0.004370 -0.003553 0.003455 -0.003731 -0.003319 0.002818 0.001488 0.003019 -0.004954 0.002115 -0.003545 -0.003919 0.000648 0.000242 0.001960 -0.004773 -0.002628 0.003076 -0.001797 0.004390 -0.000611 -0.004847 -0.001082 -0.002147 -0.003998 0.001682 -0.002828 -0.004208 -0.003650 -0.000370 0.000965 0.001503 -0.004558 -0.003545 -0.003167 0.001445 -0.002976 -0.003438 0.001198 0.001271 -0.002739 -0.004552 -0.000775 0.004701 0.004925 -0.004532 -0.002507 -0.001007 -0.000887 -0.002392 -0.004199 -0.001508 0.001651 0.004999 -0.004523 -0.001291 -0.000077 0.002972 -0.001101 0.002062 -0.002126 -0.002737 -0.001496 0.003288 -0.003259 -0.002099 0.000025 0.001890 0.004551 -0.000345 0.004423 0.000053 -0.004921 0.000826 -0.003647 -0.000728 0.001316 -0.000543 0.003476 -0.003460 0.000379 0.004806 -0.002462 0.000993 0.000076 0.000883 -0.001949 -0.003926
get 0.002104 0.001827 -0.001891 0.000927 0.001479 -0.001979 -0.002434 0.000066 0.004196 0.001315 0.002591 0.000099 -0.002539 -0.002495 -0.000664 0.001318 0.001097 -0.001729 0.003822 -0.003779 0.002567 -0.003363 -0.003447 0.003721 0.004919 -0.004477 0.003270 0.004084 0.000486 -0.002478 -0.004577 0.000136 0.003068 -0.000311 0.000115 0.001773 -0.000560 -0.004594 0.001965 -0.004510 0.002064 -0.004618 0.001333 -0.001030 0.003627 -0.001028 0.004213 -0.002562 -0.004918 0.002030 -0.001307 -0.004269 -0.004242 -0.001555 0.000502 0.000682 0.000465 -0.002537 -0.000431 0.004262 0.004829 0.004737 0.002470 -0.002165 0.003545 -0.000997 0.003135 0.004688 0.002521 0.001271 -0.002587 0.001698 0.004773 -0.000838 -0.003202 0.000166 -0.004876 -0.003252 0.004835 0.004548 0.003706 -0.003109 0.002320 0.002157 0.001964 0.001579 0.000923 -0.000911 0.002592 0.000082 -0.004819 -0.002159 -0.002274 -0.002765 0.003415 0.004383 -0.003614 -0.004430 -0.004640 -0.004149
I -0.004327 0.003337 -0.000112 -0.001200 -0.001462 0.001110 -0.002966 0.003889 0.002104 -0.000959 0.001582 -0.001642 0.000309 0.002062 -0.000959 0.002255 -0.003587 -0.004853 0.001648 -0.004222 0.003860 0.002874 0.003288 0.001641 0.004871 0.003480 0.000125 -0.003165 -0.003510 0.003243 -0.004566 0.001497 -0.003339 -0.001415 0.001148 0.003917 -0.003006 -0.001373 0.004152 -0.002450 0.001952 -0.001501 -0.001812 0.001034 -0.003563 0.004281 0.004592 0.002417 0.003163 0.002303 0.004610 -0.002373 -0.002396 0.000398 0.000594 0.003898 -0.003864 0.000403 0.002675 -0.003066 -0.000138 0.003162 0.004355 -0.002227 -0.001091 0.001816 0.002879 0.002739 0.004418 0.001401 -0.000237 -0.002492 -0.002249 0.001103 0.002405 0.001629 -0.003098 -0.002976 -0.002417 0.003538 -0.002426 0.003332 -0.004849 -0.003246 0.003518 0.003128 0.001468 0.002785 -0.001914 -0.002482 -0.004102 0.001998 0.002151 0.003387 -0.003595 -0.003583 0.003156 0.003016 -0.001790 -0.004719
company 0.002468 0.000646 -0.001287 0.004588 0.002495 -0.002948 0.003312 -0.004915 -0.002716 0.001896 -0.003605 -0.004904 -0.002227 0.004444 0.000155 0.002576 -0.004464 -0.004905 0.001466 -0.000295 -0.001917 0.003894 -0.002656 0.004160 -0.004826 0.000011 -0.002399 -0.004947 -0.000711 -0.002919 -0.003479 0.004613 0.002305 -0.004353 -0.003119 -0.001932 0.002138 -0.000440 -0.000850 0.002510 0.003250 -0.001203 0.004748 0.000214 0.000222 0.001365 -0.002817 0.003803 0.000776 -0.000060 -0.002012 -0.000200 0.000458 -0.000834 0.004364 0.003495 0.003102 -0.002001 0.000918 0.001556 0.000487 -0.003228 0.004011 0.001003 0.002470 -0.000304 0.002344 -0.002806 -0.002190 0.003144 0.002602 -0.003853 0.001511 0.004246 0.000985 0.003190 0.003420 -0.003841 -0.003362 -0.002837 -0.001612 -0.004504 0.003407 0.000365 -0.003088 0.003700 -0.004787 0.001195 0.002597 -0.002340 -0.002419 0.002402 0.002850 -0.001103 -0.001205 0.000822 0.003694 0.004899 -0.000543 0.003493
properly 0.000403 0.001795 0.004410 -0.002058 -0.002749 -0.003756 -0.003924 0.003709 -0.000816 0.003187 -0.002765 0.002290 -0.004737 0.002645 0.002628 0.000753 0.001288 -0.004708 -0.000664 0.003876 0.000732 0.000525 0.004641 0.004984 -0.000629 0.004648 0.000155 0.004555 -0.004684 0.002300 0.001253 -0.003593 -0.001324 0.001587 0.002145 -0.003882 0.000948 -0.004496 0.001660 0.003441 -0.004267 -0.001960 0.000684 -0.004666 0.004404 0.000086 0.003353 0.002705 -0.002668 -0.002846 -0.001840 0.001839 -0.003520 0.004847 0.004430 -0.003227 -0.003591 -0.003610 -0.002673 0.002101 0.000500 0.003195 0.000699 -0.004064 0.000694 -0.002850 -0.004354 -0.003139 0.003561 0.001884 -0.000274 0.004997 -0.000391 -0.004919 -0.004592 -0.001207 0.003075 -0.004729 0.000156 0.000529 0.001583 -0.002491 -0.000341 -0.002002 -0.004143 -0.002370 -0.004827 0.001259 0.003313 0.000705 -0.002836 -0.002114 0.001317 -0.000875 -0.001903 -0.002575 -0.002580 -0.004889 0.003182 0.002902
a 0.000593 -0.001160 0.001326 0.001877 -0.002723 -0.004641 -0.002385 -0.001810 0.003536 0.003552 -0.000681 0.000359 -0.001848 0.001753 0.003709 0.001167 0.002084 0.004028 0.003304 0.000020 -0.002176 0.004840 0.002273 0.003747 0.000437 -0.001154 0.001626 -0.004090 0.004454 0.002753 -0.003072 0.000460 -0.001736 -0.002197 -0.004841 -0.000715 -0.001618 0.002013 0.001399 -0.001840 0.000908 0.002009 -0.003874 0.004945 -0.002000 0.000777 0.000515 0.000936 0.003730 0.000560 0.000132 -0.001621 0.000794 -0.003653 0.001668 0.002762 0.001605 -0.003101 0.003618 -0.001106 -0.002928 0.002343 0.003187 -0.002762 0.001634 0.001479 -0.002419 0.000708 -0.001210 -0.001525 -0.000234 -0.002089 -0.003297 0.000142 -0.002549 0.004589 0.001812 0.000744 0.000079 0.004917 -0.000694 0.002459 0.000544 -0.004148 0.000764 -0.004180 0.000821 -0.002650 0.004929 0.003960 -0.002806 0.003557 -0.000096 0.001054 -0.004003 -0.003026 0.002276 0.002973 -0.003940 -0.003864
end -0.002693 -0.001165 -0.004580 -0.002607 0.003143 -0.003688 -0.002434 0.004464 0.000486 0.003480 0.002604 -0.004642 0.003890 0.002382 0.003740 0.003757 0.002424 0.004324 -0.004224 0.000378 -0.000259 -0.002421 0.000047 -0.002630 -0.002308 0.000323 0.003619 -0.003054 0.000582 0.002082 0.002667 0.002416 -0.003187 0.004478 -0.000363 -0.002661 -0.004892 -0.002924 -0.003776 0.004975 0.003667 0.000713 -0.002301 0.001062 0.000944 0.001805 -0.004050 0.000007 0.003872 -0.000539 0.002345 -0.001700 0.004150 -0.001913 -0.003345 -0.003018 0.001286 0.000621 -0.004898 0.004403 -0.000207 -0.003527 0.001296 -0.003024 0.003253 -0.004217 -0.003563 -0.004489 0.003346 -0.002874 0.001507 0.004778 0.001489 0.002885 0.002937 -0.000603 -0.002431 -0.001129 -0.004116 0.000942 -0.004744 -0.000551 0.002988 0.001948 0.002123 -0.002751 -0.001315 -0.000864 0.004103 0.001463 -0.000851 -0.004820 0.000219 0.000712 0.001122 -0.001606 -0.001645 -0.002612 -0.004958 -0.000750
The 0.002262 0.001737 -0.002725 -0.003487 0.004538 0.001954 0.004644 0.003676 -0.002976 0.004753 0.003087 -0.002497 0.000764 -0.000794 0.002066 0.000996 -0.002978 -0.003268 0.003185 0.001823 -0.001686 0.002796 -0.000032 -0.002245 0.000681 0.003563 -0.001541 -0.004545 -0.002783 0.004962 0.000393 0.000136 0.003020 -0.004990 -0.004183 -0.003493 0.000692 0.001184 0.003589 0.000004 -0.001214 0.003482 0.001449 -0.002377 0.004819 -0.001204 -0.003240 0.000460 0.001338 0.001250 -0.000412 -0.003933 0.000475 -0.000738 -0.002940 0.003211 -0.004186 -0.003079 -0.003961 -0.003774 0.002558 -0.003881 -0.000642 -0.002368 0.001896 0.001860 0.002059 0.004398 0.000175 0.001753 -0.000020 0.004625 0.002965 0.000356 -0.004968 0.001621 -0.002404 0.000564 -0.003884 -0.001105 -0.001659 -0.000247 -0.003877 -0.000775 0.004430 -0.003700 -0.004036 0.003878 0.004709 -0.004974 -0.000598 0.001992 -0.002596 -0.004211 -0.001808 0.003790 0.002615 0.004291 0.000769 0.000622
customer -0.004302 0.001462 0.002063 -0.001706 -0.000018 -0.000609 -0.001682 -0.004838 -0.001833 -0.002517 0.000859 -0.001808 0.003910 -0.000560 -0.002348 0.004483 0.004672 0.003872 0.003724 -0.001377 -0.003559 0.004795 0.001669 -0.000456 0.003136 -0.004278 -0.001911 -0.002908 -0.001510 -0.004521 -0.004456 0.001579 -0.002884 -0.003623 0.000189 0.003944 0.000227 -0.002378 0.003982 0.001537 0.002670 0.002671 -0.004521 0.004516 0.001997 0.004069 0.001652 0.001119 0.003288 -0.000987 -0.000932 -0.003224 -0.002619 -0.004556 0.004325 0.004877 -0.002295 -0.002400 0.004890 -0.000655 0.004979 -0.003313 0.000744 0.003911 0.001749 -0.000319 -0.003382 0.001601 -0.004911 0.003212 0.003359 0.000871 0.000111 0.002006 0.000578 -0.003626 -0.000237 -0.002678 0.003696 0.003733 -0.002288 -0.004253 0.000243 0.000994 -0.004801 -0.003725 -0.000235 -0.004729 -0.000187 0.002926 -0.002970 -0.002543 0.002543 -0.001654 0.004984 0.001772 0.004283 -0.002425 0.001889 0.001665
received 0.003062 0.001227 -0.002748 0.000724 -0.000579 0.001631 0.002356 -0.003341 0.000202 0.000197 0.001234 -0.004968 0.003910 -0.000981 -0.002945 0.000149 -0.002105 0.001539 0.001363 -0.004318 0.001618 -0.003159 -0.002824 -0.000827 -0.001815 -0.002208 0.001893 -0.004350 0.001436 -0.000381 0.000884 0.001181 -0.000056 -0.004221 0.004898 -0.004656 -0.001684 0.001278 0.001086 -0.001613 0.002760 -0.004466 -0.002749 -0.002441 -0.001435 -0.000778 -0.003764 0.003122 -0.004000 -0.000536 -0.001443 -0.001185 -0.002394 -0.000813 -0.002956 0.003566 -0.002844 0.000621 -0.002912 -0.004582 0.001207 0.002450 0.003925 -0.002015 0.000778 -0.002408 0.002281 0.002846 0.002784 0.002797 0.001187 0.003098 -0.003450 -0.003239 -0.004029 -0.000879 0.004161 -0.004186 0.004349 -0.004200 -0.003540 -0.003951 -0.003118 0.000059 -0.002454 0.002889 -0.000186 -0.000659 0.002339 0.004541 0.001920 0.001333 -0.003181 0.000268 0.001385 0.003260 0.004028 -0.002671 0.000313 -0.001308
Power 0.004590 0.002071 -0.000046 0.000975 -0.004467 -0.002108 -0.000077 0.001252 -0.001698 0.000064 -0.004034 0.000298 0.004459 0.001436 0.002864 -0.000715 -0.001993 0.002955 0.004389 0.003000 0.001233 -0.002091 -0.000045 -0.003392 -0.000739 -0.001289 0.003397 0.001258 0.003856 0.001811 -0.001075 0.000346 -0.001687 -0.003523 0.000316 0.002124 0.002007 -0.002105 0.004282 -0.003600 0.001935 -0.003280 -0.001162 0.000801 0.004762 0.004299 -0.004212 0.003787 0.004163 0.003276 0.003156 -0.001045 -0.002364 0.001875 -0.002767 0.003458 -0.001646 0.002011 -0.000310 0.001962 0.004661 -0.002229 -0.001511 -0.002240 0.004482 0.002497 -0.000814 0.000144 0.004445 0.002944 -0.002854 -0.004557 -0.002017 0.002490 0.002202 0.000888 -0.001509 -0.001594 -0.000228 -0.004981 0.001849 -0.003456 -0.001518 -0.001563 0.003338 -0.000698 0.002089 0.001778 -0.002334 -0.000060 0.001750 -0.003723 0.003285 0.000604 0.000296 -0.000166 -0.004096 0.000842 -0.003805 0.004902
this -0.004639 -0.000594 -0.001337 -0.001633 -0.002135 -0.001529 -0.002494 0.003365 -0.003802 0.002771 0.003918 -0.003276 0.004940 -0.002546 0.001350 -0.000134 -0.002883 0.001769 -0.000232 0.003287 -0.004693 0.002064 0.001650 -0.000187 0.004253 0.002764 -0.001912 -0.003892 0.004806 -0.002742 -0.001664 -0.003639 0.000320 -0.003862 0.004088 0.001869 0.002326 -0.000411 -0.004224 -0.003274 -0.003613 0.004178 -0.001557 -0.003288 -0.000211 0.001313 0.004380 0.001751 -0.003593 0.003774 -0.004905 -0.002928 -0.001446 -0.001385 -0.002763 -0.000558 -0.004390 -0.001538 -0.001823 -0.002563 0.002117 0.002719 0.000239 -0.004520 0.001289 -0.004293 -0.001805 0.003019 0.000943 0.001490 -0.003630 0.001532 -0.004600 0.000422 0.001268 0.002977 -0.000597 0.004939 -0.004793 0.000987 -0.002583 -0.001135 -0.002467 -0.000044 0.004932 -0.000793 -0.004021 -0.004086 0.004456 -0.003747 -0.001165 -0.001075 0.003874 0.004852 0.001623 -0.003121 0.002021 0.002343 -0.003349 -0.000193
Guys -0.002772 -0.002527 0.003300 0.003657 -0.004252 0.001315 -0.000049 0.000935 -0.002338 0.003938 0.004914 -0.003906 0.002255 0.001531 -0.002092 0.001436 0.003563 0.002230 -0.002719 0.004953 0.004099 -0.000190 0.002781 0.001031 0.001302 -0.004687 0.004240 0.000699 -0.003423 0.001984 -0.004665 0.002206 0.000437 0.000118 0.003173 0.002907 0.003342 0.000885 0.003868 0.000054 -0.000971 -0.003993 0.001684 -0.000300 0.002902 -0.004435 0.004079 0.001831 0.001536 -0.002718 -0.002129 -0.000593 -0.002124 -0.004104 -0.000923 -0.002972 0.000296 0.000040 0.000129 0.003004 -0.000940 -0.004304 0.004930 0.002542 -0.000976 0.002590 -0.004574 0.000086 -0.003839 -0.002803 0.004755 0.000570 0.001602 -0.000477 0.003574 -0.004497 -0.003275 0.003264 -0.004617 0.002217 -0.002370 0.001153 -0.001142 0.005008 0.001493 -0.000792 -0.000641 0.002730 0.001255 -0.001085 -0.000563 -0.003902 0.002874 0.004118 -0.003064 -0.002459 -0.000350 0.002589 0.001849 -0.003677
up 0.000298 0.004425 -0.002668 0.001591 -0.003053 -0.002789 0.000194 -0.000888 0.004585 0.002917 -0.002722 0.002593 -0.003128 0.000528 -0.000360 -0.000043 -0.002844 -0.000985 0.003502 0.003246 -0.004297 -0.002555 0.003045 0.000210 0.003345 0.004599 -0.002935 -0.004981 -0.001312 0.004578 0.000556 0.000488 0.004780 -0.001036 0.001614 0.000896 -0.002052 -0.004185 -0.003891 0.003344 0.001132 -0.001421 -0.000528 -0.003988 0.000063 0.002552 0.003937 0.003697 0.001167 0.004405 -0.000324 -0.001314 0.004241 -0.003042 0.003664 0.003375 0.004028 0.003820 -0.002245 -0.001441 -0.001144 0.001299 -0.002963 -0.004515 -0.000740 0.002973 -0.000064 0.004281 -0.004550 -0.004204 -0.004398 -0.001305 0.002539 0.003721 -0.004353 0.003865 -0.004556 0.004157 0.000022 0.004091 -0.004989 0.000016 0.002261 0.001022 0.002974 0.001774 0.001048 0.003723 0.004266 0.000802 -0.002012 -0.004282 -0.001757 0.004704 -0.002231 0.003562 -0.002106 -0.000434 0.004256 0.004104
credit -0.003962 -0.002396 0.002327 0.000372 0.002885 -0.002219 0.004008 -0.001086 0.001588 -0.004928 -0.001182 0.003870 0.003861 -0.002308 0.004721 -0.002532 -0.002665 0.003714 -0.000068 -0.003546 -0.000096 -0.000891 0.002617 -0.000331 0.003703 0.003829 -0.001489 0.003053 -0.003355 -0.000735 0.002167 -0.004905 -0.002433 -0.001956 0.002351 -0.001786 0.004483 0.002001 -0.003186 -0.000553 0.004692 -0.000150 0.000637 0.004950 0.003110 0.003659 0.002010 0.004881 -0.001461 0.002828 -0.001134 0.003987 0.003228 -0.000338 0.002807 -0.001658 0.002188 -0.004845 -0.001527 0.003667 -0.001858 0.001963 0.000037 -0.000534 0.004170 -0.001740 -0.004301 0.000391 -0.002417 0.000368 -0.004381 -0.004814 0.001898 -0.004254 0.003961 0.002310 0.001897 -0.001682 0.004108 -0.000316 -0.000534 0.001261 -0.002283 -0.001920 -0.002738 0.000368 -0.001212 -0.002309 0.001417 -0.004479 -0.002110 0.004297 -0.004485 -0.004665 -0.001656 0.000535 0.003186 0.003699 -0.000707 0.004665
Griff -0.003932 0.000811 -0.002612 0.002267 0.004902 0.001657 0.001832 0.002402 0.000668 -0.004370 -0.000502 0.000156 0.000734 -0.000999 -0.000602 -0.000358 0.000711 0.000945 -0.000939 0.001618 -0.003996 0.004035 -0.001326 0.004722 0.002139 0.002609 0.002305 -0.001275 0.004004 0.002893 0.000753 -0.003254 0.002074 0.000784 -0.002375 -0.003962 -0.001927 -0.001183 -0.003130 -0.003387 0.001565 0.004006 0.004288 0.004796 0.002017 0.001615 -0.004255 -0.003445 0.003078 0.004075 -0.001438 0.001533 0.001888 0.003708 0.001640 -0.004242 0.003009 -0.002441 0.001410 -0.003298 -0.003566 0.000543 -0.001881 0.000527 0.002665 -0.004297 0.003139 -0.000560 0.004362 -0.000071 -0.004579 0.000445 -0.002738 0.004350 -0.001781 -0.004074 -0.004647 0.002019 -0.000754 0.001497 0.000186 0.000117 -0.001059 0.001644 0.001725 -0.002436 0.000284 -0.000754 0.001431 -0.000307 -0.000412 0.004473 0.001933 0.001850 -0.000862 -0.001446 0.004582 0.003287 -0.001304 0.004613
everything 0.004730 -0.001564 0.002164 -0.003389 -0.004533 0.001301 -0.001211 0.002798 0.001999 0.001906 -0.004755 -0.001263 -0.002715 0.004937 0.003023 0.001985 -0.004912 0.004078 0.003258 -0.004707 -0.003806 -0.001703 0.002673 0.003391 -0.000362 -0.001697 0.003966 0.001774 0.001015 -0.000253 0.002502 0.003526 -0.003963 -0.002101 0.000806 -0.004307 0.001358 -0.003881 0.003780 -0.002674 -0.000523 0.002597 0.001964 0.004388 0.002965 -0.001740 0.000337 0.000449 0.001962 0.002798 -0.000669 0.003703 0.001553 -0.003968 0.003346 -0.002957 -0.002230 0.000800 -0.003661 0.001841 -0.002094 0.000205 0.003543 -0.004530 -0.004661 -0.002689 0.000410 0.001746 0.001326 -0.001028 0.000838 -0.000550 -0.001657 -0.003668 -0.003059 0.004332 -0.001107 -0.004976 0.004061 -0.002988 -0.001439 0.002354 0.000567 0.001430 0.004807 0.000416 0.001946 -0.001159 0.000022 0.003620 -0.003215 -0.002298 0.002442 0.000624 0.002590 -0.003307 0.001095 0.002246 0.000895 0.001444
