13 100
of 0.004275 -0.003754 -0.000623 -0.002396 -0.000051 -0.001042 0.004698 0.000637 -0.000675 -0.002285 0.000417 -0.002270 -0.003525 0.003873 -0.002189 -0.000382 -0.003708 -0.002098 -0.001315 0.002150 -0.004753 0.001455 -0.003266 -0.000356 0.001993 -0.003056 0.001778 -0.000851 -0.000855 0.000742 -0.003992 0.003207 -0.001961 -0.001454 0.000186 0.001586 0.001946 0.003579 0.001990 -0.002139 -0.003148 0.001314 0.001989 -0.004597 -0.003549 -0.000195 0.000410 0.001254 0.003922 -0.000799 0.000985 0.004587 -0.001851 -0.004870 -0.001574 -0.004320 -0.004941 -0.001553 -0.004669 0.001587 0.002933 -0.001241 0.003690 -0.002106 0.002363 -0.004104 -0.000228 0.000863 -0.001276 0.001555 -0.003225 0.003798 0.003738 -0.003799 0.003490 0.000091 -0.000503 0.000411 -0.003411 0.003895 -0.002906 -0.001394 0.004309 -0.002370 -0.000571 -0.002103 -0.001643 -0.004263 0.004120 -0.002011 -0.004353 -0.001759 -0.001659 0.002958 -0.004816 0.001384 0.003223 0.001170 0.002868 0.003526
is 0.000500 0.000970 0.003514 0.001978 0.000054 -0.002849 -0.004618 0.004119 0.001329 -0.001159 -0.001770 0.002179 -0.004492 -0.001020 0.000010 -0.000366 0.000333 -0.000283 -0.004760 -0.002343 0.000179 0.000515 -0.004545 0.002220 0.002001 -0.004134 0.004334 0.002197 -0.004992 0.000767 -0.004166 0.003576 0.004440 -0.003004 0.002799 0.001885 -0.004098 -0.001444 0.003276 0.002556 0.000766 -0.000059 0.001759 0.004375 -0.000417 -0.003391 -0.000870 0.002027 0.003458 -0.004446 0.002794 0.000622 -0.000508 -0.004840 0.000933 -0.002172 -0.003055 0.002821 -0.003875 0.004297 -0.003225 0.002168 0.000411 0.002735 0.002709 -0.004408 0.003918 0.001661 -0.002048 0.000908 0.004198 0.002619 0.000591 -0.001147 -0.004382 0.001151 -0.001982 -0.000825 0.003879 -0.004951 0.000444 -0.001414 -0.002481 -0.002589 -0.003844 -0.004813 -0.001204 0.003012 0.001385 -0.002308 0.000845 -0.003516 -0.003286 -0.003947 -0.000086 0.002313 0.000943 0.000535 -0.003001 0.002702
site -0.003633 0.004690 -0.003612 0.001674 0.003147 0.001359 0.003802 -0.004933 0.003917 -0.002144 -0.003937 0.000756 0.001560 -0.004629 0.004057 -0.002642 0.000015 0.004600 0.004852 0.003424 0.001627 -0.004523 -0.001166 -0.003895 0.002470 0.004503 0.004134 0.000008 -0.003871 -0.001736 0.003123 -0.004227 0.003073 0.000289 0.004614 -0.002394 0.004763 -0.003636 0.000664 0.002348 0.004641 -0.001168 0.000576 0.002994 0.000256 -0.003325 -0.000670 -0.001853 0.004693 -0.000855 -0.000119 -0.000332 0.000595 0.004245 -0.001135 0.000924 0.001801 -0.000987 -0.004539 -0.001323 0.001454 0.001812 -0.001668 -0.000145 -0.004446 0.000666 -0.001284 -0.003942 0.004613 -0.002402 0.002041 0.002609 -0.003016 -0.004669 0.003543 0.002320 0.003677 -0.003003 0.003056 -0.000828 -0.000088 -0.002449 0.002216 -0.002118 0.000336 -0.004864 0.001403 0.001865 0.002205 0.004799 0.002179 -0.003406 -0.001496 -0.000269 -0.003593 0.003998 0.003940 -0.000369 0.002478 0.002687
Here 0.001976 0.001087 -0.000707 -0.004764 0.003832 0.002805 -0.002678 -0.001973 -0.004041 -0.004252 -0.002339 0.002578 0.000187 0.002945 0.003231 -0.003152 -0.000160 0.000194 0.004422 0.003509 0.002492 -0.002338 0.003174 0.000523 -0.003579 0.000256 -0.002279 0.000049 0.004465 0.004829 0.004385 -0.002831 0.002984 0.002786 -0.003645 -0.001014 0.002038 0.000443 -0.004593 -0.002114 0.003506 -0.003942 0.000593 -0.004768 -0.002838 -0.003299 -0.004895 -0.001438 0.002011 -0.000016 -0.004852 -0.003917 -0.000674 -0.002052 0.002031 0.000877 0.004531 0.003676 0.002257 -0.001729 -0.004839 0.001878 0.004687 0.002622 -0.003402 0.002332 -0.001771 -0.004061 0.004233 -0.000163 -0.000076 -0.004899 -0.004126 0.002322 -0.001185 -0.001615 -0.002289 0.004172 -0.001038 0.004871 0.001516 0.003098 -0.003642 0.003376 -0.004530 -0.003940 0.003016 -0.000668 -0.004604 0.003321 -0.002779 0.002973 -0.002433 0.001097 0.004964 -0.000410 0.004367 -0.000977 -0.002599 0.002201
. -0.001648 0.003944 0.001145 -0.002720 -0.000222 -0.003238 -0.004049 0.001565 -0.003529 -0.004857 -0.002735 0.000854 0.002052 -0.000108 0.003096 0.001063 -0.002000 0.005001 0.003921 0.002854 0.000873 0.000176 -0.004562 -0.003336 0.003130 0.001663 -0.004615 0.003155 0.000615 0.003586 -0.000622 -0.001891 -0.004486 -0.000277 -0.000673 0.000028 -0.004113 0.003712 0.003303 -0.002063 0.002477 0.000890 -0.000197 0.003511 -0.000834 0.001901 0.001416 -0.004671 0.000465 0.002448 -0.002593 0.000904 0.004024 0.001069 0.002443 0.000596 0.001251 -0.000574 0.002232 0.004208 -0.003600 0.002404 -0.000828 0.004052 -0.003725 -0.001153 0.000870 -0.000594 0.004071 0.003988 0.002322 0.000800 0.003430 -0.004476 -0.003063 -0.000234 -0.003138 0.003751 0.004043 -0.004459 0.003883 0.000036 0.003316 0.001119 0.000675 0.002466 0.003235 -0.001706 0.002738 0.000324 -0.003025 -0.002422 -0.001565 -0.001916 -0.000474 0.001802 0.003485 0.000974 -0.002122 0.000059
\Scheduling\EnronWestSchedulingWebsite.html 0.000393 0.004842 0.001641 0.004223 -0.003561 0.000248 0.003551 -0.000788 0.003518 0.001380 0.001541 -0.003124 -0.002807 0.002765 -0.003853 -0.001688 0.002905 0.002773 0.003388 0.001502 0.003989 -0.002325 0.002852 0.001745 0.001047 0.001141 -0.002120 -0.004562 -0.000678 -0.000571 0.003227 -0.000866 0.002050 0.003808 -0.002872 0.001346 -0.004745 0.003176 -0.004403 -0.001941 -0.000893 0.003059 -0.004658 0.000409 -0.002067 -0.003583 0.000060 0.001076 0.001936 -0.003754 -0.004710 -0.003981 -0.001990 -0.002147 0.000046 0.003712 0.003258 -0.001267 0.001200 0.002117 -0.001428 0.004976 0.001997 0.001167 0.004039 0.001146 0.004000 -0.002562 -0.000124 -0.003047 -0.003800 -0.000255 -0.000901 0.004186 0.003705 -0.001553 -0.002025 -0.001562 0.004496 0.000511 -0.000092 -0.002314 0.004285 0.001034 0.002761 -0.004825 0.000488 0.000645 -0.000647 0.000188 -0.003997 -0.002120 -0.000267 0.003514 -0.003892 0.000204 -0.003588 -0.001292 -0.003687 -0.000337
P -0.004961 -0.004666 0.000404 -0.000665 0.003401 0.001960 -0.001858 -0.003905 0.002690 0.004716 -0.000162 -0.004409 0.004702 -0.004999 -0.001503 -0.003180 0.003642 0.000517 -0.002081 0.004388 0.004674 -0.001347 -0.000245 0.001593 0.004424 0.002296 -0.004294 0.003420 -0.003357 -0.001290 0.002472 -0.004062 0.004125 0.003981 0.002543 0.002998 0.001672 0.002846 -0.001937 -0.004096 -0.002895 -0.002782 -0.000287 0.004347 -0.002647 -0.000232 0.000885 -0.003858 0.004630 -0.000860 0.002583 -0.001698 0.004200 -0.004369 -0.004169 -0.003645 0.002883 0.003747 0.004230 0.004049 -0.002200 0.004640 -0.002018 0.000816 0.004836 0.001963 -0.001010 0.003011 0.000156 -0.001258 -0.002977 -0.000001 -0.003363 -0.003753 -0.000284 -0.004291 0.001903 -0.003346 -0.000250 0.004409 -0.000991 -0.001359 -0.003157 -0.001298 -0.002885 0.003914 0.004472 0.004100 -0.001419 -0.000758 -0.000608 0.004920 -0.004137 -0.000706 -0.001033 -0.004139 -0.001350 -0.003478 0.003227 0.004079
internal -0.004725 0.003666 0.000958 -0.000484 -0.002043 -0.004865 -0.004454 -0.003077 -0.001905 -0.003623 0.004649 -0.004849 -0.003360 0.003833 0.003995 -0.003786 0.002483 0.000984 -0.003593 0.003851 0.004446 -0.001539 -0.000336 -0.004719 -0.001594 0.003870 0.004771 0.000929 -0.004700 0.003521 0.003056 -0.001859 0.002407 0.004130 -0.000084 -0.002079 0.002907 -0.004143 0.000299 0.002252 -0.002640 -0.004621 0.002718 0.000277 -0.003923 -0.000911 -0.001981 -0.004164 0.002343 -0.002690 -0.003700 0.004729 0.002005 -0.000245 0.003858 0.003573 0.003927 0.000978 -0.000664 -0.000397 0.000191 0.003471 -0.003449 0.000987 -0.000045 -0.001057 -0.004636 0.000361 -0.004672 -0.002240 0.000236 0.003801 0.002509 -0.001653 0.003779 -0.002648 0.002343 0.003608 -0.000995 0.001069 -0.000472 -0.003395 -0.001388 -0.003609 -0.001856 0.001079 -0.000439 -0.004640 -0.004527 0.000428 -0.001930 0.002173 0.003370 -0.001904 0.001146 -0.003011 -0.002186 0.003843 0.003594 -0.001689
address 0.004350 -0.001964 0.001040 -0.004012 -0.002236 -0.004176 0.003489 0.000439 0.001146 -0.004676 0.002709 0.002247 0.002991 -0.001205 0.002494 0.004878 0.004439 0.003587 0.003970 -0.004203 -0.002614 -0.002090 -0.004818 0.004253 -0.003472 -0.002462 0.000420 -0.000240 -0.004692 0.001203 0.002124 0.004007 0.002914 0.000191 0.001325 0.000214 0.000511 -0.001030 -0.002722 -0.004028 -0.000274 0.004334 0.003451 -0.001727 -0.002993 -0.002000 -0.003859 -0.001674 -0.004693 -0.003285 0.004450 0.002149 -0.004634 -0.004367 -0.001523 0.002253 0.003629 0.003000 0.002704 0.002351 0.000593 -0.000020 0.004023 0.001646 -0.003435 0.004646 -0.003393 0.003901 0.002288 0.001447 0.004298 -0.000336 0.004449 -0.002413 0.004176 -0.003805 -0.001034 -0.001734 0.002626 0.000417 0.002914 0.003315 0.003396 0.000577 -0.000368 0.004692 0.004417 -0.004285 -0.001493 0.000588 0.002601 -0.000676 -0.003204 -0.003467 -0.002355 -0.002351 0.001463 0.002093 -0.001796 -0.000742
our 0.000043 0.004425 0.003362 0.000428 -0.003626 -0.004180 0.004624 0.001875 -0.001798 0.001906 -0.004318 0.002556 0.000823 0.002283 -0.004561 -0.000028 -0.002329 -0.000838 0.003126 0.000909 -0.001140 -0.000446 0.001502 -0.002308 -0.002784 -0.002676 0.003933 0.003636 -0.000961 0.000436 0.000263 0.001895 -0.000260 -0.000145 0.002979 -0.001599 0.002377 0.002477 -0.000514 0.001414 0.003205 0.001444 -0.000182 0.002038 0.002798 -0.004103 0.001887 0.001857 0.003507 0.003298 0.003910 -0.002134 -0.003047 -0.000358 0.003091 0.002324 0.002918 -0.003464 -0.004925 0.000697 0.000144 0.002839 0.002852 0.004080 0.004099 -0.000174 -0.000564 -0.001379 0.002683 -0.003867 0.003113 -0.000115 -0.003908 0.002425 0.003115 -0.003730 0.001691 -0.002171 -0.000434 -0.001580 0.000801 -0.003805 -0.001469 -0.001353 -0.004440 0.001936 0.000703 -0.003502 -0.002363 0.002412 0.001621 0.001708 0.004104 0.003002 0.003388 -0.004260 0.002140 0.002365 0.004676 -0.001115
the 0.004959 -0.001649 -0.000718 0.000270 0.003201 -0.001627 -0.003291 -0.004308 -0.001780 -0.003558 -0.002183 0.004464 0.003236 0.002595 -0.002738 0.001924 -0.004393 0.000063 -0.004331 -0.004934 0.001493 0.001784 0.004538 0.001376 -0.003832 0.001580 -0.000806 -0.000388 -0.000513 -0.004042 0.000050 0.002446 0.001362 -0.003940 0.000029 0.000738 -0.001792 0.001937 -0.002136 0.002700 0.004672 -0.002539 0.001174 -0.004776 -0.000531 -0.004565 0.001252 -0.003979 0.000304 -0.000416 -0.004974 0.002094 0.003973 0.003215 0.004709 0.001439 0.000417 -0.002903 0.003033 -0.000419 0.001508 -0.001565 -0.004994 -0.001737 -0.004126 -0.001606 0.001076 0.000336 0.002297 -0.004726 0.003578 -0.002202 0.000666 0.001395 0.003578 -0.000498 0.001649 -0.001310 0.003321 0.002151 -0.003881 -0.000303 0.001256 0.001517 -0.000422 0.002586 0.000222 -0.001348 0.004631 0.000201 -0.002930 -0.003464 -0.004764 -0.004796 0.001607 0.000180 -0.002540 0.001946 -0.004925 -0.001723
: 0.000278 0.001676 -0.002286 0.003865 0.000613 0.002980 0.004324 0.000660 -0.001589 -0.000266 -0.001496 0.001305 -0.001005 0.002798 0.000707 0.004280 0.000790 -0.002823 -0.003333 -0.004363 -0.001264 0.000902 0.001129 0.004876 0.002874 0.003508 0.001411 -0.003511 -0.001793 -0.000271 0.001524 0.001888 -0.002867 0.002546 0.004975 0.003451 0.000907 -0.000732 0.001789 -0.000375 -0.003013 -0.001031 -0.001430 -0.003805 0.000198 -0.000420 -0.004118 0.001522 0.002394 -0.004892 -0.000214 -0.004574 0.002863 0.000910 0.000348 -0.000507 0.002251 0.004275 -0.003481 -0.002785 0.000693 -0.004866 -0.003457 -0.003420 -0.002332 -0.000289 0.000767 0.004269 -0.002687 -0.002327 0.000670 0.004674 0.002795 0.000529 0.000459 0.001295 -0.000012 0.001440 0.002339 0.002886 -0.002329 0.004802 0.001252 -0.001545 -0.004421 0.004709 0.002746 0.004401 0.003248 0.003304 0.000661 0.001033 -0.000272 -0.004421 0.000103 0.003532 0.002809 0.000193 -0.003992 -0.000684
intranet -0.000589 0.001173 0.000876 0.001483 -0.004609 -0.000062 0.000202 -0.004364 -0.000363 -0.002560 0.004193 -0.001628 0.000737 0.003449 0.000272 -0.000291 0.004573 0.002156 -0.003634 0.003874 0.002245 0.004340 -0.002393 -0.003155 0.001750 0.003584 -0.002473 0.002743 -0.000492 0.000490 0.002782 -0.002066 -0.002173 -0.003208 -0.001255 -0.002878 0.001731 0.001691 -0.003120 0.003395 0.003474 0.002358 -0.004149 -0.004900 -0.004913 -0.001163 -0.000623 0.001551 -0.001783 -0.003141 -0.003480 -0.000234 -0.000842 -0.002514 0.004168 -0.002401 -0.003609 -0.004534 0.001540 -0.000902 0.003819 -0.004006 -0.003867 0.000759 0.004140 -0.001570 0.004295 0.002198 -0.004665 -0.001598 -0.003194 -0.003464 0.004582 0.004148 0.004337 0.003456 0.003335 -0.002548 -0.000197 0.003515 -0.002415 -0.000279 -0.004370 0.002231 -0.000628 -0.004332 -0.001032 0.004267 -0.001870 0.003214 -0.002143 0.001695 -0.001059 0.000626 0.001480 0.002537 -0.001671 0.004026 -0.000400 -0.001902
