16 100
the 0.004958 -0.001650 -0.000719 0.000268 0.003203 -0.001626 -0.003290 -0.004304 -0.001779 -0.003555 -0.002185 0.004464 0.003234 0.002592 -0.002738 0.001924 -0.004395 0.000061 -0.004327 -0.004935 0.001491 0.001780 0.004538 0.001378 -0.003832 0.001577 -0.000804 -0.000390 -0.000513 -0.004041 0.000048 0.002447 0.001363 -0.003936 0.000030 0.000740 -0.001793 0.001935 -0.002133 0.002696 0.004668 -0.002540 0.001177 -0.004770 -0.000527 -0.004563 0.001253 -0.003979 0.000305 -0.000413 -0.004970 0.002094 0.003972 0.003216 0.004705 0.001440 0.000420 -0.002899 0.003031 -0.000418 0.001504 -0.001561 -0.004990 -0.001737 -0.004128 -0.001604 0.001072 0.000334 0.002299 -0.004723 0.003579 -0.002198 0.000662 0.001392 0.003573 -0.000500 0.001646 -0.001308 0.003320 0.002148 -0.003878 -0.000302 0.001259 0.001515 -0.000421 0.002589 0.000222 -0.001351 0.004631 0.000198 -0.002927 -0.003464 -0.004762 -0.004795 0.001606 0.000178 -0.002538 0.001942 -0.004923 -0.001721
Kaminski -0.002988 0.002946 -0.003078 0.000232 0.003549 0.000601 0.003538 0.000686 0.001580 0.000462 -0.003221 -0.001150 -0.003915 -0.003547 0.002811 -0.001956 0.000109 0.002477 -0.004088 -0.004433 0.004247 0.003297 -0.002999 -0.003159 0.001576 -0.003090 -0.000922 -0.001243 0.001046 0.003047 0.003275 0.004650 0.001845 0.000916 0.003815 0.000706 -0.000865 -0.001388 -0.003856 0.000839 0.004299 -0.003980 0.001538 -0.000892 -0.000033 -0.003099 -0.000544 -0.004584 0.003595 0.004564 -0.003469 0.000156 0.000085 0.004944 -0.002366 0.003741 -0.003100 0.003579 0.004146 -0.002541 0.001200 -0.004873 -0.003755 0.001278 -0.001041 -0.004748 -0.004271 0.000799 0.000808 -0.000145 0.001782 0.003000 0.002653 -0.001350 -0.000784 -0.001104 -0.001352 -0.004769 -0.004474 -0.001678 0.002942 -0.004785 -0.000978 -0.001434 -0.001178 -0.000201 -0.004676 0.000512 -0.004729 0.001076 -0.003528 0.000925 -0.004864 -0.003997 0.002547 0.004224 0.000854 -0.001305 0.001601 -0.000393
for 0.001353 -0.004254 0.003151 0.002151 -0.001595 -0.001829 0.000901 0.001320 0.004967 0.002948 -0.001546 -0.004169 -0.001878 0.001144 -0.001232 -0.004261 -0.003346 0.001024 0.003711 -0.003485 -0.003401 0.000623 -0.001910 0.004253 -0.002710 -0.001077 -0.002150 0.001778 -0.004328 0.000602 0.004018 0.000511 -0.001519 0.000317 -0.001522 0.000772 0.004040 -0.004106 -0.002371 -0.003896 -0.002333 0.004458 -0.003863 0.002035 0.003072 -0.003797 -0.001955 -0.003648 -0.003283 0.003700 -0.004281 0.004283 -0.000340 0.003290 -0.003130 -0.000477 0.000986 0.001290 0.003950 -0.003101 0.001040 0.003184 0.001447 -0.000078 0.004328 0.003107 -0.001815 0.002481 0.004924 0.002070 -0.004214 0.002875 0.001298 0.004049 -0.002000 -0.001145 -0.000134 0.001509 -0.000760 -0.004951 0.004226 0.001071 0.000050 0.003418 0.001056 0.001488 -0.002550 0.003072 0.003208 -0.002728 0.002794 -0.003908 0.000950 -0.004830 0.000074 0.003182 0.004129 0.001645 -0.000657 0.004822
that 0.001252 -0.003776 -0.004640 0.002198 0.004884 -0.002422 0.003533 0.000501 -0.004365 0.001991 0.002996 0.003590 -0.004095 -0.001385 -0.004226 -0.000258 0.003566 -0.004300 -0.002272 0.002570 -0.001633 0.002180 -0.001286 -0.001921 0.001805 -0.000987 0.001397 -0.000056 -0.000151 -0.000870 -0.001142 0.004259 0.004345 0.002159 -0.001565 -0.004196 0.001028 0.003688 0.003227 -0.001481 0.003992 -0.000515 0.002324 -0.000521 0.002323 0.003091 -0.004609 0.004018 0.004016 0.000099 0.004352 -0.003821 0.002667 -0.002479 0.004211 0.002210 -0.002591 -0.001739 -0.002781 -0.002477 0.001976 0.002467 0.000996 -0.000320 -0.000966 -0.000679 0.004321 -0.000403 -0.004514 -0.002140 -0.002195 0.004788 -0.002604 0.004071 -0.003071 0.001717 0.000723 -0.002398 0.001934 -0.002797 0.002920 -0.000635 0.003600 0.002377 -0.002457 -0.000508 0.000487 -0.001827 -0.001721 -0.003552 0.000989 0.000117 -0.001556 -0.003762 0.000373 0.000498 0.000033 0.000057 0.002659 0.001350
I -0.004331 0.003338 -0.000112 -0.001203 -0.001463 0.001111 -0.002971 0.003890 0.002107 -0.000963 0.001581 -0.001640 0.000311 0.002061 -0.000956 0.002250 -0.003586 -0.004850 0.001652 -0.004222 0.003863 0.002873 0.003285 0.001641 0.004874 0.003482 0.000127 -0.003165 -0.003507 0.003243 -0.004566 0.001496 -0.003341 -0.001416 0.001149 0.003916 -0.003008 -0.001374 0.004150 -0.002453 0.001954 -0.001499 -0.001810 0.001035 -0.003566 0.004282 0.004595 0.002418 0.003162 0.002305 0.004609 -0.002370 -0.002395 0.000401 0.000594 0.003899 -0.003860 0.000405 0.002678 -0.003069 -0.000138 0.003162 0.004353 -0.002230 -0.001088 0.001818 0.002876 0.002740 0.004422 0.001404 -0.000236 -0.002489 -0.002246 0.001100 0.002403 0.001628 -0.003098 -0.002975 -0.002416 0.003541 -0.002423 0.003333 -0.004851 -0.003246 0.003521 0.003126 0.001469 0.002781 -0.001916 -0.002484 -0.004103 0.002002 0.002150 0.003390 -0.003596 -0.003580 0.003154 0.003016 -0.001790 -0.004718
Vince 0.004899 0.004178 0.003762 0.002794 -0.001097 0.003612 0.004456 0.000618 0.000045 0.003124 -0.002354 -0.000534 0.001011 -0.000439 -0.004911 -0.001388 0.000954 0.000757 0.004734 -0.001535 -0.003574 -0.000339 0.000590 -0.004307 0.000868 0.000788 0.004910 -0.000525 -0.001176 0.002798 0.004650 -0.000936 -0.000002 0.000661 0.003647 0.000807 0.002584 0.003910 0.002866 0.004777 0.004984 -0.004099 -0.004153 0.004862 0.001688 -0.004470 -0.004070 -0.004903 0.003086 0.000980 0.001990 0.004177 0.000171 -0.004994 0.004929 0.001063 0.004086 0.000494 0.000641 0.003923 0.002764 0.000645 0.003147 0.003673 -0.004433 -0.002705 -0.002451 -0.004485 0.004826 -0.002426 -0.000070 0.001429 -0.002027 0.003068 -0.000579 0.002083 -0.002828 -0.001573 -0.002234 0.000556 -0.001354 -0.000857 0.000573 -0.000277 -0.001420 -0.000972 -0.000724 -0.002290 -0.000510 -0.004278 0.000944 0.000525 -0.002447 -0.001322 0.002473 -0.001065 -0.002557 -0.004786 -0.004319 -0.001320
, -0.001446 0.004659 0.000112 -0.001304 0.004252 0.003360 0.003978 -0.000746 0.001993 -0.002101 -0.002659 -0.001104 0.002443 -0.004943 0.002993 -0.004690 -0.001696 0.003917 -0.001612 0.001866 -0.002221 0.003548 0.001684 -0.001285 0.000972 -0.001872 -0.001271 -0.002715 0.001693 0.004885 0.001801 0.004876 -0.000981 0.004803 0.002999 0.003129 0.004035 -0.001102 0.003311 -0.004107 0.003838 0.000326 0.001600 0.001887 0.004892 -0.003734 0.002690 -0.000740 -0.000932 -0.003885 -0.004675 -0.000038 0.002724 0.003288 -0.002735 -0.000877 -0.000330 0.002645 0.001483 -0.001590 -0.000719 -0.001496 -0.004445 -0.004055 -0.002274 -0.004423 -0.001992 -0.002403 -0.000447 -0.000447 -0.003582 0.000481 -0.001801 -0.000886 -0.003318 0.000549 -0.000809 -0.004790 -0.000022 0.002347 0.003399 -0.003695 -0.004095 -0.002197 -0.001204 -0.004702 0.002685 -0.004706 -0.002312 -0.002674 -0.003832 -0.002844 -0.000503 -0.004751 0.002509 -0.001071 0.003471 -0.001954 0.001379 -0.004583
. -0.001641 0.003936 0.001144 -0.002721 -0.000218 -0.003234 -0.004047 0.001572 -0.003528 -0.004850 -0.002738 0.000859 0.002052 -0.000110 0.003089 0.001067 -0.002005 0.004993 0.003921 0.002844 0.000867 0.000176 -0.004556 -0.003327 0.003126 0.001654 -0.004615 0.003150 0.000620 0.003582 -0.000628 -0.001884 -0.004484 -0.000277 -0.000674 0.000033 -0.004117 0.003713 0.003303 -0.002067 0.002472 0.000890 -0.000195 0.003511 -0.000827 0.001903 0.001418 -0.004667 0.000463 0.002451 -0.002587 0.000901 0.004022 0.001069 0.002437 0.000595 0.001251 -0.000571 0.002232 0.004208 -0.003602 0.002403 -0.000822 0.004048 -0.003725 -0.001151 0.000869 -0.000594 0.004074 0.003989 0.002323 0.000799 0.003424 -0.004473 -0.003069 -0.000236 -0.003142 0.003750 0.004040 -0.004459 0.003883 0.000039 0.003318 0.001120 0.000676 0.002471 0.003233 -0.001707 0.002740 0.000319 -0.003022 -0.002422 -0.001565 -0.001915 -0.000473 0.001799 0.003483 0.000968 -0.002125 0.000060
Thanks -0.000934 -0.002261 -0.001524 -0.003992 -0.001110 0.002116 -0.004426 0.002238 -0.003583 0.003893 0.003534 -0.002289 -0.000465 -0.002551 0.001637 -0.000518 -0.001593 0.000574 -0.003960 0.002008 0.004251 0.002244 0.003791 0.000515 0.004781 0.002573 0.002013 0.002630 0.002167 -0.002566 -0.002163 0.002585 0.000495 0.000863 0.003366 0.000787 -0.000400 0.003862 0.004411 0.001873 0.001434 0.000428 0.003584 -0.004449 -0.004077 0.002307 -0.002352 -0.004175 -0.004094 0.004609 -0.001013 0.004889 0.000627 0.003161 0.002762 -0.001955 0.001636 -0.002339 0.003963 0.000876 0.001652 0.003942 0.002237 -0.004137 0.001408 0.000705 0.003327 -0.004626 -0.004083 -0.004632 0.004834 0.001664 0.002104 -0.002614 -0.002565 -0.003608 -0.004650 -0.001715 -0.000281 -0.002702 0.001272 0.003848 0.004684 0.004666 -0.000654 0.000277 0.001055 -0.004076 0.001542 -0.001451 0.001020 -0.002772 0.000372 -0.000995 -0.000650 0.002261 0.000838 -0.002749 -0.000381 -0.004507
doing -0.002726 0.003328 -0.002109 -0.002508 -0.002566 -0.001686 -0.003823 0.004883 0.002562 -0.004530 -0.003445 0.003770 0.003039 -0.000357 0.004652 -0.004722 0.001408 0.003376 0.003846 0.000395 0.001296 -0.003446 -0.002370 -0.000722 0.003963 0.004451 0.004341 -0.004430 0.004004 -0.000032 -0.000070 -0.001924 -0.001527 -0.002463 0.002921 -0.003595 -0.002727 -0.003103 0.000843 -0.002864 0.004552 0.000009 0.001481 0.000326 -0.001818 0.004034 -0.000568 0.002906 -0.000776 -0.000135 0.000241 0.003696 0.002921 0.001589 0.004487 -0.000748 0.004800 0.003452 0.002641 -0.004461 0.002294 -0.001230 -0.001686 -0.001504 0.004750 0.002012 -0.003367 0.000902 0.004424 0.003158 0.002802 0.004757 0.003281 -0.003471 -0.004176 -0.001181 0.000660 0.000418 -0.000905 0.000678 0.002993 0.003454 -0.000831 0.002873 0.002263 0.000541 0.002861 -0.002856 -0.002274 -0.002453 -0.001516 0.003612 0.001738 0.003571 -0.002987 0.004270 -0.004667 0.000039 0.001140 0.003380
Dave -0.000090 0.003458 -0.000476 -0.000664 0.002097 0.001063 -0.001669 0.000839 -0.004896 0.004976 -0.003384 0.001733 -0.003069 -0.003162 0.000956 -0.004841 0.004011 -0.002636 -0.002964 0.001836 0.002284 -0.004844 -0.001523 0.004783 0.003705 0.002099 -0.003750 -0.002890 -0.002895 0.002384 -0.004295 -0.004002 -0.002643 0.003935 0.001511 0.004136 -0.000785 -0.004186 0.000926 0.004526 -0.001008 0.002859 -0.003293 -0.002814 -0.003671 0.003140 -0.000710 0.000032 0.002880 -0.003725 0.001823 -0.004029 -0.000716 -0.001047 0.001225 -0.000710 0.000710 0.001550 0.003150 -0.000894 0.001631 -0.000081 0.001381 0.003128 -0.002525 0.001620 -0.003842 -0.003736 -0.002170 -0.002831 -0.001690 0.000140 -0.000688 0.004389 0.000680 -0.001302 0.002841 -0.003677 -0.004116 -0.000585 0.000541 0.002574 0.000555 0.001461 -0.002805 -0.004847 0.002620 0.003112 0.000306 0.000262 0.002463 0.002011 -0.003305 -0.004702 0.001894 -0.002748 -0.004728 -0.004784 0.001711 0.000638
assume -0.003080 -0.001311 0.003651 0.002622 0.002929 -0.003687 -0.002098 -0.002421 -0.000763 -0.004719 0.000521 -0.000953 -0.002123 0.004309 0.002625 -0.001551 0.003002 -0.003445 -0.001122 0.002155 -0.004772 0.001671 -0.003242 0.001110 0.001668 0.003515 -0.002034 0.001169 0.000402 -0.004820 -0.002147 0.003300 -0.000493 0.000831 0.000946 0.003312 0.003490 -0.000917 -0.004920 -0.003598 0.001920 0.002724 -0.000508 0.004794 -0.002660 -0.003512 0.000025 -0.003195 -0.001358 0.003389 0.003971 0.002979 -0.004792 0.002254 -0.004610 0.003014 -0.000234 0.004715 0.001417 -0.003973 -0.002571 0.002193 0.002839 0.000527 0.003842 0.001955 0.001694 -0.001539 0.000348 -0.000824 -0.004258 0.003639 -0.002130 -0.004437 0.003901 0.003285 0.001117 0.000024 0.001509 0.004427 -0.001019 -0.002749 -0.000496 0.003221 0.001107 -0.004453 0.001206 -0.001169 -0.003168 -0.004675 -0.002767 0.004603 -0.004533 0.002298 0.003508 0.000811 0.003988 0.003375 0.000095 -0.002493
you 0.004685 -0.000271 -0.003975 0.004790 -0.000138 0.003446 -0.003721 -0.000851 0.004985 0.001409 0.000335 -0.003380 -0.001973 0.002590 -0.004523 -0.001485 -0.003901 -0.003661 -0.003995 0.003512 -0.004617 -0.001536 -0.003547 0.000423 -0.003952 -0.000242 -0.001408 -0.002871 0.002419 0.001446 0.001715 -0.000472 -0.004578 0.003246 -0.004215 0.001489 0.002624 0.001244 -0.004926 0.001382 -0.003390 -0.001174 0.000978 0.002425 -0.003540 0.002399 -0.001580 -0.000056 0.004379 -0.003727 -0.003764 0.002082 0.003156 -0.000964 -0.002572 -0.004181 -0.002830 0.004559 -0.001100 -0.004783 -0.004804 0.003811 0.002480 -0.001700 0.002795 0.000467 0.003752 -0.004360 -0.004640 -0.000166 0.000193 -0.003543 -0.002294 0.002228 0.003585 -0.002086 0.004340 0.001085 0.002029 0.004940 0.004508 0.003963 -0.003062 -0.001803 -0.004092 0.003734 -0.000604 -0.001616 -0.000772 0.000818 0.002523 0.003522 0.004667 0.004388 0.001756 -0.002778 -0.001341 -0.004828 0.004888 0.004020
John -0.001649 0.003141 -0.003888 -0.004250 -0.003864 -0.001046 0.003270 0.004790 0.002595 -0.000683 0.004660 0.002407 0.003353 0.000426 -0.004789 0.003655 -0.003301 0.003804 -0.004700 0.002353 -0.002886 -0.003218 -0.000675 0.002981 -0.003795 -0.004836 0.002505 0.001945 0.004504 -0.003108 0.001256 0.003567 0.001516 0.001545 0.004657 -0.001936 0.000562 -0.000709 -0.000117 0.003416 0.000883 0.004908 0.003595 0.002804 0.001364 0.001133 0.002361 0.002880 0.003623 0.001805 -0.001996 -0.003575 -0.000445 0.000704 0.002056 0.001774 -0.000361 0.004540 -0.000879 -0.004361 -0.000764 0.001149 0.002957 0.000123 0.000890 -0.003467 -0.002314 -0.002249 0.002811 0.000295 0.004983 0.003806 -0.002951 0.000731 -0.000883 0.003450 0.001185 0.003234 0.003411 -0.001411 0.004621 0.000618 0.000005 -0.002290 -0.000597 -0.003754 -0.003566 -0.002050 0.003400 -0.001159 -0.000302 -0.003594 -0.002879 -0.003073 0.004111 0.004721 0.003960 0.000953 0.001357 0.002735
review -0.003096 -0.001578 0.002444 -0.000692 0.003330 0.003252 -0.000211 0.004755 -0.003363 -0.003191 -0.003038 -0.000926 0.002212 -0.001990 0.002888 0.000826 0.003351 0.004595 -0.001927 -0.001835 -0.002692 -0.001364 -0.004088 -0.000218 -0.004982 -0.001691 -0.003139 0.003918 -0.001245 -0.003077 -0.003449 -0.004662 0.002266 -0.004178 -0.003601 0.004525 -0.002862 -0.003232 -0.002103 0.000440 0.000940 -0.001403 -0.000889 0.002750 -0.000012 -0.001911 -0.003905 -0.002303 0.003658 0.000595 0.002968 0.002293 -0.004500 -0.000596 0.001702 0.004246 -0.004805 0.002309 -0.002192 0.000719 0.004436 -0.000848 -0.003372 -0.002855 0.003163 -0.003820 0.001931 0.001117 0.004534 0.001961 0.003261 0.000219 0.001766 -0.002306 0.002673 -0.004475 0.002431 -0.000962 -0.004790 0.001411 -0.004420 0.001009 -0.003601 0.001699 -0.003642 0.003111 -0.002497 -0.001891 0.004083 0.002113 -0.004813 -0.000168 -0.003313 -0.000850 -0.003815 -0.003873 0.003123 0.002596 0.004105 -0.004857
are -0.000683 0.004026 -0.003076 -0.002269 -0.001225 -0.001829 0.002541 0.003657 -0.004815 0.004226 0.000956 -0.003878 0.002281 -0.002646 -0.003106 -0.004825 -0.002619 0.002383 0.003046 0.002364 -0.002314 0.001512 0.001256 -0.000316 0.005000 0.003558 0.001177 0.004736 0.004007 -0.004194 -0.002529 -0.000895 -0.001104 -0.003172 -0.004243 -0.001059 -0.001481 -0.002301 0.001875 0.000899 -0.003509 -0.003371 0.000037 -0.003045 0.004579 -0.003253 -0.000409 -0.003082 -0.003542 0.001221 -0.004292 -0.001162 -0.004276 0.000861 -0.001086 0.001087 0.003482 0.000032 0.003395 0.003962 -0.003852 0.003950 -0.004367 0.001866 0.001932 -0.002328 -0.000351 -0.002977 -0.000218 0.003196 -0.002492 -0.001520 0.001852 -0.002457 -0.004802 -0.000949 0.002432 0.001073 0.000741 0.003262 -0.001300 0.002135 0.002953 0.000140 -0.003178 0.001215 -0.003916 -0.001556 0.003969 -0.004479 -0.004401 0.000359 0.001173 -0.000149 0.000575 0.003224 0.000513 -0.003710 0.000567 -0.004951
