38 100
: 0.000264 0.001673 -0.002294 0.003863 0.000627 0.002979 0.004335 0.000667 -0.001593 -0.000252 -0.001515 0.001303 -0.001009 0.002802 0.000706 0.004283 0.000788 -0.002822 -0.003324 -0.004369 -0.001270 0.000907 0.001119 0.004883 0.002876 0.003517 0.001420 -0.003507 -0.001803 -0.000278 0.001531 0.001894 -0.002878 0.002546 0.004981 0.003458 0.000915 -0.000731 0.001796 -0.000386 -0.003014 -0.001036 -0.001428 -0.003812 0.000200 -0.000409 -0.004123 0.001529 0.002388 -0.004880 -0.000217 -0.004573 0.002854 0.000910 0.000344 -0.000500 0.002253 0.004270 -0.003480 -0.002787 0.000679 -0.004853 -0.003456 -0.003414 -0.002332 -0.000292 0.000755 0.004259 -0.002675 -0.002328 0.000666 0.004691 0.002791 0.000532 0.000463 0.001298 -0.000029 0.001442 0.002345 0.002884 -0.002329 0.004798 0.001245 -0.001561 -0.004421 0.004720 0.002740 0.004402 0.003262 0.003291 0.000651 0.001037 -0.000266 -0.004414 0.000104 0.003538 0.002807 0.000198 -0.003987 -0.000688
. -0.001645 0.003941 0.001144 -0.002723 -0.000212 -0.003228 -0.004036 0.001573 -0.003526 -0.004845 -0.002745 0.000856 0.002045 -0.000111 0.003087 0.001073 -0.002005 0.004991 0.003919 0.002839 0.000865 0.000181 -0.004557 -0.003318 0.003126 0.001654 -0.004617 0.003161 0.000611 0.003573 -0.000624 -0.001878 -0.004490 -0.000268 -0.000669 0.000037 -0.004111 0.003719 0.003308 -0.002069 0.002474 0.000891 -0.000194 0.003509 -0.000831 0.001910 0.001420 -0.004663 0.000464 0.002455 -0.002582 0.000900 0.004019 0.001074 0.002433 0.000604 0.001253 -0.000573 0.002233 0.004202 -0.003605 0.002407 -0.000815 0.004054 -0.003726 -0.001155 0.000860 -0.000592 0.004083 0.003983 0.002326 0.000806 0.003429 -0.004474 -0.003071 -0.000243 -0.003148 0.003751 0.004039 -0.004462 0.003883 0.000043 0.003317 0.001115 0.000673 0.002480 0.003233 -0.001706 0.002745 0.000317 -0.003030 -0.002418 -0.001569 -0.001917 -0.000474 0.001802 0.003477 0.000971 -0.002120 0.000058
Request 0.004491 -0.000036 -0.002629 -0.001335 0.000866 -0.000870 0.003940 0.000485 0.002441 0.000337 -0.002827 -0.000257 -0.004767 0.002945 0.000740 -0.001115 -0.000952 0.001752 0.004850 0.002661 -0.002162 0.003181 0.002136 0.004119 -0.000727 0.002578 -0.004790 -0.000719 -0.001120 0.001633 0.001767 0.000955 0.000812 0.002071 -0.000207 -0.004289 0.004604 0.003270 0.002606 -0.001281 0.001497 -0.004626 0.004499 -0.001998 -0.001494 -0.001292 -0.003302 0.000003 -0.004804 0.002080 0.002119 0.003497 -0.004592 0.001514 0.003652 0.001599 0.002992 -0.004178 0.003358 0.004962 -0.001253 0.003552 -0.004858 -0.003133 -0.000691 0.002287 0.001443 -0.004388 0.002681 -0.000595 0.001389 -0.001737 0.002784 0.003466 -0.004827 -0.003818 -0.003305 -0.004119 -0.002283 0.000947 0.002991 -0.001465 -0.002416 0.000821 -0.000661 -0.001857 -0.003406 0.002144 -0.000549 -0.004059 0.002325 -0.003741 -0.004149 0.001713 -0.004474 0.003585 0.002066 0.002001 0.003957 -0.004555
Resource -0.003472 -0.000160 0.003649 -0.003378 -0.003227 -0.002659 -0.004292 -0.004942 0.000579 0.003690 -0.002208 -0.002839 0.000661 -0.004424 0.000007 -0.003195 0.003778 0.003767 0.002322 0.004342 -0.002025 0.002867 -0.000000 0.000659 0.001077 -0.004385 0.001477 0.004996 -0.001860 -0.002441 -0.004345 0.001987 -0.003128 0.002023 -0.003510 0.004685 0.001128 0.000671 -0.001061 -0.001316 0.001743 0.001844 -0.002488 -0.002751 0.000260 0.001620 0.000072 -0.002449 -0.003906 -0.000254 -0.002972 0.003197 -0.003035 0.004033 0.004126 0.002384 -0.002686 -0.002108 0.003560 0.001627 0.000412 0.002401 0.000970 0.001539 -0.004845 -0.004349 0.004151 -0.000764 -0.003278 -0.003142 -0.003256 0.004354 -0.003415 -0.004100 -0.004956 0.001749 0.004009 -0.003050 0.003071 -0.000221 -0.001981 0.001757 -0.004649 0.002744 -0.001998 -0.002864 0.002376 -0.001883 -0.003986 0.003723 -0.003931 0.001018 -0.001799 -0.001999 -0.001715 0.001306 0.000969 -0.001716 -0.000513 -0.002469
request -0.003130 -0.000132 -0.000144 -0.004769 0.002186 0.001696 -0.002774 -0.000263 0.001138 0.001264 0.002380 -0.000761 0.000066 -0.002958 0.002032 -0.001057 -0.003159 -0.001544 -0.003022 0.001223 -0.002420 -0.004543 -0.000861 0.004524 0.001364 0.000861 0.002122 -0.002014 0.003162 0.004390 -0.004249 -0.004385 -0.002623 -0.002524 0.000513 0.003040 -0.002163 0.002514 0.000200 -0.002201 -0.004661 -0.004869 -0.000553 0.003224 -0.001980 0.001517 0.004163 -0.004823 -0.002520 -0.004090 0.001110 -0.004906 -0.000386 0.002245 -0.001036 -0.003401 -0.001066 -0.001640 0.001544 0.002675 -0.004682 0.001454 0.001826 -0.001881 0.000049 0.003094 -0.002373 0.001140 -0.003591 0.000678 0.002045 0.002903 0.004399 0.004895 -0.000319 -0.000929 -0.001810 0.001793 -0.003188 0.004941 -0.002891 -0.003151 0.004620 0.000012 -0.001182 -0.001010 0.000445 0.001033 0.000134 0.000482 -0.002408 0.004583 0.003724 -0.002920 0.003712 -0.001133 0.001144 -0.002826 0.001851 -0.000358
and 0.000133 0.002440 0.001218 -0.000539 0.002982 0.002869 0.004470 0.002463 0.002202 0.004797 0.000031 -0.000996 -0.004928 -0.001534 0.000435 0.003371 0.002192 -0.002403 -0.000346 0.000711 0.001747 0.003723 -0.000879 0.003255 -0.002389 -0.000786 -0.002190 0.002007 -0.004023 -0.004966 0.003540 0.002956 -0.003053 0.003737 0.004517 0.000611 0.003422 0.004724 0.004603 -0.003407 0.003020 0.000943 0.002121 -0.000758 -0.002575 0.003518 0.004630 0.004078 0.003087 0.004474 0.003770 -0.002294 -0.004109 0.001720 -0.001555 0.003849 0.000382 -0.002440 -0.004599 -0.002922 0.001455 0.003601 0.000057 0.001274 0.001650 -0.002432 -0.004765 0.003970 0.003798 -0.004880 0.002322 0.003415 0.001388 -0.004212 -0.001307 -0.004273 -0.004946 0.003360 -0.000968 -0.001384 0.000618 0.001184 -0.000144 -0.002565 0.001070 0.002438 0.000504 -0.000763 0.003005 0.004810 -0.004168 0.004927 -0.004533 0.003882 0.002951 -0.001243 -0.002916 0.001609 0.002384 -0.001419
7:50:30 -0.003138 0.000483 -0.001888 0.001811 0.004618 -0.002443 0.004820 0.003399 -0.001086 -0.003027 -0.000239 0.004382 -0.000034 0.004594 -0.002636 0.003745 -0.004037 -0.001299 0.000248 -0.000735 -0.001122 0.003568 -0.003813 -0.002847 0.000206 0.002320 0.004500 0.002701 0.000400 -0.002715 0.000095 -0.000315 0.003657 0.000374 0.004190 -0.002856 0.003278 0.004607 0.003519 0.003130 -0.002151 0.002072 -0.001343 -0.004005 0.000102 0.002768 -0.003908 -0.004581 -0.003605 -0.003921 -0.002124 -0.003955 0.000038 -0.004805 0.002160 -0.001022 -0.003714 0.000569 -0.000870 -0.001997 -0.002504 0.001027 0.003218 -0.000976 -0.002523 0.003775 -0.004459 -0.002841 0.002084 -0.004693 0.004097 -0.001069 0.004858 0.000221 -0.001455 0.000742 -0.003606 -0.000599 0.004394 0.000632 -0.003093 0.001277 -0.003806 -0.000706 0.002248 -0.000772 0.001891 -0.003886 0.003704 -0.000814 -0.000800 0.000920 0.001739 -0.001951 -0.002141 -0.001254 -0.001532 -0.000071 0.003815 0.003533
Create -0.001266 0.004330 -0.000714 -0.004089 0.003671 0.004243 0.003257 0.002921 0.000410 0.004050 0.003641 -0.004776 -0.003775 -0.003677 0.003936 0.001546 0.003675 0.000691 -0.000078 0.002386 0.004094 -0.001963 0.003902 -0.000845 0.002150 0.000983 0.004930 -0.002277 0.002082 -0.000188 0.002850 -0.001377 0.000550 -0.001188 0.001309 -0.002908 -0.002425 0.002983 -0.000339 -0.004361 -0.002798 0.001832 -0.001609 0.003811 -0.003531 0.004344 -0.004612 -0.001473 -0.000113 0.002616 0.002285 0.001537 0.002866 0.002842 0.000138 -0.000090 0.004237 -0.000378 0.000980 0.004863 0.001905 0.000069 -0.000298 0.001865 -0.000271 0.001080 0.001115 -0.000655 -0.003677 -0.003285 -0.004565 -0.000815 0.003833 -0.004120 -0.001628 0.002411 0.000124 -0.003418 -0.001534 -0.003195 -0.002153 0.002418 0.003942 0.002489 0.004177 -0.001483 0.003291 -0.004754 -0.000251 -0.004973 -0.004556 -0.000810 -0.004841 0.003762 -0.002607 -0.004278 -0.001151 0.003603 -0.001920 0.004628
Please 0.004357 -0.002790 0.003549 -0.001675 -0.003369 -0.002186 0.004823 0.003049 0.004961 -0.002173 0.003077 0.003823 -0.002317 -0.001106 0.000942 0.001952 -0.003362 -0.004808 -0.002489 0.001055 -0.003814 0.004106 0.000722 0.000767 -0.002615 0.003657 -0.003253 -0.002379 0.002493 0.001017 0.003584 0.001759 0.001102 -0.004910 0.004902 0.002137 0.003175 -0.003920 -0.001514 0.003582 0.003224 0.002747 0.004408 0.003079 0.002097 -0.004646 -0.001954 0.001723 0.002256 -0.003590 0.002962 0.004044 0.002875 0.003713 0.002727 0.000175 -0.000811 0.003533 0.000665 -0.000513 0.003963 0.003945 0.002108 0.001836 -0.000799 -0.004808 0.000050 0.004480 -0.004578 -0.000451 -0.004971 -0.003404 0.002121 0.004312 -0.001398 -0.000002 0.003223 0.000851 -0.004328 -0.002640 0.000007 0.000736 0.003069 0.003430 -0.001955 -0.004564 -0.000099 -0.001222 0.003567 -0.004931 -0.002419 0.003784 -0.003759 0.001106 -0.004898 0.002246 0.000727 -0.003010 0.003183 0.000231
136 0.000468 -0.004138 0.003629 -0.002434 0.001876 0.004790 0.002053 0.001306 0.000456 0.001184 -0.002900 0.003572 -0.000068 -0.002957 0.001928 0.001125 0.001588 -0.002051 -0.000757 -0.004243 -0.004534 0.001797 0.003694 -0.000714 0.004278 -0.002909 -0.001983 0.000111 -0.002544 0.003453 -0.004161 0.001271 -0.001417 -0.003458 -0.001962 -0.000968 0.003198 -0.002156 -0.001351 0.002120 -0.004606 0.001996 -0.002730 -0.004208 -0.004600 -0.000092 0.004371 -0.002549 0.000659 0.004510 0.002175 0.001033 -0.004829 -0.000023 -0.004823 -0.004368 -0.002048 0.001132 0.001793 -0.002585 0.004248 0.000614 0.002657 0.001589 -0.002302 -0.003153 -0.002637 0.001692 0.003537 -0.002951 0.000305 -0.001447 0.003717 0.003898 -0.001556 -0.003766 -0.003125 -0.004625 -0.001323 -0.000635 -0.001347 0.004598 -0.004203 0.003019 0.002660 -0.002351 0.002315 -0.002549 0.001662 -0.003948 0.004745 -0.004384 0.001385 -0.002940 -0.002403 0.002658 -0.002122 -0.000513 -0.001916 0.000668
Type -0.000684 0.002514 0.000466 -0.001431 0.003723 0.000747 -0.001890 -0.000516 0.004324 0.002627 -0.001233 -0.002717 -0.003687 -0.004933 -0.003732 -0.000812 -0.004377 -0.004011 0.001299 0.004662 -0.002689 -0.003668 -0.002460 0.001888 -0.004641 0.001013 0.003565 0.004552 -0.001259 0.000047 0.000440 -0.004003 0.002001 0.002982 -0.004026 -0.003133 -0.002731 -0.002390 -0.003780 0.002856 -0.002896 0.002635 0.003792 -0.003031 -0.002937 0.000309 -0.003400 -0.004351 -0.004366 0.001419 -0.003995 0.002866 0.004384 0.001983 0.003933 -0.003311 0.003118 -0.002837 0.003508 0.003814 -0.002785 -0.000634 0.003639 -0.003689 0.001592 0.003434 0.002786 -0.003274 -0.002337 0.002037 -0.001357 -0.000047 -0.001611 -0.002826 -0.002871 0.003422 -0.003423 -0.002024 -0.001248 -0.001340 0.004290 0.004154 0.004839 0.003231 0.000011 -0.004078 -0.004833 0.001736 0.004006 -0.004880 -0.004054 -0.002885 -0.002045 -0.003198 -0.003392 -0.001963 -0.004964 0.004322 0.002146 0.001711
click -0.001640 0.001502 -0.004497 0.003207 -0.004236 0.000661 -0.000128 -0.003589 -0.004779 0.001425 0.003975 -0.004004 -0.001355 -0.002895 -0.002768 -0.001495 -0.000098 0.004201 -0.004223 0.002215 0.003085 0.003873 -0.002841 0.004311 0.000744 -0.004904 0.001464 0.001363 -0.003696 -0.001432 0.001435 -0.000138 -0.000276 0.002389 0.004101 0.002594 -0.003131 0.004066 0.004718 -0.002694 0.004279 0.004861 -0.000207 -0.003682 0.001152 -0.001712 -0.001999 0.000645 -0.000213 0.002175 -0.001308 -0.002703 0.003884 -0.000034 0.002102 0.002440 -0.000513 -0.004895 -0.000464 0.000456 0.002269 0.002736 0.001676 0.000122 0.004942 -0.000376 0.000248 -0.002810 0.001431 -0.004196 0.003148 0.002963 -0.000295 -0.002722 0.000715 -0.001659 -0.003298 -0.000184 -0.002097 0.003963 0.003640 -0.004613 -0.000950 -0.002814 -0.003260 -0.004594 -0.004409 0.004454 -0.004553 0.000984 0.004960 -0.004768 0.004682 0.002542 0.003184 0.003266 0.003967 -0.000197 -0.003758 -0.002232
for 0.001350 -0.004255 0.003151 0.002150 -0.001595 -0.001829 0.000902 0.001319 0.004969 0.002948 -0.001548 -0.004172 -0.001879 0.001144 -0.001232 -0.004263 -0.003348 0.001027 0.003712 -0.003488 -0.003402 0.000622 -0.001912 0.004255 -0.002707 -0.001075 -0.002152 0.001778 -0.004330 0.000600 0.004016 0.000512 -0.001522 0.000318 -0.001522 0.000775 0.004041 -0.004107 -0.002374 -0.003897 -0.002334 0.004457 -0.003862 0.002038 0.003073 -0.003796 -0.001954 -0.003648 -0.003284 0.003704 -0.004282 0.004283 -0.000339 0.003292 -0.003133 -0.000476 0.000987 0.001287 0.003952 -0.003103 0.001038 0.003186 0.001448 -0.000076 0.004329 0.003107 -0.001816 0.002482 0.004927 0.002070 -0.004215 0.002878 0.001298 0.004050 -0.002001 -0.001144 -0.000133 0.001509 -0.000760 -0.004952 0.004228 0.001071 0.000050 0.003419 0.001057 0.001488 -0.002552 0.003074 0.003209 -0.002730 0.002792 -0.003911 0.000952 -0.004832 0.000076 0.003183 0.004129 0.001646 -0.000655 0.004821
Read 0.002010 -0.004436 0.001911 0.000334 0.000961 0.003301 0.004056 0.002404 -0.002446 0.003331 0.004254 0.002572 -0.002358 0.001238 -0.003527 0.000028 0.004030 0.003610 0.000409 -0.003503 0.003089 -0.003385 -0.003540 -0.002303 -0.003945 0.001985 -0.001411 -0.004505 0.001393 -0.000981 -0.002341 -0.001470 -0.003079 -0.002840 -0.004659 0.003560 -0.001220 -0.002969 0.003214 0.003021 -0.002942 0.004053 0.000956 -0.004400 0.004688 0.002224 0.004844 -0.001190 0.002137 0.004655 0.002338 -0.004475 0.002657 -0.003129 0.004331 -0.003938 0.001197 -0.000433 -0.003326 -0.003687 0.004948 0.002612 0.000026 0.001419 -0.000772 0.003215 -0.004657 -0.003519 0.004184 -0.002208 0.003147 0.004864 -0.002232 -0.002944 -0.000670 -0.002497 -0.001137 -0.000248 -0.002930 0.000981 0.000487 0.004046 -0.003404 -0.000795 0.003496 -0.004196 0.001751 -0.002809 -0.001087 0.003498 -0.002302 0.004685 -0.003212 0.004493 -0.003617 -0.001267 -0.000863 0.002988 -0.003681 -0.000320
review -0.003099 -0.001584 0.002441 -0.000694 0.003334 0.003254 -0.000209 0.004753 -0.003366 -0.003184 -0.003044 -0.000925 0.002213 -0.001987 0.002886 0.000824 0.003350 0.004597 -0.001925 -0.001835 -0.002691 -0.001361 -0.004088 -0.000216 -0.004983 -0.001692 -0.003135 0.003923 -0.001253 -0.003085 -0.003445 -0.004662 0.002258 -0.004176 -0.003602 0.004530 -0.002858 -0.003237 -0.002103 0.000440 0.000942 -0.001400 -0.000888 0.002746 -0.000007 -0.001911 -0.003907 -0.002299 0.003661 0.000593 0.002965 0.002299 -0.004502 -0.000593 0.001700 0.004250 -0.004803 0.002309 -0.002189 0.000717 0.004427 -0.000849 -0.003368 -0.002849 0.003161 -0.003824 0.001924 0.001112 0.004541 0.001964 0.003263 0.000231 0.001766 -0.002298 0.002677 -0.004477 0.002428 -0.000957 -0.004787 0.001411 -0.004422 0.001006 -0.003604 0.001695 -0.003643 0.003119 -0.002499 -0.001889 0.004085 0.002103 -0.004812 -0.000171 -0.003310 -0.000850 -0.003813 -0.003868 0.003120 0.002599 0.004107 -0.004860
- 0.004425 -0.004511 -0.004458 0.002674 0.004891 -0.002935 0.001677 0.000663 -0.001705 -0.002849 -0.002091 0.003275 -0.004074 -0.004047 0.002919 0.004593 0.003732 -0.000313 0.004179 0.000899 -0.000688 0.003453 -0.002558 -0.000994 -0.002324 0.004065 0.003954 0.004642 0.003735 0.003830 -0.004197 0.004285 0.001937 -0.001565 -0.002207 -0.002991 -0.004540 -0.004828 -0.000979 -0.004950 0.000195 -0.001684 -0.000933 -0.004644 0.002663 0.003509 0.001656 0.002391 0.000722 0.000251 0.003721 -0.001149 0.003974 0.002417 -0.000575 0.000703 -0.001245 0.001104 0.000856 -0.002433 -0.002215 0.004115 0.004047 -0.004712 0.004507 0.003816 -0.004066 -0.002959 -0.002532 -0.003128 0.002080 -0.001084 0.000356 0.004426 0.002037 -0.001889 0.003915 0.004121 0.002147 -0.002355 -0.002860 -0.004164 0.003392 0.000834 0.003527 -0.003986 -0.000236 -0.004055 0.004653 -0.003664 -0.004285 0.004560 -0.001432 -0.003373 0.001383 0.003480 0.001455 0.003505 0.002853 0.000647
WEBLINK -0.004154 -0.000774 0.000464 -0.000271 0.004811 0.001450 0.003546 0.004462 -0.001967 0.002281 -0.004755 -0.000030 -0.003430 0.003207 -0.000691 0.000514 -0.003105 0.000962 0.002767 -0.004638 -0.004099 0.000577 -0.004081 -0.002844 0.001893 0.004806 0.003149 0.004819 -0.000875 0.002648 -0.001500 0.003244 -0.001393 0.000513 0.000554 0.003549 0.003690 -0.001519 -0.002156 -0.002155 0.001278 -0.004688 0.001521 0.003301 0.002736 0.002506 -0.001047 0.003335 -0.001425 0.001682 -0.002917 0.003374 -0.001528 0.002661 -0.004423 0.004643 0.003247 -0.001543 0.000964 -0.001963 -0.004580 0.004328 0.002645 0.003364 -0.002134 0.000955 -0.002151 -0.003389 0.003471 0.000733 -0.003702 0.001399 -0.003403 0.000718 0.002658 0.001775 -0.002083 -0.000231 0.000467 -0.002432 0.000476 -0.002283 0.000226 -0.004628 0.003951 0.000885 -0.002680 0.000753 0.000566 -0.000416 -0.003322 0.001206 0.004090 0.001490 0.000763 0.001870 -0.000435 -0.002771 0.004308 -0.003823
been -0.003078 0.004597 -0.001289 0.000424 0.000911 0.002090 0.001822 -0.004534 0.003044 -0.004490 0.000420 -0.004946 -0.004871 0.001880 -0.003567 0.000660 -0.002744 0.002849 -0.003581 -0.004906 -0.000450 -0.002716 -0.000962 0.003358 0.002798 0.002134 -0.003266 0.002544 -0.000725 -0.004038 -0.004237 -0.001314 0.000925 0.003781 0.000682 0.002085 0.000360 0.002464 -0.004845 0.003989 -0.003013 0.000210 0.004368 0.003782 -0.003124 0.003276 0.000834 -0.001126 0.000259 0.004944 0.004490 -0.003946 0.004480 0.003072 -0.003825 0.000953 0.001699 -0.003684 0.004473 -0.001122 0.001763 0.001461 0.002796 0.001748 0.003778 0.000105 -0.002576 0.003952 0.004026 -0.002620 0.003647 0.001514 0.004953 -0.000215 -0.003871 -0.003787 0.004990 -0.003016 -0.002988 -0.002957 0.004007 0.003406 0.002249 0.004698 -0.000908 0.002553 -0.002300 0.000077 0.001413 -0.000849 -0.003849 -0.002889 -0.004506 -0.003312 -0.001926 -0.002523 -0.003774 0.002683 0.004744 0.002314
to -0.000475 0.004740 -0.002613 -0.004692 -0.004950 0.004796 0.003423 -0.004167 -0.000004 -0.000249 -0.004232 -0.000471 0.004225 -0.004761 0.003989 0.003587 0.001312 -0.002475 -0.000757 0.000755 -0.003884 -0.004095 0.003556 0.001209 -0.000987 -0.002578 -0.001465 0.003088 -0.000441 -0.002948 0.000726 0.003293 0.000215 -0.002486 -0.003839 0.002879 -0.003558 0.000657 0.004068 -0.002741 0.001326 -0.002528 -0.004047 -0.004200 -0.001564 -0.001550 -0.002519 -0.003179 -0.001510 -0.002362 0.001238 -0.004807 -0.002915 -0.004300 0.003797 -0.000021 -0.004305 0.001781 -0.000031 0.003064 -0.004104 -0.003102 0.004648 0.002789 -0.001933 -0.002406 -0.000585 -0.002973 0.003634 0.003887 -0.004441 -0.001296 -0.003667 0.003615 -0.000622 0.001471 0.002293 0.003424 -0.002641 0.001848 0.000985 -0.002674 -0.001050 -0.002241 -0.001216 0.003391 -0.000767 -0.003849 -0.001380 -0.004037 -0.004948 0.000532 0.001912 -0.000391 -0.001855 -0.000730 -0.003700 0.002203 -0.001182 0.000031
Date 0.004277 -0.000063 0.002731 0.001535 -0.001619 0.002277 0.004554 -0.003594 0.001385 0.004546 -0.003390 0.003744 0.004248 -0.004602 0.000477 -0.003654 -0.003163 0.001235 -0.001228 -0.000676 -0.003331 -0.004390 0.004123 0.004593 0.000308 -0.001972 -0.004296 0.001488 -0.004083 0.001978 0.001502 -0.000973 0.004055 -0.004708 -0.004753 -0.002301 0.000605 -0.003436 -0.001933 -0.003357 0.001131 -0.002916 0.003781 0.003384 0.004655 0.000931 -0.001239 0.002520 0.002970 -0.000963 -0.000965 0.000444 0.003406 -0.002977 -0.002382 -0.002613 -0.004025 -0.002261 -0.003033 0.003432 0.003232 0.003638 -0.001514 0.001365 0.004401 0.000828 -0.002225 0.001237 0.003898 0.000905 -0.001876 0.004808 -0.003677 -0.000401 -0.004480 -0.002081 -0.000080 0.003289 0.003773 -0.004576 0.000368 -0.003891 -0.004340 0.001947 0.004877 0.000467 0.001516 -0.003279 0.000029 0.002055 0.000827 -0.004375 0.001707 0.001803 -0.004848 -0.002175 0.003868 0.004661 0.001854 -0.002298
has -0.002232 -0.000546 -0.003233 -0.004525 0.000276 0.001786 -0.002761 -0.004851 -0.004539 0.004172 -0.000655 0.003243 0.001717 0.004398 -0.002852 -0.000088 0.001701 0.003849 -0.000692 0.001426 0.003798 -0.002081 0.002661 -0.004443 0.000020 -0.003063 0.003630 -0.000145 0.000253 -0.002641 0.000102 -0.003172 -0.003256 0.000652 -0.000219 0.002000 0.000010 -0.002556 -0.004030 0.002523 0.000660 0.002058 0.003311 -0.004707 0.004186 -0.000810 -0.002328 0.003989 0.001798 -0.003890 -0.001817 0.000213 0.002588 0.000284 0.002366 -0.000773 0.004367 0.000181 0.004412 0.002513 -0.004669 -0.002480 0.002628 0.004620 -0.003631 -0.003806 -0.004938 -0.004467 0.002229 0.003364 0.002753 0.003634 -0.000154 0.004079 0.003614 -0.003862 0.000906 0.003796 -0.000192 -0.000978 -0.001447 -0.004505 -0.002211 -0.000385 0.001723 0.002212 -0.000084 -0.002958 -0.001799 -0.004386 0.002489 -0.004845 0.000095 0.003930 -0.000385 0.002319 -0.003619 0.000334 0.002080 -0.002352
\\nahoutrd\houston\pwr\common\power2\Region -0.002120 -0.004205 -0.002350 -0.000456 0.001620 0.001250 0.004567 -0.004941 0.004541 -0.002672 -0.004879 -0.003184 -0.004700 -0.001079 -0.000416 -0.001706 -0.003992 -0.002516 -0.003605 -0.001201 -0.004067 0.003020 0.000700 0.004811 0.002146 -0.004847 0.001492 0.002732 0.000355 0.001091 -0.003489 -0.001063 -0.001168 0.004704 0.003036 0.001012 0.000206 0.004427 -0.002301 0.002504 -0.000229 -0.004343 0.000458 -0.004026 0.001572 0.003159 -0.003900 0.000274 -0.003543 0.000811 -0.001382 -0.001508 0.004445 -0.001188 0.004603 0.002945 0.001432 -0.002932 0.004339 -0.002480 -0.000902 -0.001092 -0.002574 -0.000537 -0.001215 -0.004744 0.000569 0.002276 0.002536 -0.003765 -0.003440 0.003341 -0.000515 -0.003151 -0.003355 0.004400 -0.001706 0.000670 0.001936 0.001862 0.001997 -0.002050 0.001249 0.000969 -0.004692 0.000550 0.004844 -0.001976 -0.004954 -0.001163 0.004396 -0.002792 0.002465 -0.000352 -0.002167 -0.000152 0.003816 0.004466 0.003017 0.002312
pending -0.003845 -0.000069 0.000588 0.000938 0.001975 -0.003917 -0.001881 0.002676 -0.003257 -0.004672 0.004908 0.000481 -0.001044 -0.000421 0.003508 0.002993 0.002373 0.003190 -0.004151 -0.004427 0.001991 0.004776 0.000221 0.000478 -0.004192 0.004409 0.001590 0.001178 -0.003428 0.003270 -0.001732 0.004175 0.004221 0.002159 0.000088 0.001718 -0.004455 0.002938 0.001106 0.000610 -0.002130 0.004700 0.002331 -0.003699 -0.000156 0.002883 -0.004285 -0.001276 0.000570 0.000687 -0.003883 -0.003334 -0.004053 0.004930 -0.003487 -0.003783 0.000826 0.003480 0.000071 0.000699 -0.004645 0.004580 0.000618 0.004025 0.001947 0.001018 0.002396 -0.004028 -0.001211 0.003555 -0.002398 0.003746 0.002842 0.001330 0.000396 -0.001338 0.002197 0.001779 0.004777 0.003385 -0.004750 0.002895 -0.000888 -0.002627 -0.003582 -0.004086 -0.001059 -0.003068 0.003906 0.001931 0.001389 -0.000882 0.003246 -0.004659 -0.003477 -0.002257 -0.003540 -0.000004 -0.000897 -0.002524
Name -0.002215 0.002631 0.002965 0.002056 -0.001691 -0.004008 -0.003069 -0.000641 0.003054 0.004685 -0.002705 -0.004262 0.001286 0.001867 -0.003289 0.004796 0.001107 -0.004448 0.002202 -0.002046 -0.002027 0.000180 -0.002789 -0.000458 -0.001060 0.000521 -0.000550 -0.000805 0.001573 -0.000785 0.002425 -0.001585 0.001247 -0.002848 0.003503 -0.000156 0.001658 -0.004244 0.000341 -0.003723 -0.003889 0.000396 -0.002896 0.000153 0.000695 0.003194 -0.000570 -0.004146 -0.002069 0.001131 0.004233 0.002982 -0.001827 0.000013 -0.001494 -0.002107 0.003738 -0.000143 0.003878 0.002423 -0.000648 0.004277 0.001239 0.000728 0.003134 -0.003102 -0.000415 -0.002790 -0.001618 0.003530 -0.003810 0.003828 -0.001564 0.000507 0.001172 -0.004366 -0.004582 -0.003825 0.002309 -0.002242 0.001572 0.002813 -0.002963 -0.001445 -0.002713 0.003907 -0.003955 -0.000256 0.002653 -0.003125 -0.001234 0.003769 -0.000032 0.004964 -0.003808 -0.004464 0.001281 -0.002209 -0.004383 0.003743
This 0.004213 -0.004966 0.003777 0.002941 -0.001842 -0.002942 0.001415 -0.001127 0.003451 -0.001559 0.002583 0.000230 0.003448 -0.002017 0.004423 -0.002884 -0.002390 -0.004498 -0.001495 0.000788 0.004984 0.001853 0.002316 -0.001691 -0.003304 0.004404 -0.004886 0.002605 0.000647 -0.002498 -0.003328 0.002015 0.003973 0.000655 0.003816 0.000298 -0.002285 -0.002233 -0.002072 -0.002185 -0.001250 -0.004722 0.001101 0.002745 0.000037 0.002289 0.001935 -0.003529 0.000599 -0.004300 -0.001688 0.004448 0.003735 -0.002874 -0.004446 0.001917 0.000303 -0.002607 0.003867 -0.003570 -0.004251 -0.002646 0.004898 0.004936 -0.000892 -0.000493 -0.002230 -0.002138 0.000376 0.002855 0.003219 0.003421 -0.004626 -0.002229 0.004809 0.003478 -0.004623 -0.000022 0.004431 0.002175 0.001958 0.003566 0.002777 -0.001017 -0.003145 0.000182 -0.004779 0.004187 -0.002460 -0.004865 0.002294 -0.000001 0.004930 0.000399 -0.000481 0.001207 0.000258 -0.001176 -0.004687 0.000315
upon 0.002065 -0.001540 0.002841 -0.000602 -0.004612 -0.002378 -0.002344 0.003667 0.004184 -0.002658 0.000319 -0.004328 0.002423 -0.000628 -0.004620 -0.003917 0.002503 0.003161 -0.004369 -0.003238 0.002107 -0.003373 0.003729 0.004507 0.000133 0.002086 -0.001980 0.002347 -0.001626 -0.002513 0.004186 0.000903 -0.003567 0.004409 -0.000467 -0.002805 -0.004084 -0.000836 -0.001828 0.002700 0.003302 0.002450 -0.004883 -0.000047 0.002664 0.001134 0.000624 0.003392 0.002204 -0.003657 0.003905 0.002480 0.003365 0.000239 0.000074 0.004329 0.003834 0.003345 0.001021 -0.004632 -0.003183 -0.003646 0.003783 -0.002558 0.003222 0.004847 0.000020 -0.004279 -0.000879 -0.001519 0.000714 -0.004033 0.002750 -0.003839 0.001027 0.004626 -0.002081 0.000957 -0.002886 0.002705 -0.004364 0.000367 -0.004773 0.000631 0.001046 0.002074 0.002111 0.001223 -0.000217 -0.004068 -0.002574 0.003817 0.003656 -0.004418 -0.001230 -0.000751 -0.002076 -0.002293 0.001732 -0.003247
AM 0.003708 0.004181 0.000200 0.003268 0.002993 -0.001838 0.004500 -0.000910 -0.004660 0.003086 0.004195 -0.001508 -0.001776 0.001486 -0.002324 -0.004244 0.002577 0.000393 -0.004388 0.003525 -0.002613 0.003827 0.003605 0.002796 -0.004711 -0.001231 0.003215 0.004488 -0.002279 0.004263 0.003420 -0.000216 0.003494 0.002293 -0.004042 -0.003883 0.001678 -0.000337 0.001027 0.002733 -0.004069 0.002010 0.003596 -0.002743 -0.004142 0.001034 0.003337 -0.000362 -0.000113 0.004087 -0.000224 0.004245 -0.003127 0.001002 -0.001370 0.002554 -0.003902 0.004087 -0.004863 0.002768 -0.000535 -0.004508 -0.002241 -0.000139 0.002180 0.002615 -0.003552 -0.000697 -0.004401 0.003376 0.001642 -0.001943 -0.001783 0.001974 0.004200 0.001900 -0.000993 -0.003377 -0.001849 -0.000839 -0.000322 0.000464 0.004586 0.000246 -0.002928 0.004065 -0.000590 0.002847 -0.000787 -0.004262 -0.001546 0.003126 -0.003262 -0.001676 -0.003821 0.004155 -0.004069 -0.002244 -0.002554 0.003114
Directory -0.004655 0.002036 -0.004494 0.001392 0.003528 0.001586 -0.002375 -0.003502 -0.004976 -0.000461 -0.004348 0.002501 -0.002249 -0.002826 -0.000570 0.002328 -0.002035 -0.003924 -0.000640 0.001586 -0.000782 0.002030 0.002234 0.000294 -0.000115 0.002368 0.003209 -0.002415 -0.003043 -0.003476 -0.000424 -0.002368 -0.003089 0.001494 -0.004118 -0.001588 0.001967 -0.001966 0.000404 0.004359 0.001053 0.003280 0.002014 -0.003332 0.004766 -0.002128 0.001789 0.000787 0.004178 -0.000004 0.001927 0.000738 0.000121 0.001841 0.004385 -0.000721 -0.002130 -0.002636 -0.002030 0.002040 -0.001160 -0.000210 0.001831 0.003616 -0.004260 -0.002024 0.001486 -0.002783 0.004615 0.000818 0.000532 0.004267 0.001030 0.004761 0.000198 -0.001045 0.002170 0.001422 0.000053 0.001240 -0.002232 -0.001700 -0.002939 -0.001979 -0.001889 0.003666 0.002710 0.003585 0.000300 -0.002788 -0.000881 0.004703 0.000487 0.004983 0.004482 0.001337 -0.003009 0.003539 0.000396 0.002242
approval -0.001595 -0.003481 -0.002048 -0.001998 0.003580 0.000903 -0.000197 0.003720 -0.000616 0.000830 0.003747 -0.001136 0.004777 -0.002553 -0.003532 0.003405 -0.003868 0.001725 0.003187 0.000855 0.002650 -0.001787 -0.003744 0.003982 0.002870 0.003124 -0.002107 -0.002240 0.001804 -0.004875 0.002186 -0.001845 -0.003342 0.001033 -0.000185 0.000135 0.000928 0.001487 0.002679 -0.000802 -0.002464 0.000872 -0.004051 0.004538 -0.004838 0.004117 0.000064 0.003474 -0.002017 0.000524 -0.002385 0.000396 -0.004542 0.000716 -0.004169 0.001724 0.003033 -0.002707 0.001951 -0.001236 0.003796 0.004540 -0.002363 -0.001988 -0.000807 -0.004556 -0.000498 0.003759 -0.000583 0.004583 -0.001143 0.001963 0.002153 0.002168 -0.000108 -0.003813 -0.003941 -0.002497 -0.001468 -0.000545 -0.000081 -0.000345 0.000518 -0.004348 -0.002671 0.000610 0.002410 -0.000266 0.004319 0.000939 -0.001324 -0.000089 0.000984 -0.000413 -0.003971 -0.004966 -0.003038 0.004240 -0.002853 -0.002812
[ 0.004568 -0.003345 0.000111 -0.001975 0.001265 -0.001383 -0.001194 -0.000122 0.001666 0.001050 0.000037 0.000567 -0.000006 0.003888 -0.001836 -0.004628 -0.001411 0.001298 0.000965 0.000481 0.001133 0.002186 -0.003130 0.002261 0.003814 -0.003145 -0.002403 -0.003439 -0.001126 -0.003773 0.002592 -0.001188 -0.003268 -0.003904 0.002666 0.002643 -0.004168 -0.000519 0.004407 0.002572 -0.000390 -0.002168 0.004447 0.001470 0.001448 -0.001464 0.002180 0.001634 0.003186 0.002748 0.003686 -0.001268 -0.000399 -0.002437 0.000229 -0.004964 0.000329 -0.003303 -0.004554 -0.001618 -0.003944 -0.001656 -0.004041 0.001442 0.004508 0.001819 0.004932 -0.001445 -0.004649 -0.001383 0.000560 0.004562 -0.000717 0.004014 -0.004767 0.003656 -0.000326 0.002663 0.004188 0.004653 0.000147 -0.000968 0.002961 0.000143 -0.001733 -0.001977 -0.001738 0.004617 -0.003141 -0.004477 0.001915 -0.004876 -0.000293 0.000362 0.003652 -0.003482 0.002028 0.004463 -0.000103 -0.001314
] -0.001496 0.002852 0.003705 0.001865 -0.000190 0.002643 0.003872 0.000476 -0.002812 -0.000760 0.000766 -0.000423 -0.004160 0.003771 0.004751 0.002175 -0.001464 -0.001206 0.003915 -0.001855 0.002927 0.001051 -0.004883 -0.000836 0.002030 -0.003132 0.000373 0.004564 0.002287 -0.000086 0.003930 -0.002118 0.003197 -0.002913 0.001044 -0.004704 -0.000422 0.000269 -0.002108 0.003482 -0.004340 -0.002026 0.001141 0.000006 0.002972 -0.000169 -0.000269 0.002056 -0.003160 0.004579 -0.004660 0.002479 -0.000683 -0.004960 -0.001080 0.004269 0.000404 0.003228 -0.004401 0.002664 -0.001376 -0.003745 0.003880 0.001158 0.003913 0.001170 0.000460 -0.002425 0.004716 0.003526 0.001595 0.002118 -0.001808 -0.002436 -0.003871 0.004437 0.004689 -0.004073 -0.002207 -0.001554 0.003842 -0.000933 -0.001234 -0.002286 0.001897 -0.001104 0.004597 -0.003128 -0.001598 -0.004461 0.001965 0.003101 -0.003552 -0.001246 0.002767 -0.004052 -0.004964 0.003202 -0.004954 -0.002707
ID 0.001322 0.003853 0.000411 -0.001851 -0.001182 0.000767 0.003462 0.003454 0.003313 -0.003740 0.004432 0.003325 -0.000931 -0.002589 -0.000179 -0.003717 -0.003103 -0.001560 -0.002858 0.003598 0.004262 0.001869 -0.002405 -0.000733 0.004617 -0.003685 -0.004646 0.000675 -0.004953 -0.004797 0.003887 -0.002709 -0.001564 0.003728 -0.001810 0.003631 0.003605 -0.000859 -0.000797 0.003908 -0.003653 0.000906 -0.004017 0.004277 0.002197 0.000998 -0.002574 0.004169 -0.004506 0.001889 -0.004154 -0.004458 -0.000062 -0.004026 0.000597 -0.002419 0.001715 0.004310 0.001496 0.004448 -0.000218 -0.000358 -0.004345 -0.003250 0.000102 0.002557 0.001280 0.003795 -0.000917 0.000518 -0.001070 0.004766 -0.003852 -0.001896 -0.004612 0.000656 0.002448 0.002321 0.003762 -0.003519 0.001156 0.000828 0.002868 0.003142 0.001114 0.004578 -0.000755 -0.000248 0.002160 -0.003701 0.000596 -0.003767 -0.002694 -0.004185 -0.003981 -0.004428 -0.000100 -0.001245 0.000727 0.002011
your -0.004379 0.003354 -0.000271 -0.002426 0.002063 0.000745 -0.004725 0.002279 -0.004276 -0.002430 -0.002622 0.000479 -0.001272 0.003646 0.001848 0.001737 0.002125 -0.002603 0.002152 0.002004 0.001936 -0.003660 0.001655 0.002663 0.003602 0.003256 0.002633 0.004503 -0.004623 0.002536 0.004910 0.000265 0.004472 0.000694 0.000196 -0.002322 0.002284 0.001686 -0.003609 -0.002746 -0.004947 0.002449 0.004212 0.000414 -0.003345 -0.004197 0.003157 0.000364 0.004298 0.000304 -0.000856 0.004722 0.000451 0.001299 0.000782 -0.004814 -0.001835 0.001807 0.004639 -0.003062 -0.000055 -0.004159 -0.003543 -0.004289 -0.002632 0.004250 0.000981 0.001830 0.004347 -0.000607 -0.000426 -0.004513 -0.001931 0.001445 -0.001480 0.003103 0.003475 0.003027 0.001466 -0.004393 0.004122 -0.000334 -0.004690 0.001606 0.000581 -0.000626 0.004209 -0.001806 -0.003831 -0.004990 -0.000777 0.000343 -0.004171 -0.001345 -0.004775 -0.001554 0.001638 0.002571 0.001334 0.004749
this -0.004644 -0.000601 -0.001338 -0.001635 -0.002128 -0.001524 -0.002498 0.003354 -0.003801 0.002767 0.003923 -0.003276 0.004945 -0.002549 0.001345 -0.000137 -0.002882 0.001769 -0.000229 0.003289 -0.004684 0.002063 0.001650 -0.000189 0.004255 0.002763 -0.001911 -0.003882 0.004813 -0.002740 -0.001663 -0.003643 0.000317 -0.003858 0.004083 0.001870 0.002329 -0.000408 -0.004233 -0.003278 -0.003615 0.004180 -0.001553 -0.003291 -0.000210 0.001313 0.004382 0.001747 -0.003594 0.003775 -0.004907 -0.002927 -0.001446 -0.001380 -0.002770 -0.000561 -0.004386 -0.001542 -0.001818 -0.002559 0.002116 0.002721 0.000237 -0.004520 0.001285 -0.004295 -0.001804 0.003016 0.000945 0.001490 -0.003630 0.001533 -0.004599 0.000419 0.001278 0.002973 -0.000592 0.004939 -0.004792 0.000991 -0.002578 -0.001138 -0.002470 -0.000050 0.004936 -0.000793 -0.004018 -0.004093 0.004451 -0.003746 -0.001163 -0.001067 0.003876 0.004856 0.001624 -0.003122 0.002017 0.002342 -0.003350 -0.000199
days -0.002951 -0.002434 -0.004450 -0.003273 0.001627 0.003591 0.002557 0.002046 -0.004226 0.001082 -0.001494 0.002978 0.003819 0.000192 0.001571 -0.001229 -0.001070 0.002835 0.002916 0.002135 0.004365 -0.002782 -0.001289 0.003258 -0.000496 -0.001660 0.004699 -0.003713 0.000620 -0.002558 0.004592 -0.004096 -0.000095 -0.002115 -0.002847 0.004066 0.003134 0.000130 0.002061 0.004479 0.003841 0.004503 0.001044 0.000065 -0.002989 0.002132 0.003375 0.001878 -0.000429 0.002885 -0.001720 -0.001970 0.003587 -0.002358 -0.001761 -0.001126 -0.004313 0.004165 -0.002046 -0.001906 0.003395 -0.001022 -0.002560 -0.002646 -0.003426 -0.000408 -0.003136 0.002496 0.001508 -0.000780 0.004003 0.003888 -0.001357 -0.002293 -0.001668 -0.000132 0.003779 -0.004970 -0.002057 -0.001723 -0.000668 0.004374 0.003880 -0.003596 -0.003159 0.003059 -0.002721 -0.001921 0.004957 -0.002996 0.003911 0.001329 -0.004793 -0.001414 0.004718 0.002966 0.001816 0.002994 -0.002252 -0.001119
000000000041547 -0.001958 0.002250 0.003207 -0.004025 0.003232 -0.003603 0.002549 0.002597 -0.002607 0.004483 -0.003710 0.004540 -0.003070 -0.002857 0.002424 0.001337 -0.001574 0.001967 0.001096 -0.000725 0.001729 0.001097 0.000342 0.004855 -0.004456 -0.002796 -0.003121 0.000152 0.002875 -0.003678 0.002247 0.001468 -0.001496 0.000839 0.000909 -0.003616 -0.000221 0.003306 0.002449 -0.002163 -0.000161 0.002290 0.001351 0.001614 0.000509 0.000890 -0.003486 0.003947 -0.004853 -0.002278 -0.003011 -0.003655 0.003674 -0.004307 0.004714 0.000479 0.002373 0.001584 0.001758 -0.004677 0.003413 0.003754 0.001991 0.001095 -0.002291 0.002018 0.003189 0.003351 -0.001778 -0.004151 -0.001834 -0.003681 0.000998 -0.001252 -0.001320 -0.003873 -0.001558 0.004063 -0.000091 -0.003223 -0.002086 -0.000227 -0.002564 -0.003470 -0.002884 0.001825 -0.000110 0.004718 0.000296 0.004245 -0.002473 -0.000201 -0.002291 0.003654 0.000354 0.004581 0.003024 0.003155 -0.003898 0.004548
act -0.003472 -0.004629 -0.004964 0.000381 0.001418 -0.002412 0.001558 -0.001974 0.003878 -0.002486 -0.004376 -0.001002 0.004013 -0.001371 0.000938 -0.003392 0.003939 0.003572 0.003007 -0.003375 0.004978 -0.004355 -0.003233 0.002616 0.002157 0.003779 0.003616 -0.002976 -0.004496 -0.003039 -0.000837 0.004206 -0.002948 -0.001111 -0.001182 -0.000614 -0.003735 0.002992 0.004443 -0.002657 -0.001323 -0.003950 -0.003285 -0.000338 -0.004529 0.004717 -0.003507 -0.000767 -0.002447 0.004517 0.000731 -0.003817 -0.003593 -0.003592 -0.002624 -0.000809 -0.002364 -0.001887 0.002857 0.001901 -0.003075 0.002500 -0.002800 0.000998 0.003366 0.000850 -0.003776 -0.002516 0.001388 -0.002429 0.003740 0.002913 0.003191 -0.001237 0.001103 0.003909 -0.004966 -0.004536 0.004821 0.001849 0.000500 -0.000808 -0.004512 -0.001999 -0.001671 0.000871 0.003476 -0.003140 0.004570 -0.004055 -0.003708 -0.001598 0.003014 -0.004193 -0.002891 -0.000392 -0.004106 0.000938 0.002542 -0.000881
6/19/01 -0.004601 0.000312 -0.001173 0.002554 0.002100 0.001117 0.001331 0.001878 0.000408 -0.003225 -0.000714 0.004272 0.003599 0.002157 0.000186 -0.002750 0.001456 -0.004746 -0.000520 -0.002191 -0.001182 -0.002632 -0.001679 0.003883 0.000224 0.003785 -0.002673 -0.003250 0.003365 0.002424 0.003100 0.003520 0.003668 0.004913 0.004041 -0.000050 -0.000881 0.000148 -0.004072 -0.003695 -0.004669 0.000490 0.003535 0.003212 0.001509 0.000341 -0.000434 -0.001380 0.001974 -0.000131 -0.000184 0.002565 0.002560 -0.000146 0.000457 -0.001250 0.002427 -0.004651 -0.001548 0.000731 -0.000624 -0.003578 -0.001269 -0.000139 -0.001788 -0.000157 0.001456 0.000327 0.002164 0.000151 0.004125 0.001571 -0.000815 0.004280 0.000891 0.001125 -0.003323 0.000186 -0.001239 0.000996 0.000621 -0.003970 -0.004641 -0.003102 0.001788 -0.000604 0.002297 0.003451 -0.000215 -0.001150 -0.001499 -0.001790 0.002058 -0.000352 0.004803 -0.001166 -0.003874 -0.004627 0.004540 -0.001978
