13 100
financial -0.003599 -0.002984 -0.003373 -0.004085 -0.001343 -0.000304 -0.000264 -0.003589 0.003946 -0.004019 0.003686 -0.004085 -0.002615 0.000618 -0.001074 0.003845 0.000624 0.000313 0.003033 0.001493 0.004913 0.001357 -0.004050 0.002421 -0.003344 -0.000168 -0.000421 0.002554 -0.004785 -0.003736 -0.000600 0.001074 -0.001027 -0.001555 0.000747 -0.000921 0.003100 -0.003560 -0.000945 0.000073 -0.001225 -0.004740 0.002653 0.002750 0.000476 -0.000657 0.004342 0.000344 -0.002596 0.001745 0.003164 0.002358 -0.002809 -0.003003 0.001015 -0.002702 -0.002929 -0.004438 -0.001255 0.003566 0.004459 -0.002658 0.002225 0.001180 0.004202 0.003284 0.003967 0.000571 -0.002785 0.002407 0.002713 0.004562 -0.002859 0.001147 -0.001417 -0.003018 0.003493 -0.004366 -0.004790 -0.001022 -0.001767 0.003469 0.004743 0.004880 -0.004041 -0.000946 0.004342 -0.000012 -0.000093 -0.004766 -0.000641 0.003473 0.000626 -0.004270 0.004217 -0.001091 0.004396 -0.002198 -0.004803 -0.001199
power -0.003072 0.003639 0.002757 -0.004106 -0.003633 0.000138 0.001980 -0.003377 -0.001801 0.003411 -0.004449 0.004452 -0.002617 -0.000781 -0.000363 0.004457 0.003042 -0.003093 -0.004572 0.002581 0.001272 0.001394 0.001746 0.003846 0.004722 -0.000812 -0.002886 -0.001779 0.002177 -0.002962 -0.001847 0.002929 0.001448 0.004725 -0.002838 0.004024 -0.004547 -0.002011 -0.000749 -0.004805 -0.001327 0.001963 0.000614 0.000295 0.000533 -0.003598 -0.003916 -0.003098 0.002851 0.003533 -0.002735 0.004271 0.000844 0.004173 0.000104 -0.004366 0.003157 0.002421 0.001046 -0.003618 -0.004139 0.000249 -0.001404 -0.003655 -0.002096 -0.002980 -0.002526 -0.003488 0.002544 -0.000964 0.004050 -0.000037 0.001583 0.002680 0.004736 0.000105 0.001164 -0.001460 -0.003589 -0.002738 -0.003170 -0.004269 -0.002740 0.001363 -0.003077 0.001847 -0.000966 -0.001131 0.000912 -0.001261 0.001750 -0.001282 -0.000655 0.003991 0.002677 0.001177 0.001095 0.001236 -0.004423 0.004953
of 0.004275 -0.003754 -0.000623 -0.002396 -0.000051 -0.001042 0.004698 0.000637 -0.000675 -0.002285 0.000417 -0.002270 -0.003525 0.003873 -0.002189 -0.000382 -0.003708 -0.002098 -0.001315 0.002150 -0.004753 0.001455 -0.003266 -0.000356 0.001993 -0.003056 0.001778 -0.000851 -0.000855 0.000742 -0.003992 0.003207 -0.001961 -0.001454 0.000186 0.001586 0.001946 0.003579 0.001990 -0.002139 -0.003148 0.001314 0.001989 -0.004597 -0.003549 -0.000195 0.000410 0.001254 0.003922 -0.000799 0.000985 0.004587 -0.001851 -0.004870 -0.001574 -0.004320 -0.004941 -0.001553 -0.004669 0.001587 0.002933 -0.001241 0.003690 -0.002106 0.002363 -0.004104 -0.000228 0.000863 -0.001276 0.001555 -0.003225 0.003798 0.003738 -0.003799 0.003490 0.000091 -0.000503 0.000411 -0.003411 0.003895 -0.002906 -0.001394 0.004309 -0.002370 -0.000571 -0.002103 -0.001643 -0.004263 0.004120 -0.002011 -0.004353 -0.001759 -0.001659 0.002958 -0.004816 0.001384 0.003223 0.001170 0.002868 0.003526
is 0.000500 0.000970 0.003514 0.001978 0.000054 -0.002849 -0.004618 0.004119 0.001329 -0.001159 -0.001770 0.002179 -0.004492 -0.001020 0.000010 -0.000366 0.000333 -0.000283 -0.004760 -0.002343 0.000179 0.000515 -0.004545 0.002220 0.002001 -0.004134 0.004334 0.002197 -0.004992 0.000767 -0.004166 0.003576 0.004440 -0.003004 0.002799 0.001885 -0.004098 -0.001444 0.003276 0.002556 0.000766 -0.000059 0.001759 0.004375 -0.000417 -0.003391 -0.000870 0.002027 0.003458 -0.004446 0.002794 0.000622 -0.000508 -0.004840 0.000933 -0.002172 -0.003055 0.002821 -0.003875 0.004297 -0.003225 0.002168 0.000411 0.002735 0.002709 -0.004408 0.003918 0.001661 -0.002048 0.000908 0.004198 0.002619 0.000591 -0.001147 -0.004382 0.001151 -0.001982 -0.000825 0.003879 -0.004951 0.000444 -0.001414 -0.002481 -0.002589 -0.003844 -0.004813 -0.001204 0.003012 0.001385 -0.002308 0.000845 -0.003516 -0.003286 -0.003947 -0.000086 0.002313 0.000943 0.000535 -0.003001 0.002702
there 0.000357 -0.004514 0.001922 -0.003404 -0.003391 -0.002637 0.002950 0.004497 -0.001944 0.002880 -0.001634 0.002770 0.002321 0.003494 -0.003443 -0.000738 -0.002255 0.001922 0.002747 0.001375 0.003640 -0.001613 -0.001636 -0.004905 0.001187 -0.001607 0.001152 0.000507 0.001934 -0.003059 0.000375 0.004245 -0.003474 0.003153 -0.000976 -0.001412 -0.004207 0.004434 -0.004217 0.001848 0.000899 -0.002232 0.002337 -0.004655 0.001678 0.002676 0.001993 -0.003792 -0.004920 0.002256 0.002963 -0.002249 -0.000199 -0.003711 -0.000371 -0.000455 -0.004702 0.002365 -0.004087 -0.000985 0.000553 -0.004052 0.003774 -0.001896 0.001559 0.000854 0.000809 0.003947 -0.004293 0.004923 -0.003170 0.002792 -0.001183 0.000211 0.004715 -0.000531 0.001005 -0.004944 0.000465 0.000483 -0.004866 0.004471 -0.001178 -0.000485 -0.004836 -0.004665 -0.000513 -0.001508 0.000522 0.004102 0.004472 -0.003013 0.004349 0.000622 -0.004296 0.004667 0.001769 0.000937 0.004275 -0.003820
Attached -0.001433 0.002032 -0.000937 0.002612 -0.003743 0.000031 -0.003713 -0.004545 0.004480 0.002372 -0.004275 0.004771 -0.000715 -0.000609 -0.003383 0.002123 -0.001771 0.001190 0.002386 0.002359 0.002385 0.003280 -0.001709 -0.003205 -0.002749 0.001438 -0.000526 -0.001642 0.002248 -0.002484 -0.002909 0.002153 0.003803 -0.002870 -0.002755 -0.004815 -0.001135 -0.001873 0.004360 -0.000868 0.000692 -0.000500 0.000275 -0.004938 0.002946 -0.001321 0.002056 0.001334 0.004330 -0.002650 0.000350 -0.000562 -0.000325 0.004299 -0.002039 0.001930 0.002749 0.003599 0.000779 -0.002482 -0.004106 -0.003109 0.000070 0.003220 0.000236 0.002978 -0.004950 -0.000585 0.003239 0.001314 0.003326 0.003103 -0.000274 -0.003093 0.002247 -0.000014 -0.000352 0.003470 -0.004351 -0.001650 -0.003492 0.001610 0.001702 0.002510 0.000069 -0.000193 0.000513 -0.004040 -0.001635 -0.000551 -0.002948 0.000957 0.001473 -0.003669 0.001189 0.002634 -0.003035 -0.003228 0.003939 -0.002802
. -0.001642 0.003937 0.001144 -0.002721 -0.000218 -0.003233 -0.004048 0.001571 -0.003528 -0.004849 -0.002740 0.000858 0.002052 -0.000110 0.003089 0.001066 -0.002006 0.004994 0.003921 0.002843 0.000866 0.000175 -0.004556 -0.003327 0.003126 0.001653 -0.004617 0.003151 0.000619 0.003582 -0.000627 -0.001884 -0.004485 -0.000276 -0.000673 0.000033 -0.004116 0.003713 0.003304 -0.002068 0.002473 0.000889 -0.000195 0.003513 -0.000827 0.001904 0.001419 -0.004668 0.000464 0.002452 -0.002588 0.000902 0.004023 0.001070 0.002438 0.000595 0.001251 -0.000571 0.002234 0.004208 -0.003604 0.002404 -0.000823 0.004049 -0.003726 -0.001152 0.000868 -0.000593 0.004075 0.003990 0.002323 0.000798 0.003425 -0.004474 -0.003070 -0.000235 -0.003143 0.003751 0.004040 -0.004459 0.003883 0.000039 0.003319 0.001121 0.000678 0.002472 0.003234 -0.001708 0.002740 0.000318 -0.003022 -0.002422 -0.001564 -0.001914 -0.000474 0.001799 0.003485 0.000969 -0.002124 0.000059
deals -0.001082 0.002391 -0.003182 -0.000142 0.000031 0.003356 -0.001617 -0.004325 0.003105 0.003290 -0.003204 -0.001181 -0.002870 -0.000778 -0.003577 -0.003576 -0.002858 0.000452 -0.002233 -0.001937 -0.004068 -0.001998 0.003053 -0.000768 -0.002482 -0.004040 -0.001959 0.001844 -0.003274 0.000354 0.001245 0.000944 -0.000802 0.004211 0.002096 -0.000441 0.004916 -0.001348 0.001707 -0.000524 0.000303 -0.004886 -0.000609 0.004564 -0.000792 0.002468 0.002345 -0.002346 0.003395 0.002421 -0.001488 0.000853 0.000893 0.000340 0.001960 -0.003216 0.002589 -0.000248 0.004406 0.000859 -0.002051 0.000884 -0.003050 -0.001102 -0.001833 -0.000056 -0.004671 0.002768 0.001587 0.000663 -0.001451 -0.002081 0.000037 0.001759 -0.001734 0.004911 -0.001271 0.000254 -0.003876 0.002865 0.000806 0.000489 -0.000175 0.004569 0.004826 0.002428 -0.001052 -0.001077 -0.003088 -0.001991 0.003966 0.001840 0.002627 0.003896 -0.002506 0.000382 0.003651 0.002773 0.002735 -0.004513
list 0.002734 -0.001771 -0.002862 -0.003738 0.003478 0.002032 -0.002093 0.002066 -0.001034 -0.004425 -0.001245 -0.000107 -0.003483 -0.001941 -0.002744 -0.000702 0.004186 -0.000262 -0.001370 0.003971 0.002312 0.003489 0.004713 -0.002491 -0.000776 0.000355 -0.001228 -0.001278 0.004664 -0.002535 0.000830 -0.002300 0.004837 -0.001951 0.003382 -0.004130 0.000856 0.000863 0.004108 0.000261 -0.003359 -0.004890 0.002849 -0.004151 0.003772 -0.003067 0.004123 -0.001553 0.003660 -0.000110 0.002146 0.000611 -0.001335 0.001782 0.003413 -0.003725 0.003012 0.001962 -0.003816 -0.001210 0.001371 0.004670 0.004067 -0.000798 -0.003985 0.002566 -0.001686 0.004848 -0.002434 0.000063 -0.001641 0.004199 0.003180 -0.002524 -0.001234 0.004034 0.001376 -0.004015 -0.004304 0.002780 0.002770 0.001980 -0.000492 -0.000406 0.003793 -0.002434 -0.003134 0.003273 0.000508 0.000538 -0.004806 -0.004125 -0.001553 0.002375 -0.002845 0.001927 -0.000668 -0.000436 -0.002519 -0.002623
Are 0.004441 0.000536 -0.002769 0.003124 -0.000408 -0.000249 -0.000524 0.002351 0.004252 0.003690 -0.000370 -0.004758 0.003555 -0.003807 -0.001656 -0.003735 -0.001674 -0.001524 0.003163 0.002675 -0.000466 0.000512 0.004618 0.004898 -0.004479 0.004354 -0.000271 0.003172 -0.000788 0.003648 -0.002039 -0.000124 -0.001535 0.003488 -0.003931 -0.000659 0.003906 -0.002299 0.001470 0.003690 -0.000140 0.000872 0.000329 0.000986 -0.004323 -0.001875 0.003386 -0.001093 -0.001233 -0.002672 -0.000903 -0.000943 -0.004498 -0.004447 0.003879 0.001681 0.003171 0.000394 -0.002733 0.001160 -0.004970 0.000516 -0.001586 0.003541 -0.003855 -0.004466 -0.003342 -0.001922 0.000520 -0.002185 -0.003805 0.000779 0.003407 0.000453 0.003024 0.002168 -0.003043 0.004467 -0.004590 -0.003732 0.003025 -0.001562 0.004438 0.000793 -0.004974 0.004261 -0.004729 -0.004938 0.001332 -0.000342 -0.002948 0.001004 -0.001270 0.003463 -0.001626 -0.000975 0.003063 0.002177 -0.002177 -0.002163
others 0.001906 -0.002172 -0.004982 0.004224 -0.004210 0.001298 -0.000500 0.001507 0.002268 -0.003206 0.004646 0.000931 0.003508 0.004998 -0.002618 0.002311 0.003613 0.002827 0.004369 -0.003006 -0.000665 -0.000457 0.004626 0.000548 0.003136 -0.004196 -0.002267 -0.002461 -0.000113 0.001721 0.003179 -0.004166 0.001207 0.001721 0.004388 -0.000981 -0.001401 -0.000255 -0.001544 -0.000681 0.002061 -0.003657 -0.002897 -0.000955 0.002386 -0.004646 0.004922 -0.001958 0.002271 -0.002452 0.004877 -0.001613 0.004325 -0.001614 -0.003287 0.002362 0.004563 0.004445 0.003620 0.001344 -0.002670 0.003924 -0.000252 -0.002475 -0.000042 -0.003554 0.000813 0.004350 -0.003333 0.001122 0.002928 -0.003032 0.001080 0.001781 -0.004433 0.000313 -0.004862 0.002293 0.004839 -0.000506 -0.004454 -0.003647 0.000159 -0.004579 -0.000859 0.001763 -0.001150 -0.002508 0.004169 -0.000312 -0.003813 -0.001666 -0.002488 -0.000939 0.004270 0.003075 0.004725 0.004121 0.001832 0.002309
my -0.004666 -0.000846 0.001642 -0.000244 -0.002464 0.003778 -0.000676 0.000522 0.001073 -0.000670 -0.003821 -0.003581 0.003668 0.003039 0.004856 -0.000065 0.004820 -0.001256 0.000228 -0.004680 -0.004310 -0.003764 0.004496 0.003923 -0.003418 -0.000105 -0.003266 0.002014 -0.000162 0.001206 0.001538 0.003390 0.002990 0.002206 -0.003097 0.003048 0.004829 0.002713 0.000372 -0.000527 -0.004096 -0.004947 -0.004232 -0.002563 0.000887 0.000498 -0.001815 0.003142 -0.001570 0.000904 0.001029 0.003573 -0.000960 -0.001674 -0.001245 0.001451 0.004898 0.002729 0.002108 0.000730 -0.003926 0.002579 -0.001388 0.002964 0.000114 -0.000635 -0.000306 -0.001318 -0.001051 -0.004171 -0.000170 -0.001420 0.001689 0.000025 -0.004307 0.002945 0.005001 -0.001902 0.003099 -0.002875 -0.000344 0.004422 -0.002811 -0.003211 -0.001076 -0.001300 0.000476 -0.000985 0.004308 -0.003630 -0.003292 0.003477 0.001855 0.001203 0.003042 -0.004297 0.003344 0.000750 -0.004130 -0.004676
? 0.001872 0.001634 0.004021 0.000335 -0.004493 0.003484 -0.001688 -0.003660 -0.001848 0.002781 -0.003438 -0.002421 -0.004460 -0.002102 0.003577 -0.003746 -0.002626 -0.000847 0.002021 -0.001021 0.000494 -0.004473 0.000161 0.003361 0.001803 -0.004882 -0.004950 0.000775 0.002502 0.001184 0.000889 -0.001747 -0.001280 -0.002154 -0.003285 0.002110 -0.002256 -0.003359 0.002615 0.003967 -0.000949 -0.003635 0.001923 -0.002403 -0.002521 -0.003987 0.002797 -0.001028 0.004766 0.001889 -0.002490 -0.002793 -0.003736 0.004733 0.002027 -0.001431 0.001948 -0.003605 0.001315 -0.001148 0.002175 -0.001185 0.001206 -0.003504 -0.001991 -0.001609 -0.002121 -0.001319 -0.002959 0.000703 -0.001545 -0.000112 0.001971 0.000514 -0.004801 0.003009 -0.000737 0.000472 -0.001230 0.003156 -0.000130 -0.002550 -0.002756 0.001778 -0.002187 0.000177 0.003880 -0.004665 0.001490 -0.003379 0.004864 0.003373 0.002276 0.001608 0.004827 -0.001688 -0.004462 -0.004338 -0.004588 -0.000299
