22 100
We -0.004672 0.004473 0.003856 0.001446 0.002769 -0.000014 -0.003704 -0.003684 0.000409 -0.002550 0.003930 0.002754 -0.002795 -0.003097 0.000382 0.002016 0.000094 -0.004336 -0.000546 0.000334 0.002062 0.004447 0.000148 0.000089 0.004958 0.004682 -0.001620 -0.003098 0.004491 0.000162 -0.004309 0.004275 -0.001402 0.002857 -0.001380 0.003291 0.004031 -0.001303 0.004675 0.003985 -0.002297 -0.002894 0.002152 0.003695 0.003292 -0.004682 0.001021 0.001943 0.002482 -0.003374 0.002219 -0.001339 -0.001796 0.004780 0.002338 0.001087 0.002652 0.002665 0.000411 -0.004647 0.000090 0.000448 0.003308 0.002886 0.000361 0.000651 0.004822 0.000565 -0.004997 -0.000434 0.002890 -0.000568 -0.004420 -0.000872 -0.002123 0.001982 0.000192 0.002575 -0.004104 -0.003269 0.000126 -0.000252 0.004193 0.003500 0.004277 0.000680 0.004077 0.002284 -0.000768 0.001084 -0.001834 0.004026 0.002952 -0.004897 -0.003852 -0.002549 -0.001514 -0.002842 0.004772 -0.000789
. -0.001640 0.003935 0.001145 -0.002719 -0.000218 -0.003233 -0.004046 0.001574 -0.003527 -0.004851 -0.002738 0.000857 0.002051 -0.000112 0.003089 0.001068 -0.002006 0.004993 0.003922 0.002845 0.000869 0.000175 -0.004558 -0.003325 0.003125 0.001655 -0.004615 0.003150 0.000621 0.003582 -0.000628 -0.001885 -0.004486 -0.000278 -0.000674 0.000034 -0.004115 0.003712 0.003302 -0.002067 0.002471 0.000889 -0.000196 0.003513 -0.000827 0.001904 0.001420 -0.004667 0.000461 0.002453 -0.002588 0.000901 0.004022 0.001069 0.002436 0.000596 0.001250 -0.000571 0.002233 0.004208 -0.003604 0.002406 -0.000823 0.004049 -0.003726 -0.001150 0.000867 -0.000593 0.004075 0.003989 0.002323 0.000800 0.003426 -0.004473 -0.003069 -0.000236 -0.003143 0.003751 0.004039 -0.004459 0.003883 0.000039 0.003320 0.001118 0.000678 0.002471 0.003233 -0.001706 0.002743 0.000320 -0.003020 -0.002422 -0.001566 -0.001916 -0.000472 0.001799 0.003484 0.000966 -0.002125 0.000059
CPA 0.001165 0.000097 -0.000051 0.004584 0.000489 -0.002039 0.000308 -0.002126 -0.003823 0.001558 -0.004446 0.004314 -0.003185 -0.002791 -0.002807 -0.003290 -0.001777 -0.000423 -0.002058 0.004458 -0.004312 -0.001346 -0.003492 -0.003903 -0.004771 0.002822 -0.002179 0.003120 0.001191 0.000693 0.000138 0.004386 0.004259 0.000135 -0.001300 -0.000602 -0.001892 -0.004997 0.004722 -0.002570 -0.001138 0.004580 0.002581 -0.002025 -0.003957 -0.003361 0.003998 0.004538 0.002934 -0.000887 0.003524 0.003351 0.003092 0.004396 -0.001233 0.003499 0.003940 -0.004416 -0.000583 -0.001536 -0.001940 -0.001490 0.000470 0.002596 -0.003090 0.003959 0.004011 0.001123 -0.002191 -0.003366 0.000622 0.004370 0.001526 0.000796 -0.003744 0.002636 0.001652 -0.002563 -0.001317 -0.004657 -0.004693 0.000511 -0.004380 -0.004509 0.003556 0.004534 0.004377 -0.003583 -0.004962 -0.003435 -0.004284 0.003621 0.001414 0.001039 -0.002704 0.004455 -0.004255 -0.000240 -0.002984 -0.002248
dth/d 0.001360 0.004551 -0.002126 -0.003926 0.000340 0.001317 -0.002253 0.000723 -0.003474 0.002044 -0.004081 -0.004909 -0.000991 0.000620 0.001588 -0.001787 -0.000166 0.003845 0.001038 -0.002216 -0.001188 -0.003925 -0.002050 0.004316 0.003387 0.003819 0.004792 0.000424 -0.001507 0.003630 -0.001558 0.001355 0.002884 0.003507 -0.002181 0.000377 -0.004533 -0.003620 -0.000944 0.003655 -0.001010 -0.003926 -0.001937 -0.001045 0.003210 -0.000937 -0.001703 0.004845 0.000577 -0.001117 0.004085 0.000149 0.003417 -0.002891 0.003970 -0.001174 0.001504 0.003848 0.003949 0.002014 0.000097 -0.002619 -0.001405 -0.004071 0.000468 -0.003125 0.002009 0.000743 -0.003061 0.001049 0.001406 0.000562 -0.001010 0.000436 0.002492 -0.002325 -0.005001 0.003832 0.004630 -0.003573 0.001648 -0.000561 0.003308 0.002991 0.000861 0.001967 -0.003737 0.001139 0.001493 0.002277 -0.000869 0.002394 0.002257 -0.000906 0.002623 -0.003696 -0.002781 -0.001013 -0.000329 0.004225
at 0.004809 0.002730 0.002411 0.001191 0.000239 -0.001107 -0.004086 -0.002951 0.003961 -0.000895 0.003237 0.000773 0.001436 0.003779 -0.003204 0.004047 -0.000151 -0.003555 0.002092 -0.002403 0.003982 0.004249 -0.004432 -0.003876 0.004449 0.004784 -0.003620 -0.001020 -0.002807 -0.003063 -0.000697 0.004805 0.002718 -0.001826 -0.003655 0.003199 0.001464 -0.000179 -0.002165 -0.002626 -0.004743 -0.003492 -0.002141 -0.003416 -0.002437 0.003127 -0.000342 -0.001217 0.004814 0.001991 -0.000276 0.004296 -0.004651 -0.001131 -0.004113 0.004910 -0.003115 0.001498 0.000185 -0.003633 0.003265 -0.001249 0.004689 0.002925 -0.002893 -0.002450 -0.000891 -0.001731 0.002678 0.001431 -0.000063 -0.001786 0.003611 0.003162 0.001814 0.004366 0.003581 0.002005 -0.003899 0.003968 -0.000039 -0.002549 0.000536 0.000303 -0.002777 -0.002121 0.001304 -0.004304 -0.001027 -0.000401 0.002335 -0.002033 0.002606 -0.002666 0.004836 0.000200 -0.003243 -0.001751 -0.001087 0.004767
have -0.000516 -0.003156 0.002498 -0.000846 0.002895 -0.001986 0.001063 -0.000761 -0.003403 -0.003744 -0.002104 -0.002703 -0.003622 -0.000477 -0.000584 -0.000705 0.001649 0.004870 -0.003849 -0.003922 -0.002306 -0.002428 0.003698 -0.002289 0.002905 0.003100 -0.002151 0.004526 0.000655 0.000905 -0.002712 -0.003360 0.002959 -0.003961 0.004670 0.003955 0.000591 0.004124 0.004275 0.004318 -0.004792 0.002744 -0.002566 0.003404 0.002573 0.001147 0.000475 0.001976 0.001981 -0.000174 -0.000602 -0.000821 -0.000049 -0.004543 -0.000041 -0.003907 0.000541 -0.000090 -0.004920 0.002883 0.000095 0.002660 -0.003364 -0.000975 0.002102 -0.004651 -0.001113 -0.003315 -0.002848 0.001624 -0.004181 0.002578 0.001777 -0.004127 -0.004484 -0.002652 0.000054 -0.002876 -0.001918 0.000334 0.000335 0.004705 -0.002573 0.002812 -0.002984 0.004669 -0.002803 0.000098 0.001210 -0.004969 -0.004205 -0.003948 -0.002317 0.002916 0.002340 0.004890 -0.000044 -0.003303 -0.001953 -0.003082
need 0.003486 0.001694 -0.000867 -0.001902 0.004624 -0.000547 -0.002822 -0.002713 -0.003913 0.002209 0.000514 0.002996 0.002966 0.002365 0.000779 -0.003070 -0.004715 0.004905 0.003060 -0.002334 -0.003605 -0.003454 -0.003821 -0.003536 -0.000150 -0.002895 0.000856 0.002914 -0.003461 0.002535 0.001901 0.002502 0.004181 0.002838 -0.003687 -0.003419 -0.002118 0.000203 0.002490 -0.002066 0.004100 -0.000356 -0.003225 0.002838 -0.002664 0.000437 -0.003779 -0.002127 0.001518 -0.002141 0.000895 0.000353 0.001603 0.001460 -0.003670 0.003059 0.002958 0.000273 -0.004919 -0.004978 0.001904 -0.000593 0.004534 0.002124 0.003626 -0.004693 0.003700 -0.001256 -0.002775 -0.002831 -0.003316 0.002375 0.001295 -0.003655 0.002590 -0.000935 -0.001737 -0.002040 -0.000300 0.001697 -0.001329 0.003172 -0.001787 0.001237 -0.004646 -0.003084 -0.001159 0.000762 -0.003672 -0.001098 -0.003555 -0.000141 0.002704 0.001919 0.001174 0.001948 0.000512 0.004723 0.001522 0.001667
will -0.001114 -0.001185 0.001045 0.002281 0.001714 0.003662 -0.004090 0.003205 -0.002883 -0.000345 0.004375 -0.004695 0.003183 -0.004125 0.002066 -0.003852 0.001380 -0.003728 -0.000641 0.004761 -0.003377 -0.004950 0.004993 0.002751 -0.002204 0.004105 -0.000069 0.003583 0.000016 0.000229 -0.000573 -0.001649 0.003394 -0.000572 -0.002629 -0.003615 0.002635 -0.001377 -0.001279 0.004505 -0.000529 -0.002123 -0.002855 -0.000564 0.000778 -0.004468 0.004766 0.004370 0.002263 -0.004365 -0.003298 0.004320 0.003039 -0.002782 -0.000617 -0.002235 0.000029 0.002277 -0.002577 0.004524 -0.000510 -0.003419 -0.001347 0.003355 -0.004579 0.001878 -0.002536 -0.002354 -0.002695 -0.004861 0.000484 -0.002096 -0.002578 0.003679 -0.002905 -0.004914 0.003342 0.004464 0.001001 -0.001825 0.002561 0.003945 0.002055 0.002169 -0.001614 0.003434 -0.002915 0.000057 -0.001229 -0.002246 -0.003642 -0.002369 -0.002511 -0.002896 -0.003901 -0.002193 0.003324 -0.004636 -0.002596 -0.002698
for 0.001354 -0.004251 0.003151 0.002149 -0.001594 -0.001831 0.000899 0.001320 0.004966 0.002946 -0.001548 -0.004171 -0.001878 0.001145 -0.001230 -0.004262 -0.003348 0.001028 0.003715 -0.003485 -0.003402 0.000621 -0.001913 0.004254 -0.002708 -0.001076 -0.002152 0.001780 -0.004329 0.000605 0.004018 0.000510 -0.001521 0.000319 -0.001524 0.000771 0.004039 -0.004106 -0.002371 -0.003897 -0.002332 0.004459 -0.003865 0.002037 0.003072 -0.003797 -0.001955 -0.003650 -0.003283 0.003702 -0.004283 0.004284 -0.000336 0.003291 -0.003128 -0.000476 0.000987 0.001291 0.003951 -0.003101 0.001038 0.003185 0.001446 -0.000076 0.004328 0.003105 -0.001814 0.002481 0.004926 0.002071 -0.004214 0.002876 0.001300 0.004047 -0.002000 -0.001145 -0.000136 0.001511 -0.000756 -0.004955 0.004230 0.001070 0.000052 0.003419 0.001056 0.001489 -0.002550 0.003072 0.003209 -0.002728 0.002793 -0.003909 0.000951 -0.004832 0.000074 0.003183 0.004132 0.001645 -0.000657 0.004824
there 0.000357 -0.004514 0.001922 -0.003404 -0.003391 -0.002637 0.002950 0.004497 -0.001944 0.002880 -0.001634 0.002770 0.002321 0.003494 -0.003443 -0.000738 -0.002255 0.001922 0.002747 0.001375 0.003640 -0.001613 -0.001636 -0.004905 0.001187 -0.001607 0.001152 0.000507 0.001934 -0.003059 0.000375 0.004245 -0.003474 0.003153 -0.000976 -0.001412 -0.004207 0.004434 -0.004217 0.001848 0.000899 -0.002232 0.002337 -0.004655 0.001678 0.002676 0.001993 -0.003792 -0.004920 0.002256 0.002963 -0.002249 -0.000199 -0.003711 -0.000371 -0.000455 -0.004702 0.002365 -0.004087 -0.000985 0.000553 -0.004052 0.003774 -0.001896 0.001559 0.000854 0.000809 0.003947 -0.004293 0.004923 -0.003170 0.002792 -0.001183 0.000211 0.004715 -0.000531 0.001005 -0.004944 0.000465 0.000483 -0.004866 0.004471 -0.001178 -0.000485 -0.004836 -0.004665 -0.000513 -0.001508 0.000522 0.004102 0.004472 -0.003013 0.004349 0.000622 -0.004296 0.004667 0.001769 0.000937 0.004275 -0.003820
, -0.001442 0.004659 0.000113 -0.001303 0.004253 0.003360 0.003977 -0.000744 0.001991 -0.002100 -0.002662 -0.001107 0.002442 -0.004944 0.002994 -0.004692 -0.001701 0.003922 -0.001611 0.001866 -0.002222 0.003544 0.001676 -0.001283 0.000971 -0.001872 -0.001268 -0.002713 0.001692 0.004890 0.001803 0.004878 -0.000983 0.004804 0.002996 0.003130 0.004033 -0.001106 0.003311 -0.004106 0.003837 0.000323 0.001596 0.001892 0.004891 -0.003732 0.002689 -0.000742 -0.000934 -0.003885 -0.004675 -0.000038 0.002727 0.003287 -0.002738 -0.000876 -0.000329 0.002647 0.001486 -0.001589 -0.000720 -0.001492 -0.004443 -0.004052 -0.002273 -0.004423 -0.001992 -0.002401 -0.000448 -0.000446 -0.003583 0.000485 -0.001797 -0.000887 -0.003317 0.000547 -0.000814 -0.004788 -0.000021 0.002345 0.003401 -0.003693 -0.004092 -0.002195 -0.001204 -0.004700 0.002683 -0.004703 -0.002308 -0.002671 -0.003831 -0.002844 -0.000502 -0.004752 0.002514 -0.001070 0.003472 -0.001953 0.001378 -0.004581
only 0.004886 -0.004709 -0.000580 -0.004870 0.001957 -0.004490 0.004102 -0.000665 -0.003864 -0.002106 -0.001978 -0.001554 0.004202 -0.004792 0.003717 0.003537 -0.001867 -0.000807 0.002937 -0.004786 -0.000555 0.004903 0.004678 -0.003568 0.003547 -0.001601 -0.002506 -0.001523 -0.004147 0.001160 0.004378 0.000780 0.000164 -0.001916 -0.000023 0.003655 -0.000274 -0.001615 -0.003712 -0.003216 0.001727 0.004344 -0.002082 0.001157 0.000823 -0.004500 -0.004956 0.000899 0.004801 0.000406 0.003190 0.004528 -0.001054 -0.001969 -0.000539 -0.004457 -0.003721 0.003414 -0.004392 0.002198 -0.001392 0.001217 0.003607 0.003332 0.002399 -0.000000 -0.002118 -0.001737 -0.003285 0.004789 -0.002340 0.002573 -0.002026 0.000928 0.001436 0.000462 0.002125 -0.003020 -0.000521 0.003688 0.002923 -0.000667 0.001127 0.000664 -0.001594 -0.003291 -0.004688 0.002153 0.002381 0.000420 0.000111 0.002767 -0.003034 -0.002124 -0.002439 -0.000999 0.001362 0.000358 0.004078 -0.000121
you 0.004693 -0.000259 -0.003972 0.004787 -0.000127 0.003451 -0.003729 -0.000855 0.004979 0.001408 0.000332 -0.003381 -0.001975 0.002586 -0.004515 -0.001489 -0.003914 -0.003661 -0.003992 0.003515 -0.004621 -0.001531 -0.003552 0.000420 -0.003949 -0.000236 -0.001411 -0.002874 0.002425 0.001452 0.001713 -0.000464 -0.004575 0.003256 -0.004222 0.001497 0.002631 0.001240 -0.004923 0.001385 -0.003385 -0.001179 0.000978 0.002435 -0.003533 0.002396 -0.001587 -0.000059 0.004384 -0.003733 -0.003763 0.002084 0.003158 -0.000964 -0.002573 -0.004180 -0.002827 0.004574 -0.001103 -0.004793 -0.004804 0.003809 0.002487 -0.001700 0.002799 0.000460 0.003761 -0.004363 -0.004653 -0.000168 0.000189 -0.003543 -0.002304 0.002222 0.003587 -0.002088 0.004337 0.001086 0.002026 0.004943 0.004514 0.003968 -0.003063 -0.001801 -0.004093 0.003727 -0.000601 -0.001611 -0.000775 0.000818 0.002520 0.003532 0.004670 0.004382 0.001756 -0.002781 -0.001340 -0.004830 0.004901 0.004023
MacClendantown -0.004688 0.003587 -0.003403 0.000081 -0.003303 0.002297 -0.004537 -0.004885 0.002918 -0.002237 0.003510 -0.000290 -0.000972 0.004995 -0.004782 0.004907 -0.001295 -0.004045 0.003007 0.003226 -0.000523 -0.001173 -0.002233 0.003366 -0.000032 0.004916 -0.002114 0.000708 -0.000296 0.004172 0.001011 -0.003851 0.000152 0.004675 -0.004219 -0.001143 -0.001629 0.004230 -0.003851 0.003867 0.002729 0.004058 0.000365 0.001382 0.003089 -0.001263 0.002422 0.001866 -0.004576 0.002584 0.004577 -0.003428 -0.002468 0.004815 0.002295 0.003170 -0.002781 -0.001593 0.002935 -0.002258 0.001322 0.001611 0.004771 -0.002075 0.004586 0.003883 -0.003388 0.004281 -0.001556 -0.002819 0.002313 -0.003623 -0.003404 0.002236 0.004760 -0.002881 -0.001063 -0.004853 0.002963 0.000513 0.001620 -0.000802 0.004322 -0.004314 0.003008 0.001381 0.004581 0.002704 0.001892 -0.003745 0.003273 -0.002067 0.003702 -0.004328 -0.003487 -0.002278 0.000453 0.001770 0.004114 0.003361
get 0.002104 0.001827 -0.001891 0.000927 0.001479 -0.001979 -0.002434 0.000066 0.004196 0.001315 0.002591 0.000099 -0.002539 -0.002495 -0.000664 0.001318 0.001097 -0.001729 0.003822 -0.003779 0.002567 -0.003363 -0.003447 0.003721 0.004919 -0.004477 0.003270 0.004084 0.000486 -0.002478 -0.004577 0.000136 0.003068 -0.000311 0.000115 0.001773 -0.000560 -0.004594 0.001965 -0.004510 0.002064 -0.004618 0.001333 -0.001030 0.003627 -0.001028 0.004213 -0.002562 -0.004918 0.002030 -0.001307 -0.004269 -0.004242 -0.001555 0.000502 0.000682 0.000465 -0.002537 -0.000431 0.004262 0.004829 0.004737 0.002470 -0.002165 0.003545 -0.000997 0.003135 0.004688 0.002521 0.001271 -0.002587 0.001698 0.004773 -0.000838 -0.003202 0.000166 -0.004876 -0.003252 0.004835 0.004548 0.003706 -0.003109 0.002320 0.002157 0.001964 0.001579 0.000923 -0.000911 0.002592 0.000082 -0.004819 -0.002159 -0.002274 -0.002765 0.003415 0.004383 -0.003614 -0.004430 -0.004640 -0.004149
upstream 0.001639 0.001019 0.001089 -0.002674 -0.001822 -0.001634 -0.002614 0.000912 0.000884 0.004249 -0.003487 -0.003465 -0.001828 -0.002476 0.004906 -0.004647 -0.002075 0.000940 -0.002726 0.001025 0.003924 -0.002107 -0.003133 0.003155 -0.001485 -0.002283 0.003157 0.002423 0.004712 -0.000164 0.000749 0.002739 0.002281 0.000304 0.003529 0.002616 0.001594 -0.003670 0.000389 0.003641 0.004959 -0.000987 -0.002870 0.004138 0.004877 0.001482 -0.004939 -0.002308 -0.000719 0.004961 0.000972 -0.004143 0.000604 -0.003498 -0.004280 -0.000367 0.000782 0.003873 0.001328 -0.002027 0.004692 -0.001314 0.004695 -0.001667 -0.004857 0.003224 -0.000700 0.002176 0.004368 -0.001187 0.001916 0.000552 -0.003442 -0.003949 -0.000408 0.002952 -0.003043 0.002600 0.004225 -0.004919 -0.003436 -0.001402 -0.001518 0.003907 0.000053 -0.003557 0.002483 0.002890 0.004386 -0.003546 -0.000120 0.002833 0.001683 0.004043 0.004385 0.002015 0.001933 0.001114 0.000501 -0.002471
now -0.003320 -0.003759 -0.002907 -0.000524 0.000168 -0.001069 0.002689 0.002731 0.003065 0.003869 0.001332 0.000071 0.000577 -0.000951 0.002481 0.000543 0.001978 -0.002227 0.001544 -0.004018 -0.004459 0.004529 0.001245 0.001820 0.001301 0.001504 0.003015 -0.000352 0.001538 -0.002460 -0.000756 0.000549 0.001019 -0.000144 0.002413 -0.004420 -0.002455 -0.004185 -0.004867 -0.001837 -0.004830 -0.000619 0.001080 0.002169 -0.002796 0.000890 -0.003618 -0.000193 -0.004329 -0.002698 -0.002994 -0.000566 -0.002280 0.001721 0.000140 -0.004335 -0.004929 -0.002790 -0.004471 0.002290 -0.001385 0.003905 -0.003247 0.004305 0.002533 0.001689 -0.000506 -0.003285 0.000409 0.004016 0.001435 -0.003726 0.000176 0.002770 0.001908 -0.003077 0.000978 0.004625 0.004563 -0.002073 0.003675 -0.000767 -0.003066 0.003761 -0.004585 0.004422 0.002121 0.002161 -0.000036 0.002395 0.001858 -0.000716 -0.000506 -0.004539 -0.002826 -0.004991 0.001208 0.000554 0.001991 0.002746
1,857 0.004832 0.004570 0.003896 0.000793 0.002583 0.004586 -0.003341 0.002340 -0.004222 0.000843 -0.002207 0.000222 -0.004979 0.004397 0.003815 0.000822 -0.004556 -0.004053 0.004305 0.004280 -0.000191 0.004090 0.000239 -0.001560 -0.004301 0.004992 -0.002855 0.000178 0.003722 -0.004040 -0.004260 -0.003649 0.004664 -0.001151 -0.003231 0.003125 0.004454 0.001923 -0.001679 0.000763 0.002082 -0.000957 0.003857 -0.002782 0.004094 0.004167 -0.004557 -0.004353 -0.003470 0.004315 -0.000451 0.001855 -0.004602 -0.004681 0.004250 0.004263 0.001598 0.004669 0.001064 -0.000465 0.003187 -0.004415 -0.000394 -0.003966 0.002819 -0.000988 0.001617 0.002703 -0.002241 -0.001867 -0.002543 -0.002907 -0.004032 -0.002751 0.000758 -0.002901 0.000128 0.000884 -0.004235 0.003727 0.000791 0.004521 -0.003618 -0.002364 0.001854 -0.004472 0.001446 0.004701 -0.002564 -0.000214 0.004218 0.004487 -0.004790 -0.002261 -0.001091 0.002884 -0.000599 0.001764 0.002610 0.004259
info -0.004249 -0.002536 0.004924 0.000292 -0.001662 -0.000758 0.004021 -0.003655 0.002962 0.000190 0.001789 -0.003692 -0.000701 0.001812 -0.001420 -0.002318 -0.004569 0.001914 0.002163 0.004980 0.001707 -0.002384 -0.001614 0.000394 -0.003368 0.001319 -0.003832 0.004098 -0.003324 0.000458 0.002437 0.001946 0.003104 0.003729 -0.003096 0.001784 0.003725 -0.002578 0.003476 0.001329 -0.003007 -0.004573 -0.002706 -0.000559 -0.004796 0.002628 0.002053 0.004874 -0.003959 -0.000448 0.003825 0.000405 -0.001339 -0.000695 0.000274 0.004704 0.002457 -0.002200 -0.003636 0.004635 0.003374 -0.003658 0.001034 0.002003 0.001355 0.003424 0.002785 -0.000093 -0.002741 0.002514 0.003636 0.001549 -0.002537 -0.001435 -0.002512 -0.002705 0.002337 0.004109 -0.000177 -0.003796 0.004139 -0.003024 -0.002910 -0.000865 -0.004431 -0.003222 0.002174 -0.003675 0.002773 -0.002042 -0.004989 -0.003172 -0.002292 -0.000876 0.003428 0.003058 -0.004638 -0.002429 0.000489 0.004913
A06 0.003758 -0.001582 0.004318 0.004994 -0.001648 0.003047 0.000944 0.004374 -0.000311 0.001177 -0.002134 0.000346 -0.000611 -0.003497 0.001287 0.000610 -0.003974 0.000581 -0.003687 0.001109 0.000548 0.000713 -0.004886 -0.000311 -0.003010 0.000849 0.004810 0.000303 0.001102 0.004072 0.003938 0.002786 -0.000245 -0.002829 0.002377 0.003979 -0.000997 -0.003932 0.000476 0.001871 -0.003441 -0.004064 0.000485 0.004509 0.000157 0.004819 0.000390 -0.002229 -0.003683 -0.002876 0.000376 0.000363 -0.002569 -0.002530 -0.004439 -0.000735 -0.001140 0.001724 0.003894 0.003886 -0.000344 0.003744 0.000642 0.001984 -0.000162 0.002178 -0.002718 0.003176 -0.001067 0.002254 -0.002975 0.003834 0.003759 0.000016 -0.000186 -0.002607 -0.004531 0.001095 -0.004824 0.002060 -0.001134 0.004462 -0.000672 -0.000069 0.003715 0.002471 0.000110 0.003667 0.004250 0.004694 0.001988 -0.001597 -0.002353 -0.002096 0.004521 0.000649 -0.003920 0.001595 -0.002102 -0.001686
1,000 -0.001097 -0.004932 -0.004484 0.004048 -0.001896 -0.003712 0.003872 0.002169 -0.000243 0.001113 0.002556 -0.000499 0.002974 -0.001420 0.001503 0.001220 0.003754 0.000927 -0.003429 -0.003288 0.004556 -0.002277 -0.001647 0.004178 0.000704 -0.002519 0.000801 -0.000164 -0.004979 -0.004803 -0.003367 0.002471 -0.002445 0.000994 0.000950 0.001904 0.003044 0.001854 0.004430 -0.004556 0.004943 0.002918 0.004918 -0.000631 0.004063 0.003999 0.000726 0.000319 0.003613 0.002612 -0.003886 -0.002642 -0.003735 -0.003756 -0.004061 -0.000048 0.000896 0.002022 0.002322 0.000454 -0.002876 -0.001115 -0.004132 0.003969 0.002413 -0.000877 -0.004366 0.000651 -0.001397 0.001172 0.004130 -0.000352 0.002320 0.001010 0.001169 -0.001364 -0.004781 0.004717 -0.003735 0.004836 0.000369 0.003830 -0.003041 -0.004357 -0.000717 -0.004756 0.001527 -0.000505 0.002148 0.001197 0.003617 -0.004085 -0.003546 0.000156 0.004311 -0.002614 -0.002483 -0.000629 -0.002111 -0.000858
found 0.004246 -0.002015 -0.002225 0.002455 0.002489 0.000450 0.003311 0.001809 -0.000556 -0.003713 0.002004 -0.003426 -0.003899 -0.003183 -0.000850 0.001979 -0.003013 0.000440 0.002749 0.003639 0.004480 -0.003474 -0.004150 0.002253 -0.001378 0.000907 0.000104 -0.002187 0.001287 -0.001146 -0.002429 -0.002100 -0.004296 0.000542 -0.004913 0.000969 0.004584 -0.002366 -0.003526 0.000160 -0.002099 -0.001127 -0.003230 0.001807 -0.003054 0.002215 0.004818 0.000264 -0.001777 0.003618 -0.002276 -0.002767 0.002628 -0.001107 -0.000913 0.004058 -0.000631 -0.000745 -0.002036 -0.002076 -0.002786 0.004145 -0.002604 0.002496 -0.000453 -0.000478 -0.003029 0.001519 -0.001381 -0.004612 0.000789 0.001639 0.003554 0.000570 0.001856 0.002509 0.000125 -0.002517 -0.001211 0.002182 0.000409 -0.001951 0.004590 -0.004728 -0.000638 -0.000594 -0.002645 0.001812 0.002738 0.002024 0.003920 0.003486 -0.000083 0.001471 0.001532 0.000525 0.002954 -0.004097 0.000706 -0.001958
