10 100
Task 0.000985 -0.003092 0.003446 0.004817 -0.002624 0.001736 -0.001585 0.002946 -0.001417 0.001787 -0.004574 -0.002784 -0.003597 -0.001376 -0.003540 -0.001041 -0.002455 -0.001587 0.002713 -0.003974 -0.002240 0.001247 -0.001092 0.004455 -0.001123 0.000634 0.000790 0.004787 -0.000792 0.003576 -0.004248 -0.002241 0.000268 0.002247 0.003079 -0.004926 0.000573 -0.000101 0.002653 -0.001949 0.004742 -0.001706 0.001984 0.000357 0.004199 0.004272 -0.000820 -0.001056 -0.003013 0.001520 -0.000200 0.003990 0.003436 0.001598 -0.004700 -0.003560 0.003621 0.004493 0.003129 -0.003739 -0.000457 -0.002325 -0.002472 -0.002549 0.003000 0.002792 -0.003754 0.004792 0.001507 0.001320 0.002665 -0.002984 0.004610 -0.001981 0.004661 0.001346 0.004898 0.000380 0.003832 0.004119 -0.002412 0.000724 -0.000201 -0.003664 -0.000651 -0.001591 -0.001811 -0.000331 0.000880 -0.003901 0.001330 -0.001378 0.002881 -0.004692 0.000679 -0.003266 0.003172 -0.003915 0.002088 0.004760
: 0.000278 0.001675 -0.002285 0.003868 0.000612 0.002983 0.004324 0.000660 -0.001590 -0.000263 -0.001499 0.001303 -0.001008 0.002797 0.000705 0.004282 0.000791 -0.002825 -0.003334 -0.004368 -0.001266 0.000903 0.001129 0.004880 0.002873 0.003510 0.001410 -0.003510 -0.001795 -0.000271 0.001523 0.001886 -0.002867 0.002546 0.004979 0.003449 0.000908 -0.000732 0.001789 -0.000375 -0.003011 -0.001033 -0.001427 -0.003806 0.000202 -0.000418 -0.004120 0.001522 0.002394 -0.004893 -0.000215 -0.004574 0.002866 0.000913 0.000348 -0.000508 0.002252 0.004279 -0.003481 -0.002790 0.000693 -0.004868 -0.003459 -0.003422 -0.002331 -0.000287 0.000763 0.004271 -0.002688 -0.002328 0.000670 0.004675 0.002799 0.000528 0.000462 0.001295 -0.000008 0.001442 0.002344 0.002889 -0.002332 0.004806 0.001251 -0.001547 -0.004422 0.004711 0.002745 0.004403 0.003250 0.003304 0.000663 0.001034 -0.000272 -0.004424 0.000102 0.003530 0.002813 0.000190 -0.003993 -0.000680
On 0.001332 0.004546 0.002711 0.001274 -0.004442 -0.002926 0.001447 0.001232 -0.001177 0.004063 -0.003658 0.002803 0.003165 -0.002589 -0.000565 -0.002864 -0.002300 -0.002836 0.001935 -0.003218 0.004324 -0.000004 0.002293 -0.000074 0.004939 0.001899 0.002183 0.001850 0.002009 0.004692 0.000569 -0.003954 0.004183 0.002066 -0.003254 -0.000447 0.000044 0.000713 0.002530 0.002339 0.000500 -0.000835 0.001863 -0.002186 0.001383 0.003371 0.001325 0.000873 -0.001132 -0.004936 -0.000777 -0.004301 0.004050 0.000261 -0.000969 0.003137 0.003358 0.004350 0.003908 0.003273 -0.001074 -0.000471 0.000399 0.003814 -0.004093 -0.002728 0.001797 -0.002582 0.003847 -0.002355 0.002572 -0.003631 0.004214 -0.003353 0.003563 0.000815 0.000035 -0.003891 -0.001345 -0.003298 0.003951 -0.000386 -0.003916 0.001007 -0.000886 0.001199 -0.002220 0.000749 -0.001107 0.003577 0.002887 0.000241 0.003833 0.004017 0.001272 -0.000156 -0.003079 -0.004096 0.001039 0.003358
ASSIGNMENT -0.003328 0.002825 -0.002912 -0.003332 0.002231 0.004660 0.001307 -0.001049 -0.002328 -0.004897 0.000720 -0.001863 -0.003206 -0.003773 0.002633 -0.000330 -0.001362 -0.004070 -0.000778 0.004972 0.004997 -0.000076 -0.003193 0.001240 0.000653 -0.002154 -0.001421 0.003418 0.002808 -0.003662 0.004726 -0.004621 0.000811 -0.004599 -0.003709 -0.001530 0.002575 -0.004521 0.000751 -0.000945 0.000468 0.001060 0.002529 0.002808 0.002201 -0.002712 0.001055 -0.000078 -0.001589 -0.002218 0.004178 -0.002696 -0.003064 0.004351 -0.002273 0.002496 0.003406 0.001703 -0.001943 -0.003102 -0.000155 0.004551 -0.002657 -0.000356 0.001678 -0.004012 0.000159 0.004167 0.001796 -0.000670 -0.003162 0.001397 0.004114 0.001975 0.004063 0.003752 -0.001399 0.002438 0.003890 -0.001549 -0.004937 0.001918 0.004746 -0.002976 0.001879 0.002322 -0.002391 -0.002582 0.000621 -0.002230 0.004863 0.002018 -0.004904 0.004045 0.004760 0.002744 0.000687 -0.000464 0.002241 -0.004693
Due -0.001717 0.001878 -0.002029 -0.000889 -0.000680 0.003714 -0.000825 -0.003943 0.000714 0.004123 -0.001084 -0.003791 -0.002634 -0.002533 -0.001963 0.001882 0.004503 -0.001053 -0.002248 -0.003231 -0.000876 0.001269 0.001572 -0.000557 -0.002933 0.002541 -0.003471 -0.000488 -0.001522 -0.004405 0.001950 -0.003249 0.003432 -0.004433 0.001250 -0.001662 0.001622 0.000807 -0.003555 0.002825 0.000782 -0.001759 0.004564 0.001778 0.002968 -0.001542 0.001137 -0.000875 0.001940 -0.002164 -0.003266 -0.003309 0.000649 0.003323 0.004304 0.003475 -0.004008 0.000973 -0.002187 -0.004461 -0.000865 -0.000195 0.001149 -0.001364 0.001843 0.002194 -0.003709 -0.004633 -0.002697 -0.004006 -0.004173 0.003948 0.001753 0.001236 0.001124 -0.003285 0.004822 0.002673 0.003913 -0.000069 -0.001856 0.004998 -0.003676 0.003189 0.002219 0.004337 -0.002023 0.002755 0.000617 0.001610 0.003180 0.003164 -0.002217 0.003780 -0.002852 -0.003978 0.003333 -0.004277 -0.002959 0.002388
Priority 0.002785 -0.001422 -0.003654 0.000034 0.000777 -0.000231 -0.000581 -0.003267 0.004764 -0.004599 -0.002620 -0.003372 0.002318 0.000796 0.002721 -0.003809 -0.000435 -0.004463 -0.004468 0.001737 -0.002367 -0.000412 -0.003112 0.000930 0.004250 0.001296 0.001375 0.002574 -0.001541 0.004486 -0.000947 -0.001759 -0.001913 0.003240 0.004902 -0.002727 0.002068 0.002456 0.002762 -0.000502 -0.003537 -0.004449 -0.000980 0.002404 0.000077 -0.001172 -0.004842 0.000748 -0.002671 0.003474 0.000822 0.003312 -0.004868 0.001623 0.003916 0.000942 0.003848 0.003737 -0.000518 -0.001630 -0.004046 -0.000596 -0.001211 0.004438 -0.002440 0.001714 0.004231 -0.002144 0.004608 0.001571 -0.000497 -0.000993 -0.004008 0.003655 -0.002823 0.004633 -0.004624 -0.004983 0.003437 0.003917 -0.004797 -0.001123 0.000968 -0.003018 0.000997 0.000676 0.003643 0.000314 0.004289 0.002509 0.001501 -0.001116 0.004619 -0.003635 0.000537 -0.000455 -0.000353 -0.003984 -0.002010 0.002577
Start 0.000605 -0.001188 -0.000748 0.002354 0.004386 -0.000674 -0.000749 0.002585 0.001951 -0.002113 0.003465 0.000869 -0.003575 0.004104 0.004682 -0.004814 -0.000474 -0.000879 -0.001067 -0.000654 0.000391 0.001692 0.001446 0.003018 -0.002919 -0.000868 0.004323 0.004124 -0.002946 -0.001503 -0.001573 0.002214 0.003064 -0.001645 0.001124 -0.001275 0.002757 -0.002088 0.004510 -0.002779 0.002072 0.003328 0.003946 0.001237 0.003332 -0.004950 0.003403 0.000779 -0.004563 0.001073 0.001973 -0.001489 0.002153 0.000909 0.002433 -0.000645 -0.003221 0.003165 -0.004034 -0.002825 0.002513 -0.001949 -0.001208 -0.000381 -0.000487 -0.002718 0.000654 0.003384 -0.000308 -0.003779 0.000328 0.002080 -0.002353 0.004411 0.001396 0.000737 0.000479 -0.003360 0.004142 0.004774 -0.000156 0.001567 0.002386 -0.003475 -0.003021 -0.002732 -0.004204 -0.004488 -0.001374 -0.001849 0.000489 0.004492 -0.000017 0.003057 -0.003246 -0.004161 -0.003882 0.003668 0.003984 0.000210
TASK -0.001732 0.001346 -0.003355 0.000308 -0.004445 -0.002880 0.000063 0.002968 -0.003088 -0.000189 -0.004285 0.003996 -0.003482 0.002692 0.001375 0.001635 -0.001231 -0.002674 0.002612 -0.003596 -0.004520 -0.004323 0.000933 -0.000200 -0.002636 0.000942 0.001783 0.002038 0.001586 0.001296 -0.003156 0.001844 -0.004277 0.003992 -0.000393 -0.000103 0.003618 -0.002922 0.001144 0.003713 -0.002274 -0.000446 -0.004499 0.000852 -0.004227 -0.000486 -0.001462 0.003704 -0.004590 -0.001376 0.001066 0.002328 -0.003123 0.002271 0.001555 0.004616 -0.003965 0.003252 0.001736 0.000409 -0.001389 -0.002241 -0.003407 -0.004996 -0.001567 -0.004840 -0.004100 -0.003070 0.002822 -0.001292 -0.002481 0.002024 0.001354 0.003452 -0.000425 0.001380 0.004147 0.000163 0.004526 -0.003288 -0.001688 0.001865 0.001932 0.000353 -0.004469 0.004745 -0.000143 0.004198 -0.002948 0.001397 -0.001213 -0.000310 -0.001241 -0.002399 0.001424 -0.000668 -0.000268 -0.000900 0.001927 0.002452
Date 0.004277 -0.000063 0.002733 0.001535 -0.001618 0.002277 0.004555 -0.003592 0.001386 0.004546 -0.003392 0.003744 0.004246 -0.004602 0.000477 -0.003654 -0.003164 0.001234 -0.001227 -0.000677 -0.003332 -0.004390 0.004121 0.004593 0.000308 -0.001972 -0.004296 0.001490 -0.004084 0.001979 0.001502 -0.000972 0.004055 -0.004707 -0.004753 -0.002301 0.000606 -0.003437 -0.001933 -0.003357 0.001132 -0.002917 0.003781 0.003387 0.004656 0.000931 -0.001240 0.002520 0.002970 -0.000963 -0.000965 0.000446 0.003406 -0.002976 -0.002382 -0.002612 -0.004024 -0.002261 -0.003033 0.003432 0.003232 0.003640 -0.001513 0.001366 0.004401 0.000829 -0.002224 0.001236 0.003898 0.000904 -0.001877 0.004807 -0.003678 -0.000402 -0.004481 -0.002081 -0.000080 0.003289 0.003773 -0.004577 0.000369 -0.003891 -0.004339 0.001946 0.004878 0.000466 0.001516 -0.003278 0.000028 0.002057 0.000827 -0.004374 0.001707 0.001803 -0.004848 -0.002175 0.003869 0.004660 0.001855 -0.002299
2 0.003846 -0.000664 -0.000892 -0.001354 -0.001369 0.000316 0.001994 0.002922 -0.004454 -0.000590 -0.001552 0.002621 0.002627 -0.003116 -0.000849 -0.003687 -0.002557 0.002689 -0.000750 -0.000369 0.000960 0.001131 0.003633 -0.000446 -0.003735 -0.000975 -0.002210 0.000598 0.003207 0.001825 0.003593 -0.001919 -0.004095 0.004107 -0.004165 0.002968 0.000676 -0.003700 0.002004 -0.001383 0.002222 0.003365 0.002263 -0.000853 -0.003036 -0.001018 -0.002642 -0.001469 0.001911 -0.002547 0.001016 -0.004147 0.002175 0.004762 -0.004895 -0.000122 0.003008 0.004267 -0.002859 0.004536 -0.002910 0.002634 -0.000740 -0.003678 -0.001424 0.004042 -0.001163 -0.002012 -0.004391 -0.001923 -0.001313 -0.000918 0.004110 -0.000703 -0.001873 0.003307 0.001786 -0.002119 0.001180 -0.001426 -0.002539 -0.002634 -0.004212 0.000705 0.003222 0.004011 -0.001002 -0.000550 0.004163 -0.003183 0.002373 0.003788 0.000036 -0.004849 -0.004816 0.001260 -0.001913 -0.002367 -0.003137 0.003690
