9 100
Litigation -0.004720 -0.003473 -0.001832 -0.003170 -0.003001 -0.003947 0.004453 0.004083 -0.003538 0.002677 0.002804 0.004562 -0.003493 -0.003136 0.001573 -0.001263 0.003938 -0.001382 -0.003183 -0.000185 -0.001731 0.001431 0.004551 -0.000519 0.003522 -0.004770 -0.004142 0.004162 0.003080 -0.000123 -0.004779 0.002007 0.004211 0.002630 0.002503 0.003275 -0.001413 0.004937 -0.003591 0.000872 -0.002531 0.002169 -0.001696 0.000561 0.004189 -0.002804 0.004008 -0.003857 -0.000007 0.004331 -0.002233 0.002255 -0.001788 0.004371 -0.003823 -0.002972 -0.000493 -0.002697 -0.003835 0.000261 0.002916 -0.002184 -0.000783 0.000875 0.004144 0.001448 0.004765 0.002310 -0.003823 0.001696 0.000093 -0.002271 0.002629 -0.000882 -0.002559 -0.000645 -0.003013 0.000783 -0.003565 0.000651 0.002421 -0.002202 0.000443 -0.004151 0.003971 0.003091 0.002183 0.002841 0.002355 0.001837 0.002358 -0.003003 -0.002034 -0.001783 -0.002315 -0.003379 0.002261 0.003404 0.001887 0.001069
) 0.004364 -0.001604 -0.001675 -0.002455 -0.000504 0.001351 -0.001570 -0.004195 -0.004786 -0.003540 0.004992 -0.003070 -0.003073 0.001231 -0.003942 -0.001700 0.004644 0.000615 -0.003220 0.002247 0.004464 -0.003178 0.002693 0.002105 -0.004993 -0.004193 0.000704 0.003876 -0.003142 -0.000233 -0.002181 0.000365 0.001365 0.002188 0.002764 -0.003387 0.001415 -0.003494 -0.003496 0.000887 0.001005 -0.002467 -0.002955 -0.003982 -0.003075 0.001722 -0.004530 0.001967 -0.002967 0.004161 -0.003335 0.000205 -0.002851 -0.004619 0.001827 0.000087 0.000737 -0.000959 0.004566 -0.003751 0.003842 0.003750 -0.001536 0.003135 -0.004079 0.003233 0.002942 0.002633 0.000268 0.004356 -0.003881 0.003036 -0.003313 0.001732 0.001105 0.001447 0.002926 0.000503 0.000320 0.001991 -0.004889 0.003854 0.003779 0.000539 -0.002268 -0.003719 -0.000975 0.004151 0.003861 0.004397 -0.000474 -0.000217 -0.004404 0.001704 0.000438 -0.004096 -0.000454 -0.001587 -0.000398 -0.003357
( 0.002053 -0.004031 -0.001156 -0.002172 -0.002641 0.004737 -0.002094 -0.000714 -0.003188 -0.002848 0.002067 0.004361 -0.002666 -0.002229 -0.003463 -0.000246 -0.002279 0.001062 0.001017 0.003929 0.003592 -0.000566 -0.002346 -0.000175 -0.001173 -0.003009 -0.003812 -0.004584 -0.004619 0.003766 0.004336 0.003122 0.001504 -0.003563 -0.004748 -0.002542 -0.002835 0.003129 0.000212 -0.002500 0.000418 -0.004133 -0.001271 0.004420 -0.002076 -0.002493 0.004278 0.004554 -0.002332 -0.002490 0.002729 -0.001282 0.001524 0.003172 0.004928 -0.002574 0.004232 0.003951 0.001933 -0.003793 -0.001238 0.002975 -0.001813 0.004734 -0.000905 0.001941 0.001852 -0.000356 0.003653 -0.002630 -0.003111 -0.003534 0.002458 -0.002552 0.001542 -0.004131 -0.003158 -0.003155 0.003571 0.004799 -0.001137 -0.002797 0.002835 0.002374 -0.002005 -0.004892 0.004145 -0.002299 -0.000788 0.003981 0.003729 0.002147 0.001996 0.001841 0.000115 0.001942 -0.001353 -0.004018 0.000477 0.003483
Energy 0.001169 0.004910 0.003147 0.001971 -0.004299 -0.002686 0.002921 0.001166 0.002486 0.003224 -0.000748 -0.004736 0.000054 -0.001724 -0.002063 0.002474 0.001590 0.000654 -0.000361 0.002897 0.002805 0.004014 -0.003225 0.002272 0.004423 -0.001245 0.004763 -0.002637 -0.004252 -0.004186 -0.002299 0.003082 0.003428 0.001016 -0.000707 -0.002093 0.003383 -0.004394 0.001966 0.000212 -0.002987 -0.003666 0.003762 -0.002767 0.003440 0.001173 -0.001684 -0.004136 0.002214 -0.001216 -0.000320 0.000480 0.000985 -0.001343 -0.001052 0.002271 0.003466 0.001336 -0.000572 -0.000619 0.001752 -0.000932 -0.003522 -0.001709 -0.001495 -0.004080 -0.004583 0.001809 -0.002957 -0.000055 0.001168 0.002847 0.004129 -0.003490 0.003011 0.001709 -0.002963 0.000837 0.003113 0.002197 0.004454 -0.002347 0.004016 0.001561 0.001932 0.000953 0.004998 0.002555 -0.002808 -0.001935 0.000916 0.001910 0.002412 0.004414 0.004594 -0.002353 -0.001251 -0.002868 -0.000304 0.001903
- 0.004445 -0.004509 -0.004441 0.002675 0.004863 -0.002938 0.001649 0.000666 -0.001697 -0.002866 -0.002066 0.003282 -0.004063 -0.004063 0.002935 0.004588 0.003732 -0.000327 0.004178 0.000919 -0.000688 0.003444 -0.002542 -0.001021 -0.002328 0.004045 0.003950 0.004634 0.003755 0.003869 -0.004200 0.004285 0.001958 -0.001570 -0.002220 -0.003011 -0.004547 -0.004826 -0.000990 -0.004952 0.000212 -0.001684 -0.000949 -0.004626 0.002663 0.003479 0.001659 0.002385 0.000721 0.000225 0.003704 -0.001137 0.003974 0.002419 -0.000566 0.000696 -0.001251 0.001118 0.000849 -0.002422 -0.002196 0.004100 0.004042 -0.004726 0.004497 0.003822 -0.004034 -0.002944 -0.002556 -0.003119 0.002058 -0.001136 0.000346 0.004413 0.002038 -0.001877 0.003935 0.004125 0.002140 -0.002356 -0.002858 -0.004176 0.003406 0.000848 0.003543 -0.004018 -0.000221 -0.004062 0.004626 -0.003626 -0.004260 0.004560 -0.001425 -0.003377 0.001395 0.003476 0.001469 0.003480 0.002847 0.000652
FergusGibbs 0.001753 -0.003433 0.003838 -0.000766 -0.003780 -0.002229 0.001808 0.001846 0.003701 0.004364 -0.001875 0.001745 0.003915 -0.001204 0.004425 -0.002629 0.000910 -0.000972 -0.003490 0.001380 -0.000100 -0.000965 0.001154 -0.000333 0.004247 0.001202 0.004642 -0.004555 -0.002592 0.000170 -0.000238 -0.001248 0.002370 -0.004986 -0.004766 0.000138 0.002261 -0.001443 -0.004104 -0.002773 0.002388 0.002681 -0.001241 -0.002130 0.004385 0.002999 -0.004754 0.002494 0.003149 0.000951 -0.002622 -0.001669 -0.003572 0.000117 -0.002676 -0.003031 -0.003873 0.004037 -0.003378 -0.000856 0.002373 0.004916 0.001286 -0.003011 0.000995 -0.000231 0.001687 0.001248 -0.002474 -0.001935 -0.000538 0.003577 0.003523 0.000159 -0.004082 0.000206 0.004815 -0.004899 0.000720 0.000525 0.000743 0.001002 0.001814 -0.002639 -0.001308 0.003877 -0.002564 -0.000574 0.002241 0.004408 -0.000763 -0.003876 0.000304 0.003650 0.000558 0.001154 0.000868 0.002740 -0.002604 0.001859
Items 0.003751 0.004614 -0.000375 -0.002428 -0.003437 0.003606 0.004276 -0.001744 -0.004794 0.003108 0.003083 -0.004446 -0.000186 -0.001952 0.000928 0.003964 0.004179 -0.003236 -0.000130 -0.002329 -0.004949 0.003191 -0.001647 0.001318 0.000106 0.000751 0.003259 0.003764 -0.003706 -0.003015 0.004916 0.001300 0.004346 0.002587 0.004567 0.003398 -0.002191 -0.002925 0.000648 -0.002067 0.000864 -0.000705 0.004861 0.004922 0.001159 0.003948 0.004056 0.000313 -0.003809 0.000390 0.001810 -0.003350 -0.004318 -0.003214 0.000297 -0.002465 0.003460 -0.003135 0.003952 0.004388 -0.002489 0.001129 -0.001653 0.001474 -0.002272 -0.000401 0.001591 0.003605 0.002168 -0.002798 0.000519 -0.000674 -0.000532 0.000349 -0.003042 0.001129 0.003364 -0.000841 0.002015 0.004146 0.003814 0.004850 0.001366 0.001573 0.004995 0.002426 0.004842 0.004620 0.004873 0.004867 -0.001957 -0.004020 -0.001972 0.002241 -0.003023 0.002086 0.000938 0.002032 0.001140 -0.001773
Action -0.000236 0.001754 -0.003548 -0.002338 -0.004969 0.002633 -0.004868 -0.003878 0.001720 0.003935 0.000831 0.001149 0.000246 0.003047 0.004988 -0.001347 -0.001142 -0.002596 -0.003023 0.002223 -0.000622 -0.000616 0.001320 0.002388 -0.003768 -0.003013 0.000412 0.004532 -0.002404 -0.002724 0.004150 0.000947 -0.000547 0.002233 -0.004079 0.002754 0.001695 0.000520 -0.003515 -0.000161 -0.003354 -0.000646 -0.003574 -0.000793 0.001555 -0.001748 0.000719 0.003676 -0.004011 -0.003529 -0.000319 0.004523 0.000256 0.004338 0.003792 -0.000377 -0.002263 -0.000303 -0.002355 -0.001522 -0.002110 -0.001453 -0.001721 0.003325 -0.003513 0.000482 0.002276 -0.004350 -0.002744 0.004600 -0.002868 0.000364 0.000727 0.002251 -0.002880 -0.000831 -0.004156 -0.001970 -0.003639 0.003936 -0.003968 0.000066 0.002241 -0.001352 0.004354 0.001540 0.004699 0.000556 0.003850 0.000825 -0.000341 0.004613 -0.000202 0.003154 0.000251 -0.000471 -0.004773 -0.004487 -0.004590 -0.004250
_v1.DOC -0.000267 -0.003648 -0.001412 -0.004068 0.002122 0.000993 0.001143 -0.000400 0.002710 0.002825 0.000547 0.000635 0.004738 -0.000521 -0.004412 0.001278 -0.002613 -0.000118 -0.002304 0.004784 -0.004833 -0.004040 0.001528 0.004546 0.001330 0.000588 -0.001529 -0.002218 -0.004168 0.001733 -0.002567 -0.001458 0.003435 -0.002811 -0.001826 -0.004504 0.002528 -0.002782 0.002483 0.001181 -0.004796 -0.000417 0.001142 -0.001575 0.004566 0.003732 0.003872 0.003081 0.001203 -0.000347 0.002614 -0.003335 -0.003469 -0.004410 -0.002750 0.004455 0.001501 -0.004156 -0.004349 -0.003344 -0.004612 0.004230 0.001795 -0.004372 0.002286 -0.000675 -0.002717 0.001340 0.002703 0.000165 -0.003176 0.004417 0.004584 -0.002690 0.001161 -0.000337 -0.004520 0.003532 0.004280 0.000424 -0.003265 0.002438 0.001075 -0.003170 -0.000405 0.004939 -0.002111 0.002013 0.000857 0.004988 0.000878 -0.004120 0.000475 -0.001588 0.004774 0.001759 0.003744 0.000519 0.002502 0.001574
