6 100
a 0.000588 -0.001168 0.001327 0.001874 -0.002712 -0.004637 -0.002391 -0.001848 0.003537 0.003538 -0.000680 0.000357 -0.001827 0.001755 0.003700 0.001174 0.002087 0.004025 0.003319 0.000012 -0.002151 0.004833 0.002279 0.003742 0.000436 -0.001161 0.001625 -0.004061 0.004470 0.002754 -0.003070 0.000446 -0.001749 -0.002174 -0.004857 -0.000716 -0.001613 0.002025 0.001382 -0.001835 0.000906 0.002003 -0.003878 0.004938 -0.001996 0.000781 0.000523 0.000929 0.003728 0.000561 0.000134 -0.001621 0.000791 -0.003633 0.001653 0.002753 0.001618 -0.003103 0.003636 -0.001100 -0.002927 0.002345 0.003186 -0.002762 0.001622 0.001480 -0.002414 0.000704 -0.001207 -0.001531 -0.000231 -0.002094 -0.003287 0.000135 -0.002516 0.004572 0.001828 0.000738 0.000085 0.004930 -0.000686 0.002453 0.000540 -0.004166 0.000777 -0.004178 0.000834 -0.002661 0.004905 0.003971 -0.002805 0.003586 -0.000096 0.001057 -0.003988 -0.003032 0.002258 0.002958 -0.003938 -0.003868
Jester -0.002598 0.002312 -0.004730 0.004287 -0.003006 0.003072 -0.003899 -0.002326 0.001582 0.001164 0.001543 -0.000120 -0.004767 0.001606 -0.001062 0.002731 -0.001005 -0.000313 0.000480 0.001216 -0.003781 0.003964 0.000478 0.000500 0.003144 -0.000055 0.000634 0.002743 -0.000382 0.004927 0.001409 -0.004680 -0.004794 0.000405 0.002838 -0.004755 -0.004882 0.002343 0.003675 -0.003922 -0.004542 0.002816 0.003875 -0.001300 -0.004082 -0.000874 0.004496 -0.000208 -0.000712 0.000080 -0.003754 0.002001 0.004853 0.002495 0.004370 0.003456 -0.002244 0.003613 -0.002169 0.000106 0.004416 0.000842 0.002620 0.001551 -0.003839 -0.002463 -0.001869 0.004930 -0.002998 -0.002928 0.003497 0.002494 0.003291 0.000720 -0.004867 -0.001623 -0.003218 0.000406 -0.003150 -0.003739 0.001836 -0.000316 -0.001707 0.004156 -0.004101 0.000080 -0.002604 -0.004980 -0.003588 -0.000862 -0.001855 0.003457 0.004145 0.002261 0.004060 0.002106 -0.004171 -0.003792 0.003691 0.001181
. -0.001641 0.003936 0.001144 -0.002721 -0.000218 -0.003234 -0.004047 0.001572 -0.003528 -0.004850 -0.002738 0.000859 0.002052 -0.000110 0.003089 0.001067 -0.002005 0.004993 0.003921 0.002844 0.000867 0.000176 -0.004556 -0.003327 0.003126 0.001654 -0.004615 0.003150 0.000620 0.003582 -0.000628 -0.001884 -0.004484 -0.000277 -0.000674 0.000033 -0.004117 0.003713 0.003303 -0.002067 0.002472 0.000890 -0.000195 0.003511 -0.000827 0.001903 0.001418 -0.004667 0.000463 0.002451 -0.002587 0.000901 0.004022 0.001069 0.002437 0.000595 0.001251 -0.000571 0.002232 0.004208 -0.003602 0.002403 -0.000822 0.004048 -0.003725 -0.001151 0.000869 -0.000594 0.004074 0.003989 0.002323 0.000799 0.003424 -0.004473 -0.003069 -0.000236 -0.003142 0.003750 0.004040 -0.004459 0.003883 0.000039 0.003318 0.001120 0.000676 0.002471 0.003233 -0.001707 0.002740 0.000319 -0.003022 -0.002422 -0.001565 -0.001915 -0.000473 0.001799 0.003483 0.000968 -0.002125 0.000060
are -0.000674 0.004018 -0.003073 -0.002265 -0.001222 -0.001828 0.002547 0.003647 -0.004820 0.004232 0.000957 -0.003879 0.002279 -0.002648 -0.003110 -0.004823 -0.002617 0.002384 0.003042 0.002367 -0.002318 0.001512 0.001256 -0.000317 0.004990 0.003550 0.001173 0.004743 0.004006 -0.004196 -0.002524 -0.000897 -0.001099 -0.003168 -0.004249 -0.001060 -0.001476 -0.002296 0.001872 0.000904 -0.003517 -0.003370 0.000036 -0.003048 0.004584 -0.003260 -0.000414 -0.003086 -0.003546 0.001217 -0.004296 -0.001163 -0.004275 0.000858 -0.001089 0.001081 0.003482 0.000026 0.003388 0.003971 -0.003852 0.003948 -0.004370 0.001869 0.001928 -0.002331 -0.000350 -0.002980 -0.000227 0.003192 -0.002495 -0.001524 0.001852 -0.002454 -0.004800 -0.000951 0.002434 0.001076 0.000744 0.003256 -0.001301 0.002130 0.002959 0.000140 -0.003184 0.001213 -0.003918 -0.001556 0.003974 -0.004472 -0.004394 0.000353 0.001172 -0.000156 0.000579 0.003222 0.000512 -0.003714 0.000567 -0.004949
You 0.003822 -0.002033 -0.002960 -0.003193 0.003236 0.003656 0.003315 -0.000635 -0.002872 0.003671 0.003253 -0.000623 -0.004074 -0.001366 0.004680 -0.002796 0.000697 0.003206 0.001827 -0.000649 0.004993 0.000464 -0.002138 0.002490 -0.001631 -0.002764 0.000996 0.002558 -0.004743 0.001570 0.000300 -0.004436 0.001181 -0.004656 0.003190 0.004320 0.001533 -0.003609 0.000159 0.003246 -0.000277 0.000384 0.000377 -0.004382 0.002082 -0.002176 -0.001066 0.004816 -0.003073 -0.004115 0.001270 0.001540 -0.002971 -0.003514 0.001556 -0.002864 -0.002558 0.004164 -0.004684 -0.001528 0.000752 -0.001272 -0.003555 -0.000812 -0.003072 -0.003039 -0.003525 0.003065 -0.001942 -0.004768 0.004880 0.000595 -0.001223 -0.001452 0.002668 0.003655 0.004253 0.002853 0.001877 -0.004363 0.000839 -0.004892 0.000423 0.003603 0.000449 -0.000070 -0.000871 0.001017 0.003731 -0.002100 0.004242 -0.003482 -0.004978 -0.002199 -0.000466 0.003494 -0.002149 -0.000549 0.000447 -0.000620
fag -0.001322 0.003121 0.002500 -0.000325 -0.002754 0.002173 -0.001508 -0.004915 -0.000208 -0.001774 -0.002021 0.004872 0.002771 -0.002255 0.004783 -0.000163 -0.001695 -0.002717 -0.000115 0.003203 0.004326 -0.001471 0.000674 -0.003007 0.001574 0.001889 -0.004042 0.000837 -0.002515 0.000606 -0.004592 0.002513 -0.002177 -0.001870 -0.002943 -0.001424 0.004510 -0.003659 -0.003507 -0.004023 -0.004372 -0.004997 0.000949 0.001270 -0.004647 -0.000007 -0.002604 0.003629 0.001951 0.004970 -0.004251 0.001313 0.001891 0.004337 -0.004364 0.002160 -0.004172 -0.003122 0.001953 0.004759 -0.001686 0.003789 0.003072 0.004796 0.001409 -0.000204 -0.003824 0.004884 0.002806 0.000905 0.001555 0.002548 -0.003465 0.002187 0.002920 0.003224 0.004028 -0.002381 -0.001483 0.002603 -0.002740 -0.004239 0.001397 0.004218 0.002305 -0.004050 0.002360 -0.002346 -0.004756 0.003140 -0.004273 0.003925 0.004949 -0.000327 0.003197 0.002986 -0.000585 0.003873 0.003998 0.003493
