15 100
HourAhead -0.003001 0.001197 0.003129 0.002470 -0.000131 -0.000164 0.002123 -0.002167 -0.001773 0.000826 -0.002426 0.000402 -0.002817 0.001007 0.004480 0.003422 0.001904 0.000446 0.000156 -0.003202 0.000273 0.003384 -0.004486 0.000828 0.001176 -0.001675 -0.003999 0.002560 -0.003365 0.004436 0.003708 0.002065 0.004628 0.002738 -0.002487 0.000328 -0.002426 -0.001041 -0.004742 0.000385 -0.004687 0.001188 -0.003393 -0.002614 -0.000423 -0.002201 0.002437 -0.002575 0.004886 0.002014 -0.002849 0.002428 -0.001939 0.004044 0.004345 -0.004489 0.002474 0.004343 0.004196 -0.003391 -0.001514 -0.000844 -0.000821 0.004105 0.001099 0.000703 0.000015 0.002796 -0.003573 -0.000760 0.001839 -0.000808 0.004618 -0.000349 -0.002088 0.000319 0.002356 -0.004350 -0.000458 -0.002595 0.001676 0.000643 0.004822 0.000898 -0.003648 -0.003654 0.003609 0.000763 0.003127 0.001414 -0.000889 0.000864 -0.002735 0.001042 -0.001989 -0.002828 -0.000850 -0.000515 -0.002048 0.003904
. -0.001637 0.003933 0.001143 -0.002725 -0.000221 -0.003232 -0.004051 0.001572 -0.003525 -0.004854 -0.002733 0.000860 0.002051 -0.000112 0.003094 0.001068 -0.002009 0.004996 0.003921 0.002845 0.000868 0.000173 -0.004555 -0.003328 0.003130 0.001653 -0.004616 0.003155 0.000619 0.003580 -0.000624 -0.001881 -0.004487 -0.000280 -0.000670 0.000034 -0.004122 0.003715 0.003308 -0.002068 0.002472 0.000893 -0.000198 0.003509 -0.000826 0.001907 0.001415 -0.004667 0.000466 0.002447 -0.002591 0.000899 0.004021 0.001072 0.002437 0.000593 0.001253 -0.000570 0.002236 0.004206 -0.003607 0.002403 -0.000821 0.004048 -0.003725 -0.001149 0.000871 -0.000599 0.004070 0.003994 0.002323 0.000796 0.003420 -0.004477 -0.003066 -0.000238 -0.003140 0.003751 0.004043 -0.004462 0.003882 0.000038 0.003316 0.001118 0.000675 0.002474 0.003236 -0.001706 0.002745 0.000317 -0.003019 -0.002419 -0.001563 -0.001919 -0.000473 0.001801 0.003484 0.000967 -0.002126 0.000065
; 0.001358 -0.002387 -0.004576 0.003385 0.002918 -0.001776 0.004533 0.000723 0.000410 -0.004882 0.002201 0.004394 -0.001561 -0.003848 0.002923 0.001072 -0.004829 -0.001768 0.002165 0.004308 0.003094 -0.000581 -0.003300 -0.000489 -0.001802 -0.003166 0.000998 0.003917 0.003562 -0.001159 0.002437 0.001791 0.003877 0.003360 0.004935 -0.003141 -0.000498 -0.001650 0.002989 0.002152 0.001668 0.003665 -0.002445 -0.003778 -0.004749 -0.001399 -0.000346 0.004078 0.004894 -0.000600 -0.001676 -0.002876 0.002904 -0.000939 0.003100 0.003629 0.003274 0.001713 0.001753 0.000456 -0.000021 -0.000081 -0.002749 0.003060 -0.003900 -0.004919 0.004491 -0.004534 -0.003138 0.002738 0.003280 0.001216 -0.003744 -0.002297 0.004043 -0.000824 0.001729 0.002085 -0.004405 0.002206 -0.004637 -0.003282 0.000677 0.004041 0.004753 0.002329 -0.003545 0.003558 -0.002258 0.003186 -0.002756 0.002870 0.004780 0.002902 -0.002530 0.001169 -0.003426 0.003989 0.000429 0.002564
: 0.000281 0.001674 -0.002287 0.003864 0.000612 0.002981 0.004323 0.000660 -0.001587 -0.000267 -0.001493 0.001306 -0.001006 0.002798 0.000710 0.004282 0.000789 -0.002822 -0.003334 -0.004364 -0.001264 0.000901 0.001130 0.004876 0.002876 0.003507 0.001411 -0.003510 -0.001794 -0.000273 0.001527 0.001890 -0.002869 0.002545 0.004977 0.003452 0.000905 -0.000732 0.001791 -0.000376 -0.003015 -0.001030 -0.001431 -0.003808 0.000199 -0.000418 -0.004121 0.001523 0.002396 -0.004895 -0.000216 -0.004576 0.002862 0.000911 0.000348 -0.000508 0.002253 0.004276 -0.003480 -0.002787 0.000691 -0.004867 -0.003457 -0.003421 -0.002332 -0.000288 0.000768 0.004266 -0.002690 -0.002325 0.000670 0.004673 0.002793 0.000527 0.000461 0.001294 -0.000011 0.001440 0.002341 0.002885 -0.002330 0.004802 0.001250 -0.001547 -0.004423 0.004711 0.002747 0.004403 0.003251 0.003304 0.000664 0.001035 -0.000271 -0.004424 0.000103 0.003534 0.002809 0.000193 -0.003994 -0.000681
hour 0.004729 0.000291 -0.001251 -0.000010 0.002212 -0.000077 -0.004036 -0.002924 0.003787 0.004010 0.004476 -0.002836 0.000987 0.003731 0.004738 0.003091 0.000784 0.004861 0.002554 -0.001871 -0.002028 -0.000952 0.000543 0.002567 -0.004757 0.000861 -0.001166 -0.000089 0.000087 0.001987 0.003018 -0.004183 -0.004620 0.003858 -0.004799 0.001201 -0.002839 -0.003897 -0.003626 -0.001916 -0.001969 -0.000436 -0.001454 -0.000738 -0.004135 0.000097 -0.003810 0.002565 -0.002937 -0.002795 -0.004044 -0.000899 0.001766 0.003298 0.004364 -0.002027 -0.000364 0.001249 -0.000078 -0.003437 -0.004502 -0.000826 -0.003647 -0.002596 0.004624 0.004931 0.000009 -0.004921 -0.004282 0.004027 0.004707 0.004722 -0.004908 0.002158 0.000888 -0.004898 0.003352 0.003984 0.004588 -0.002936 0.003850 -0.002983 0.003429 0.001798 0.003978 0.004985 -0.002028 -0.000685 0.004224 -0.004002 0.003797 0.003243 -0.004862 -0.001570 -0.003726 -0.003556 0.001355 0.004579 -0.002036 0.002763
schedule -0.004217 0.003407 -0.004914 0.003999 0.004094 0.000032 -0.002431 0.000308 -0.001539 -0.000748 0.001658 -0.001585 -0.001308 -0.003155 0.000770 -0.001704 0.001254 -0.004748 -0.002561 -0.004677 -0.002675 0.001457 0.000736 0.003363 0.002566 -0.000519 0.000201 -0.000588 -0.000388 0.001351 0.002902 -0.004727 -0.002276 0.001130 -0.000932 0.000848 -0.002932 -0.001594 0.002525 0.002082 -0.002972 0.002443 0.003934 0.004853 -0.003692 -0.004534 -0.001428 -0.004776 -0.002067 -0.000309 0.000595 0.000454 0.002785 -0.004302 -0.002077 0.002390 -0.004339 0.004095 0.002058 -0.004143 -0.003839 0.000276 0.000292 0.004073 0.002839 0.003690 -0.004894 -0.004437 -0.000090 0.001836 -0.001869 -0.000155 -0.003415 -0.001155 -0.001497 0.000562 -0.001334 0.003198 -0.000302 -0.000953 0.004940 0.000982 -0.004562 -0.003516 -0.003849 -0.004956 -0.003094 -0.001913 0.001537 -0.003315 0.000995 -0.004002 0.004973 -0.004272 -0.002502 0.003469 0.002225 -0.004897 0.002207 0.002047
required 0.000904 0.004888 0.001149 -0.003029 0.003123 -0.003804 0.000691 0.001413 -0.004856 0.002943 -0.002465 -0.003817 0.002153 -0.004604 -0.000277 0.000843 0.004570 -0.000898 0.001344 0.000340 0.000982 -0.003266 -0.000928 0.003527 -0.002508 0.004374 0.001803 0.004753 0.004247 -0.003601 0.003446 -0.000663 0.000751 0.001695 -0.001271 0.002932 -0.001978 -0.003248 -0.004104 -0.001010 -0.001781 0.003286 -0.003069 0.000010 -0.000912 0.001645 0.004750 -0.001230 0.003685 -0.003608 0.002944 0.004464 0.000518 0.004622 -0.003259 -0.002087 0.003859 0.004830 0.003846 0.004813 -0.004076 -0.000796 0.003215 0.002108 0.003229 0.000069 -0.001695 -0.000426 -0.004004 0.000992 -0.004579 -0.002902 -0.004975 -0.000019 0.000709 -0.003147 0.003884 -0.002434 0.002137 0.001288 -0.000396 0.002023 -0.002009 -0.003983 -0.000687 0.002408 -0.003269 -0.003867 -0.004525 0.003013 -0.001126 0.001752 0.003565 -0.003363 0.002753 -0.003706 -0.003208 0.003691 -0.004547 0.001133
Manual 0.002228 0.003669 -0.001876 0.001808 0.000978 -0.004405 -0.002213 0.001111 -0.001525 -0.001584 0.001302 -0.002103 -0.003688 0.000080 -0.000191 0.001078 0.000499 0.002249 0.004533 -0.003343 0.004804 0.001170 0.000097 0.000007 -0.002245 -0.000714 0.003570 -0.003497 0.003900 0.002886 0.002839 -0.003120 -0.003255 0.000196 -0.002550 -0.004899 -0.003739 -0.002965 0.001933 0.004657 -0.004128 0.002896 -0.003657 0.002986 0.003848 0.003966 0.002932 0.002284 -0.004079 0.003114 0.004985 -0.003164 0.001829 -0.000595 0.002725 -0.001623 -0.002495 -0.000817 -0.004014 -0.003546 -0.002987 -0.001511 0.001409 0.004688 0.003008 0.003716 -0.000092 0.002975 -0.002347 -0.000759 0.002025 0.000956 -0.003391 0.004256 0.004126 -0.001911 0.000185 0.003384 -0.003923 0.003815 -0.000873 0.004165 -0.004645 0.001378 0.003873 0.004670 -0.003774 -0.002276 0.002723 -0.001269 -0.002074 0.002861 0.003133 0.000594 0.002171 0.003373 0.002228 0.000883 0.002293 0.003909
failed -0.003982 0.000602 -0.003455 0.002515 -0.000476 -0.002578 -0.002968 0.001238 0.001210 -0.002506 0.004061 -0.003440 -0.001571 -0.002836 -0.004615 0.001845 -0.000272 -0.002773 0.000318 0.002115 0.002253 -0.002858 -0.001305 -0.004524 -0.004008 0.004188 0.003257 0.004536 0.004505 -0.004519 -0.002162 0.000016 -0.003071 -0.001603 0.004428 -0.002155 0.001539 0.002866 0.003030 -0.000558 -0.000936 0.002538 0.002632 0.001348 0.004742 0.001251 -0.000718 -0.003567 -0.004447 -0.001819 0.001815 -0.003229 -0.002310 0.002883 -0.004190 -0.003107 -0.004704 -0.003183 0.002951 0.002762 -0.001400 0.004514 -0.004802 0.001282 0.004213 0.001670 0.001875 -0.001935 0.004656 0.004416 0.003696 0.003212 0.002957 0.001751 0.003110 -0.002423 0.004794 -0.004760 -0.003229 -0.002393 -0.004291 -0.001738 0.002430 0.002882 -0.001945 0.001808 -0.001524 0.003779 -0.001337 -0.003859 0.001510 0.001801 0.002637 0.001077 0.001255 0.002951 0.004351 -0.001171 -0.001560 0.004610
1/7/02 0.004380 0.000161 -0.001656 -0.001231 -0.003371 -0.003884 0.003722 -0.003725 -0.004180 0.000315 -0.002779 -0.000621 -0.004598 0.001275 -0.002354 -0.001224 0.000319 0.003535 0.001318 -0.003075 -0.002370 0.001252 -0.003661 -0.004197 0.004078 -0.004926 -0.003834 -0.001747 -0.003750 -0.002069 -0.000435 -0.004381 -0.003512 0.004069 0.004647 0.002682 -0.001992 -0.004035 -0.004572 0.003193 -0.004449 -0.000175 -0.003216 0.002928 0.003886 0.000242 0.004356 -0.000284 0.001957 0.002523 -0.002896 0.000370 -0.000657 -0.002994 0.004972 0.002544 0.004756 0.004279 0.000610 -0.004327 -0.004493 -0.003841 0.000515 -0.000605 -0.001970 -0.003403 -0.004265 -0.003518 0.002299 0.004410 0.002533 -0.004948 -0.004508 -0.004429 -0.002352 0.001881 -0.000036 0.002972 0.002998 -0.004147 0.004119 -0.001849 -0.001029 0.004297 0.003337 -0.001936 0.001696 0.004015 -0.001977 -0.000607 0.001040 -0.003627 -0.000906 -0.001794 0.001634 0.000189 0.002037 -0.000772 -0.002848 0.003878
5 0.000732 -0.004340 -0.004977 -0.000111 0.003727 -0.001534 0.004360 -0.004314 0.004664 -0.003379 0.003818 0.003699 -0.003604 0.001229 0.002688 -0.004283 -0.002515 -0.003950 -0.001531 0.002516 0.002702 0.004025 -0.004525 0.004984 0.001769 -0.003544 -0.000770 -0.004165 -0.001467 -0.001088 -0.002780 -0.001615 -0.002790 0.001924 0.002964 -0.003711 0.001124 0.002007 -0.001203 0.000271 0.004362 -0.000788 -0.002677 -0.000417 -0.003139 0.000477 0.000678 -0.001084 -0.000117 -0.002368 -0.000998 0.004062 0.004107 -0.004531 0.002959 -0.002901 0.002835 -0.001588 0.003357 -0.004722 -0.001914 -0.003143 0.003018 0.003527 -0.003720 0.000553 0.003980 -0.001059 0.001945 -0.003570 -0.002331 0.000701 -0.003244 -0.004054 0.001172 -0.003735 -0.002919 -0.004025 -0.004075 -0.004368 -0.003394 0.000518 -0.001899 -0.000004 -0.002887 -0.004814 0.002903 0.004518 0.002366 0.000041 0.003703 -0.001715 0.002001 0.001546 -0.003519 0.001345 -0.004053 -0.003167 0.004410 0.004657
download -0.000397 -0.003531 0.003169 -0.001816 -0.001688 0.004546 -0.000403 0.001373 -0.002864 0.001625 -0.002842 0.001027 0.004214 -0.000914 -0.000776 -0.004412 0.003894 -0.002219 -0.002211 0.001634 0.001980 0.004246 0.002049 0.002832 0.002960 -0.000840 -0.002937 0.001926 -0.004728 0.004094 0.000672 0.001714 -0.000533 0.002993 -0.002814 0.000958 0.003143 0.000253 0.003871 0.003786 -0.001977 -0.002249 0.002263 -0.003239 -0.001350 0.001887 0.002219 0.003415 0.003655 -0.001093 0.001798 -0.002413 -0.004573 0.003730 0.003317 0.001336 0.001579 0.004921 -0.004443 0.004389 0.000991 0.002330 -0.001088 -0.004374 -0.000649 0.001478 0.003301 0.004559 0.000434 0.004640 0.003767 -0.001126 0.002409 -0.001979 0.002382 0.004913 -0.003222 0.004833 0.004321 0.004004 0.001599 0.001927 0.003442 -0.002157 0.001947 0.000683 0.000257 0.001129 0.004477 0.003816 0.004445 -0.001164 -0.002188 0.001324 -0.003238 -0.004954 0.004821 0.001939 0.001401 0.004604
Date 0.004277 -0.000063 0.002733 0.001535 -0.001618 0.002277 0.004555 -0.003592 0.001386 0.004546 -0.003392 0.003744 0.004246 -0.004602 0.000477 -0.003654 -0.003164 0.001234 -0.001227 -0.000677 -0.003332 -0.004390 0.004121 0.004593 0.000308 -0.001972 -0.004296 0.001490 -0.004084 0.001979 0.001502 -0.000972 0.004055 -0.004707 -0.004753 -0.002301 0.000606 -0.003437 -0.001933 -0.003357 0.001132 -0.002917 0.003781 0.003387 0.004656 0.000931 -0.001240 0.002520 0.002970 -0.000963 -0.000965 0.000446 0.003406 -0.002976 -0.002382 -0.002612 -0.004024 -0.002261 -0.003033 0.003432 0.003232 0.003640 -0.001513 0.001366 0.004401 0.000829 -0.002224 0.001236 0.003898 0.000904 -0.001877 0.004807 -0.003678 -0.000402 -0.004481 -0.002081 -0.000080 0.003289 0.003773 -0.004577 0.000369 -0.003891 -0.004339 0.001946 0.004878 0.000466 0.001516 -0.003278 0.000028 0.002057 0.000827 -0.004374 0.001707 0.001803 -0.004848 -0.002175 0.003869 0.004660 0.001855 -0.002299
Start 0.000606 -0.001188 -0.000749 0.002353 0.004386 -0.000674 -0.000750 0.002585 0.001951 -0.002114 0.003466 0.000869 -0.003575 0.004104 0.004684 -0.004814 -0.000475 -0.000878 -0.001067 -0.000653 0.000391 0.001691 0.001446 0.003018 -0.002919 -0.000868 0.004322 0.004125 -0.002946 -0.001502 -0.001572 0.002213 0.003063 -0.001645 0.001124 -0.001275 0.002756 -0.002088 0.004511 -0.002780 0.002072 0.003329 0.003945 0.001236 0.003331 -0.004949 0.003402 0.000779 -0.004562 0.001072 0.001971 -0.001489 0.002153 0.000910 0.002434 -0.000646 -0.003221 0.003165 -0.004033 -0.002825 0.002512 -0.001949 -0.001208 -0.000381 -0.000487 -0.002717 0.000654 0.003382 -0.000308 -0.003778 0.000329 0.002080 -0.002354 0.004410 0.001396 0.000736 0.000479 -0.003359 0.004143 0.004773 -0.000155 0.001566 0.002386 -0.003475 -0.003021 -0.002730 -0.004204 -0.004488 -0.001372 -0.001850 0.000490 0.004492 -0.000017 0.003056 -0.003246 -0.004161 -0.003881 0.003669 0.003983 0.000211
intervention 0.004076 -0.004224 -0.001738 -0.003877 -0.003945 0.002884 -0.002624 0.000514 0.003109 -0.004308 0.004971 0.002097 -0.002321 -0.002760 0.003165 0.000430 -0.003727 0.001072 -0.001367 0.000776 0.000799 -0.002129 0.001816 -0.001633 0.004323 -0.002501 0.000597 0.004497 -0.001696 -0.003684 0.003624 0.004787 -0.000743 -0.003948 0.004927 0.001059 -0.003951 0.001617 0.004817 0.000151 -0.001093 0.003599 -0.003159 -0.003717 0.002431 0.003888 -0.002511 0.000249 0.004854 -0.004482 -0.002906 -0.002407 -0.002056 0.001393 -0.001692 -0.002027 0.002579 0.000095 0.003073 -0.002333 -0.002609 -0.000790 0.002326 -0.000358 -0.000862 0.001294 0.002090 -0.004598 -0.004903 0.003105 -0.001487 -0.004305 -0.004635 -0.003401 0.003644 -0.000410 0.002567 -0.001751 0.000763 -0.001003 -0.002474 -0.000883 -0.004792 -0.002972 -0.002638 0.001811 0.002009 0.001941 0.003151 -0.000710 0.003358 0.003071 0.003689 -0.003463 0.001845 0.003081 -0.000702 -0.002195 -0.000948 0.004728
