7 100
... -0.004686 0.000585 0.002395 0.003656 -0.004722 0.003900 0.000993 -0.000224 -0.003053 -0.003670 -0.001019 -0.000613 0.001948 0.000939 0.003881 0.004997 0.001457 -0.002412 -0.002955 0.001536 0.003240 0.000028 0.000814 -0.002017 -0.002921 0.001957 -0.003840 0.002551 0.001333 -0.001376 -0.004932 -0.000919 -0.000544 -0.004652 -0.002598 -0.000183 0.004433 -0.003030 0.002030 0.002500 0.004714 0.000665 0.002233 -0.003623 0.004828 -0.002820 0.004674 0.000483 0.003917 -0.003268 0.002911 -0.003402 -0.003316 0.004190 0.001853 -0.002792 0.002194 0.004507 0.001227 -0.001693 -0.004175 0.003429 -0.000093 -0.001498 0.004241 -0.000064 0.004230 -0.002095 -0.001384 0.002257 0.001802 -0.001853 -0.001695 0.004399 0.000303 -0.000470 0.000831 0.000331 -0.002703 -0.000589 -0.003755 -0.002319 -0.002242 -0.000547 0.003018 -0.003436 0.003877 -0.003204 0.002309 -0.003508 0.002197 0.001353 -0.002466 0.000472 0.002185 -0.000163 -0.003741 0.003513 0.001991 -0.000863
right -0.000855 -0.000220 -0.003290 0.002247 0.000079 0.004450 0.001595 -0.001773 0.003324 0.002993 -0.000354 -0.000072 -0.004830 0.000404 -0.003134 0.002526 -0.002168 0.003666 -0.002082 0.000075 -0.003739 0.004340 0.004793 0.002247 -0.003030 0.004417 0.003496 0.003004 -0.001783 0.002505 -0.003942 -0.002223 0.002756 0.001554 0.001180 0.000291 0.001817 0.004308 0.004442 -0.002489 -0.004696 -0.002512 -0.000689 0.004194 -0.002731 -0.001280 0.001976 0.001832 0.004022 0.001381 0.000393 -0.002291 -0.001820 -0.004506 -0.003925 -0.000884 0.004917 0.001931 -0.004719 0.001789 -0.002976 -0.001245 0.002634 -0.000956 0.002193 -0.000759 -0.000313 -0.000034 -0.002061 -0.004913 -0.003295 -0.000013 -0.002917 -0.000599 -0.002245 0.001993 0.004954 -0.000242 0.004203 0.002111 0.002704 0.000305 -0.004787 0.004049 0.002693 0.000851 0.001888 -0.004835 -0.001364 0.000333 0.003877 0.003983 0.001759 -0.001994 -0.000622 -0.003816 -0.002150 -0.004493 -0.003363 -0.003812
..great 0.003583 -0.000070 -0.002764 -0.004605 0.004982 0.002949 -0.003286 -0.000127 0.003601 0.002801 0.002524 -0.001814 0.003505 0.003827 -0.001110 -0.003800 0.004293 -0.003200 -0.000127 0.002793 -0.003823 0.001112 -0.001512 0.003962 -0.003294 -0.002346 0.000219 0.002390 0.000748 0.003293 0.000731 -0.003475 0.000863 0.003928 0.003582 -0.002656 -0.002580 0.001414 0.004862 -0.003223 0.001616 -0.003664 0.004377 0.000260 0.002103 -0.000946 -0.003370 -0.001934 0.000431 0.000556 -0.003579 -0.004919 0.002256 -0.004887 -0.004537 0.000812 -0.002072 0.002021 -0.003800 0.004056 -0.002952 0.000473 -0.000994 -0.002204 0.001549 0.004755 0.003110 -0.003369 -0.000684 0.002085 0.002013 0.004543 0.004406 0.004462 0.004309 -0.000254 0.000180 -0.003775 -0.001764 0.000751 -0.001948 -0.000919 -0.003106 0.002541 0.001499 0.000809 -0.003923 0.001427 0.003481 0.002255 0.001665 0.001063 -0.004768 -0.000803 0.004632 0.003857 -0.002985 0.002417 -0.002588 -0.002812
back -0.004564 0.003172 0.001018 0.000305 0.001907 -0.002766 0.000377 -0.002749 0.002124 0.002757 0.002222 -0.001803 0.004626 0.000099 -0.002564 -0.000199 0.000619 0.003521 0.004119 -0.001765 -0.000990 0.003949 -0.003604 -0.004242 0.004725 -0.000009 0.002002 0.002459 0.004985 -0.004312 -0.000136 -0.000410 -0.002476 -0.004294 -0.001346 0.000980 -0.000029 0.000882 -0.004857 0.003479 -0.003695 -0.001151 -0.001656 -0.000563 0.002848 -0.002027 0.003509 0.001432 0.002853 -0.001312 -0.002234 -0.004824 0.004794 0.004923 -0.000186 -0.000375 -0.002059 0.003195 -0.002969 -0.002450 -0.003404 0.003745 0.003117 0.003241 -0.003348 -0.004919 0.002555 -0.002602 -0.001637 -0.002947 0.003132 -0.000818 0.000451 0.000780 -0.004257 0.001603 -0.001511 0.000316 -0.003827 -0.001946 -0.004445 -0.004279 -0.002582 0.000131 -0.000792 -0.003364 0.000875 -0.002061 -0.001533 0.002386 0.001017 0.004848 -0.000146 -0.001924 -0.004207 -0.002487 0.003428 -0.002089 0.002192 0.002835
job 0.004811 -0.001863 -0.002568 -0.000311 0.001074 0.001510 -0.004070 -0.001509 0.003964 -0.003877 -0.002567 -0.004547 0.003745 -0.004441 0.000011 -0.003310 -0.004381 -0.002413 -0.003261 -0.004739 0.004698 0.002156 -0.003262 -0.003449 0.004883 0.003842 0.004468 -0.003465 -0.003384 0.003646 0.003448 -0.000658 -0.000747 0.000398 0.002231 -0.004338 0.003203 -0.000093 0.001745 0.002047 0.002263 0.002827 -0.001302 -0.000783 -0.002355 -0.004320 0.003313 0.004681 0.002817 -0.003265 0.004634 0.000408 0.000053 0.004484 0.001928 0.001559 -0.004212 0.000391 -0.002234 -0.002863 -0.002798 -0.001473 0.001649 0.001222 -0.004168 0.001377 -0.000657 -0.001929 -0.004931 0.001995 0.001377 0.004756 -0.000704 -0.001980 -0.004056 -0.002428 -0.001090 -0.002386 -0.003481 0.004769 0.000600 0.004954 -0.004871 0.002262 -0.000026 0.002364 -0.000627 -0.000574 0.004627 0.003030 0.001261 -0.001647 -0.004674 0.004338 0.002367 0.001763 0.000993 0.004449 -0.000194 0.001222
at 0.004809 0.002730 0.002411 0.001191 0.000239 -0.001107 -0.004086 -0.002951 0.003961 -0.000895 0.003237 0.000773 0.001436 0.003779 -0.003204 0.004047 -0.000151 -0.003555 0.002092 -0.002403 0.003982 0.004249 -0.004432 -0.003876 0.004449 0.004784 -0.003620 -0.001020 -0.002807 -0.003063 -0.000697 0.004805 0.002718 -0.001826 -0.003655 0.003199 0.001464 -0.000179 -0.002165 -0.002626 -0.004743 -0.003492 -0.002141 -0.003416 -0.002437 0.003127 -0.000342 -0.001217 0.004814 0.001991 -0.000276 0.004296 -0.004651 -0.001131 -0.004113 0.004910 -0.003115 0.001498 0.000185 -0.003633 0.003265 -0.001249 0.004689 0.002925 -0.002893 -0.002450 -0.000891 -0.001731 0.002678 0.001431 -0.000063 -0.001786 0.003611 0.003162 0.001814 0.004366 0.003581 0.002005 -0.003899 0.003968 -0.000039 -0.002549 0.000536 0.000303 -0.002777 -0.002121 0.001304 -0.004304 -0.001027 -0.000401 0.002335 -0.002033 0.002606 -0.002666 0.004836 0.000200 -0.003243 -0.001751 -0.001087 0.004767
you 0.004685 -0.000271 -0.003975 0.004790 -0.000138 0.003446 -0.003721 -0.000851 0.004985 0.001409 0.000335 -0.003380 -0.001973 0.002590 -0.004523 -0.001485 -0.003901 -0.003661 -0.003995 0.003512 -0.004617 -0.001536 -0.003547 0.000423 -0.003952 -0.000242 -0.001408 -0.002871 0.002419 0.001446 0.001715 -0.000472 -0.004578 0.003246 -0.004215 0.001489 0.002624 0.001244 -0.004926 0.001382 -0.003390 -0.001174 0.000978 0.002425 -0.003540 0.002399 -0.001580 -0.000056 0.004379 -0.003727 -0.003764 0.002082 0.003156 -0.000964 -0.002572 -0.004181 -0.002830 0.004559 -0.001100 -0.004783 -0.004804 0.003811 0.002480 -0.001700 0.002795 0.000467 0.003752 -0.004360 -0.004640 -0.000166 0.000193 -0.003543 -0.002294 0.002228 0.003585 -0.002086 0.004340 0.001085 0.002029 0.004940 0.004508 0.003963 -0.003062 -0.001803 -0.004092 0.003734 -0.000604 -0.001616 -0.000772 0.000818 0.002523 0.003522 0.004667 0.004388 0.001756 -0.002778 -0.001341 -0.004828 0.004888 0.004020
