30 100
) 0.004371 -0.001611 -0.001676 -0.002449 -0.000505 0.001364 -0.001574 -0.004196 -0.004788 -0.003539 0.004989 -0.003069 -0.003076 0.001234 -0.003950 -0.001700 0.004641 0.000614 -0.003221 0.002251 0.004467 -0.003183 0.002697 0.002108 -0.004994 -0.004193 0.000702 0.003863 -0.003149 -0.000231 -0.002177 0.000370 0.001371 0.002193 0.002760 -0.003389 0.001420 -0.003490 -0.003501 0.000887 0.001001 -0.002473 -0.002958 -0.003980 -0.003080 0.001721 -0.004530 0.001972 -0.002966 0.004164 -0.003334 0.000204 -0.002855 -0.004622 0.001828 0.000075 0.000740 -0.000954 0.004571 -0.003753 0.003845 0.003760 -0.001534 0.003139 -0.004080 0.003237 0.002945 0.002638 0.000270 0.004354 -0.003887 0.003026 -0.003309 0.001733 0.001110 0.001440 0.002929 0.000498 0.000330 0.001997 -0.004891 0.003851 0.003783 0.000543 -0.002273 -0.003725 -0.000976 0.004160 0.003858 0.004402 -0.000472 -0.000222 -0.004397 0.001707 0.000435 -0.004098 -0.000456 -0.001596 -0.000398 -0.003344
( 0.002068 -0.004046 -0.001157 -0.002166 -0.002647 0.004763 -0.002099 -0.000718 -0.003194 -0.002840 0.002063 0.004361 -0.002670 -0.002222 -0.003481 -0.000244 -0.002278 0.001066 0.001018 0.003929 0.003603 -0.000577 -0.002335 -0.000164 -0.001169 -0.003010 -0.003807 -0.004607 -0.004626 0.003768 0.004343 0.003120 0.001515 -0.003559 -0.004755 -0.002550 -0.002824 0.003136 0.000202 -0.002498 0.000408 -0.004140 -0.001270 0.004424 -0.002084 -0.002490 0.004276 0.004562 -0.002332 -0.002479 0.002733 -0.001285 0.001508 0.003159 0.004939 -0.002597 0.004238 0.003954 0.001946 -0.003796 -0.001232 0.002994 -0.001821 0.004742 -0.000910 0.001947 0.001859 -0.000350 0.003654 -0.002630 -0.003114 -0.003549 0.002463 -0.002553 0.001546 -0.004145 -0.003153 -0.003157 0.003585 0.004815 -0.001147 -0.002802 0.002846 0.002377 -0.002015 -0.004909 0.004147 -0.002278 -0.000794 0.003991 0.003726 0.002134 0.001999 0.001847 0.000113 0.001930 -0.001356 -0.004029 0.000478 0.003503
, -0.001446 0.004659 0.000112 -0.001304 0.004252 0.003360 0.003978 -0.000746 0.001993 -0.002101 -0.002659 -0.001104 0.002443 -0.004943 0.002993 -0.004690 -0.001696 0.003917 -0.001612 0.001866 -0.002221 0.003548 0.001684 -0.001285 0.000972 -0.001872 -0.001271 -0.002715 0.001693 0.004885 0.001801 0.004876 -0.000981 0.004803 0.002999 0.003129 0.004035 -0.001102 0.003311 -0.004107 0.003838 0.000326 0.001600 0.001887 0.004892 -0.003734 0.002690 -0.000740 -0.000932 -0.003885 -0.004675 -0.000038 0.002724 0.003288 -0.002735 -0.000877 -0.000330 0.002645 0.001483 -0.001590 -0.000719 -0.001496 -0.004445 -0.004055 -0.002274 -0.004423 -0.001992 -0.002403 -0.000447 -0.000447 -0.003582 0.000481 -0.001801 -0.000886 -0.003318 0.000549 -0.000809 -0.004790 -0.000022 0.002347 0.003399 -0.003695 -0.004095 -0.002197 -0.001204 -0.004702 0.002685 -0.004706 -0.002312 -0.002674 -0.003832 -0.002844 -0.000503 -0.004751 0.002509 -0.001071 0.003471 -0.001954 0.001379 -0.004583
. -0.001640 0.003940 0.001144 -0.002719 -0.000214 -0.003236 -0.004049 0.001572 -0.003532 -0.004848 -0.002744 0.000858 0.002055 -0.000107 0.003087 0.001067 -0.002007 0.005000 0.003922 0.002841 0.000865 0.000175 -0.004556 -0.003325 0.003125 0.001655 -0.004614 0.003146 0.000620 0.003582 -0.000631 -0.001885 -0.004485 -0.000275 -0.000678 0.000034 -0.004113 0.003717 0.003303 -0.002067 0.002472 0.000893 -0.000195 0.003514 -0.000827 0.001902 0.001413 -0.004668 0.000467 0.002452 -0.002588 0.000904 0.004022 0.001062 0.002433 0.000593 0.001248 -0.000578 0.002235 0.004210 -0.003606 0.002406 -0.000823 0.004046 -0.003731 -0.001153 0.000869 -0.000591 0.004073 0.003994 0.002323 0.000800 0.003427 -0.004469 -0.003070 -0.000234 -0.003140 0.003749 0.004040 -0.004460 0.003885 0.000041 0.003324 0.001117 0.000679 0.002469 0.003230 -0.001702 0.002739 0.000316 -0.003029 -0.002429 -0.001569 -0.001912 -0.000469 0.001797 0.003485 0.000965 -0.002129 0.000063
: 0.000278 0.001676 -0.002286 0.003865 0.000613 0.002980 0.004324 0.000660 -0.001589 -0.000266 -0.001496 0.001305 -0.001005 0.002798 0.000707 0.004280 0.000790 -0.002823 -0.003333 -0.004363 -0.001264 0.000902 0.001129 0.004876 0.002874 0.003508 0.001411 -0.003511 -0.001793 -0.000271 0.001524 0.001888 -0.002867 0.002546 0.004975 0.003451 0.000907 -0.000732 0.001789 -0.000375 -0.003013 -0.001031 -0.001430 -0.003805 0.000198 -0.000420 -0.004118 0.001522 0.002394 -0.004892 -0.000214 -0.004574 0.002863 0.000910 0.000348 -0.000507 0.002251 0.004275 -0.003481 -0.002785 0.000693 -0.004866 -0.003457 -0.003420 -0.002332 -0.000289 0.000767 0.004269 -0.002687 -0.002327 0.000670 0.004674 0.002795 0.000529 0.000459 0.001295 -0.000012 0.001440 0.002339 0.002886 -0.002329 0.004802 0.001252 -0.001545 -0.004421 0.004709 0.002746 0.004401 0.003248 0.003304 0.000661 0.001033 -0.000272 -0.004421 0.000103 0.003532 0.002809 0.000193 -0.003992 -0.000684
877 0.000524 0.000027 0.000546 -0.001708 -0.001600 -0.001688 -0.002567 -0.003909 0.001273 0.000707 -0.003765 0.002381 0.004955 0.000222 0.003963 0.000882 0.000925 -0.003293 -0.003881 -0.000713 -0.001009 -0.001069 0.002718 0.000905 0.003363 0.002044 0.002461 -0.003673 -0.001248 0.003076 -0.001855 0.000371 0.000565 0.002882 0.004285 0.000987 0.004794 -0.001026 -0.003390 0.002833 -0.002253 0.003761 0.000110 -0.002504 -0.000349 -0.004804 0.000489 -0.000607 -0.001985 -0.001122 0.003035 -0.002181 -0.003224 0.004476 0.000283 0.003611 -0.002501 -0.003407 0.003928 0.003574 0.002579 -0.003482 0.004601 -0.003091 -0.004457 0.002769 -0.004826 0.002826 -0.001196 -0.001644 0.001660 0.003091 0.004416 0.001891 -0.004585 -0.001966 0.001776 0.001186 -0.002173 0.000629 -0.003245 0.004306 -0.000805 0.003106 -0.004689 0.001342 0.004195 0.003157 -0.004429 0.002867 0.001189 0.000036 0.004914 0.004451 -0.002228 -0.002559 -0.000888 -0.002343 -0.003481 0.004773
available -0.001369 0.004783 -0.004246 -0.000167 -0.002576 0.000549 0.004842 -0.000101 -0.000081 -0.001799 0.003750 -0.002712 -0.004351 -0.000162 0.001866 0.004447 -0.003469 -0.000851 0.003297 -0.001268 -0.003386 -0.003731 -0.000041 0.002057 -0.003609 0.000845 0.000374 0.003358 -0.002473 -0.002971 0.002914 -0.001002 -0.001418 -0.000400 0.000281 0.004416 -0.000336 -0.001247 0.002068 0.000273 -0.004003 0.000454 0.003986 -0.002271 -0.004507 -0.000598 0.003186 -0.000306 0.004100 0.004192 -0.004361 -0.004567 0.001003 0.000343 0.002067 0.004212 -0.003908 -0.001732 0.001177 -0.003771 -0.002292 0.003211 -0.000082 -0.001184 0.000820 0.004741 -0.000986 -0.000608 0.003253 0.003533 0.003230 0.000691 0.004870 0.004664 -0.003632 0.004228 0.003388 -0.000057 0.002690 -0.003538 -0.004360 0.002548 0.001654 0.000333 0.004479 0.003159 0.000052 -0.003547 -0.001037 0.001644 0.004865 0.003991 -0.001153 -0.001134 -0.000138 0.003840 0.003611 -0.004959 -0.004882 0.000638
questions -0.003738 -0.002390 0.002277 0.004432 0.002660 -0.003358 -0.004746 -0.000004 -0.002766 -0.004837 0.002150 0.004522 -0.000677 -0.002642 0.000941 0.004739 0.001564 -0.001309 0.003097 0.001515 0.004420 -0.002986 0.001189 0.003098 0.001971 0.000241 -0.003129 0.004540 -0.000394 0.003250 -0.002970 -0.004823 0.001057 -0.002272 -0.000800 -0.004815 -0.003351 -0.003681 0.003013 0.004760 0.002440 0.000235 0.002392 0.002189 -0.000432 0.004182 0.003283 -0.003859 -0.000228 0.003062 -0.004017 -0.004015 -0.004763 -0.002853 0.000802 -0.003866 0.000047 0.004051 0.003750 -0.002825 -0.002859 -0.001272 0.003640 0.001008 -0.003467 0.002504 0.003677 -0.000265 0.003091 -0.000089 -0.001039 0.002062 0.004568 0.003558 0.000446 -0.003515 0.003904 -0.002984 -0.002289 -0.004672 -0.004691 0.001759 0.000177 0.001562 -0.003029 -0.004851 -0.000503 -0.001192 -0.003072 -0.002137 -0.002402 0.000591 0.000284 -0.001606 0.001303 0.002109 -0.000752 0.000795 0.003673 -0.004386
is 0.000500 0.000970 0.003514 0.001978 0.000054 -0.002849 -0.004618 0.004119 0.001329 -0.001159 -0.001770 0.002179 -0.004492 -0.001020 0.000010 -0.000366 0.000333 -0.000283 -0.004760 -0.002343 0.000179 0.000515 -0.004545 0.002220 0.002001 -0.004134 0.004334 0.002197 -0.004992 0.000767 -0.004166 0.003576 0.004440 -0.003004 0.002799 0.001885 -0.004098 -0.001444 0.003276 0.002556 0.000766 -0.000059 0.001759 0.004375 -0.000417 -0.003391 -0.000870 0.002027 0.003458 -0.004446 0.002794 0.000622 -0.000508 -0.004840 0.000933 -0.002172 -0.003055 0.002821 -0.003875 0.004297 -0.003225 0.002168 0.000411 0.002735 0.002709 -0.004408 0.003918 0.001661 -0.002048 0.000908 0.004198 0.002619 0.000591 -0.001147 -0.004382 0.001151 -0.001982 -0.000825 0.003879 -0.004951 0.000444 -0.001414 -0.002481 -0.002589 -0.003844 -0.004813 -0.001204 0.003012 0.001385 -0.002308 0.000845 -0.003516 -0.003286 -0.003947 -0.000086 0.002313 0.000943 0.000535 -0.003001 0.002702
have -0.000511 -0.003157 0.002497 -0.000848 0.002895 -0.001983 0.001061 -0.000765 -0.003408 -0.003746 -0.002101 -0.002707 -0.003625 -0.000475 -0.000588 -0.000706 0.001654 0.004873 -0.003850 -0.003921 -0.002299 -0.002433 0.003700 -0.002286 0.002901 0.003097 -0.002149 0.004529 0.000654 0.000906 -0.002713 -0.003362 0.002962 -0.003959 0.004672 0.003954 0.000593 0.004122 0.004274 0.004319 -0.004793 0.002743 -0.002568 0.003401 0.002571 0.001149 0.000473 0.001977 0.001980 -0.000169 -0.000605 -0.000821 -0.000053 -0.004549 -0.000038 -0.003910 0.000543 -0.000092 -0.004914 0.002881 0.000099 0.002663 -0.003368 -0.000974 0.002098 -0.004650 -0.001111 -0.003313 -0.002847 0.001629 -0.004183 0.002582 0.001774 -0.004126 -0.004486 -0.002652 0.000055 -0.002875 -0.001920 0.000338 0.000329 0.004707 -0.002568 0.002813 -0.002985 0.004665 -0.002803 0.000104 0.001211 -0.004967 -0.004207 -0.003951 -0.002322 0.002919 0.002342 0.004885 -0.000044 -0.003305 -0.001955 -0.003085
Ph 0.000501 0.000027 0.001177 0.002714 0.001041 0.001360 -0.000576 -0.001294 0.001551 -0.003439 -0.000485 0.003879 -0.002586 0.001952 -0.003780 0.003303 0.000733 -0.004837 0.000410 0.004833 0.003726 0.000468 -0.000155 0.002054 0.004335 0.004688 -0.004524 -0.002349 0.001683 0.003692 0.001563 0.003413 0.000356 0.002887 -0.000256 0.004107 -0.000221 -0.001571 -0.002694 -0.001215 -0.002683 0.002127 -0.000911 -0.004412 -0.002815 0.003641 0.001901 -0.001788 0.004144 0.004087 -0.000920 0.000901 0.003797 0.001644 -0.003638 0.000202 -0.000003 -0.000439 -0.001455 0.004579 0.003948 0.002918 0.001026 0.000022 -0.000708 0.001191 -0.000856 0.001268 0.003762 0.004152 -0.000234 -0.003383 -0.002972 0.002671 0.002551 0.003372 0.000903 -0.001787 -0.002146 -0.002386 0.001483 -0.002456 0.003393 0.004098 0.002774 0.004318 0.002447 0.004832 -0.004012 -0.000260 0.001135 -0.002426 0.003559 -0.003783 -0.002264 -0.001875 -0.003158 -0.002888 -0.003222 -0.001735
any -0.002810 0.001366 -0.002771 -0.004930 -0.004558 0.002459 0.000709 -0.000141 -0.004463 -0.000445 -0.002205 0.004126 0.004451 -0.001131 -0.001062 0.001072 0.003437 -0.002427 -0.001660 0.002006 -0.002431 -0.002782 0.002990 -0.003646 0.002063 -0.004284 -0.002356 -0.004721 -0.001482 0.002981 -0.004081 0.000970 0.004757 -0.002137 -0.002744 -0.001191 0.001737 -0.003818 0.001171 -0.003826 -0.002791 0.000797 -0.001345 -0.003831 0.000531 0.004082 -0.000025 -0.003348 0.000747 0.000968 0.004042 0.003475 0.000427 -0.001666 0.000300 -0.002027 0.002257 0.004027 -0.002065 -0.001779 0.001116 0.002617 -0.002580 -0.004440 0.000093 -0.004389 -0.001140 -0.003918 -0.003727 -0.000060 -0.003619 0.004450 0.003395 -0.003216 -0.003373 -0.002761 0.004102 0.002129 0.002311 0.001391 -0.004634 0.003518 -0.001069 -0.004649 0.002945 0.004227 0.003507 -0.000874 0.002471 0.001768 0.001168 0.001914 0.000403 -0.004835 0.002091 -0.004895 0.004155 -0.002572 0.004682 0.002905
use -0.002199 0.001969 -0.003075 -0.004282 0.003335 -0.003306 -0.003350 0.002081 -0.002593 -0.003941 0.000670 0.000373 -0.000292 0.003602 -0.002098 -0.000107 0.003201 0.004321 0.004164 -0.003751 -0.003882 0.002600 -0.004607 0.002393 -0.000572 0.001266 0.004076 -0.002589 0.003666 0.002482 -0.001809 0.001943 -0.002096 -0.002743 -0.004542 -0.000831 -0.003283 -0.001471 0.002552 -0.000441 -0.004776 0.002240 0.000587 0.003040 -0.002588 0.004735 -0.003922 -0.001582 -0.000561 -0.002949 -0.002351 0.002451 0.000730 -0.004671 -0.002855 -0.003177 0.002428 -0.003996 0.003420 -0.000753 -0.001945 0.001816 -0.004851 -0.003101 -0.002322 -0.004530 -0.000503 0.001706 -0.000475 -0.003826 -0.002620 0.000175 -0.001860 0.004373 -0.003100 -0.004448 -0.004805 -0.002284 -0.004845 0.003828 0.001212 0.001885 0.001285 0.004338 -0.000042 -0.004765 -0.002645 0.000859 -0.001495 0.000867 -0.000961 -0.004740 -0.003322 0.004536 0.001458 0.000042 -0.004474 -0.004894 -0.001600 -0.003955
for 0.001358 -0.004254 0.003149 0.002151 -0.001596 -0.001825 0.000898 0.001321 0.004961 0.002946 -0.001547 -0.004167 -0.001879 0.001145 -0.001236 -0.004261 -0.003345 0.001029 0.003712 -0.003482 -0.003397 0.000618 -0.001908 0.004255 -0.002712 -0.001082 -0.002153 0.001774 -0.004333 0.000602 0.004019 0.000512 -0.001517 0.000319 -0.001524 0.000767 0.004044 -0.004101 -0.002372 -0.003896 -0.002333 0.004456 -0.003863 0.002038 0.003071 -0.003797 -0.001957 -0.003646 -0.003282 0.003701 -0.004280 0.004280 -0.000341 0.003287 -0.003129 -0.000480 0.000986 0.001289 0.003954 -0.003101 0.001040 0.003186 0.001444 -0.000075 0.004324 0.003108 -0.001812 0.002482 0.004928 0.002073 -0.004216 0.002873 0.001299 0.004049 -0.001999 -0.001145 -0.000132 0.001507 -0.000758 -0.004950 0.004224 0.001067 0.000054 0.003416 0.001057 0.001482 -0.002549 0.003074 0.003208 -0.002724 0.002793 -0.003910 0.000950 -0.004826 0.000078 0.003179 0.004133 0.001640 -0.000657 0.004826
please 0.000899 -0.004096 -0.000090 0.004858 0.003352 -0.001644 -0.003203 -0.000058 0.000154 0.002143 -0.004030 0.003257 -0.003000 -0.004537 0.002168 0.001789 -0.002880 -0.000859 -0.000283 0.001645 -0.001809 0.000398 0.004566 -0.004498 -0.002109 0.003756 -0.001301 -0.003952 0.003393 -0.000133 0.000468 0.000618 0.000489 0.002753 0.000563 -0.000322 -0.003802 0.000566 0.001251 0.003146 -0.000506 0.002804 -0.004957 -0.003442 -0.001403 -0.000636 -0.004940 -0.002933 -0.001532 0.004460 0.001470 0.002987 0.004625 0.004836 0.003852 0.001922 -0.003974 -0.001275 0.002267 0.000113 0.003104 -0.002717 -0.004225 -0.004349 0.002318 -0.002052 -0.002840 -0.004068 0.004383 -0.001953 0.000277 -0.004010 -0.000371 0.000627 -0.004766 -0.001226 -0.001032 -0.001863 -0.001838 0.002239 -0.002338 0.003964 0.002231 -0.004516 0.004804 0.001978 -0.001645 0.002270 -0.004215 -0.004358 -0.001818 0.004865 0.000466 0.000306 -0.004429 0.000106 -0.001006 -0.002188 -0.004853 -0.002453
concerns 0.004261 -0.004695 0.001862 0.004127 -0.004231 0.004928 -0.001349 -0.001649 -0.000507 0.004092 -0.004969 -0.001308 0.002703 0.003640 -0.001405 -0.001466 0.000781 0.004794 0.003076 -0.001638 0.001274 -0.004324 0.004571 0.004780 0.004053 -0.002333 0.003896 -0.004242 0.002401 0.001995 0.003778 -0.003377 0.003477 0.003692 -0.000822 0.001595 0.004989 0.004488 -0.003859 0.001357 -0.004249 0.001102 0.000717 0.004809 0.004268 0.002734 -0.000366 -0.000502 0.002210 0.003353 -0.000265 -0.000953 -0.001158 -0.001115 0.000043 -0.003526 0.003800 -0.004054 -0.000061 0.004580 0.002598 -0.000516 -0.004453 -0.000796 -0.001439 -0.001898 0.001716 -0.003286 -0.001498 0.002277 0.004705 -0.000084 -0.002550 0.001896 -0.001938 -0.000080 0.004475 0.003105 -0.002688 0.001034 -0.001409 -0.004978 0.000109 -0.000030 0.000492 -0.004941 0.004566 0.002837 -0.000551 -0.002499 -0.000352 -0.002407 0.001533 0.000661 0.002851 -0.003534 0.003060 -0.000465 0.000382 0.004976
you 0.004694 -0.000277 -0.003977 0.004787 -0.000138 0.003456 -0.003724 -0.000855 0.004976 0.001408 0.000335 -0.003379 -0.001978 0.002594 -0.004537 -0.001485 -0.003902 -0.003654 -0.003995 0.003513 -0.004610 -0.001540 -0.003545 0.000430 -0.003957 -0.000244 -0.001408 -0.002886 0.002408 0.001449 0.001715 -0.000470 -0.004573 0.003246 -0.004224 0.001484 0.002630 0.001247 -0.004929 0.001380 -0.003391 -0.001177 0.000975 0.002426 -0.003547 0.002398 -0.001584 -0.000051 0.004380 -0.003721 -0.003763 0.002085 0.003147 -0.000977 -0.002567 -0.004194 -0.002828 0.004559 -0.001086 -0.004790 -0.004803 0.003826 0.002477 -0.001694 0.002784 0.000473 0.003754 -0.004349 -0.004638 -0.000168 0.000181 -0.003548 -0.002288 0.002230 0.003588 -0.002093 0.004339 0.001077 0.002038 0.004949 0.004502 0.003967 -0.003046 -0.001804 -0.004094 0.003719 -0.000610 -0.001600 -0.000774 0.000824 0.002518 0.003509 0.004662 0.004394 0.001755 -0.002781 -0.001346 -0.004840 0.004882 0.004027
Support 0.000363 0.003210 -0.002176 -0.001851 0.003439 -0.004997 -0.000707 0.001387 0.001479 0.004613 0.000846 0.000865 0.002497 -0.000068 0.000967 -0.000234 -0.003507 0.001902 -0.000070 0.002503 -0.004826 0.003775 0.002102 0.004409 0.004965 -0.000250 -0.002892 -0.003536 0.001800 0.003713 0.003932 0.004839 -0.000401 -0.000917 -0.004508 -0.003062 0.000968 0.004626 0.001789 -0.003870 0.001454 -0.004034 0.003605 -0.000711 -0.001288 -0.003977 -0.003323 -0.002738 -0.001614 -0.001745 0.000172 -0.000721 -0.003774 0.004014 0.002768 0.001551 -0.002567 0.004255 -0.003826 -0.004602 -0.003492 0.004969 -0.002424 -0.000579 0.002699 0.002391 -0.001598 0.002788 0.004822 0.004346 -0.000467 0.002627 0.000016 0.002076 0.004734 0.002221 -0.001707 0.002131 0.001756 0.004347 -0.000911 0.002466 0.000711 -0.003017 -0.002639 -0.002646 0.000768 0.000074 -0.001394 0.003392 -0.000847 0.004973 -0.002491 0.001200 -0.002197 -0.001317 -0.000431 -0.003074 -0.001461 0.002980
Customer -0.001342 -0.000215 0.003912 0.003813 0.002234 0.004184 -0.004234 0.003870 -0.001190 -0.002606 -0.003736 -0.001729 0.001639 0.003623 0.000909 0.002243 0.001190 0.000658 0.001415 -0.000710 -0.001290 -0.004635 0.004219 -0.000516 0.004055 0.004601 0.000515 0.000045 0.000724 -0.001173 -0.000936 0.001936 0.002361 0.004016 0.002956 -0.001198 0.000154 0.001803 0.004679 0.004242 -0.002725 -0.003135 -0.001664 -0.001304 -0.000959 0.003228 -0.001196 -0.001128 -0.000404 0.004624 0.000105 -0.001818 -0.004655 -0.004280 -0.002229 -0.003581 0.004789 0.003675 0.002075 0.003086 0.004405 0.003191 0.002098 -0.000491 0.004596 -0.004013 0.001369 0.003906 0.003671 -0.004623 -0.002919 -0.003586 0.001717 -0.004229 0.000414 -0.004828 -0.001779 -0.000524 0.004562 -0.001806 -0.002349 -0.002599 -0.001775 0.004814 -0.003158 -0.001612 -0.004275 0.004114 0.000969 0.003840 -0.002011 -0.004989 0.004315 0.000497 -0.004561 0.002265 0.000936 -0.000726 0.002554 0.004237
eCare 0.000831 0.004168 0.000493 0.001134 0.001420 0.000809 0.001165 0.000160 0.000239 0.002477 -0.000550 0.002106 -0.000723 -0.000083 -0.004942 0.004817 0.001283 -0.002675 -0.000557 -0.004275 0.003477 -0.000917 0.002084 0.000861 0.002826 0.004099 0.000406 -0.000443 0.001633 -0.003776 0.000454 -0.001814 -0.002449 -0.003949 -0.001566 -0.001942 0.001798 -0.002323 0.002064 0.001107 -0.004223 0.004587 0.003607 -0.004371 -0.004118 -0.000211 0.001668 -0.000037 -0.000457 0.004515 0.004938 -0.001524 -0.004948 -0.004545 0.004769 -0.000560 -0.003802 -0.000462 0.004939 -0.001440 -0.001723 0.002605 -0.002927 -0.000354 0.001750 0.000772 0.000179 0.002061 0.003983 0.004904 0.003420 -0.001190 0.002574 -0.002397 -0.002401 -0.001619 -0.001954 0.000222 0.000413 0.002787 -0.000978 -0.000014 0.003331 -0.000335 -0.000513 0.003682 -0.001356 0.004489 -0.003908 0.001168 -0.003872 -0.003677 -0.004214 -0.001390 0.001496 -0.004747 0.001340 0.002433 0.001513 0.002570
Dynegydirect -0.001123 -0.000539 0.000217 0.002462 0.004503 -0.004144 0.004515 0.002481 0.004874 0.001900 0.002879 0.003887 -0.003759 -0.000913 -0.000813 0.004663 -0.001919 0.002471 -0.003976 0.002433 -0.000240 -0.002066 0.001718 -0.004465 -0.001913 0.004141 0.001932 0.002755 -0.000689 -0.000871 -0.004110 0.003864 0.001803 -0.004342 0.003021 -0.002660 0.003582 -0.000142 0.003694 -0.004910 -0.003251 0.004117 -0.002138 0.004270 -0.001951 -0.002933 0.000027 -0.000922 0.002322 0.002973 -0.002574 -0.003306 0.001504 -0.003262 0.001280 -0.002937 -0.002524 0.000926 0.001520 0.004411 0.000339 0.002108 -0.001431 -0.000174 -0.002230 -0.000208 0.004761 -0.000021 -0.001393 -0.002906 0.001075 0.000269 0.003052 -0.001247 0.001931 -0.000151 0.001312 0.003466 0.003698 0.003827 0.000698 0.001376 -0.000245 -0.004880 -0.002915 0.000839 0.001200 0.004883 0.000905 -0.004291 -0.001812 0.004929 -0.003394 -0.002756 0.000188 -0.004875 0.000745 -0.002332 -0.000256 0.003933
now -0.003323 -0.003770 -0.002909 -0.000525 0.000157 -0.001075 0.002694 0.002733 0.003069 0.003870 0.001332 0.000072 0.000580 -0.000948 0.002474 0.000545 0.001985 -0.002223 0.001541 -0.004023 -0.004457 0.004525 0.001245 0.001822 0.001299 0.001497 0.003017 -0.000348 0.001528 -0.002460 -0.000749 0.000545 0.001015 -0.000152 0.002418 -0.004425 -0.002464 -0.004184 -0.004868 -0.001841 -0.004832 -0.000614 0.001077 0.002164 -0.002802 0.000892 -0.003615 -0.000193 -0.004331 -0.002693 -0.002993 -0.000565 -0.002281 0.001721 0.000139 -0.004337 -0.004931 -0.002799 -0.004466 0.002296 -0.001386 0.003910 -0.003248 0.004307 0.002531 0.001695 -0.000512 -0.003281 0.000420 0.004021 0.001435 -0.003723 0.000186 0.002774 0.001908 -0.003076 0.000976 0.004624 0.004566 -0.002076 0.003671 -0.000768 -0.003063 0.003761 -0.004584 0.004428 0.002116 0.002158 -0.000030 0.002396 0.001860 -0.000726 -0.000507 -0.004534 -0.002825 -0.004987 0.001206 0.000558 0.001980 0.002745
Inc. -0.002226 -0.003257 0.004769 0.003803 0.000871 -0.001197 0.001430 -0.004986 -0.000585 0.003632 -0.004021 -0.002230 0.003329 0.000653 0.000420 -0.001622 -0.004520 0.001588 -0.003382 -0.003259 -0.003476 -0.000126 0.002826 0.000160 -0.003622 0.003404 0.004372 -0.001002 0.002406 0.004434 -0.004144 -0.001263 0.000106 0.000770 -0.002718 0.004738 -0.001784 -0.002471 -0.001650 0.000033 -0.001778 -0.004458 -0.004030 0.002566 -0.000512 -0.004977 0.002059 0.002189 -0.003457 -0.000387 -0.001509 0.004528 0.000527 -0.004244 0.003937 -0.001844 0.003949 -0.004957 -0.000622 -0.003033 -0.004053 0.003171 0.002596 0.000306 -0.003853 -0.001542 0.000457 0.004026 -0.004254 0.003022 -0.001121 0.003112 0.004312 0.002111 -0.000011 -0.000492 -0.000213 -0.000443 0.004655 0.004639 -0.000992 0.004973 0.004236 0.003551 -0.003629 -0.000322 -0.001339 0.004860 -0.000029 -0.003203 -0.004633 -0.003197 -0.004113 0.000175 -0.000378 0.003477 -0.001563 0.000294 -0.001366 0.004922
396.3492 0.000985 -0.001674 -0.001827 -0.003522 -0.003901 0.004257 0.002054 0.000398 0.004057 0.004533 0.002476 -0.004990 0.001077 0.000968 0.002274 -0.002672 -0.000866 -0.002089 0.002708 0.003253 0.004056 0.001975 -0.004250 -0.001946 0.003006 0.002474 0.002155 -0.003351 0.000228 0.003068 0.000576 -0.004665 0.001626 -0.001198 0.001824 0.001315 0.001145 -0.001841 -0.000925 -0.004523 0.003101 0.000220 0.001042 -0.002455 0.002179 0.004862 0.003610 -0.003930 0.000592 0.003623 -0.001975 0.001278 -0.001141 0.000608 0.004527 -0.004437 0.001079 0.003896 0.000095 0.000989 0.001835 -0.000080 0.003684 -0.000614 -0.003050 0.003535 -0.003408 0.001829 -0.004195 -0.004483 0.002011 -0.002607 0.001812 -0.003537 -0.000763 -0.003703 -0.003539 0.002387 0.003804 0.001330 -0.002026 0.002021 -0.000889 -0.002423 0.001730 -0.001192 -0.000351 0.003965 -0.002315 -0.004551 0.001065 -0.002374 0.001142 -0.002438 -0.003728 -0.001319 -0.003214 0.002799 -0.003450 -0.004432
396.3493 0.003840 -0.003001 -0.002333 0.004826 -0.000385 -0.003270 0.001928 0.001583 -0.004707 0.003174 -0.000504 -0.002870 0.004710 -0.000966 -0.003948 -0.000156 -0.003362 0.001493 0.003207 0.003445 0.003729 0.004675 -0.000924 0.000850 -0.001375 0.000629 -0.004261 0.000110 0.004317 -0.003282 -0.001259 0.000590 0.000324 0.003262 0.000261 0.003879 0.002240 -0.003449 -0.000823 -0.002582 -0.000450 -0.002170 -0.000031 0.004593 0.002780 0.004650 0.000040 -0.000395 0.004743 0.002526 -0.002808 0.003423 -0.004846 -0.001204 -0.000232 0.002915 -0.000246 0.004265 -0.000358 -0.004116 -0.002157 0.003381 -0.004011 -0.003723 0.002754 -0.002761 -0.000801 -0.004926 -0.001445 0.000403 -0.001655 -0.001918 0.001221 -0.002877 -0.002328 0.003627 0.003583 -0.004519 -0.002049 0.003941 -0.000435 0.000047 0.000150 0.001923 0.000372 -0.003139 -0.000904 -0.000524 0.003840 -0.003273 -0.002798 -0.000025 -0.003732 0.003256 0.003037 0.004400 -0.004579 -0.001005 0.003850 0.000724
Dynegy 0.000781 0.001953 -0.001273 0.004290 0.000632 -0.003358 0.001200 -0.001036 -0.000479 0.004154 0.002420 0.003165 -0.004273 0.002560 -0.001637 -0.000970 0.004157 -0.003900 0.001167 -0.000816 0.003676 -0.001187 0.003756 0.000429 -0.000668 -0.000300 0.001971 -0.001071 -0.000255 0.000443 -0.003631 0.001461 0.003979 0.002778 -0.001720 0.000227 0.002181 -0.000810 0.002732 0.002363 -0.000084 -0.003728 0.001759 -0.003197 -0.003887 -0.003343 0.003806 -0.001046 0.003467 -0.000788 0.003937 -0.002925 -0.003719 0.004694 -0.003994 -0.004564 -0.004495 0.003049 -0.001998 -0.002629 -0.001224 0.001251 -0.002300 0.002212 -0.002167 0.002701 0.001394 -0.000305 -0.003870 0.004384 -0.001211 -0.000557 0.002267 -0.001001 -0.004711 0.004721 0.003429 0.002063 0.004038 0.001265 -0.000080 -0.001831 -0.001611 0.003594 -0.003804 -0.003140 0.002927 -0.003828 0.001976 -0.004947 0.004509 -0.004184 0.003785 0.002999 -0.001892 -0.003959 -0.003334 0.002429 0.001548 -0.000300
Fx -0.001814 -0.004881 0.004040 0.002956 -0.003966 -0.002745 0.001348 0.000857 0.002774 0.001051 0.000546 -0.001003 -0.000233 -0.002491 0.000909 -0.003572 -0.002062 0.001755 -0.002763 -0.001124 -0.001646 -0.002283 0.003257 -0.004184 0.003181 0.001920 -0.001253 0.000549 -0.001157 -0.002259 -0.002749 0.004825 -0.004068 -0.002747 -0.001639 0.001121 -0.001803 -0.003223 0.004814 0.001454 -0.001189 0.000269 -0.003664 0.002999 -0.000588 0.003604 -0.000783 -0.004272 0.000994 0.001482 0.003453 0.001450 0.000170 -0.003957 -0.001944 -0.001190 -0.002844 0.001918 0.000446 -0.000247 -0.003888 -0.000214 0.000032 0.002169 0.004730 0.004204 0.004141 0.001120 0.001762 0.002273 -0.004899 -0.000659 -0.000049 0.000370 -0.000659 0.003824 0.001843 0.002210 0.001648 -0.000367 -0.001970 -0.000110 -0.001957 0.002077 -0.000875 0.000363 0.003174 -0.001105 0.001251 -0.004438 0.000894 0.001056 -0.002525 -0.002341 -0.002368 -0.001432 -0.003400 0.002769 0.004863 0.000229
contact 0.000932 -0.003625 -0.000138 0.000691 0.001689 0.003722 -0.000637 0.000828 0.004596 0.002055 -0.004911 -0.000056 -0.002572 0.000893 -0.002419 0.002710 0.002472 0.002316 0.004151 -0.000347 0.003333 -0.001116 -0.001266 0.000699 -0.004872 0.000978 0.001596 -0.003383 0.001226 0.003868 0.000408 -0.003497 0.002564 0.004115 -0.000207 0.004290 -0.000451 -0.001322 0.003672 -0.003286 0.003881 0.001550 -0.001028 0.004330 0.001474 -0.004691 0.001753 0.001756 0.002701 0.001418 -0.003810 -0.000205 -0.003709 0.000646 -0.001053 -0.004908 -0.000324 0.001919 0.004521 -0.004453 0.000841 -0.000246 -0.004265 0.003501 -0.001832 -0.001391 -0.000178 -0.002756 0.000677 0.002466 0.002396 0.002703 -0.001168 0.004002 -0.003530 -0.000431 0.000290 0.004998 -0.000910 0.002745 -0.004906 -0.003172 0.002513 -0.002011 -0.001852 0.001660 0.003588 0.004563 0.000492 -0.003999 -0.001464 -0.003786 0.004058 -0.003364 0.001050 0.000316 -0.000981 -0.000587 -0.003958 0.003754
or 0.002415 0.004737 -0.004736 0.004202 0.003069 0.002795 -0.002127 0.004923 -0.004950 0.003894 -0.004523 -0.000667 0.004127 0.001559 0.000914 -0.002999 -0.002310 0.002450 -0.000366 0.003582 0.001055 -0.002668 -0.000573 -0.002052 -0.003810 -0.001493 -0.001119 -0.004676 -0.004372 -0.001601 -0.003385 0.003287 0.002658 0.002879 -0.002126 -0.001373 0.004735 0.003392 -0.000802 -0.003103 0.002844 -0.002606 -0.000464 0.000474 0.000773 -0.002834 -0.002887 -0.000915 0.004365 -0.000795 0.000784 -0.002223 0.001599 -0.003979 -0.003479 -0.004598 -0.004272 -0.003723 0.000372 0.002898 -0.001306 -0.002790 0.004644 -0.003016 -0.004424 -0.000815 0.000019 0.003363 0.001666 0.002229 0.000419 -0.001767 0.003872 0.001179 0.002023 0.003019 0.000825 -0.003541 0.004198 -0.001055 -0.001574 -0.003648 0.002807 -0.004800 0.004315 -0.002851 -0.003162 0.004866 -0.002740 -0.002557 -0.002325 -0.003246 0.001093 0.004484 0.004556 -0.003142 0.004825 -0.003170 -0.002662 0.003786
If -0.000928 -0.001126 0.004445 -0.003688 0.000164 -0.003465 0.003645 -0.004174 -0.000443 -0.001616 -0.000787 0.003749 -0.002848 -0.001582 -0.003436 0.003844 -0.002731 0.003231 -0.000296 -0.004473 -0.002676 0.003314 0.002223 0.004100 0.002681 -0.000877 -0.000517 -0.004570 -0.003731 -0.003703 0.001126 -0.001274 -0.002104 -0.000743 -0.003955 -0.001307 0.002351 0.004172 0.000126 0.003959 0.002223 0.004031 0.002379 -0.000993 -0.000551 -0.001518 -0.003725 0.001233 0.002935 0.001051 0.003107 0.004506 -0.004517 -0.001687 -0.001767 0.004301 -0.001114 -0.001072 0.003341 -0.000485 -0.001102 0.004964 -0.002064 0.001829 -0.002116 0.003752 -0.001640 0.004185 -0.003572 -0.004847 -0.004511 -0.001013 0.002491 0.001600 0.001637 0.001924 0.003323 -0.003703 -0.000722 -0.003351 0.004206 0.004418 0.004873 -0.004089 0.002145 -0.003884 -0.004012 -0.000911 0.001781 0.003305 -0.003994 -0.002608 -0.004096 -0.000539 -0.003922 0.004527 -0.004587 -0.000722 -0.002441 0.000553
