22 100
, -0.001444 0.004659 0.000110 -0.001304 0.004250 0.003361 0.003980 -0.000748 0.001991 -0.002100 -0.002660 -0.001104 0.002443 -0.004940 0.002993 -0.004691 -0.001697 0.003916 -0.001611 0.001865 -0.002222 0.003550 0.001684 -0.001287 0.000970 -0.001871 -0.001271 -0.002714 0.001691 0.004884 0.001800 0.004875 -0.000980 0.004801 0.002997 0.003128 0.004033 -0.001102 0.003310 -0.004107 0.003836 0.000328 0.001601 0.001888 0.004888 -0.003734 0.002689 -0.000739 -0.000932 -0.003885 -0.004674 -0.000036 0.002724 0.003289 -0.002736 -0.000877 -0.000331 0.002642 0.001481 -0.001590 -0.000720 -0.001496 -0.004443 -0.004057 -0.002271 -0.004424 -0.001991 -0.002401 -0.000449 -0.000444 -0.003582 0.000481 -0.001798 -0.000890 -0.003319 0.000551 -0.000809 -0.004790 -0.000023 0.002348 0.003400 -0.003693 -0.004095 -0.002195 -0.001206 -0.004700 0.002686 -0.004706 -0.002310 -0.002675 -0.003832 -0.002845 -0.000503 -0.004752 0.002508 -0.001070 0.003471 -0.001954 0.001382 -0.004581
and 0.000144 0.002433 0.001209 -0.000537 0.002977 0.002872 0.004456 0.002465 0.002190 0.004773 0.000051 -0.000984 -0.004917 -0.001538 0.000443 0.003363 0.002197 -0.002398 -0.000350 0.000723 0.001760 0.003712 -0.000871 0.003242 -0.002382 -0.000784 -0.002182 0.001987 -0.004007 -0.004943 0.003532 0.002949 -0.003044 0.003732 0.004502 0.000604 0.003408 0.004723 0.004598 -0.003391 0.003028 0.000941 0.002122 -0.000750 -0.002581 0.003506 0.004638 0.004085 0.003097 0.004465 0.003766 -0.002295 -0.004100 0.001719 -0.001553 0.003841 0.000373 -0.002429 -0.004612 -0.002916 0.001467 0.003582 0.000039 0.001257 0.001644 -0.002424 -0.004748 0.003977 0.003776 -0.004877 0.002330 0.003390 0.001387 -0.004216 -0.001302 -0.004258 -0.004923 0.003352 -0.000974 -0.001374 0.000611 0.001180 -0.000126 -0.002559 0.001072 0.002419 0.000516 -0.000765 0.002995 0.004822 -0.004152 0.004927 -0.004535 0.003870 0.002962 -0.001242 -0.002912 0.001603 0.002381 -0.001427
Mr. 0.000926 -0.003691 -0.001875 -0.003139 -0.003615 -0.000928 -0.002315 -0.004788 0.001092 0.001834 0.000170 0.000950 0.003791 -0.000543 0.002751 -0.001589 -0.000440 0.002928 0.002836 -0.001596 -0.000343 -0.004999 0.000565 0.004394 0.002185 -0.003405 -0.004444 0.003863 0.000191 -0.004431 -0.000284 0.002855 -0.004832 -0.002770 0.000391 0.002505 -0.000389 0.003593 -0.004058 0.003472 0.002147 0.003418 0.003083 0.000492 -0.001150 0.002447 -0.003823 -0.002333 0.004682 0.000627 0.004020 -0.001877 0.002699 0.002934 0.002876 0.000125 -0.004902 -0.003286 0.003358 0.001833 0.000323 -0.001806 0.003270 0.001551 -0.001952 -0.001213 0.004710 0.001547 -0.001114 -0.000620 0.004018 -0.002959 0.000039 -0.002311 -0.002882 0.002181 -0.001543 -0.002021 0.004700 0.001143 -0.001156 0.003488 0.001163 -0.003013 0.003837 -0.004264 0.001685 0.004489 -0.003448 0.003963 -0.002800 0.000463 -0.002054 -0.004512 0.004259 -0.003768 0.002681 -0.000470 -0.003616 0.000647
are -0.000672 0.004019 -0.003074 -0.002265 -0.001224 -0.001826 0.002548 0.003646 -0.004820 0.004233 0.000955 -0.003879 0.002280 -0.002647 -0.003110 -0.004823 -0.002619 0.002383 0.003042 0.002368 -0.002320 0.001513 0.001257 -0.000319 0.004990 0.003550 0.001172 0.004743 0.004005 -0.004196 -0.002525 -0.000897 -0.001098 -0.003169 -0.004250 -0.001061 -0.001477 -0.002297 0.001872 0.000903 -0.003518 -0.003368 0.000037 -0.003047 0.004582 -0.003260 -0.000414 -0.003085 -0.003545 0.001216 -0.004297 -0.001162 -0.004273 0.000859 -0.001090 0.001081 0.003482 0.000024 0.003388 0.003970 -0.003854 0.003947 -0.004368 0.001867 0.001930 -0.002332 -0.000349 -0.002980 -0.000230 0.003194 -0.002496 -0.001524 0.001853 -0.002456 -0.004802 -0.000950 0.002434 0.001074 0.000743 0.003257 -0.001300 0.002130 0.002958 0.000142 -0.003185 0.001214 -0.003918 -0.001557 0.003974 -0.004473 -0.004394 0.000354 0.001173 -0.000156 0.000578 0.003223 0.000512 -0.003714 0.000569 -0.004948
You 0.003822 -0.002033 -0.002961 -0.003194 0.003236 0.003656 0.003315 -0.000635 -0.002874 0.003673 0.003253 -0.000623 -0.004073 -0.001366 0.004681 -0.002797 0.000698 0.003208 0.001828 -0.000650 0.004995 0.000464 -0.002137 0.002490 -0.001631 -0.002763 0.000997 0.002560 -0.004744 0.001569 0.000300 -0.004438 0.001182 -0.004658 0.003190 0.004320 0.001532 -0.003611 0.000158 0.003248 -0.000277 0.000384 0.000377 -0.004383 0.002083 -0.002176 -0.001067 0.004816 -0.003075 -0.004115 0.001270 0.001540 -0.002972 -0.003514 0.001557 -0.002863 -0.002558 0.004163 -0.004684 -0.001528 0.000752 -0.001272 -0.003557 -0.000812 -0.003072 -0.003039 -0.003526 0.003066 -0.001942 -0.004768 0.004881 0.000595 -0.001222 -0.001453 0.002666 0.003656 0.004254 0.002854 0.001878 -0.004364 0.000839 -0.004892 0.000423 0.003605 0.000449 -0.000069 -0.000871 0.001019 0.003732 -0.002101 0.004243 -0.003483 -0.004979 -0.002201 -0.000466 0.003495 -0.002150 -0.000549 0.000447 -0.000621
sir -0.002759 0.001997 -0.003682 0.002905 0.002711 -0.003913 -0.004649 -0.001788 0.003485 0.001909 0.000014 -0.003677 -0.003149 0.000758 0.001652 -0.003927 -0.004146 0.004771 -0.002615 0.000984 -0.003179 0.001862 0.002372 -0.003194 -0.002362 -0.001280 0.002858 0.004703 -0.000338 -0.000490 -0.000598 0.003307 -0.000453 0.002150 0.003447 -0.002009 0.003297 0.004535 0.000541 0.000966 0.003935 -0.001708 -0.004900 -0.003895 -0.001188 -0.001343 -0.001882 0.002567 -0.001364 -0.002309 -0.002356 0.002894 -0.000047 -0.000796 -0.003908 0.001684 0.002608 0.000441 -0.001271 0.004389 -0.000186 0.004435 -0.004267 -0.004742 -0.000347 0.003513 0.001723 0.002703 0.004065 0.001611 -0.004180 0.000663 -0.001189 -0.001967 -0.004314 -0.002926 0.001886 -0.004839 -0.002836 0.003371 -0.004838 -0.001872 0.004831 -0.001201 -0.000617 0.002964 -0.001725 -0.000405 -0.002660 -0.000964 0.001272 -0.003609 0.004255 0.002463 0.000944 0.001632 0.000160 0.002499 0.002539 0.003763
generous 0.003174 -0.001639 -0.003228 0.004878 -0.002692 0.004131 0.001890 0.002320 0.001956 -0.001042 -0.002874 -0.002785 0.004940 0.004628 0.003278 -0.002304 0.003808 0.000265 -0.000238 0.004023 -0.000606 -0.003308 -0.000222 0.003421 0.000445 -0.001734 0.001789 0.001395 0.001543 -0.004907 -0.004931 -0.000531 -0.003646 -0.000530 -0.003786 -0.000617 0.000813 -0.000292 -0.004146 0.002377 -0.000127 0.003114 -0.001830 -0.004059 -0.001264 -0.003970 -0.001427 0.001306 -0.003687 -0.003728 0.003944 0.004148 -0.003681 -0.000871 -0.002121 -0.004239 -0.004196 0.001318 -0.000664 -0.001003 0.004289 -0.003414 0.001581 -0.001401 -0.002081 -0.004941 -0.000671 -0.004018 0.003894 -0.001805 -0.001746 0.003923 -0.004404 0.001318 -0.004367 0.001983 0.000630 -0.002806 -0.003711 -0.000377 -0.000624 -0.002194 -0.002918 0.003186 -0.001996 -0.002368 0.003394 0.003931 -0.004196 0.003883 0.001833 0.003492 0.004265 -0.003465 -0.002282 -0.003361 0.003993 0.003751 0.001485 -0.003847
would 0.002474 0.002310 -0.003958 -0.000109 -0.004509 -0.003465 -0.004651 0.002619 -0.001572 0.002848 0.003603 -0.002482 0.000166 -0.004367 -0.004935 0.002465 -0.002166 -0.001166 0.002229 -0.004733 -0.000919 -0.004731 0.001941 -0.001583 0.003588 -0.004840 -0.002128 0.003215 0.003924 0.004172 0.000332 0.000057 0.002392 0.003397 0.002512 -0.004005 -0.001282 0.001103 0.002766 -0.002189 0.002006 0.004343 -0.003085 0.000659 -0.000043 -0.003554 -0.001343 0.003658 -0.004113 0.003732 0.003280 0.001701 0.003551 0.004869 0.002578 -0.000965 0.000917 0.001449 0.001751 0.000638 0.000881 0.003425 0.002381 0.000442 -0.004186 -0.003689 0.000251 -0.001372 -0.001790 0.000792 0.002649 -0.004164 -0.003624 0.000947 -0.002997 0.000570 -0.004833 -0.002812 0.002054 -0.004457 0.002707 -0.001102 0.003513 0.001814 0.004754 -0.000027 -0.002082 0.004635 -0.000767 0.004649 -0.000362 0.000426 -0.003694 0.002358 -0.002815 0.004925 0.002609 0.000777 -0.002264 -0.003295
please 0.000899 -0.004096 -0.000090 0.004858 0.003352 -0.001644 -0.003203 -0.000058 0.000154 0.002143 -0.004030 0.003257 -0.003000 -0.004537 0.002168 0.001789 -0.002880 -0.000859 -0.000283 0.001645 -0.001809 0.000398 0.004566 -0.004498 -0.002109 0.003756 -0.001301 -0.003952 0.003393 -0.000133 0.000468 0.000618 0.000489 0.002753 0.000563 -0.000322 -0.003802 0.000566 0.001251 0.003146 -0.000506 0.002804 -0.004957 -0.003442 -0.001403 -0.000636 -0.004940 -0.002933 -0.001532 0.004460 0.001470 0.002987 0.004625 0.004836 0.003852 0.001922 -0.003974 -0.001275 0.002267 0.000113 0.003104 -0.002717 -0.004225 -0.004349 0.002318 -0.002052 -0.002840 -0.004068 0.004383 -0.001953 0.000277 -0.004010 -0.000371 0.000627 -0.004766 -0.001226 -0.001032 -0.001863 -0.001838 0.002239 -0.002338 0.003964 0.002231 -0.004516 0.004804 0.001978 -0.001645 0.002270 -0.004215 -0.004358 -0.001818 0.004865 0.000466 0.000306 -0.004429 0.000106 -0.001006 -0.002188 -0.004853 -0.002453
. -0.001638 0.003933 0.001142 -0.002720 -0.000219 -0.003237 -0.004046 0.001572 -0.003531 -0.004852 -0.002742 0.000855 0.002053 -0.000107 0.003092 0.001069 -0.002004 0.004995 0.003927 0.002841 0.000870 0.000178 -0.004558 -0.003332 0.003124 0.001659 -0.004615 0.003150 0.000617 0.003580 -0.000627 -0.001887 -0.004483 -0.000279 -0.000676 0.000033 -0.004118 0.003716 0.003302 -0.002066 0.002471 0.000892 -0.000194 0.003515 -0.000830 0.001904 0.001419 -0.004669 0.000464 0.002450 -0.002589 0.000906 0.004024 0.001070 0.002438 0.000597 0.001249 -0.000575 0.002230 0.004211 -0.003605 0.002405 -0.000822 0.004047 -0.003721 -0.001154 0.000870 -0.000593 0.004076 0.003992 0.002324 0.000800 0.003428 -0.004479 -0.003071 -0.000235 -0.003145 0.003755 0.004041 -0.004460 0.003883 0.000043 0.003316 0.001122 0.000675 0.002475 0.003236 -0.001707 0.002746 0.000316 -0.003026 -0.002427 -0.001564 -0.001917 -0.000474 0.001798 0.003487 0.000967 -0.002121 0.000061
Cates -0.003802 -0.000851 0.004327 -0.001405 0.002367 0.001006 -0.001294 0.003585 -0.003526 0.001353 -0.001951 -0.000671 0.003556 -0.000079 0.001522 0.003501 -0.004832 0.002222 -0.002305 0.004351 -0.000820 -0.004497 -0.004807 -0.000639 -0.004684 -0.001517 -0.002498 -0.003861 -0.000382 -0.002447 0.001175 0.002056 0.000499 0.003773 0.001714 -0.003689 0.004882 -0.004067 -0.003922 -0.001763 -0.002540 0.004682 -0.002437 -0.001876 -0.001283 0.002566 -0.001841 -0.002390 -0.000935 -0.003070 -0.000806 -0.003256 -0.002744 -0.003292 -0.001945 0.003364 -0.002544 -0.001278 -0.003206 -0.004655 0.001077 0.003856 -0.000137 -0.003311 0.000312 -0.004980 -0.000358 0.002816 -0.004027 -0.004591 -0.000797 0.001308 -0.002109 0.002039 0.003490 -0.000693 0.001851 -0.001107 -0.001735 -0.001313 0.002025 -0.002047 0.000884 0.001547 0.001557 -0.003271 0.002243 0.002151 0.003568 0.000965 0.003160 -0.003733 -0.000787 -0.001755 0.001878 -0.002796 -0.001955 0.002646 0.002970 0.000589
you 0.004690 -0.000272 -0.003979 0.004788 -0.000141 0.003445 -0.003718 -0.000852 0.004981 0.001409 0.000333 -0.003381 -0.001974 0.002594 -0.004522 -0.001485 -0.003904 -0.003662 -0.003993 0.003511 -0.004618 -0.001533 -0.003546 0.000420 -0.003953 -0.000241 -0.001408 -0.002870 0.002416 0.001444 0.001713 -0.000473 -0.004576 0.003243 -0.004216 0.001490 0.002622 0.001245 -0.004927 0.001382 -0.003393 -0.001171 0.000980 0.002425 -0.003544 0.002399 -0.001581 -0.000057 0.004380 -0.003728 -0.003763 0.002088 0.003156 -0.000965 -0.002573 -0.004182 -0.002832 0.004554 -0.001104 -0.004783 -0.004805 0.003810 0.002483 -0.001704 0.002798 0.000464 0.003753 -0.004358 -0.004640 -0.000162 0.000192 -0.003540 -0.002290 0.002220 0.003583 -0.002084 0.004337 0.001087 0.002027 0.004942 0.004508 0.003966 -0.003061 -0.001801 -0.004093 0.003736 -0.000603 -0.001618 -0.000767 0.000815 0.002521 0.003519 0.004666 0.004387 0.001752 -0.002777 -0.001340 -0.004828 0.004892 0.004023
? 0.001878 0.001633 0.004017 0.000334 -0.004496 0.003486 -0.001683 -0.003662 -0.001853 0.002780 -0.003441 -0.002423 -0.004458 -0.002098 0.003580 -0.003746 -0.002631 -0.000845 0.002027 -0.001021 0.000492 -0.004469 0.000159 0.003352 0.001801 -0.004880 -0.004953 0.000777 0.002496 0.001184 0.000886 -0.001750 -0.001279 -0.002160 -0.003289 0.002110 -0.002261 -0.003358 0.002616 0.003965 -0.000952 -0.003631 0.001925 -0.002400 -0.002526 -0.003987 0.002799 -0.001027 0.004766 0.001888 -0.002491 -0.002787 -0.003732 0.004732 0.002028 -0.001434 0.001947 -0.003610 0.001312 -0.001146 0.002172 -0.001186 0.001208 -0.003505 -0.001987 -0.001615 -0.002118 -0.001315 -0.002963 0.000707 -0.001546 -0.000108 0.001976 0.000504 -0.004804 0.003013 -0.000740 0.000474 -0.001229 0.003154 -0.000128 -0.002549 -0.002755 0.001780 -0.002190 0.000181 0.003882 -0.004667 0.001498 -0.003383 0.004860 0.003370 0.002273 0.001606 0.004821 -0.001682 -0.004458 -0.004336 -0.004582 -0.000298
report 0.003730 -0.004175 0.003635 -0.000069 0.000745 0.000424 0.001298 -0.001660 0.002725 0.003795 -0.003484 0.003875 0.001967 0.001325 0.000129 0.003613 0.001170 -0.000048 -0.000776 0.000986 0.001990 -0.004789 -0.003133 -0.002802 -0.001243 0.003513 0.002295 -0.004878 -0.001144 0.002209 -0.000420 -0.002299 0.000844 -0.004154 -0.001046 -0.001378 0.000593 -0.000240 0.003200 0.002314 -0.003750 0.001329 -0.004046 0.001250 -0.000407 -0.000061 0.003137 0.003872 0.004019 -0.000722 -0.002071 -0.002658 0.003904 -0.001122 0.003471 0.000901 -0.003833 0.002996 0.000022 0.000438 0.000936 -0.000590 -0.000206 0.004326 0.003946 -0.001491 0.001011 -0.003612 -0.001033 -0.002741 -0.001032 0.001149 -0.000897 0.004925 0.003446 -0.004388 0.002337 -0.003607 -0.002227 -0.004317 -0.004017 -0.003614 -0.001035 0.002936 0.002060 -0.000264 -0.001151 0.001048 0.002976 -0.001532 -0.000877 -0.002120 0.003558 0.001965 -0.000557 0.002435 0.004245 0.003774 0.003911 -0.002995
man 0.000953 0.004265 -0.003504 0.000309 -0.003761 0.003800 0.003963 -0.004396 -0.003292 0.002624 -0.001727 0.002731 0.003301 0.003216 -0.000329 -0.001177 -0.003207 -0.001517 0.000710 0.000170 -0.001424 0.002556 0.003862 -0.004932 -0.001519 0.001621 -0.000876 0.003442 -0.003330 -0.002112 -0.003986 -0.001528 0.003896 -0.002518 -0.003130 -0.002887 -0.004855 -0.004044 -0.001731 -0.002932 -0.003071 0.004314 0.001477 0.001704 -0.004677 -0.000012 -0.001210 0.003344 -0.001335 0.001301 0.002769 0.001624 0.002124 0.003015 -0.001925 0.000085 0.001980 -0.004417 -0.000224 -0.001960 -0.003368 -0.000940 0.003450 -0.003833 0.003877 -0.002244 0.001334 0.004340 -0.004617 0.004491 -0.002697 -0.000191 0.004524 -0.004511 -0.004547 0.003575 0.000231 -0.004601 -0.000397 0.000580 0.000422 0.002954 0.000889 0.003376 -0.003386 0.002847 -0.000127 0.000856 0.000040 -0.001971 0.000185 0.001792 -0.000288 -0.004013 -0.003812 0.004235 -0.002174 0.001850 0.004827 0.000451
a 0.000588 -0.001168 0.001327 0.001874 -0.002712 -0.004637 -0.002391 -0.001848 0.003537 0.003538 -0.000680 0.000357 -0.001827 0.001755 0.003700 0.001174 0.002087 0.004025 0.003319 0.000012 -0.002151 0.004833 0.002279 0.003742 0.000436 -0.001161 0.001625 -0.004061 0.004470 0.002754 -0.003070 0.000446 -0.001749 -0.002174 -0.004857 -0.000716 -0.001613 0.002025 0.001382 -0.001835 0.000906 0.002003 -0.003878 0.004938 -0.001996 0.000781 0.000523 0.000929 0.003728 0.000561 0.000134 -0.001621 0.000791 -0.003633 0.001653 0.002753 0.001618 -0.003103 0.003636 -0.001100 -0.002927 0.002345 0.003186 -0.002762 0.001622 0.001480 -0.002414 0.000704 -0.001207 -0.001531 -0.000231 -0.002094 -0.003287 0.000135 -0.002516 0.004572 0.001828 0.000738 0.000085 0.004930 -0.000686 0.002453 0.000540 -0.004166 0.000777 -0.004178 0.000834 -0.002661 0.004905 0.003971 -0.002805 0.003586 -0.000096 0.001057 -0.003988 -0.003032 0.002258 0.002958 -0.003938 -0.003868
kind 0.002138 -0.003852 0.000211 0.004676 -0.004625 0.000687 0.003769 -0.000594 0.000486 0.000698 -0.000660 -0.004856 0.001743 -0.002989 0.000630 0.002123 0.001473 -0.000362 0.003785 -0.004064 -0.004104 0.004314 0.000874 -0.004679 0.000136 -0.001650 -0.003593 -0.004235 -0.002993 -0.004624 0.000690 0.001197 0.004034 -0.000905 -0.002887 0.001058 -0.002181 -0.001654 0.000622 -0.003539 0.000882 -0.000088 -0.001924 0.002391 0.002404 -0.003430 0.002738 0.001327 -0.002466 0.000967 -0.002386 0.002610 0.001563 -0.000506 0.003153 -0.004838 0.003564 -0.000470 -0.000617 0.002265 0.000443 -0.003822 -0.001337 0.002123 0.002471 -0.002300 0.004574 -0.000669 -0.004755 -0.004065 0.003669 0.003111 -0.002422 -0.002509 0.002350 0.003599 -0.003993 0.004253 -0.000414 -0.003110 -0.000315 -0.001857 -0.004774 -0.002427 -0.004473 0.002307 -0.001991 -0.000847 0.003711 0.000329 -0.000613 0.002679 -0.003448 0.003802 -0.003020 0.002979 0.004454 0.000788 0.000833 -0.000582
of 0.004278 -0.003758 -0.000625 -0.002397 -0.000051 -0.001043 0.004699 0.000638 -0.000675 -0.002285 0.000415 -0.002271 -0.003527 0.003876 -0.002189 -0.000381 -0.003709 -0.002099 -0.001315 0.002149 -0.004752 0.001456 -0.003266 -0.000356 0.001992 -0.003054 0.001780 -0.000853 -0.000856 0.000741 -0.003992 0.003207 -0.001960 -0.001456 0.000186 0.001588 0.001946 0.003581 0.001990 -0.002137 -0.003150 0.001315 0.001989 -0.004598 -0.003551 -0.000194 0.000409 0.001253 0.003924 -0.000801 0.000985 0.004590 -0.001851 -0.004871 -0.001574 -0.004319 -0.004943 -0.001556 -0.004672 0.001587 0.002935 -0.001242 0.003691 -0.002108 0.002366 -0.004105 -0.000228 0.000863 -0.001275 0.001556 -0.003226 0.003799 0.003739 -0.003802 0.003490 0.000090 -0.000504 0.000413 -0.003413 0.003898 -0.002907 -0.001393 0.004308 -0.002369 -0.000571 -0.002103 -0.001642 -0.004265 0.004123 -0.002013 -0.004354 -0.001762 -0.001658 0.002959 -0.004816 0.001383 0.003224 0.001170 0.002870 0.003528
attached 0.001815 -0.004054 -0.002232 0.000084 0.003627 -0.002362 0.001159 -0.002839 -0.002332 -0.002820 -0.000225 -0.004986 -0.002814 0.004112 0.001967 -0.000597 0.003882 0.003145 0.004699 -0.004679 0.004347 0.000521 -0.002530 -0.001660 -0.003408 0.004582 0.001868 0.002411 -0.001147 0.000427 0.000680 -0.004348 -0.001234 0.000255 -0.002581 -0.002387 0.004275 0.001850 -0.002890 0.004088 0.000177 0.000553 0.003904 0.002796 -0.002757 0.002094 0.002800 -0.001053 0.003977 -0.001255 -0.000507 0.001181 -0.004461 0.000303 0.000497 0.001883 -0.004280 -0.003129 -0.001727 0.003634 -0.002959 0.003814 -0.002004 -0.004359 0.003209 -0.004580 -0.003967 0.003080 0.001474 0.001532 -0.001099 -0.001277 0.004254 -0.001839 0.000323 0.004038 0.001309 0.001341 0.000572 0.000979 -0.002056 0.004965 -0.002592 -0.000212 -0.001194 0.004450 0.001507 0.003814 0.003407 -0.004217 -0.004376 -0.004779 0.002603 -0.004881 0.002622 -0.004454 0.002618 -0.004451 0.003393 0.001637
the 0.004959 -0.001647 -0.000718 0.000268 0.003201 -0.001624 -0.003290 -0.004305 -0.001781 -0.003553 -0.002187 0.004464 0.003235 0.002590 -0.002735 0.001922 -0.004397 0.000063 -0.004325 -0.004934 0.001491 0.001780 0.004538 0.001377 -0.003831 0.001575 -0.000808 -0.000389 -0.000514 -0.004040 0.000047 0.002445 0.001363 -0.003938 0.000029 0.000741 -0.001796 0.001932 -0.002131 0.002696 0.004668 -0.002540 0.001177 -0.004770 -0.000527 -0.004565 0.001254 -0.003978 0.000305 -0.000412 -0.004971 0.002093 0.003973 0.003218 0.004707 0.001438 0.000422 -0.002899 0.003031 -0.000418 0.001504 -0.001562 -0.004991 -0.001737 -0.004129 -0.001606 0.001073 0.000334 0.002297 -0.004724 0.003581 -0.002198 0.000663 0.001390 0.003572 -0.000498 0.001646 -0.001307 0.003321 0.002145 -0.003876 -0.000305 0.001258 0.001517 -0.000423 0.002590 0.000223 -0.001353 0.004633 0.000197 -0.002925 -0.003463 -0.004764 -0.004796 0.001606 0.000182 -0.002538 0.001942 -0.004924 -0.001722
expense 0.004704 -0.004143 -0.002861 0.000301 -0.004089 -0.002385 -0.001135 0.003943 0.000569 0.003012 -0.004825 0.000389 -0.000166 0.001639 0.000870 0.003397 -0.001009 -0.003595 -0.000034 -0.001330 0.002597 0.000154 0.003489 0.000139 -0.002909 0.003441 0.003475 -0.004560 -0.001088 -0.004153 0.004452 -0.000271 0.004728 -0.003165 0.001060 0.004394 -0.003559 0.001449 -0.001272 0.004694 -0.004169 0.001427 -0.002117 -0.000412 -0.001375 -0.000410 -0.004730 -0.002565 0.000165 -0.003107 -0.001969 0.004646 0.003988 -0.000199 -0.000898 0.004413 -0.000324 -0.004083 -0.003273 -0.003266 0.003644 -0.002441 0.002332 -0.001779 0.004056 0.004339 0.002929 -0.002958 0.003366 0.002153 0.000765 0.001174 -0.001937 -0.003231 -0.004597 -0.004769 -0.003243 0.004660 -0.003787 0.003721 0.000945 0.001698 -0.004511 0.004842 0.002669 -0.000743 0.003986 -0.004336 0.003996 -0.000959 0.002451 -0.003483 0.002114 0.003886 0.001342 -0.002159 -0.001873 0.000424 0.000487 0.000538
approve -0.001084 -0.003889 0.004603 -0.002960 0.001648 -0.004863 0.002318 0.001091 0.000733 0.001084 0.003030 -0.000361 0.004413 -0.003755 0.003768 -0.004143 0.004700 0.002673 0.003444 0.002559 0.003290 0.000361 -0.004882 -0.001629 -0.001773 0.002736 0.003621 0.002986 -0.004736 0.000376 -0.004860 0.004165 0.002896 -0.002288 0.002636 -0.000039 0.000856 0.002716 -0.002805 0.000823 -0.004835 0.001704 -0.000212 0.001320 -0.004523 0.000571 -0.000796 0.000925 0.003453 0.001035 0.004030 0.000929 0.002110 -0.001595 0.004247 -0.004183 0.002467 -0.001804 -0.001545 -0.000533 -0.001317 0.004794 0.003653 -0.004716 0.003901 0.001341 0.002342 -0.003418 0.002108 0.001285 -0.004849 -0.001008 -0.002061 0.001921 -0.004953 -0.004930 0.000927 0.004366 0.000566 0.001578 0.004533 0.004523 0.003978 0.000542 -0.001385 -0.001057 0.002431 -0.002297 0.004348 0.002843 -0.000069 -0.003521 0.000597 0.000443 -0.003292 -0.004853 0.003856 -0.001343 0.000377 0.002236
