10 100
25 -0.003573 -0.001752 -0.002947 -0.001730 -0.004439 -0.001275 -0.002655 -0.003623 0.004621 -0.000679 -0.001863 -0.002926 0.000088 0.003871 -0.001079 -0.004186 0.002727 -0.002532 0.002889 0.004411 0.003716 -0.001382 0.003526 0.003303 0.001379 -0.004306 0.001419 -0.001447 -0.004732 0.002627 0.002527 0.000421 0.000968 -0.004245 -0.004512 0.001982 -0.004081 0.003908 -0.002929 -0.002436 -0.004031 0.002750 -0.002683 -0.004012 0.002836 0.004502 0.002065 0.004262 0.003502 0.000186 -0.004761 0.003448 0.002577 0.001874 -0.004236 -0.001878 0.003361 -0.004806 -0.001145 0.004090 -0.002261 0.003122 0.002616 -0.001946 -0.004185 -0.002311 -0.001060 0.002405 -0.004549 0.000630 -0.000780 -0.002868 0.002504 0.003326 -0.001599 -0.004476 -0.004707 0.002672 0.002784 -0.001981 0.000311 -0.002798 -0.000053 -0.003927 -0.000828 -0.000997 -0.000402 -0.004690 -0.004398 -0.004633 -0.003230 -0.001238 0.004132 -0.003352 -0.001785 0.001598 0.000253 -0.000263 0.001019 0.001939
for 0.001348 -0.004257 0.003150 0.002150 -0.001594 -0.001833 0.000901 0.001323 0.004971 0.002950 -0.001548 -0.004172 -0.001875 0.001142 -0.001231 -0.004262 -0.003344 0.001025 0.003718 -0.003491 -0.003404 0.000625 -0.001913 0.004251 -0.002714 -0.001077 -0.002155 0.001779 -0.004330 0.000604 0.004023 0.000514 -0.001525 0.000318 -0.001520 0.000773 0.004042 -0.004106 -0.002368 -0.003899 -0.002336 0.004458 -0.003866 0.002041 0.003077 -0.003796 -0.001953 -0.003650 -0.003287 0.003702 -0.004284 0.004285 -0.000338 0.003288 -0.003131 -0.000474 0.000988 0.001293 0.003955 -0.003104 0.001035 0.003183 0.001452 -0.000076 0.004331 0.003105 -0.001815 0.002484 0.004922 0.002072 -0.004219 0.002872 0.001294 0.004053 -0.002006 -0.001141 -0.000135 0.001512 -0.000761 -0.004953 0.004229 0.001072 0.000053 0.003417 0.001056 0.001484 -0.002554 0.003073 0.003208 -0.002727 0.002795 -0.003910 0.000952 -0.004837 0.000073 0.003183 0.004128 0.001643 -0.000661 0.004818
January -0.002037 -0.003152 -0.003625 -0.002120 -0.000198 0.002950 0.002983 0.001143 -0.004326 -0.000977 0.003415 0.000263 0.000732 -0.001973 -0.001360 -0.001798 0.004184 0.000993 0.004925 -0.004839 -0.004852 0.000381 0.003385 -0.002568 0.001453 0.003465 -0.004628 0.003095 -0.003225 0.003021 0.003809 0.001743 -0.001047 -0.004653 -0.004387 -0.001595 0.002434 0.000471 -0.003239 0.001335 0.003872 -0.001562 0.003319 0.004153 -0.003043 -0.001904 0.002334 0.000388 0.004538 0.000482 0.003272 -0.001293 0.000780 -0.003373 -0.001150 0.003520 -0.003920 0.001845 -0.003435 -0.001432 0.001385 0.004471 0.002331 0.002788 0.003198 -0.003735 -0.003334 -0.004942 -0.004434 -0.000525 -0.004877 -0.001958 -0.003477 0.002538 -0.002299 0.004875 -0.000826 -0.003010 -0.004432 -0.000232 0.000227 -0.000447 0.004071 -0.004989 -0.002298 -0.002656 -0.002882 -0.002776 0.003942 0.001882 -0.001244 0.002166 0.004081 -0.002537 0.000444 -0.000065 -0.001629 0.000064 -0.000617 -0.003001
approvals/amendments/declines 0.003227 0.002055 0.002141 0.003519 -0.002252 -0.004010 0.004042 -0.000260 -0.004312 -0.002776 -0.003131 0.002609 -0.001685 0.000813 -0.001911 0.004301 -0.004640 0.000251 -0.001820 0.002538 0.004586 0.000931 0.001869 -0.003946 -0.003122 0.000339 0.004249 -0.000669 0.001317 0.002404 -0.000537 -0.001555 -0.000539 0.001193 -0.002650 -0.003847 -0.000568 0.001185 0.001823 0.003640 0.001297 0.002705 -0.001070 -0.003914 -0.003412 0.004319 -0.000864 -0.001086 -0.001821 0.001958 0.003313 -0.003858 0.003748 0.002466 -0.000609 0.004379 -0.000926 -0.002624 -0.001606 -0.000725 -0.001924 0.004869 -0.002295 0.000909 -0.002600 -0.003265 -0.001312 0.000950 -0.004844 -0.000273 -0.004825 -0.000722 0.003498 -0.002786 -0.004313 -0.000569 -0.004913 -0.001781 -0.004569 0.004485 0.002561 -0.003543 -0.004400 0.000180 0.003921 0.001279 0.004122 0.001076 -0.004714 -0.004529 0.001325 -0.000363 -0.000907 -0.002781 -0.002868 -0.000303 0.001660 -0.001663 0.001426 0.000889
Attached -0.001430 0.002029 -0.000932 0.002612 -0.003745 0.000030 -0.003710 -0.004544 0.004476 0.002372 -0.004272 0.004772 -0.000717 -0.000610 -0.003380 0.002125 -0.001769 0.001187 0.002386 0.002360 0.002389 0.003280 -0.001710 -0.003202 -0.002745 0.001437 -0.000524 -0.001645 0.002252 -0.002486 -0.002909 0.002152 0.003805 -0.002874 -0.002757 -0.004813 -0.001140 -0.001876 0.004357 -0.000866 0.000690 -0.000497 0.000277 -0.004944 0.002946 -0.001327 0.002053 0.001336 0.004329 -0.002651 0.000351 -0.000564 -0.000328 0.004301 -0.002041 0.001930 0.002746 0.003597 0.000775 -0.002486 -0.004100 -0.003111 0.000074 0.003215 0.000239 0.002978 -0.004946 -0.000588 0.003234 0.001312 0.003326 0.003104 -0.000275 -0.003091 0.002248 -0.000018 -0.000350 0.003467 -0.004350 -0.001648 -0.003495 0.001607 0.001698 0.002506 0.000064 -0.000197 0.000514 -0.004039 -0.001633 -0.000550 -0.002946 0.000957 0.001472 -0.003670 0.001194 0.002633 -0.003043 -0.003233 0.003935 -0.002796
, -0.001446 0.004659 0.000112 -0.001304 0.004252 0.003360 0.003978 -0.000746 0.001993 -0.002101 -0.002659 -0.001104 0.002443 -0.004943 0.002993 -0.004690 -0.001696 0.003917 -0.001612 0.001866 -0.002221 0.003548 0.001684 -0.001285 0.000972 -0.001872 -0.001271 -0.002715 0.001693 0.004885 0.001801 0.004876 -0.000981 0.004803 0.002999 0.003129 0.004035 -0.001102 0.003311 -0.004107 0.003838 0.000326 0.001600 0.001887 0.004892 -0.003734 0.002690 -0.000740 -0.000932 -0.003885 -0.004675 -0.000038 0.002724 0.003288 -0.002735 -0.000877 -0.000330 0.002645 0.001483 -0.001590 -0.000719 -0.001496 -0.004445 -0.004055 -0.002274 -0.004423 -0.001992 -0.002403 -0.000447 -0.000447 -0.003582 0.000481 -0.001801 -0.000886 -0.003318 0.000549 -0.000809 -0.004790 -0.000022 0.002347 0.003399 -0.003695 -0.004095 -0.002197 -0.001204 -0.004702 0.002685 -0.004706 -0.002312 -0.002674 -0.003832 -0.002844 -0.000503 -0.004751 0.002509 -0.001071 0.003471 -0.001954 0.001379 -0.004583
EOL -0.003837 0.002916 0.000407 0.002909 -0.001099 -0.004314 0.000148 0.003542 -0.000369 0.000467 -0.002190 0.001145 0.003266 0.002223 0.002840 0.004716 -0.002758 -0.000235 0.001169 -0.004840 -0.003367 0.001492 -0.003229 -0.000426 -0.001739 0.002265 -0.004888 -0.003605 0.000463 -0.002632 -0.004094 -0.001610 -0.002920 0.000291 0.002160 -0.000854 -0.002779 0.003523 0.004894 -0.002633 -0.002846 -0.002224 -0.003115 0.002687 0.004934 0.004590 0.001887 0.004857 -0.004772 -0.004437 -0.003334 -0.003051 0.000620 -0.002075 0.000296 -0.000130 0.001586 -0.000358 0.003508 -0.003397 -0.004700 -0.004774 0.002553 0.000916 0.002286 -0.000396 -0.000225 0.002149 -0.000230 0.000759 -0.000800 -0.001573 -0.000996 -0.000414 -0.002583 -0.001063 -0.004457 0.002406 -0.002963 0.003352 -0.002619 -0.002918 0.003221 -0.000146 0.003287 -0.001158 -0.000845 -0.003039 -0.004923 -0.000726 -0.002451 -0.004962 0.002847 0.000326 -0.002014 -0.003843 0.000636 -0.002105 -0.004154 -0.004783
2001 -0.004411 -0.002399 -0.002218 -0.004002 0.003588 -0.003158 -0.003704 0.000893 0.004400 0.002099 -0.002713 -0.002285 0.002240 -0.004629 0.000920 -0.001779 0.004533 0.000693 0.003191 -0.000502 0.003802 0.001569 -0.003067 -0.004098 -0.003166 -0.002465 0.000674 0.001532 0.001723 0.001184 0.004918 0.004134 -0.004576 0.003588 0.004429 0.002355 -0.000551 -0.000103 0.004972 -0.001126 -0.002035 0.000747 -0.002217 0.001926 0.003315 0.001213 0.000689 -0.003777 -0.002193 0.003478 -0.000521 0.003199 0.002208 -0.001085 0.000800 0.001508 0.003387 0.002395 0.004467 0.000514 -0.004610 -0.002594 0.003924 -0.000082 -0.002344 -0.001592 0.004295 0.004137 -0.002636 0.001055 -0.001184 -0.003198 -0.003441 0.002222 -0.003766 0.004273 0.002215 0.003742 0.003601 -0.001983 0.002837 0.003686 -0.000081 0.000403 -0.001506 -0.003302 -0.001762 0.002492 -0.000438 0.002494 0.001977 0.002013 -0.002429 -0.004715 -0.000889 0.001370 -0.004521 -0.001463 -0.001844 -0.003730
are -0.000674 0.004018 -0.003073 -0.002265 -0.001222 -0.001828 0.002547 0.003647 -0.004820 0.004232 0.000957 -0.003879 0.002279 -0.002648 -0.003110 -0.004823 -0.002617 0.002384 0.003042 0.002367 -0.002318 0.001512 0.001256 -0.000317 0.004990 0.003550 0.001173 0.004743 0.004006 -0.004196 -0.002524 -0.000897 -0.001099 -0.003168 -0.004249 -0.001060 -0.001476 -0.002296 0.001872 0.000904 -0.003517 -0.003370 0.000036 -0.003048 0.004584 -0.003260 -0.000414 -0.003086 -0.003546 0.001217 -0.004296 -0.001163 -0.004275 0.000858 -0.001089 0.001081 0.003482 0.000026 0.003388 0.003971 -0.003852 0.003948 -0.004370 0.001869 0.001928 -0.002331 -0.000350 -0.002980 -0.000227 0.003192 -0.002495 -0.001524 0.001852 -0.002454 -0.004800 -0.000951 0.002434 0.001076 0.000744 0.003256 -0.001301 0.002130 0.002959 0.000140 -0.003184 0.001213 -0.003918 -0.001556 0.003974 -0.004472 -0.004394 0.000353 0.001172 -0.000156 0.000579 0.003222 0.000512 -0.003714 0.000567 -0.004949
. -0.001641 0.003936 0.001144 -0.002721 -0.000218 -0.003234 -0.004047 0.001572 -0.003528 -0.004850 -0.002738 0.000859 0.002052 -0.000110 0.003089 0.001067 -0.002005 0.004993 0.003921 0.002844 0.000867 0.000176 -0.004556 -0.003327 0.003126 0.001654 -0.004615 0.003150 0.000620 0.003582 -0.000628 -0.001884 -0.004484 -0.000277 -0.000674 0.000033 -0.004117 0.003713 0.003303 -0.002067 0.002472 0.000890 -0.000195 0.003511 -0.000827 0.001903 0.001418 -0.004667 0.000463 0.002451 -0.002587 0.000901 0.004022 0.001069 0.002437 0.000595 0.001251 -0.000571 0.002232 0.004208 -0.003602 0.002403 -0.000822 0.004048 -0.003725 -0.001151 0.000869 -0.000594 0.004074 0.003989 0.002323 0.000799 0.003424 -0.004473 -0.003069 -0.000236 -0.003142 0.003750 0.004040 -0.004459 0.003883 0.000039 0.003318 0.001120 0.000676 0.002471 0.003233 -0.001707 0.002740 0.000319 -0.003022 -0.002422 -0.001565 -0.001915 -0.000473 0.001799 0.003483 0.000968 -0.002125 0.000060
