9 100
me -0.003486 0.004122 0.004910 -0.004561 -0.000716 0.000624 -0.000861 -0.000394 0.003285 -0.001404 -0.002031 0.000896 -0.003983 0.000556 0.000979 0.004857 -0.003306 0.001079 -0.000728 0.001560 -0.004905 0.004157 -0.002809 -0.000093 0.002180 0.000238 0.003206 -0.001177 -0.001638 0.000360 -0.003573 -0.002875 0.001462 0.002719 -0.000402 -0.000134 -0.003471 0.001972 -0.001377 0.000893 -0.004110 -0.001737 0.001487 0.000381 0.001908 -0.004288 0.003182 -0.002390 0.003232 -0.001838 0.002787 -0.001542 0.000180 0.003292 -0.004293 0.002221 0.001987 0.001253 -0.004468 -0.002938 0.001022 0.001728 -0.000830 -0.003546 0.002303 -0.004238 -0.003572 -0.000466 0.003847 -0.001146 -0.001071 -0.000321 -0.003874 -0.004204 -0.003896 0.004701 -0.000979 -0.004628 -0.004590 0.001983 -0.003851 0.003504 0.002842 0.004950 -0.004756 -0.001933 -0.002035 0.001887 0.002365 -0.004764 -0.000712 -0.002150 -0.002430 0.000072 -0.004210 0.002540 -0.004276 0.000322 -0.000670 0.000279
send -0.001885 -0.003116 0.000010 -0.001503 -0.000088 0.001859 0.000399 -0.001758 -0.002147 0.002487 0.003847 0.001226 -0.003715 -0.001961 0.004315 -0.002618 0.001319 0.004132 0.000426 -0.004857 -0.004831 -0.004599 -0.004424 0.001028 0.000946 0.000699 0.002562 0.000265 -0.001790 -0.000402 -0.003664 0.004996 -0.001497 0.001154 0.001047 0.004441 -0.003514 0.004665 -0.002851 0.003506 0.004450 -0.001910 -0.004571 0.002336 0.003010 0.001567 0.000303 0.003278 0.003738 -0.004840 -0.000269 -0.002259 -0.003826 -0.001591 -0.000289 0.004206 0.002324 -0.002259 0.000819 0.000092 -0.001705 0.002435 0.004992 0.000074 -0.003308 0.002259 0.003020 -0.003877 0.002133 -0.001133 0.001053 0.002847 -0.002736 -0.004519 0.001194 0.000589 0.000040 -0.001459 0.003692 0.003719 0.003594 -0.004826 0.004091 -0.001913 -0.000357 -0.003518 0.004026 -0.004009 -0.004876 0.001067 0.004101 0.004204 0.002940 0.004304 0.000222 -0.003986 -0.001962 0.002873 -0.000484 -0.002245
CPUC -0.000583 -0.001948 -0.001443 -0.002835 0.001202 -0.002837 0.004400 -0.002854 0.002658 0.001103 0.003793 -0.003431 0.001289 0.004943 0.000977 0.004221 -0.004545 -0.000790 0.002334 0.003973 -0.002640 0.004810 0.000473 -0.000565 -0.001219 -0.002156 0.004953 0.001202 -0.002202 0.000039 0.004677 -0.000366 0.002959 0.002729 -0.000925 -0.002313 0.002233 0.001641 -0.003538 0.000935 -0.000726 0.004431 -0.000135 0.001875 0.004487 -0.002346 0.001770 -0.004866 -0.000450 0.003545 0.001332 0.004072 -0.001978 0.004505 -0.002319 0.003082 -0.000158 -0.001439 0.001897 -0.004800 0.003863 -0.000331 0.004557 0.004098 0.004334 0.003225 -0.003620 -0.001480 0.000742 -0.004559 0.003872 -0.004594 -0.003369 0.000880 0.000883 0.000459 -0.001333 -0.001250 0.002616 -0.000720 0.000806 0.000417 -0.004792 -0.001183 -0.002852 -0.002631 -0.001878 -0.000993 0.001117 0.002850 -0.002126 -0.000186 -0.002937 0.004923 -0.002554 -0.000926 0.002079 0.003953 -0.004765 -0.002997
Can 0.000535 0.001572 0.002771 -0.001111 -0.003866 -0.001213 -0.000270 0.002251 -0.000885 -0.000611 0.003508 0.004506 0.000886 -0.002940 -0.003388 0.000364 0.001713 0.001188 0.004856 0.000583 -0.002149 0.002323 0.004628 -0.000778 -0.002712 0.002263 -0.003911 -0.002087 -0.001267 -0.004900 -0.001061 0.002956 0.002744 0.004171 -0.001322 -0.000399 -0.001571 -0.003119 0.002524 -0.001273 -0.004220 -0.002085 -0.000917 0.004782 0.000452 0.002182 0.002466 -0.004468 -0.003408 0.001629 -0.001730 0.002674 0.001117 -0.002702 -0.004540 0.001555 -0.000630 0.001715 0.000104 -0.000224 0.001634 0.001420 -0.003797 0.003106 0.001714 -0.003117 0.000243 0.004348 0.000463 0.003209 0.002191 -0.001566 -0.003141 -0.003131 -0.003609 -0.000130 0.004021 0.003708 -0.003289 0.003308 0.000663 0.000059 -0.004399 -0.004665 0.002450 -0.001531 -0.002275 -0.004893 -0.003986 0.001082 0.003805 0.003545 0.004166 -0.002318 -0.002730 -0.002379 0.002169 -0.001198 -0.003186 -0.003141
you 0.004685 -0.000271 -0.003975 0.004790 -0.000138 0.003446 -0.003721 -0.000851 0.004985 0.001409 0.000335 -0.003380 -0.001973 0.002590 -0.004523 -0.001485 -0.003901 -0.003661 -0.003995 0.003512 -0.004617 -0.001536 -0.003547 0.000423 -0.003952 -0.000242 -0.001408 -0.002871 0.002419 0.001446 0.001715 -0.000472 -0.004578 0.003246 -0.004215 0.001489 0.002624 0.001244 -0.004926 0.001382 -0.003390 -0.001174 0.000978 0.002425 -0.003540 0.002399 -0.001580 -0.000056 0.004379 -0.003727 -0.003764 0.002082 0.003156 -0.000964 -0.002572 -0.004181 -0.002830 0.004559 -0.001100 -0.004783 -0.004804 0.003811 0.002480 -0.001700 0.002795 0.000467 0.003752 -0.004360 -0.004640 -0.000166 0.000193 -0.003543 -0.002294 0.002228 0.003585 -0.002086 0.004340 0.001085 0.002029 0.004940 0.004508 0.003963 -0.003062 -0.001803 -0.004092 0.003734 -0.000604 -0.001616 -0.000772 0.000818 0.002523 0.003522 0.004667 0.004388 0.001756 -0.002778 -0.001341 -0.004828 0.004888 0.004020
the 0.004958 -0.001650 -0.000719 0.000268 0.003203 -0.001626 -0.003290 -0.004304 -0.001779 -0.003555 -0.002185 0.004464 0.003234 0.002592 -0.002738 0.001924 -0.004395 0.000061 -0.004327 -0.004935 0.001491 0.001780 0.004538 0.001378 -0.003832 0.001577 -0.000804 -0.000390 -0.000513 -0.004041 0.000048 0.002447 0.001363 -0.003936 0.000030 0.000740 -0.001793 0.001935 -0.002133 0.002696 0.004668 -0.002540 0.001177 -0.004770 -0.000527 -0.004563 0.001253 -0.003979 0.000305 -0.000413 -0.004970 0.002094 0.003972 0.003216 0.004705 0.001440 0.000420 -0.002899 0.003031 -0.000418 0.001504 -0.001561 -0.004990 -0.001737 -0.004128 -0.001604 0.001072 0.000334 0.002299 -0.004723 0.003579 -0.002198 0.000662 0.001392 0.003573 -0.000500 0.001646 -0.001308 0.003320 0.002148 -0.003878 -0.000302 0.001259 0.001515 -0.000421 0.002589 0.000222 -0.001351 0.004631 0.000198 -0.002927 -0.003464 -0.004762 -0.004795 0.001606 0.000178 -0.002538 0.001942 -0.004923 -0.001721
order 0.001098 0.002811 -0.002203 0.004023 -0.001340 0.002976 0.002713 0.001350 0.003733 0.000708 -0.001924 0.001613 0.001760 0.004968 0.001128 0.001332 -0.003500 -0.000973 -0.004198 0.004400 -0.000095 0.000063 -0.001179 0.003829 -0.003604 0.001631 -0.003049 -0.004609 -0.004750 0.001940 0.001046 -0.003467 -0.003956 -0.004077 -0.000308 -0.002128 -0.003424 -0.002438 0.001756 0.001739 0.000682 -0.002654 -0.002551 0.002651 -0.001301 0.000674 -0.003503 -0.004868 0.001173 -0.002677 -0.002250 -0.002595 -0.003009 0.003595 -0.001952 -0.002498 -0.002609 -0.002598 0.001111 0.001103 0.000480 -0.003880 -0.000436 -0.002431 -0.002892 0.004624 0.002381 -0.002274 0.003996 0.004884 -0.004639 0.002385 0.004941 0.002254 -0.002236 -0.001358 -0.001853 0.004017 -0.000405 0.004292 -0.000725 0.002613 0.000356 0.003103 0.002759 -0.004118 0.002486 -0.004879 0.004610 0.004504 -0.002315 0.000135 -0.003403 -0.002842 0.004489 -0.000005 -0.003248 0.003336 0.003013 0.002330
final 0.002533 -0.003159 -0.000525 -0.002860 -0.000669 0.001252 -0.002927 0.004209 -0.004722 0.003688 -0.002229 -0.003077 -0.002092 0.002402 0.003852 0.000007 -0.004687 -0.002793 -0.002781 0.001028 0.004085 0.004096 -0.003297 -0.000038 0.003639 0.004041 0.001336 0.002199 -0.000188 0.002757 0.000514 0.001534 0.003829 -0.000150 0.004571 -0.000544 -0.003130 0.000706 0.004636 -0.001679 0.003878 0.004484 -0.003633 -0.002733 -0.001183 0.002635 0.003526 -0.000178 -0.003979 0.004671 -0.002025 -0.001522 0.002654 -0.000732 0.004173 0.002351 0.000874 -0.001706 -0.002874 0.002040 0.004323 0.004399 0.000166 -0.003176 -0.003402 0.001931 -0.001297 -0.001108 0.004259 -0.002481 -0.000093 0.001146 -0.002283 -0.001359 -0.003539 0.003539 -0.001971 -0.002813 -0.003584 -0.001949 -0.002791 -0.004426 0.003438 -0.004125 0.002772 -0.003552 -0.004248 -0.003376 0.000712 -0.001236 -0.000538 0.004042 -0.004551 0.002178 -0.001445 -0.003901 -0.003855 -0.003291 -0.003867 0.000764
? 0.001872 0.001632 0.004021 0.000333 -0.004492 0.003483 -0.001686 -0.003661 -0.001847 0.002781 -0.003435 -0.002424 -0.004460 -0.002100 0.003578 -0.003745 -0.002629 -0.000847 0.002024 -0.001020 0.000493 -0.004470 0.000162 0.003360 0.001802 -0.004884 -0.004947 0.000777 0.002501 0.001185 0.000892 -0.001747 -0.001278 -0.002153 -0.003286 0.002108 -0.002254 -0.003357 0.002613 0.003969 -0.000950 -0.003633 0.001924 -0.002402 -0.002518 -0.003988 0.002800 -0.001030 0.004765 0.001891 -0.002488 -0.002791 -0.003737 0.004735 0.002026 -0.001429 0.001948 -0.003607 0.001316 -0.001151 0.002178 -0.001184 0.001209 -0.003501 -0.001988 -0.001607 -0.002124 -0.001319 -0.002960 0.000699 -0.001543 -0.000115 0.001968 0.000514 -0.004801 0.003010 -0.000738 0.000470 -0.001228 0.003156 -0.000129 -0.002550 -0.002759 0.001776 -0.002189 0.000176 0.003879 -0.004665 0.001490 -0.003379 0.004864 0.003373 0.002275 0.001611 0.004825 -0.001689 -0.004461 -0.004337 -0.004591 -0.000302
