18 100
FYI -0.001208 -0.001284 0.003266 0.003453 0.002541 0.000096 0.002801 0.003995 0.003798 -0.004170 0.004401 -0.001406 -0.001806 0.004020 0.002827 0.000617 0.004957 0.001307 -0.003010 -0.003677 -0.003085 -0.000435 0.004555 0.000333 -0.001252 -0.002020 0.004653 0.002349 -0.001200 -0.002139 -0.002811 -0.000088 -0.000144 0.000165 -0.002400 -0.000315 -0.003608 0.000342 0.004858 0.003463 -0.003915 -0.002482 -0.001099 0.002086 0.000360 -0.003311 0.001698 -0.000992 0.003557 -0.001617 -0.002577 0.001165 0.001643 0.000351 -0.003629 -0.003551 -0.002821 -0.002454 0.002631 -0.000027 0.001298 0.003062 -0.001767 0.002466 0.000383 -0.003640 0.000720 0.003193 -0.001059 -0.000595 0.004732 -0.004766 -0.004829 -0.004509 0.000050 -0.003480 -0.002054 -0.000096 0.004164 -0.000782 0.002624 -0.004066 -0.002629 -0.002804 -0.004880 -0.004578 0.001786 -0.002340 -0.000945 -0.000544 0.003042 0.000576 -0.004712 0.003524 -0.004383 -0.001784 0.001703 -0.001811 0.000774 -0.001764
I -0.004332 0.003341 -0.000118 -0.001212 -0.001454 0.001110 -0.002979 0.003884 0.002102 -0.000960 0.001592 -0.001641 0.000310 0.002064 -0.000952 0.002250 -0.003589 -0.004858 0.001653 -0.004226 0.003862 0.002873 0.003282 0.001644 0.004873 0.003479 0.000132 -0.003155 -0.003520 0.003249 -0.004562 0.001506 -0.003346 -0.001409 0.001142 0.003921 -0.002997 -0.001366 0.004158 -0.002455 0.001949 -0.001497 -0.001811 0.001029 -0.003568 0.004273 0.004591 0.002417 0.003170 0.002302 0.004610 -0.002368 -0.002393 0.000395 0.000588 0.003897 -0.003854 0.000406 0.002666 -0.003064 -0.000149 0.003152 0.004346 -0.002226 -0.001087 0.001813 0.002885 0.002739 0.004422 0.001412 -0.000230 -0.002494 -0.002256 0.001102 0.002404 0.001624 -0.003100 -0.002979 -0.002416 0.003539 -0.002434 0.003328 -0.004861 -0.003248 0.003518 0.003128 0.001461 0.002789 -0.001912 -0.002488 -0.004100 0.002000 0.002147 0.003390 -0.003590 -0.003577 0.003162 0.003010 -0.001799 -0.004727
recall -0.002398 0.000937 -0.003227 -0.004786 0.002801 -0.001451 -0.003850 -0.004719 -0.000612 0.001803 0.004067 0.001576 -0.000293 0.002903 0.003898 -0.001796 -0.000502 -0.004658 0.003027 -0.001181 0.000303 -0.002709 -0.003284 0.002547 -0.000178 -0.000455 0.003692 0.003147 -0.003709 0.002082 0.004241 0.004216 -0.003529 0.004496 -0.001495 0.000883 0.004910 0.001459 0.004369 -0.002017 -0.002255 0.002961 -0.000240 -0.001958 -0.001244 -0.004104 -0.002759 -0.002920 0.003023 -0.002387 0.002922 0.002778 0.002044 -0.002723 -0.001969 -0.000909 0.004120 0.001489 -0.003590 0.000026 -0.003662 -0.004416 -0.004797 0.001229 0.002188 -0.001677 0.004595 -0.000432 -0.000773 0.003377 0.004655 -0.002270 -0.004584 -0.001798 -0.002769 -0.001184 0.000684 -0.001971 -0.000929 -0.000243 -0.004497 -0.001695 -0.004372 0.001712 0.001115 -0.000673 -0.004608 0.003773 -0.000126 -0.002697 -0.002297 0.001207 -0.001318 -0.000144 0.002187 0.003680 0.002628 -0.001754 -0.004461 -0.004178
discussion 0.004871 -0.003607 -0.003935 -0.002445 0.002286 0.004911 -0.002803 0.000124 -0.004478 -0.001056 -0.003358 -0.002308 0.002733 0.000501 -0.003565 0.001335 0.003030 -0.004029 -0.004622 0.002304 -0.003479 -0.002884 0.002024 -0.001456 -0.004180 0.004759 -0.003445 -0.003332 0.001520 0.004437 0.002632 -0.002290 -0.003622 0.003329 -0.004603 0.004730 -0.003893 -0.004616 -0.002384 -0.003608 0.002636 0.000114 -0.004815 -0.003137 -0.001826 -0.003319 -0.001262 0.004558 -0.003290 -0.002107 -0.002139 0.003496 -0.002089 0.001390 -0.000363 -0.004779 0.002436 -0.004313 -0.001977 0.002072 -0.003228 -0.002973 0.000237 -0.002691 -0.002490 0.003783 -0.003679 0.000164 0.003898 0.002137 0.001367 0.001043 -0.004771 0.002194 0.003072 -0.002447 -0.004473 0.004358 -0.001644 -0.001164 -0.002268 -0.000738 0.000099 -0.001421 0.002370 0.000098 0.000752 0.004518 -0.003596 0.001857 0.003443 -0.001830 0.000386 0.000642 -0.000706 -0.001860 0.004784 -0.001764 0.001221 -0.001476
earlier 0.000637 -0.002516 0.001812 0.002987 -0.003082 0.000575 0.003678 -0.000035 0.000356 -0.004610 -0.003111 0.002065 0.000726 0.002868 -0.000389 0.001183 0.002981 0.003693 0.002194 -0.002885 0.003348 -0.004833 -0.001709 -0.003983 -0.002738 0.003465 -0.000722 -0.000290 -0.000869 -0.000479 -0.000191 -0.004606 0.000386 0.003779 -0.003056 0.002172 -0.000959 0.000421 0.004644 -0.004127 -0.001035 0.004090 0.002618 0.001481 0.003391 -0.001421 0.000436 -0.002276 0.004488 0.001801 0.001157 -0.004652 -0.003722 0.000926 -0.004703 0.003980 0.002657 0.001351 -0.002906 0.003303 -0.002217 -0.002736 -0.004991 -0.001297 0.001697 0.003601 -0.000636 -0.003432 0.001774 0.002521 -0.003172 0.001686 0.002520 -0.001454 0.002202 -0.001621 -0.003307 -0.001672 -0.000906 0.000376 0.000151 -0.001575 0.000709 0.001893 -0.001364 0.004614 0.004806 -0.001933 0.002560 0.002720 0.000477 0.000232 0.002225 -0.002858 -0.001774 0.004472 0.003799 -0.002492 -0.001908 -0.004406
had -0.001513 0.002606 0.000993 0.004615 0.002325 0.003176 0.000418 -0.000736 -0.003189 -0.004949 -0.003639 0.000994 -0.001475 0.004146 -0.000074 -0.003167 0.003092 -0.002585 0.000574 0.003655 -0.000288 0.001331 0.000713 -0.003435 0.003424 -0.001174 -0.002502 -0.002814 0.003302 0.002917 0.004132 -0.001407 0.004414 -0.002134 -0.001807 -0.002940 0.004190 -0.003353 0.002169 0.003615 -0.003883 -0.004767 0.002012 0.002419 -0.001157 -0.001096 0.003986 0.004446 0.004845 0.004694 0.003347 -0.002596 0.000454 0.003920 0.000970 0.000275 -0.001282 -0.003971 0.000187 0.004393 0.001670 -0.004555 0.003149 -0.003555 -0.001899 0.000345 -0.000134 -0.000144 0.003220 0.000906 -0.000233 0.004173 0.003120 -0.001564 -0.001609 0.000232 -0.001561 0.000839 0.003583 0.001840 -0.000730 0.001759 0.002286 -0.002040 0.000927 -0.003126 -0.003149 -0.003326 0.003418 0.001466 0.003187 0.004594 -0.003693 0.002944 -0.004470 0.002960 0.002239 -0.001972 -0.000688 0.004104
As -0.000551 0.000290 0.001111 -0.002981 0.002428 0.002687 -0.003951 0.004068 -0.001175 -0.004268 0.001726 -0.003841 0.000583 -0.002777 -0.003635 -0.000821 0.000376 0.003365 -0.004802 0.001865 0.001428 0.004897 0.001546 -0.001475 -0.004307 -0.000850 0.004412 0.002361 -0.003489 -0.003485 -0.003599 0.004594 0.001686 -0.003980 -0.004952 0.002918 -0.000297 0.003862 0.000545 0.004011 0.004794 -0.003414 -0.002445 -0.002259 -0.004614 0.001761 -0.000104 0.004155 0.002723 -0.002402 -0.003554 0.000551 -0.003656 -0.000808 0.004777 0.002782 0.002242 -0.001861 -0.004284 0.002783 -0.004185 -0.002606 -0.000920 -0.001690 0.004403 -0.002347 0.001968 -0.002015 0.003882 0.003741 -0.001088 0.004204 0.002685 -0.001816 0.001652 -0.003854 -0.000705 -0.001738 0.004386 0.003620 -0.002252 0.000254 -0.004246 -0.001432 -0.001365 0.000191 0.000069 0.003153 0.004718 -0.001778 0.003450 -0.004394 -0.000798 0.002027 -0.002933 -0.000008 0.004729 -0.003876 -0.000621 0.002213
here -0.003197 -0.001094 -0.000572 -0.002592 0.001593 -0.001263 0.002517 0.003192 -0.000582 -0.000730 -0.001151 0.002877 0.001741 -0.003665 0.003629 0.004832 0.000191 -0.003557 -0.000481 -0.002436 -0.004707 0.004120 -0.002194 -0.002811 0.001859 -0.003011 0.003120 0.004627 0.000967 0.004192 -0.003736 -0.001801 0.002471 0.002479 0.002182 0.004912 0.002056 0.002767 0.000265 -0.003025 -0.003330 -0.003734 -0.003544 -0.004584 0.002831 -0.000338 0.003150 0.003818 -0.000930 0.000193 -0.004879 0.001794 -0.003519 0.004880 0.002679 -0.004079 -0.004881 0.002354 -0.004137 0.000706 -0.004830 0.000466 0.000107 0.000751 -0.001455 0.002037 -0.002424 -0.002554 0.003407 0.003130 0.004623 -0.002817 0.004128 0.004423 -0.002871 0.003073 -0.000476 -0.003683 -0.002717 -0.004134 0.001858 -0.000762 -0.000237 0.003417 -0.002344 0.003778 0.000933 -0.002426 0.001909 -0.001891 0.004566 0.000122 -0.002786 -0.002115 0.004324 -0.002243 0.000738 0.002361 -0.004736 -0.000915
. -0.001646 0.003943 0.001137 -0.002730 -0.000212 -0.003235 -0.004052 0.001574 -0.003531 -0.004849 -0.002734 0.000857 0.002055 -0.000106 0.003096 0.001065 -0.002008 0.004984 0.003925 0.002835 0.000866 0.000176 -0.004560 -0.003322 0.003130 0.001655 -0.004609 0.003153 0.000612 0.003593 -0.000630 -0.001877 -0.004489 -0.000273 -0.000678 0.000039 -0.004111 0.003715 0.003312 -0.002073 0.002470 0.000890 -0.000194 0.003510 -0.000831 0.001898 0.001420 -0.004664 0.000467 0.002452 -0.002584 0.000901 0.004021 0.001067 0.002431 0.000593 0.001255 -0.000565 0.002222 0.004204 -0.003612 0.002400 -0.000825 0.004052 -0.003726 -0.001150 0.000874 -0.000591 0.004078 0.004000 0.002332 0.000797 0.003421 -0.004473 -0.003065 -0.000240 -0.003147 0.003743 0.004034 -0.004463 0.003877 0.000036 0.003309 0.001116 0.000673 0.002476 0.003228 -0.001703 0.002744 0.000311 -0.003023 -0.002419 -0.001567 -0.001911 -0.000468 0.001801 0.003491 0.000965 -0.002133 0.000049
as 0.004607 0.004747 -0.004076 0.003512 -0.001779 -0.003597 -0.003105 -0.000300 0.003225 -0.003757 -0.001277 -0.001623 -0.003421 0.000042 -0.002390 0.001575 0.000646 -0.001127 -0.000530 -0.003162 0.000382 0.001148 0.001372 0.000325 0.002822 -0.000244 -0.004081 0.002286 -0.001834 0.004957 0.001112 0.000744 -0.002124 0.004359 -0.003247 -0.003633 0.004158 0.000943 -0.003254 -0.002451 0.004894 0.004818 0.004663 -0.004113 0.002320 0.003669 0.004146 0.000245 -0.000504 0.004033 -0.001395 0.003100 0.002759 0.004021 -0.004693 0.000288 0.001505 0.003530 0.001060 0.003709 -0.002033 -0.004042 0.002752 0.004194 -0.003648 -0.003156 -0.002344 0.000143 0.004464 0.001607 -0.003333 -0.001168 -0.003215 0.003470 0.004791 0.001016 -0.002918 0.002403 0.002982 -0.003966 -0.004549 0.001223 -0.002683 -0.003972 -0.004351 -0.002778 0.000263 -0.000674 0.000964 -0.001388 0.003983 -0.003043 -0.004619 0.004416 0.002991 0.000546 -0.003647 -0.004429 -0.003235 0.002736
Michel -0.000003 0.004986 -0.003784 -0.004812 0.003320 0.002202 -0.004566 0.004483 -0.004238 0.000161 0.004821 -0.001455 0.003111 -0.001916 0.002897 -0.002223 -0.003396 0.002758 -0.000157 -0.003229 -0.001931 -0.002246 -0.000406 -0.001268 0.004173 0.002988 0.000653 -0.001204 -0.004463 0.001954 -0.002486 0.004219 -0.000426 -0.004548 0.000599 0.000726 0.000902 0.001460 0.001938 -0.001371 -0.003801 -0.003374 0.004461 0.002625 -0.002267 -0.004119 -0.003169 0.004666 0.002963 0.004210 -0.003791 -0.003405 0.002615 -0.003144 -0.004316 0.000712 0.003406 0.003878 -0.004615 -0.003441 -0.002431 -0.003248 -0.003286 0.000579 0.000867 0.000224 -0.002991 0.002146 0.001199 0.003710 0.000877 0.001913 -0.003751 0.003990 0.004306 -0.003846 -0.001928 0.000307 -0.003243 -0.001063 0.002028 -0.004396 -0.000183 -0.004376 -0.004859 0.004305 -0.000126 -0.001797 0.000578 -0.000781 0.003489 0.003927 0.001007 -0.000390 0.003520 0.001623 0.001510 -0.003124 0.004948 -0.003611
best 0.001576 -0.001893 0.002347 -0.003604 -0.004981 -0.001634 0.004042 -0.003139 -0.002062 0.000701 0.003822 0.000903 0.004091 -0.001866 0.000751 -0.001392 0.000309 0.002147 0.002104 0.004313 -0.003793 0.001493 0.004263 -0.004022 -0.000595 -0.001679 0.001812 -0.004856 -0.003899 -0.003580 -0.003219 0.000153 0.003050 0.002670 -0.000545 -0.000726 -0.003274 0.002685 0.003661 -0.003774 -0.004287 0.001909 0.002128 -0.001039 0.004169 0.004868 -0.002694 0.001812 0.003229 0.000699 -0.002214 0.003422 -0.004099 -0.004927 -0.003245 -0.000365 0.003704 -0.001986 -0.002261 0.003262 -0.000139 -0.004901 -0.004435 -0.003804 -0.003319 -0.002436 -0.004916 -0.000705 0.004599 0.002531 -0.004228 0.003940 0.002783 -0.003730 0.003092 0.003941 0.000408 0.001375 0.002450 0.000631 0.001785 -0.004775 0.003829 0.003710 -0.001709 -0.000006 -0.000793 0.003292 0.003892 -0.000083 -0.002859 0.003968 -0.001933 0.004188 0.000876 0.004762 -0.000270 -0.002634 0.003500 0.002735
with 0.001368 0.002589 0.000186 -0.000911 0.001898 0.000164 0.004749 0.001423 -0.001559 0.001312 -0.002574 -0.003761 0.000170 0.004584 -0.000352 -0.004473 0.003054 -0.000423 -0.000752 -0.002468 -0.002184 0.001189 -0.002513 0.004521 -0.004032 -0.001102 0.001305 -0.004868 0.002630 0.004155 -0.003602 0.000393 0.000511 -0.000497 -0.003686 0.000737 0.000126 -0.003083 -0.000173 0.000486 -0.001226 0.000328 0.001293 0.004471 -0.004573 -0.002187 0.001424 -0.000701 -0.002351 0.000971 0.004222 -0.003979 -0.004269 -0.002903 -0.003194 -0.002649 0.003020 0.000611 -0.004273 -0.002795 -0.002120 0.003248 0.001081 0.004821 -0.002689 0.001851 0.000143 0.004287 -0.004370 0.002692 0.004794 0.004529 0.004262 -0.003865 0.004640 -0.003690 -0.002644 -0.002373 -0.004802 -0.002156 0.000875 -0.003587 -0.001119 -0.003794 -0.002504 -0.000218 -0.003314 0.001404 0.003521 -0.000076 -0.002746 -0.000479 -0.000285 0.003913 0.000446 -0.000087 0.002012 -0.000193 0.000386 -0.003335
the 0.004958 -0.001650 -0.000719 0.000268 0.003203 -0.001626 -0.003290 -0.004304 -0.001779 -0.003555 -0.002185 0.004464 0.003234 0.002592 -0.002738 0.001924 -0.004395 0.000061 -0.004327 -0.004935 0.001491 0.001780 0.004538 0.001378 -0.003832 0.001577 -0.000804 -0.000390 -0.000513 -0.004041 0.000048 0.002447 0.001363 -0.003936 0.000030 0.000740 -0.001793 0.001935 -0.002133 0.002696 0.004668 -0.002540 0.001177 -0.004770 -0.000527 -0.004563 0.001253 -0.003979 0.000305 -0.000413 -0.004970 0.002094 0.003972 0.003216 0.004705 0.001440 0.000420 -0.002899 0.003031 -0.000418 0.001504 -0.001561 -0.004990 -0.001737 -0.004128 -0.001604 0.001072 0.000334 0.002299 -0.004723 0.003579 -0.002198 0.000662 0.001392 0.003573 -0.000500 0.001646 -0.001308 0.003320 0.002148 -0.003878 -0.000302 0.001259 0.001515 -0.000421 0.002589 0.000222 -0.001351 0.004631 0.000198 -0.002927 -0.003464 -0.004762 -0.004795 0.001606 0.000178 -0.002538 0.001942 -0.004923 -0.001721
was -0.000494 -0.002935 0.002680 0.001354 -0.004708 0.002167 -0.002174 -0.000412 0.004561 0.004021 -0.002969 -0.002321 -0.003101 -0.002701 -0.000861 -0.002986 0.001988 0.004922 0.001195 -0.001467 -0.001399 0.001589 0.004906 -0.002298 0.001228 0.002156 0.002718 -0.003867 -0.002221 0.000486 0.002968 -0.000699 0.003540 0.002831 -0.004850 -0.001166 0.004183 -0.003051 -0.003237 -0.002971 -0.001802 0.000501 -0.004645 0.003188 -0.000323 -0.004275 0.002135 0.003544 0.003041 -0.002757 -0.004811 0.000336 -0.003841 0.004522 -0.000886 -0.001060 -0.001926 -0.003255 0.003958 -0.003517 0.001239 0.001710 -0.000849 -0.004233 -0.000385 -0.004892 -0.000081 0.002301 0.004764 -0.000621 0.003837 -0.004911 0.004402 0.001223 0.004091 -0.004088 0.000288 -0.001564 0.001334 -0.004407 -0.002886 0.003501 0.002790 0.000731 0.001371 -0.000859 0.001611 0.001270 0.003759 -0.001253 -0.001301 0.002475 0.002813 0.004753 0.004265 -0.004679 0.002073 -0.001199 0.002084 0.004284
Abitbol -0.004162 -0.003225 0.003589 0.001309 -0.001493 0.002479 0.002037 0.001593 -0.001913 -0.002983 -0.003124 0.004284 -0.001007 -0.001326 -0.001662 -0.003430 -0.004908 0.000044 -0.003165 0.003378 -0.000873 0.003825 0.001784 0.003879 -0.002072 0.000431 0.003935 0.002267 0.002347 -0.000941 -0.000329 -0.002402 -0.000899 0.000072 0.001207 -0.001233 -0.004896 -0.000871 -0.004788 0.003548 -0.000290 -0.003019 0.001954 -0.000609 -0.000852 -0.000269 0.002612 -0.000333 -0.003897 0.001767 0.004729 0.002995 -0.003378 -0.004087 0.001309 0.002846 -0.004941 0.004624 -0.001609 0.003757 -0.003803 0.000584 0.000677 -0.001540 -0.000949 0.004287 -0.004352 -0.002353 0.003753 0.004600 0.003069 0.002303 0.000818 0.001016 -0.003895 0.004970 -0.000189 -0.003084 0.000035 -0.000382 -0.004450 0.000142 0.004241 -0.004351 0.004695 0.002605 0.003512 -0.003120 -0.001486 0.001458 0.003327 -0.004340 0.001774 0.001814 0.003134 -0.003419 -0.004490 0.000274 -0.003471 0.000843
today -0.001231 -0.000450 -0.002642 0.001793 0.003796 -0.001891 0.001825 0.002777 -0.004259 0.003871 -0.004091 -0.002455 0.003925 -0.000573 0.004868 -0.002930 -0.003923 -0.002537 0.003490 0.000383 0.001875 -0.000790 0.001481 0.004469 0.003403 0.000731 0.001908 0.004850 -0.003684 0.002474 0.001855 0.000558 -0.002017 -0.000354 -0.003569 -0.001380 -0.003158 -0.003217 0.003137 -0.000842 0.003646 -0.003760 0.003045 0.001471 0.003457 -0.004648 0.001329 0.003073 -0.004762 -0.004785 0.000210 0.003095 0.003563 0.001639 -0.002424 -0.004761 0.000157 -0.001561 -0.004885 -0.004740 0.003305 0.004175 0.003236 -0.002412 -0.004103 0.004338 0.004239 0.001468 0.000056 0.001274 -0.000478 0.000540 0.002352 -0.001340 0.001822 -0.002397 0.000504 -0.004865 -0.000748 -0.003063 -0.000611 0.003661 0.004990 -0.000835 -0.002445 0.004271 0.000418 -0.002471 0.003637 -0.004461 0.001329 0.003293 0.003129 -0.003221 0.000631 -0.001005 0.002203 -0.001278 -0.003736 -0.001526
can 0.002359 -0.004191 0.003345 -0.002228 -0.003816 -0.004423 -0.003200 -0.004073 0.000345 -0.004747 -0.003171 -0.004427 -0.002195 -0.001429 0.003752 0.001396 0.001854 0.000006 -0.002428 0.001979 0.001275 0.000523 -0.001589 -0.003270 0.004861 0.001804 -0.001368 0.002584 -0.001710 -0.002128 0.001400 -0.003914 -0.001462 0.003007 0.004534 0.002988 -0.002096 -0.003530 -0.004096 -0.003563 -0.004567 -0.002439 -0.002871 0.001084 0.004542 0.004033 -0.003566 0.002645 -0.002077 -0.001950 -0.003882 -0.002907 -0.004253 -0.002058 0.003860 0.001271 0.001145 0.000448 -0.004593 0.004316 -0.000655 0.004418 -0.000247 -0.002955 -0.001109 0.000297 0.003007 -0.000989 0.004389 -0.003979 0.003014 -0.002818 0.003373 0.003134 0.002196 -0.004281 0.000600 0.001872 -0.000437 -0.002465 -0.004720 -0.000675 -0.002001 0.004275 0.002307 -0.002050 0.001287 -0.003214 -0.003712 -0.002963 0.002212 -0.002553 -0.000631 -0.003147 -0.003382 -0.000658 0.002886 0.004541 -0.002941 0.000374
